SVM-light Version V6.01
2 # kernel type
3 # kernel parameter -d 
3 # kernel parameter -g 
1 # kernel parameter -s 
1 # kernel parameter -r 
empty# kernel parameter -u 
160 # highest feature index 
2597 # number of training documents 
696 # number of support vectors plus 1 
-0.19417232 # threshold b, each following line is a SV (starting with alpha*y)
-5.1437319560101713022959302179515 1:0.047270533 2:0.10635266 3:0.05342995 4:0.025193237 5:0.066763282 6:0.016666668 7:0.046014491 8:0.045338165 9:0.058526572 10:0.040458936 11:0.057222221 12:0.040531401 13:0.023333333 14:0.020217391 15:0.050241545 16:0.048985507 17:0.038405798 18:0.091497585 19:0.033574879 20:0.081304349 21:0.050847456 22:0.048426151 23:0.024213076 24:0.082324453 25:0.094430991 26:0.021791767 27:0.036319613 28:0.060532689 29:0.036319613 30:0.041162226 31:0.072639227 32:0.050847456 33:0.10895884 34:0.043583535 35:0.038740922 36:0.065375306 37:0.019370461 38:0.019370461 39:0.055690072 40:0.02905569 41:0.0023671498 42:0.005338164 43:0.0017391305 44:0.0043719807 45:0.001642512 46:0.0016666667 47:0.0018599033 48:0.0034057971 49:0.0031400966 50:0.0049758456 51:0.0017149758 52:0.0012077295 53:0.0034541064 54:0 55:0.0011111111 56:0.0044927537 57:0.00065217394 58:0.0018357488 59:0.00041062801 60:0.0030193236 61:0.1 62:0 63:0 64:0.1 65:0 66:0 67:0 68:0 69:0 70:0.050000001 71:0.1 72:0.050000001 73:0.15000001 74:0 75:0.1 76:0 77:0.050000001 78:0.050000001 79:0.15000001 80:0.1 81:0.0076328502 82:0.0081400964 83:0.0041545895 84:0.0052173915 85:0.0070289853 86:0.0016666667 87:0.0026086958 88:0.008429952 89:0.0070531401 90:0.0052657006 91:0.0044444446 92:0.0051932367 93:0.0042028986 94:0.00082125602 95:0.0042753625 96:0.0069082128 97:0.0021497584 98:0.0042028986 99:0.0017149758 100:0.0057971017 101:0.075000003 102:0.025 103:0.025 104:0.050000001 105:0.025 106:0 107:0 108:0.050000001 109:0.025 110:0.050000001 111:0.1 112:0.1 113:0.075000003 114:0 115:0.050000001 116:0.050000001 117:0.050000001 118:0.025 119:0.175 120:0.050000001 121:0.010072464 122:0.013140096 123:0.0080193235 124:0.0079951687 125:0.010241546 126:0.0042512077 127:0.0045652175 128:0.0091304351 129:0.010555555 130:0.005338164 131:0.0060628019 132:0.0074637681 133:0.0055555557 134:0.0030434784 135:0.0059178742 136:0.010217391 137:0.0043961355 138:0.0051449277 139:0.0048309178 140:0.0089130439 141:0.083333336 142:0.033333335 143:0.050000001 144:0.06666667 145:0.016666668 146:0.016666668 147:0.016666668 148:0.033333335 149:0.016666668 150:0.033333335 151:0.1 152:0.083333336 153:0.1 154:0.016666668 155:0.033333335 156:0.050000001 157:0.050000001 158:0.033333335 159:0.11666667 160:0.050000001 #2ACC_HUMAN 
-3.1459364567353502728508374275407 1:0.053910114 2:0.11739326 3:0.060674157 4:0.028179776 5:0.048921347 6:0.01411236 7:0.042764045 8:0.027078651 9:0.065438204 10:0.028067416 11:0.054382022 12:0.048606742 13:0.015011236 14:0.022764046 15:0.054359552 16:0.057393257 17:0.055348314 18:0.071393259 19:0.059213482 20:0.062157303 21:0.058558557 22:0.058558557 23:0.020270269 24:0.067567565 25:0.067567565 26:0.056306306 27:0.056306306 28:0.054054055 29:0.054054055 30:0.045045044 31:0.063063063 32:0.058558557 33:0.11711711 34:0.054054055 35:0.029279279 36:0.056306306 37:0.029279279 38:0.013513514 39:0.024774775 40:0.015765766 41:0.0015505617 42:0.0077303369 43:0.0022022473 44:0.0029438203 45:0.003235955 46:0 47:0.0018651686 48:0.00031460673 49:0.0040674158 50:0.0010337079 51:0.00038202247 52:0.0032584269 53:0.00056179776 54:0.0038202247 55:0.002764045 56:0.0014606741 57:0.00098876399 58:0.0013932585 59:0.00074157305 60:0.0046516852 61:0 62:0.1 63:0.1 64:0.1 65:0.050000001 66:0 67:0 68:0 69:0.1 70:0.050000001 71:0.1 72:0.050000001 73:0.15000001 74:0.050000001 75:0.050000001 76:0.1 77:0 78:0 79:0 80:0 81:0.0030337078 82:0.017550562 83:0.0047191009 84:0.0030786516 85:0.0055056182 86:0.00013483145 87:0.0040674158 88:0.0018202247 89:0.0056629214 90:0.0037078653 91:0.0021348314 92:0.0037303371 93:0.00080898876 94:0.004696629 95:0.0038202247 96:0.0044943821 97:0.0035955056 98:0.0087865172 99:0.0022921348 100:0.0060449438 101:0.075000003 102:0.050000001 103:0.050000001 104:0.050000001 105:0.125 106:0.025 107:0.025 108:0.025 109:0.050000001 110:0.050000001 111:0.050000001 112:0.050000001 113:0.2 114:0.050000001 115:0.025 116:0.075000003 117:0 118:0 119:0.025 120:0 121:0.006292135 122:0.023146067 123:0.0063595506 124:0.0068764044 125:0.0065617976 126:0.00031460673 127:0.0066741575 128:0.0024494382 129:0.0078202244 130:0.0037078653 131:0.0037752809 132:0.0073707867 133:0.00098876399 134:0.0054831463 135:0.0050112358 136:0.0087415734 137:0.0044943821 138:0.010112359 139:0.0064269663 140:0.011910113 141:0.06666667 142:0.033333335 143:0.033333335 144:0.1 145:0.083333336 146:0.050000001 147:0.016666668 148:0.033333335 149:0.050000001 150:0.050000001 151:0.050000001 152:0.06666667 153:0.2 154:0.033333335 155:0.016666668 156:0.06666667 157:0.033333335 158:0 159:0.016666668 160:0 #IF36_HUMAN 
-1.8486688082829156876130127784563 1:0.091046512 2:0.076686047 3:0.090930231 4:0.02616279 5:0.063779071 6:0.004244186 7:0.034593023 8:0.080930233 9:0.04005814 10:0.046744186 11:0.055697676 12:0.05145349 13:0.016220931 14:0.020523256 15:0.036744185 16:0.063488372 17:0.026802326 18:0.058023255 19:0.038023256 20:0.055406976 21:0.058479533 22:0.03508772 23:0.023391813 24:0.064327486 25:0.058479533 26:0.040935673 27:0.029239766 28:0.046783626 29:0.058479533 30:0.040935673 31:0.029239766 32:0.10526316 33:0.070175439 34:0.093567252 35:0.058479533 36:0.064327486 37:0.023391813 38:0 39:0.081871346 40:0.01754386 41:0.0043023257 42:0.017616279 43:0.0079651158 44:0.006627907 45:0.014593023 46:0.00046511629 47:0.0044767442 48:0.0044186045 49:0.0011627907 50:0.010116279 51:0.0077906977 52:0.0028488373 53:0.0003488372 54:0.0096511627 55:0.004883721 56:0.0040116278 57:0.0021511628 58:0.0061046514 59:0.0037790698 60:0.0026162791 61:0 62:0.050000001 63:0.15000001 64:0 65:0.1 66:0.050000001 67:0 68:0.050000001 69:0 70:0.1 71:0 72:0 73:0.15000001 74:0.1 75:0.1 76:0.1 77:0 78:0 79:0.050000001 80:0 81:0.013023255 82:0.03226744 83:0.013197674 84:0.0088953488 85:0.016220931 86:0.00046511629 87:0.0078488374 88:0.01261628 89:0.0050581396 90:0.01122093 91:0.012732558 92:0.014534884 93:0.0046511628 94:0.010639535 95:0.0085465116 96:0.015581395 97:0.0083139539 98:0.018372092 99:0.010174419 100:0.0073255813 101:0.075000003 102:0.025 103:0.075000003 104:0 105:0.1 106:0.050000001 107:0.025 108:0.025 109:0.1 110:0.050000001 111:0 112:0.050000001 113:0.15000001 114:0.050000001 115:0.050000001 116:0.075000003 117:0 118:0 119:0.075000003 120:0.025 121:0.02494186 122:0.040290698 123:0.03494186 124:0.010174419 125:0.020232558 126:0.00058139535 127:0.014127907 128:0.02755814 129:0.0094767446 130:0.011802326 131:0.016337208 132:0.020348838 133:0.0071511627 134:0.012732558 135:0.012034884 136:0.022325581 137:0.010930233 138:0.022383722 139:0.013372093 140:0.015 141:0.050000001 142:0.016666668 143:0.050000001 144:0.016666668 145:0.06666667 146:0.050000001 147:0.033333335 148:0.016666668 149:0.1 150:0.050000001 151:0.033333335 152:0.083333336 153:0.1 154:0.1 155:0.050000001 156:0.06666667 157:0 158:0 159:0.1 160:0.016666668 #RPB7_HUMAN 
-1.4119046258654623926531712641008 1:0.074204206 2:0.06870871 3:0.076966964 4:0.022912912 5:0.034144145 6:0.0018318319 7:0.021771772 8:0.11798799 9:0.098918922 10:0.044684686 11:0.062132131 12:0.05966967 13:0.016906908 14:0.022492493 15:0.039789788 16:0.06747748 17:0.037867866 18:0.053573575 19:0.034324326 20:0.029039038 21:0.063253015 22:0.036144577 23:0.030120483 24:0.018072288 25:0.057228915 26:0.036144577 27:0.051204819 28:0.060240965 29:0.066265061 30:0.018072288 31:0.084337346 32:0.063253015 33:0.075301208 34:0.084337346 35:0.054216869 36:0.033132531 37:0.015060241 38:0 39:0.13253012 40:0.021084337 41:0.0026426427 42:0.012192192 43:0 44:0.0036636638 45:0.0032432433 46:0 47:0 48:0.005885886 49:0.0098498501 50:0.00024024025 51:0.013513514 52:0.00024024025 53:0 54:0.00075075077 55:0.0061561563 56:0.00048048049 57:0.00024024025 58:0 59:0 60:0.00024024025 61:0 62:0.1 63:0 64:0 65:0 66:0 67:0 68:0.25 69:0 70:0 71:0.15000001 72:0.050000001 73:0.25 74:0 75:0.050000001 76:0.050000001 77:0 78:0 79:0.1 80:0 81:0.0054354356 82:0.015825827 83:0.003903904 84:0.003903904 85:0.0051051052 86:6.0060062e-05 87:0.0038438439 88:0.0091291294 89:0.013603603 90:0.0020120121 91:0.018258259 92:0.0032732734 93:0.0022522523 94:0.0032132133 95:0.010780781 96:0.002942943 97:0.0047747749 98:0.00060060062 99:0.0072072074 100:0.0020120121 101:0.025 102:0.1 103:0.050000001 104:0.025 105:0 106:0.025 107:0.050000001 108:0.175 109:0.025 110:0.050000001 111:0.1 112:0.050000001 113:0.15000001 114:0.025 115:0.025 116:0.025 117:0 118:0 119:0.075000003 120:0.025 121:0.0089189187 122:0.016396396 123:0.0073873876 124:0.0039639641 125:0.010840841 126:6.0060062e-05 127:0.0043843845 128:0.017927928 129:0.015435436 130:0.0020120121 131:0.020810811 132:0.012072072 133:0.0035735737 134:0.0063363365 135:0.012102102 136:0.010330331 137:0.011741742 138:0.0011711712 139:0.0092492495 140:0.0032732734 141:0.050000001 142:0.06666667 143:0.050000001 144:0.016666668 145:0 146:0.033333335 147:0.1 148:0.13333334 149:0.06666667 150:0.033333335 151:0.06666667 152:0.033333335 153:0.1 154:0.050000001 155:0.016666668 156:0.050000001 157:0 158:0 159:0.1 160:0.033333335 #SUCA_HUMAN 
-0.092302315717634031422278440004447 1:0.03872671 2:0.074658386 3:0.040931676 4:0.017577639 5:0.03863354 6:0.0033540372 7:0.027329193 8:0.12900621 9:0.068229817 10:0.029534161 11:0.072763972 12:0.037267081 13:0.0056832298 14:0.014223603 15:0.067391306 16:0.058074534 17:0.060621116 18:0.086086959 19:0.033322982 20:0.05173913 21:0.062305298 22:0.065420561 23:0.015576324 24:0.046728972 25:0.090342678 26:0.028037382 27:0.077881619 28:0.062305298 29:0.037383176 30:0.031152649 31:0.074766353 32:0.046728972 33:0.080996886 34:0.028037382 35:0.037383176 36:0.040498443 37:0.012461059 38:0.0031152647 39:0.15264797 40:0.0062305294 41:0.00043478262 42:0.0022049691 43:0 44:0.0035403727 45:0 46:0 47:0 48:0.01773292 49:0.0097515527 50:0.00043478262 51:0.011987577 52:0.00043478262 53:0 54:0 55:0.0031055901 56:0 57:0.0031055901 58:0.0031055901 59:0 60:0.0062111802 61:0 62:0.050000001 63:0 64:0.1 65:0.050000001 66:0 67:0.050000001 68:0.2 69:0 70:0 71:0.15000001 72:0 73:0.1 74:0 75:0 76:0 77:0 78:0 79:0.30000001 80:0 81:0.00086956524 82:0.0048447205 83:0 84:0.0039751553 85:0 86:0 87:0 88:0.050434783 89:0.010621118 90:0.0035403727 91:0.019534161 92:0.00086956524 93:0 94:0.0031055901 95:0.0031055901 96:0 97:0.0031055901 98:0.0031055901 99:0 100:0.0062111802 101:0 102:0.025 103:0.025 104:0.050000001 105:0.025 106:0 107:0.025 108:0.175 109:0 110:0 111:0.075000003 112:0 113:0.050000001 114:0 115:0.025 116:0 117:0 118:0 119:0.52499998 120:0 121:0.0017701864 122:0.0068322984 123:0.000310559 124:0.0039751553 125:0 126:0 127:0 128:0.072950311 129:0.013913044 130:0.0050931675 131:0.024378883 132:0.0036645962 133:0 134:0.0042546582 135:0.0040062112 136:0.00034161491 137:0.0098136645 138:0.010900621 139:0.00040372671 140:0.0068944101 141:0 142:0.016666668 143:0.033333335 144:0.033333335 145:0.050000001 146:0 147:0.050000001 148:0.13333334 149:0.016666668 150:0 151:0.06666667 152:0 153:0.06666667 154:0 155:0.033333335 156:0 157:0 158:0 159:0.5 160:0 #PUR_HUMAN  
-0.26306723356272349034767898956488 1:0.050828107 2:0.082396485 3:0.024893351 4:0.026775409 5:0.028017566 6:0.007528231 7:0.040790465 8:0.057716437 9:0.094265997 10:0.078833126 11:0.090313673 12:0.059372649 13:0.020062735 14:0.035345044 15:0.057503138 16:0.048306148 17:0.049134254 18:0.055834379 19:0.041405268 20:0.049974907 21:0.043969851 22:0.060301509 23:0.035175879 24:0.051507536 25:0.054020099 26:0.042713568 27:0.051507536 28:0.090452261 29:0.060301509 30:0.040201005 31:0.10050251 32:0.048994973 33:0.076633163 34:0.025125628 35:0.07914573 36:0.027638191 37:0.025125628 38:0.0075376886 39:0.057788946 40:0.021356784 41:0.0012547051 42:0.0037641155 43:0.0025094103 44:0.0012547051 45:0.0012547051 46:0.0012547051 47:0 48:0 49:0 50:0.0025094103 51:0.0012547051 52:0 53:0 54:0.0012547051 55:0.0025094103 56:0 57:0 58:0.0012547051 59:0 60:0.0050188205 61:0 62:0.1 63:0.1 64:0.2 65:0.050000001 66:0 67:0 68:0.050000001 69:0 70:0 71:0 72:0.050000001 73:0.15000001 74:0.1 75:0.1 76:0.050000001 77:0 78:0.050000001 79:0 80:0 81:0.0012547051 82:0.007528231 83:0.0037641155 84:0.0025094103 85:0.0025094103 86:0.0025094103 87:0 88:0 89:0 90:0.0025094103 91:0.0025094103 92:0.0012547051 93:0 94:0.0025094103 95:0.0037641155 96:0.0025094103 97:0.0012547051 98:0.0087829363 99:0 100:0.0050188205 101:0.050000001 102:0.075000003 103:0.050000001 104:0.1 105:0.2 106:0 107:0.025 108:0.050000001 109:0.025 110:0 111:0 112:0.025 113:0.15000001 114:0.075000003 115:0.050000001 116:0.050000001 117:0.025 118:0.050000001 119:0 120:0 121:0.0037641155 122:0.011292347 123:0.0037641155 124:0.0025094103 125:0.0062735258 126:0.0025094103 127:0 128:0.0012547051 129:0 130:0.0037641155 131:0.0025094103 132:0.0012547051 133:0.0025094103 134:0.0037641155 135:0.0050188205 136:0.0050188205 137:0.0025094103 138:0.011292347 139:0 140:0.0062735258 141:0.06666667 142:0.06666667 143:0.050000001 144:0.083333336 145:0.16666667 146:0 147:0.033333335 148:0.033333335 149:0.016666668 150:0 151:0 152:0.050000001 153:0.15000001 154:0.050000001 155:0.050000001 156:0.083333336 157:0.016666668 158:0.033333335 159:0.016666668 160:0.033333335 #TAMO_DROME 
-0.4202709024671543169837661935162 1:0.060476191 2:0.080476187 3:0.054557823 4:0.036190476 5:0.032380953 6:0.01632653 7:0.031292517 8:0.07333333 9:0.039183673 10:0.074149661 11:0.070952378 12:0.060544219 13:0.013197279 14:0.012585034 15:0.052925169 16:0.055782314 17:0.032993197 18:0.070680276 19:0.064081632 20:0.045238096 21:0.05479452 22:0.06849315 23:0.006849315 24:0.034246575 25:0.08219178 26:0.047945205 27:0.034246575 28:0.08219178 29:0.061643835 30:0.02739726 31:0.04109589 32:0.08219178 33:0.075342469 34:0.047945205 35:0.075342469 36:0.01369863 37:0.04109589 38:0.020547945 39:0.089041099 40:0.01369863 41:0.015238095 42:0.011564625 43:0.0021768708 44:0.0078231292 45:0.0059863944 46:0 47:0.00027210885 48:0.0087755099 49:0.011360544 50:0.0068027209 51:0.012040816 52:0.01122449 53:0.00013605443 54:0 55:0.014353742 56:0.0051700682 57:0.0011564626 58:0.010884354 59:0.0071428572 60:0.0011564626 61:0.050000001 62:0.1 63:0 64:0 65:0.1 66:0.050000001 67:0 68:0.050000001 69:0.1 70:0 71:0.1 72:0.1 73:0.15000001 74:0 75:0.050000001 76:0.050000001 77:0 78:0 79:0.1 80:0 81:0.02292517 82:0.025034014 83:0.0060544219 84:0.0091156466 85:0.0076870746 86:0.0024489795 87:0.0028571428 88:0.035034012 89:0.01632653 90:0.0099319732 91:0.022176871 92:0.015374149 93:0.0014285714 94:0.00040816327 95:0.016870748 96:0.013061224 97:0.0061224489 98:0.02659864 99:0.011768707 100:0.015714286 101:0.050000001 102:0.050000001 103:0 104:0.075000003 105:0.15000001 106:0.025 107:0.025 108:0.050000001 109:0.075000003 110:0 111:0.050000001 112:0.1 113:0.1 114:0 115:0.025 116:0.025 117:0 118:0.025 119:0.175 120:0 121:0.026122449 122:0.033061225 123:0.018911565 124:0.01462585 125:0.011360544 126:0.008163265 127:0.0091836732 128:0.04829932 129:0.019183673 130:0.023673469 131:0.027619047 132:0.032176871 133:0.0016326531 134:0.00414966 135:0.021904763 136:0.014489796 137:0.0074149659 138:0.031428572 139:0.01782313 140:0.026258504 141:0.033333335 142:0.06666667 143:0 144:0.06666667 145:0.11666667 146:0.016666668 147:0.016666668 148:0.033333335 149:0.11666667 150:0.016666668 151:0.033333335 152:0.06666667 153:0.083333336 154:0.050000001 155:0.050000001 156:0.016666668 157:0.033333335 158:0.033333335 159:0.15000001 160:0 #UB2V1_MOUSE
0.45553301381245825396604232082609 1:0.066934407 2:0.080120482 3:0.047135208 4:0.039625168 5:0.057068273 6:0.011793842 7:0.054993305 8:0.045421686 9:0.048099063 10:0.041619811 11:0.050187416 12:0.048862115 13:0.0072690765 14:0.031753682 15:0.052088354 16:0.053159304 17:0.029437751 18:0.055502009 19:0.04846051 20:0.072315931 21:0.071045578 22:0.054959785 23:0.012064343 24:0.077747986 25:0.049597856 26:0.040214479 27:0.021447722 28:0.053619303 29:0.060321715 30:0.049597856 31:0.040214479 32:0.076407507 33:0.079088472 34:0.045576409 35:0.03753351 36:0.042895444 37:0.10857909 38:0.013404826 39:0.046916891 40:0.018766755 41:0.0036546185 42:0.0048058904 43:0.001579652 44:0.0014457832 45:0.00056224898 46:0.00017402945 47:0.0001338688 48:0.001017403 49:0.0053949128 50:0.00044176707 51:0.0021954484 52:0.00066934404 53:0.00058902276 54:0.0001338688 55:0.00072289159 56:0.00092369475 57:0.00014725569 58:0.00022757698 59:0.00010709505 60:0.00018741633 61:0 62:0.050000001 63:0 64:0 65:0 66:0 67:0 68:0.15000001 69:0 70:0 71:0.30000001 72:0.1 73:0.2 74:0.050000001 75:0 76:0 77:0 78:0 79:0.1 80:0.050000001 81:0.005957162 82:0.0060642571 83:0.0024497991 84:0.0022222223 85:0.0020080321 86:0.00021419009 87:0.00092369475 88:0.0018072289 89:0.0068808566 90:0.0011914324 91:0.003480589 92:0.0019544845 93:0.00061579654 94:0.00073627842 95:0.0012048193 96:0.0042168675 97:0.00089692103 98:0.0013654619 99:0.0012182061 100:0.0026372154 101:0.075000003 102:0.025 103:0 104:0.025 105:0.050000001 106:0.025 107:0 108:0.075000003 109:0.050000001 110:0.025 111:0.15000001 112:0.1 113:0.125 114:0.025 115:0.025 116:0.025 117:0.1 118:0 119:0.075000003 120:0.025 121:0.0077643907 122:0.010240964 123:0.0043373494 124:0.0029317269 125:0.0037751005 126:0.00040160643 127:0.0025033467 128:0.0018875502 129:0.0072155287 130:0.0023427042 131:0.0039357431 132:0.0026372154 133:0.00084337348 134:0.0022356091 135:0.0018875502 136:0.0061044176 137:0.0031860776 138:0.003828648 139:0.0022623828 140:0.0044310577 141:0.083333336 142:0.016666668 143:0.016666668 144:0.050000001 145:0.050000001 146:0.016666668 147:0.016666668 148:0.050000001 149:0.050000001 150:0.016666668 151:0.1 152:0.06666667 153:0.15000001 154:0.06666667 155:0.033333335 156:0.033333335 157:0.1 158:0 159:0.050000001 160:0.033333335 #SSP1_BOMMO 
-0.72615792959860958610818215674954 1:0.02882494 2:0.04971223 3:0.014268585 4:0.020407673 5:0.021966428 6:0.0060191848 7:0.038273383 8:0.069424458 9:0.076810554 10:0.078249402 11:0.095419668 12:0.053477217 13:0.011318944 14:0.030263789 15:0.037122302 16:0.031558752 17:0.083501197 18:0.027122302 19:0.054244604 20:0.029256595 21:0.03125 22:0.036057692 23:0.03846154 24:0.028846154 25:0.024038462 26:0.088942304 27:0.11538462 28:0.10336538 29:0.036057692 30:0.03846154 31:0.10576923 32:0.040865384 33:0.050480768 34:0.021634616 35:0.067307696 36:0.01923077 37:0.021634616 38:0.0072115385 39:0.11538462 40:0.009615385 41:0.0031894485 42:0.0019664268 43:0.00043165468 44:0.0047961632 45:0.0047961632 46:0 47:0.0023980816 48:0 49:0.0047961632 50:0.0016067147 51:0.0085131899 52:0 53:0.004004796 54:0 55:0 56:0 57:0.0034772183 58:0 59:0.0039808154 60:0.004004796 61:0 62:0 63:0 64:0.1 65:0 66:0.050000001 67:0.050000001 68:0.2 69:0 70:0.1 71:0.1 72:0.050000001 73:0.050000001 74:0 75:0.050000001 76:0.1 77:0.050000001 78:0 79:0 80:0.1 81:0.0031894485 82:0.0019664268 83:0.00043165468 84:0.0056594722 85:0.0047961632 86:0 87:0.0071942448 88:0.004436451 89:0.0070743407 90:0.0057074339 91:0.012781775 92:0.0014388489 93:0.004004796 94:0.00071942445 95:0.0010791367 96:0 97:0.01177458 98:0 99:0.0088489205 100:0.0062829736 101:0 102:0 103:0.025 104:0.050000001 105:0 106:0.1 107:0.125 108:0.15000001 109:0 110:0.050000001 111:0.1 112:0.025 113:0.025 114:0 115:0.1 116:0.050000001 117:0.050000001 118:0 119:0.1 120:0.050000001 121:0.0041486812 122:0.0019664268 123:0.00043165468 124:0.0056594722 125:0.0047961632 126:0 127:0.0071942448 128:0.011630695 129:0.0080335727 130:0.0061870501 131:0.015179856 132:0.0023980816 133:0.004004796 134:0.00071942445 135:0.0010791367 136:0 137:0.012014388 138:0 139:0.01028777 140:0.0062829736 141:0 142:0 143:0.016666668 144:0.033333335 145:0 146:0.083333336 147:0.083333336 148:0.15000001 149:0.016666668 150:0.033333335 151:0.083333336 152:0.050000001 153:0.016666668 154:0 155:0.083333336 156:0.033333335 157:0.033333335 158:0 159:0.25 160:0.033333335 #SCR_DROME  
6 1:0.042824209 2:0.16801153 3:0.045216139 4:0.014755043 5:0.033861671 6:0.012680115 7:0.016628241 8:0.053919308 9:0.048097983 10:0.054149855 11:0.093054757 12:0.044466861 13:0.020806916 14:0.024063401 15:0.048270892 16:0.037780982 17:0.041152738 18:0.044812679 19:0.071354464 20:0.041008644 21:0.037572253 22:0.05202312 23:0.023121387 24:0.054913294 25:0.040462427 26:0.049132947 27:0.063583814 28:0.078034684 29:0.037572253 30:0.00867052 31:0.06936416 32:0.0433526 33:0.20809248 34:0.014450867 35:0.072254337 36:0.031791907 37:0.00867052 38:0.020231213 39:0.075144507 40:0.011560693 41:0.003054755 42:0.0046685878 43:0.00083573489 44:0.002536023 45:0 46:0.0032853025 47:0.00020172911 48:0.0036023054 49:0.0010086455 50:0.0074639767 51:0.011585015 52:0.0019596543 53:0.00014409222 54:0.0024207493 55:0.0065994235 56:0.0021613834 57:0.0033717579 58:0.00086455332 59:0.00074927951 60:0.00095100864 61:0.050000001 62:0.15000001 63:0.050000001 64:0 65:0 66:0 67:0.1 68:0.25 69:0 70:0 71:0 72:0.050000001 73:0 74:0.050000001 75:0.15000001 76:0 77:0 78:0.050000001 79:0.1 80:0 81:0.0070317001 82:0.018184438 83:0.0022766571 84:0.0034582133 85:0.0029106629 86:0.0043227668 87:0.0012103746 88:0.0066858791 89:0.0068011526 90:0.010951009 91:0.016138328 92:0.0047550434 93:0.0025648414 94:0.0031988472 95:0.0091642654 96:0.002997118 97:0.0051296828 98:0.0022766571 99:0.001757925 100:0.0017002882 101:0.050000001 102:0.075000003 103:0.025 104:0 105:0 106:0 107:0.050000001 108:0.175 109:0.050000001 110:0 111:0.075000003 112:0.050000001 113:0.175 114:0.025 115:0.1 116:0.025 117:0 118:0.050000001 119:0.075000003 120:0 121:0.010115274 122:0.022449568 123:0.0039481269 124:0.0039481269 125:0.0041786744 126:0.0045244955 127:0.0021613834 128:0.01054755 129:0.0095677236 130:0.013631124 131:0.023141211 132:0.0074639767 133:0.008559078 134:0.0049279537 135:0.011757925 136:0.0048703169 137:0.008559078 138:0.0042074928 139:0.0046109511 140:0.0045244955 141:0.033333335 142:0.06666667 143:0.033333335 144:0.033333335 145:0.016666668 146:0 147:0.06666667 148:0.18333334 149:0.033333335 150:0 151:0.06666667 152:0.050000001 153:0.11666667 154:0.033333335 155:0.1 156:0.033333335 157:0 158:0.033333335 159:0.06666667 160:0.033333335 #A2GL_HUMAN 
-2.0159689057673402245995930570643 1:0.03909836 2:0.068319671 3:0.030136611 4:0.025969945 5:0.024057377 6:0.015546449 7:0.025341529 8:0.061010931 9:0.093224041 10:0.099904373 11:0.12144808 12:0.04874317 13:0.0087431697 14:0.027841531 15:0.036174864 16:0.042527322 17:0.076639347 18:0.043251365 19:0.048442625 20:0.038592897 21:0.036935706 22:0.034199726 23:0.027359782 24:0.038303692 25:0.03146375 26:0.05882353 27:0.087551303 28:0.12311901 29:0.045143638 30:0.021887826 31:0.098495215 32:0.035567716 33:0.080711357 34:0.024623804 35:0.11080711 36:0.025991792 37:0.025991792 38:0.01504788 39:0.067031465 40:0.010943913 41:0.0013661202 42:0.0054644807 43:0.0011338798 44:0.0040983604 45:0 46:0 47:0.00023224043 48:0.00091530057 49:0 50:0.0030054646 51:0.0042759562 52:0 53:0 54:0 55:0 56:0.0027322404 57:0.0013661202 58:0 59:0.0027322404 60:0 61:0.1 62:0 63:0 64:0 65:0 66:0.1 67:0.050000001 68:0.15000001 69:0 70:0 71:0 72:0.050000001 73:0.2 74:0.050000001 75:0.1 76:0 77:0.1 78:0.050000001 79:0.050000001 80:0 81:0.0030601092 82:0.0086202184 83:0.0013661202 84:0.0043989071 85:0 86:0.0024180328 87:0.00023224043 88:0.0010655738 89:0.0022131146 90:0.0071448088 91:0.007814208 92:0.00068306009 93:0.0011338798 94:0.00023224043 95:0.0021857924 96:0.0035519125 97:0.0022814209 98:0.001953552 99:0.0028825137 100:0.0014344262 101:0.075000003 102:0.025 103:0 104:0.025 105:0.025 106:0.050000001 107:0.050000001 108:0.15000001 109:0.025 110:0 111:0.050000001 112:0.050000001 113:0.175 114:0.025 115:0.125 116:0 117:0.050000001 118:0.050000001 119:0.025 120:0.025 121:0.0045218579 122:0.012937158 123:0.0024043715 124:0.0045901639 125:0.00031420766 126:0.0037841529 127:0.00040983607 128:0.0015573771 129:0.0032103825 130:0.010860655 131:0.010081967 132:0.001762295 133:0.001215847 134:0.00069672131 135:0.0056557376 136:0.004043716 137:0.0037431694 138:0.0031420765 139:0.0029781421 140:0.004112022 141:0.050000001 142:0.050000001 143:0 144:0.050000001 145:0.033333335 146:0.033333335 147:0.050000001 148:0.15000001 149:0.016666668 150:0 151:0.033333335 152:0.06666667 153:0.18333334 154:0.016666668 155:0.15000001 156:0 157:0.033333335 158:0.050000001 159:0.016666668 160:0.016666668 #POK_DROME  
-5.2598782644029427046916680410504 1:0.058993056 2:0.13729167 3:0.047256943 4:0.023125 5:0.016562499 6:0.0084375003 7:0.022326389 8:0.059444446 9:0.098923609 10:0.037812501 11:0.058402777 12:0.044444446 13:0.022222223 14:0.036458332 15:0.048715279 16:0.053125001 17:0.035729166 18:0.052743055 19:0.047499999 20:0.052534722 21:0.041811846 22:0.059233449 23:0.024390243 24:0.05226481 25:0.073170729 26:0.05226481 27:0.017421603 28:0.066202089 29:0.041811846 30:0.034843206 31:0.10452962 32:0.066202089 33:0.15331011 34:0.034843206 35:0.041811846 36:0.013937282 37:0.017421603 38:0.010452962 39:0.062717773 40:0.031358887 41:0.0025694445 42:0.0037499999 43:0.0053125001 44:0.0084722219 45:0.0016319444 46:0.0030902778 47:0.0037499999 48:0.0013888889 49:0.0036458333 50:0.0010416667 51:0.014340278 52:0.0019791666 53:0.00013888889 54:0.0012152778 55:0.00097222225 56:0.0036458333 57:0.0038194444 58:0.004340278 59:0.0023611111 60:0.0019097222 61:0.050000001 62:0.050000001 63:0 64:0 65:0.050000001 66:0 67:0.1 68:0.34999999 69:0 70:0.1 71:0 72:0 73:0.050000001 74:0.1 75:0 76:0 77:0.1 78:0.050000001 79:0 80:0 81:0.0085763885 82:0.013715277 83:0.009548611 84:0.0096527776 85:0.0029861112 86:0.0031944443 87:0.0046875002 88:0.0039583333 89:0.011736111 90:0.001875 91:0.017604167 92:0.0055208332 93:0.00086805556 94:0.0030902778 95:0.0069444445 96:0.0069791665 97:0.006111111 98:0.0084375003 99:0.0046875002 100:0.0063541667 101:0.025 102:0.075000003 103:0.025 104:0.050000001 105:0.050000001 106:0.025 107:0.050000001 108:0.2 109:0.025 110:0.050000001 111:0.050000001 112:0.025 113:0.075000003 114:0.15000001 115:0.025 116:0.025 117:0.050000001 118:0.025 119:0 120:0 121:0.012013889 122:0.0215625 123:0.012430555 124:0.010590278 125:0.0038194444 126:0.0037847222 127:0.0056944443 128:0.010138889 129:0.020868056 130:0.0050347224 131:0.02111111 132:0.0096875001 133:0.0017013889 134:0.0068055554 135:0.0095138885 136:0.0096875001 137:0.0080555556 138:0.010729167 139:0.0095138885 140:0.010833333 141:0.033333335 142:0.06666667 143:0.050000001 144:0.050000001 145:0.033333335 146:0.033333335 147:0.033333335 148:0.13333334 149:0.050000001 150:0.033333335 151:0.06666667 152:0.033333335 153:0.083333336 154:0.1 155:0.033333335 156:0.016666668 157:0.033333335 158:0.016666668 159:0.050000001 160:0.050000001 #ASB8_HUMAN 
-6 1:0.07614173 2:0.08989501 3:0.062257219 4:0.023175852 5:0.039973754 6:0.0069553806 7:0.026509186 8:0.051128607 9:0.06622047 10:0.051522311 11:0.082782149 12:0.052467193 13:0.027217848 14:0.024120735 15:0.048031498 16:0.034960631 17:0.03551181 18:0.065695539 19:0.048110235 20:0.053307086 21:0.057894737 22:0.042105265 23:0.021052632 24:0.073684208 25:0.078947365 26:0.052631579 27:0.034210525 28:0.081578948 29:0.044736844 30:0.031578947 31:0.055263158 32:0.071052633 33:0.10263158 34:0.073684208 35:0.052631579 36:0.042105265 37:0.013157895 38:0.0026315791 39:0.042105265 40:0.02631579 41:0.0026509187 42:0.011784777 43:0.0061942255 44:0.0078740157 45:0.00039370079 46:0 47:0.0026246719 48:0.0028346456 49:0.0030183727 50:0 51:0.0054593175 52:0.0068766405 53:0 54:0 55:0 56:0 57:0.0026246719 58:0 59:0 60:0.00020997375 61:0 62:0 63:0 64:0 65:0 66:0 67:0.050000001 68:0.1 69:0.15000001 70:0.050000001 71:0.050000001 72:0.1 73:0.2 74:0.15000001 75:0 76:0 77:0.1 78:0 79:0.050000001 80:0 81:0.0098425196 82:0.022257218 83:0.0094750654 84:0.0081364829 85:0.0042257216 86:0.00015748032 87:0.0052230973 88:0.0032808399 89:0.0099999998 90:0.0024934383 91:0.0077952757 92:0.0086876638 93:0.00062992127 94:0.00062992127 95:0.00091863517 96:0.00039370079 97:0.0052755903 98:0.001312336 99:0.0029133859 100:0.00167979 101:0 102:0 103:0 104:0.025 105:0.025 106:0.050000001 107:0.050000001 108:0.050000001 109:0.075000003 110:0.050000001 111:0.1 112:0.075000003 113:0.22499999 114:0.1 115:0.025 116:0.075000003 117:0.050000001 118:0 119:0.025 120:0 121:0.012073491 122:0.026299212 123:0.010839895 124:0.0089238845 125:0.0099475067 126:0.00015748032 127:0.0064041996 128:0.0066404198 129:0.014015748 130:0.0065091862 131:0.012624672 132:0.011758531 133:0.00062992127 134:0.0012335958 135:0.0033070866 136:0.0012598425 137:0.0066141733 138:0.0043044621 139:0.0059580053 140:0.007559055 141:0 142:0.033333335 143:0 144:0.050000001 145:0.033333335 146:0.050000001 147:0.050000001 148:0.033333335 149:0.083333336 150:0.050000001 151:0.1 152:0.050000001 153:0.18333334 154:0.06666667 155:0.050000001 156:0.083333336 157:0.033333335 158:0 159:0.050000001 160:0 #RNF13_CHICK
4.260132373936799332625469105551 1:0.059098359 2:0.053688526 3:0.022213114 4:0.013114754 5:0.033688523 6:0.00098360656 7:0.043688525 8:0.087868854 9:0.056967214 10:0.066147543 11:0.069590166 12:0.065573767 13:0.097704917 14:0.019918032 15:0.032786883 16:0.065327868 17:0.024590164 18:0.048852459 19:0.069836065 20:0.065655738 21:0.049180329 22:0.049180329 23:0.024590164 24:0.057377048 25:0.040983606 26:0.057377048 27:0.049180329 28:0.057377048 29:0.065573767 30:0.040983606 31:0.057377048 32:0.040983606 33:0.057377048 34:0.016393442 35:0.049180329 36:0.049180329 37:0.040983606 38:0 39:0.098360658 40:0.098360658 41:0.011721311 42:0.0013114754 43:0.0040983604 44:0.00090163935 45:0.0054918034 46:0 47:0.0061475411 48:0.020163935 49:0.018278688 50:0.025409836 51:0.0053278687 52:0.00081967213 53:0.007377049 54:0 55:0.0084426226 56:0.0080327867 57:0.0062295082 58:0.0054918034 59:0.0065573771 60:0.014180328 61:0.1 62:0.050000001 63:0 64:0.1 65:0 66:0.050000001 67:0.050000001 68:0 69:0 70:0.050000001 71:0.1 72:0.1 73:0 74:0 75:0.15000001 76:0.050000001 77:0 78:0 79:0.15000001 80:0.050000001 81:0.021229507 82:0.00795082 83:0.010983607 84:0.0013934426 85:0.0096721314 86:0.00090163935 87:0.0096721314 88:0.041803278 89:0.027622951 90:0.035737704 91:0.014754098 92:0.018852459 93:0.024180328 94:0.0039344262 95:0.015163935 96:0.016393442 97:0.010573771 98:0.012213115 99:0.010901639 100:0.026803279 101:0.050000001 102:0.075000003 103:0.050000001 104:0.075000003 105:0.025 106:0.025 107:0.025 108:0.025 109:0.1 110:0.025 111:0.1 112:0.075000003 113:0 114:0 115:0.1 116:0.050000001 117:0 118:0 119:0.125 120:0.075000003 121:0.030983606 122:0.022131147 123:0.017213115 124:0.0053278687 125:0.016147541 126:0.00090163935 127:0.019672131 128:0.049098361 129:0.036721312 130:0.039016392 131:0.024180328 132:0.032950819 133:0.040573772 134:0.0074590165 135:0.01909836 136:0.024672132 137:0.016311476 138:0.02237705 139:0.029016394 140:0.031229509 141:0.050000001 142:0.06666667 143:0.033333335 144:0.050000001 145:0.033333335 146:0.050000001 147:0.033333335 148:0.033333335 149:0.1 150:0.033333335 151:0.06666667 152:0.06666667 153:0.016666668 154:0 155:0.06666667 156:0.06666667 157:0.033333335 158:0 159:0.11666667 160:0.083333336 #IPSG_MARMT 
6 1:0.049321268 2:0.051131222 3:0.033303168 4:0.026334841 5:0.025723983 6:0.0081900451 7:0.022307692 8:0.03536199 9:0.062760182 10:0.035226244 11:0.056968328 12:0.041289594 13:0.0014479638 14:0.010972851 15:0.095656112 16:0.098552033 17:0.045520362 18:0.18855204 19:0.030361991 20:0.069004528 21:0.09297052 22:0.095238097 23:0.0090702949 24:0.058956917 25:0.20861678 26:0.024943311 27:0.038548753 28:0.047619049 29:0.045351475 30:0.024943311 31:0.077097505 32:0.06122449 33:0.054421768 34:0.027210884 35:0.029478459 36:0.029478459 37:0.020408163 38:0.0090702949 39:0.040816326 40:0.0045351475 41:0.003235294 42:0.0024886879 43:0.0022624435 44:0.0031221719 45:0 46:0 47:0.00022624434 48:0.0024886879 49:0.0079411762 50:0.0054977378 51:0.0074208146 52:0.0022624435 53:0.00045248869 54:0 55:0 56:0.0022624435 57:0.0042986427 58:0 59:0.0014253394 60:0 61:0.050000001 62:0 63:0 64:0 65:0 66:0 67:0.1 68:0.15000001 69:0.050000001 70:0 71:0.2 72:0.050000001 73:0.050000001 74:0.050000001 75:0.2 76:0 77:0 78:0 79:0.050000001 80:0.050000001 81:0.011153846 82:0.0024886879 83:0.0042986427 84:0.0049321265 85:0 86:0 87:0.0024886879 88:0.0061085974 89:0.0083936648 90:0.0077601811 91:0.0096832579 92:0.0029411765 93:0.00090497738 94:0.00022624434 95:0.0042986427 96:0.0099547515 97:0.0045248871 98:0.0067873304 99:0.0036877829 100:0 101:0.050000001 102:0.050000001 103:0 104:0 105:0.1 106:0.025 107:0.050000001 108:0.1 109:0.050000001 110:0.025 111:0.125 112:0.1 113:0.025 114:0.025 115:0.1 116:0 117:0 118:0 119:0.125 120:0.050000001 121:0.012058823 122:0.0024886879 123:0.0042986427 124:0.0069683259 125:0.00022624434 126:0 127:0.0047511314 128:0.0083710412 129:0.011787331 130:0.011606335 131:0.016244344 132:0.0029411765 133:0.00090497738 134:0.00022624434 135:0.0061085974 136:0.012217195 137:0.0047511314 138:0.018778281 139:0.0036877829 140:0.0058823531 141:0.050000001 142:0.033333335 143:0 144:0.033333335 145:0.16666667 146:0.016666668 147:0.033333335 148:0.1 149:0.033333335 150:0.033333335 151:0.13333334 152:0.083333336 153:0.016666668 154:0.016666668 155:0.083333336 156:0.016666668 157:0.016666668 158:0 159:0.1 160:0.033333335 #MFA1P_CHICK
5.1446882443157528896904295834247 1:0.031111112 2:0.075416669 3:0.028055556 4:0.015902778 5:0.017916666 6:0.0014583333 7:0.022152778 8:0.13194445 9:0.076388888 10:0.083680555 11:0.070486113 12:0.030347222 13:0.11111111 14:0.014097222 15:0.061944444 16:0.022569444 17:0.04222222 18:0.066875003 19:0.031597223 20:0.046805557 21:0.013888889 22:0.076388888 23:0.0069444445 24:0.034722224 25:0.069444448 26:0.034722224 27:0.0625 28:0.048611112 29:0.020833334 30:0.020833334 31:0.097222224 32:0.034722224 33:0.083333336 34:0.013888889 35:0.097222224 36:0.027777778 37:0.0069444445 38:0 39:0.1388889 40:0.11111111 41:0.003888889 42:0.0085416669 43:0.0099999998 44:0.0024999999 45:0.0029861112 46:0.00034722223 47:0.0064583332 48:0.014861112 49:0.0061805556 50:0.010416667 51:0.0071527776 52:0.0026388888 53:0.013888889 54:6.9444446e-05 55:0.0175 56:0.0073611112 57:0.0061805556 58:0.0029166667 59:0.0072222222 60:0.0067361109 61:0.050000001 62:0.15000001 63:0 64:0.050000001 65:0.050000001 66:0.050000001 67:0.050000001 68:0.050000001 69:0.050000001 70:0.050000001 71:0.050000001 72:0 73:0.1 74:0 75:0.050000001 76:0.050000001 77:0 78:0 79:0.1 80:0.1 81:0.005138889 82:0.011527778 83:0.017708333 84:0.0056250002 85:0.0089583332 86:0.00041666668 87:0.0066666668 88:0.043819446 89:0.0073611112 90:0.027083334 91:0.013819444 92:0.0037499999 93:0.048611112 94:0.0011111111 95:0.02576389 96:0.012430555 97:0.011944445 98:0.003888889 99:0.011875 100:0.00875 101:0.025 102:0.1 103:0 104:0.025 105:0.025 106:0.025 107:0.075000003 108:0.050000001 109:0.025 110:0.025 111:0.025 112:0 113:0.075000003 114:0.025 115:0.1 116:0.050000001 117:0 118:0 119:0.175 120:0.175 121:0.010902777 122:0.022847222 123:0.019722221 124:0.0084722219 125:0.012569444 126:0.00090277777 127:0.0090277782 128:0.066597223 129:0.017152777 130:0.030347222 131:0.018124999 132:0.011527778 133:0.0625 134:0.0024305556 135:0.030972222 136:0.014027778 137:0.015347222 138:0.031041667 139:0.017638888 140:0.011875 141:0.016666668 142:0.083333336 143:0 144:0.033333335 145:0.06666667 146:0.033333335 147:0.06666667 148:0.033333335 149:0.033333335 150:0.016666668 151:0.083333336 152:0.016666668 153:0.083333336 154:0.016666668 155:0.06666667 156:0.050000001 157:0 158:0 159:0.15000001 160:0.15000001 #NEU2_CAVPO 
-2.702089584272221234328981154249 1:0.053497758 2:0.058677129 3:0.051255606 4:0.021547085 5:0.013789237 6:0.0054035876 7:0.041076232 8:0.062735423 9:0.066345289 10:0.1017713 11:0.093116589 12:0.071726456 13:0.0043946188 14:0.020313902 15:0.059349775 16:0.038654707 17:0.052466366 18:0.057713006 19:0.050336324 20:0.04251121 21:0.035955057 22:0.060674157 23:0.020224718 24:0.042696629 25:0.071910113 26:0.053932585 27:0.042696629 28:0.10112359 29:0.062921345 30:0.051685393 31:0.051685393 32:0.067415729 33:0.051685393 34:0.051685393 35:0.12584269 36:0.015730336 37:0.0247191 38:0.0044943821 39:0.060674157 40:0.002247191 41:0 42:0.0084753362 43:0.0038789238 44:0.0038789238 45:0.00060538115 46:0 47:0 48:0.0024439462 49:0.0042825113 50:0.0022421526 51:0.0012331839 52:0.00051569508 53:0 54:0.00011210762 55:0.0033632286 56:0.0015470852 57:0.0028699553 58:0.0083632283 59:0.00033632288 60:0.00085201795 61:0 62:0.1 63:0 64:0.050000001 65:0.2 66:0 67:0.050000001 68:0 69:0 70:0 71:0.1 72:0 73:0.2 74:0.050000001 75:0.050000001 76:0.050000001 77:0.050000001 78:0 79:0.1 80:0 81:0.0025560539 82:0.01103139 83:0.005605381 84:0.0038789238 85:0.00080717489 86:0 87:0.0064125559 88:0.0026457398 89:0.0086771296 90:0.0022421526 91:0.0045964126 92:0.0027802691 93:0.0021300449 94:0.00062780268 95:0.005605381 96:0.0016591928 97:0.0060313903 98:0.012533632 99:0.0062556053 100:0.0038116593 101:0 102:0.075000003 103:0 104:0.050000001 105:0.15000001 106:0.075000003 107:0.050000001 108:0.050000001 109:0.025 110:0.075000003 111:0.075000003 112:0.025 113:0.125 114:0.050000001 115:0.050000001 116:0.025 117:0.025 118:0 119:0.050000001 120:0.025 121:0.0025560539 122:0.015515695 123:0.0058071748 124:0.0040807175 125:0.0011210763 126:0 127:0.0083408076 128:0.0026457398 129:0.01603139 130:0.0026457398 131:0.0091031389 132:0.010224216 133:0.0021300449 134:0.00073991029 135:0.0074439463 136:0.0075784754 137:0.0090134526 138:0.016793722 139:0.0070627802 140:0.0059641255 141:0.033333335 142:0.06666667 143:0 144:0.050000001 145:0.13333334 146:0.050000001 147:0.06666667 148:0.06666667 149:0.06666667 150:0.06666667 151:0.1 152:0.033333335 153:0.11666667 154:0.033333335 155:0.033333335 156:0.016666668 157:0.016666668 158:0 159:0.033333335 160:0.016666668 #ABI2_MOUSE 
0.86035648280770760099045446622767 1:0.081743345 2:0.069273606 3:0.053559322 4:0.012324455 5:0.024624698 6:0.012154964 7:0.026803873 8:0.063220337 9:0.066731237 10:0.058813561 11:0.070823245 12:0.064600483 13:0.022082325 14:0.017627118 15:0.043849878 16:0.050750606 17:0.037215497 18:0.061840195 19:0.042566586 20:0.04716707 21:0.094660193 22:0.036407769 23:0.016990291 24:0.063106798 25:0.058252428 26:0.053398058 27:0.029126214 28:0.053398058 29:0.060679611 30:0.050970875 31:0.065533981 32:0.099514566 33:0.058252428 34:0.043689322 35:0.065533981 36:0.026699029 37:0.012135922 38:0.009708738 39:0.080097087 40:0.021844661 41:0.0052542374 42:0.0071912832 43:0.0035835351 44:0.0017917675 45:0.0015738499 46:0.00012106537 47:0.00092009688 48:0.0019370459 49:0.0075060534 50:0.0012106538 51:0.0055447943 52:0.0036077481 53:0.0022033898 54:0.00031476998 55:0.00036319613 56:0.0020823244 57:0.00070217915 58:0.00048426149 59:0.00055690075 60:0.00041162228 61:0.050000001 62:0 63:0 64:0 65:0 66:0 67:0 68:0.15000001 69:0 70:0 71:0.2 72:0.15000001 73:0.1 74:0.15000001 75:0.050000001 76:0.050000001 77:0 78:0 79:0.050000001 80:0.050000001 81:0.011089589 82:0.0094915256 83:0.0060532689 84:0.0024213076 85:0.0033656175 86:0.0002905569 87:0.0015254237 88:0.0041888622 89:0.0096852304 90:0.0071428572 91:0.0083535109 92:0.0061501209 93:0.002276029 94:0.0012106538 95:0.002251816 96:0.005230024 97:0.0033898305 98:0.0054963678 99:0.002251816 100:0.0031961259 101:0.075000003 102:0.025 103:0 104:0.050000001 105:0.050000001 106:0.050000001 107:0.025 108:0.075000003 109:0 110:0.025 111:0.125 112:0.125 113:0.1 114:0.075000003 115:0.1 116:0.050000001 117:0 118:0 119:0.025 120:0.025 121:0.015084745 122:0.012832929 123:0.0088861985 124:0.002929782 125:0.004479419 126:0.0026634382 127:0.002590799 128:0.0065133171 129:0.012687651 130:0.012324455 131:0.011041163 132:0.0096852304 133:0.0046246974 134:0.0018159806 135:0.0040193703 136:0.0073123486 137:0.004479419 138:0.0085714282 139:0.0033656175 140:0.0042857141 141:0.1 142:0.016666668 143:0 144:0.050000001 145:0.06666667 146:0.050000001 147:0.033333335 148:0.06666667 149:0.016666668 150:0.033333335 151:0.083333336 152:0.11666667 153:0.083333336 154:0.083333336 155:0.06666667 156:0.033333335 157:0 158:0.016666668 159:0.050000001 160:0.033333335 #HEMO_HYACE 
-0.5483281558645248798811167034728 1:0.048124999 2:0.10828125 3:0.026562501 4:0.030156249 5:0.039843749 6:0.00062499999 7:0.05421875 8:0.04265625 9:0.04265625 10:0.082187504 11:0.057968751 12:0.077187501 13:0.00390625 14:0.032343749 15:0.086718753 16:0.1109375 17:0.045781251 18:0.037031248 19:0.022031249 20:0.049218751 21:0.095238097 22:0.095238097 23:0.031746034 24:0.063492067 25:0.015873017 26:0.015873017 27:0.095238097 28:0.047619049 29:0.063492067 30:0.063492067 31:0.031746034 32:0.047619049 33:0.079365082 34:0.031746034 35:0.079365082 36:0.063492067 37:0.031746034 38:0 39:0.031746034 40:0.015873017 41:0.020781251 42:0.0390625 43:0.0057812501 44:0.026718751 45:0.0065624998 46:0 47:0.037968751 48:0.01765625 49:0.001875 50:0.0020312499 51:0.00125 52:0.026875 53:0.0020312499 54:0.0095312502 55:0.0175 56:0.040624999 57:0.0103125 58:0.016249999 59:0.015625 60:0.01328125 61:0.1 62:0.050000001 63:0 64:0.1 65:0.050000001 66:0.050000001 67:0.1 68:0 69:0.050000001 70:0.15000001 71:0 72:0.050000001 73:0.15000001 74:0 75:0 76:0.1 77:0 78:0 79:0.050000001 80:0 81:0.0253125 82:0.045000002 83:0.0096875001 84:0.027968749 85:0.022812501 86:0 87:0.03859375 88:0.032031249 89:0.037812501 90:0.046875 91:0.040937498 92:0.0503125 93:0.00390625 94:0.02578125 95:0.034375001 96:0.06671875 97:0.016249999 98:0.03140625 99:0.018750001 100:0.048593748 101:0.075000003 102:0.050000001 103:0.025 104:0.1 105:0.025 106:0.025 107:0.1 108:0.050000001 109:0.050000001 110:0.1 111:0.050000001 112:0.025 113:0.075000003 114:0 115:0.075000003 116:0.075000003 117:0.025 118:0 119:0.050000001 120:0.025 121:0.036406249 122:0.090625003 123:0.024531251 124:0.030156249 125:0.039843749 126:0.00062499999 127:0.05421875 128:0.04265625 129:0.040937498 130:0.068281248 131:0.057968751 132:0.075468749 133:0.00390625 134:0.032343749 135:0.079843752 136:0.1075 137:0.045781251 138:0.033593751 139:0.022031249 140:0.049218751 141:0.1 142:0.1 143:0.033333335 144:0.06666667 145:0.016666668 146:0.016666668 147:0.1 148:0.050000001 149:0.06666667 150:0.06666667 151:0.033333335 152:0.033333335 153:0.06666667 154:0.033333335 155:0.06666667 156:0.06666667 157:0.033333335 158:0 159:0.033333335 160:0.016666668 #NOLA3_HUMAN
2.0240132262050085643068086938001 1:0.068275139 2:0.089006267 3:0.063855566 4:0.011157864 5:0.045043271 6:0.0053387047 7:0.031402566 8:0.058752611 9:0.074204713 10:0.031650253 11:0.075658016 12:0.052485824 13:0.011119069 14:0.018525813 15:0.032852881 16:0.08273948 17:0.039844822 18:0.062094897 19:0.057302296 20:0.053046852 21:0.090447761 22:0.030149253 23:0.017014926 24:0.057313431 25:0.060298506 26:0.073432833 27:0.042089552 28:0.088955224 29:0.050149255 30:0.033731345 31:0.064776123 32:0.064179108 33:0.091940299 34:0.080895521 35:0.023283582 36:0.048059702 37:0.0032835822 38:0.0059701493 39:0.0638806 40:0.010149254 41:0.00047448522 42:0.0012444047 43:0.00075201434 44:0.00059683679 45:9.2509697e-05 46:0 47:0.0002984184 48:0.00030737094 49:0.00086242915 50:0 51:0.0002745449 52:0.00017009847 53:0 54:0 55:0.0002984184 56:0.0002984184 57:0 58:0 59:0.0002984184 60:0 61:0.050000001 62:0.050000001 63:0 64:0 65:0 66:0.050000001 67:0 68:0.050000001 69:0.050000001 70:0.050000001 71:0.15000001 72:0.050000001 73:0.2 74:0.2 75:0 76:0 77:0.050000001 78:0 79:0.050000001 80:0 81:0.00094300212 82:0.0015726648 83:0.0010474485 84:0.00059683679 85:9.2509697e-05 86:3.8794391e-05 87:0.0002984184 88:0.00061772607 89:0.0017785736 90:0.00048940617 91:0.00087138166 92:0.00052223215 93:0.00056699495 94:1.4920919e-05 95:0.00039391225 96:0.00061175768 97:0.0001492092 98:0.00035213371 99:0.00068636227 100:0.00011936735 101:0.050000001 102:0.025 103:0 104:0.025 105:0.025 106:0.125 107:0 108:0.050000001 109:0.025 110:0.025 111:0.15000001 112:0.050000001 113:0.175 114:0.1 115:0.025 116:0 117:0.025 118:0 119:0.075000003 120:0.050000001 121:0.001184721 122:0.0020919128 123:0.0012264996 124:0.00059683679 125:0.00039092809 126:3.8794391e-05 127:0.0012712623 128:0.0011459265 129:0.0021336915 130:0.00074007758 131:0.0013339302 132:0.0009042077 133:0.00056699495 134:4.1778574e-05 135:0.00044762756 136:0.0011131006 137:0.00039092809 138:0.000665473 139:0.00080572965 140:0.00029543421 141:0.050000001 142:0.016666668 143:0 144:0.050000001 145:0.016666668 146:0.1 147:0 148:0.06666667 149:0.033333335 150:0.083333336 151:0.11666667 152:0.033333335 153:0.13333334 154:0.11666667 155:0.033333335 156:0.016666668 157:0.016666668 158:0 159:0.083333336 160:0.033333335 #APLP_DROME 
4.7469461546218463254831476660911 1:0.047272727 2:0.10684849 3:0.042666666 4:0.034969699 5:0.058727272 6:0.0060606059 7:0.024242423 8:0.052606061 9:0.053757574 10:0.034242425 11:0.10072728 12:0.037515152 13:0.012121212 14:0.012545454 15:0.04709091 16:0.080242425 17:0.039454546 18:0.081212118 19:0.071393937 20:0.054363638 21:0.079268292 22:0.048780486 23:0.012195121 24:0.054878049 25:0.079268292 26:0.079268292 27:0.036585364 28:0.097560972 29:0.036585364 30:0.024390243 31:0.048780486 32:0.042682927 33:0.10365853 34:0.048780486 35:0.036585364 36:0.060975611 37:0.030487806 38:0.0060975607 39:0.060975611 40:0.012195121 41:0.00078787882 42:0.025818182 43:0.011393939 44:0.012121212 45:0.011393939 46:0 47:0.0060606059 48:0 49:0.0060606059 50:0 51:0.025030304 52:0.0060606059 53:0 54:0 55:0 56:0.0060606059 57:0.0060606059 58:0 59:0.0045454544 60:0 61:0.050000001 62:0 63:0 64:0 65:0 66:0.050000001 67:0.050000001 68:0.2 69:0.050000001 70:0.050000001 71:0.050000001 72:0 73:0.2 74:0.1 75:0 76:0.1 77:0.050000001 78:0 79:0.050000001 80:0 81:0.0068484847 82:0.042666666 83:0.023515152 84:0.018181818 85:0.017454546 86:0 87:0.0060606059 88:0.0060606059 89:0.012121212 90:0 91:0.044545453 92:0.0060606059 93:0 94:0 95:0.0060606059 96:0.012787879 97:0.0060606059 98:0.0020000001 99:0.016000001 100:0.016181817 101:0.050000001 102:0.025 103:0 104:0.075000003 105:0 106:0.075000003 107:0.025 108:0.175 109:0.050000001 110:0.025 111:0.050000001 112:0.025 113:0.175 114:0.1 115:0 116:0.075000003 117:0.050000001 118:0 119:0.025 120:0 121:0.01490909 122:0.050060607 123:0.028242424 124:0.018181818 125:0.028242424 126:0 127:0.0060606059 128:0.014121212 129:0.026969697 130:0.00066666666 131:0.050606061 132:0.018181818 133:0 134:0 135:0.012121212 136:0.030969696 137:0.012787879 138:0.013454545 139:0.016000001 140:0.022242425 141:0.083333336 142:0.033333335 143:0 144:0.06666667 145:0.033333335 146:0.050000001 147:0.033333335 148:0.13333334 149:0.050000001 150:0.016666668 151:0.06666667 152:0.033333335 153:0.13333334 154:0.083333336 155:0.016666668 156:0.083333336 157:0.033333335 158:0 159:0.050000001 160:0 #MCH_HUMAN  
6 1:0.060564101 2:0.086102568 3:0.045076922 4:0.026205128 5:0.021230768 6:0.0058974358 7:0.059641026 8:0.073897436 9:0.073641025 10:0.050256409 11:0.082307689 12:0.044974361 13:0.0068717948 14:0.018358974 15:0.092512824 16:0.067948721 17:0.024615385 18:0.04548718 19:0.024564102 20:0.060051281 21:0.046391752 22:0.12371134 23:0.015463918 24:0.067010306 25:0.072164945 26:0.020618556 27:0.020618556 28:0.082474224 29:0.051546391 30:0.06185567 31:0.072164945 32:0.051546391 33:0.10309278 34:0.041237112 35:0.051546391 36:0.020618556 37:0.025773196 38:0.005154639 39:0.06185567 40:0.005154639 41:0.002923077 42:0.018153846 43:0.010974359 44:0.011948718 45:0.00046153847 46:0 47:0.0080512818 48:0.006205128 49:0.011025641 50:0 51:0.010153846 52:0.0072820513 53:0.0029743591 54:0.0035897435 55:0.003897436 56:0.0045128204 57:0.00046153847 58:0 59:0 60:0 61:0.050000001 62:0.1 63:0 64:0 65:0 66:0 67:0 68:0.15000001 69:0.050000001 70:0.1 71:0.15000001 72:0 73:0.2 74:0.1 75:0 76:0 77:0.050000001 78:0 79:0.050000001 80:0 81:0.0075384616 82:0.026564103 83:0.014051282 84:0.014615385 85:0.005230769 86:0 87:0.014461539 88:0.013333334 89:0.020461539 90:0.012512821 91:0.01923077 92:0.0099999998 93:0.0065641026 94:0.0044615385 95:0.010871795 96:0.0063589741 97:0.0013333333 98:0.0091282055 99:0.0042051282 100:0.0032820513 101:0.025 102:0.075000003 103:0 104:0.050000001 105:0 106:0.050000001 107:0.025 108:0.075000003 109:0.050000001 110:0.050000001 111:0.075000003 112:0.025 113:0.125 114:0.075000003 115:0.050000001 116:0.050000001 117:0.075000003 118:0 119:0.1 120:0.025 121:0.0090769231 122:0.035128206 123:0.01702564 124:0.015538462 125:0.008923077 126:0 127:0.016000001 128:0.02625641 129:0.026615385 130:0.020410256 131:0.027641026 132:0.013179488 133:0.0065641026 134:0.0048205126 135:0.013384615 136:0.0074358974 137:0.0056410255 138:0.019589745 139:0.0099999998 140:0.020461539 141:0.016666668 142:0.06666667 143:0 144:0.06666667 145:0.050000001 146:0.050000001 147:0.016666668 148:0.13333334 149:0.050000001 150:0.050000001 151:0.06666667 152:0.016666668 153:0.11666667 154:0.050000001 155:0.050000001 156:0.033333335 157:0.06666667 158:0 159:0.083333336 160:0.016666668 #PACA_CLAMA 
-6 1:0.071266375 2:0.095109172 3:0.065240175 4:0.040960699 5:0.040742356 6:0.00013100437 7:0.026157206 8:0.04445415 9:0.062227074 10:0.032270741 11:0.092663758 12:0.05441048 13:0.02 14:0.013624454 15:0.033842795 16:0.058864627 17:0.02978166 18:0.081004366 19:0.043144103 20:0.081353709 21:0.065789476 22:0.02631579 23:0.0087719299 24:0.10964912 25:0.061403509 26:0.057017542 27:0.021929825 28:0.083333336 29:0.074561402 30:0.03508772 31:0.061403509 32:0.083333336 33:0.083333336 34:0.048245613 35:0.03508772 36:0.039473683 37:0.03508772 38:0 39:0.043859649 40:0.02631579 41:0.010480349 42:0.018165939 43:0.004323144 44:0.0044978168 45:8.7336244e-05 46:0 47:8.7336244e-05 48:0.0007423581 49:0.0072489083 50:0.00030567686 51:0.01672489 52:0.0019213974 53:0.00017467249 54:0.004323144 55:0.0030131005 56:0.001048035 57:0.0058951965 58:0.00056768558 59:0.0019650655 60:0.0054148473 61:0.050000001 62:0 63:0.050000001 64:0.050000001 65:0.050000001 66:0 67:0.050000001 68:0.2 69:0 70:0 71:0.1 72:0.15000001 73:0.2 74:0 75:0 76:0 77:0.050000001 78:0 79:0.050000001 80:0 81:0.013231441 82:0.025764192 83:0.0070305676 84:0.0088209603 85:0.0055895196 86:4.3668122e-05 87:0.0037117903 88:0.0093449783 89:0.0095196506 90:0.0012663755 91:0.023406114 92:0.004585153 93:0.0047598253 94:0.0062882095 95:0.011528384 96:0.0026200872 97:0.0069868998 98:0.0052401745 99:0.01069869 100:0.013668123 101:0.025 102:0.050000001 103:0.025 104:0.075000003 105:0.025 106:0.050000001 107:0.025 108:0.125 109:0.050000001 110:0.025 111:0.075000003 112:0.075000003 113:0.2 114:0.025 115:0 116:0.025 117:0.050000001 118:0 119:0.050000001 120:0.025 121:0.016331878 122:0.03510917 123:0.015196507 124:0.013580786 125:0.0065502184 126:8.7336244e-05 127:0.0040611355 128:0.012358079 129:0.018340612 130:0.0013537118 131:0.027292576 132:0.0096506551 133:0.0090393014 134:0.0063755456 135:0.013537118 136:0.013755458 137:0.0079039298 138:0.0089082969 139:0.015545852 140:0.024934499 141:0.06666667 142:0.033333335 143:0.016666668 144:0.083333336 145:0.050000001 146:0.083333336 147:0.016666668 148:0.1 149:0.050000001 150:0.033333335 151:0.083333336 152:0.050000001 153:0.16666667 154:0.016666668 155:0 156:0.016666668 157:0.050000001 158:0 159:0.033333335 160:0.050000001 #PCNA_CAEEL 
-6 1:0.049624059 2:0.12854637 3:0.065162905 4:0.022130325 5:0.056390978 6:0.012005012 7:0.021804512 8:0.041629072 9:0.043433584 10:0.030776942 11:0.082556389 12:0.047794487 13:0.018796992 14:0.012581454 15:0.063433588 16:0.075889722 17:0.038997494 18:0.069674186 19:0.066190474 20:0.032807019 21:0.07788945 22:0.065326631 23:0.010050251 24:0.040201005 25:0.062814072 26:0.082914576 27:0.022613065 28:0.097989947 29:0.045226131 30:0.017587939 31:0.045226131 32:0.042713568 33:0.13316584 34:0.075376883 35:0.030150754 36:0.057788946 37:0.022613065 38:0.012562814 39:0.037688442 40:0.020100502 41:0 42:0.010025063 43:0.0050125313 44:0.0025062656 45:0 46:0 47:0.0025062656 48:0.0050125313 49:0 50:0 51:0.010025063 52:0.0050125313 53:0 54:0 55:0 56:0.0025062656 57:0.0050125313 58:0 59:0.0025062656 60:0 61:0.050000001 62:0 63:0 64:0 65:0 66:0.050000001 67:0.1 68:0.2 69:0.1 70:0.050000001 71:0 72:0 73:0.2 74:0.1 75:0 76:0 77:0.050000001 78:0 79:0.1 80:0 81:0 82:0.015037594 83:0.0050125313 84:0.0075187972 85:0.0050125313 86:0.0050125313 87:0.0025062656 88:0.010025063 89:0.0025062656 90:0.0025062656 91:0.012531328 92:0.0050125313 93:0.0025062656 94:0.0025062656 95:0.0050125313 96:0.0025062656 97:0.0050125313 98:0 99:0.010025063 100:0 101:0.025 102:0.050000001 103:0.025 104:0 105:0 106:0.1 107:0.050000001 108:0.125 109:0.050000001 110:0.025 111:0.025 112:0 113:0.15000001 114:0.050000001 115:0.025 116:0.050000001 117:0.075000003 118:0.050000001 119:0.1 120:0.025 121:0.0050125313 122:0.01754386 123:0.0075187972 124:0.010025063 125:0.015037594 126:0.0050125313 127:0.0025062656 128:0.012531328 129:0.0050125313 130:0.0025062656 131:0.020050125 132:0.0075187972 133:0.0025062656 134:0.0025062656 135:0.010025063 136:0.0050125313 137:0.0050125313 138:0.0025062656 139:0.012531328 140:0 141:0.050000001 142:0.06666667 143:0.016666668 144:0 145:0.016666668 146:0.083333336 147:0.033333335 148:0.13333334 149:0.050000001 150:0.016666668 151:0.033333335 152:0.033333335 153:0.11666667 154:0.050000001 155:0.016666668 156:0.1 157:0.050000001 158:0.033333335 159:0.083333336 160:0.016666668 #MTERF_HUMAN
-6 1:0.093008131 2:0.089837395 3:0.059512194 4:0.027723577 5:0.030325204 6:0.010162601 7:0.024227642 8:0.06195122 9:0.03788618 10:0.040975608 11:0.054308943 12:0.065772355 13:0.016097561 14:0.027560975 15:0.065691054 16:0.088536583 17:0.037235774 18:0.054471545 19:0.068780489 20:0.043821137 21:0.049180329 22:0.090163931 23:0.040983606 24:0.073770493 25:0.040983606 26:0.057377048 27:0.057377048 28:0.049180329 29:0.065573767 30:0.016393442 31:0.032786883 32:0.10655738 33:0.073770493 34:0.081967212 35:0.024590164 36:0.032786883 37:0.0081967209 38:0.016393442 39:0.073770493 40:0.0081967209 41:0.017804878 42:0.013658537 43:0.0088617885 44:0.010162601 45:0.0062601627 46:0.00040650406 47:0.0040650405 48:0.00056910567 49:0.014390244 50:0 51:0.025121951 52:0.0087804878 53:0.0010569106 54:0.0071544717 55:0.0095121954 56:0.01300813 57:0 58:0.012195121 59:0.010081301 60:0 61:0.050000001 62:0.050000001 63:0.050000001 64:0 65:0.1 66:0.050000001 67:0 68:0.2 69:0.050000001 70:0 71:0.050000001 72:0.1 73:0.15000001 74:0.15000001 75:0 76:0 77:0 78:0 79:0 80:0 81:0.036666665 82:0.037317075 83:0.019024391 84:0.014552846 85:0.0084552849 86:0.00040650406 87:0.0050406503 88:0.011382114 89:0.019430894 90:0.0010569106 91:0.030406505 92:0.024390243 93:0.0026829268 94:0.011463415 95:0.015447155 96:0.024796749 97:0.0070731705 98:0.02601626 99:0.023252033 100:0.0065040649 101:0.025 102:0.075000003 103:0.050000001 104:0.050000001 105:0.075000003 106:0.025 107:0.050000001 108:0.125 109:0.075000003 110:0 111:0.050000001 112:0.125 113:0.125 114:0.075000003 115:0 116:0 117:0 118:0 119:0.075000003 120:0 121:0.054959349 122:0.054227643 123:0.031382114 124:0.022682928 125:0.011707317 126:0.0010569106 127:0.0092682922 128:0.022439023 129:0.02495935 130:0.0010569106 131:0.037235774 132:0.044634145 133:0.0049593495 134:0.016422763 135:0.019349594 136:0.035853658 137:0.011300813 138:0.029593496 139:0.036260162 140:0.018617887 141:0.033333335 142:0.083333336 143:0.033333335 144:0.083333336 145:0.050000001 146:0.050000001 147:0.033333335 148:0.083333336 149:0.083333336 150:0.016666668 151:0.06666667 152:0.11666667 153:0.1 154:0.083333336 155:0 156:0.016666668 157:0.016666668 158:0 159:0.050000001 160:0 #LSM10_HUMAN
6 1:0.038315218 2:0.032318842 3:0.0073550725 4:0.041358694 5:0.10262681 6:5.4347827e-05 7:0.0099637685 8:0.079673916 9:0.029873189 10:0.025905797 11:0.065706521 12:0.023224637 13:0.00070652174 14:0.0046195653 15:0.12447464 16:0.081829712 17:0.016920289 18:0.052318841 19:0.026467392 20:0.09708333 21:0.10707804 22:0.13430128 23:0.0072595282 24:0.14337568 25:0.052631579 26:0.0090744104 27:0.010889292 28:0.081669688 29:0.027223231 30:0.0090744104 31:0.023593467 32:0.074410163 33:0.036297642 34:0.0072595282 35:0.014519056 36:0.10707804 37:0.054446463 38:0 39:0.099818513 40:0 41:0.0037318841 42:0.0019927537 43:0.00036231885 44:0.0018115942 45:0.001576087 46:0 47:0.0024456521 48:0.00083333335 49:0.00059782609 50:0.0049999999 51:0.0034057971 52:0 53:0 54:0.0013586957 55:0.0043297103 56:0.00081521738 57:0.0010326087 58:0.0058876812 59:0.00023550725 60:0.00045289856 61:0 62:0.15000001 63:0.1 64:0 65:0.15000001 66:0 67:0 68:0.1 69:0 70:0.1 71:0 72:0.15000001 73:0.050000001 74:0 75:0.15000001 76:0.050000001 77:0 78:0 79:0 80:0 81:0.0048913043 82:0.0039130435 83:0.00088768115 84:0.0027173914 85:0.00557971 86:0 87:0.0030978261 88:0.0036413043 89:0.0014855072 90:0.0060326089 91:0.0048188404 92:0 93:0 94:0.0021014493 95:0.010144928 96:0.0036594202 97:0.0023007246 98:0.0071739131 99:0.0007789855 100:0.0046014492 101:0.025 102:0.175 103:0.050000001 104:0.050000001 105:0.125 106:0 107:0.025 108:0.075000003 109:0 110:0.075000003 111:0.050000001 112:0.075000003 113:0.050000001 114:0.025 115:0.1 116:0.075000003 117:0 118:0 119:0.025 120:0 121:0.0069746375 122:0.0059782607 123:0.001865942 124:0.0033514493 125:0.0065579712 126:0 127:0.0037862319 128:0.0050905799 129:0.0036956521 130:0.006884058 131:0.0085507249 132:0.00056159421 133:0 134:0.002228261 135:0.014257247 136:0.0060869567 137:0.0029166667 138:0.0098913042 139:0.0007789855 140:0.0072101448 141:0.033333335 142:0.16666667 143:0.033333335 144:0.06666667 145:0.13333334 146:0 147:0.016666668 148:0.083333336 149:0 150:0.06666667 151:0.083333336 152:0.050000001 153:0.06666667 154:0.050000001 155:0.083333336 156:0.050000001 157:0 158:0 159:0.016666668 160:0 #FMR2_APLCA 
6 1:0.051955719 2:0.09664207 3:0.061328415 4:0.030369004 5:0.046678968 6:0.0054612546 7:0.03380074 8:0.02601476 9:0.059335794 10:0.040774908 11:0.097380072 12:0.059225094 13:0.011254612 14:0.023431735 15:0.028376384 16:0.07531365 17:0.043542437 18:0.076420665 19:0.060627308 20:0.067490771 21:0.074074075 22:0.025925925 23:0.025925925 24:0.070370369 25:0.06666667 26:0.059259258 27:0.04074074 28:0.12222222 29:0.062962964 30:0.029629629 31:0.059259258 32:0.05185185 33:0.088888891 34:0.081481479 35:0.037037037 36:0.037037037 37:0.022222223 38:0.0074074073 39:0.025925925 40:0.011111111 41:0.0036900369 42:0.0060147601 43:0 44:0.0050553507 45:0.0036900369 46:0 47:0.003505535 48:0.00036900368 49:0.0036900369 50:0.0036900369 51:0.0038745387 52:0 53:0.0036900369 54:0 55:0.00036900368 56:0.0070110699 57:0.00018450184 58:0.013468634 59:0.0070110699 60:0.0084870849 61:0.1 62:0 63:0 64:0.15000001 65:0.2 66:0.1 67:0 68:0.050000001 69:0 70:0.050000001 71:0.050000001 72:0.050000001 73:0.050000001 74:0 75:0.050000001 76:0.050000001 77:0.050000001 78:0 79:0 80:0.050000001 81:0.0052767526 82:0.013210332 83:0.0036900369 84:0.0052398522 85:0.0077490774 86:0 87:0.012398524 88:0.0011070111 89:0.0061623617 90:0.0040590405 91:0.021955719 92:0.00055350555 93:0.0038745387 94:0.004206642 95:0.00036900368 96:0.010885609 97:0.0042435424 98:0.015498155 99:0.010332103 100:0.016826568 101:0.075000003 102:0 103:0.025 104:0.125 105:0.1 106:0.075000003 107:0.025 108:0.15000001 109:0 110:0.075000003 111:0.025 112:0.050000001 113:0.075000003 114:0.025 115:0.025 116:0.075000003 117:0.025 118:0 119:0.025 120:0.025 121:0.0070479703 122:0.020553505 123:0.0063468637 124:0.010553505 125:0.0091512911 126:0 127:0.012583026 128:0.0041328412 129:0.0061623617 130:0.0088560889 131:0.035682656 132:0.0060516605 133:0.0070479703 134:0.0070479703 135:0.0014391143 136:0.013173432 137:0.0067527676 138:0.02394834 139:0.011402214 140:0.023136532 141:0.06666667 142:0 143:0.033333335 144:0.1 145:0.1 146:0.050000001 147:0.033333335 148:0.2 149:0 150:0.050000001 151:0.016666668 152:0.050000001 153:0.083333336 154:0.050000001 155:0.033333335 156:0.050000001 157:0.033333335 158:0 159:0.016666668 160:0.033333335 #IL1A_CERTO 
6 1:0.060331754 2:0.081800945 3:0.039597157 4:0.015236967 5:0.025355451 6:0.028672986 7:0.033459716 8:0.064810425 9:0.053909954 10:0.070284359 11:0.082630329 12:0.059999999 13:0.025805688 14:0.025165876 15:0.061824646 16:0.050047394 17:0.043436021 18:0.05120853 19:0.038767774 20:0.037440758 21:0.040380046 22:0.078384802 23:0.028503563 24:0.047505938 25:0.038004752 26:0.033254158 27:0.030878861 28:0.083135389 29:0.054631829 30:0.030878861 31:0.076009504 32:0.061757721 33:0.11163896 34:0.026128266 35:0.085510686 36:0.019002376 37:0.004750594 38:0.028503563 39:0.092636578 40:0.028503563 41:0.0013744076 42:0.0041469196 43:0 44:0.0023696683 45:0 46:0 47:0 48:0.0039573461 49:0.0071327016 50:0.01028436 51:0.0023696683 52:0 53:0 54:0 55:0.0086966828 56:0.0015639811 57:0.0031516587 58:0.00078199053 59:0 60:0 61:0 62:0.2 63:0 64:0 65:0 66:0 67:0.050000001 68:0.050000001 69:0 70:0 71:0.2 72:0 73:0.1 74:0 75:0.30000001 76:0 77:0 78:0 79:0.1 80:0 81:0.0041232225 82:0.014905213 83:0.00047393364 84:0.0028436019 85:0.00094786729 86:0 87:0.00047393364 88:0.0090995263 89:0.011635071 90:0.012654029 91:0.0064218012 92:0.0024881517 93:0.0022274882 94:0.001492891 95:0.011492891 96:0.0023696683 97:0.0051895734 98:0.0021800948 99:0 100:0.00047393364 101:0 102:0.125 103:0.025 104:0 105:0 106:0 107:0.025 108:0.050000001 109:0.025 110:0 111:0.2 112:0.025 113:0.2 114:0 115:0.175 116:0 117:0 118:0 119:0.125 120:0.025 121:0.010402843 122:0.018270142 123:0.0038388625 124:0.0029383886 125:0.0033175356 126:0 127:0.0010900474 128:0.011469195 129:0.01485782 130:0.016303318 131:0.011824644 132:0.0056398106 133:0.0047630332 134:0.0030568719 135:0.011919431 136:0.0026777252 137:0.0073459717 138:0.0034834123 139:0.001492891 140:0.002322275 141:0 142:0.083333336 143:0.016666668 144:0.016666668 145:0 146:0 147:0.033333335 148:0.1 149:0.050000001 150:0 151:0.15000001 152:0.033333335 153:0.2 154:0.033333335 155:0.15000001 156:0 157:0 158:0 159:0.1 160:0.033333335 #CRLF1_HUMAN
-1.2948536175637230805079980200389 1:0.070829697 2:0.120131 3:0.060043667 4:0.017117904 5:0.044323143 6:0.0053275111 7:0.037860263 8:0.050131004 9:0.066681221 10:0.020655021 11:0.067336246 12:0.046593886 13:0.0099126641 14:0.021048035 15:0.060786027 16:0.066244543 17:0.04746725 18:0.083144106 19:0.032445416 20:0.055633187 21:0.057017542 22:0.078947365 23:0.021929825 24:0.057017542 25:0.087719299 26:0.021929825 27:0.048245613 28:0.052631579 29:0.057017542 30:0.03508772 31:0.083333336 32:0.078947365 33:0.11842106 34:0.043859649 35:0.01754386 36:0.048245613 37:0.013157895 38:0.0043859649 39:0.070175439 40:0.0043859649 41:0.006419214 42:0.0093013104 43:0.0043668123 44:0.0059388648 45:0.0067248908 46:0 47:0.00078602618 48:0.001441048 49:0.0073362445 50:0 51:0.010960699 52:0.0015283843 53:0.00017467249 54:0.001441048 55:0.0020524017 56:0.0038864629 57:0.0069432314 58:0.0074235806 59:0.0024017468 60:0.008646288 61:0 62:0.050000001 63:0 64:0.1 65:0 66:0 67:0.1 68:0.1 69:0.050000001 70:0 71:0.2 72:0.1 73:0.1 74:0.050000001 75:0 76:0.050000001 77:0.050000001 78:0 79:0.050000001 80:0 81:0.013493449 82:0.01720524 83:0.015021835 84:0.0067685591 85:0.0078165941 86:0.00030567686 87:0.0018777293 88:0.0022707423 89:0.012052402 90:0.00048034935 91:0.017423581 92:0.00720524 93:0.00017467249 94:0.0016157206 95:0.014759826 96:0.010218341 97:0.012314411 98:0.019432314 99:0.0037554586 100:0.011659388 101:0.025 102:0.075000003 103:0 104:0.050000001 105:0.1 106:0 107:0.1 108:0.050000001 109:0.075000003 110:0 111:0.15000001 112:0.1 113:0.125 114:0.050000001 115:0 116:0.025 117:0.050000001 118:0 119:0.025 120:0 121:0.017860262 122:0.028078603 123:0.020698691 124:0.0079475986 125:0.0090829693 126:0.00048034935 127:0.0023580785 128:0.006812227 129:0.018078603 130:0.0053275111 131:0.022445414 132:0.0097816596 133:0.0022707423 134:0.0066812229 135:0.017161572 136:0.016462883 137:0.020131005 138:0.024235807 139:0.0056768558 140:0.016331878 141:0.06666667 142:0.050000001 143:0.016666668 144:0.050000001 145:0.06666667 146:0 147:0.13333334 148:0.033333335 149:0.050000001 150:0 151:0.13333334 152:0.083333336 153:0.083333336 154:0.050000001 155:0.033333335 156:0.033333335 157:0.033333335 158:0 159:0.06666667 160:0.016666668 #TSN_CHICK  
-2.2361096281645242989100097474875 1:0.036247335 2:0.053283583 3:0.025735607 4:0.017313432 5:0.038208954 6:0.0084861405 7:0.024690831 8:0.059402984 9:0.064733475 10:0.058614071 11:0.091151386 12:0.057078891 13:0.044498935 14:0.031300638 15:0.061855011 16:0.054115139 17:0.041705757 18:0.055842217 19:0.041215353 20:0.051428571 21:0.047008548 22:0.07692308 23:0.034188036 24:0.055555556 25:0.040598292 26:0.042735044 27:0.03846154 28:0.13247864 29:0.061965812 30:0.032051284 31:0.06623932 32:0.034188036 33:0.055555556 34:0.040598292 35:0.064102568 36:0.044871796 37:0.017094018 38:0.008547009 39:0.064102568 40:0.042735044 41:0.0042643924 42:0.0021321962 43:0 44:0.0042643924 45:0.0021321962 46:0.0018763327 47:0.00027718549 48:0.0021321962 49:0.0021321962 50:0.0024093816 51:0.0021321962 52:0.0021321962 53:0.0021321962 54:0.0024093816 55:0.0042643924 56:0 57:0.0037526654 58:0.0042643924 59:0 60:0 61:0 62:0.1 63:0.050000001 64:0 65:0.1 66:0 67:0.1 68:0.050000001 69:0.050000001 70:0 71:0.050000001 72:0.1 73:0.050000001 74:0 75:0.050000001 76:0.050000001 77:0.050000001 78:0.050000001 79:0.1 80:0.050000001 81:0.0059275054 82:0.0023667377 83:0 84:0.0044989339 85:0.0021321962 86:0.0018763327 87:0.00051172706 88:0.0078038378 89:0.0059061833 90:0.01098081 91:0.0068656718 92:0.0042430703 93:0.0021321962 94:0.0040724948 95:0.0066737742 96:0.0018763327 97:0.0073134326 98:0.0063965884 99:0.0018976546 100:0.00027718549 101:0.025 102:0.075000003 103:0.050000001 104:0 105:0.075000003 106:0.025 107:0.1 108:0.075000003 109:0.050000001 110:0 111:0.075000003 112:0.075000003 113:0.025 114:0 115:0.125 116:0.025 117:0.025 118:0.025 119:0.1 120:0.050000001 121:0.0063965884 122:0.0047334754 123:0.00023454159 124:0.0044989339 125:0.0037953092 126:0.0018763327 127:0.00051172706 128:0.011599147 129:0.011599147 130:0.012878465 131:0.01445629 132:0.0056716418 133:0.0059275054 134:0.0059701493 135:0.0088059697 136:0.0021108743 137:0.0084861405 138:0.0063965884 139:0.0087633263 140:0.00027718549 141:0.016666668 142:0.06666667 143:0.050000001 144:0 145:0.050000001 146:0.06666667 147:0.06666667 148:0.13333334 149:0.033333335 150:0 151:0.11666667 152:0.050000001 153:0.033333335 154:0 155:0.1 156:0.033333335 157:0.016666668 158:0.016666668 159:0.1 160:0.050000001 #APTE_DROME 
-0.2410050779306996127093754012094 1:0.03348178 2:0.053279351 3:0.021801619 4:0.026558705 5:0.032651823 6:0.0041497974 7:0.042408906 8:0.068502024 9:0.074777327 10:0.086882591 11:0.07546559 12:0.055991903 13:0.015161944 14:0.046214573 15:0.039757084 16:0.039230768 17:0.093097165 18:0.042246964 19:0.055 20:0.044979759 21:0.03245436 22:0.042596348 23:0.066937119 24:0.048681542 25:0.034482758 26:0.05070994 27:0.097363085 28:0.07707911 29:0.054766733 30:0.038539555 31:0.079107508 32:0.024340771 33:0.060851928 34:0.022312373 35:0.10141988 36:0.036511157 37:0.03245436 38:0.0020283975 39:0.085192695 40:0.012170386 41:0.00062753039 42:0.0016801619 43:0.00030364373 44:0.0026720648 45:0.0014372469 46:0 47:0.0019838056 48:0.00082995952 49:0.0031578948 50:0.0097368425 51:0.0022469636 52:0.0018623482 53:0.00018218624 54:0.0054048584 55:0.00034412954 56:0.00014170041 57:0.0034817813 58:0.00052631577 59:0.0013157895 60:0.0015182187 61:0 62:0 63:0.25 64:0.050000001 65:0 66:0.050000001 67:0.1 68:0 69:0.1 70:0.050000001 71:0.050000001 72:0 73:0.050000001 74:0 75:0.25 76:0.050000001 77:0 78:0 79:0 80:0 81:0.0016396762 82:0.0035425101 83:0.00076923077 84:0.0029554656 85:0.0023684211 86:8.0971658e-05 87:0.0038866396 88:0.0025506073 89:0.0054048584 90:0.018623482 91:0.0064979759 92:0.0027935223 93:0.00022267207 94:0.014149797 95:0.00080971658 96:0.00038461538 97:0.0054251011 98:0.0012550608 99:0.0022672066 100:0.0023684211 101:0 102:0 103:0.375 104:0.025 105:0 106:0.025 107:0.075000003 108:0.050000001 109:0.050000001 110:0.025 111:0.025 112:0 113:0.025 114:0 115:0.30000001 116:0.025 117:0 118:0 119:0 120:0 121:0.0019635628 122:0.0077327937 123:0.0013765182 124:0.0035425101 125:0.0052834009 126:0.00056680164 127:0.0056275302 128:0.0039676111 129:0.0072874492 130:0.024129555 131:0.0090080975 132:0.0040890686 133:0.00034412954 134:0.01534413 135:0.0033400811 136:0.0013157895 137:0.0083400812 138:0.0033400811 139:0.0035627531 140:0.0046761134 141:0 142:0.033333335 143:0.25 144:0.050000001 145:0.016666668 146:0.033333335 147:0.1 148:0.033333335 149:0.050000001 150:0.016666668 151:0.016666668 152:0 153:0.083333336 154:0 155:0.25 156:0.06666667 157:0 158:0 159:0 160:0 #BCD_DROME  
-0.22225981528429006317537641734816 1:0.039055116 2:0.043129921 3:0.023267716 4:0.013641733 5:0.014074803 6:0.0013385827 7:0.010059055 8:0.034409449 9:0.068267718 10:0.051259842 11:0.089960627 12:0.046594489 13:0.0062598423 14:0.017362205 15:0.11188976 16:0.12411417 17:0.032736219 18:0.14517717 19:0.042401575 20:0.053937007 21:0.13806707 22:0.14990138 23:0.021696253 24:0.059171598 25:0.12031558 26:0.04536489 27:0.025641026 28:0.12820514 29:0.043392505 30:0.0039447732 31:0.043392505 32:0.033530571 33:0.039447732 34:0.029585799 35:0.051282052 36:0.01775148 37:0.013806706 38:0 39:0.033530571 40:0.0019723866 41:0.0015551181 42:0.0074212598 43:0.0011220472 44:0.0028543307 45:0.00033464568 46:0 47:0 48:0.0042716535 49:0.0021062992 50:0.0083858268 51:0.0025590551 52:0.0045669293 53:0 54:0.000511811 55:0 56:0.0002559055 57:0.00015748032 58:0.00015748032 59:0.0020866143 60:0 61:0 62:0 63:0 64:0 65:0 66:0.050000001 67:0 68:0.050000001 69:0.2 70:0 71:0.050000001 72:0 73:0.2 74:0.050000001 75:0.25 76:0 77:0.050000001 78:0 79:0.1 80:0 81:0.0049212598 82:0.013799213 83:0.0026377952 84:0.0038188975 85:0.00090551178 86:0 87:0.00084645668 88:0.0077952757 89:0.0061811022 90:0.01238189 91:0.0059251967 92:0.0071850396 93:0 94:0.000511811 95:0.00041338583 96:0.0019291339 97:0.00088582677 98:0.00029527559 99:0.0038582678 100:0.0018110236 101:0 102:0 103:0 104:0.025 105:0 106:0.050000001 107:0 108:0.1 109:0.1 110:0 111:0.125 112:0.025 113:0.2 114:0.075000003 115:0.175 116:0 117:0.025 118:0 119:0.1 120:0 121:0.006574803 122:0.018208662 123:0.0039370079 124:0.0042913384 125:0.0020866143 126:0 127:0.0016535433 128:0.0095472438 129:0.0097834645 130:0.018248031 131:0.0072834645 132:0.0095275594 133:0 134:0.000511811 135:0.0012992126 136:0.0033267715 137:0.0017125984 138:0.0023818898 139:0.0054921261 140:0.0035629922 141:0.016666668 142:0 143:0 144:0.033333335 145:0.016666668 146:0.050000001 147:0.016666668 148:0.083333336 149:0.083333336 150:0 151:0.1 152:0.033333335 153:0.16666667 154:0.083333336 155:0.18333334 156:0 157:0.033333335 158:0 159:0.1 160:0 #SFR12_HUMAN
-0.013946300686385042569281900171063 1:0.032162163 2:0.080270268 3:0.018648649 4:0.025315315 5:0.017837837 6:0 7:0.026756756 8:0.077117115 9:0.087477475 10:0.081801802 11:0.072972976 12:0.046666667 13:0.00099099101 14:0.011531532 15:0.030630631 16:0.14315315 17:0.068828829 18:0.088828832 19:0.026666667 20:0.061351351 21:0.14414415 22:0.036036037 23:0.018018018 24:0.063063063 25:0.090090089 26:0.018018018 27:0.063063063 28:0.063063063 29:0.054054055 30:0.027027028 31:0.10810811 32:0.036036037 33:0.072072074 34:0.0090090092 35:0.090090089 36:0.018018018 37:0.027027028 38:0 39:0.063063063 40:0 41:0.010270271 42:0.00081081083 43:0.00054054055 44:0.0034234235 45:0 46:0 47:0 48:0.0081081083 49:0.020810811 50:0.0095495498 51:0.016756756 52:0.010450451 53:0 54:0 55:0 56:0.018558558 57:0.015405405 58:0.054414414 59:0.00081081083 60:0.01018018 61:0.1 62:0 63:0 64:0.050000001 65:0.30000001 66:0 67:0.050000001 68:0.1 69:0 70:0 71:0.2 72:0.1 73:0 74:0 75:0.050000001 76:0 77:0.050000001 78:0 79:0 80:0 81:0.012252253 82:0.021621622 83:0.0067567569 84:0.0042342343 85:0 86:0 87:0.0090090092 88:0.017657658 89:0.042252254 90:0.027567567 91:0.026126126 92:0.014504504 93:0.00027027028 94:0.0024324325 95:0.0075675678 96:0.047747746 97:0.023243243 98:0.082432434 99:0.0036036037 100:0.010450451 101:0.125 102:0.025 103:0.025 104:0.025 105:0.22499999 106:0 107:0.050000001 108:0.075000003 109:0.025 110:0.025 111:0.175 112:0.050000001 113:0.050000001 114:0 115:0.075000003 116:0 117:0.025 118:0 119:0.025 120:0 121:0.013243243 122:0.041171171 123:0.0067567569 124:0.008828829 125:0.017297298 126:0 127:0.017747749 128:0.043963965 129:0.042972974 130:0.036126126 131:0.035675675 132:0.014504504 133:0.00027027028 134:0.0032432433 135:0.020810811 136:0.081981979 137:0.041081082 138:0.082432434 139:0.0046846848 140:0.027477477 141:0.15000001 142:0.050000001 143:0.016666668 144:0.050000001 145:0.15000001 146:0 147:0.06666667 148:0.06666667 149:0.016666668 150:0.033333335 151:0.11666667 152:0.033333335 153:0.06666667 154:0 155:0.06666667 156:0.033333335 157:0.016666668 158:0 159:0.06666667 160:0 #ARP19_BOVIN
6 1:0.051677421 2:0.098903224 3:0.061290324 4:0.028000001 5:0.038774192 6:0.0021290323 7:0.014 8:0.032322582 9:0.036709677 10:0.049419355 11:0.086064517 12:0.043161292 13:0.033354837 14:0.037612904 15:0.061225805 16:0.094580643 17:0.060258064 18:0.066709675 19:0.043032259 20:0.049419355 21:0.090909094 22:0.071428575 23:0.038961038 24:0.045454547 25:0.064935066 26:0.051948052 27:0.058441557 28:0.097402595 29:0.038961038 30:0.012987013 31:0.032467533 32:0.051948052 33:0.090909094 34:0.064935066 35:0.051948052 36:0.038961038 37:0.025974026 38:0.0064935065 39:0.032467533 40:0.032467533 41:0.017161291 42:0.012903226 43:0.018258065 44:0.015096774 45:0.0097419359 46:0 47:0 48:0.0053548389 49:0.0043225805 50:0 51:0.0085806455 52:0.0064516128 53:0.0075483872 54:0.0053548389 55:0.0043225805 56:0.0074838712 57:0 58:0.0064516128 59:0 60:0 61:0.050000001 62:0.050000001 63:0.050000001 64:0 65:0.050000001 66:0 67:0 68:0.1 69:0.050000001 70:0 71:0 72:0.15000001 73:0.15000001 74:0.15000001 75:0 76:0.050000001 77:0.050000001 78:0 79:0.050000001 80:0.050000001 81:0.02251613 82:0.027935484 83:0.034387097 84:0.021548387 85:0.012967742 86:0 87:0.0010967742 88:0.0096774194 89:0.0054193549 90:0.0010967742 91:0.019354839 92:0.0096774194 93:0.0075483872 94:0.0074838712 95:0.019354839 96:0.011870968 97:0.017161291 98:0.0075483872 99:0 100:0.017161291 101:0.025 102:0.1 103:0.050000001 104:0.075000003 105:0.025 106:0 107:0.1 108:0.075000003 109:0.025 110:0 111:0 112:0.1 113:0.1 114:0.15000001 115:0 116:0.025 117:0.075000003 118:0 119:0.050000001 120:0.025 121:0.038645159 122:0.048322581 123:0.034387097 124:0.021548387 125:0.016193548 126:0 127:0.0064516128 128:0.0096774194 129:0.010774193 130:0.019354839 131:0.020451613 132:0.010774193 133:0.0075483872 134:0.010774193 135:0.019354839 136:0.020516129 137:0.02251613 138:0.020451613 139:0.010774193 140:0.034387097 141:0.033333335 142:0.06666667 143:0.033333335 144:0.083333336 145:0.06666667 146:0.033333335 147:0.06666667 148:0.050000001 149:0.016666668 150:0.016666668 151:0.016666668 152:0.11666667 153:0.11666667 154:0.1 155:0.050000001 156:0.033333335 157:0.050000001 158:0 159:0.033333335 160:0.016666668 #IL21_HUMAN 
-6 1:0.048287671 2:0.1360274 3:0.028424658 4:0.035410959 5:0.0469863 6:0.0083561642 7:0.029520547 8:0.042945206 9:0.056986302 10:0.058835618 11:0.049246576 12:0.037191782 13:0.014931506 14:0.018767124 15:0.07917808 16:0.031643834 17:0.052808218 18:0.093013696 19:0.039178081 20:0.082534246 21:0.013793103 22:0.062068965 23:0.013793103 24:0.096551724 25:0.12413793 26:0.034482758 27:0.034482758 28:0.062068965 29:0.020689655 30:0.027586207 31:0.055172414 32:0.068965517 33:0.13793103 34:0.034482758 35:0.055172414 36:0.048275862 37:0.04137931 38:0.013793103 39:0.027586207 40:0.027586207 41:0.01369863 42:0.042328767 43:0.0011643836 44:0.01369863 45:0 46:0 47:0 48:0 49:0.011369863 50:0 51:0.0070547946 52:0 53:0 54:0.011369863 55:0.012534247 56:0.0023287672 57:0.0019178082 58:0.010342466 59:0.0023287672 60:0.006849315 61:0 62:0.1 63:0.1 64:0.050000001 65:0.050000001 66:0 67:0 68:0.050000001 69:0 70:0 71:0.1 72:0.1 73:0.34999999 74:0.050000001 75:0 76:0 77:0.050000001 78:0 79:0 80:0 81:0.020547945 82:0.069931507 83:0.0060273972 84:0.018561644 85:0 86:0 87:0 88:0 89:0.017191781 90:0 91:0.018013699 92:0.0028082193 93:0.0048630135 94:0.011369863 95:0.024178082 96:0.0032876711 97:0.017534247 98:0.032671232 99:0.013013699 100:0.006849315 101:0 102:0.1 103:0.050000001 104:0.025 105:0.1 106:0.025 107:0.050000001 108:0.075000003 109:0 110:0 111:0.075000003 112:0.075000003 113:0.32499999 114:0.025 115:0 116:0 117:0.050000001 118:0 119:0 120:0.025 121:0.029315069 122:0.079863012 123:0.0079452051 124:0.018767124 125:0.0093150688 126:0.0016438356 127:0.0015753425 128:0.0084246574 129:0.020479452 130:0.026575342 131:0.022876712 132:0.010821918 133:0.0095890407 134:0.014383562 135:0.038082194 136:0.0082191778 137:0.023219177 138:0.039520547 139:0.015958903 140:0.017191781 141:0 142:0.1 143:0.033333335 144:0.016666668 145:0.1 146:0.033333335 147:0.050000001 148:0.083333336 149:0.016666668 150:0 151:0.050000001 152:0.083333336 153:0.21666667 154:0.016666668 155:0.083333336 156:0.033333335 157:0.033333335 158:0 159:0.016666668 160:0.033333335 #LDOC1_HUMAN
-3.8737769462534750175564113305882 1:0.075126052 2:0.098151259 3:0.060756303 4:0.038655464 5:0.024789916 6:0.0024369748 7:0.014369748 8:0.095798321 9:0.040336136 10:0.039663866 11:0.052521009 12:0.068487398 13:0.0046218489 14:0.017983193 15:0.10260504 16:0.081428573 17:0.027058823 18:0.040168066 19:0.06092437 20:0.045294117 21:0.084745765 22:0.13559322 23:0.025423728 24:0.033898305 25:0.050847456 26:0.042372882 27:0.016949153 28:0.042372882 29:0.076271184 30:0.0084745763 31:0.025423728 32:0.093220338 33:0.11016949 34:0.042372882 35:0.042372882 36:0.016949153 37:0.025423728 38:0 39:0.12711865 40:0 41:0.017478991 42:0.032773111 43:0.010504202 44:0.014033614 45:0.0063025211 46:0 47:0.00033613446 48:0.0031092437 49:0.0023529411 50:0.00025210084 51:0.0048739496 52:0.013193278 53:0.00058823527 54:0.0052941176 55:0.0065546217 56:0.023865547 57:0.0033613446 58:0.015714286 59:0.0067226891 60:0.00058823527 61:0.15000001 62:0.050000001 63:0.050000001 64:0 65:0.1 66:0.050000001 67:0 68:0.050000001 69:0.1 70:0 71:0 72:0.1 73:0.2 74:0.050000001 75:0 76:0.050000001 77:0.050000001 78:0 79:0 80:0 81:0.034537815 82:0.045210086 83:0.02210084 84:0.02487395 85:0.0068907561 86:0.0013445378 87:0.0036974789 88:0.02184874 89:0.0066386554 90:0.0017647059 91:0.015966387 92:0.033529412 93:0.0033613446 94:0.012016807 95:0.010084034 96:0.025882352 97:0.0091596637 98:0.022352941 99:0.025210084 100:0.008487395 101:0.1 102:0.025 103:0.075000003 104:0.025 105:0.050000001 106:0.050000001 107:0.025 108:0.050000001 109:0.15000001 110:0 111:0 112:0.125 113:0.125 114:0.050000001 115:0 116:0.025 117:0.050000001 118:0 119:0.075000003 120:0 121:0.054033615 122:0.061176471 123:0.033781514 124:0.029579831 125:0.0099999998 126:0.0015966387 127:0.0070588235 128:0.026386555 129:0.01277311 130:0.0084033618 131:0.027310925 132:0.04907563 133:0.0038655463 134:0.016050421 135:0.018067228 136:0.043865547 137:0.017058823 138:0.029495798 139:0.034705881 140:0.018655462 141:0.1 142:0.050000001 143:0.050000001 144:0.016666668 145:0.06666667 146:0.050000001 147:0.033333335 148:0.050000001 149:0.13333334 150:0 151:0.016666668 152:0.11666667 153:0.13333334 154:0.050000001 155:0.016666668 156:0.016666668 157:0.050000001 158:0 159:0.050000001 160:0 #SMD1_HUMAN 
-6 1:0.067777775 2:0.074871793 3:0.054444443 4:0.035128206 5:0.032820512 6:0.016068377 7:0.032478634 8:0.059743591 9:0.061025642 10:0.045384616 11:0.07982906 12:0.053675212 13:0.044957265 14:0.012051282 15:0.069145299 16:0.054017093 17:0.033247862 18:0.056666669 19:0.035042737 20:0.0617094 21:0.068965517 22:0.068965517 23:0.0086206896 24:0.077586204 25:0.043103449 26:0.02586207 27:0.034482758 28:0.094827585 29:0.05172414 30:0.043103449 31:0.060344826 32:0.086206898 33:0.077586204 34:0.043103449 35:0.034482758 36:0.02586207 37:0.034482758 38:0.017241379 39:0.060344826 40:0.043103449 41:0.0059829061 42:0.028461538 43:0.005811966 44:0.010854701 45:0.0039316239 46:0 47:0.00034188034 48:0.005811966 49:0.018974358 50:0.008547009 51:0.012991453 52:0.0064957263 53:0.017350428 54:0.004102564 55:0.017606838 56:0.0053846152 57:0.0016239316 58:0.0088034188 59:0.0024786324 60:0.0053846152 61:0.050000001 62:0.1 63:0.050000001 64:0.050000001 65:0.050000001 66:0 67:0 68:0.050000001 69:0.050000001 70:0 71:0.1 72:0.050000001 73:0.30000001 74:0 75:0.050000001 76:0 77:0 78:0 79:0 80:0.1 81:0.014188034 82:0.042393163 83:0.014273505 84:0.012478633 85:0.018376069 86:0 87:0.0062393164 88:0.015726496 89:0.022307692 90:0.013675214 91:0.018717948 92:0.014700855 93:0.034188036 94:0.0046153846 95:0.021538461 96:0.013076923 97:0.012735043 98:0.021709401 99:0.014957265 100:0.021025641 101:0.050000001 102:0.050000001 103:0.025 104:0.125 105:0.050000001 106:0.025 107:0.050000001 108:0.025 109:0.050000001 110:0.050000001 111:0.075000003 112:0.050000001 113:0.175 114:0.025 115:0.025 116:0.025 117:0 118:0 119:0.025 120:0.1 121:0.024786325 122:0.046923079 123:0.02042735 124:0.020769231 125:0.026923077 126:0.00025641025 127:0.011025641 128:0.029572649 129:0.025982905 130:0.016837606 131:0.036581196 132:0.026923077 133:0.0408547 134:0.0087179486 135:0.027692307 136:0.018632479 137:0.019572649 138:0.037777778 139:0.025042735 140:0.035726495 141:0.050000001 142:0.050000001 143:0.016666668 144:0.11666667 145:0.050000001 146:0.033333335 147:0.033333335 148:0.06666667 149:0.050000001 150:0.050000001 151:0.050000001 152:0.050000001 153:0.11666667 154:0.050000001 155:0.016666668 156:0.033333335 157:0.033333335 158:0 159:0.050000001 160:0.083333336 #SPT41_HUMAN
3.2143239123770279697112073336029 1:0.077590361 2:0.067590363 3:0.028253011 4:0.019096386 5:0.060602408 6:0.017048193 7:0.032289155 8:0.072289154 9:0.11777108 10:0.040903613 11:0.076144576 12:0.07 13:0.016084338 14:0.018493976 15:0.037590362 16:0.062831327 17:0.040361445 18:0.085240968 19:0.020421688 20:0.027771084 21:0.060606062 22:0.036363635 23:0.018181818 24:0.024242423 25:0.078787878 26:0.012121212 27:0.042424243 28:0.090909094 29:0.078787878 30:0.030303031 31:0.13939394 32:0.078787878 33:0.060606062 34:0.018181818 35:0.048484847 36:0.06666667 37:0.012121212 38:0.018181818 39:0.07272727 40:0.012121212 41:0.012048192 42:0.019578313 43:0 44:0.0060240962 45:0.001506024 46:0.0060240962 47:0 48:0.012048192 49:0.034638554 50:0.0075301207 51:0.0060240962 52:0.001506024 53:0.0030120481 54:0 55:0.0045180721 56:0.001506024 57:0 58:0 59:0.0030120481 60:0 61:0.050000001 62:0 63:0 64:0 65:0 66:0 67:0 68:0.050000001 69:0.050000001 70:0 71:0.34999999 72:0.1 73:0.15000001 74:0 75:0.050000001 76:0.050000001 77:0 78:0.050000001 79:0.1 80:0 81:0.030722892 82:0.023313252 83:0.0022289157 84:0.0060240962 85:0.0075301207 86:0.0060240962 87:0 88:0.023072289 89:0.049698796 90:0.02120482 91:0.013253012 92:0.011325302 93:0.0030120481 94:0 95:0.010060241 96:0.0045180721 97:0 98:0.015481927 99:0.0050602411 100:0.0070481929 101:0.025 102:0.025 103:0 104:0.025 105:0.025 106:0 107:0 108:0.050000001 109:0.075000003 110:0 111:0.25 112:0.175 113:0.075000003 114:0 115:0.1 116:0.050000001 117:0 118:0.025 119:0.1 120:0 121:0.041807231 122:0.028373495 123:0.003253012 124:0.0070481929 125:0.021626506 126:0.0060240962 127:0.0099999998 128:0.030120483 129:0.050722893 130:0.024216868 131:0.023313252 132:0.025361447 133:0.0090361442 134:0.0050602411 135:0.011084338 136:0.012590362 137:0.0030120481 138:0.017530121 139:0.0090963859 140:0.012108434 141:0.033333335 142:0.016666668 143:0.016666668 144:0.033333335 145:0.016666668 146:0.016666668 147:0.016666668 148:0.06666667 149:0.1 150:0.016666668 151:0.18333334 152:0.13333334 153:0.050000001 154:0 155:0.083333336 156:0.083333336 157:0 158:0.016666668 159:0.1 160:0.016666668 #CS010_MOUSE
6 1:0.049363296 2:0.13445693 3:0.033520598 4:0.020599252 5:0.029363295 6:0.013932584 7:0.021535581 8:0.086816482 9:0.057191011 10:0.038726591 11:0.079101123 12:0.044794008 13:0.026779026 14:0.024868913 15:0.062247191 16:0.051760301 17:0.040187266 18:0.057378277 19:0.030299626 20:0.046367042 21:0.056390978 22:0.060150377 23:0.022556391 24:0.041353382 25:0.063909777 26:0.052631579 27:0.030075189 28:0.097744361 29:0.045112781 30:0.037593983 31:0.04887218 32:0.045112781 33:0.12030075 34:0.052631579 35:0.030075189 36:0.041353382 37:0.033834588 38:0.018796992 39:0.071428575 40:0.030075189 41:0.0037453184 42:0.0074906368 43:0 44:0.0037453184 45:0 46:0.0037453184 47:0 48:0.026217228 49:0.0074906368 50:0.0074906368 51:0 52:0.0037453184 53:0 54:0 55:0.0037453184 56:0 57:0 58:0.0074906368 59:0 60:0 61:0 62:0.050000001 63:0 64:0 65:0.1 66:0 67:0 68:0 69:0.050000001 70:0 71:0.1 72:0.050000001 73:0.1 74:0 75:0.1 76:0 77:0 78:0.050000001 79:0.40000001 80:0 81:0.0074906368 82:0.02247191 83:0 84:0.0037453184 85:0 86:0.0074906368 87:0 88:0.056179777 89:0.011235955 90:0.0074906368 91:0.0074906368 92:0.0074906368 93:0 94:0.0037453184 95:0.0037453184 96:0.0037453184 97:0 98:0.0074906368 99:0 100:0 101:0.025 102:0.025 103:0.025 104:0 105:0.050000001 106:0 107:0 108:0.050000001 109:0.050000001 110:0 111:0.075000003 112:0.050000001 113:0.175 114:0 115:0.050000001 116:0 117:0 118:0.050000001 119:0.375 120:0 121:0.013745318 122:0.03456929 123:0 124:0.0041573034 125:0.0013483146 126:0.0074906368 127:0 128:0.058801498 129:0.018913858 130:0.010486891 131:0.0098501872 132:0.0091385767 133:0.0018726592 134:0.0037453184 135:0.021722846 136:0.0084269661 137:0.0018726592 138:0.011235955 139:0.0016853933 140:0.0049812733 141:0.033333335 142:0.1 143:0.016666668 144:0.016666668 145:0.050000001 146:0 147:0.016666668 148:0.033333335 149:0.033333335 150:0 151:0.083333336 152:0.06666667 153:0.18333334 154:0 155:0.050000001 156:0 157:0 158:0.033333335 159:0.26666668 160:0.016666668 #PRR2_BOVIN 
6 1:0.060040001 2:0.11532 3:0.032439999 4:0.02224 5:0.032200001 6:0.01708 7:0.02448 8:0.088040002 9:0.089560002 10:0.060520001 11:0.084639996 12:0.04868 13:0.01392 14:0.01836 15:0.058680002 16:0.039280001 17:0.067479998 18:0.056600001 19:0.027519999 20:0.031399999 21:0.032128513 22:0.076305218 23:0.024096385 24:0.032128513 25:0.044176705 26:0.024096385 27:0.080321282 28:0.08835341 29:0.040160641 30:0.024096385 31:0.084337346 32:0.072289154 33:0.1124498 34:0.024096385 35:0.064257026 36:0.028112451 37:0.020080321 38:0.020080321 39:0.096385539 40:0.012048192 41:0.00056000001 42:0.0068799998 43:0 44:0.00752 45:0.0045599998 46:0 47:0 48:0.01552 49:0.00856 50:0.02 51:0.0095600002 52:0 53:0 54:0 55:0 56:0.00352 57:0 58:0 59:0.00352 60:0 61:0.050000001 62:0 63:0 64:0 65:0 66:0.050000001 67:0 68:0.1 69:0 70:0 71:0.1 72:0 73:0.1 74:0 75:0.30000001 76:0.050000001 77:0.050000001 78:0 79:0.2 80:0 81:0.0081200004 82:0.022919999 83:0 84:0.0080399998 85:0.0055999998 86:0.00752 87:0 88:0.023080001 89:0.02368 90:0.027039999 91:0.01816 92:0.00156 93:0.00052 94:0 95:0.00352 96:0.00352 97:0 98:0.00352 99:0.00352 100:0 101:0.025 102:0.025 103:0 104:0 105:0.025 106:0.025 107:0 108:0.1 109:0 110:0 111:0.175 112:0.050000001 113:0.15000001 114:0 115:0.175 116:0.025 117:0.025 118:0.050000001 119:0.15000001 120:0 121:0.01212 122:0.039000001 123:0.00052 124:0.01156 125:0.0055999998 126:0.00752 127:0.00052 128:0.02416 129:0.041239999 130:0.027039999 131:0.022679999 132:0.0084800003 133:0.00404 134:0.00052 135:0.01008 136:0.00388 137:0.0097200004 138:0.0068000001 139:0.00352 140:0.00108 141:0.016666668 142:0.050000001 143:0 144:0 145:0.050000001 146:0.016666668 147:0.050000001 148:0.083333336 149:0.033333335 150:0 151:0.16666667 152:0.050000001 153:0.16666667 154:0 155:0.11666667 156:0.016666668 157:0.033333335 158:0.033333335 159:0.1 160:0.016666668 #TNF13_HUMAN
-0.89427189897718473154952789627714 1:0.054744527 2:0.090291969 3:0.05109489 4:0.028832117 5:0.018321168 6:0.0024087592 7:0.032043796 8:0.14277372 9:0.082919709 10:0.076715328 11:0.059635036 12:0.045401461 13:0.01270073 14:0.021678831 15:0.076496348 16:0.04350365 17:0.042408761 18:0.045474451 19:0.018540146 20:0.041313868 21:0.022058824 22:0.066176474 23:0.022058824 24:0.05882353 25:0.022058824 26:0.0073529412 27:0.05882353 28:0.080882356 29:0.036764707 30:0.036764707 31:0.095588237 32:0.073529415 33:0.10294118 34:0.051470589 35:0.088235296 36:0.014705882 37:0 38:0.0073529412 39:0.14705883 40:0.0073529412 41:0 42:0.01459854 43:0 44:0.00729927 45:0 46:0 47:0 48:0.05109489 49:0.02919708 50:0.00729927 51:0 52:0.00729927 53:0 54:0 55:0.02189781 56:0 57:0 58:0.00729927 59:0 60:0 61:0 62:0.15000001 63:0 64:0 65:0.050000001 66:0 67:0 68:0 69:0.050000001 70:0 71:0.2 72:0 73:0.1 74:0 75:0.050000001 76:0 77:0 78:0 79:0.40000001 80:0 81:0.0010218978 82:0.020802919 83:0.006350365 84:0.0083211679 85:0 86:0 87:0.0010218978 88:0.1 89:0.042335767 90:0.022700731 91:0.022627737 92:0.011240876 93:0 94:0.0049635037 95:0.025547445 96:0.0016058395 97:0.010364964 98:0.0081021897 99:0.0033576642 100:0.00080291973 101:0 102:0.1 103:0.025 104:0 105:0.025 106:0 107:0.025 108:0.075000003 109:0.025 110:0 111:0.175 112:0.025 113:0.050000001 114:0.050000001 115:0.075000003 116:0 117:0 118:0 119:0.34999999 120:0 121:0.017153285 122:0.040145986 123:0.019635037 124:0.013065693 125:0 126:0 127:0.0045255474 128:0.1 129:0.045182481 130:0.046204381 131:0.030145986 132:0.015109489 133:0 134:0.0082481755 135:0.03890511 136:0.0045255474 137:0.016131386 138:0.018759124 139:0.010072993 140:0.0095620435 141:0.016666668 142:0.083333336 143:0.033333335 144:0.016666668 145:0.016666668 146:0.016666668 147:0.016666668 148:0.083333336 149:0.016666668 150:0 151:0.13333334 152:0.06666667 153:0.1 154:0.050000001 155:0.11666667 156:0 157:0 158:0 159:0.23333333 160:0 #SRXN1_HUMAN
-0.22057131736407767363949972150294 1:0.068799213 2:0.074625984 3:0.026259843 4:0.028700788 5:0.017401574 6:0.000511811 7:0.017086614 8:0.11456693 9:0.091732286 10:0.063267715 11:0.12677166 12:0.084370077 13:0.0051574805 14:0.016397638 15:0.041771654 16:0.03309055 17:0.05765748 18:0.047696851 19:0.03511811 20:0.025964567 21:0.033530571 22:0.037475344 23:0.013806706 24:0.023668639 25:0.04536489 26:0.021696253 27:0.055226825 28:0.12623274 29:0.11637081 30:0.01775148 31:0.098619327 32:0.071005918 33:0.072978303 34:0.023668639 35:0.072978303 36:0.01775148 37:0.029585799 38:0 39:0.12031558 40:0.0019723866 41:0.00078740157 42:0.0059055118 43:0 44:0.0019685039 45:0 46:0 47:0 48:0.0098425196 49:0.010629921 50:0.0023622047 51:0.0019685039 52:0.0019685039 53:0 54:0 55:0.0019685039 56:0.00039370079 57:0.0015748031 58:0 59:0 60:0 61:0 62:0.050000001 63:0 64:0 65:0 66:0 67:0.050000001 68:0.1 69:0.050000001 70:0 71:0.30000001 72:0 73:0.15000001 74:0 75:0.050000001 76:0 77:0 78:0 79:0.25 80:0 81:0.0015748031 82:0.0082677165 83:0 84:0.0023622047 85:0 86:0 87:0 88:0.022401575 89:0.013562992 90:0.0059055118 91:0.0042716535 92:0.0067913388 93:0 94:0 95:0.0074803149 96:0.00039370079 97:0.0015748031 98:0 99:0.0033070866 100:0 101:0 102:0.1 103:0 104:0 105:0 106:0.050000001 107:0.025 108:0.050000001 109:0.1 110:0 111:0.175 112:0 113:0.1 114:0 115:0.075000003 116:0 117:0 118:0 119:0.32499999 120:0 121:0.0032677166 122:0.012204724 123:0 124:0.0026377952 125:0.00027559054 126:0 127:0.00027559054 128:0.035314962 129:0.016358268 130:0.0092716534 131:0.0059448821 132:0.0082086613 133:0 134:0 135:0.011968504 136:0.00039370079 137:0.0026968503 138:0.0022440944 139:0.0049999999 140:0.00027559054 141:0 142:0.11666667 143:0 144:0 145:0.033333335 146:0.050000001 147:0.016666668 148:0.033333335 149:0.06666667 150:0 151:0.16666667 152:0.016666668 153:0.1 154:0 155:0.083333336 156:0 157:0 158:0 159:0.31666666 160:0 #SRF_HUMAN  
-1.1768226785887425656085270020412 1:0.056498315 2:0.076329969 3:0.026296297 4:0.031313132 5:0.052154884 6:0.0063636363 7:0.013333334 8:0.049629629 9:0.12164983 10:0.07363636 11:0.051750842 12:0.061515152 13:0.038720537 14:0.033434343 15:0.052188553 16:0.034612793 17:0.038047139 18:0.031986531 19:0.065723903 20:0.034612793 21:0.040540539 22:0.040540539 23:0.043918919 24:0.030405406 25:0.020270269 26:0.081081077 27:0.074324325 28:0.054054055 29:0.067567565 30:0.020270269 31:0.125 32:0.064189188 33:0.087837838 34:0.027027028 35:0.074324325 36:0.043918919 37:0.016891891 38:0.0067567569 39:0.050675675 40:0.030405406 41:0.0080134682 42:0.0062962961 43:0 44:0.006868687 45:0.00097643095 46:0.0029966331 47:0 48:0.0027609428 49:0.005050505 50:0.00043771043 51:0.0049494947 52:0.0059932661 53:0 54:0.00013468013 55:0.0037710438 56:0.0044107744 57:0.0018181818 58:0 59:0.0096632997 60:0.0033670033 61:0.050000001 62:0.050000001 63:0 64:0.050000001 65:0 66:0.2 67:0.050000001 68:0.1 69:0 70:0 71:0.050000001 72:0.1 73:0.2 74:0 75:0 76:0 77:0.050000001 78:0.050000001 79:0.050000001 80:0 81:0.011717171 82:0.0096632997 83:0.00013468013 84:0.006868687 85:0.0038047137 86:0.0029966331 87:0.00053872052 88:0.0073400675 89:0.0061952863 90:0.00097643095 91:0.0075084176 92:0.0090235686 93:0.01010101 94:0.00013468013 95:0.015555556 96:0.0065656565 97:0.0059932661 98:0.0095622893 99:0.012962963 100:0.0071380474 101:0.075000003 102:0.1 103:0 104:0.050000001 105:0.075000003 106:0.125 107:0.075000003 108:0.075000003 109:0.025 110:0 111:0.025 112:0.075000003 113:0.1 114:0 115:0 116:0.050000001 117:0.025 118:0.025 119:0.025 120:0.075000003 121:0.018787879 122:0.0097306399 123:0.0035016835 124:0.009158249 125:0.0079124579 126:0.0029966331 127:0.0016835016 128:0.0092255892 129:0.013737374 130:0.0058249156 131:0.011683501 132:0.013131313 133:0.014882155 134:0.003973064 135:0.017643098 136:0.0079124579 137:0.0076094274 138:0.011986532 139:0.017070707 140:0.013670034 141:0.06666667 142:0.06666667 143:0.016666668 144:0.050000001 145:0.06666667 146:0.11666667 147:0.06666667 148:0.06666667 149:0.033333335 150:0.016666668 151:0.06666667 152:0.1 153:0.06666667 154:0 155:0.033333335 156:0.033333335 157:0.016666668 158:0.016666668 159:0.033333335 160:0.06666667 #MBL_DROME  
5.8727109414189522240690166654531 1:0.062167905 2:0.093793839 3:0.035887353 4:0.014622741 5:0.026811901 6:0.01314559 7:0.02162593 8:0.070680127 9:0.058799151 10:0.067258239 11:0.070786394 12:0.049277365 13:0.050329436 14:0.031105207 15:0.057003189 16:0.038873538 17:0.040797025 18:0.062954307 19:0.030340064 20:0.044357065 21:0.052127659 22:0.061702128 23:0.034042552 24:0.058510639 25:0.070212767 26:0.023404256 27:0.0393617 28:0.084042557 29:0.05638298 30:0.021276595 31:0.050000001 32:0.055319149 33:0.090425529 34:0.044680852 35:0.069148935 36:0.031914894 37:0.015957447 38:0.018085107 39:0.074468084 40:0.04893617 41:0.0018597237 42:0.0037194474 43:0.0023910734 44:0.0018597237 45:0 46:0.0018597237 47:0 48:0.00021253985 49:0.0010626992 50:0.0021253985 51:0.0011158342 52:0.0012221042 53:0.0017003188 54:0.00021253985 55:0.00021253985 56:0 57:0.0010626992 58:0 59:0 60:0.00063761958 61:0 62:0.050000001 63:0 64:0.050000001 65:0 66:0 67:0.050000001 68:0.050000001 69:0.050000001 70:0 71:0.050000001 72:0.1 73:0.15000001 74:0.1 75:0.1 76:0 77:0.050000001 78:0.1 79:0 80:0.1 81:0.0026354941 82:0.0062592984 83:0.0035812964 84:0.0021466524 85:0.00086078641 86:0.0018597237 87:0 88:0.00075451646 89:0.0016790648 90:0.0067800214 91:0.0022422955 92:0.0018384698 93:0.0017003188 94:0.00021253985 95:0.0021466524 96:0.0021679064 97:0.0025292241 98:0.0018278427 99:0.00043570669 100:0.00063761958 101:0.050000001 102:0.025 103:0 104:0.025 105:0.050000001 106:0 107:0.1 108:0.050000001 109:0.050000001 110:0 111:0.050000001 112:0.075000003 113:0.125 114:0.075000003 115:0.175 116:0.025 117:0.025 118:0.050000001 119:0 120:0.050000001 121:0.0031774708 122:0.0080340067 123:0.0036981935 124:0.0024442084 125:0.0022741763 126:0.002922423 127:0.001370882 128:0.0034112646 129:0.002901169 130:0.0077789584 131:0.0034537725 132:0.002922423 133:0.002763018 134:0.0014558979 135:0.0032199787 136:0.0033581296 137:0.003007439 138:0.0030393198 139:0.00068012753 140:0.0017640807 141:0.050000001 142:0.016666668 143:0.016666668 144:0.050000001 145:0.050000001 146:0 147:0.06666667 148:0.06666667 149:0.050000001 150:0.016666668 151:0.033333335 152:0.050000001 153:0.11666667 154:0.050000001 155:0.13333334 156:0.050000001 157:0.016666668 158:0.050000001 159:0.06666667 160:0.050000001 #CHRD_XENLA 
0.47056898277853148604421562595235 1:0.034014367 2:0.021652035 3:0.031245012 4:0.0058499603 5:0.0049401438 6:0.0032801277 7:0.013543496 8:0.090510771 9:0.074373506 10:0.05282522 11:0.18637669 12:0.094086193 13:0.0035514764 14:0.026033519 15:0.021636073 16:0.053240225 17:0.028379887 18:0.078180365 19:0.076129287 20:0.093304068 21:0.034345049 22:0.011182109 23:0.011980831 24:0.19728434 25:0.050319489 26:0.091054313 27:0.016773162 28:0.40814698 29:0.023162939 30:0.0063897762 31:0.018370608 32:0.018370608 33:0.0079872208 34:0.019169329 35:0.011182109 36:0.0023961661 37:0.0023961661 38:0.0031948881 39:0.064696483 40:0.0015974441 41:0.0011173184 42:0 43:0.00415004 44:0.0007980846 45:0.0007980846 46:0.0015961692 47:0.0007980846 48:0 49:0.0023942539 50:0.0015961692 51:0 52:0.00031923383 53:0.0007980846 54:0 55:0 56:0.0007980846 57:0.0007980846 58:0 59:0 60:0 61:0.050000001 62:0 63:0 64:0 65:0 66:0 67:0.050000001 68:0.050000001 69:0.050000001 70:0.050000001 71:0.15000001 72:0.1 73:0 74:0.2 75:0.1 76:0.050000001 77:0 78:0.1 79:0 80:0.050000001 81:0.0019154031 82:0.0031923384 83:0.0051077413 84:0.0011173184 85:0.0007980846 86:0.0015961692 87:0.0007980846 88:0 89:0.0031923384 90:0.0023942539 91:0.0019154031 92:0.00031923383 93:0.0007980846 94:0.0011173184 95:0.0011173184 96:0.0028731045 97:0.0007980846 98:0.0011173184 99:0.0012769353 100:0.00047885076 101:0.075000003 102:0.050000001 103:0.050000001 104:0 105:0.050000001 106:0.050000001 107:0.025 108:0.075000003 109:0.025 110:0.025 111:0.1 112:0.075000003 113:0.1 114:0.1 115:0.075000003 116:0.025 117:0.025 118:0.050000001 119:0 120:0.025 121:0.0033519552 122:0.004309657 123:0.0059058261 124:0.0011173184 125:0.0007980846 126:0.0015961692 127:0.0007980846 128:0.0015961692 129:0.0044692736 130:0.0033519552 131:0.0033519552 132:0.0015961692 133:0.0007980846 134:0.0011173184 135:0.0011173184 136:0.00415004 137:0.0015961692 138:0.0022346368 139:0.0028731045 140:0.0017557861 141:0.06666667 142:0.033333335 143:0.033333335 144:0.016666668 145:0.06666667 146:0.050000001 147:0.033333335 148:0.1 149:0.033333335 150:0.016666668 151:0.083333336 152:0.11666667 153:0.1 154:0.083333336 155:0.050000001 156:0.016666668 157:0.016666668 158:0.033333335 159:0.033333335 160:0.016666668 #DSPP_HUMAN 
