SVM-light Version V6.01
2 # kernel type
3 # kernel parameter -d 
3 # kernel parameter -g 
1 # kernel parameter -s 
1 # kernel parameter -r 
empty# kernel parameter -u 
160 # highest feature index 
1198 # number of training documents 
131 # number of support vectors plus 1 
0.85774248 # threshold b, each following line is a SV (starting with alpha*y)
-1.6182315282817978374652057027561 1:0.075039998 2:0.084919997 3:0.060320001 4:0.01452 5:0.045880001 6:0.017200001 7:0.029279999 8:0.066359997 9:0.09544 10:0.046879999 11:0.05156 12:0.059719998 13:0.01232 14:0.01832 15:0.02888 16:0.06972 17:0.0184 18:0.0682 19:0.02856 20:0.076760001 21:0.10040161 22:0.028112451 23:0.020080321 24:0.076305218 25:0.06827309 26:0.040160641 27:0.020080321 28:0.032128513 29:0.040160641 30:0.036144577 31:0.10843374 32:0.064257026 33:0.064257026 34:0.076305218 35:0.056224901 36:0.056224901 37:0.0040160641 38:0.020080321 39:0.076305218 40:0.012048192 41:0.0069200001 42:0.0091199996 43:0.0038399999 44:0.00636 45:0.00636 46:0 47:0.00076000002 48:0.0026 49:0.0051199999 50:0.00416 51:0.0049999999 52:0.0095600002 53:0.00132 54:0.00031999999 55:0.001 56:0.00392 57:0.00208 58:0.00132 59:0.00156 60:0.0088400003 61:0.1 62:0 63:0 64:0.1 65:0 66:0.050000001 67:0 68:0.050000001 69:0.1 70:0 71:0.1 72:0.1 73:0.2 74:0 75:0.050000001 76:0.050000001 77:0 78:0 79:0.1 80:0 81:0.01156 82:0.01452 83:0.01004 84:0.00728 85:0.01008 86:0.00324 87:0.00144 88:0.0093999999 89:0.01396 90:0.0060000001 91:0.01004 92:0.01788 93:0.00284 94:0.00168 95:0.00336 96:0.0079600001 97:0.0037199999 98:0.0068799998 99:0.0034 100:0.01392 101:0.1 102:0.025 103:0 104:0.1 105:0 106:0.025 107:0.025 108:0.050000001 109:0.075000003 110:0 111:0.125 112:0.050000001 113:0.1 114:0.1 115:0.050000001 116:0.075000003 117:0 118:0.025 119:0.075000003 120:0 121:0.017039999 122:0.018680001 123:0.01496 124:0.0082 125:0.0142 126:0.0041200002 127:0.0041999999 128:0.01556 129:0.01712 130:0.0098000001 131:0.015799999 132:0.02296 133:0.00312 134:0.0074399998 135:0.0083999997 136:0.01128 137:0.00508 138:0.01196 139:0.0048799999 140:0.02028 141:0.06666667 142:0.033333335 143:0.033333335 144:0.1 145:0.016666668 146:0.016666668 147:0.033333335 148:0.050000001 149:0.06666667 150:0.016666668 151:0.11666667 152:0.06666667 153:0.06666667 154:0.083333336 155:0.050000001 156:0.083333336 157:0 158:0.033333335 159:0.06666667 160:0 #GPP2_YEAST                    
0.10752268986987494059359704579037 1:0.090147056 2:0.095147058 3:0.057500001 4:0.01367647 5:0.032647058 6:0.00014705882 7:0.0050735292 8:0.097499996 9:0.097941175 10:0.065735295 11:0.083529413 12:0.10139706 13:0.059117649 14:0.0043382351 15:0.013382353 16:0.0090441173 17:0.034411766 18:0.0091911769 19:0.05477941 20:0.019338235 21:0 22:0.0074074073 23:0.0074074073 24:0.0074074073 25:0.0074074073 26:0.044444446 27:0.029629629 28:0.088888891 29:0.14814815 30:0.0074074073 31:0.081481479 32:0.11111111 33:0.11111111 34:0.059259258 35:0.074074075 36:0.037037037 37:0 38:0 39:0.11851852 40:0.059259258 41:0.018382354 42:0.018382354 43:0.0097794114 44:0.011029412 45:0.023308823 46:0 47:0.0024264706 48:0.0024264706 49:0.028235294 50:0.0036764706 51:0.0061764708 52:0.011102941 53:0 54:0 55:0.0073529412 56:0 57:0 58:0 59:0 60:0 61:0 62:0.050000001 63:0 64:0 65:0 66:0 67:0 68:0 69:0 70:0.050000001 71:0.25 72:0.2 73:0.15000001 74:0 75:0.050000001 76:0.2 77:0 78:0 79:0.050000001 80:0 81:0.028750001 82:0.028161764 83:0.010588235 84:0.012279412 85:0.024558824 86:0 87:0.0036764706 88:0.013455883 89:0.048823528 90:0.022573529 91:0.011617647 92:0.037132353 93:0 94:0.0024264706 95:0.0097794114 96:0.0008088235 97:0 98:0 99:0.0008088235 100:0.0036764706 101:0 102:0.025 103:0.025 104:0 105:0 106:0 107:0 108:0 109:0.175 110:0.025 111:0.15000001 112:0.175 113:0.1 114:0 115:0.125 116:0.1 117:0 118:0 119:0.1 120:0 121:0.03507353 122:0.030220589 123:0.012720589 124:0.012279412 125:0.024558824 126:0 127:0.0036764706 128:0.028529411 129:0.065441176 130:0.041544117 131:0.026617646 132:0.064779408 133:0.0077941176 134:0.0030147058 135:0.0125 136:0.0018382353 137:0.0055882353 138:0.001985294 139:0.0086764703 140:0.0067647058 141:0 142:0.016666668 143:0.016666668 144:0 145:0 146:0 147:0 148:0.033333335 149:0.25 150:0.016666668 151:0.13333334 152:0.11666667 153:0.083333336 154:0.016666668 155:0.11666667 156:0.06666667 157:0 158:0 159:0.11666667 160:0.016666668 #SC3_SCHCO                     
0.89797035936462810123970257336623 1:0.053264886 2:0.078562625 3:0.035236139 4:0.016652977 5:0.05168378 6:0.010862423 7:0.042135522 8:0.068952769 9:0.071704313 10:0.044866528 11:0.078891173 12:0.06063655 13:0.019671459 14:0.016570842 15:0.037946612 16:0.034168378 17:0.033408623 18:0.045420945 19:0.047330596 20:0.055975359 21:0.018518519 22:0.069958851 23:0.016460905 24:0.072016463 25:0.047325104 26:0.030864198 27:0.026748972 28:0.063786007 29:0.065843619 30:0.041152265 31:0.096707821 32:0.063786007 33:0.08230453 34:0.026748972 35:0.059670784 36:0.045267489 37:0.024691358 38:0.010288066 39:0.11728395 40:0.020576132 41:0.0053798766 42:0.0067967144 43:0.0011909651 44:0.0040246407 45:0.002073922 46:0 47:0.0011088295 48:0.0044763861 49:0.0050308011 50:0.0012731006 51:0.0045174537 52:0.0023819301 53:0.00016427104 54:8.2135521e-05 55:0.0014579055 56:0 57:0.00016427104 58:0 59:0.00043121149 60:0 61:0 62:0 63:0 64:0 65:0 66:0 67:0.050000001 68:0.1 69:0.050000001 70:0 71:0.1 72:0.2 73:0.15000001 74:0.050000001 75:0 76:0.050000001 77:0.1 78:0 79:0.15000001 80:0 81:0.0075359344 82:0.0082135526 83:0.0024024642 84:0.0041273101 85:0.0040657083 86:4.106776e-05 87:0.0025256674 88:0.0074537988 89:0.0069199177 90:0.0030390143 91:0.0097330594 92:0.0059548253 93:0.0028336756 94:0.00041067763 95:0.0021560574 96:0.0011704313 97:0.0037166325 98:0.0016837782 99:0.0025256674 100:0.0034086243 101:0 102:0.025 103:0.025 104:0.050000001 105:0.025 106:0 107:0.050000001 108:0.1 109:0.075000003 110:0 111:0.075000003 112:0.1 113:0.1 114:0.050000001 115:0.050000001 116:0.050000001 117:0.050000001 118:0 119:0.125 120:0.050000001 121:0.0091170436 122:0.010985626 123:0.0044353181 124:0.0043121148 125:0.0068583163 126:0.001560575 127:0.0061601643 128:0.011170431 129:0.0090554412 130:0.0075564682 131:0.014948665 132:0.0066119097 133:0.0028336756 134:0.002073922 135:0.0026488707 136:0.0017043122 137:0.0052361395 138:0.0032854211 139:0.0036550309 140:0.0051950719 141:0 142:0.016666668 143:0.016666668 144:0.050000001 145:0.033333335 146:0 147:0.050000001 148:0.13333334 149:0.050000001 150:0.033333335 151:0.06666667 152:0.083333336 153:0.083333336 154:0.050000001 155:0.083333336 156:0.06666667 157:0.033333335 158:0.016666668 159:0.1 160:0.033333335 #PHYA_THIHE                    
-0.44976461961603259043229741109826 1:0.045159314 2:0.094313726 3:0.038982842 4:0.020122549 5:0.03002451 6:0.011642157 7:0.025159314 8:0.060024511 9:0.089056373 10:0.074154414 11:0.093063727 12:0.058811273 13:0.015208334 14:0.029669117 15:0.055183824 16:0.027622549 17:0.039693628 18:0.044938724 19:0.043566175 20:0.051666666 21:0.023312883 22:0.055214725 23:0.035582822 24:0.058895707 25:0.04171779 26:0.046625767 27:0.042944785 28:0.084662579 29:0.066257671 30:0.029447854 31:0.10920245 32:0.051533744 33:0.10552147 34:0.035582822 35:0.090797544 36:0.028220858 37:0.013496933 38:0.013496933 39:0.05398773 40:0.013496933 41:0 42:0.0016299019 43:0 44:0.0012254902 45:0 46:0 47:0 48:0.0016299019 49:0.0053308825 50:0.0028553922 51:0.0012132353 52:0.0012254902 53:0 54:0.00082107843 55:0.0016299019 56:0.0024509805 57:0 58:0.0016299019 59:0.0020465686 60:0.00082107843 61:0.1 62:0.050000001 63:0.1 64:0.050000001 65:0.050000001 66:0.1 67:0 68:0 69:0.050000001 70:0 71:0.30000001 72:0 73:0.050000001 74:0 75:0.1 76:0 77:0 78:0 79:0.050000001 80:0 81:0.0012254902 82:0.0019362745 83:0.00040441175 84:0.0015318628 85:0 86:0 87:0 88:0.0059191175 89:0.010134804 90:0.0031617647 91:0.0045833332 92:0.0018382353 93:0 94:0.002867647 95:0.0016299019 96:0.0024509805 97:0.00030637256 98:0.0016299019 99:0.0058210786 100:0.0035784314 101:0.050000001 102:0.050000001 103:0.075000003 104:0.075000003 105:0.025 106:0.15000001 107:0 108:0.050000001 109:0.050000001 110:0 111:0.30000001 112:0.025 113:0.025 114:0 115:0.050000001 116:0 117:0 118:0 119:0.075000003 120:0 121:0.0017524509 122:0.0036029413 123:0.0019362745 124:0.0019975491 125:0.00061274512 126:0 127:0 128:0.0085906861 129:0.011691176 130:0.0063725491 131:0.0064460784 132:0.0053553921 133:0 134:0.0029534313 135:0.0029534313 136:0.0029166667 137:0.00062499999 138:0.0016299019 139:0.0072058826 140:0.0052818628 141:0.033333335 142:0.033333335 143:0.050000001 144:0.083333336 145:0.016666668 146:0.11666667 147:0 148:0.033333335 149:0.13333334 150:0 151:0.21666667 152:0.016666668 153:0.083333336 154:0.016666668 155:0.06666667 156:0.016666668 157:0 158:0 159:0.083333336 160:0 #QA1F_NEUCR                    
-0.10421591470188754091630300990801 1:0.046231885 2:0.039516907 3:0.028019324 4:0.015507246 5:0.038671497 6:0.003647343 7:0.018478261 8:0.090362318 9:0.069371983 10:0.040048309 11:0.10188406 12:0.057463769 13:0.0052657006 14:0.013695653 15:0.057101451 16:0.08903382 17:0.040603865 18:0.096280195 19:0.055241548 20:0.062149759 21:0.092009686 22:0.058111381 23:0.0072639226 24:0.065375306 25:0.13801453 26:0.041162226 27:0.016949153 28:0.20581114 29:0.036319613 30:0.014527845 31:0.058111381 32:0.02905569 33:0.024213076 34:0.026634382 35:0.031476997 36:0.038740922 37:0.0072639226 38:0.0048426152 39:0.10169491 40:0.0024213076 41:0.0018115942 42:0.0028019324 43:0.00077294686 44:0.00086956524 45:0.00084541063 46:0 47:0 48:0.0023913044 49:0.0037922706 50:0.0015700483 51:0.0050241547 52:0.0040579708 53:7.2463765e-05 54:0.00036231885 55:0.0015217392 56:0.010507246 57:0.001231884 58:0.0047342996 59:0.003768116 60:0.0021256038 61:0.40000001 62:0 63:0 64:0 65:0.050000001 66:0.050000001 67:0.050000001 68:0.050000001 69:0.1 70:0 71:0.15000001 72:0.1 73:0 74:0 75:0 76:0 77:0 78:0 79:0.050000001 80:0 81:0.0038405797 82:0.0033333334 83:0.0017391305 84:0.00099033816 85:0.0011835749 86:7.2463765e-05 87:0.00012077294 88:0.0042270529 89:0.0067874398 90:0.0032608695 91:0.01205314 92:0.0066908211 93:0.00014492753 94:0.0013043479 95:0.0023913044 96:0.018019324 97:0.0023429953 98:0.013985507 99:0.0090338169 100:0.0048792269 101:0.25 102:0 103:0 104:0 105:0.1 106:0.025 107:0.025 108:0.32499999 109:0.050000001 110:0 111:0.125 112:0.075000003 113:0 114:0 115:0 116:0 117:0 118:0 119:0.025 120:0 121:0.004927536 122:0.003768116 123:0.0021014493 124:0.001231884 125:0.0012801932 126:0.00016908212 127:0.00031400967 128:0.0068357489 129:0.0094202897 130:0.0046135266 131:0.022342995 132:0.011014493 133:0.00024154589 134:0.0023429953 135:0.0035507246 136:0.023864735 137:0.0046618357 138:0.021980677 139:0.010990338 140:0.0084057972 141:0.16666667 142:0 143:0 144:0 145:0.16666667 146:0.016666668 147:0.016666668 148:0.44999999 149:0.033333335 150:0 151:0.083333336 152:0.050000001 153:0 154:0 155:0 156:0 157:0 158:0 159:0.016666668 160:0 #NSR1_YEAST                    
-0.74560038048687182765661418670788 1:0.082933336 2:0.082293332 3:0.065946668 4:0.02224 5:0.04552 6:0.010373333 7:0.036906667 8:0.059973333 9:0.075066663 10:0.05336 11:0.058079999 12:0.053493332 13:0.0048266668 14:0.028106667 15:0.074560001 16:0.056639999 17:0.032559998 18:0.057733335 19:0.036880001 20:0.05328 21:0.050802138 22:0.080213904 23:0.029411765 24:0.05882353 25:0.077540107 26:0.045454547 27:0.029411765 28:0.053475935 29:0.064171121 30:0.042780749 31:0.07486631 32:0.07486631 33:0.05882353 34:0.07486631 35:0.04812834 36:0.045454547 37:0.021390375 38:0.0080213901 39:0.056149732 40:0.0053475937 41:0.0048533333 42:0.0033333334 43:0.0025599999 44:0.0040799999 45:0.0025866667 46:0 47:0 48:0 49:0.010426667 50:0.0056799999 51:0.0059199999 52:0.0044533336 53:0 54:0 55:0.0040266667 56:0.0010133333 57:0.0014666667 58:0 59:0.00088000001 60:0 61:0 62:0.1 63:0 64:0 65:0 66:0.050000001 67:0 68:0.1 69:0.1 70:0 71:0.2 72:0.050000001 73:0.050000001 74:0.1 75:0.1 76:0.050000001 77:0.050000001 78:0 79:0.050000001 80:0 81:0.0088533331 82:0.0059199999 83:0.0080533335 84:0.0042666667 85:0.0035466666 86:0 87:0 88:0.00312 89:0.013706666 90:0.0088266665 91:0.0099466667 92:0.0091199996 93:0.00037333334 94:0.0027733333 95:0.010026666 96:0.0038399999 97:0.0049866666 98:0.00026666667 99:0.00248 100:0.0016266666 101:0.025 102:0.15000001 103:0 104:0.025 105:0 106:0.025 107:0.025 108:0.075000003 109:0.125 110:0 111:0.125 112:0.050000001 113:0.025 114:0.15000001 115:0.075000003 116:0.050000001 117:0.025 118:0 119:0.050000001 120:0 121:0.014426666 122:0.0068000001 123:0.0096800001 124:0.0043466669 125:0.00648 126:0 127:0.00026666667 128:0.015013333 129:0.019173333 130:0.0090133334 131:0.016720001 132:0.016586667 133:0.00037333334 134:0.0040000002 135:0.014266667 136:0.0050400002 137:0.0058133332 138:0.00034666667 139:0.0035999999 140:0.0017866667 141:0.016666668 142:0.11666667 143:0.016666668 144:0.016666668 145:0 146:0.033333335 147:0.033333335 148:0.083333336 149:0.13333334 150:0 151:0.11666667 152:0.050000001 153:0.033333335 154:0.1 155:0.050000001 156:0.050000001 157:0.016666668 158:0 159:0.13333334 160:0 #NUEM_NEUCR                    
1.2486981828843679576124259256176 1:0.063829787 2:0.063936174 3:0.024787234 4:0.017659575 5:0.035425533 6:0 7:0.053297874 8:0.074574471 9:0.13489361 10:0.021276595 11:0.053297874 12:0.060106382 13:0.07808511 14:0 15:0.017765958 16:0.14180851 17:0.010638298 18:0.031914894 19:0.038829789 20:0.067340426 21:0.13978495 22:0.021505376 23:0 24:0.064516127 25:0.032258064 26:0.021505376 27:0.010752688 28:0.064516127 29:0.043010753 30:0.064516127 31:0.15053764 32:0.064516127 33:0.07526882 34:0.021505376 35:0.021505376 36:0.032258064 37:0 38:0 39:0.086021505 40:0.086021505 41:0.028404254 42:0.035531916 43:0.0035106384 44:0.017659575 45:0.024787234 46:0 47:0 48:0.021276595 49:0.046170212 50:0 51:0.014255319 52:0.0070212767 53:0 54:0 55:0 56:0.010638298 57:0.0035106384 58:0 59:0 60:0 61:0.050000001 62:0 63:0 64:0 65:0 66:0 67:0 68:0.1 69:0 70:0 71:0.30000001 72:0.15000001 73:0.2 74:0 75:0 76:0.1 77:0 78:0 79:0.1 80:0 81:0.039042555 82:0.053297874 83:0.0070212767 84:0.017659575 85:0.024787234 86:0 87:0 88:0.035531916 89:0.088723406 90:0.010638298 91:0.035531916 92:0.024787234 93:0 94:0 95:0.010638298 96:0.010638298 97:0.0035106384 98:0.021276595 99:0.0035106384 100:0.028404254 101:0.025 102:0.025 103:0 104:0.075000003 105:0.050000001 106:0 107:0 108:0.1 109:0.050000001 110:0 111:0.25 112:0.1 113:0.15000001 114:0 115:0.025 116:0.050000001 117:0 118:0 119:0.1 120:0 121:0.049680851 122:0.063936174 123:0.014148937 124:0.017659575 125:0.024787234 126:0 127:0.028404254 128:0.049680851 129:0.10648936 130:0.010638298 131:0.039042555 132:0.038936172 133:0.021276595 134:0 135:0.010638298 136:0.067340426 137:0.0035106384 138:0.024787234 139:0.021276595 140:0.035531916 141:0.1 142:0.016666668 143:0 144:0.06666667 145:0.033333335 146:0.033333335 147:0 148:0.06666667 149:0.050000001 150:0.050000001 151:0.2 152:0.083333336 153:0.11666667 154:0.016666668 155:0.016666668 156:0.033333335 157:0 158:0 159:0.083333336 160:0.033333335 #AFP_ASPGI                     
0.29110371639188098447093011600373 1:0.074530385 2:0.084033147 3:0.054806631 4:0.022817679 5:0.038232043 6:0.020939227 7:0.031933703 8:0.094088398 9:0.089834251 10:0.032320444 11:0.071436465 12:0.061878454 13:0.027624309 14:0.012928177 15:0.054640885 16:0.041381214 17:0.017790055 18:0.024751382 19:0.063314915 20:0.053977899 21:0.055555556 22:0.050000001 23:0.022222223 24:0.06666667 25:0.022222223 26:0.06666667 27:0.011111111 28:0.072222225 29:0.077777781 30:0.03888889 31:0.083333336 32:0.072222225 33:0.083333336 34:0.050000001 35:0.03888889 36:0.044444446 37:0.016666668 38:0.016666668 39:0.083333336 40:0.027777778 41:0.0062983427 42:0.012651933 43:0.0070718233 44:0.0070718233 45:0.011049724 46:0 47:0 48:0 49:0.021436464 50:0.0038674034 51:0.014917127 52:0.0070718233 53:0 54:0 55:0 56:0.0055248621 57:0 58:0 59:0 60:0 61:0.050000001 62:0 63:0 64:0 65:0 66:0 67:0 68:0.15000001 69:0.1 70:0 71:0.25 72:0.1 73:0.1 74:0.050000001 75:0.050000001 76:0.15000001 77:0 78:0 79:0 80:0 81:0.011767955 82:0.019005524 83:0.0091712708 84:0.0070718233 85:0.011823204 86:0 87:0.010662983 88:0.0046408838 89:0.030828729 90:0.010939226 91:0.028508287 92:0.020055249 93:0 94:0.0011602209 95:0.0040331492 96:0.0066850828 97:0.00099447509 98:0.0011049723 99:0.0034254144 100:0.01718232 101:0.025 102:0 103:0.025 104:0.1 105:0 106:0 107:0 108:0.15000001 109:0.1 110:0.050000001 111:0.175 112:0.050000001 113:0.125 114:0.025 115:0.1 116:0.075000003 117:0 118:0 119:0 120:0 121:0.018839778 122:0.026906077 123:0.012707182 124:0.011767955 125:0.012209944 126:0.0023756905 127:0.014198895 128:0.021546962 129:0.034751382 130:0.014917127 131:0.044309393 132:0.029502762 133:0.0055248621 134:0.0027071824 135:0.0044198893 136:0.011381215 137:0.0025414363 138:0.0014917128 139:0.011325967 140:0.024309393 141:0.033333335 142:0 143:0.016666668 144:0.1 145:0 146:0.033333335 147:0 148:0.13333334 149:0.11666667 150:0.050000001 151:0.11666667 152:0.050000001 153:0.1 154:0.033333335 155:0.06666667 156:0.050000001 157:0.016666668 158:0 159:0.06666667 160:0.016666668 #AG19_COCIM                    
-0.079473190203307633727725090011518 1:0.083451495 2:0.087220147 3:0.06080224 4:0.027705224 5:0.033022389 6:0.0085074631 7:0.032350745 8:0.063208953 9:0.064962685 10:0.047798507 11:0.06727612 12:0.05516791 13:0.0098880595 14:0.01902985 15:0.034981344 16:0.060783584 17:0.029160447 18:0.057537314 19:0.062611938 20:0.05652985 21:0.078504674 22:0.033644859 23:0.018691588 24:0.061682243 25:0.059813086 26:0.069158882 27:0.037383176 28:0.065420561 29:0.054205608 30:0.039252337 31:0.061682243 32:0.076635517 33:0.10467289 34:0.059813086 35:0.044859812 36:0.039252337 37:0.018691588 38:0.0074766357 39:0.057943925 40:0.011214953 41:0.0043656714 42:0.0011940298 43:0.0023320895 44:0.0020522389 45:0.00035447761 46:0 47:0 48:0.00076492538 49:0.0020335822 50:0.0027985075 51:0.0028171642 52:0.0047201491 53:0.00013059702 54:0.00065298507 55:0.0011940298 56:0.002164179 57:0 58:0.0034701494 59:0.0025932835 60:0.0025559701 61:0.1 62:0.050000001 63:0 64:0.1 65:0.050000001 66:0.050000001 67:0 68:0.050000001 69:0.2 70:0 71:0.050000001 72:0.1 73:0.050000001 74:0.1 75:0.050000001 76:0 77:0 78:0 79:0 80:0.050000001 81:0.0075373133 82:0.0024626865 83:0.0040298509 84:0.0020895523 85:0.00082089554 86:0 87:0.0050373133 88:0.0016231344 89:0.0034888061 90:0.0030223881 91:0.005261194 92:0.010093284 93:0.00016791045 94:0.0025932835 95:0.0030783582 96:0.0038246268 97:0.0009328358 98:0.009085821 99:0.0039552241 100:0.0044962685 101:0.125 102:0.025 103:0 104:0.075000003 105:0.075000003 106:0.075000003 107:0 108:0.050000001 109:0.175 110:0.075000003 111:0.050000001 112:0.1 113:0.075000003 114:0.050000001 115:0.025 116:0 117:0 118:0 119:0 120:0.025 121:0.011847015 122:0.0032835822 123:0.0047201491 124:0.0021268658 125:0.0031902986 126:0.00039179105 127:0.0070708958 128:0.0037499999 129:0.0047201491 130:0.0049999999 131:0.0071268654 132:0.014291044 133:0.00039179105 134:0.0032462687 135:0.0046828357 136:0.0085820891 137:0.0021268658 138:0.010615672 139:0.0057276119 140:0.0068283584 141:0.1 142:0.033333335 143:0 144:0.1 145:0.050000001 146:0.050000001 147:0.016666668 148:0.050000001 149:0.15000001 150:0.06666667 151:0.050000001 152:0.11666667 153:0.06666667 154:0.033333335 155:0.033333335 156:0.050000001 157:0 158:0 159:0.016666668 160:0.016666668 #INO1_YEAST                    
-6 1:0.079762608 2:0.044688426 3:0.035727002 4:0.01495549 5:0.023916913 6:0.019376855 7:0.045845699 8:0.10664689 9:0.083946586 10:0.052700296 11:0.10578635 12:0.07041543 13:0.03139466 14:0.016290801 15:0.011661721 16:0.044747774 17:0.03462908 18:0.037744809 19:0.059970327 20:0.06133531 21:0.047619049 22:0.0089285718 23:0.011904762 24:0.086309522 25:0.041666668 26:0.050595239 27:0.032738097 28:0.13988096 29:0.077380955 30:0.044642858 31:0.086309522 32:0.071428575 33:0.044642858 34:0.035714287 35:0.041666668 36:0.023809524 37:0.011904762 38:0.017857144 39:0.095238097 40:0.029761905 41:0.0043026707 42:0.0081602372 43:0.0051928782 44:0.0037091989 45:0.002967359 46:0 47:0 48:0 49:0.012462908 50:0.0023738872 51:0.014391691 52:0.00059347181 53:0 54:0 55:0 56:0.002967359 57:0 58:0 59:0 60:0 61:0.050000001 62:0 63:0 64:0 65:0 66:0 67:0 68:0.30000001 69:0 70:0 71:0.25 72:0.050000001 73:0.15000001 74:0.1 75:0.050000001 76:0.050000001 77:0 78:0 79:0 80:0 81:0.0078041544 82:0.0091691399 83:0.0056973295 84:0.0037091989 85:0.002967359 86:0 87:0 88:0 89:0.023323443 90:0.0083086053 91:0.016884273 92:0.00059347181 93:0 94:0.011394659 95:0.0019881306 96:0.0084272996 97:0.0010089021 98:0.0039762612 99:0.0010089021 100:0.0079525225 101:0.075000003 102:0 103:0.1 104:0.075000003 105:0.050000001 106:0 107:0 108:0.175 109:0 110:0 111:0.2 112:0.075000003 113:0.075000003 114:0.050000001 115:0.1 116:0.025 117:0 118:0 119:0 120:0 121:0.020326409 122:0.0091691399 123:0.0079525225 124:0.0037091989 125:0.003768546 126:0 127:0.0032640949 128:0.0024629079 129:0.030949555 130:0.0095845694 131:0.022284867 132:0.010237388 133:0 134:0.011394659 135:0.0019881306 136:0.0097626112 137:0.0035014837 138:0.0067655784 139:0.0047181011 140:0.011958457 141:0.050000001 142:0 143:0.06666667 144:0.06666667 145:0.050000001 146:0.016666668 147:0.016666668 148:0.16666667 149:0.083333336 150:0.016666668 151:0.2 152:0.083333336 153:0.050000001 154:0.050000001 155:0.06666667 156:0.016666668 157:0 158:0 159:0 160:0 #NCA3_YEAST                    
-2.1643101785784275570279078237945 1:0.066357613 2:0.086225167 3:0.061258279 4:0.019050773 5:0.041611478 6:0.0094481232 7:0.030022075 8:0.08152318 9:0.067792498 10:0.061677705 11:0.068609275 12:0.058763798 13:0.020154525 14:0.025916114 15:0.044591613 16:0.057682119 17:0.034591611 18:0.05231788 19:0.053730685 20:0.04624724 21:0.039823011 22:0.046460178 23:0.024336284 24:0.046460178 25:0.053097345 26:0.057522126 27:0.03761062 28:0.077433631 29:0.06858407 30:0.03539823 31:0.086283185 32:0.07079646 33:0.06858407 34:0.061946902 35:0.061946902 36:0.046460178 37:0.019911505 38:0.0044247787 39:0.079646021 40:0.013274336 41:0.0011699779 42:0.0054525388 43:0.00088300218 44:0.0027593819 45:0.0029359823 46:0 47:0 48:0.0013245033 49:0.012913907 50:0.0014790287 51:0.004415011 52:0 53:0.00028697573 54:0 55:0.0045695365 56:0.0022075055 57:0.00072847679 58:0 59:0.0021633555 60:0 61:0.050000001 62:0.15000001 63:0 64:0 65:0 66:0.050000001 67:0 68:0.1 69:0 70:0 71:0.30000001 72:0.050000001 73:0.15000001 74:0 75:0.050000001 76:0.050000001 77:0 78:0 79:0.050000001 80:0 81:0.0041059605 82:0.0088962475 83:0.0022075055 84:0.0034437086 85:0.0039735101 86:0.00013245032 87:0.00072847679 88:0.0047682119 89:0.01763797 90:0.006843267 91:0.0084105963 92:0.0028697571 93:0.0005298013 94:0.00026490065 95:0.0094701983 96:0.0052097132 97:0.0034216335 98:0.00035320089 99:0.0038631347 100:0.00035320089 101:0.050000001 102:0.125 103:0 104:0 105:0 106:0.075000003 107:0.050000001 108:0.1 109:0.025 110:0 111:0.2 112:0.050000001 113:0.1 114:0.025 115:0.075000003 116:0.025 117:0.025 118:0 119:0.075000003 120:0 121:0.006843267 122:0.014128035 123:0.0036865342 124:0.0038631347 125:0.0046799118 126:0.00030905078 127:0.0012803532 128:0.006379691 129:0.024503311 130:0.0090066222 131:0.01187638 132:0.0078366445 133:0.0010596026 134:0.0011037528 135:0.012097131 136:0.007218543 137:0.005165563 138:0.003222958 139:0.0048123621 140:0.0017880795 141:0.033333335 142:0.13333334 143:0 144:0.016666668 145:0.033333335 146:0.050000001 147:0.033333335 148:0.06666667 149:0.1 150:0 151:0.21666667 152:0.033333335 153:0.06666667 154:0.033333335 155:0.06666667 156:0.033333335 157:0.016666668 158:0 159:0.06666667 160:0 #CARA_NEUCR                    
-2.3966726884085920445954798196908 1:0.090597019 2:0.083358206 3:0.058208954 4:0.027014926 5:0.046044774 6:0.0010447762 7:0.016044777 8:0.026343284 9:0.10753731 10:0.043805972 11:0.086044773 12:0.050000001 13:0.0061940299 14:0.012761194 15:0.052313432 16:0.056567166 17:0.03738806 18:0.072089553 19:0.024626866 20:0.07358209 21:0.052631579 22:0.052631579 23:0.022556391 24:0.082706764 25:0.060150377 26:0.030075189 27:0.037593983 28:0.060150377 29:0.037593983 30:0.015037594 31:0.17293233 32:0.12030075 33:0.052631579 34:0.052631579 35:0.045112781 36:0.060150377 37:0.0075187972 38:0 39:0.037593983 40:0 41:0.015895523 42:0.015 43:0.0011940298 44:0.0085074631 45:0.0073134326 46:0.00029850745 47:0 48:0.0012686567 49:0.030074626 50:0.0072388058 51:0.021044776 52:0.0085074631 53:0.002164179 54:0.00029850745 55:0.021268656 56:0.0023134327 57:0.0037313432 58:0 59:0.0015671642 60:0 61:0 62:0.15000001 63:0 64:0 65:0 66:0 67:0 68:0.050000001 69:0.1 70:0 71:0.40000001 72:0.15000001 73:0.050000001 74:0 75:0.050000001 76:0.050000001 77:0 78:0 79:0 80:0 81:0.03141791 82:0.024253732 83:0.0091044772 84:0.013208956 85:0.014477612 86:0.00074626866 87:0.0018656716 88:0.0051492536 89:0.048805971 90:0.020671641 91:0.036716416 92:0.01880597 93:0.0024626865 94:0.00059701491 95:0.035223879 96:0.0061940299 97:0.010970149 98:0.00029850745 99:0.0047761193 100:0 101:0.025 102:0.125 103:0 104:0 105:0 106:0 107:0.050000001 108:0.025 109:0.050000001 110:0 111:0.34999999 112:0.175 113:0.025 114:0 115:0.075000003 116:0.075000003 117:0 118:0 119:0.025 120:0 121:0.041119404 122:0.03380597 123:0.013880597 124:0.015373134 125:0.022985075 126:0.00074626866 127:0.0074626864 128:0.010597015 129:0.058880597 130:0.027761195 131:0.049402986 132:0.02597015 133:0.0038059701 134:0.0037313432 135:0.048656717 136:0.017313432 137:0.018059701 138:0.011343284 139:0.0066417912 140:0.0091791041 141:0.050000001 142:0.11666667 143:0.016666668 144:0.016666668 145:0.016666668 146:0 147:0.033333335 148:0.050000001 149:0.033333335 150:0.016666668 151:0.26666668 152:0.15000001 153:0.033333335 154:0.016666668 155:0.050000001 156:0.083333336 157:0 158:0 159:0.050000001 160:0 #ACPM_NEUCR                    
5.2228980660241592914871944230981 1:0.08213333 2:0.046666667 3:0.057799999 4:0 5:0.046666667 6:0.013333334 7:0.057799999 8:0.1 9:0.062266666 10:0.091133334 11:0.0266 12:0.07113333 13:0 14:0.0066666668 15:0.06666667 16:0.026666667 17:0.062199999 18:0.082266666 19:0.039999999 20:0.059999999 21:0.026666667 22:0.06666667 23:0.0066666668 24:0.059999999 25:0.086666666 26:0.039999999 27:0.059999999 28:0.02 29:0.07333333 30:0.059999999 31:0.06666667 32:0.07333333 33:0.046666667 34:0.059999999 35:0.093333334 36:0.046666667 37:0 38:0.013333334 39:0.1 40:0 41:0.013333334 42:0.013333334 43:0.0066666668 44:0 45:0 46:0 47:0.0066666668 48:0.013333334 49:0.0066666668 50:0.013333334 51:0 52:0.013333334 53:0 54:0.0066666668 55:0.013333334 56:0 57:0 58:0.0066666668 59:0.0066666668 60:0.013333334 61:0 62:0.1 63:0.050000001 64:0.1 65:0.050000001 66:0.050000001 67:0 68:0 69:0.1 70:0.050000001 71:0.050000001 72:0.1 73:0.1 74:0.050000001 75:0.1 76:0 77:0 78:0 79:0.1 80:0 81:0.026666667 82:0.013333334 83:0.0066666668 84:0 85:0 86:0 87:0.013333334 88:0.033333335 89:0.026666667 90:0.026666667 91:0.0022 92:0.026666667 93:0 94:0.0066666668 95:0.024466667 96:0.0066666668 97:0.0022 98:0.026666667 99:0.011133334 100:0.013333334 101:0.025 102:0.1 103:0.025 104:0.050000001 105:0.1 106:0.050000001 107:0 108:0 109:0.1 110:0.050000001 111:0.1 112:0.1 113:0.050000001 114:0.025 115:0.1 116:0 117:0 118:0 119:0.125 120:0 121:0.033333335 122:0.013333334 123:0.013333334 124:0 125:0.013333334 126:0.0066666668 127:0.0178 128:0.039999999 129:0.031133333 130:0.039999999 131:0.0066 132:0.039999999 133:0 134:0.0066666668 135:0.033333335 136:0.0066666668 137:0.026666667 138:0.033333335 139:0.0178 140:0.02 141:0.016666668 142:0.083333336 143:0.016666668 144:0.050000001 145:0.083333336 146:0.050000001 147:0.06666667 148:0 149:0.1 150:0.050000001 151:0.083333336 152:0.083333336 153:0.033333335 154:0.033333335 155:0.1 156:0.033333335 157:0 158:0.016666668 159:0.1 160:0 #CLIT_CLINE                    
6 1:0.059408866 2:0.067733988 3:0.046584565 4:0.021018062 5:0.04917898 6:0.015845649 7:0.03555008 8:0.071839079 9:0.10164203 10:0.098719209 11:0.043431856 12:0.053366173 13:0.0035303778 14:0.020525452 15:0.056568146 16:0.034729064 17:0.032922823 18:0.057192117 19:0.050738916 20:0.066912971 21:0.03125 22:0.055921052 23:0.019736841 24:0.070723683 25:0.060855262 26:0.055921052 27:0.032894738 28:0.039473683 29:0.059210528 30:0.034539472 31:0.09375 32:0.064144738 33:0.065789476 34:0.047697369 35:0.10032894 36:0.050986841 37:0.019736841 38:0.018092105 39:0.075657897 40:0.0032894737 41:0.003004926 42:0.0016420361 43:0.0019211823 44:0.0016420361 45:0 46:0.00041050903 47:0.0016420361 48:0.0020525451 49:0.00082101807 50:0.0060262727 51:0.0016420361 52:0.0028735632 53:0 54:0 55:0 56:0.00082101807 57:0 58:0.0050574713 59:0.0020525451 60:0.0012315271 61:0.050000001 62:0 63:0 64:0.050000001 65:0.15000001 66:0.1 67:0 68:0.050000001 69:0.1 70:0.050000001 71:0 72:0.050000001 73:0.050000001 74:0.1 75:0.2 76:0 77:0 78:0 79:0.050000001 80:0 81:0.0062889983 82:0.0077996715 83:0.0035632183 84:0.0016420361 85:0.0016420361 86:0.0020525451 87:0.0036945813 88:0.0032840723 89:0.0012315271 90:0.0060262727 91:0.0024630541 92:0.0053366176 93:0 94:0.0024630541 95:0.0016420361 96:0.00082101807 97:0 98:0.0062889983 99:0.0077996715 100:0.0016420361 101:0.025 102:0.025 103:0.050000001 104:0.025 105:0.1 106:0.1 107:0 108:0.025 109:0.1 110:0.050000001 111:0 112:0.1 113:0.1 114:0.075000003 115:0.1 116:0.025 117:0 118:0.025 119:0.075000003 120:0 121:0.0075205253 122:0.015188834 123:0.0035632183 124:0.0028735632 125:0.0016420361 126:0.0020525451 127:0.0036945813 128:0.0086206896 129:0.0073891627 130:0.010541872 131:0.0045155995 132:0.0061576352 133:0 134:0.0036945813 135:0.0032840723 136:0.0012315271 137:0.00082101807 138:0.0062889983 139:0.0077996715 140:0.0016420361 141:0.016666668 142:0.033333335 143:0.050000001 144:0.016666668 145:0.06666667 146:0.06666667 147:0 148:0.033333335 149:0.083333336 150:0.033333335 151:0.050000001 152:0.06666667 153:0.15000001 154:0.06666667 155:0.11666667 156:0.016666668 157:0.016666668 158:0.016666668 159:0.1 160:0 #PRXC_CURIN                    
2.4002038372482692452081209921744 1:0.0625 2:0 3:0 4:0 5:0.015625 6:0.015625 7:0.015625 8:0.203125 9:0.03125 10:0 11:0.09375 12:0.09375 13:0.125 14:0.015625 15:0.0625 16:0.0625 17:0.03125 18:0.03125 19:0.0625 20:0.078125 21:0.0625 22:0.0625 23:0.015625 24:0.078125 25:0.03125 26:0.0625 27:0.03125 28:0.09375 29:0.09375 30:0.015625 31:0.03125 32:0.0625 33:0 34:0 35:0 36:0.015625 37:0 38:0.015625 39:0.203125 40:0.125 41:0.015625 42:0 43:0 44:0 45:0 46:0 47:0.015625 48:0.046875 49:0.015625 50:0 51:0.03125 52:0.03125 53:0.03125 54:0 55:0.03125 56:0.015625 57:0.015625 58:0 59:0.03125 60:0.03125 61:0.050000001 62:0.1 63:0 64:0.1 65:0 66:0.1 67:0.050000001 68:0.1 69:0.1 70:0.050000001 71:0.050000001 72:0.050000001 73:0 74:0 75:0 76:0 77:0 78:0 79:0.15000001 80:0.1 81:0.046875 82:0 83:0 84:0 85:0.015625 86:0 87:0.015625 88:0.125 89:0.015625 90:0 91:0.03125 92:0.046875 93:0.078125 94:0.015625 95:0.0625 96:0.03125 97:0.015625 98:0.015625 99:0.046875 100:0.0625 101:0.050000001 102:0.1 103:0.025 104:0.1 105:0.025 106:0.075000003 107:0.025 108:0.050000001 109:0.075000003 110:0.025 111:0.025 112:0.075000003 113:0 114:0 115:0 116:0.025 117:0 118:0 119:0.2 120:0.125 121:0.0625 122:0 123:0 124:0 125:0.015625 126:0.015625 127:0.015625 128:0.1875 129:0.015625 130:0 131:0.09375 132:0.078125 133:0.109375 134:0.015625 135:0.0625 136:0.0625 137:0.03125 138:0.03125 139:0.0625 140:0.078125 141:0.06666667 142:0.06666667 143:0.016666668 144:0.083333336 145:0.033333335 146:0.06666667 147:0.033333335 148:0.1 149:0.083333336 150:0.016666668 151:0.016666668 152:0.06666667 153:0 154:0 155:0 156:0.016666668 157:0 158:0.016666668 159:0.2 160:0.11666667 #BUBL_PENBR                    
-0.14035986493614432957244275712583 1:0.08130081 2:0.06666667 3:0.050813008 4:0.02601626 5:0.03902439 6:0.0056910571 7:0.03495935 8:0.0699187 9:0.087398373 10:0.087804876 11:0.074796751 12:0.043902438 13:0.016260162 14:0.030894309 15:0.052032519 16:0.0699187 17:0.021138212 18:0.068292685 19:0.043902438 20:0.021138212 21:0.081967212 22:0.049180329 23:0.040983606 24:0.0081967209 25:0.073770493 26:0.049180329 27:0.0081967209 28:0.090163931 29:0.040983606 30:0.024590164 31:0.081967212 32:0.081967212 33:0.065573767 34:0.065573767 35:0.090163931 36:0.049180329 37:0.024590164 38:0.0081967209 39:0.049180329 40:0.016393442 41:0.014634146 42:0.0097560976 43:0.014634146 44:0.014634146 45:0.008130081 46:0 47:0.008130081 48:0 49:0.02601626 50:0.01300813 51:0.008130081 52:0.0065040649 53:0 54:0 55:0.0097560976 56:0.014634146 57:0.0032520324 58:0.0048780488 59:0.0032520324 60:0 61:0.1 62:0.050000001 63:0 64:0 65:0.050000001 66:0 67:0 68:0.050000001 69:0.050000001 70:0.050000001 71:0.15000001 72:0.050000001 73:0.050000001 74:0.15000001 75:0.1 76:0.050000001 77:0.050000001 78:0 79:0.050000001 80:0 81:0.035772357 82:0.017886179 83:0.017886179 84:0.014634146 85:0.008130081 86:0 87:0.008130081 88:0.016260162 89:0.042276423 90:0.032520324 91:0.0097560976 92:0.02601626 93:0.008130081 94:0.022764228 95:0.016260162 96:0.022764228 97:0.0032520324 98:0.0097560976 99:0.0048780488 100:0.0032520324 101:0.075000003 102:0.050000001 103:0.075000003 104:0 105:0.050000001 106:0.025 107:0 108:0.025 109:0.1 110:0.025 111:0.125 112:0.125 113:0.050000001 114:0.075000003 115:0.1 116:0.025 117:0.025 118:0 119:0.025 120:0.025 121:0.048780486 122:0.029268293 123:0.022764228 124:0.022764228 125:0.01300813 126:0.0016260162 127:0.014634146 128:0.035772357 129:0.052032519 130:0.047154471 131:0.024390243 132:0.029268293 133:0.014634146 134:0.022764228 135:0.017886179 136:0.035772357 137:0.0048780488 138:0.024390243 139:0.014634146 140:0.0065040649 141:0.1 142:0.033333335 143:0.050000001 144:0 145:0.06666667 146:0.033333335 147:0 148:0.050000001 149:0.06666667 150:0.033333335 151:0.083333336 152:0.1 153:0.050000001 154:0.06666667 155:0.1 156:0.033333335 157:0.050000001 158:0 159:0.050000001 160:0.033333335 #RT31_YEAST                    
-1.7691729903742035023839207497076 1:0.082652442 2:0.085884146 3:0.067987807 4:0.026280487 5:0.025945121 6:0.0088109756 7:0.013841463 8:0.090365857 9:0.064451218 10:0.072042681 11:0.072682925 12:0.047835365 13:0.030243902 14:0.016036585 15:0.024878049 16:0.058048781 17:0.035182927 18:0.059695121 19:0.034634147 20:0.063414633 21:0.067278288 22:0.01529052 23:0.018348623 24:0.085626908 25:0.073394492 26:0.039755352 27:0.01529052 28:0.076452598 29:0.039755352 30:0.018348623 31:0.061162081 32:0.067278288 33:0.10091743 34:0.067278288 35:0.067278288 36:0.021406727 37:0.027522936 38:0.012232416 39:0.091743119 40:0.033639144 41:0.006402439 42:0.006067073 43:0.0033841464 44:0.0036280488 45:0 46:0 47:0.0016768293 48:0.00094512192 49:0.0038719513 50:0.006402439 51:0.0014329269 52:0.0052134148 53:0 54:0.0014939024 55:0.00018292683 56:0.0017378049 57:0.0038719513 58:0.0078658536 59:0.0038109757 60:0.0019512195 61:0 62:0 63:0.050000001 64:0.050000001 65:0.2 66:0.1 67:0.050000001 68:0 69:0.050000001 70:0.050000001 71:0.050000001 72:0.1 73:0.15000001 74:0.050000001 75:0.1 76:0 77:0 78:0 79:0 80:0 81:0.0071036587 82:0.006402439 83:0.0037804877 84:0.003902439 85:0 86:0 87:0.0016768293 88:0.0079573169 89:0.013018292 90:0.016737806 91:0.0082317069 92:0.0069207316 93:0.0030487804 94:0.0039329268 95:0.00048780488 96:0.004237805 97:0.0066768294 98:0.015701219 99:0.0046646344 100:0.0056402441 101:0.025 102:0 103:0.050000001 104:0.075000003 105:0.175 106:0.050000001 107:0.025 108:0.050000001 109:0.025 110:0.025 111:0.075000003 112:0.050000001 113:0.075000003 114:0.025 115:0.15000001 116:0 117:0.025 118:0 119:0.050000001 120:0.050000001 121:0.0074390243 122:0.0072256099 123:0.0058841463 124:0.0039634146 125:0 126:0 127:0.0017378049 128:0.014786585 129:0.020152438 130:0.026128048 131:0.012256098 132:0.0084451223 133:0.012195121 134:0.0039329268 135:0.0014329269 136:0.0076524392 137:0.010579268 138:0.017621951 139:0.0082317069 140:0.010304878 141:0.050000001 142:0 143:0.033333335 144:0.083333336 145:0.15000001 146:0.050000001 147:0.016666668 148:0.050000001 149:0.016666668 150:0.016666668 151:0.06666667 152:0.033333335 153:0.06666667 154:0.050000001 155:0.15000001 156:0 157:0.016666668 158:0 159:0.083333336 160:0.06666667 #NBP35_YEAST                   
0.48833470631852499144187618185242 1:0.053253014 2:0.086506024 3:0.051506024 4:0.018027108 5:0.047846384 6:0.015436747 7:0.035195783 8:0.074698798 9:0.075331323 10:0.04746988 11:0.098433733 12:0.06816265 13:0.014472892 14:0.009939759 15:0.029864458 16:0.036114458 17:0.02935241 18:0.039066266 19:0.069533132 20:0.055361446 21:0.033182506 22:0.028657617 23:0.0090497741 24:0.070889898 25:0.033182506 26:0.093514331 27:0.02413273 28:0.11161388 29:0.072398193 30:0.028657617 31:0.088989444 32:0.049773756 33:0.096530922 34:0.046757165 35:0.036199097 36:0.052790347 37:0.013574661 38:0.019607844 39:0.07692308 40:0.013574661 41:0.0029668675 42:0.0070030121 43:0.0010240964 44:0.0016566265 45:0.001129518 46:0.0001807229 47:0.00027108434 48:0.0010391566 49:0.0034789157 50:0.00067771086 51:0.0033433735 52:0.0019578314 53:0.00027108434 54:0 55:0.00022590361 56:0.0010843374 57:0.0012951808 58:0.00051204819 59:0.00072289159 60:0.00049698795 61:0.050000001 62:0 63:0 64:0 65:0.050000001 66:0.1 67:0.050000001 68:0.15000001 69:0.1 70:0 71:0.1 72:0.15000001 73:0.25 74:0 75:0 76:0 77:0 78:0 79:0 80:0 81:0.0049548191 82:0.0076204818 83:0.0017771084 84:0.0016566265 85:0.0014759037 86:0.0008885542 87:0.0021987951 88:0.0025753011 89:0.0062951809 90:0.0048343372 91:0.0077560241 92:0.0040813251 93:0.0017771084 94:3.0120482e-05 95:0.00066265062 96:0.002063253 97:0.0018674699 98:0.00087349396 99:0.0027861446 100:0.0027108435 101:0.025 102:0 103:0 104:0.075000003 105:0.025 106:0.15000001 107:0.025 108:0.125 109:0.075000003 110:0.025 111:0.1 112:0.125 113:0.125 114:0.025 115:0.050000001 116:0 117:0 118:0.025 119:0 120:0.025 121:0.0056475904 122:0.010677711 123:0.0034789157 124:0.0019427711 125:0.0022590361 126:0.0016415663 127:0.0028012048 128:0.0040210844 129:0.0083584338 130:0.0056626508 131:0.011039156 132:0.0054518073 133:0.0020331326 134:0.0001807229 135:0.0042469879 136:0.003569277 137:0.0032379518 138:0.0039156629 139:0.0044728913 140:0.0042620483 141:0.050000001 142:0.033333335 143:0 144:0.083333336 145:0.06666667 146:0.11666667 147:0.016666668 148:0.11666667 149:0.06666667 150:0.016666668 151:0.083333336 152:0.1 153:0.13333334 154:0.016666668 155:0.033333335 156:0 157:0 158:0.033333335 159:0.016666668 160:0.016666668 #PLB1_YEAST                    
6 1:0.055325367 2:0.098525897 3:0.044674635 4:0.020119522 5:0.02932271 6:0.0087915007 7:0.019123506 8:0.039774235 9:0.060252324 10:0.037954848 11:0.087423638 12:0.047729082 13:0.0068791499 14:0.016746348 15:0.062297478 16:0.069973439 17:0.0425498 18:0.062855244 19:0.053798139 20:0.057357237 21:0.077127658 22:0.057180852 23:0.01462766 24:0.070478722 25:0.061170213 26:0.087765954 27:0.049202129 28:0.10771277 29:0.050531916 30:0.015957447 31:0.045212764 32:0.047872342 33:0.11037234 34:0.059840426 35:0.041223403 36:0.035904255 37:0.025265958 38:0.0053191488 39:0.029255319 40:0.0079787234 41:0.0021248341 42:0.0015936255 43:0 44:0.0013280213 45:0.0013280213 46:0.0013280213 47:0.00026560426 48:0.00053120853 49:0.0013280213 50:0 51:0.0029216467 52:0.00026560426 53:0 54:0.00079681276 55:0.0015936255 56:0.0042496682 57:0 58:0.00053120853 59:0.0018592298 60:0.00079681276 61:0.25 62:0.050000001 63:0.050000001 64:0 65:0.050000001 66:0.1 67:0 68:0.15000001 69:0 70:0 71:0.1 72:0.1 73:0.050000001 74:0 75:0 76:0.050000001 77:0 78:0.050000001 79:0 80:0 81:0.002563081 82:0.0020451527 83:0.00038512616 84:0.0013280213 85:0.0015139442 86:0.0013280213 87:0.00026560426 88:0.0018592298 89:0.0032270916 90:0.0039309431 91:0.0086454181 92:0.0022841964 93:0 94:0.00079681276 95:0.0027755643 96:0.0091102254 97:0.0017131474 98:0.00124834 99:0.0026560426 100:0.00098273577 101:0.30000001 102:0.025 103:0.025 104:0 105:0.025 106:0.050000001 107:0.050000001 108:0.125 109:0.050000001 110:0 111:0.1 112:0.050000001 113:0.025 114:0 115:0.125 116:0.025 117:0 118:0.025 119:0 120:0 121:0.0037450199 122:0.0043824702 123:0.0010624171 124:0.001500664 125:0.0020185923 126:0.0013280213 127:0.0015936255 128:0.0028552457 129:0.0049136784 130:0.0077556442 131:0.010836653 132:0.0041434262 133:0 134:0.00096945552 135:0.0041168658 136:0.010292165 137:0.0028950863 138:0.0017662683 139:0.0050066402 140:0.0033333334 141:0.21666667 142:0.016666668 143:0.016666668 144:0.033333335 145:0.016666668 146:0.06666667 147:0.033333335 148:0.11666667 149:0.083333336 150:0.033333335 151:0.1 152:0.033333335 153:0.050000001 154:0.016666668 155:0.13333334 156:0.016666668 157:0 158:0.016666668 159:0 160:0 #EXO84_YEAST                   
1.8659054801560315262065614660969 1:0.079152539 2:0.082598872 3:0.068022601 4:0.0093220342 5:0.035847459 6:0.0076553673 7:0.034293786 8:0.064406782 9:0.092259884 10:0.047598869 11:0.12299435 12:0.081807911 13:0.0062429379 14:0.011327684 15:0.017146893 16:0.045338985 17:0.030677967 18:0.03403955 19:0.062288135 20:0.034661017 21:0.048158642 22:0.014164306 23:0.0056657223 24:0.036827195 25:0.036827195 26:0.076487251 27:0.025495751 28:0.14447592 29:0.084985837 30:0.036827195 31:0.093484417 32:0.10764872 33:0.070821531 34:0.070821531 35:0.048158642 36:0.036827195 37:0 38:0.0056657223 39:0.050991502 40:0.0056657223 41:0.011299435 42:0.0084745763 43:0 44:0.0028248588 45:0.0028248588 46:0 47:0 48:0 49:0.011299435 50:0 51:0.011299435 52:0 53:0.0028248588 54:0 55:0 56:0.0028248588 57:0.0028248588 58:0 59:0 60:0 61:0.050000001 62:0 63:0 64:0 65:0 66:0 67:0.050000001 68:0.2 69:0 70:0 71:0.2 72:0.2 73:0.15000001 74:0 75:0.050000001 76:0.050000001 77:0 78:0 79:0 80:0.050000001 81:0.014124294 82:0.012231639 83:0.0037853108 84:0.0028248588 85:0.0056497175 86:0 87:0.0018926554 88:0 89:0.01881356 90:0.0033050848 91:0.016016949 92:0 93:0.0028248588 94:0.0037570621 95:0.0018926554 96:0.013163842 97:0.0028248588 98:0.0028248588 99:0.0061299433 100:0.00093220337 101:0.1 102:0.025 103:0.025 104:0 105:0.025 106:0.075000003 107:0.025 108:0.175 109:0 110:0.025 111:0.15000001 112:0.125 113:0.1 114:0.050000001 115:0.025 116:0.050000001 117:0 118:0 119:0 120:0.025 121:0.015056497 122:0.016016949 123:0.0080225989 124:0.0028248588 125:0.0070621469 126:0.00093220337 127:0.0028248588 128:0.00799435 129:0.023531074 130:0.0061299433 131:0.026836159 132:0.0065819211 133:0.0028248588 134:0.0037570621 135:0.0018926554 136:0.0159887 137:0.0028248588 138:0.0028248588 139:0.010819209 140:0.00093220337 141:0.06666667 142:0.016666668 143:0.016666668 144:0 145:0.016666668 146:0.13333334 147:0.016666668 148:0.16666667 149:0.050000001 150:0.033333335 151:0.13333334 152:0.1 153:0.083333336 154:0.033333335 155:0.033333335 156:0.033333335 157:0 158:0.016666668 159:0.033333335 160:0.016666668 #YGP1_YEAST                    
5.6142077000473298298288682417478 1:0.07505843 2:0.073722869 3:0.053455759 4:0.015158597 5:0.04252087 6:0.016994992 7:0.032921534 8:0.07040067 9:0.071252085 10:0.068530887 11:0.057712853 12:0.070968278 13:0.0082303835 14:0.035442404 15:0.033105176 16:0.025358932 17:0.032387313 18:0.033555925 19:0.057562605 20:0.054724541 21:0.060200669 22:0.045150504 23:0.043478262 24:0.073578596 25:0.04180602 26:0.046822742 27:0.033444814 28:0.053511705 29:0.066889629 30:0.03846154 31:0.080267556 32:0.078595318 33:0.081939802 34:0.056856189 35:0.063545153 36:0.031772576 37:0.0050167223 38:0.018394649 39:0.071906358 40:0.0083612036 41:0.0024874792 42:0.0058931555 43:0.0011519198 44:0.0014023372 45:0.0021702838 46:3.338898e-05 47:0.00018363939 48:0.0012020033 49:0.0058263773 50:0.0009849749 51:0.00360601 52:0.0024707846 53:0.00035058431 54:0.00058430718 55:0.0015859766 56:0.0003839733 57:0.0013188648 58:0.0005175292 59:0.0005175292 60:0.00026711184 61:0 62:0.1 63:0 64:0 65:0 66:0 67:0 68:0.2 69:0.1 70:0 71:0.25 72:0.1 73:0.15000001 74:0 75:0 76:0.1 77:0 78:0 79:0 80:0 81:0.0063105174 82:0.0074958266 83:0.0029215359 84:0.0016861436 85:0.0037562605 86:0.00091819698 87:0.001669449 88:0.0035392321 89:0.0075626043 90:0.0026711186 91:0.0053923205 92:0.0055425707 93:0.00070116861 94:0.0014691151 95:0.0034891486 96:0.0017362271 97:0.0021202003 98:0.0021035059 99:0.0024373957 100:0.0025041737 101:0 102:0.075000003 103:0 104:0.075000003 105:0 106:0.050000001 107:0 108:0.1 109:0.075000003 110:0.025 111:0.2 112:0.15000001 113:0.075000003 114:0 115:0.025 116:0.075000003 117:0 118:0 119:0.075000003 120:0 121:0.0094991652 122:0.0094323875 123:0.0058263773 124:0.0023873122 125:0.0048247078 126:0.0013021703 127:0.0020701168 128:0.0082971621 129:0.0094323875 130:0.006293823 131:0.0063272119 132:0.0074958266 133:0.00093489146 134:0.0016527546 135:0.0042904844 136:0.0027378965 137:0.0033722871 138:0.0031051752 139:0.0055091819 140:0.0045242072 141:0.016666668 142:0.06666667 143:0 144:0.06666667 145:0 146:0.06666667 147:0 148:0.06666667 149:0.083333336 150:0.016666668 151:0.16666667 152:0.13333334 153:0.083333336 154:0.016666668 155:0.050000001 156:0.06666667 157:0 158:0 159:0.1 160:0 #LAC2_THACU                    
-0.5644263537284014420336575312831 1:0.051399998 2:0.032099999 3:0.02878 4:0.01452 5:0.031259999 6:0.00324 7:0.01608 8:0.071319997 9:0.06072 10:0.048300002 11:0.10654 12:0.0603 13:0.0047800001 14:0.01226 15:0.04442 16:0.1224 17:0.036040001 18:0.11008 19:0.042440001 20:0.06134 21:0.10220441 22:0.046092186 23:0.002004008 24:0.052104209 25:0.13827655 26:0.026052104 27:0.024048096 28:0.22244489 29:0.04008016 30:0.01002004 31:0.056112226 32:0.048096191 33:0.02004008 34:0.026052104 35:0.038076151 36:0.032064129 37:0.0060120239 38:0.0040080161 39:0.098196395 40:0.0080160322 41:0.0020399999 42:0.00050000002 43:0.00056000001 44:0.0020000001 45:0 46:0 47:7.9999998e-05 48:0.00053999998 49:0.0017 50:0.0026 51:0.0067599998 52:0.0023399999 53:9.9999997e-05 54:5.9999998e-05 55:0.00039999999 56:0.01082 57:0.00089999998 58:0.0059600002 59:0.00069999998 60:0.00186 61:0.40000001 62:0 63:0 64:0.050000001 65:0.050000001 66:0 67:0 68:0.15000001 69:0.1 70:0 71:0.1 72:0.1 73:0 74:0 75:0 76:0 77:0 78:0 79:0.050000001 80:0 81:0.00382 82:0.00072000001 83:0.0021200001 84:0.0020399999 85:0.00016 86:3.9999999e-05 87:0.00012 88:0.00094 89:0.0042599998 90:0.00624 91:0.01248 92:0.0053400001 93:9.9999997e-05 94:0.00050000002 95:0.00089999998 96:0.018780001 97:0.0021800001 98:0.01216 99:0.00186 100:0.0040799999 101:0.34999999 102:0 103:0 104:0.025 105:0.1 106:0 107:0 108:0.125 109:0.075000003 110:0 111:0.15000001 112:0.050000001 113:0 114:0.075000003 115:0.025 116:0 117:0 118:0 119:0.025 120:0 121:0.0055800001 122:0.0015 123:0.0027600001 124:0.0021200001 125:0.00026 126:7.9999998e-05 127:0.00022 128:0.0016 129:0.0057600001 130:0.0088200001 131:0.01874 132:0.0082999999 133:0.00014 134:0.00104 135:0.00154 136:0.028240001 137:0.0034399999 138:0.01822 139:0.0026799999 140:0.0074399998 141:0.34999999 142:0.016666668 143:0 144:0.033333335 145:0.083333336 146:0 147:0.016666668 148:0.15000001 149:0.06666667 150:0 151:0.13333334 152:0.050000001 153:0 154:0.050000001 155:0.033333335 156:0 157:0 158:0 159:0.016666668 160:0 #GAR2_SCHPO                    
-2.0618514531241376452896929549752 1:0.04603878 2:0.086426593 3:0.032548476 4:0.014903047 5:0.046011079 6:0.012409972 7:0.033185594 8:0.086537398 9:0.10745152 10:0.055567868 11:0.065401658 12:0.050221607 13:0.0074792244 14:0.02232687 15:0.048033241 16:0.060554016 17:0.02598338 18:0.054875348 19:0.037894737 20:0.057590026 21:0.072222225 22:0.03888889 23:0.022222223 24:0.069444448 25:0.055555556 26:0.063888893 27:0.030555556 28:0.072222225 29:0.055555556 30:0.044444446 31:0.091666669 32:0.041666668 33:0.086111113 34:0.025 35:0.050000001 36:0.055555556 37:0.013888889 38:0.025 39:0.083333336 40:0.0027777778 41:0.0020775623 42:0.0067867036 43:0.00069252076 44:0.0034903048 45:0 46:0 47:0 48:0.0015512465 49:0.0065927976 50:0.0035734072 51:0.0090858722 52:0.0070914128 53:0 54:0.0013850415 55:0.0080055399 56:0.0013850415 57:0.00069252076 58:0 59:0.0010526315 60:0 61:0.050000001 62:0.15000001 63:0.050000001 64:0 65:0 66:0 67:0 68:0.1 69:0.15000001 70:0.050000001 71:0.1 72:0.050000001 73:0.2 74:0 75:0.050000001 76:0 77:0 78:0 79:0.050000001 80:0 81:0.0042659282 82:0.011246538 83:0.0024653741 84:0.0034903048 85:0.0047368421 86:0 87:0.0060110805 88:0.0065096952 89:0.022382271 90:0.0045152353 91:0.012880886 92:0.010692521 93:0.00038781163 94:0.0013850415 95:0.0098614963 96:0.001800554 97:0.0014958449 98:0.00022160665 99:0.0018282549 100:0.00022160665 101:0.025 102:0.075000003 103:0.025 104:0 105:0 106:0 107:0.050000001 108:0.125 109:0.1 110:0.050000001 111:0.30000001 112:0.025 113:0.125 114:0 115:0.025 116:0.050000001 117:0 118:0 119:0.025 120:0 121:0.0048476453 122:0.011828255 123:0.0028531856 124:0.0034903048 125:0.0060941828 126:0.0021883657 127:0.0069806096 128:0.014210526 129:0.0266759 130:0.007063712 131:0.020609418 132:0.012243767 133:0.00038781163 134:0.0029639888 135:0.011828255 136:0.003961219 137:0.0024930749 138:0.0011911357 139:0.010637119 140:0.0011911357 141:0.050000001 142:0.06666667 143:0.033333335 144:0 145:0 146:0.050000001 147:0.033333335 148:0.16666667 149:0.06666667 150:0.033333335 151:0.2 152:0.016666668 153:0.083333336 154:0 155:0.033333335 156:0.033333335 157:0 158:0.033333335 159:0.1 160:0 #CCPR_YEAST                    
2.9370138807594035057491055340506 1:0.068023629 2:0.081299677 3:0.049957037 4:0.016380236 5:0.045069817 6:0.029076261 7:0.041052632 8:0.056906551 9:0.052137487 10:0.045069817 11:0.073587537 12:0.05462943 13:0.010386681 14:0.024264231 15:0.040418904 16:0.041546725 17:0.03809882 18:0.05189044 19:0.047518797 20:0.052427497 21:0.030107526 22:0.04623656 23:0.023655914 24:0.058064517 25:0.043010753 26:0.049462367 27:0.032258064 28:0.090322584 29:0.067741938 30:0.053763442 31:0.069892474 32:0.072043009 33:0.092473119 34:0.048387095 35:0.058064517 36:0.034408603 37:0.018279569 38:0.035483871 39:0.073118277 40:0.0032258064 41:0.00062298606 42:0.0039849626 43:0.0011707841 44:0.0012244898 45:0.00035445756 46:0 47:0 48:0.0016111708 49:0.0052738991 50:0.00070891512 51:0.0018689581 52:0.0013533834 53:0 54:0.0014285714 55:0.0012567132 56:0 57:0 58:0.00018259935 59:0.00018259935 60:0.00026852847 61:0 62:0.050000001 63:0.050000001 64:0 65:0 66:0 67:0 68:0.050000001 69:0.050000001 70:0 71:0.25 72:0.050000001 73:0.25 74:0.050000001 75:0.1 76:0 77:0 78:0 79:0.1 80:0 81:0.0014070892 82:0.005886144 83:0.0021160042 84:0.0012244898 85:0.000698174 86:0.0010741139 87:0.00040816327 88:0.0038882922 89:0.0056820624 90:0.00080558541 91:0.0056820624 92:0.0021589689 93:0.00020408163 94:0.0021589689 95:0.0023737915 96:0.00081632653 97:0.00096670247 98:0.00085929106 99:0.0021804511 100:0.0011278195 101:0.025 102:0.1 103:0.050000001 104:0.025 105:0.025 106:0.025 107:0.025 108:0.125 109:0.050000001 110:0 111:0.15000001 112:0.025 113:0.2 114:0.050000001 115:0.050000001 116:0 117:0 118:0.025 119:0.050000001 120:0 121:0.0036627282 122:0.0092158969 123:0.0026315791 124:0.0012781955 125:0.0014930182 126:0.0010741139 127:0.00068743288 128:0.00566058 129:0.0075617614 130:0.0026208379 131:0.0070569282 132:0.0032330826 133:0.00066595059 134:0.0033941998 135:0.003093448 136:0.0012674544 137:0.0023415682 138:0.0015145006 139:0.0028249195 140:0.0018474759 141:0.016666668 142:0.083333336 143:0.050000001 144:0.033333335 145:0.016666668 146:0.016666668 147:0.050000001 148:0.1 149:0.050000001 150:0 151:0.13333334 152:0.06666667 153:0.18333334 154:0.050000001 155:0.06666667 156:0.016666668 157:0 158:0.016666668 159:0.050000001 160:0 #MANBA_ASPNG                   
6 1:0.07281746 2:0.074404761 3:0.037936509 4:0.014642857 5:0.054285713 6:0.011587301 7:0.043333333 8:0.06793651 9:0.077023812 10:0.058412697 11:0.068888888 12:0.050198413 13:0.01686508 14:0.024563491 15:0.061825398 16:0.055595238 17:0.031587303 18:0.056825396 19:0.049682539 20:0.062103175 21:0.055555556 22:0.039682541 23:0.019841271 24:0.08730159 25:0.027777778 26:0.035714287 27:0.027777778 28:0.08730159 29:0.083333336 30:0.047619049 31:0.075396828 32:0.071428575 33:0.079365082 34:0.023809524 35:0.051587302 36:0.063492067 37:0.011904762 38:0.0079365084 39:0.091269843 40:0.011904762 41:0.0016666667 42:0.0061507937 43:0.0039682542 44:0.001031746 45:0.006111111 46:0 47:0.002936508 48:0.0088888891 49:0.0052380953 50:0.010992063 51:0.0095634917 52:0.0023809525 53:0 54:0.0013095238 55:0.0014285714 56:0.0033730159 57:0.0022619048 58:0.0033730159 59:0.0039285715 60:0.0037301588 61:0 62:0.050000001 63:0 64:0.1 65:0.050000001 66:0.050000001 67:0.050000001 68:0.15000001 69:0.050000001 70:0 71:0.050000001 72:0 73:0.1 74:0.050000001 75:0.1 76:0.1 77:0 78:0 79:0.1 80:0 81:0.0097222226 82:0.010634921 83:0.0059523811 84:0.0013888889 85:0.0087698409 86:0.0038492063 87:0.0098809525 88:0.010714286 89:0.0096031744 90:0.014206349 91:0.016785715 92:0.0072619049 93:0.0017857143 94:0.003095238 95:0.013134921 96:0.005357143 97:0.0033333334 98:0.0062301587 99:0.0083333338 100:0.0078174602 101:0 102:0.125 103:0 104:0.075000003 105:0.075000003 106:0.050000001 107:0.025 108:0.15000001 109:0.050000001 110:0.050000001 111:0.050000001 112:0.050000001 113:0.050000001 114:0.050000001 115:0.050000001 116:0.050000001 117:0 118:0.025 119:0.075000003 120:0 121:0.012857143 122:0.015 123:0.0088095237 124:0.0020238096 125:0.0092460318 126:0.0038492063 127:0.010634921 128:0.01484127 129:0.01547619 130:0.016111111 131:0.023849206 132:0.011825397 133:0.0035714286 134:0.0070634922 135:0.020436509 136:0.011825397 137:0.005515873 138:0.013571428 139:0.011626984 140:0.015039682 141:0.033333335 142:0.1 143:0.033333335 144:0.11666667 145:0.06666667 146:0.033333335 147:0.016666668 148:0.13333334 149:0.06666667 150:0.033333335 151:0.050000001 152:0.050000001 153:0.06666667 154:0.033333335 155:0.033333335 156:0.033333335 157:0 158:0.016666668 159:0.083333336 160:0 #NUC1_CUNEE                    
4.270847946811377582321256340947 1:0.073468991 2:0.071007751 3:0.045988373 4:0.018468993 5:0.035639536 6:0.030406976 7:0.041937985 8:0.073410854 9:0.065813951 10:0.053391472 11:0.0725969 12:0.062344961 13:0.0080038756 14:0.021821706 15:0.039147288 16:0.046976745 17:0.029554263 18:0.039166667 19:0.046879847 20:0.064593025 21:0.027184466 22:0.027184466 23:0.021359224 24:0.067961164 25:0.038834952 26:0.044660196 27:0.044660196 28:0.099029124 29:0.099029124 30:0.02330097 31:0.073786408 32:0.069902912 33:0.075728156 34:0.04660194 35:0.052427184 36:0.036893204 37:0.021359224 38:0.033009708 39:0.091262139 40:0.0058252425 41:0.0041860463 42:0.0059689921 43:0.0013953488 44:0.0050775195 45:0.00015503875 46:0.0012984496 47:0.0020542636 48:0.0016279069 49:0.0029263566 50:0.0028488373 51:0.0014728683 52:0.0024806201 53:0.0015503876 54:0 55:0.00031007751 56:0.0018023256 57:0.00075581396 58:0.00048449612 59:0.0019961239 60:0.00040697673 61:0.050000001 62:0 63:0 64:0 65:0 66:0.050000001 67:0 68:0.050000001 69:0.1 70:0.050000001 71:0.050000001 72:0.1 73:0.2 74:0 75:0.1 76:0 77:0.1 78:0.050000001 79:0.050000001 80:0.050000001 81:0.0054651164 82:0.0068217055 83:0.0019186046 84:0.0053100777 85:0.0028488373 86:0.0032364342 87:0.0044379844 88:0.0031782945 89:0.0053682169 90:0.0067829457 91:0.0042829458 92:0.0049612401 93:0.0015697675 94:0.0029263566 95:0.0025775193 96:0.00374031 97:0.0040697674 98:0.0016085271 99:0.004612403 100:0.0015891473 101:0.025 102:0.025 103:0.025 104:0.050000001 105:0 106:0.050000001 107:0.075000003 108:0.075000003 109:0.075000003 110:0.1 111:0.050000001 112:0.050000001 113:0.1 114:0 115:0.1 116:0.025 117:0.075000003 118:0.050000001 119:0.025 120:0.025 121:0.0060852715 122:0.0094186049 123:0.0029457365 124:0.0075581395 125:0.005620155 126:0.004515504 127:0.012131783 128:0.0068023256 129:0.005891473 130:0.010096899 131:0.0045542638 132:0.0052131782 133:0.0016085271 134:0.0053100777 135:0.0027325582 136:0.0049999999 137:0.0061434107 138:0.0018798449 139:0.0084496122 140:0.0036046512 141:0.033333335 142:0.016666668 143:0.050000001 144:0.033333335 145:0.016666668 146:0.083333336 147:0.06666667 148:0.06666667 149:0.06666667 150:0.06666667 151:0.033333335 152:0.033333335 153:0.1 154:0.033333335 155:0.083333336 156:0.050000001 157:0.050000001 158:0.050000001 159:0.050000001 160:0.016666668 #INU2_ASPFI                    
0.36678148897660606264636840023741 1:0.059615385 2:0.022403846 3:0.029903846 4:0.0027884615 5:0.047019232 6:0.0036538462 7:0.088365383 8:0.12932692 9:0.09375 10:0.04221154 11:0.11442307 12:0.061057691 13:0.043942306 14:0.024326922 15:0.025865385 16:0.010576923 17:0.028557692 18:0.033653848 19:0.068461537 20:0.062019229 21:0 22:0.03846154 23:0.028846154 24:0.048076924 25:0.028846154 26:0.07692308 27:0.03846154 28:0.13461539 29:0.03846154 30:0.096153848 31:0.086538464 32:0.057692308 33:0.03846154 34:0.01923077 35:0.03846154 36:0.03846154 37:0 38:0.009615385 39:0.14423077 40:0.03846154 41:0.01173077 42:0.00067307689 43:0.0026923076 44:0.0010576923 45:0.00067307689 46:0.00067307689 47:0.017115384 48:0.0089423079 49:0.034134615 50:0.0013461538 51:0.037115384 52:0.013653846 53:0.025384616 54:0.0020192307 55:0.0020192307 56:0.0020192307 57:0.0082692308 58:0.0010576923 59:0.0040384615 60:0.017211538 61:0 62:0 63:0.050000001 64:0.15000001 65:0 66:0 67:0.050000001 68:0.2 69:0.050000001 70:0.1 71:0.15000001 72:0.050000001 73:0 74:0 75:0 76:0 77:0 78:0 79:0.050000001 80:0.15000001 81:0.0175 82:0.0068269232 83:0.0033653846 84:0.0010576923 85:0.0013461538 86:0.00067307689 87:0.0425 88:0.030576924 89:0.054807693 90:0.010961538 91:0.063269228 92:0.02326923 93:0.028846154 94:0.012307692 95:0.0078846151 96:0.0033653846 97:0.017788462 98:0.0064423075 99:0.016634615 100:0.029423077 101:0 102:0.050000001 103:0.050000001 104:0.075000003 105:0 106:0 107:0.075000003 108:0.2 109:0.025 110:0.125 111:0.125 112:0.050000001 113:0.025 114:0 115:0.025 116:0 117:0 118:0 119:0.1 120:0.075000003 121:0.025961539 122:0.0079807695 123:0.0039423076 124:0.0010576923 125:0.028365385 126:0.0036538462 127:0.075673074 128:0.046826921 129:0.056634616 130:0.032596152 131:0.071634613 132:0.029807692 133:0.030096155 134:0.014134616 135:0.012692308 136:0.006346154 137:0.022596154 138:0.026923077 139:0.035961539 140:0.03846154 141:0 142:0.050000001 143:0.033333335 144:0.050000001 145:0.033333335 146:0.050000001 147:0.06666667 148:0.15000001 149:0.016666668 150:0.15000001 151:0.083333336 152:0.050000001 153:0.016666668 154:0 155:0.050000001 156:0.033333335 157:0 158:0.016666668 159:0.1 160:0.050000001 #RNA1_ASPPL                    
0.36200945717157007042175109745585 1:0.069641151 2:0.075933017 3:0.058803827 4:0.013397129 5:0.051889952 6:0.0084449761 7:0.03861244 8:0.082535885 9:0.061746411 10:0.042033494 11:0.086172245 12:0.066028707 13:0.011794258 14:0.010454546 15:0.024712918 16:0.042655502 17:0.036363635 18:0.032703348 19:0.046913877 20:0.058181819 21:0.067146286 22:0.045563549 23:0.0023980816 24:0.081534773 25:0.033573143 26:0.057553958 27:0.021582734 28:0.098321341 29:0.06235012 30:0.040767387 31:0.064748198 32:0.081534773 33:0.076738611 34:0.071942449 35:0.040767387 36:0.050359711 37:0.0047961632 38:0.0071942448 39:0.081534773 40:0.0095923264 41:0.003660287 42:0.010358851 43:0.0041866028 44:0.0018181818 45:0.0053349282 46:0.00019138756 47:0.00011961722 48:0.00076555024 49:0.008755981 50:0.0016985646 51:0.0024401913 52:0.0021291866 53:0.00071770337 54:0.00019138756 55:0.00014354067 56:0.0014832536 57:0.00071770337 58:7.1770337e-05 59:0.0019856459 60:0.0012200957 61:0.050000001 62:0 63:0 64:0.050000001 65:0 66:0.050000001 67:0 68:0.050000001 69:0 70:0 71:0.2 72:0.1 73:0.25 74:0.1 75:0.050000001 76:0.1 77:0 78:0 79:0 80:0 81:0.0094976081 82:0.014473684 83:0.0055263159 84:0.0019856459 85:0.0089952154 86:0.00019138756 87:0.00026315788 88:0.003062201 89:0.010454546 90:0.0033732057 91:0.0057655503 92:0.0047129188 93:0.00071770337 94:0.00033492822 95:0.0039952155 96:0.0067703351 97:0.0011961722 98:0.0006937799 99:0.0041387561 100:0.0046172249 101:0.075000003 102:0.050000001 103:0 104:0.075000003 105:0 106:0.050000001 107:0 108:0.075000003 109:0.025 110:0 111:0.1 112:0.125 113:0.175 114:0.050000001 115:0.075000003 116:0.1 117:0 118:0 119:0.025 120:0 121:0.01083732 122:0.017679425 123:0.0060047847 124:0.0021291866 125:0.010861244 126:0.00023923445 127:0.00090909092 128:0.0044019138 129:0.013397129 130:0.0072248802 131:0.008755981 132:0.0075598084 133:0.00071770337 134:0.00083732058 135:0.0061483253 136:0.0098325359 137:0.0026794258 138:0.0027033493 139:0.0055502392 140:0.0069856457 141:0.06666667 142:0.050000001 143:0 144:0.083333336 145:0.050000001 146:0.033333335 147:0 148:0.083333336 149:0.050000001 150:0 151:0.083333336 152:0.1 153:0.15000001 154:0.033333335 155:0.1 156:0.1 157:0 158:0 159:0.016666668 160:0 #CARP5_CANAL                   
-0.65100623583052386056380100853858 1:0.068216704 2:0.12173815 3:0.052257337 4:0.012934538 5:0.030970655 6:0.010383748 7:0.015891647 8:0.077268623 9:0.080270879 10:0.040586907 11:0.078329571 12:0.060632054 13:0.016139954 14:0.024920993 15:0.03356659 16:0.049051918 17:0.028239278 18:0.05731377 19:0.034198646 20:0.042595938 21:0.067873307 22:0.020361992 23:0.022624435 24:0.061085973 25:0.054298643 26:0.054298643 27:0.033936653 28:0.085972853 29:0.065610863 30:0.020361992 31:0.07013575 32:0.042986427 33:0.13800906 34:0.067873307 35:0.03846154 36:0.047511313 37:0.013574661 38:0.0067873304 39:0.067873307 40:0.020361992 41:0.0042212191 42:0.0060722348 43:0.0037471782 44:0.001489842 45:0.0028442438 46:0 47:0.00029345372 48:0.0045146728 49:0.0041534989 50:0.0032279911 51:0.0050790068 52:0.00038374719 53:0 54:0.0028668172 55:0.00020316028 56:0.0025056433 57:9.0293455e-05 58:0.0033860046 59:0 60:0.00011286682 61:0.050000001 62:0 63:0.050000001 64:0 65:0.050000001 66:0 67:0 68:0.15000001 69:0.050000001 70:0 71:0.1 72:0.050000001 73:0.1 74:0.1 75:0.1 76:0.1 77:0 78:0 79:0.1 80:0 81:0.011444695 82:0.011422122 83:0.0058916477 84:0.0016704289 85:0.0036343115 86:0 87:0.0029571105 88:0.0070203161 89:0.011625282 90:0.0038374718 91:0.0086907446 92:0.0031151241 93:0.00063205417 94:0.0041534989 95:0.0029345374 96:0.0037471782 97:9.0293455e-05 98:0.0037246051 99:0.00099322794 100:0.00097065466 101:0.050000001 102:0.025 103:0.025 104:0 105:0.025 106:0.025 107:0 108:0.125 109:0.050000001 110:0.050000001 111:0.15000001 112:0.1 113:0.125 114:0.075000003 115:0.075000003 116:0.050000001 117:0 118:0 119:0.050000001 120:0 121:0.014446952 122:0.017313769 123:0.0087584648 124:0.001805869 125:0.0052370201 126:0 127:0.0036568849 128:0.010045147 129:0.013431151 130:0.007155756 131:0.01261851 132:0.0057562077 133:0.00083521445 134:0.0047178329 135:0.0050790068 136:0.0052370201 137:0.0012641083 138:0.0062302481 139:0.0037697516 140:0.004920993 141:0.033333335 142:0.016666668 143:0.033333335 144:0.050000001 145:0.050000001 146:0.033333335 147:0 148:0.15000001 149:0.050000001 150:0.033333335 151:0.11666667 152:0.06666667 153:0.1 154:0.083333336 155:0.083333336 156:0.06666667 157:0 158:0 159:0.033333335 160:0 #KIME_YEAST                    
-3.2030126976897044244196877116337 1:0.056159999 2:0.05816 3:0.037039999 4:0.022 5:0.042640001 6:0.0048000002 7:0.031679999 8:0.052239999 9:0.058559999 10:0.036959998 11:0.082000002 12:0.067680001 13:0.066799998 14:0.016319999 15:0.045359999 16:0.069119997 17:0.038400002 18:0.060880002 19:0.050960001 20:0.049600001 21:0.096774191 22:0.024193548 23:0.0080645159 24:0.048387095 25:0.056451611 26:0.072580643 27:0.032258064 28:0.096774191 29:0.080645159 30:0.032258064 31:0.064516127 32:0.072580643 33:0.088709675 34:0.024193548 35:0.032258064 36:0.040322579 37:0.0080645159 38:0 39:0.056451611 40:0.064516127 41:0.01136 42:0.023600001 43:0.0095199998 44:0.0087200003 45:0.01112 46:0 47:0.00232 48:0.01496 49:0.0053599998 50:0.0083999997 51:0.01808 52:0.00496 53:0.016240001 54:0.00023999999 55:0.00095999998 56:0.00023999999 57:0.00232 58:0.0040799999 59:0.0063999998 60:0.0086399997 61:0 62:0 63:0 64:0.1 65:0.050000001 66:0.1 67:0 68:0.1 69:0 70:0 71:0 72:0.1 73:0.2 74:0.050000001 75:0.050000001 76:0.050000001 77:0 78:0 79:0.1 80:0.1 81:0.02 82:0.02808 83:0.01472 84:0.0092000002 85:0.01608 86:0.00072000001 87:0.00752 88:0.02296 89:0.017039999 90:0.0148 91:0.034960002 92:0.01288 93:0.033440001 94:0.0021599999 95:0.0068799998 96:0.01064 97:0.0099999998 98:0.01104 99:0.0156 100:0.0148 101:0.050000001 102:0 103:0 104:0.050000001 105:0.050000001 106:0.075000003 107:0.050000001 108:0.125 109:0 110:0.025 111:0.050000001 112:0.1 113:0.125 114:0.050000001 115:0.050000001 116:0.025 117:0 118:0 119:0.075000003 120:0.1 121:0.033119999 122:0.037519999 123:0.021439999 124:0.0104 125:0.025520001 126:0.00095999998 127:0.01152 128:0.025119999 129:0.0252 130:0.02176 131:0.05288 132:0.024879999 133:0.033440001 134:0.0026400001 135:0.01168 136:0.023360001 137:0.01368 138:0.018479999 139:0.02208 140:0.02328 141:0.050000001 142:0.016666668 143:0 144:0.06666667 145:0.033333335 146:0.06666667 147:0.033333335 148:0.13333334 149:0.050000001 150:0.016666668 151:0.06666667 152:0.1 153:0.11666667 154:0.033333335 155:0.050000001 156:0.050000001 157:0 158:0 159:0.050000001 160:0.06666667 #RPA9_YEAST                    
0.024591839594269242208479653299946 1:0.05185185 2:0.11851852 3:0.029629629 4:0.0074074073 5:0.022222223 6:0 7:0 8:0.096296296 9:0.2 10:0.029629629 11:0.074074075 12:0.088888891 13:0.059259258 14:0.0074074073 15:0.0074074073 16:0.044444446 17:0.014814815 18:0.044444446 19:0.074074075 20:0.029629629 21:0.044776119 22:0.0074626864 23:0.0074626864 24:0.029850746 25:0.044776119 26:0.074626863 27:0.014925373 28:0.074626863 29:0.089552239 30:0 31:0.20149253 32:0.052238807 33:0.11940298 34:0.029850746 35:0.029850746 36:0.02238806 37:0 38:0 39:0.097014926 40:0.059701491 41:0.0074074073 42:0.022222223 43:0.0074074073 44:0.0074074073 45:0.014814815 46:0 47:0 48:0 49:0.044444446 50:0.0074074073 51:0.0074074073 52:0.022222223 53:0 54:0 55:0.0074074073 56:0 57:0 58:0 59:0 60:0 61:0 62:0.050000001 63:0 64:0 65:0 66:0 67:0 68:0.050000001 69:0.15000001 70:0 71:0.34999999 72:0.050000001 73:0.15000001 74:0.050000001 75:0.050000001 76:0.1 77:0 78:0 79:0 80:0 81:0.0074074073 82:0.029629629 83:0.0074074073 84:0.0074074073 85:0.022222223 86:0 87:0 88:0 89:0.11111111 90:0.0074074073 91:0.022222223 92:0.029629629 93:0 94:0 95:0.0074074073 96:0.022222223 97:0.0074074073 98:0.0074074073 99:0.0074074073 100:0 101:0.075000003 102:0.025 103:0 104:0 105:0.025 106:0.025 107:0.025 108:0.075000003 109:0.1 110:0 111:0.375 112:0.025 113:0.1 114:0.025 115:0.025 116:0.075000003 117:0 118:0 119:0.025 120:0 121:0.014814815 122:0.029629629 123:0.014814815 124:0.0074074073 125:0.022222223 126:0 127:0 128:0.014814815 129:0.12592593 130:0.014814815 131:0.037037037 132:0.05185185 133:0.022222223 134:0 135:0.0074074073 136:0.022222223 137:0.0074074073 138:0.014814815 139:0.037037037 140:0 141:0.050000001 142:0.016666668 143:0 144:0.016666668 145:0.033333335 146:0.083333336 147:0.016666668 148:0.083333336 149:0.11666667 150:0 151:0.28333333 152:0.033333335 153:0.06666667 154:0.033333335 155:0.033333335 156:0.050000001 157:0 158:0 159:0.033333335 160:0.050000001 #DEWA_EMENI                    
4.0670279513142943983439181465656 1:0.064958677 2:0.074173555 3:0.050840221 4:0.012892562 5:0.047658402 6:0.026763085 7:0.045785125 8:0.071391188 9:0.071763083 10:0.052589532 11:0.091487601 12:0.055358127 13:0.0058677685 14:0.026115702 15:0.034063362 16:0.054986227 17:0.02516529 18:0.04836088 19:0.051570248 20:0.065234162 21:0.07310345 22:0.034482758 23:0.027586207 24:0.074482761 25:0.038620688 26:0.056551725 27:0.023448275 28:0.086896554 29:0.049655173 30:0.034482758 31:0.074482761 32:0.075862072 33:0.064827584 34:0.046896551 35:0.055172414 36:0.052413791 37:0.0041379309 38:0.031724136 39:0.092413791 40:0.0027586208 41:0.00070247933 42:0.004325069 43:0.0011432507 44:0.0013774105 45:0.0020523416 46:0.0014876033 47:0 48:0.0011432507 49:0.0092837466 50:0.00015151515 51:0.0032369145 52:0.00052341598 53:0 54:0.00019283747 55:0.00039944903 56:0.0011294766 57:0 58:0 59:0 60:0.00015151515 61:0.050000001 62:0 63:0 64:0 65:0 66:0 67:0 68:0.15000001 69:0.050000001 70:0 71:0.34999999 72:0 73:0.15000001 74:0.050000001 75:0 76:0.1 77:0 78:0.050000001 79:0.050000001 80:0 81:0.0016391184 82:0.00553719 83:0.0029889806 84:0.0017217631 85:0.0027410469 86:0.0014876033 87:8.2644627e-05 88:0.0030027549 89:0.012548209 90:0.0050826445 91:0.005661157 92:0.001983471 93:0 94:0.00044077134 95:0.0029889806 96:0.0019421488 97:0.00034435262 98:0.0022727272 99:0.00074380165 100:0.0017493113 101:0.050000001 102:0.050000001 103:0 104:0.050000001 105:0.075000003 106:0 107:0 108:0.1 109:0.025 110:0 111:0.22499999 112:0 113:0.075000003 114:0.075000003 115:0.1 116:0.075000003 117:0 118:0.025 119:0.075000003 120:0 121:0.0037190083 122:0.0065151514 123:0.003553719 124:0.0019008265 125:0.0050137741 126:0.00184573 127:0.0019008265 128:0.00369146 129:0.014269972 130:0.005688705 131:0.0099586779 132:0.0040358128 133:0 134:0.0015564738 135:0.0042837467 136:0.0041735535 137:0.0012121212 138:0.0038705233 139:0.00184573 140:0.0035674931 141:0.083333336 142:0.050000001 143:0.016666668 144:0.06666667 145:0.050000001 146:0.016666668 147:0 148:0.1 149:0.016666668 150:0.016666668 151:0.16666667 152:0.033333335 153:0.06666667 154:0.050000001 155:0.083333336 156:0.083333336 157:0 158:0.033333335 159:0.06666667 160:0 #DPP5_TRIRU                    
-0.41645797551110846912436613820319 1:0.046765041 2:0.095720775 3:0.053269014 4:0.021180477 5:0.037968218 6:0.011940977 7:0.029511917 8:0.041214529 9:0.062451761 10:0.06062429 11:0.094801359 12:0.062326901 13:0.017650397 14:0.018195232 15:0.046140749 16:0.041271284 17:0.044052213 18:0.045629967 19:0.0576731 20:0.048706017 21:0.053409092 22:0.040909089 23:0.019318182 24:0.051136363 25:0.045454547 26:0.070454545 27:0.052272726 28:0.11363637 29:0.075000003 30:0.030681819 31:0.048863638 32:0.044318181 33:0.10795455 34:0.063636363 35:0.052272726 36:0.043181818 37:0.020454545 38:0.013636364 39:0.032954544 40:0.020454545 41:0.00054483541 42:0.0021452894 43:0.0013847901 44:0.0014528944 45:0.00014755959 46:0 47:4.540295e-05 48:7.9455167e-05 49:0.0017480137 50:0.00017026106 51:0.002247446 52:0.0002724177 53:0.0022701477 54:0.00017026106 55:0.0037343928 56:0.0039387061 57:0.001123723 58:0.00052213395 59:0.00012485811 60:0.00070374575 61:0.2 62:0.050000001 63:0 64:0.050000001 65:0.050000001 66:0 67:0.050000001 68:0.1 69:0 70:0 71:0.050000001 72:0 73:0.2 74:0.1 75:0 76:0 77:0 78:0 79:0 80:0.15000001 81:0.0013847901 82:0.0028603859 83:0.0020771851 84:0.0015323496 85:0.0006015891 86:0.00013620885 87:0.001169126 88:0.0014869466 89:0.0028830874 90:0.0014074915 91:0.003984109 92:0.001123723 93:0.0069693532 94:0.00065834279 95:0.0051418841 96:0.005891033 97:0.0020885358 98:0.0018047673 99:0.00087400683 100:0.0016118048 101:0.22499999 102:0.050000001 103:0 104:0.025 105:0.075000003 106:0.050000001 107:0.025 108:0.1 109:0 110:0.025 111:0.050000001 112:0 113:0.125 114:0.050000001 115:0.025 116:0 117:0 118:0.025 119:0 120:0.15000001 121:0.0022360953 122:0.0048467652 123:0.00246311 124:0.0017480137 125:0.00081725314 126:0.00015891033 127:0.001861521 128:0.0023155506 129:0.0042905789 130:0.0030646992 131:0.0058569806 132:0.0028036323 133:0.0069920546 134:0.0010783201 135:0.0086379116 136:0.0081271287 137:0.0030646992 138:0.0040068105 139:0.0012712827 140:0.0024744608 141:0.18333334 142:0.083333336 143:0.016666668 144:0.016666668 145:0.083333336 146:0.033333335 147:0.016666668 148:0.1 149:0.050000001 150:0.016666668 151:0.050000001 152:0.016666668 153:0.13333334 154:0.033333335 155:0.050000001 156:0 157:0 158:0.016666668 159:0 160:0.1 #GAL4_YEAST                    
-0.0070578506228710369274637059788802 1:0.064626865 2:0.077014923 3:0.0655597 4:0.02597015 5:0.046567164 6:0.00085820898 7:0.025261194 8:0.05705224 9:0.095485076 10:0.064738803 11:0.073805973 12:0.060522389 13:0.013544776 14:0.015186567 15:0.049962688 16:0.061007462 17:0.038843285 18:0.044589553 19:0.043656718 20:0.03175373 21:0.063670412 22:0.048689138 23:0.014981274 24:0.041198503 25:0.033707865 26:0.056179777 27:0.037453182 28:0.071161047 29:0.063670412 30:0.02247191 31:0.11985019 32:0.056179777 33:0.074906364 34:0.067415729 35:0.067415729 36:0.052434456 37:0.02247191 38:0 39:0.078651689 40:0.0074906368 41:0.00037313433 42:0.0044776117 43:0.0009328358 44:0.0050746268 45:0.0029850747 46:0 47:0 48:0.00048507462 49:0.016082089 50:0.0064179106 51:0.0059328359 52:0.0091417907 53:0 54:0.002761194 55:0.00082089554 56:0.0025746268 57:0.0066791046 58:0.00052238809 59:0.0037686566 60:0.0035074628 61:0 62:0.050000001 63:0.050000001 64:0.050000001 65:0 66:0 67:0.1 68:0.15000001 69:0.2 70:0 71:0.2 72:0 73:0.050000001 74:0 75:0.1 76:0.050000001 77:0 78:0 79:0 80:0 81:0.0016417911 82:0.011529851 83:0.001902985 84:0.0066791046 85:0.0073880595 86:0 87:0.0011940298 88:0.0080223884 89:0.019589553 90:0.015559701 91:0.016343284 92:0.0125 93:0 94:0.0046641789 95:0.0010447762 96:0.0025746268 97:0.0073507461 98:0.0012686567 99:0.0065671643 100:0.0049999999 101:0 102:0.025 103:0.025 104:0.050000001 105:0 106:0 107:0.050000001 108:0.15000001 109:0.15000001 110:0 111:0.15000001 112:0 113:0.075000003 114:0 115:0.15000001 116:0.075000003 117:0 118:0 119:0.1 120:0 121:0.0048507461 122:0.014067165 123:0.0032089553 124:0.008320896 125:0.0077611939 126:0 127:0.0019402985 128:0.013843284 129:0.026940299 130:0.018059701 131:0.024589552 132:0.016380597 133:0 134:0.0064179106 135:0.0031716418 136:0.0039552241 137:0.013059702 138:0.0033955225 139:0.013022388 140:0.010373134 141:0.016666668 142:0.016666668 143:0.016666668 144:0.06666667 145:0 146:0.083333336 147:0.06666667 148:0.11666667 149:0.11666667 150:0 151:0.15000001 152:0.016666668 153:0.050000001 154:0 155:0.1 156:0.050000001 157:0.016666668 158:0 159:0.11666667 160:0 #TBP_EMENI                     
-2.7407134731790989690125570632517 1:0.068463691 2:0.086703911 3:0.062709495 4:0.022039106 5:0.027290503 6:0.0074022347 7:0.023910614 8:0.083100557 9:0.082318433 10:0.059134077 11:0.070335194 12:0.049888268 13:0.012011173 14:0.03047486 15:0.042486034 16:0.044636872 17:0.027234636 18:0.050307263 19:0.033324022 20:0.062681563 21:0.047619049 22:0.047619049 23:0.044817928 24:0.064425774 25:0.064425774 26:0.030812325 27:0.014005602 28:0.072829135 29:0.044817928 30:0.011204482 31:0.089635856 32:0.075630255 33:0.098039217 34:0.06162465 35:0.06162465 36:0.025210084 37:0.022408964 38:0.0084033618 39:0.10084034 40:0.014005602 41:0.002793296 42:0.002793296 43:0.002793296 44:0.002793296 45:0 46:0 47:0.002793296 48:0 49:0.016759777 50:0.005586592 51:0.011173184 52:0 53:0 54:0.002793296 55:0 56:0 57:0 58:0 59:0.002793296 60:0.002793296 61:0.050000001 62:0 63:0.050000001 64:0.050000001 65:0 66:0.050000001 67:0 68:0.2 69:0 70:0.050000001 71:0.30000001 72:0.050000001 73:0.050000001 74:0.050000001 75:0.1 76:0 77:0 78:0 79:0 80:0 81:0.0031564245 82:0.0039106146 83:0.0058100559 84:0.006564246 85:0.0018156425 86:0 87:0.0031005586 88:0.0039106146 89:0.020251397 90:0.015055866 91:0.017709497 92:0.0042178771 93:0.00019553072 94:0.002793296 95:0.0017318436 96:0.0048882682 97:0.0044692736 98:0.0028491621 99:0.0051117321 100:0.0042178771 101:0.075000003 102:0 103:0.025 104:0.025 105:0.025 106:0.050000001 107:0.025 108:0.175 109:0.025 110:0.025 111:0.175 112:0.025 113:0.025 114:0.075000003 115:0.125 116:0.025 117:0.050000001 118:0 119:0.050000001 120:0 121:0.0073743016 122:0.0067597767 123:0.0099720666 124:0.0070670391 125:0.0067039104 126:0.00011173185 127:0.0034357542 128:0.011145252 129:0.024832401 130:0.018547487 131:0.023044692 132:0.00575419 133:0.00064245809 134:0.0030167599 135:0.0031284916 136:0.0089385472 137:0.0086312853 138:0.0046927375 139:0.0059497207 140:0.0058100559 141:0.050000001 142:0.016666668 143:0.016666668 144:0.033333335 145:0.016666668 146:0.033333335 147:0.050000001 148:0.15000001 149:0.016666668 150:0.016666668 151:0.13333334 152:0.050000001 153:0.050000001 154:0.06666667 155:0.1 156:0.050000001 157:0.033333335 158:0 159:0.1 160:0.016666668 #ARGI_NEUCR                    
-1.9064510470829665322867185750511 1:0.069430381 2:0.070632912 3:0.081898734 4:0.027405063 5:0.028417721 6:0.0019620254 7:0.01778481 8:0.069683544 9:0.092594936 10:0.06740506 11:0.052531645 12:0.050822783 13:0.013101266 14:0.01278481 15:0.035886075 16:0.094113924 17:0.031582277 18:0.041835442 19:0.030189874 20:0.028987342 21:0.11464968 22:0.025477707 23:0.019108281 24:0.025477707 25:0.044585988 26:0.025477707 27:0.025477707 28:0.070063695 29:0.038216561 30:0.019108281 31:0.095541403 32:0.089171976 33:0.082802549 34:0.070063695 35:0.089171976 36:0.025477707 37:0.031847134 38:0 39:0.10191083 40:0.0063694268 41:0.012468355 42:0.009620253 43:0.011835443 44:0.0069620255 45:0.00037974684 46:0 47:0.00012658228 48:0.0076582278 49:0.02892405 50:0.0020886075 51:0.0075949365 52:0.0041139242 53:0 54:0.00025316456 55:0.0052531646 56:0.016772151 57:0.0064556962 58:0.002721519 59:0.0033544304 60:0.00044303798 61:0.1 62:0 63:0 64:0 65:0 66:0.050000001 67:0.1 68:0.050000001 69:0 70:0 71:0.25 72:0.15000001 73:0.050000001 74:0.1 75:0.050000001 76:0 77:0 78:0 79:0.1 80:0 81:0.020822784 82:0.019683544 83:0.019810127 84:0.01113924 85:0.0077215191 86:0 87:0.0012025316 88:0.027025316 89:0.040949367 90:0.026202532 91:0.01278481 92:0.0056962026 93:0.0053797467 94:0.0006329114 95:0.0081645567 96:0.020949367 97:0.011202532 98:0.0032278481 99:0.0090506328 100:0.0024683545 101:0.125 102:0 103:0 104:0.025 105:0 106:0.025 107:0.050000001 108:0.075000003 109:0 110:0 111:0.175 112:0.1 113:0.050000001 114:0.1 115:0.1 116:0.025 117:0 118:0 119:0.125 120:0.025 121:0.029177215 122:0.024810126 123:0.033164557 124:0.012468355 125:0.013734177 126:0.00012658228 127:0.0049999999 128:0.032531645 129:0.049683545 130:0.036962025 131:0.014177215 132:0.015949367 133:0.0063291141 134:0.0019620254 135:0.012974683 136:0.03658228 137:0.014493671 138:0.013987342 139:0.018164556 140:0.007278481 141:0.083333336 142:0.016666668 143:0 144:0.016666668 145:0.016666668 146:0.050000001 147:0.050000001 148:0.06666667 149:0.016666668 150:0.016666668 151:0.15000001 152:0.11666667 153:0.050000001 154:0.083333336 155:0.11666667 156:0.033333335 157:0 158:0 159:0.1 160:0.016666668 #RM19_YEAST                    
5.5322767251647322339636048127431 1:0.055187378 2:0.088047341 3:0.047850098 4:0.019566076 5:0.046469428 6:0.019428007 7:0.048875738 8:0.066351086 9:0.056508876 10:0.0469428 11:0.074280076 12:0.049723867 13:0.013274162 14:0.021459566 15:0.028007889 16:0.041913215 17:0.033372782 18:0.047100592 19:0.053727809 20:0.050335307 21:0.041501977 22:0.023715414 23:0.013833992 24:0.037549406 25:0.06719368 26:0.063241109 27:0.039525691 28:0.11857708 29:0.075098813 30:0.047430828 31:0.059288539 32:0.045454547 33:0.11067194 34:0.055335969 35:0.043478262 36:0.053359684 37:0.0098814229 38:0.021739131 39:0.059288539 40:0.013833992 41:0.0013017751 42:0.011163708 43:0.0085798819 44:0.0019723866 45:0.0032938856 46:0.00065088755 47:0.00065088755 48:0.00065088755 49:0.0019723866 50:0 51:0.0045956606 52:0.0019723866 53:0 54:0 55:0 56:0.001321499 57:0 58:0.001321499 59:0 60:0 61:0.050000001 62:0 63:0.050000001 64:0 65:0.050000001 66:0 67:0 68:0.1 69:0.050000001 70:0 71:0.050000001 72:0 73:0.25 74:0.30000001 75:0 76:0.1 77:0 78:0 79:0 80:0 81:0.0023668639 82:0.014556213 83:0.010078896 84:0.0020907298 85:0.0047731753 86:0.001775148 87:0.001775148 88:0.0016962525 89:0.0049704141 90:0.0024654833 91:0.0098027615 92:0.0055424063 93:0.00071005919 94:0.0029388559 95:0.0010650888 96:0.004142012 97:0.0010650888 98:0.0027218936 99:0.0020315582 100:0.0019526627 101:0.050000001 102:0 103:0.050000001 104:0 105:0.025 106:0.025 107:0.050000001 108:0.125 109:0.1 110:0.025 111:0.075000003 112:0.025 113:0.15000001 114:0.175 115:0.025 116:0.050000001 117:0 118:0.025 119:0 120:0.025 121:0.0046942802 122:0.016942801 123:0.01051282 124:0.0022682445 125:0.0059763314 126:0.0018737672 127:0.002485207 128:0.0032938856 129:0.0091715977 130:0.0046153846 131:0.015581854 132:0.0072978302 133:0.00076923077 134:0.0044773174 135:0.0036291913 136:0.0059171598 137:0.0040828404 138:0.004871795 139:0.0039053254 140:0.0050887573 141:0.033333335 142:0.033333335 143:0.050000001 144:0.016666668 145:0.016666668 146:0.033333335 147:0.083333336 148:0.15000001 149:0.083333336 150:0.016666668 151:0.1 152:0.033333335 153:0.1 154:0.13333334 155:0.050000001 156:0.033333335 157:0 158:0.016666668 159:0 160:0.016666668 #SXA2_SCHPO                    
1.6161309823472786995068872784032 1:0.06018116 2:0.058949277 3:0.052789856 4:0.024492754 5:0.035144929 6:0.015507246 7:0.05478261 8:0.059275363 9:0.069746375 10:0.060688406 11:0.097282611 12:0.1173913 13:0.008188406 14:0.0066666668 15:0.037391305 16:0.048043478 17:0.041811593 18:0.023913043 19:0.035036232 20:0.051884059 21:0.039999999 22:0.032727271 23:0.0036363637 24:0.029090909 25:0.018181818 26:0.047272727 27:0.050909091 28:0.12 29:0.15272728 30:0.054545455 31:0.07272727 32:0.06909091 33:0.047272727 34:0.047272727 35:0.061818182 36:0.043636363 37:0.021818181 38:0.014545455 39:0.061818182 40:0.010909091 41:0.0091666663 42:0.012101449 43:0.011086957 44:0.0055434783 45:0.0056521739 46:0.00079710147 47:0.00032608697 48:0 49:0.0021014493 50:0 51:0.0057608695 52:0.0014855072 53:0.0024999999 54:0.00028985506 55:0.0068478263 56:0 57:0.0065579712 58:0 59:0.0018115942 60:0 61:0 62:0.1 63:0 64:0 65:0 66:0.050000001 67:0.050000001 68:0.1 69:0 70:0 71:0.050000001 72:0.15000001 73:0.2 74:0.1 75:0 76:0.1 77:0 78:0 79:0.050000001 80:0.050000001 81:0.015072464 82:0.013369565 83:0.01365942 84:0.0060507245 85:0.0089855073 86:0.00079710147 87:0.0010869565 88:0.0092753619 89:0.010652174 90:0.0051449277 91:0.018731885 92:0.0069202897 93:0.0024999999 94:0.00028985506 95:0.0081159417 96:0.0046014492 97:0.0070652175 98:0.0022826088 99:0.0030797101 100:0.0056521739 101:0.025 102:0.050000001 103:0 104:0.025 105:0 106:0.050000001 107:0.025 108:0.175 109:0.050000001 110:0 111:0.050000001 112:0.15000001 113:0.1 114:0.075000003 115:0.050000001 116:0.075000003 117:0 118:0 119:0.075000003 120:0.025 121:0.020253623 122:0.017971015 123:0.019855073 124:0.0068115941 125:0.010253623 126:0.0044202898 127:0.0023913044 128:0.011086957 129:0.013731884 130:0.0092391307 131:0.026449276 132:0.010217391 133:0.0024999999 134:0.00054347824 135:0.0088768117 136:0.010253623 137:0.0085869562 138:0.0076811593 139:0.0056159422 140:0.018333333 141:0.033333335 142:0.033333335 143:0 144:0.033333335 145:0.016666668 146:0.050000001 147:0.016666668 148:0.18333334 149:0.050000001 150:0.016666668 151:0.050000001 152:0.13333334 153:0.083333336 154:0.06666667 155:0.06666667 156:0.050000001 157:0.016666668 158:0.016666668 159:0.06666667 160:0.016666668 #KRE9_YEAST                    
3.1950795838742105381413693976356 1:0.058496933 2:0.086871162 3:0.036349691 4:0.011579755 5:0.03834356 6:0.012223926 7:0.034555215 8:0.074953988 9:0.069892637 10:0.062285274 11:0.081426382 12:0.053174846 13:0.012622699 14:0.019463191 15:0.039984662 16:0.028052147 17:0.037361965 18:0.040613499 19:0.041533742 20:0.046211656 21:0.041474655 22:0.033794165 23:0.023041476 24:0.058371738 25:0.04454685 26:0.070660524 27:0.030721966 28:0.07526882 29:0.056835636 30:0.053763442 31:0.086021505 32:0.062980033 33:0.073732719 34:0.043010753 35:0.079877116 36:0.039938558 37:0.0061443932 38:0.0092165899 39:0.093701996 40:0.016897082 41:0.00073619629 42:0.010552147 43:0.00030674846 44:0.0015337423 45:0.0021165644 46:0.00052147236 47:0.00061349693 48:0.0022085889 49:0.0021779141 50:0.0017024539 51:0.0034509203 52:0.0007055215 53:0.00016871166 54:0.0011503068 55:0.0017944785 56:0 57:0.00015337423 58:0 59:0.00061349693 60:0 61:0 62:0.050000001 63:0.050000001 64:0 65:0 66:0.050000001 67:0 68:0.2 69:0 70:0 71:0.050000001 72:0 73:0.34999999 74:0 75:0.050000001 76:0.1 77:0 78:0 79:0.1 80:0 81:0.003619632 82:0.012300613 83:0.00073619629 84:0.0016104295 85:0.0023159508 86:0.0021165644 87:0.0015337423 88:0.0035582823 89:0.0052147238 90:0.0050613498 91:0.0070552146 92:0.0021932516 93:0.00096625765 94:0.0018711656 95:0.0041104294 96:0.0013957055 97:0.0011809816 98:0.0021165644 99:0.00101227 100:0.0009969325 101:0.025 102:0.1 103:0.050000001 104:0 105:0.050000001 106:0.050000001 107:0 108:0.175 109:0.050000001 110:0 111:0.1 112:0.075000003 113:0.175 114:0 115:0.025 116:0.050000001 117:0 118:0.025 119:0.050000001 120:0 121:0.0046932516 122:0.01607362 123:0.0026687116 124:0.0018404908 125:0.0031288343 126:0.0021165644 127:0.0017177914 128:0.0047239265 129:0.0081441719 130:0.0067024538 131:0.0089723924 132:0.003957055 133:0.00101227 134:0.0025306749 135:0.007131902 136:0.0027300613 137:0.0035582823 138:0.0043711658 139:0.0026687116 140:0.0026840491 141:0.033333335 142:0.1 143:0.050000001 144:0.016666668 145:0.033333335 146:0.050000001 147:0.016666668 148:0.16666667 149:0.050000001 150:0 151:0.083333336 152:0.1 153:0.15000001 154:0.016666668 155:0.033333335 156:0.033333335 157:0 158:0.016666668 159:0.050000001 160:0 #AORSN_ASPOR                   
-4.8316167499899895787507375644054 1:0.067168675 2:0.10596386 3:0.086204819 4:0.013313253 5:0.043734938 6:0.006807229 7:0.027469879 8:0.055722892 9:0.055240963 10:0.050542168 11:0.081024095 12:0.056084339 13:0.01433735 14:0.019518072 15:0.024518073 16:0.076445781 17:0.03813253 18:0.057831325 19:0.045481928 20:0.050000001 21:0.054545455 22:0.030303031 23:0.024242423 24:0.060606062 25:0.06666667 26:0.036363635 27:0.018181818 28:0.1030303 29:0.060606062 30:0.018181818 31:0.060606062 32:0.06666667 33:0.12727273 34:0.084848486 35:0.078787878 36:0.042424243 37:0.0060606059 38:0.012121212 39:0.042424243 40:0.0060606059 41:0 42:0.026144579 43:0.030120483 44:0.0060240962 45:0.008012048 46:0 47:0.0039759036 48:0 49:0.0060240962 50:0 51:0.010060241 52:0.008012048 53:0 54:0.0040361444 55:0.0060240962 56:0.0060240962 57:0 58:0 59:0.0060240962 60:0 61:0.050000001 62:0.050000001 63:0.050000001 64:0 65:0 66:0.050000001 67:0 68:0.1 69:0.050000001 70:0 71:0.050000001 72:0 73:0.25 74:0.30000001 75:0 76:0.050000001 77:0 78:0 79:0 80:0 81:0 82:0.033192772 83:0.0436747 84:0.0060240962 85:0.020060241 86:0 87:0.0059638554 88:0.0090361442 89:0.014578314 90:0.014096386 91:0.016084338 92:0.011506024 93:0 94:0.0055421689 95:0.0060240962 96:0.016084338 97:0.0034939758 98:0.0080722887 99:0.017590361 100:0.0019879518 101:0.075000003 102:0.025 103:0.025 104:0 105:0.050000001 106:0.075000003 107:0 108:0.075000003 109:0.025 110:0 111:0.075000003 112:0 113:0.2 114:0.175 115:0.075000003 116:0.075000003 117:0 118:0 119:0.050000001 120:0 121:0.015783133 122:0.039578315 123:0.046987951 124:0.0075301207 125:0.023493975 126:0 127:0.0074096387 128:0.010120482 129:0.02686747 130:0.023975903 131:0.036204819 132:0.015903614 133:0 134:0.0074698795 135:0.0065060239 136:0.027048193 137:0.0079518072 138:0.015783133 139:0.019457832 140:0.011686747 141:0.083333336 142:0.016666668 143:0.016666668 144:0.050000001 145:0.050000001 146:0.050000001 147:0 148:0.11666667 149:0.033333335 150:0 151:0.083333336 152:0.033333335 153:0.15000001 154:0.11666667 155:0.1 156:0.06666667 157:0 158:0 159:0.033333335 160:0 #GLRX3_SCHPO                   
-0.61829984770946144756464946112828 1:0.095058143 2:0.074651159 3:0.090000004 4:0.026104651 5:0.063895352 6:0.0037209303 7:0.034127906 8:0.08139535 9:0.039825581 10:0.050290696 11:0.05267442 12:0.052267443 13:0.017674418 14:0.02017442 15:0.038023256 16:0.062965117 17:0.026395349 18:0.058488373 19:0.035523254 20:0.055465117 21:0.058479533 22:0.040935673 23:0.011695907 24:0.064327486 25:0.052631579 26:0.040935673 27:0.023391813 28:0.052631579 29:0.058479533 30:0.040935673 31:0.058479533 32:0.099415205 33:0.081871346 34:0.064327486 35:0.064327486 36:0.064327486 37:0.023391813 38:0.0058479533 39:0.081871346 40:0.011695907 41:0.0065116277 42:0.017616279 43:0.0076744184 44:0.0067441859 45:0.015523256 46:0.00052325579 47:0.0045930231 48:0.0045930231 49:0.00023255814 50:0.0092441859 51:0.0083720926 52:0.0032558138 53:0.00040697673 54:0.0096511627 55:0.0039534885 56:0.0037209303 57:0.001744186 58:0.0058720931 59:0.0033139535 60:0.0024418605 61:0.050000001 62:0 63:0.050000001 64:0 65:0.050000001 66:0 67:0 68:0.15000001 69:0.050000001 70:0.050000001 71:0 72:0 73:0.2 74:0.050000001 75:0.15000001 76:0.15000001 77:0 78:0 79:0.050000001 80:0 81:0.014534884 82:0.032325581 83:0.012848837 84:0.0092441859 85:0.016918605 86:0.00052325579 87:0.0084302323 88:0.0098255817 89:0.0039534885 90:0.01377907 91:0.013662791 92:0.014476744 93:0.0049999999 94:0.010406977 95:0.0080232555 96:0.014883721 97:0.0078488374 98:0.017848838 99:0.0094186049 100:0.0072674421 101:0.075000003 102:0.025 103:0.025 104:0.050000001 105:0.050000001 106:0 107:0.025 108:0.1 109:0.050000001 110:0.050000001 111:0.050000001 112:0.025 113:0.175 114:0.025 115:0.075000003 116:0.075000003 117:0.025 118:0 119:0.075000003 120:0.025 121:0.025174418 122:0.037034884 123:0.029825581 124:0.010639535 125:0.020523256 126:0.00075581396 127:0.014767442 128:0.028488372 129:0.0080813952 130:0.014418605 131:0.017616279 132:0.019360466 133:0.0078488374 134:0.012383721 135:0.0094186049 136:0.019825581 137:0.0088372091 138:0.022500001 139:0.012151163 140:0.015813954 141:0.06666667 142:0.033333335 143:0.016666668 144:0.083333336 145:0.033333335 146:0.016666668 147:0.033333335 148:0.083333336 149:0.050000001 150:0.06666667 151:0.033333335 152:0.033333335 153:0.13333334 154:0.083333336 155:0.050000001 156:0.050000001 157:0.016666668 158:0 159:0.083333336 160:0.033333335 #RPB7_SCHPO                    
-0.4088152468526628502409892007563 1:0.068114184 2:0.092024222 3:0.056245673 4:0.016730104 5:0.053598616 6:0.018685121 7:0.043581314 8:0.071349479 9:0.044740483 10:0.041418687 11:0.065795846 12:0.041989621 13:0.013979238 14:0.029532872 15:0.049065743 16:0.053512111 17:0.029740484 18:0.054948095 19:0.045778546 20:0.064186849 21:0.06239168 22:0.041594453 23:0.03119584 24:0.067590989 25:0.065857887 26:0.045060657 27:0.034662046 28:0.060658578 29:0.046793763 30:0.06239168 31:0.032928944 32:0.067590989 33:0.091854416 34:0.067590989 35:0.048526864 36:0.051993068 37:0.010398613 38:0.017331023 39:0.077989601 40:0.01559792 41:0.0057785469 42:0.0080795847 43:0.002301038 44:0.002301038 45:0.0028719723 46:0 47:0.0034775087 48:0.00057093427 49:0 50:0.0011591696 51:0.00057093427 52:0 53:0 54:0 55:0.0057612457 56:0.00057093427 57:0.0011591696 58:0 59:0 60:0 61:0 62:0.15000001 63:0 64:0 65:0 66:0 67:0.050000001 68:0 69:0 70:0.15000001 71:0 72:0.2 73:0.25 74:0.1 75:0.050000001 76:0.050000001 77:0 78:0 79:0 80:0 81:0.0075086504 82:0.013840831 83:0.0051903115 84:0.002301038 85:0.0069204154 86:0.00057093427 87:0.0057785469 88:0.002301038 89:0.0028892735 90:0.0023183392 91:0.0011418685 92:0 93:0 94:0.002301038 95:0.0069204154 96:0.0017128028 97:0.0023183392 98:0.0028892735 99:0.00057093427 100:0.0017301039 101:0 102:0.1 103:0.025 104:0.025 105:0.050000001 106:0 107:0.050000001 108:0 109:0 110:0.1 111:0.075000003 112:0.125 113:0.2 114:0.075000003 115:0.050000001 116:0.1 117:0 118:0 119:0.025 120:0 121:0.0092387544 122:0.018460207 123:0.0069204154 124:0.0028719723 125:0.0092387544 126:0.002301038 127:0.0057785469 128:0.0046193772 129:0.0046193772 130:0.0034775087 131:0.0028719723 132:0.00057093427 133:0 134:0.0034602077 135:0.0074913497 136:0.004013841 137:0.0046193772 138:0.0046193772 139:0.0040311418 140:0.0034602077 141:0.016666668 142:0.06666667 143:0.033333335 144:0.033333335 145:0.050000001 146:0.033333335 147:0.050000001 148:0.033333335 149:0 150:0.06666667 151:0.050000001 152:0.1 153:0.18333334 154:0.06666667 155:0.050000001 156:0.1 157:0 158:0.016666668 159:0.050000001 160:0 #DCR2_YEAST                    
1.9205522145423192803548317897366 1:0.080357142 2:0.080357142 3:0.10714286 4:0.017857144 5:0.026785715 6:0 7:0 8:0.0625 9:0.089285716 10:0.0625 11:0.10714286 12:0.035714287 13:0.071428575 14:0 15:0 16:0.0625 17:0.053571429 18:0.053571429 19:0.071428575 20:0.017857144 21:0.063063063 22:0 23:0 24:0.018018018 25:0.054054055 26:0.072072074 27:0.054054055 28:0.10810811 29:0.036036037 30:0 31:0.090090089 32:0.081081077 33:0.081081077 34:0.10810811 35:0.063063063 36:0.027027028 37:0.0090090092 38:0 39:0.063063063 40:0.072072074 41:0.026785715 42:0.026785715 43:0.0089285718 44:0.0089285718 45:0.017857144 46:0 47:0 48:0 49:0.053571429 50:0 51:0.0089285718 52:0.0089285718 53:0 54:0 55:0 56:0.0089285718 57:0.0089285718 58:0 59:0 60:0 61:0.050000001 62:0 63:0 64:0 65:0 66:0 67:0.050000001 68:0.050000001 69:0.050000001 70:0 71:0.30000001 72:0.15000001 73:0.15000001 74:0.050000001 75:0.050000001 76:0.1 77:0 78:0 79:0 80:0 81:0.035714287 82:0.026785715 83:0.0089285718 84:0.017857144 85:0.017857144 86:0 87:0 88:0.026785715 89:0.080357142 90:0.026785715 91:0.026785715 92:0.0089285718 93:0.0089285718 94:0 95:0 96:0.026785715 97:0.026785715 98:0.017857144 99:0 100:0 101:0.075000003 102:0 103:0 104:0 105:0.050000001 106:0 107:0.075000003 108:0.075000003 109:0.025 110:0 111:0.22499999 112:0.125 113:0.075000003 114:0.025 115:0.075000003 116:0.050000001 117:0.025 118:0 119:0.075000003 120:0.025 121:0.053571429 122:0.035714287 123:0.017857144 124:0.017857144 125:0.017857144 126:0 127:0 128:0.035714287 129:0.089285716 130:0.035714287 131:0.0625 132:0.0089285718 133:0.026785715 134:0 135:0 136:0.053571429 137:0.026785715 138:0.035714287 139:0.017857144 140:0 141:0.1 142:0 143:0 144:0 145:0.06666667 146:0.033333335 147:0.050000001 148:0.11666667 149:0.016666668 150:0 151:0.16666667 152:0.1 153:0.06666667 154:0.050000001 155:0.06666667 156:0.033333335 157:0.016666668 158:0 159:0.06666667 160:0.050000001 #MPG1_MAGGR                    
3.8531628953632872658374708407791 1:0.049111113 2:0.078518517 3:0.055037037 4:0.017962962 5:0.029296296 6:0.030407408 7:0.042074073 8:0.06359259 9:0.088037036 10:0.029814815 11:0.070481479 12:0.052962963 13:0.02374074 14:0.039370369 15:0.039185185 16:0.047333334 17:0.033555556 18:0.053666666 19:0.046851851 20:0.067777775 21:0.025925925 22:0.022222223 23:0.04074074 24:0.06666667 25:0.048148148 26:0.05185185 27:0.033333335 28:0.10740741 29:0.059259258 30:0.05185185 31:0.12592593 32:0.048148148 33:0.06666667 34:0.070370369 35:0.029629629 36:0.014814815 37:0.011111111 38:0.033333335 39:0.077777781 40:0.014814815 41:0.003888889 42:0.0049629631 43:0.0045925924 44:0.0021481481 45:0.002074074 46:0.004037037 47:0.0023703703 48:0.0075925924 49:0.0079259258 50:0.0017407407 51:0.0042592594 52:0.0038518519 53:0.002074074 54:0.0045185187 55:0.0012592593 56:0.0046296297 57:0.0033703705 58:0.0060370369 59:0.00096296298 60:0.002074074 61:0 62:0 63:0.1 64:0 65:0.050000001 66:0 67:0.050000001 68:0.050000001 69:0.050000001 70:0.1 71:0.2 72:0.15000001 73:0.050000001 74:0 75:0.050000001 76:0 77:0 78:0.050000001 79:0.1 80:0 81:0.0098148147 82:0.016777778 83:0.0060370369 84:0.0028518518 85:0.0027777778 86:0.0046296297 87:0.0044444446 88:0.012333333 89:0.020185186 90:0.0049259258 91:0.012444444 92:0.0068518519 93:0.0028518518 94:0.0058888891 95:0.0020370369 96:0.0080370372 97:0.0049259258 98:0.010925926 99:0.0043703704 100:0.0055555557 101:0 102:0 103:0.050000001 104:0 105:0.025 106:0 107:0.050000001 108:0.2 109:0.025 110:0.075000003 111:0.2 112:0.075000003 113:0.075000003 114:0.050000001 115:0.025 116:0 117:0 118:0.050000001 119:0.1 120:0 121:0.011777778 122:0.021074073 123:0.007777778 124:0.0032592593 125:0.0044444446 126:0.013296296 127:0.008703704 128:0.013925926 129:0.026259258 130:0.0088888891 131:0.019814815 132:0.010888889 133:0.0050370372 134:0.011555555 135:0.007777778 136:0.011518518 137:0.0068888888 138:0.012592592 139:0.0048888889 140:0.0099629629 141:0.016666668 142:0.016666668 143:0.050000001 144:0.016666668 145:0.033333335 146:0 147:0.033333335 148:0.2 149:0.033333335 150:0.06666667 151:0.2 152:0.050000001 153:0.083333336 154:0.033333335 155:0.016666668 156:0 157:0 158:0.06666667 159:0.083333336 160:0 #NUP1_PENCI                    
2.3049869351690230878659804147901 1:0.036904763 2:0.047619049 3:0.01547619 4:0.0083333338 5:0.052380953 6:0.011904762 7:0.073809527 8:0.063095242 9:0.1404762 10:0.027380953 11:0.13214286 12:0.1202381 13:0.026190476 14:0.033333335 15:0.028571429 16:0.011904762 17:0.039285716 18:0.026190476 19:0.063095242 20:0.041666668 21:0 22:0.035714287 23:0.035714287 24:0.041666668 25:0.017857144 26:0.077380955 27:0.041666668 28:0.13690476 29:0.125 30:0.053571429 31:0.13095239 32:0.041666668 33:0.047619049 34:0.017857144 35:0.023809524 36:0.065476194 37:0 38:0.011904762 39:0.071428575 40:0.023809524 41:0.0035714286 42:0.0059523811 43:0 44:0 45:0.0023809525 46:0 47:0.0035714286 48:0.0059523811 49:0.034523811 50:0 51:0.021428572 52:0.013095238 53:0.0059523811 54:0 55:0.0035714286 56:0 57:0.010714286 58:0.0023809525 59:0.0059523811 60:0 61:0 62:0.050000001 63:0 64:0 65:0 66:0.050000001 67:0.15000001 68:0.1 69:0.15000001 70:0 71:0.25 72:0.050000001 73:0.050000001 74:0 75:0 76:0.050000001 77:0 78:0 79:0.050000001 80:0.050000001 81:0.0059523811 82:0.016666668 83:0 84:0 85:0.0023809525 86:0 87:0.016666668 88:0.0059523811 89:0.057142857 90:0.0023809525 91:0.04404762 92:0.034523811 93:0.0059523811 94:0.0059523811 95:0.0035714286 96:0 97:0.020238096 98:0.0047619049 99:0.011904762 100:0 101:0 102:0.025 103:0.025 104:0 105:0 106:0.075000003 107:0.1 108:0.15000001 109:0.175 110:0.050000001 111:0.22499999 112:0.025 113:0.075000003 114:0 115:0 116:0.025 117:0 118:0 119:0.025 120:0.025 121:0.01547619 122:0.022619048 123:0.0023809525 124:0 125:0.010714286 126:0.0059523811 127:0.028571429 128:0.011904762 129:0.058333334 130:0.0035714286 131:0.061904762 132:0.057142857 133:0.0071428572 134:0.014285714 135:0.01547619 136:0 137:0.022619048 138:0.0047619049 139:0.014285714 140:0 141:0 142:0.050000001 143:0.033333335 144:0 145:0 146:0.06666667 147:0.06666667 148:0.13333334 149:0.2 150:0.06666667 151:0.15000001 152:0.050000001 153:0.06666667 154:0 155:0 156:0.050000001 157:0 158:0.016666668 159:0.033333335 160:0.016666668 #PLMP_PLEOS                    
-2.1032336995373368537798342003953 1:0.059016392 2:0.072131149 3:0.032786883 4:0.0032786885 5:0.029508196 6:0.016393442 7:0.04262295 8:0.039344262 9:0.14754099 10:0.045901638 11:0.10491803 12:0.09508197 13:0 14:0 15:0.052459016 16:0.09508197 17:0.039344262 18:0.052459016 19:0.052459016 20:0.013114754 21:0.065573767 22:0.049180329 23:0 24:0.016393442 25:0.032786883 26:0.049180329 27:0.065573767 28:0.1147541 29:0.1147541 30:0.065573767 31:0.18032786 32:0.032786883 33:0.065573767 34:0.049180329 35:0.032786883 36:0.016393442 37:0 38:0.016393442 39:0.032786883 40:0 41:0.019672131 42:0.019672131 43:0.0098360656 44:0 45:0.0098360656 46:0.016393442 47:0.022950819 48:0.016393442 49:0.081967212 50:0 51:0.036065575 52:0.026229508 53:0 54:0 55:0.019672131 56:0.016393442 57:0.0065573771 58:0 59:0.026229508 60:0 61:0.050000001 62:0.050000001 63:0 64:0 65:0 66:0.050000001 67:0.050000001 68:0.1 69:0 70:0.1 71:0.34999999 72:0.050000001 73:0.050000001 74:0.050000001 75:0 76:0 77:0 78:0.050000001 79:0.050000001 80:0 81:0.045901638 82:0.065573767 83:0.016393442 84:0.0032786885 85:0.0098360656 86:0.016393442 87:0.022950819 88:0.022950819 89:0.10819672 90:0.0098360656 91:0.0852459 92:0.062295083 93:0 94:0 95:0.052459016 96:0.045901638 97:0.029508196 98:0.019672131 99:0.039344262 100:0 101:0.050000001 102:0.075000003 103:0 104:0 105:0.025 106:0.050000001 107:0.075000003 108:0.15000001 109:0.075000003 110:0.050000001 111:0.2 112:0.050000001 113:0.1 114:0.050000001 115:0 116:0 117:0 118:0.025 119:0.025 120:0 121:0.059016392 122:0.072131149 123:0.032786883 124:0.0032786885 125:0.029508196 126:0.016393442 127:0.04262295 128:0.039344262 129:0.14754099 130:0.045901638 131:0.10491803 132:0.09508197 133:0 134:0 135:0.052459016 136:0.081967212 137:0.039344262 138:0.049180329 139:0.052459016 140:0.013114754 141:0.050000001 142:0.050000001 143:0 144:0.016666668 145:0.033333335 146:0.050000001 147:0.06666667 148:0.11666667 149:0.11666667 150:0.06666667 151:0.18333334 152:0.033333335 153:0.06666667 154:0.050000001 155:0.033333335 156:0.016666668 157:0 158:0.016666668 159:0.033333335 160:0 #ATP5E_YEAST                   
