SVM-light Version V6.01
2 # kernel type
3 # kernel parameter -d 
3 # kernel parameter -g 
1 # kernel parameter -s 
1 # kernel parameter -r 
empty# kernel parameter -u 
160 # highest feature index 
491 # number of training documents 
112 # number of support vectors plus 1 
0.4052865 # threshold b, each following line is a SV (starting with alpha*y)
-0.45286549786722507526803838118212 1:0.058945686 2:0.078306712 3:0.063035145 4:0.021501597 5:0.028466454 6:0.0059105433 7:0.022492012 8:0.058051117 9:0.086613417 10:0.033194888 11:0.078977637 12:0.05140575 13:0.032172523 14:0.015015975 15:0.060287539 16:0.064952075 17:0.030702876 18:0.05881789 19:0.046134185 20:0.058306709 21:0.067307696 22:0.060897436 23:0.012820513 24:0.067307696 25:0.067307696 26:0.057692308 27:0.035256412 28:0.086538464 29:0.048076924 30:0.022435898 31:0.089743592 32:0.05448718 33:0.070512824 34:0.067307696 35:0.035256412 36:0.025641026 37:0.012820513 38:0.009615385 39:0.07692308 40:0.032051284 41:0.0041533546 42:0.0019488818 43:0.0023642173 44:0.0030990415 45:0.0022364217 46:0.00012779553 47:0.0023003195 48:0.0020766773 49:0.0027476039 50:0.003546326 51:0.0052396166 52:0.0027476039 53:0.0066134185 54:0.0014696486 55:0.0030031949 56:0.003801917 57:0.00092651759 58:0.005623003 59:0.0031948881 60:0.0059105433 61:0.050000001 62:0.050000001 63:0.050000001 64:0.15000001 65:0.050000001 66:0 67:0.050000001 68:0.15000001 69:0.050000001 70:0 71:0.1 72:0.1 73:0 74:0 75:0 76:0.1 77:0 78:0 79:0 80:0.1 81:0.013003195 82:0.0068370607 83:0.0076038339 84:0.0040255589 85:0.0024281151 86:0.00012779553 87:0.0026517571 88:0.0096485624 89:0.0059424918 90:0.0041853036 91:0.0089137377 92:0.0060063899 93:0.013099042 94:0.0020447285 95:0.0053993613 96:0.0044728434 97:0.0012779552 98:0.010415335 99:0.004632588 100:0.012779552 101:0.025 102:0.025 103:0.050000001 104:0.125 105:0.1 106:0 107:0.025 108:0.15000001 109:0.075000003 110:0 111:0.050000001 112:0.1 113:0.050000001 114:0.025 115:0 116:0.050000001 117:0 118:0 119:0.050000001 120:0.1 121:0.016805112 122:0.0071884985 123:0.0077955271 124:0.0040255589 125:0.0054632588 126:0.0024920127 127:0.0026517571 128:0.015079872 129:0.0082747601 130:0.0066453675 131:0.017060703 132:0.0091373799 133:0.013162939 134:0.0023961661 135:0.011373802 136:0.0057188501 137:0.0025878595 138:0.015047924 139:0.009265176 140:0.018753994 141:0.016666668 142:0.050000001 143:0.033333335 144:0.11666667 145:0.1 146:0.050000001 147:0.016666668 148:0.13333334 149:0.06666667 150:0 151:0.050000001 152:0.083333336 153:0.033333335 154:0.016666668 155:0.016666668 156:0.050000001 157:0 158:0.016666668 159:0.083333336 160:0.06666667 #TF2B_SOYBN                    
-0.55932340453228146515129992621951 1:0.044696968 2:0.049090911 3:0.078484848 4:0.021060606 5:0.01969697 6:0 7:0.035151515 8:0.046969697 9:0.033939395 10:0.028484849 11:0.057878789 12:0.079545453 13:0.061060607 14:0.038636364 15:0.10075758 16:0.14045455 17:0.023181818 18:0.058181819 19:0.065303028 20:0.016969698 21:0.12307692 22:0.10769231 23:0.030769231 24:0.015384615 25:0.046153847 26:0.07692308 27:0.015384615 28:0.061538462 29:0.061538462 30:0.046153847 31:0.046153847 32:0.061538462 33:0.061538462 34:0.092307694 35:0.030769231 36:0.015384615 37:0.015384615 38:0 39:0.030769231 40:0.061538462 41:0.032727271 42:0.017121213 43:0.029696969 44:0.016060606 45:0 46:0 47:0 48:0.01439394 49:0.022727273 50:0.00090909092 51:0.017121213 52:0.021363636 53:0.029848484 54:0.0013636363 55:0.028484849 56:0.030909091 57:0.0051515154 58:0.015606061 59:0.0057575759 60:0.012121212 61:0.1 62:0.1 63:0 64:0.050000001 65:0.050000001 66:0.050000001 67:0 68:0.1 69:0.050000001 70:0 71:0.15000001 72:0.1 73:0.050000001 74:0.1 75:0 76:0 77:0 78:0 79:0 80:0.1 81:0.042878788 82:0.020454545 83:0.047121212 84:0.016969698 85:0.0031818182 86:0 87:0.017272728 88:0.038030304 89:0.030454546 90:0.0037878789 91:0.049848486 92:0.049848486 93:0.030303031 94:0.0095454548 95:0.07242424 96:0.07 97:0.017121213 98:0.02621212 99:0.038787879 100:0.016515151 101:0.1 102:0.125 103:0 104:0.025 105:0.025 106:0.1 107:0.025 108:0.1 109:0.075000003 110:0.025 111:0.075000003 112:0.1 113:0.050000001 114:0.1 115:0 116:0 117:0 118:0 119:0.025 120:0.050000001 121:0.044696968 122:0.049090911 123:0.063333333 124:0.021060606 125:0.018484848 126:0 127:0.035151515 128:0.042727273 129:0.030909091 130:0.028484849 131:0.057424244 132:0.079545453 133:0.060606062 134:0.024545455 135:0.098030306 136:0.10666667 137:0.023181818 138:0.043030303 139:0.064090908 140:0.016969698 141:0.1 142:0.11666667 143:0.033333335 144:0.016666668 145:0.033333335 146:0.083333336 147:0.016666668 148:0.06666667 149:0.06666667 150:0.050000001 151:0.050000001 152:0.06666667 153:0.06666667 154:0.083333336 155:0.033333335 156:0.016666668 157:0.016666668 158:0 159:0.016666668 160:0.06666667 #RK33_EPIVI                    
-0.4290066914465273106848997031193 1:0.064934209 2:0.050723683 3:0.026513157 4:0.032302633 5:0.054013159 6:0.0065789474 7:0.021710526 8:0.05125 9:0.087894738 10:0.056776315 11:0.070657894 12:0.084539473 13:0.056052633 14:0.022171052 15:0.067565791 16:0.066315793 17:0.028157895 18:0.064539477 19:0.021315789 20:0.054144736 21:0.059602648 22:0.086092718 23:0.019867551 24:0.066225164 25:0.052980132 26:0.026490066 27:0.026490066 28:0.052980132 29:0.086092718 30:0.013245033 31:0.11258278 32:0.079470202 33:0.046357617 34:0.019867551 35:0.052980132 36:0.052980132 37:0.019867551 38:0.0066225166 39:0.059602648 40:0.059602648 41:0.016513158 42:0.0082236845 43:0.0011184211 44:0.00875 45:0.0049342103 46:0 47:0 48:0.014671053 49:0.0063815787 50:0.010394737 51:0.016907895 52:0.032894738 53:0.0053289472 54:0 55:0.0032894737 56:0 57:0.0021710526 58:0 59:0 60:0 61:0 62:0.050000001 63:0 64:0 65:0 66:0 67:0 68:0.1 69:0.30000001 70:0 71:0 72:0.15000001 73:0.1 74:0 75:0.1 76:0 77:0 78:0 79:0.15000001 80:0.050000001 81:0.025921052 82:0.0091447365 83:0.0029605264 84:0.010592105 85:0.010526316 86:0 87:0 88:0.021776317 89:0.029210526 90:0.021710526 91:0.021578947 92:0.043157894 93:0.0090789478 94:0.0018421053 95:0.028552631 96:0.0037499999 97:0.0067763156 98:0.0028289473 99:0.00092105265 100:0.0032894737 101:0 102:0.15000001 103:0 104:0.025 105:0 106:0 107:0.025 108:0.050000001 109:0.175 110:0 111:0.175 112:0.1 113:0.050000001 114:0 115:0.075000003 116:0 117:0 118:0 119:0.125 120:0.050000001 121:0.031644735 122:0.011842106 123:0.0055921054 124:0.017631579 125:0.018421052 126:0 127:0.0067763156 128:0.021776317 129:0.043223683 130:0.024736842 131:0.041118421 132:0.044013157 133:0.0095394738 134:0.0023026315 135:0.042171054 136:0.02118421 137:0.011644737 138:0.015526316 139:0.0037499999 140:0.0093421051 141:0.033333335 142:0.15000001 143:0 144:0.033333335 145:0.033333335 146:0.016666668 147:0.033333335 148:0.1 149:0.11666667 150:0.016666668 151:0.13333334 152:0.1 153:0.033333335 154:0 155:0.050000001 156:0.016666668 157:0.016666668 158:0 159:0.083333336 160:0.033333335 #FTRC_MAIZE                    
-0.30967882492849624354036564000126 1:0.066548504 2:0.077014923 3:0.05005597 4:0.022089552 5:0.035466418 6:0.011996268 7:0.023041045 8:0.061194029 9:0.058861941 10:0.039197762 11:0.086958952 12:0.049906716 13:0.015373134 14:0.015839553 15:0.059626866 16:0.076585822 17:0.034645524 18:0.065615669 19:0.043395523 20:0.054813433 21:0.087850466 22:0.057943925 23:0.022429906 24:0.052336447 25:0.071028039 26:0.046728972 27:0.041121494 28:0.099065423 29:0.063551404 30:0.026168223 31:0.044859812 32:0.057943925 33:0.089719623 34:0.059813086 35:0.037383176 36:0.031775702 37:0.014953271 38:0.013084112 39:0.069158882 40:0.013084112 41:0.0037313432 42:0.0055970149 43:0.0018656716 44:0.0018656716 45:0.0037313432 46:0 47:0.0018656716 48:0.0018656716 49:0.0037313432 50:0 51:0.0037313432 52:0 53:0 54:0 55:0 56:0.0018656716 57:0.0037313432 58:0 59:0.0037313432 60:0 61:0.050000001 62:0 63:0 64:0 65:0 66:0.1 67:0.1 68:0.1 69:0 70:0.050000001 71:0.1 72:0.15000001 73:0.15000001 74:0.050000001 75:0 76:0.1 77:0 78:0 79:0.050000001 80:0 81:0.014925373 82:0.0093283579 83:0.0018656716 84:0.0018656716 85:0.0055970149 86:0 87:0.0018656716 88:0.0093283579 89:0.0037313432 90:0.0018656716 91:0.0093283579 92:0.0018656716 93:0 94:0 95:0.0037313432 96:0.0018656716 97:0.0037313432 98:0 99:0.0037313432 100:0 101:0.025 102:0.075000003 103:0 104:0 105:0 106:0.050000001 107:0.050000001 108:0.125 109:0.025 110:0.025 111:0.050000001 112:0.2 113:0.125 114:0.025 115:0.025 116:0.075000003 117:0 118:0 119:0.125 120:0 121:0.015541045 122:0.01119403 123:0.0037313432 124:0.0037313432 125:0.0093283579 126:0 127:0.0018656716 128:0.0099440301 129:0.0068470151 130:0.0018656716 131:0.016175373 132:0.0037313432 133:0 134:0 135:0.0062313434 136:0.0062126867 137:0.0049626864 138:0 139:0.010578359 140:0 141:0.050000001 142:0.083333336 143:0 144:0 145:0 146:0.1 147:0.033333335 148:0.15000001 149:0.033333335 150:0.016666668 151:0.06666667 152:0.13333334 153:0.1 154:0.033333335 155:0.016666668 156:0.083333336 157:0.016666668 158:0 159:0.083333336 160:0 #ARP_ARATH                     
-0.49500179819603246089698700416193 1:0.067676537 2:0.07214123 3:0.046970386 4:0.022255125 5:0.046719819 6:0.01808656 7:0.047061503 8:0.059476081 9:0.070136674 10:0.06332574 11:0.07646925 12:0.06332574 13:0.023621868 14:0.032004558 15:0.036583144 16:0.055649202 17:0.032004558 18:0.05145786 19:0.053302962 20:0.055125285 21:0.052511416 22:0.031963471 23:0.036529679 24:0.052511416 25:0.059360731 26:0.05479452 27:0.034246575 28:0.084474884 29:0.063926943 30:0.050228309 31:0.063926943 32:0.066210046 33:0.063926943 34:0.052511416 35:0.073059358 36:0.04109589 37:0.020547945 38:0.018264839 39:0.061643835 40:0.018264839 41:0.0012756265 42:0.0048063779 43:0.00050113897 44:0.006833713 45:0.00025056949 46:0 47:0.0022779044 48:0 49:0.010546697 50:0.0022779044 51:0.0041457857 52:0.0076082004 53:0.0022779044 54:0 55:0 56:0.0020273349 57:0 58:0 59:0.00025056949 60:0 61:0.050000001 62:0 63:0 64:0 65:0 66:0 67:0 68:0.1 69:0.2 70:0.050000001 71:0.2 72:0.050000001 73:0.1 74:0 75:0.050000001 76:0 77:0.1 78:0 79:0.050000001 80:0.050000001 81:0.0033029614 82:0.0063097952 83:0.0050797267 84:0.0070842826 85:0.00050113897 86:0 87:0.0022779044 88:0.0017767653 89:0.011047836 90:0.0073348521 91:0.014236902 92:0.0088610481 93:0.0027790433 94:0.00025056949 95:0.00025056949 96:0.0025284737 97:0.0015034168 98:0.00050113897 99:0.012642369 100:0.0020273349 101:0.025 102:0 103:0 104:0.025 105:0 106:0.175 107:0 108:0.15000001 109:0.1 110:0.025 111:0.1 112:0.050000001 113:0.050000001 114:0.075000003 115:0.125 116:0 117:0.050000001 118:0 119:0.025 120:0.025 121:0.0042141229 122:0.010068337 123:0.0079271067 124:0.0070842826 125:0.0015034168 126:0 127:0.0022779044 128:0.0017767653 129:0.012209567 130:0.014123007 131:0.016241457 132:0.017471526 133:0.0030296128 134:0.00025056949 135:0.0024829158 136:0.0075626425 137:0.0037813212 138:0.00050113897 139:0.020318907 140:0.0020273349 141:0.050000001 142:0.016666668 143:0 144:0.016666668 145:0 146:0.18333334 147:0.016666668 148:0.11666667 149:0.16666667 150:0.016666668 151:0.083333336 152:0.033333335 153:0.050000001 154:0.06666667 155:0.11666667 156:0 157:0.033333335 158:0 159:0.016666668 160:0.016666668 #CHMO_SPIOL                    
6 1:0.080482759 2:0.06689655 3:0.046068966 4:0.022896552 5:0.043724138 6:0.0031034483 7:0.031931035 8:0.070689656 9:0.054689657 10:0.063448273 11:0.054206897 12:0.068206899 13:0.041931033 14:0.014344827 15:0.057448275 16:0.0637931 17:0.030758621 18:0.078551725 19:0.046275862 20:0.059310343 21:0.075862072 22:0.04137931 23:0.013793103 24:0.04137931 25:0.08275862 26:0.055172414 27:0.04137931 28:0.048275862 29:0.075862072 30:0.034482758 31:0.04137931 32:0.055172414 33:0.075862072 34:0.048275862 35:0.068965517 36:0.055172414 37:0.020689655 38:0.0068965517 39:0.075862072 40:0.04137931 41:0.020827586 42:0.0016551724 43:0.0051724138 44:0.00013793104 45:0.0076551726 46:0.00013793104 47:0.0077931033 48:0.0073103448 49:0.00082758622 50:0.020206897 51:0.0059310347 52:0.0017931034 53:0.0064827586 54:0.0020000001 55:0.0080000004 56:0.0027586208 57:0.011586207 58:0.0093103452 59:0.003862069 60:0.014344827 61:0 62:0 63:0.050000001 64:0.1 65:0.050000001 66:0 67:0.2 68:0.050000001 69:0 70:0.050000001 71:0 72:0.1 73:0 74:0.1 75:0.15000001 76:0.050000001 77:0 78:0 79:0.050000001 80:0.050000001 81:0.030896552 82:0.0079310341 83:0.014 84:0.0011724138 85:0.018896552 86:0.00013793104 87:0.009655172 88:0.019172413 89:0.015310345 90:0.024620689 91:0.014482759 92:0.018206896 93:0.013517241 94:0.0026896552 95:0.021172414 96:0.0097931037 97:0.013931034 98:0.019793103 99:0.0058620689 100:0.015103448 101:0 102:0.050000001 103:0.025 104:0.050000001 105:0.075000003 106:0 107:0.1 108:0.075000003 109:0.050000001 110:0.025 111:0.050000001 112:0.050000001 113:0.050000001 114:0.1 115:0.1 116:0.075000003 117:0 118:0 119:0.075000003 120:0.050000001 121:0.042137932 122:0.016068965 123:0.017103449 124:0.0017931034 125:0.023310345 126:0.00013793104 127:0.013931034 128:0.031103449 129:0.020206897 130:0.024896551 131:0.02013793 132:0.037655171 133:0.020689655 134:0.0041379309 135:0.030068966 136:0.021379311 137:0.017448276 138:0.034413792 139:0.010482758 140:0.02751724 141:0.033333335 142:0.050000001 143:0.016666668 144:0.06666667 145:0.083333336 146:0.016666668 147:0.083333336 148:0.050000001 149:0.083333336 150:0.033333335 151:0.033333335 152:0.06666667 153:0.050000001 154:0.06666667 155:0.06666667 156:0.06666667 157:0 158:0 159:0.083333336 160:0.050000001 #ALL1_OLEEU                    
2.3966170723263862107899058173643 1:0.050980393 2:0.035294119 3:0.031372551 4:0.041176472 5:0.074509807 6:0.019607844 7:0.050980393 8:0.10392157 9:0.11764706 10:0.019607844 11:0.10392157 12:0.052941177 13:0.064705886 14:0.01372549 15:0.033333335 16:0.039215688 17:0.052941177 18:0.023529412 19:0.062745102 20:0.0078431377 21:0.03960396 22:0.03960396 23:0.01980198 24:0.0099009899 25:0.01980198 26:0.049504951 27:0.03960396 28:0.11881188 29:0.059405942 30:0.03960396 31:0.11881188 32:0.049504951 33:0.029702971 34:0.049504951 35:0.01980198 36:0.069306932 37:0.03960396 38:0.01980198 39:0.10891089 40:0.059405942 41:0.025490196 42:0.031372551 43:0.0078431377 44:0.033333335 45:0.019607844 46:0 47:0.0058823531 48:0 49:0.023529412 50:0 51:0.0078431377 52:0.01372549 53:0.0058823531 54:0 55:0.0058823531 56:0.0098039219 57:0 58:0.0058823531 59:0 60:0 61:0.050000001 62:0 63:0 64:0 65:0 66:0 67:0 68:0.15000001 69:0.1 70:0 71:0.15000001 72:0.1 73:0.1 74:0.1 75:0 76:0.1 77:0.15000001 78:0 79:0 80:0 81:0.033333335 82:0.031372551 83:0.0078431377 84:0.037254903 85:0.029411765 86:0.0098039219 87:0.011764706 88:0.029411765 89:0.04509804 90:0.015686275 91:0.031372551 92:0.023529412 93:0.015686275 94:0.0058823531 95:0.0098039219 96:0.0098039219 97:0.0078431377 98:0.01372549 99:0.023529412 100:0 101:0.025 102:0.025 103:0 104:0 105:0.025 106:0.075000003 107:0 108:0.125 109:0.075000003 110:0 111:0.125 112:0.1 113:0.050000001 114:0.050000001 115:0.025 116:0.075000003 117:0.1 118:0.025 119:0.075000003 120:0.025 121:0.033333335 122:0.031372551 123:0.01764706 124:0.037254903 125:0.039215688 126:0.0098039219 127:0.031372551 128:0.062745102 129:0.06666667 130:0.015686275 131:0.050980393 132:0.023529412 133:0.035294119 134:0.0098039219 135:0.019607844 136:0.023529412 137:0.011764706 138:0.023529412 139:0.041176472 140:0.0039215689 141:0.050000001 142:0.033333335 143:0.016666668 144:0.016666668 145:0.033333335 146:0.050000001 147:0.016666668 148:0.13333334 149:0.050000001 150:0.033333335 151:0.1 152:0.06666667 153:0.033333335 154:0.050000001 155:0.016666668 156:0.06666667 157:0.06666667 158:0.016666668 159:0.1 160:0.050000001 #AMP1_MACIN                    
1.8851851719609056257098700370989 1:0.060060062 2:0.024024025 3:0.018018018 4:0.012012012 5:0.015015015 6:0.048048049 7:0.036036037 8:0.087087087 9:0.13213213 10:0.069069073 11:0.048048049 12:0.021021022 13:0.081081077 14:0.0060060062 15:0.09309309 16:0.039039038 17:0.045045044 18:0.11711711 19:0.021021022 20:0.027027028 21:0.039156627 22:0.093373492 23:0.0060240962 24:0.027108435 25:0.11746988 26:0.021084337 27:0.045180723 28:0.048192769 29:0.021084337 30:0.036144577 31:0.13253012 32:0.060240965 33:0.024096385 34:0.018072288 35:0.069277108 36:0.015060241 37:0.0090361442 38:0.048192769 39:0.0873494 40:0.0813253 41:0.012012012 42:0.012012012 43:0.0060060062 44:0.0030030031 45:0.0060060062 46:0 47:0 48:0.0060060062 49:0 50:0 51:0.0030030031 52:0.0030030031 53:0.0030030031 54:0 55:0 56:0.0030030031 57:0.0030030031 58:0 59:0 60:0 61:0.050000001 62:0 63:0 64:0 65:0 66:0 67:0.050000001 68:0.050000001 69:0.1 70:0 71:0 72:0.2 73:0.2 74:0.1 75:0 76:0.1 77:0 78:0 79:0.1 80:0.050000001 81:0.012012012 82:0.012012012 83:0.0060060062 84:0.0030030031 85:0.0060060062 86:0 87:0 88:0.0060060062 89:0.0060060062 90:0.012012012 91:0.0090090092 92:0.0090090092 93:0.0030030031 94:0 95:0 96:0.015015015 97:0.0030030031 98:0.0090090092 99:0.0030030031 100:0.0060060062 101:0.125 102:0 103:0 104:0.050000001 105:0.1 106:0.025 107:0.025 108:0.075000003 109:0.075000003 110:0 111:0.050000001 112:0.1 113:0.1 114:0.050000001 115:0.1 116:0.050000001 117:0 118:0 119:0.050000001 120:0.025 121:0.021021022 122:0.012012012 123:0.0060060062 124:0.0030030031 125:0.0060060062 126:0 127:0.0030030031 128:0.012012012 129:0.0060060062 130:0.015015015 131:0.018018018 132:0.0090090092 133:0.0060060062 134:0.0030030031 135:0.0060060062 136:0.018018018 137:0.0060060062 138:0.018018018 139:0.0030030031 140:0.0090090092 141:0.1 142:0.033333335 143:0.016666668 144:0.050000001 145:0.1 146:0.016666668 147:0.033333335 148:0.1 149:0.050000001 150:0.016666668 151:0.033333335 152:0.11666667 153:0.06666667 154:0.033333335 155:0.083333336 156:0.033333335 157:0 158:0 159:0.06666667 160:0.050000001 #AMP_IMPBA                     
1.5201372933182246693917250013328 1:0.060022831 2:0.075182647 3:0.053333335 4:0.020913241 5:0.040456623 6:0.033675797 7:0.0393379 8:0.095776252 9:0.078424655 10:0.041940641 11:0.060684931 12:0.045593608 13:0.014360731 14:0.031050228 15:0.038105022 16:0.048926942 17:0.034383561 18:0.036575343 19:0.042899542 20:0.076894976 21:0.052631579 22:0.034324944 23:0.029748283 24:0.084668189 25:0.029748283 26:0.041189931 27:0.027459955 28:0.05491991 29:0.038901601 30:0.036613271 31:0.11212815 32:0.064073227 33:0.077803202 34:0.052631579 35:0.038901601 36:0.036613271 37:0.027459955 38:0.036613271 39:0.10983982 40:0.013729977 41:0.0019178082 42:0.012990868 43:0.0011415525 44:0.0030593607 45:0.0028538813 46:0.00025114155 47:0 48:0.0044292239 49:0.0026255709 50:0.00041095889 51:0.0045890412 52:0.00075342465 53:0.004200913 54:0.0013926941 55:0.00015981735 56:0.0022831049 57:0.00025114155 58:0 59:0.0021232876 60:0 61:0.050000001 62:0 63:0 64:0 65:0 66:0.050000001 67:0 68:0.1 69:0 70:0 71:0.050000001 72:0 73:0.44999999 74:0 75:0 76:0.050000001 77:0 78:0 79:0.15000001 80:0.1 81:0.0034246575 82:0.016940638 83:0.0020547945 84:0.0031278539 85:0.0076712328 86:0.0037214612 87:0.00054794521 88:0.0083789956 89:0.0049543381 90:0.00070776255 91:0.0092694061 92:0.0017579909 93:0.0047716894 94:0.0026484018 95:0.00086757989 96:0.0047945203 97:0.0055479454 98:0.0026940638 99:0.0051826485 100:0.00066210044 101:0.050000001 102:0 103:0.025 104:0 105:0.025 106:0.050000001 107:0.075000003 108:0.125 109:0 110:0 111:0.050000001 112:0.025 113:0.25 114:0 115:0 116:0.075000003 117:0 118:0.050000001 119:0.15000001 120:0.050000001 121:0.0055936072 122:0.019931506 123:0.0057762559 124:0.0051826485 125:0.0092009129 126:0.005981735 127:0.002716895 128:0.016598174 129:0.0087214615 130:0.0010958904 131:0.010913242 132:0.0047031962 133:0.0047716894 134:0.003196347 135:0.0014383561 136:0.0070319637 137:0.00673516 138:0.0035844748 139:0.0073287673 140:0.0042694062 141:0.050000001 142:0 143:0.033333335 144:0.033333335 145:0.016666668 146:0.050000001 147:0.050000001 148:0.083333336 149:0.016666668 150:0.016666668 151:0.083333336 152:0.050000001 153:0.16666667 154:0.016666668 155:0 156:0.050000001 157:0.050000001 158:0.050000001 159:0.15000001 160:0.033333335 #AMY1_HORVU                    
6 1:0.084695123 2:0.080731705 3:0.06414634 4:0.0041463412 5:0.040548779 6:0.011707317 7:0.036280487 8:0.082500003 9:0.046097562 10:0.063109756 11:0.066097558 12:0.047987804 13:0.014512195 14:0.011768293 15:0.051646341 16:0.065975606 17:0.031463414 18:0.074573174 19:0.038719513 20:0.063292682 21:0.073170729 22:0.036585364 23:0.024390243 24:0.054878049 25:0.079268292 26:0.024390243 27:0.012195121 28:0.060975611 29:0.054878049 30:0.054878049 31:0.079268292 32:0.1097561 33:0.073170729 34:0.054878049 35:0.067073174 36:0.048780486 37:0 38:0.0060975607 39:0.085365854 40:0 41:0.012195121 42:0.0125 43:0.0071951221 44:0.00054878049 45:0.00073170732 46:0 47:0.012560976 48:0.016463414 49:0.0029268293 50:0.0044512195 51:0.0086585367 52:0.0060365852 53:0 54:0 55:0.002195122 56:0.00091463415 57:0.0018292683 58:0.0060365852 59:0.011951219 60:0.010304878 61:0.050000001 62:0 63:0 64:0.1 65:0.050000001 66:0.050000001 67:0 68:0.1 69:0.050000001 70:0.1 71:0.15000001 72:0.1 73:0.1 74:0.050000001 75:0.050000001 76:0 77:0 78:0 79:0.050000001 80:0 81:0.018780489 82:0.021707317 83:0.013841463 84:0.00091463415 85:0.0038414635 86:0.00091463415 87:0.012743902 88:0.038658537 89:0.016707318 90:0.010548781 91:0.013231708 92:0.016707318 93:0.0049999999 94:0.0012804877 95:0.0093292687 96:0.0060365852 97:0.0034756097 98:0.016890245 99:0.015243903 100:0.012865853 101:0.050000001 102:0 103:0.025 104:0.050000001 105:0.1 106:0.050000001 107:0 108:0.075000003 109:0.025 110:0.050000001 111:0.15000001 112:0.125 113:0.1 114:0.025 115:0.050000001 116:0 117:0 118:0 119:0.125 120:0 121:0.03390244 122:0.031463414 123:0.022865854 124:0.001097561 125:0.0060365852 126:0.0012804877 127:0.012926829 128:0.046402439 129:0.020731708 130:0.024085365 131:0.030060975 132:0.02609756 133:0.0049999999 134:0.0038414635 135:0.016646342 136:0.01042683 137:0.0081097558 138:0.023719512 139:0.019085366 140:0.016341463 141:0.050000001 142:0.033333335 143:0.050000001 144:0.050000001 145:0.083333336 146:0.033333335 147:0 148:0.050000001 149:0.050000001 150:0.033333335 151:0.11666667 152:0.13333334 153:0.1 154:0.016666668 155:0.083333336 156:0.016666668 157:0 158:0 159:0.1 160:0 #BBCI_BAUBA                    
-3.1533770838506147704549675836461 1:0.086951219 2:0.065426826 3:0.040182926 4:0.034756098 5:0.03262195 6:0.0097560976 7:0.0086585367 8:0.055792682 9:0.062560976 10:0.056646343 11:0.058048781 12:0.049939025 13:0.0029878048 14:0.019024391 15:0.063292682 16:0.083841465 17:0.024085365 18:0.097743906 19:0.033841465 20:0.067317076 21:0.067484662 22:0.08588957 23:0.0061349692 24:0.098159507 25:0.073619634 26:0.012269938 27:0.012269938 28:0.018404908 29:0.055214725 30:0.018404908 31:0.11042945 32:0.12269939 33:0.073619634 34:0.012269938 35:0.067484662 36:0.024539877 37:0.042944785 38:0 39:0.092024542 40:0.0061349692 41:0.0050609754 42:0.025670731 43:0.005121951 44:0.017439025 45:0.007012195 46:0.00042682927 47:0.00067073171 48:0.0065853656 49:0.003597561 50:0.0074999998 51:0.0054268292 52:0.0065243901 53:0.00030487805 54:0.005792683 55:0.0061585368 56:0 57:0.004512195 58:0.0032926828 59:0.00091463415 60:0.010060975 61:0 62:0 63:0.050000001 64:0.1 65:0.050000001 66:0 67:0.050000001 68:0 69:0.050000001 70:0 71:0.15000001 72:0.050000001 73:0.25 74:0 75:0.050000001 76:0.050000001 77:0.1 78:0 79:0.050000001 80:0 81:0.0082926825 82:0.029329268 83:0.0060365852 84:0.019146342 85:0.0099999998 86:0.00042682927 87:0.0012195122 88:0.020487804 89:0.011463415 90:0.013414634 91:0.015304878 92:0.013841463 93:0.00030487805 94:0.0076219514 95:0.0099999998 96:0.0037195121 97:0.0055487803 98:0.011158536 99:0.0069512194 100:0.02347561 101:0.025 102:0 103:0.025 104:0.125 105:0.025 106:0.025 107:0.025 108:0.050000001 109:0.050000001 110:0 111:0.15000001 112:0.050000001 113:0.125 114:0 115:0.050000001 116:0.025 117:0.050000001 118:0 119:0.2 120:0 121:0.015609756 122:0.030548781 123:0.01042683 124:0.021707317 125:0.015243903 126:0.005121951 127:0.0032926828 128:0.02207317 129:0.033475611 130:0.020182926 131:0.025487805 132:0.026036585 133:0.00036585366 134:0.0086585367 135:0.022256097 136:0.010243902 137:0.0068902439 138:0.015243903 139:0.011280488 140:0.03262195 141:0.033333335 142:0.050000001 143:0.016666668 144:0.11666667 145:0.033333335 146:0.016666668 147:0.016666668 148:0.033333335 149:0.083333336 150:0.016666668 151:0.18333334 152:0.06666667 153:0.083333336 154:0 155:0.050000001 156:0.016666668 157:0.050000001 158:0 159:0.13333334 160:0 #HSP22_MAIZE                   
-1.5255307273228431164113771956181 1:0.047428571 2:0.044857144 3:0.049285714 4:0.027428571 5:0.029857144 6:0.026428571 7:0.035999998 8:0.044285715 9:0.14057143 10:0.048 11:0.092142858 12:0.067285717 13:0.019714287 14:0.017571429 15:0.071999997 16:0.07514286 17:0.021857142 18:0.054714285 19:0.04542857 20:0.039000001 21:0.086956523 22:0.057971016 23:0.014492754 24:0.043478262 25:0.072463766 26:0.028985508 27:0.014492754 28:0.10144927 29:0.086956523 30:0.028985508 31:0.13043478 32:0.057971016 33:0.028985508 34:0.043478262 35:0.043478262 36:0.043478262 37:0.014492754 38:0.028985508 39:0.043478262 40:0.028985508 41:0.014285714 42:0.0042857141 43:0.016571429 44:0.022 45:0.011142857 46:0.014285714 47:0.017428571 48:0.02 49:0.068999998 50:0.014285714 51:0.022571428 52:0.032142859 53:0 54:0 55:0.014285714 56:0 57:0.0044285716 58:0 59:0.0089999996 60:0 61:0 62:0.050000001 63:0 64:0 65:0 66:0 67:0 68:0.050000001 69:0.15000001 70:0.1 71:0.25 72:0.050000001 73:0 74:0.050000001 75:0.050000001 76:0.050000001 77:0.050000001 78:0.050000001 79:0.1 80:0 81:0.025285713 82:0.035142858 83:0.032000002 84:0.024142858 85:0.015571428 86:0.014285714 87:0.033857144 88:0.024285715 89:0.10628571 90:0.026285714 91:0.042428572 92:0.03757143 93:0.019714287 94:0.0054285713 95:0.041857142 96:0.023 97:0.0055714287 98:0.019714287 99:0.034285713 100:0.0044285716 101:0.050000001 102:0.050000001 103:0 104:0 105:0.050000001 106:0.050000001 107:0 108:0.075000003 109:0.075000003 110:0.050000001 111:0.2 112:0.050000001 113:0.050000001 114:0.050000001 115:0.050000001 116:0.050000001 117:0.025 118:0.025 119:0.050000001 120:0.050000001 121:0.041714285 122:0.040571429 123:0.040714286 124:0.027428571 125:0.029857144 126:0.026428571 127:0.035999998 128:0.040714286 129:0.13914286 130:0.03442857 131:0.072285712 132:0.047428571 133:0.019714287 134:0.017571429 135:0.058285713 136:0.064714283 137:0.017142856 138:0.04142857 139:0.044 140:0.016571429 141:0.1 142:0.050000001 143:0.016666668 144:0.016666668 145:0.06666667 146:0.033333335 147:0.016666668 148:0.1 149:0.06666667 150:0.033333335 151:0.15000001 152:0.050000001 153:0.033333335 154:0.050000001 155:0.033333335 156:0.050000001 157:0.016666668 158:0.033333335 159:0.050000001 160:0.033333335 #ATP5E_MAIZE                   
-2.4625564764253442540109517722158 1:0.095089287 2:0.063303575 3:0.054017857 4:0.017053571 5:0.049375001 6:0.016071429 7:0.022767857 8:0.064553574 9:0.099196427 10:0.03875 11:0.054910716 12:0.043303572 13:0.025535714 14:0.020446429 15:0.023125 16:0.093214288 17:0.032499999 18:0.072589286 19:0.032857142 20:0.061875001 21:0.10714286 22:0 23:0.026785715 24:0.089285716 25:0.035714287 26:0.0089285718 27:0.017857144 28:0.035714287 29:0.044642858 30:0.017857144 31:0.1875 32:0.11607143 33:0.0625 34:0.053571429 35:0.035714287 36:0.035714287 37:0.017857144 38:0.017857144 39:0.071428575 40:0.017857144 41:0.019375 42:0.0096428571 43:0.010625 44:0.0016071429 45:0.0054464284 46:0.0047321427 47:0.0013392858 48:0.018839287 49:0.017946428 50:0.00071428571 51:0.013125 52:0.0078571429 53:0.0017857143 54:0.0050892858 55:0.0020535714 56:0.013035715 57:0.0083035715 58:0.015446428 59:0.0066071427 60:0.012857143 61:0.1 62:0 63:0 64:0.1 65:0 66:0 67:0.050000001 68:0.1 69:0 70:0 71:0.2 72:0.1 73:0.050000001 74:0.1 75:0 76:0 77:0 78:0.050000001 79:0.15000001 80:0 81:0.036785714 82:0.018214285 83:0.016249999 84:0.0025892856 85:0.015892858 86:0.014107143 87:0.0044642859 88:0.030178571 89:0.030089285 90:0.01375 91:0.020089285 92:0.014910715 93:0.019375 94:0.0088392859 95:0.0062500001 96:0.028660715 97:0.011607143 98:0.021964286 99:0.010535714 100:0.022232143 101:0.125 102:0 103:0.025 104:0.075000003 105:0.050000001 106:0 107:0.025 108:0.050000001 109:0.050000001 110:0 111:0.125 112:0.1 113:0.025 114:0.075000003 115:0.050000001 116:0.025 117:0 118:0.050000001 119:0.1 120:0.050000001 121:0.051785715 122:0.035 123:0.029553572 124:0.0084821433 125:0.028928572 126:0.014642857 127:0.012142858 128:0.034732144 129:0.050357144 130:0.024285715 131:0.028303571 132:0.020446429 133:0.020267857 134:0.011428571 135:0.0091071427 136:0.043392856 137:0.016607143 138:0.035625 139:0.016071429 140:0.028124999 141:0.1 142:0 143:0.016666668 144:0.06666667 145:0.050000001 146:0.016666668 147:0.016666668 148:0.050000001 149:0.050000001 150:0.016666668 151:0.11666667 152:0.083333336 153:0.06666667 154:0.083333336 155:0.050000001 156:0.050000001 157:0.016666668 158:0.033333335 159:0.083333336 160:0.033333335 #TRXH_CHLRE                    
3.7996799682519926122381548339035 1:0.081299588 2:0.070123121 3:0.057879616 4:0.019316005 5:0.039644323 6:0.011025992 7:0.031819426 8:0.086333789 9:0.095362514 10:0.056101233 11:0.096292749 12:0.0671409 13:0.013775649 14:0.023023255 15:0.037578661 16:0.04604651 17:0.019302325 18:0.032229822 19:0.041805744 20:0.049904242 21:0.034246575 22:0.050684933 23:0.019178081 24:0.052054796 25:0.02739726 26:0.057534248 27:0.020547945 28:0.1109589 29:0.071232878 30:0.034246575 31:0.078082189 32:0.076712325 33:0.071232878 34:0.056164384 35:0.060273971 36:0.053424656 37:0.01369863 38:0.012328767 39:0.087671235 40:0.012328767 41:0.0019425445 42:0.0057729138 43:0.0019972641 44:0.0016689467 45:0.0044459645 46:0.00023255814 47:0.00025991793 48:0.00041039672 49:0.00095759233 50:0.00060191518 51:0.0043638851 52:0.00058823527 53:0.00064295484 54:0.00038303694 55:0.00065663474 56:0.00067031465 57:0.00034199728 58:0.00017783858 59:0.00068399456 60:4.1039671e-05 61:0.050000001 62:0.050000001 63:0 64:0 65:0 66:0.050000001 67:0 68:0.25 69:0 70:0 71:0.050000001 72:0 73:0.2 74:0.050000001 75:0 76:0.30000001 77:0 78:0 79:0 80:0 81:0.0045964434 82:0.0074692201 83:0.0037893297 84:0.0022845417 85:0.0047879615 86:0.00023255814 87:0.0024213407 88:0.0019562244 89:0.0032421341 90:0.0006976744 91:0.0067168265 92:0.0016552667 93:0.00073871406 94:0.0013406293 95:0.0016963064 96:0.0020656635 97:0.0014911081 98:0.0012311902 99:0.0011491108 100:0.0020793434 101:0.075000003 102:0.075000003 103:0 104:0.1 105:0 106:0.050000001 107:0 108:0.175 109:0 110:0.050000001 111:0.025 112:0.025 113:0.125 114:0.075000003 115:0 116:0.15000001 117:0.025 118:0 119:0.050000001 120:0 121:0.0061012311 122:0.010793434 123:0.0046922024 124:0.0031600548 125:0.0054856362 126:0.00061559508 127:0.0030779755 128:0.0024487004 129:0.0048974007 130:0.0020519835 131:0.010164158 132:0.0034336525 133:0.00079343363 134:0.0040902873 135:0.0024213407 136:0.0030642955 137:0.0024487004 138:0.0028454172 139:0.0018331053 140:0.0042681256 141:0.050000001 142:0.06666667 143:0.050000001 144:0.1 145:0.033333335 146:0.033333335 147:0.016666668 148:0.13333334 149:0 150:0.033333335 151:0.050000001 152:0.050000001 153:0.13333334 154:0.050000001 155:0.016666668 156:0.1 157:0.033333335 158:0 159:0.050000001 160:0 #CUCM1_CUCME                   
6 1:0.068230279 2:0.059275053 3:0.048763327 4:0.022942431 5:0.045565031 6:0.027313434 7:0.064733475 8:0.06626866 9:0.056886993 10:0.049573559 11:0.084456287 12:0.059466951 13:0.0078251595 14:0.036055438 15:0.045031983 16:0.04151386 17:0.032132197 18:0.05108742 19:0.048869938 20:0.053773988 21:0.044871796 22:0.047008548 23:0.036324788 24:0.053418804 25:0.057692308 26:0.0491453 27:0.032051284 28:0.08760684 29:0.047008548 30:0.068376072 31:0.044871796 32:0.072649576 33:0.05982906 34:0.057692308 35:0.055555556 36:0.051282052 37:0.017094018 38:0.034188036 39:0.072649576 40:0.010683761 41:0.003880597 42:0.0081663113 43:0.0034115138 44:0.0040724948 45:0.0018123668 46:0 47:0 48:0.00055437098 49:0.0012793177 50:0 51:0.0072494671 52:0.0012153519 53:0.00034115138 54:0 55:0.0040938165 56:0.0031130065 57:0.00059701491 58:0.00053304905 59:0.00068230275 60:0.0015991471 61:0.1 62:0.1 63:0 64:0.050000001 65:0 66:0 67:0 68:0.25 69:0 70:0 71:0 72:0.1 73:0.2 74:0.15000001 75:0 76:0.050000001 77:0 78:0 79:0 80:0 81:0.0085714282 82:0.010703625 83:0.0061194031 84:0.0042217486 85:0.0039445627 86:0.00019189765 87:0.0014712154 88:0.0040511726 89:0.0037526654 90:0.0010447762 91:0.01260128 92:0.0045202561 93:0.0017484009 94:8.5287844e-05 95:0.0071002133 96:0.0047547976 97:0.0011727079 98:0.0025799572 99:0.0023880596 100:0.0024946695 101:0.050000001 102:0.075000003 103:0 104:0.050000001 105:0.050000001 106:0 107:0 108:0.175 109:0.025 110:0.050000001 111:0 112:0.1 113:0.15000001 114:0.075000003 115:0.025 116:0.075000003 117:0 118:0 119:0.075000003 120:0.025 121:0.012238806 122:0.012985075 123:0.0074200425 124:0.0057356078 125:0.0059275054 126:0.00044776118 127:0.0028997867 128:0.0057356078 129:0.0070149256 130:0.0092324093 131:0.0154371 132:0.0057569295 133:0.0018336887 134:0.0010234541 135:0.008187633 136:0.005458422 137:0.0017270789 138:0.0039658849 139:0.0046055438 140:0.0073134326 141:0.033333335 142:0.050000001 143:0.016666668 144:0.1 145:0.050000001 146:0.016666668 147:0.016666668 148:0.15000001 149:0.016666668 150:0.033333335 151:0 152:0.1 153:0.11666667 154:0.050000001 155:0.083333336 156:0.06666667 157:0.016666668 158:0 159:0.06666667 160:0.016666668 #PPAF_ARATH                    
6 1:0.070976742 2:0.051674418 3:0.04832558 4:0.017209303 5:0.028651163 6:0.026604651 7:0.051581394 8:0.11 9:0.074604653 10:0.035069767 11:0.079627909 12:0.045302324 13:0.037302326 14:0.016930232 15:0.030046511 16:0.055255815 17:0.035674419 18:0.052046511 19:0.050930232 20:0.053116281 21:0.032558139 22:0.037209302 23:0.013953488 24:0.018604651 25:0.027906977 26:0.079069771 27:0.079069771 28:0.10697675 29:0.046511628 30:0.041860465 31:0.088372096 32:0.08372093 33:0.037209302 34:0.060465116 35:0.037209302 36:0.027906977 37:0.0093023255 38:0.032558139 39:0.10697675 40:0.032558139 41:0.010697674 42:0.0038139536 43:0.0038139536 44:0.00046511629 45:0.0011627907 46:0.0045581395 47:0.001116279 48:0.0075348839 49:0.0046511628 50:0.00772093 51:0.0047441861 52:0.0043720929 53:0.00074418605 54:0.0010232559 55:0.0058139535 56:0.0080000004 57:0.0058139535 58:0.0037209303 59:0.0034418604 60:0.0090697678 61:0.15000001 62:0.050000001 63:0 64:0.050000001 65:0 66:0.1 67:0.050000001 68:0.15000001 69:0 70:0 71:0.050000001 72:0.1 73:0.050000001 74:0.050000001 75:0.050000001 76:0.050000001 77:0 78:0.050000001 79:0.050000001 80:0 81:0.014976745 82:0.0073023257 83:0.0089767445 84:0.0017674419 85:0.0065116277 86:0.0093023255 87:0.0026046513 88:0.017999999 89:0.018372092 90:0.0078139538 91:0.016790697 92:0.0089767445 93:0.010790697 94:0.0020000001 95:0.0076744184 96:0.0095348833 97:0.0092093023 98:0.0080930237 99:0.0056279069 100:0.010046512 101:0.1 102:0.025 103:0 104:0.025 105:0.025 106:0.075000003 107:0.050000001 108:0.15000001 109:0 110:0 111:0.125 112:0.1 113:0.025 114:0.075000003 115:0.025 116:0.050000001 117:0 118:0.050000001 119:0.050000001 120:0.050000001 121:0.021906978 122:0.019581396 123:0.011534884 124:0.0025581396 125:0.0076279072 126:0.0093488377 127:0.0035813954 128:0.023860466 129:0.021720931 130:0.0088837212 131:0.028651163 132:0.014093023 133:0.016511628 134:0.0030697675 135:0.0093953488 136:0.014232558 137:0.016186047 138:0.014372093 139:0.01116279 140:0.017813953 141:0.06666667 142:0.033333335 143:0 144:0.050000001 145:0.050000001 146:0.050000001 147:0.06666667 148:0.15000001 149:0.033333335 150:0 151:0.1 152:0.083333336 153:0.06666667 154:0.06666667 155:0.016666668 156:0.033333335 157:0 158:0.033333335 159:0.050000001 160:0.050000001 #ERVB_TABDI                    
0.87956187731686374942086104056216 1:0.082132354 2:0.084338233 3:0.039117645 4:0.026617646 5:0.016838236 6:0.0005147059 7:0.023308823 8:0.077205881 9:0.076176472 10:0.03110294 11:0.08705882 12:0.050735295 13:0.098897062 14:0.0071323528 15:0.034411766 16:0.055 17:0.027132353 18:0.051323529 19:0.056029413 20:0.045955881 21:0.059259258 22:0.044444446 23:0 24:0.059259258 25:0.059259258 26:0.059259258 27:0.022222223 28:0.081481479 29:0.044444446 30:0.029629629 31:0.059259258 32:0.074074075 33:0.12592593 34:0.014814815 35:0.022222223 36:0.014814815 37:0.022222223 38:0 39:0.096296296 40:0.11111111 41:0.026544118 42:0.032499999 43:0.013014706 44:0.014852941 45:0.00095588237 46:0 47:0 48:0.020588236 49:0.0011764705 50:0.00014705882 51:0.013161764 52:0.001985294 53:0.0050735292 54:0 55:0.00014705882 56:0.012867647 57:0.0006617647 58:0.0019117647 59:0.0011029412 60:0 61:0.1 62:0 63:0 64:0 65:0.050000001 66:0 67:0 68:0.050000001 69:0 70:0 71:0 72:0.15000001 73:0.30000001 74:0.050000001 75:0 76:0 77:0.050000001 78:0 79:0.2 80:0.050000001 81:0.03897059 82:0.034558825 83:0.01764706 84:0.015147059 85:0.0027941177 86:0 87:0.006470588 88:0.026911765 89:0.012352942 90:0.0044852942 91:0.024411764 92:0.013602941 93:0.023161765 94:0.00088235294 95:0.0085294116 96:0.023014706 97:0.016102942 98:0.012647059 99:0.010367647 100:0.0018382353 101:0.075000003 102:0.050000001 103:0 104:0 105:0.050000001 106:0.050000001 107:0.050000001 108:0.050000001 109:0.050000001 110:0.025 111:0 112:0.125 113:0.175 114:0.025 115:0 116:0 117:0.025 118:0 119:0.15000001 120:0.1 121:0.045514707 122:0.046102941 123:0.02507353 124:0.015955882 125:0.0043382351 126:0 127:0.0069117649 128:0.040588234 129:0.02742647 130:0.0091911769 131:0.035588235 132:0.021911765 133:0.049632352 134:0.001617647 135:0.023455882 136:0.032279413 137:0.018529411 138:0.014926471 139:0.018088235 140:0.0044117649 141:0.083333336 142:0.083333336 143:0 144:0 145:0.033333335 146:0.033333335 147:0.050000001 148:0.06666667 149:0.06666667 150:0.016666668 151:0.016666668 152:0.1 153:0.16666667 154:0.016666668 155:0 156:0 157:0.016666668 158:0 159:0.11666667 160:0.13333334 #THN2_WHEAT                    
-0.41752334075103042509979900387407 1:0.058165938 2:0.076899566 3:0.025283843 4:0.042663757 5:0.024497816 6:0.013318777 7:0.025502183 8:0.074541487 9:0.062358078 10:0.047991265 11:0.082401745 12:0.037860263 13:0.014541484 14:0.0067685591 15:0.051572051 16:0.083449781 17:0.02209607 18:0.063973799 19:0.040174674 20:0.058384281 21:0.087719299 22:0.048245613 23:0.0087719299 24:0.074561402 25:0.061403509 26:0.048245613 27:0.0087719299 28:0.083333336 29:0.039473683 30:0.02631579 31:0.065789476 32:0.078947365 33:0.078947365 34:0.013157895 35:0.065789476 36:0.030701755 37:0.057017542 38:0.01754386 39:0.083333336 40:0.021929825 41:0.0014847162 42:0.020087337 43:0.0011790392 44:0.0084716156 45:0.0010043668 46:0 47:8.7336244e-05 48:0.012358079 49:0.0041048033 50:0.0043668123 51:0.0023580785 52:0.004978166 53:0.00048034935 54:0 55:0.0037991267 56:0.0050655021 57:0.00043668124 58:0.010043669 59:0.003537118 60:0.0032751092 61:0 62:0.050000001 63:0 64:0 65:0.15000001 66:0.050000001 67:0 68:0.050000001 69:0.050000001 70:0 71:0 72:0.050000001 73:0.25 74:0 75:0.050000001 76:0 77:0.050000001 78:0 79:0.2 80:0.050000001 81:0.0067685591 82:0.023362445 83:0.0036244541 84:0.0096069872 85:0.0037117903 86:8.7336244e-05 87:0.00021834062 88:0.019039301 89:0.010305677 90:0.00720524 91:0.013056768 92:0.010174672 93:0.001790393 94:0.00061135372 95:0.0093449783 96:0.011179039 97:0.0028384279 98:0.017598253 99:0.0074235806 100:0.0084716156 101:0.050000001 102:0.050000001 103:0 104:0.050000001 105:0.1 106:0.050000001 107:0 108:0.050000001 109:0.1 110:0 111:0.025 112:0.1 113:0.15000001 114:0 115:0.050000001 116:0.025 117:0.025 118:0 119:0.15000001 120:0.025 121:0.010524018 122:0.027641922 123:0.0052838428 124:0.011746725 125:0.004716157 126:0.00026200875 127:0.0009606987 128:0.023318777 129:0.014716157 130:0.010218341 131:0.022620087 132:0.014148472 133:0.0027074236 134:0.0018340611 135:0.011659388 136:0.018995633 137:0.0051965066 138:0.023973798 139:0.014585153 140:0.012925765 141:0.050000001 142:0.033333335 143:0.016666668 144:0.050000001 145:0.1 146:0.1 147:0 148:0.050000001 149:0.11666667 150:0 151:0.033333335 152:0.1 153:0.13333334 154:0 155:0.050000001 156:0.016666668 157:0.016666668 158:0 159:0.11666667 160:0.016666668 #IAA17_ARATH                   
-1.2860566424899182447205703283544 1:0.065803573 2:0.11879464 3:0.025357142 4:0.010714286 5:0.049375001 6:0.0044642859 7:0.012232143 8:0.08223214 9:0.085491069 10:0.029955357 11:0.12026786 12:0.048348214 13:0.036919642 14:0.0091071427 15:0.048258927 16:0.049285714 17:0.039375 18:0.042455357 19:0.071651787 20:0.041785713 21:0.049327355 22:0.049327355 23:0.0044843052 24:0.067264572 25:0.026905829 26:0.053811658 27:0.040358745 28:0.12107623 29:0.071748883 30:0.0089686103 31:0.080717489 32:0.076233186 33:0.10762332 34:0.026905829 35:0.031390134 36:0.062780268 37:0 38:0.0044843052 39:0.089686096 40:0.026905829 41:0.0089285718 42:0.0089285718 43:0.0089285718 44:0.0044642859 45:0.0044642859 46:0 47:0 48:0 49:0 50:0.0044642859 51:0.022321429 52:0 53:0.0089285718 54:0 55:0 56:0.0044642859 57:0.0044642859 58:0 59:0.0089285718 60:0 61:0.050000001 62:0 63:0 64:0 65:0 66:0.1 67:0.050000001 68:0.25 69:0 70:0 71:0 72:0.1 73:0.15000001 74:0.1 75:0.050000001 76:0.050000001 77:0 78:0 79:0 80:0.1 81:0.0089285718 82:0.013392857 83:0.013392857 84:0.0044642859 85:0.0089285718 86:0 87:0 88:0 89:0 90:0.013392857 91:0.053571429 92:0 93:0.017857144 94:0.0044642859 95:0.0089285718 96:0.0044642859 97:0.013392857 98:0.0044642859 99:0.0089285718 100:0 101:0.025 102:0.050000001 103:0.025 104:0 105:0.025 106:0.050000001 107:0.075000003 108:0.30000001 109:0 110:0 111:0 112:0.050000001 113:0.075000003 114:0.075000003 115:0.075000003 116:0.050000001 117:0 118:0 119:0.025 120:0.1 121:0.03125 122:0.022321429 123:0.013392857 124:0.0044642859 125:0.0089285718 126:0.0044642859 127:0 128:0.0089285718 129:0 130:0.017857144 131:0.066964284 132:0.0044642859 133:0.017857144 134:0.0044642859 135:0.013392857 136:0.0089285718 137:0.013392857 138:0.017857144 139:0.0089285718 140:0 141:0.033333335 142:0.050000001 143:0.016666668 144:0 145:0.06666667 146:0.033333335 147:0.050000001 148:0.26666668 149:0.016666668 150:0 151:0 152:0.11666667 153:0.083333336 154:0.050000001 155:0.06666667 156:0.033333335 157:0 158:0.016666668 159:0.033333335 160:0.06666667 #TL15_ARATH                    
3.0315027246830097418239802209428 1:0.061206896 2:0.067366771 3:0.036520377 4:0.016849529 5:0.029388715 6:0.018605016 7:0.032037616 8:0.075376175 9:0.095015675 10:0.065893419 11:0.062711596 12:0.067554861 13:0.0238558 14:0.010235109 15:0.054028213 16:0.028197492 17:0.033934169 18:0.038354233 19:0.04952978 20:0.049749218 21:0.03767661 22:0.06436421 23:0.0094191525 24:0.056514915 25:0.043956045 26:0.054945055 27:0.03610675 28:0.06279435 29:0.07692308 30:0.03767661 31:0.095761381 32:0.058084771 33:0.07535322 34:0.043956045 35:0.078492932 36:0.026687598 37:0.017268445 38:0.020408163 39:0.078492932 40:0.02511774 41:0.0031347962 42:0.0047021941 43:0 44:0.0015673981 45:0.0015673981 46:0 47:0 48:0.0015673981 49:0.010971786 50:0 51:0.0015673981 52:0.0015673981 53:0.0015673981 54:0 55:0.0031347962 56:0 57:0 58:0 59:0 60:0 61:0 62:0.1 63:0 64:0 65:0 66:0 67:0 68:0.050000001 69:0.050000001 70:0 71:0.34999999 72:0.1 73:0.2 74:0 75:0 76:0.050000001 77:0 78:0 79:0.050000001 80:0.050000001 81:0.0050940439 82:0.0066614421 83:0 84:0.0031347962 85:0.0019592477 86:0.0011755485 87:0 88:0.0047021941 89:0.015282132 90:0.0015673981 91:0.0019592477 92:0.007836991 93:0.0035266457 94:0 95:0.0031347962 96:0.0015673981 97:0.0019592477 98:0.0019592477 99:0.0011755485 100:0 101:0.050000001 102:0.050000001 103:0 104:0 105:0.025 106:0.025 107:0.025 108:0.025 109:0.15000001 110:0 111:0.25 112:0.075000003 113:0.1 114:0 115:0.025 116:0.025 117:0.025 118:0.025 119:0.075000003 120:0.050000001 121:0.0054858932 122:0.0066614421 123:0.00169279 124:0.0031347962 125:0.0050940439 126:0.0023510971 127:0 128:0.0052194358 129:0.018291537 130:0.012021944 131:0.0035266457 132:0.007836991 133:0.0035266457 134:0.00039184952 135:0.0099216299 136:0.0034012538 137:0.0019592477 138:0.0019592477 139:0.0015673981 140:0 141:0.033333335 142:0.11666667 143:0 144:0 145:0.016666668 146:0.016666668 147:0.016666668 148:0.033333335 149:0.1 150:0 151:0.2 152:0.050000001 153:0.06666667 154:0.016666668 155:0.15000001 156:0.050000001 157:0.016666668 158:0.033333335 159:0.050000001 160:0.033333335 #GLE_CHLRE                     
6 1:0.073846154 2:0.068741262 3:0.044475526 4:0.013496503 5:0.043636363 6:0.00090909092 7:0.030979021 8:0.070699304 9:0.066363633 10:0.050979022 11:0.053916086 12:0.077272728 13:0.042517483 14:0.014405594 15:0.056573428 16:0.066713288 17:0.028811188 18:0.077062935 19:0.039510489 20:0.067202799 21:0.055944055 22:0.062937066 23:0.013986014 24:0.069930069 25:0.090909094 26:0.041958041 27:0.041958041 28:0.034965035 29:0.062937066 30:0.027972028 31:0.07692308 32:0.069930069 33:0.048951048 34:0.055944055 35:0.062937066 36:0.041958041 37:0 38:0.0069930069 39:0.090909094 40:0.041958041 41:0.014755244 42:0.00069930073 43:0.0034265735 44:0.0002097902 45:0.0076923077 46:0.00013986015 47:0.0084615387 48:0.017902099 49:0.0062237764 50:0.0083216783 51:0.0030769231 52:0.0079720281 53:0.013846153 54:0.0013286714 55:0.01076923 56:0.0065034963 57:0.0072027971 58:0.0016083916 59:0.0047552446 60:0.014405594 61:0.050000001 62:0.1 63:0 64:0.1 65:0 66:0 67:0 68:0 69:0.050000001 70:0.050000001 71:0.050000001 72:0.15000001 73:0 74:0 75:0.1 76:0.050000001 77:0 78:0 79:0.2 80:0.1 81:0.025804196 82:0.012237762 83:0.011678321 84:0.0011188812 85:0.018531468 86:0.00013986015 87:0.01048951 88:0.025314685 89:0.016153846 90:0.012727273 91:0.013216783 92:0.01958042 93:0.02083916 94:0.0027972029 95:0.019370629 96:0.017272728 97:0.010839161 98:0.014755244 99:0.0070629371 100:0.01958042 101:0.025 102:0.075000003 103:0.025 104:0.075000003 105:0.025 106:0.050000001 107:0.025 108:0.025 109:0.075000003 110:0.025 111:0.075000003 112:0.175 113:0 114:0 115:0.075000003 116:0.050000001 117:0 118:0 119:0.125 120:0.075000003 121:0.035734266 122:0.017412588 123:0.014335664 124:0.0017482517 125:0.023216784 126:0.00062937062 127:0.021818181 128:0.044405594 129:0.024545455 130:0.012867133 131:0.018391609 132:0.042587414 133:0.021118881 134:0.0037762239 135:0.026223777 136:0.028811188 137:0.011958042 138:0.030349649 139:0.012027972 140:0.027902098 141:0.050000001 142:0.050000001 143:0.016666668 144:0.06666667 145:0.050000001 146:0.050000001 147:0.016666668 148:0.033333335 149:0.083333336 150:0.033333335 151:0.083333336 152:0.11666667 153:0.033333335 154:0 155:0.050000001 156:0.050000001 157:0 158:0.016666668 159:0.15000001 160:0.050000001 #PHLB_PHLPR                    
4.67165193472764794790919040679 1:0.081056103 2:0.086039603 3:0.053168315 4:0.017161716 5:0.061947193 6:0.012013202 7:0.025082508 8:0.069306932 9:0.10108911 10:0.056633662 11:0.073861383 12:0.052244224 13:0.021518152 14:0.024488449 15:0.032475248 16:0.043762375 17:0.03561056 18:0.048646864 19:0.029735973 20:0.054455444 21:0.052980132 22:0.049668875 23:0.029801324 24:0.05629139 25:0.049668875 26:0.019867551 27:0.033112582 28:0.079470202 29:0.046357617 30:0.026490066 31:0.1192053 32:0.099337749 33:0.096026488 34:0.029801324 35:0.05629139 36:0.05629139 37:0.0099337753 38:0.013245033 39:0.05629139 40:0.019867551 41:0.0066006603 42:0.0099009899 43:0.0016501651 44:0.0033003301 45:0 46:0 47:0 48:0.0089108907 49:0.017821781 50:0.0039603962 51:0.0072607263 52:0 53:0.0033003301 54:0 55:0 56:0 57:0.0033003301 58:0 59:0 60:0 61:0 62:0 63:0 64:0 65:0 66:0 67:0.050000001 68:0.1 69:0.050000001 70:0 71:0.40000001 72:0.1 73:0.2 74:0 75:0.050000001 76:0 77:0 78:0 79:0 80:0.050000001 81:0.0067656767 82:0.013663366 83:0.0020132014 84:0.0039933994 85:0.00036303629 86:0.0001980198 87:0 88:0.011914192 89:0.02768977 90:0.013465347 91:0.012541254 92:0.0063366336 93:0.0074917492 94:0.0026072608 95:0.00036303629 96:0.0011551155 97:0.0065346533 98:0.0041254126 99:0.0038613861 100:0.0039273929 101:0 102:0.050000001 103:0.050000001 104:0.050000001 105:0.025 106:0.025 107:0.050000001 108:0.1 109:0.050000001 110:0 111:0.25 112:0.050000001 113:0.125 114:0.025 115:0.075000003 116:0 117:0 118:0 119:0.025 120:0.050000001 121:0.014719472 122:0.017722772 123:0.0029702971 124:0.0041914191 125:0.0015511551 126:0.0001980198 127:0.0039603962 128:0.023729373 129:0.032112211 130:0.014488448 131:0.014488448 132:0.0092739277 133:0.0076237624 134:0.0043564355 135:0.0010231023 136:0.0032013201 137:0.0075907591 138:0.0097029703 139:0.0053135315 140:0.0077557755 141:0 142:0.050000001 143:0.050000001 144:0.050000001 145:0.050000001 146:0.016666668 147:0.050000001 148:0.06666667 149:0.033333335 150:0.016666668 151:0.21666667 152:0.083333336 153:0.13333334 154:0.016666668 155:0.06666667 156:0 157:0 158:0 159:0.06666667 160:0.033333335 #E134_MAIZE                    
-2.8827216237531185782927423133515 1:0.083362371 2:0.095574915 3:0.064111501 4:0.026114983 5:0.032195121 6:0.00054006971 7:0.023170732 8:0.082508713 9:0.091062717 10:0.046167247 11:0.063275263 12:0.054860625 13:0.0032752613 14:0.0084494771 15:0.051986061 16:0.055940766 17:0.035801392 18:0.078797907 19:0.035818815 20:0.052839722 21:0.057591625 22:0.04886562 23:0.012216405 24:0.064572424 25:0.076788828 26:0.029668411 27:0.038394414 28:0.057591625 29:0.059336822 30:0.020942409 31:0.095986038 32:0.10122164 33:0.085514836 34:0.057591625 35:0.043630019 36:0.033158813 37:0.020942409 38:0.0017452007 39:0.089005239 40:0.0052356021 41:0.002108014 42:0.0037630661 43:0.00087108015 44:0.0016550523 45:0.0012369337 46:0 47:0.00017421602 48:0.0006968641 49:0.0059756096 50:0.0011498258 51:0.004163763 52:0.0020731706 53:0.00017421602 54:0.00099303131 55:0.0029442508 56:0.0010801394 57:0.0012020906 58:0.00050522649 59:0.0014285714 60:0.00064459932 61:0.050000001 62:0.1 63:0 64:0 65:0 66:0.050000001 67:0.050000001 68:0.15000001 69:0.050000001 70:0 71:0.2 72:0.1 73:0.15000001 74:0 75:0 76:0.050000001 77:0 78:0 79:0.050000001 80:0 81:0.0048780488 82:0.0061149825 83:0.0029442508 84:0.0017073171 85:0.0019860626 86:0 87:0.00094076653 88:0.003902439 89:0.0096864114 90:0.0020034844 91:0.0082404185 92:0.0032055748 93:0.00024390244 94:0.0010801394 95:0.0060627176 96:0.0037456446 97:0.0015853659 98:0.0034146341 99:0.0033623693 100:0.0013066202 101:0.025 102:0.075000003 103:0 104:0.025 105:0.025 106:0.025 107:0.025 108:0.1 109:0.075000003 110:0 111:0.30000001 112:0.1 113:0.075000003 114:0 115:0.025 116:0.075000003 117:0 118:0 119:0.050000001 120:0 121:0.0092857145 122:0.0079965154 123:0.00815331 124:0.0032752613 125:0.0036933797 126:0 127:0.0026132404 128:0.007334495 129:0.011777003 130:0.0068815332 131:0.008675958 132:0.0034843206 133:0.00026132405 134:0.0010801394 135:0.0060975607 136:0.0052613239 137:0.0032752613 138:0.0035888501 139:0.0050522648 140:0.0031358886 141:0.016666668 142:0.06666667 143:0 144:0.050000001 145:0.033333335 146:0.016666668 147:0.033333335 148:0.1 149:0.050000001 150:0 151:0.2 152:0.13333334 153:0.083333336 154:0.033333335 155:0.050000001 156:0.06666667 157:0 158:0 159:0.06666667 160:0 #ATPBM_CHLRE                   
-1.1885714056954632678042571569677 1:0.041715976 2:0.0352071 3:0.02704142 4:0.018520711 5:0.03928994 6:0.011183432 7:0.052662723 8:0.23130177 9:0.050769232 10:0.02745562 11:0.082366861 12:0.033905324 13:0.0051479288 14:0.013609467 15:0.085147932 16:0.044733729 17:0.028934911 18:0.056390531 19:0.046035502 20:0.05994083 21:0.023809524 22:0.083333336 23:0 24:0.053571429 25:0.05952381 26:0.017857144 27:0.017857144 28:0.071428575 29:0.029761905 30:0.053571429 31:0.041666668 32:0.029761905 33:0.023809524 34:0.023809524 35:0.0059523811 36:0.035714287 37:0.011904762 38:0.011904762 39:0.39880952 40:0.0059523811 41:0.0093491124 42:0.0094674556 43:0.0058579883 44:0.0056213019 45:0.0066272188 46:0.00147929 47:0.0036686391 48:0.0092899408 49:0.008698225 50:0.0073372782 51:0.0087573966 52:0.0072781066 53:0.0012426035 54:0.0015976331 55:0.0039644972 56:0.0048520709 57:0.0013017751 58:0.006745562 59:0.0055029588 60:0.0088165682 61:0 62:0.050000001 63:0 64:0.1 65:0.1 66:0 67:0 68:0.050000001 69:0.050000001 70:0.050000001 71:0.15000001 72:0.1 73:0.050000001 74:0 75:0.050000001 76:0.050000001 77:0 78:0.050000001 79:0.1 80:0.050000001 81:0.021242604 82:0.019467456 83:0.014674556 84:0.0082248524 85:0.015798816 86:0.0018343196 87:0.0070414203 88:0.016449705 89:0.015266272 90:0.009408284 91:0.017337278 92:0.011301775 93:0.0028994083 94:0.0031360947 95:0.0092899408 96:0.012840237 97:0.0056213019 98:0.01887574 99:0.0082248524 100:0.016213018 101:0.025 102:0.050000001 103:0 104:0.075000003 105:0.1 106:0.025 107:0.025 108:0.1 109:0.050000001 110:0.025 111:0.1 112:0.075000003 113:0.075000003 114:0.050000001 115:0.025 116:0.075000003 117:0 118:0.025 119:0.075000003 120:0.025 121:0.027573964 122:0.021242604 123:0.016686391 124:0.0092899408 125:0.029763313 126:0.0020118344 127:0.011715977 128:0.031360947 129:0.01923077 130:0.011538462 131:0.027278107 132:0.019822486 133:0.0037869823 134:0.0044378699 135:0.020473372 136:0.021538461 137:0.0086390534 138:0.026686391 139:0.011420119 140:0.026272189 141:0.050000001 142:0.083333336 143:0 144:0.083333336 145:0.1 146:0.016666668 147:0.016666668 148:0.1 149:0.06666667 150:0.016666668 151:0.06666667 152:0.06666667 153:0.050000001 154:0.033333335 155:0.016666668 156:0.1 157:0 158:0.016666668 159:0.1 160:0.016666668 #GRP2_SINAL                    
-6 1:0.091083333 2:0.071666665 3:0.039000001 4:0.0265 5:0.039166667 6:0.0086666662 7:0.033500001 8:0.084833331 9:0.099333331 10:0.047583334 11:0.076333337 12:0.054083332 13:0.0125 14:0.02825 15:0.052666668 16:0.046750002 17:0.026666667 18:0.075750001 19:0.037916668 20:0.045083333 21:0.042016808 22:0.042016808 23:0.042016808 24:0.050420169 25:0.042016808 26:0.042016808 27:0.033613447 28:0.1092437 29:0.050420169 30:0.025210084 31:0.092436977 32:0.084033616 33:0.067226894 34:0.042016808 35:0.042016808 36:0.033613447 37:0.016806724 38:0.0084033618 39:0.11764706 40:0.016806724 41:0.029583333 42:0.01375 43:0.00275 44:0.00875 45:0.00075000001 46:0 47:0.00125 48:0.0011666666 49:0.02575 50:0.012916666 51:0.015916666 52:0.012166667 53:0 54:0.0020000001 55:0.0105 56:0.0050833332 57:0.00275 58:0.017416667 59:0.00041666668 60:0.0043333331 61:0 62:0.050000001 63:0.050000001 64:0.050000001 65:0.1 66:0 67:0 68:0.2 69:0.050000001 70:0 71:0.1 72:0.2 73:0.15000001 74:0 75:0.050000001 76:0 77:0 78:0 79:0 80:0 81:0.041250002 82:0.023166666 83:0.0060833334 84:0.0090833334 85:0.0080833333 86:0.00033333333 87:0.01025 88:0.017750001 89:0.038583335 90:0.018916667 91:0.024583334 92:0.020333333 93:0 94:0.015166666 95:0.026916666 96:0.01125 97:0.0097500002 98:0.032416668 99:0.0020833334 100:0.017750001 101:0 102:0.075000003 103:0.075000003 104:0.050000001 105:0.1 106:0 107:0.025 108:0.125 109:0.050000001 110:0.025 111:0.1 112:0.125 113:0.1 114:0 115:0.050000001 116:0.025 117:0 118:0 119:0.050000001 120:0.025 121:0.055833332 122:0.029750001 123:0.016833333 124:0.018833334 125:0.011583333 126:0.00066666666 127:0.01925 128:0.032916665 129:0.048666667 130:0.037583333 131:0.034249999 132:0.028333334 133:0.001 134:0.015833333 135:0.035166666 136:0.020666666 137:0.013166667 138:0.039333332 139:0.020833334 140:0.018750001 141:0.016666668 142:0.06666667 143:0.050000001 144:0.050000001 145:0.06666667 146:0.050000001 147:0.016666668 148:0.11666667 149:0.033333335 150:0.033333335 151:0.1 152:0.1 153:0.06666667 154:0.016666668 155:0.06666667 156:0.016666668 157:0.033333335 158:0 159:0.083333336 160:0.016666668 #STR16_ARATH                   
6 1:0.10252252 2:0.096576579 3:0.073513515 4:0.016486486 5:0.055135135 6:0.012252253 7:0.0060360362 8:0.046306305 9:0.056306306 10:0.049909908 11:0.055675674 12:0.053693693 13:0.018108109 14:0.010810811 15:0.050180182 16:0.058018018 17:0.025855856 18:0.085135132 19:0.033963963 20:0.043333333 21:0.063636363 22:0.027272727 23:0.0090909088 24:0.045454547 25:0.1 26:0.036363635 27:0.018181818 28:0.054545455 29:0.054545455 30:0.0090909088 31:0.036363635 32:0.07272727 33:0.12727273 34:0.10909091 35:0.063636363 36:0.063636363 37:0.036363635 38:0.0090909088 39:0.045454547 40:0.018181818 41:0.011261261 42:0.026396396 43:0.015945947 44:0.0090090092 45:0.03108108 46:0 47:0 48:0 49:0.019549549 50:0.0024324325 51:0.017297298 52:0.012072072 53:0.00063063065 54:0.0077477479 55:0 56:0.0090090092 57:0.002972973 58:0.015045045 59:0 60:0 61:0.050000001 62:0 63:0.050000001 64:0 65:0.1 66:0 67:0 68:0.1 69:0.1 70:0 71:0.1 72:0.050000001 73:0.15000001 74:0.1 75:0 76:0.2 77:0 78:0 79:0 80:0 81:0.021261262 82:0.053603604 83:0.024504505 84:0.011441441 85:0.037567567 86:0 87:0 88:0.0072972975 89:0.029099099 90:0.0091891894 91:0.024954954 92:0.015585585 93:0.0012612613 94:0.0082882885 95:0.0072072074 96:0.022162162 97:0.0095495498 98:0.043513514 99:0.0027927929 100:0.011531532 101:0.075000003 102:0.025 103:0.025 104:0.050000001 105:0.15000001 106:0 107:0 108:0.075000003 109:0.050000001 110:0 111:0.075000003 112:0.050000001 113:0.125 114:0.1 115:0.025 116:0.125 117:0.025 118:0 119:0.025 120:0 121:0.031531531 122:0.065315314 123:0.02972973 124:0.012612613 125:0.039549548 126:0.0090090092 127:0.0010810811 128:0.028558558 129:0.033333335 130:0.024144145 131:0.039099097 132:0.022792792 133:0.0094594592 134:0.0086486489 135:0.01036036 136:0.036936939 137:0.015405405 138:0.059009008 139:0.006846847 140:0.014144144 141:0.083333336 142:0.016666668 143:0.016666668 144:0.033333335 145:0.13333334 146:0.016666668 147:0.016666668 148:0.050000001 149:0.050000001 150:0 151:0.050000001 152:0.050000001 153:0.13333334 154:0.083333336 155:0.050000001 156:0.083333336 157:0.050000001 158:0.016666668 159:0.050000001 160:0.016666668 #ICI1_LYCES                    
3.6842918146901282305805125361076 1:0.14233766 2:0.045844156 3:0.071168832 4:0.0089610387 5:0.016103895 6:0.015324675 7:0.020649351 8:0.083116882 9:0.076103896 10:0.088961042 11:0.055584416 12:0.052207794 13:0.0031168831 14:0.0096103894 15:0.046363637 16:0.069610387 17:0.020389611 18:0.079480521 19:0.022727273 20:0.055974025 21:0.064935066 22:0.038961038 23:0.012987013 24:0.025974026 25:0.077922076 26:0.051948052 27:0.012987013 28:0.064935066 29:0.051948052 30:0.012987013 31:0.1038961 32:0.14285715 33:0.038961038 34:0.064935066 35:0.090909094 36:0.025974026 37:0.025974026 38:0.012987013 39:0.064935066 40:0 41:0.0061038961 42:0.001038961 43:0.0077922079 44:0 45:0 46:0.012987013 47:0.012987013 48:0.042857144 49:0.018051948 50:0.038961038 51:0.031428572 52:0.018831169 53:0.0027272727 54:0 55:0.0016883117 56:0.01961039 57:0.0023376623 58:0.037662338 59:0.0037662338 60:0.0011688311 61:0.050000001 62:0 63:0 64:0 65:0.15000001 66:0 67:0 68:0.15000001 69:0.1 70:0.050000001 71:0.1 72:0 73:0 74:0.050000001 75:0.15000001 76:0 77:0 78:0.050000001 79:0.15000001 80:0 81:0.041298702 82:0.024675325 83:0.027662337 84:0.0042857141 85:0 86:0.013376623 87:0.012987013 88:0.055844154 89:0.049090911 90:0.051558442 91:0.04142857 92:0.023116883 93:0.0031168831 94:0.00038961039 95:0.0067532468 96:0.061298702 97:0.0074025975 98:0.067792207 99:0.0057142857 100:0.022597402 101:0.1 102:0.025 103:0 104:0.025 105:0.125 106:0.025 107:0 108:0.1 109:0.050000001 110:0.025 111:0.125 112:0.050000001 113:0.025 114:0.075000003 115:0.1 116:0 117:0.025 118:0.025 119:0.1 120:0 121:0.10402597 122:0.03779221 123:0.050649352 124:0.0085714282 125:0.0049350648 126:0.014155844 127:0.02025974 128:0.067012988 129:0.058701299 130:0.076103896 131:0.051428571 132:0.037662338 133:0.0031168831 134:0.0031168831 135:0.028961038 136:0.064025976 137:0.013896104 138:0.075584419 139:0.017662337 140:0.043766234 141:0.06666667 142:0.033333335 143:0 144:0.033333335 145:0.1 146:0.06666667 147:0.016666668 148:0.06666667 149:0.033333335 150:0.016666668 151:0.1 152:0.1 153:0.033333335 154:0.083333336 155:0.11666667 156:0.016666668 157:0.033333335 158:0.016666668 159:0.06666667 160:0 #ICIC_HORVU                    
2.4101445617450276692750321672065 1:0.14523077 2:0.052153844 3:0.071384616 4:0.0080000004 5:0.018461538 6:0.019538462 7:0.015076923 8:0.051846154 9:0.060615383 10:0.070615381 11:0.069076926 12:0.058307692 13:0.0046153846 14:0.0080000004 15:0.05876923 16:0.073384613 17:0.028000001 18:0.077076919 19:0.026153846 20:0.065230772 21:0.07692308 22:0.061538462 23:0 24:0.030769231 25:0.12307692 26:0.015384615 27:0.030769231 28:0.07692308 29:0.092307694 30:0.030769231 31:0.046153847 32:0.13846155 33:0.030769231 34:0.046153847 35:0.07692308 36:0.015384615 37:0.015384615 38:0.015384615 39:0.07692308 40:0 41:0.032153845 42:0.017692307 43:0.0041538463 44:0 45:0.00076923077 46:0.015384615 47:0.00046153847 48:0.017076923 49:0.026615385 50:0.016307693 51:0.044 52:0.023692308 53:0.0013846154 54:0 55:0.0044615385 56:0.042923078 57:0.0086153848 58:0.047538463 59:0.0015384615 60:0.0038461538 61:0.1 62:0.050000001 63:0 64:0 65:0.2 66:0 67:0 68:0.1 69:0.15000001 70:0 71:0.1 72:0.1 73:0.050000001 74:0 75:0.050000001 76:0 77:0 78:0.050000001 79:0.050000001 80:0 81:0.087230772 82:0.041384615 83:0.038615383 84:0.0050769229 85:0.0040000002 86:0.016615385 87:0.0016923076 88:0.032000002 89:0.042307694 90:0.047384616 91:0.059230771 92:0.043076921 93:0.0026153845 94:0.0021538462 95:0.0081538465 96:0.061230768 97:0.020153847 98:0.066615388 99:0.0075384616 100:0.029692307 101:0.075000003 102:0.025 103:0 104:0 105:0.175 106:0 107:0.025 108:0.1 109:0.1 110:0 111:0.050000001 112:0.15000001 113:0.025 114:0.050000001 115:0.075000003 116:0.025 117:0.025 118:0.025 119:0.075000003 120:0 121:0.13492307 122:0.052153844 123:0.060153846 124:0.0080000004 125:0.018461538 126:0.019538462 127:0.015076923 128:0.036153845 129:0.057230771 130:0.05523077 131:0.067846157 132:0.049230769 133:0.0046153846 134:0.0026153845 135:0.054615386 136:0.072923079 137:0.028000001 138:0.077076919 139:0.025692308 140:0.065230772 141:0.083333336 142:0.06666667 143:0 144:0.033333335 145:0.13333334 146:0.016666668 147:0.033333335 148:0.083333336 149:0.083333336 150:0.033333335 151:0.050000001 152:0.15000001 153:0.033333335 154:0.033333335 155:0.06666667 156:0.016666668 157:0.016666668 158:0.016666668 159:0.050000001 160:0 #ICI1_CANLI                    
-4.1437033731566099703513827989809 1:0.04109589 2:0.075342469 3:0.09589041 4:0.01369863 5:0.04109589 6:0 7:0.034246575 8:0.05479452 9:0.047945205 10:0.1369863 11:0.09589041 12:0.09589041 13:0 14:0.04109589 15:0.04109589 16:0.02739726 17:0.047945205 18:0.034246575 19:0.020547945 20:0.05479452 21:0.027586207 22:0.04137931 23:0.04137931 24:0.055172414 25:0.034482758 26:0.020689655 27:0.048275862 28:0.096551724 29:0.096551724 30:0.034482758 31:0.048275862 32:0.04137931 33:0.075862072 34:0.096551724 35:0.13793103 36:0.04137931 37:0.0068965517 38:0 39:0.055172414 40:0 41:0.006849315 42:0.01369863 43:0.04109589 44:0.006849315 45:0.04109589 46:0 47:0 48:0 49:0.006849315 50:0 51:0.01369863 52:0 53:0 54:0 55:0.006849315 56:0 57:0 58:0 59:0 60:0 61:0 62:0.050000001 63:0 64:0 65:0 66:0 67:0 68:0.1 69:0 70:0 71:0.050000001 72:0.050000001 73:0.1 74:0.30000001 75:0 76:0.30000001 77:0 78:0 79:0.050000001 80:0 81:0.006849315 82:0.04109589 83:0.047945205 84:0.01369863 85:0.04109589 86:0 87:0.006849315 88:0.01369863 89:0.020547945 90:0 91:0.01369863 92:0.006849315 93:0 94:0.006849315 95:0.01369863 96:0 97:0.006849315 98:0.01369863 99:0.006849315 100:0.01369863 101:0.025 102:0.050000001 103:0.025 104:0.050000001 105:0.050000001 106:0.025 107:0.025 108:0.050000001 109:0.025 110:0.025 111:0.075000003 112:0.025 113:0.15000001 114:0.175 115:0 116:0.15000001 117:0.025 118:0 119:0.050000001 120:0 121:0.006849315 122:0.047945205 123:0.047945205 124:0.01369863 125:0.04109589 126:0 127:0.020547945 128:0.02739726 129:0.020547945 130:0.034246575 131:0.02739726 132:0.02739726 133:0 134:0.006849315 135:0.020547945 136:0.01369863 137:0.006849315 138:0.020547945 139:0.01369863 140:0.01369863 141:0.033333335 142:0.050000001 143:0.016666668 144:0.033333335 145:0.050000001 146:0.033333335 147:0.016666668 148:0.083333336 149:0.06666667 150:0.050000001 151:0.050000001 152:0.016666668 153:0.11666667 154:0.11666667 155:0.083333336 156:0.1 157:0.016666668 158:0 159:0.06666667 160:0 #HSY1_LYCES                    
-3.9241802297059353854535856953589 1:0.036202531 2:0.10993671 3:0.088291138 4:0.025063291 5:0.065189876 6:0.019303797 7:0.037721518 8:0.075949363 9:0.010949367 10:0.024430379 11:0.11772152 12:0.045063291 13:0.033164557 14:0.018670887 15:0.063924052 16:0.056329112 17:0.037215188 18:0.026962025 19:0.05341772 20:0.040886074 21:0.063694268 22:0.076433122 23:0.019108281 24:0.044585988 25:0.025477707 26:0.050955415 27:0.031847134 28:0.10828026 29:0.044585988 30:0.031847134 31:0.012738854 32:0.038216561 33:0.10828026 34:0.089171976 35:0.019108281 36:0.076433122 37:0.019108281 38:0.019108281 39:0.082802549 40:0.038216561 41:0.00069620251 42:0.021518987 43:0.00050632912 44:0.0063291141 45:0.030379746 46:0.0060759494 47:0.0067088609 48:0 49:0 50:0.0063291141 51:0.0059493673 52:0.010316456 53:0.0062025315 54:0 55:0.00025316456 56:0.0053797467 57:0.013607595 58:0 59:0 60:0.0064556962 61:0.050000001 62:0 63:0 64:0.050000001 65:0 66:0 67:0.1 68:0.050000001 69:0.050000001 70:0.050000001 71:0 72:0 73:0.15000001 74:0 75:0.050000001 76:0.34999999 77:0 78:0.050000001 79:0 80:0.050000001 81:0.0051898733 82:0.033037975 83:0.024303798 84:0.0065822783 85:0.04436709 86:0.0063291141 87:0.013037975 88:0.016265823 89:0.001329114 90:0.008670886 91:0.01335443 92:0.015949367 93:0.011455696 94:0.00037974684 95:0.0074683544 96:0.005886076 97:0.013607595 98:0.00012658228 99:0.0074683544 100:0.01670886 101:0.025 102:0.025 103:0 104:0.075000003 105:0 106:0.025 107:0.050000001 108:0.050000001 109:0.050000001 110:0.050000001 111:0 112:0.025 113:0.125 114:0.1 115:0.025 116:0.22499999 117:0 118:0.025 119:0.075000003 120:0.050000001 121:0.0076582278 122:0.056455698 123:0.030189874 124:0.0067088609 125:0.045000002 126:0.0067088609 127:0.013164557 128:0.02113924 129:0.0018354431 130:0.015886076 131:0.025443038 132:0.01829114 133:0.011455696 134:0.005886076 135:0.023101266 136:0.019936709 137:0.022215189 138:0.0018354431 139:0.022468355 140:0.022911392 141:0.06666667 142:0.06666667 143:0.016666668 144:0.06666667 145:0 146:0.050000001 147:0.050000001 148:0.06666667 149:0.050000001 150:0.033333335 151:0 152:0.016666668 153:0.13333334 154:0.083333336 155:0.033333335 156:0.15000001 157:0 158:0.016666668 159:0.06666667 160:0.033333335 #YMF19_ARATH                   
-0.76168403018599062370697083679261 1:0.093987204 2:0.083731346 3:0.057377398 4:0.025692964 5:0.028379532 6:0.0023454158 7:0.026417911 8:0.063624732 9:0.11017057 10:0.052857142 11:0.080106609 12:0.055202559 13:0.013837953 14:0.019701492 15:0.038933903 16:0.063560769 17:0.039701492 18:0.062899783 19:0.029616205 20:0.047761194 21:0.06623932 22:0.040598292 23:0.017094018 24:0.047008548 25:0.068376072 26:0.027777778 27:0.027777778 28:0.089743592 29:0.05982906 30:0.02991453 31:0.1025641 32:0.089743592 33:0.081196584 34:0.057692308 35:0.044871796 36:0.03846154 37:0.025641026 38:0.0064102565 39:0.064102568 40:0.014957265 41:0 42:0.0088912584 43:0.00072494667 44:0.0021321962 45:0.0031982942 46:0 47:0 48:0 49:0.0016417911 50:0.003347548 51:0.01108742 52:0.0027078891 53:0 54:0 55:0.0046908315 56:0.00072494667 57:0.00036247334 58:0.00108742 59:0.00070362474 60:0.0014285714 61:0 62:0.15000001 63:0 64:0.050000001 65:0 66:0 67:0 68:0.30000001 69:0.1 70:0 71:0 72:0 73:0.25 74:0 75:0.050000001 76:0.1 77:0 78:0 79:0 80:0 81:0.0032409381 82:0.010490405 83:0.0021321962 84:0.0042643924 85:0.0040724948 86:0 87:0.0016844349 88:0.0021321962 89:0.0047547976 90:0.0044989339 91:0.016567165 92:0.0063326224 93:0.0017910447 94:0.00036247334 95:0.008656716 96:0.0064179106 97:0.0010021322 98:0.0019402985 99:0.00070362474 100:0.00228145 101:0.075000003 102:0.125 103:0 104:0.025 105:0.025 106:0 107:0 108:0.22499999 109:0.1 110:0.025 111:0.025 112:0.025 113:0.175 114:0 115:0.025 116:0.075000003 117:0.025 118:0 119:0.025 120:0.025 121:0.0060980809 122:0.015181237 123:0.0056503196 124:0.0047547976 125:0.0048187631 126:0 127:0.0019189765 128:0.0023454158 129:0.0094456291 130:0.0066311299 131:0.022153517 132:0.0084008528 133:0.0017910447 134:0.00036247334 135:0.012132196 136:0.0092963753 137:0.0040724948 138:0.0053304904 139:0.0013859275 140:0.0043070363 141:0.06666667 142:0.11666667 143:0 144:0.033333335 145:0.033333335 146:0.016666668 147:0.016666668 148:0.21666667 149:0.06666667 150:0.016666668 151:0.033333335 152:0.033333335 153:0.13333334 154:0.033333335 155:0.033333335 156:0.1 157:0.016666668 158:0 159:0.016666668 160:0.016666668 #HISX_BRAOC                    
3.2313050412074080242064155754633 1:0.088648647 2:0.055495497 3:0.066486485 4:0.013603603 5:0.027342342 6:0.012072072 7:0.019121621 8:0.10112613 9:0.079166666 10:0.039774776 11:0.09126126 12:0.078378379 13:0.025382882 14:0.017049549 15:0.021801801 16:0.059572071 17:0.027072072 18:0.026734235 19:0.066418916 20:0.055225227 21:0.090293452 22:0.011286682 23:0.015801355 24:0.049661398 25:0.036117382 26:0.069977425 27:0.0090293456 28:0.072234765 29:0.072234765 30:0.0090293456 31:0.10835215 32:0.083521448 33:0.063205421 34:0.074492097 35:0.056433409 36:0.020316027 37:0.011286682 38:0.0090293456 39:0.10609481 40:0.03160271 41:0.011261261 42:0.0090090092 43:0 44:0.0045045046 45:0 46:0 47:0 48:0.0045045046 49:0.0045045046 50:0 51:0.0045045046 52:0.0022522523 53:0 54:0.0022522523 55:0 56:0.0022522523 57:0 58:0 59:0 60:0 61:0.050000001 62:0 63:0.050000001 64:0 65:0 66:0 67:0 68:0.1 69:0.1 70:0 71:0.1 72:0.25 73:0.2 74:0 75:0 76:0 77:0.050000001 78:0 79:0.1 80:0 81:0.018018018 82:0.0090090092 83:0.0022522523 84:0.0045045046 85:0 86:0 87:0 88:0.0067567569 89:0.015765766 90:0.0022522523 91:0.0045045046 92:0.010518018 93:0 94:0.0022522523 95:0 96:0.0052477475 97:0 98:0.0022522523 99:0.0045045046 100:0.0022522523 101:0.075000003 102:0 103:0.025 104:0.050000001 105:0.025 106:0.050000001 107:0 108:0.050000001 109:0.1 110:0 111:0.175 112:0.2 113:0.1 114:0.025 115:0.025 116:0 117:0.025 118:0 119:0.075000003 120:0 121:0.020788288 122:0.011081081 123:0.003490991 124:0.0045720721 125:0 126:0.00013513514 127:0.00015765766 128:0.011666667 129:0.026396396 130:0.0027027028 131:0.010630631 132:0.014977477 133:0.0002927928 134:0.0023423424 135:0.0010360361 136:0.0090540545 137:0.00054054055 138:0.0027702702 139:0.0067117116 140:0.00509009 141:0.083333336 142:0 143:0.016666668 144:0.033333335 145:0.016666668 146:0.050000001 147:0 148:0.050000001 149:0.1 150:0 151:0.25 152:0.18333334 153:0.06666667 154:0.016666668 155:0.016666668 156:0 157:0.016666668 158:0 159:0.1 160:0 #PGLR2_ARATH                   
0.20558333458163910445470889953867 1:0.088641979 2:0.084320985 3:0.024506172 4:0.032098766 5:0.018518519 6:0.014444444 7:0.037222221 8:0.086358026 9:0.10530864 10:0.066481479 11:0.052160494 12:0.042839505 13:0.060987655 14:0.02691358 15:0.072283953 16:0.021481482 17:0.037839506 18:0.035555556 19:0.022037037 20:0.033456791 21:0.0062111802 22:0.080745339 23:0.031055901 24:0.049689442 25:0.037267081 26:0.018633541 27:0.043478262 28:0.055900622 29:0.037267081 30:0.037267081 31:0.11801242 32:0.086956523 33:0.086956523 34:0.018633541 35:0.068322979 36:0.018633541 37:0.024844721 38:0.018633541 39:0.099378884 40:0.062111802 41:0.027901234 42:0.024753086 43:0.004382716 44:0.0083333338 45:0.0062345681 46:0.00030864199 47:0.00086419756 48:0.00086419756 49:0.017037038 50:0.00055555557 51:0.016481481 52:0.00080246915 53:0 54:0.00067901233 55:0.0013580247 56:0.0063580247 57:0.00080246915 58:0 59:0.0054938272 60:0.00037037037 61:0.050000001 62:0 63:0 64:0 65:0 66:0.050000001 67:0 68:0.15000001 69:0 70:0 71:0.15000001 72:0.30000001 73:0.25 74:0 75:0 76:0.050000001 77:0 78:0 79:0 80:0 81:0.035493828 82:0.028518518 83:0.0053086421 84:0.014753086 85:0.0068518519 86:0.0022222223 87:0.0090740742 88:0.0066666668 89:0.03530864 90:0.0046296297 91:0.022222223 92:0.012469136 93:0.0061728396 94:0.0095679015 95:0.0050617284 96:0.0081481477 97:0.0063580247 98:0.0049382718 99:0.0058641974 100:0.0054938272 101:0.025 102:0.025 103:0.050000001 104:0.025 105:0.025 106:0.025 107:0.050000001 108:0.1 109:0.025 110:0.025 111:0.15000001 112:0.175 113:0.125 114:0 115:0.050000001 116:0.025 117:0.050000001 118:0 119:0.025 120:0.025 121:0.04462963 122:0.04222222 123:0.0068518519 124:0.018395063 125:0.0095679015 126:0.0025925925 127:0.015864197 128:0.015802469 129:0.045617282 130:0.024691358 131:0.026419753 132:0.015987655 133:0.012222222 134:0.011111111 135:0.018518519 136:0.012777777 137:0.014814815 138:0.0056790123 139:0.0072839507 140:0.006111111 141:0.016666668 142:0.06666667 143:0.033333335 144:0.016666668 145:0.016666668 146:0.016666668 147:0.06666667 148:0.1 149:0.050000001 150:0.050000001 151:0.1 152:0.13333334 153:0.11666667 154:0.016666668 155:0.06666667 156:0.016666668 157:0.033333335 158:0 159:0.033333335 160:0.050000001 #RA17_ORYSA                    
0.74620370258327839430023686873028 1:0.058031496 2:0.091771655 3:0.042814959 4:0.021003937 5:0.045964565 6:0.0178937 7:0.048385825 8:0.07320866 9:0.073425196 10:0.053838581 11:0.074527562 12:0.050452758 13:0.015610237 14:0.019862205 15:0.037106298 16:0.042913385 17:0.032539371 18:0.05218504 19:0.05167323 20:0.050944883 21:0.05719921 22:0.041420117 23:0.025641026 24:0.05719921 25:0.059171598 26:0.051282052 27:0.025641026 28:0.067061141 29:0.04536489 30:0.039447732 31:0.088757396 32:0.05719921 33:0.09072978 34:0.047337279 35:0.043392505 36:0.059171598 37:0.025641026 38:0.013806706 39:0.084812626 40:0.019723866 41:0.0033661418 42:0.010492126 43:0.00066929136 44:0.0023031496 45:0.0010629921 46:0 47:0 48:0.00033464568 49:0.0070866141 50:0.0019685039 51:0.0029921259 52:0.0054921261 53:0.0017519685 54:0 55:0.0019685039 56:0 57:0 58:0 59:0 60:0 61:0 62:0.050000001 63:0 64:0 65:0 66:0 67:0 68:0.050000001 69:0.1 70:0 71:0.25 72:0.1 73:0.34999999 74:0 75:0.050000001 76:0 77:0 78:0 79:0 80:0.050000001 81:0.0036417323 82:0.016633859 83:0.00094488187 84:0.0023031496 85:0.0029921259 86:0 87:0.00013779527 88:0.0029330708 89:0.013444882 90:0.0057480317 91:0.007992126 92:0.0065551181 93:0.0019094488 94:0.00061023619 95:0.0050196853 96:0.0013188976 97:0.0012992126 98:0.0021850395 99:0.00055118109 100:0.0011417323 101:0 102:0.075000003 103:0 104:0.025 105:0.025 106:0 107:0.025 108:0.050000001 109:0.050000001 110:0 111:0.22499999 112:0.050000001 113:0.25 114:0.025 115:0.1 116:0.025 117:0 118:0 119:0.050000001 120:0.025 121:0.0060039372 122:0.020728346 123:0.0024409448 124:0.0029330708 125:0.0038976378 126:9.8425196e-05 127:0.00055118109 128:0.0053346455 129:0.016181102 130:0.0088582681 131:0.011909449 132:0.0076771653 133:0.002007874 134:0.0016929134 135:0.0078937011 136:0.0032086615 137:0.0019685039 138:0.0037992126 139:0.0027362204 140:0.0025984251 141:0.016666668 142:0.1 143:0.016666668 144:0.033333335 145:0.016666668 146:0.016666668 147:0.016666668 148:0.11666667 149:0.033333335 150:0 151:0.18333334 152:0.033333335 153:0.21666667 154:0.016666668 155:0.083333336 156:0.016666668 157:0 158:0 159:0.06666667 160:0.016666668 #CBP3_HORVU                    
-0.28220398458057605051152449959773 1:0.063579477 2:0.074993744 3:0.044430539 4:0.029724656 5:0.055932414 6:0.018698374 7:0.048047561 8:0.088535666 9:0.069349185 10:0.046120152 11:0.060738422 12:0.04379224 13:0.0098623279 14:0.036345433 15:0.059161451 16:0.044167709 17:0.022052566 18:0.060488109 19:0.043053817 20:0.069624528 21:0.038847119 22:0.062656641 23:0.042606518 24:0.072681703 25:0.056390978 26:0.038847119 27:0.023809524 28:0.062656641 29:0.043859649 30:0.050125312 31:0.068922304 32:0.067669176 33:0.067669176 34:0.042606518 35:0.050125312 36:0.060150377 37:0.031328321 38:0.01754386 39:0.091478698 40:0.010025063 41:0.0034292866 42:0.0022027534 43:0 44:0.0012515645 45:0.0012515645 46:0 47:0 48:0.0037672091 49:0.0061827283 50:0.0010763454 51:0.0014267835 52:0.001339174 53:0 54:0 55:0.00281602 56:0 57:0 58:6.257822e-05 59:0 60:0 61:0 62:0.15000001 63:0 64:0 65:0 66:0 67:0 68:0.050000001 69:0.050000001 70:0 71:0.2 72:0.15000001 73:0.1 74:0 75:0.050000001 76:0.050000001 77:0 78:0 79:0.2 80:0 81:0.0047183982 82:0.005782228 83:0 84:0.0012515645 85:0.0035919901 86:0 87:0 88:0.010851064 89:0.0074092615 90:0.0013141427 91:0.002891114 92:0.0035794743 93:0 94:0.0010513142 95:0.0055068834 96:0.0001126408 97:0 98:0.001339174 99:3.7546935e-05 100:0.00010012516 101:0 102:0.15000001 103:0.025 104:0 105:0.025 106:0 107:0 108:0.050000001 109:0.075000003 110:0 111:0.125 112:0.1 113:0.125 114:0 115:0.025 116:0.075000003 117:0 118:0 119:0.22499999 120:0 121:0.0061576972 122:0.0059073842 123:3.7546935e-05 124:0.0023404255 125:0.0035919901 126:3.7546935e-05 127:0 128:0.015018773 129:0.015118899 130:0.0015018773 131:0.0045682103 132:0.0046683354 133:0.0010638298 134:0.0021026284 135:0.0087108882 136:0.0013642053 137:2.503129e-05 138:0.0015018773 139:3.7546935e-05 140:0.00016270338 141:0.016666668 142:0.13333334 143:0.033333335 144:0 145:0.016666668 146:0 147:0 148:0.050000001 149:0.06666667 150:0 151:0.2 152:0.1 153:0.083333336 154:0 155:0.016666668 156:0.050000001 157:0.016666668 158:0 159:0.2 160:0.016666668 #GLGB_MAIZE                    
-0.47956372887058579257413271079713 1:0.06790223 2:0.094900988 3:0.057085395 4:0.024610149 5:0.03336015 6:0.0092202974 7:0.02796411 8:0.083774753 9:0.086794555 10:0.047122523 11:0.066639848 12:0.046460398 13:0.015210396 14:0.022469059 15:0.052914605 16:0.054071784 17:0.033112623 18:0.06288366 19:0.041417081 20:0.048199259 21:0.048297215 22:0.056965943 23:0.016718267 24:0.050154798 25:0.062538698 26:0.038390093 27:0.039009288 28:0.070588239 29:0.047058824 30:0.025386997 31:0.096594431 32:0.074303403 33:0.095975235 34:0.053250775 35:0.052631579 36:0.030959751 37:0.022910217 38:0.011145511 39:0.091021672 40:0.016099071 41:0 42:0.0024752475 43:0 44:0.00061881187 45:0 46:0 47:0 48:0 49:0.0032982673 50:0.0037128713 51:0 52:0.0012376237 53:0 54:0 55:0.0010334158 56:0 57:0 58:0 59:0 60:0 61:0 62:0.1 63:0 64:0 65:0 66:0 67:0 68:0 69:0.1 70:0 71:0.30000001 72:0 73:0.2 74:0 75:0.30000001 76:0 77:0 78:0 79:0 80:0 81:0 82:0.0045420793 83:0.00020420791 84:0.00061881187 85:0.00015470297 86:0 87:0 88:0.00061881187 89:0.0065717823 90:0.005055693 91:0.00060643564 92:0.0015160891 93:0 94:0.00012376238 95:0.0035396039 96:0.00015470297 97:0.00020420791 98:0 99:0.00071782176 100:0 101:0 102:0.175 103:0 104:0 105:0 106:0 107:0 108:0.025 109:0.050000001 110:0 111:0.32499999 112:0 113:0.2 114:0 115:0.2 116:0 117:0 118:0 119:0.025 120:0 121:0.0011386139 122:0.0051485146 123:0.00020420791 124:0.00061881187 125:0.00032797031 126:0.00043935643 127:8.6633663e-05 128:0.001819307 129:0.0089108907 130:0.005668317 131:0.0028898516 132:0.0016893564 133:0.00010519802 134:0.00031559405 135:0.0049876235 136:0.00068069308 137:0.00037747525 138:0.0002660891 139:0.00071782176 140:0.00010519802 141:0 142:0.16666667 143:0 144:0 145:0 146:0 147:0 148:0.11666667 149:0.033333335 150:0 151:0.31666666 152:0.033333335 153:0.13333334 154:0 155:0.15000001 156:0 157:0 158:0.016666668 159:0.033333335 160:0 #GLTB_MAIZE                    
-1.4473330002416178174939886957873 1:0.070337556 2:0.065337554 3:0.034957808 4:0.016012657 5:0.055864979 6:0.040443037 7:0.032004219 8:0.098438822 9:0.070400842 10:0.073270045 11:0.07964135 12:0.061919831 13:0.01607595 14:0.018396625 15:0.053818565 16:0.043312237 17:0.027974684 18:0.068797469 19:0.036898736 20:0.036033757 21:0.038054969 22:0.054968286 23:0.016913319 24:0.040169135 25:0.061310783 26:0.035940804 27:0.029598309 28:0.082452431 29:0.061310783 30:0.031712472 31:0.065539114 32:0.065539114 33:0.071881607 34:0.040169135 35:0.076109938 36:0.054968286 37:0.014799154 38:0.040169135 39:0.10147992 40:0.016913319 41:0.0077426159 42:0.0070253164 43:0 44:0.0021097045 45:0 46:0 47:0 48:0.0014135021 49:0.0084388182 50:0.0042194091 51:0.0035021098 52:0.0035232068 53:0 54:0 55:0.0021097045 56:0 57:0 58:0 59:0.0021097045 60:0 61:0 62:0.050000001 63:0 64:0 65:0 66:0.050000001 67:0 68:0.050000001 69:0.1 70:0 71:0.2 72:0.2 73:0.15000001 74:0 75:0.15000001 76:0 77:0 78:0 79:0.050000001 80:0 81:0.013016878 82:0.0077215191 83:0.0012236286 84:0.0021097045 85:0.00069620251 86:0 87:0 88:0.0028270043 89:0.011603376 90:0.0094936704 91:0.014050633 92:0.0042194091 93:0.0014135021 94:0.0014135021 95:0.010738397 96:0.0012236286 97:0 98:0 99:0.0021097045 100:0.00052742613 101:0 102:0.15000001 103:0.025 104:0 105:0 106:0.025 107:0 108:0.15000001 109:0.050000001 110:0 111:0.15000001 112:0.175 113:0.075000003 114:0 115:0.125 116:0 117:0 118:0 119:0.050000001 120:0.025 121:0.017088607 122:0.0080801686 123:0.0023417722 124:0.0021097045 125:0.0017510549 126:0 127:0.0021097045 128:0.0028270043 129:0.016603375 130:0.017805908 131:0.020443037 132:0.010611814 133:0.0014135021 134:0.0014135021 135:0.011518987 136:0.0035443038 137:0.00069620251 138:0.0014767932 139:0.003164557 140:0.0015822785 141:0 142:0.1 143:0.016666668 144:0.016666668 145:0 146:0.016666668 147:0.016666668 148:0.16666667 149:0.083333336 150:0.016666668 151:0.16666667 152:0.11666667 153:0.050000001 154:0.016666668 155:0.15000001 156:0.016666668 157:0 158:0 159:0.033333335 160:0.016666668 #TOCC_MAIZE                    
4.2549337372204396601205189654138 1:0.053084832 2:0.083984576 3:0.036658097 4:0.016015423 5:0.060128536 6:0.026478149 7:0.040925451 8:0.063007712 9:0.037120823 10:0.045604113 11:0.09557841 12:0.065501288 13:0.019537276 14:0.0095629822 15:0.047095116 16:0.030179949 17:0.022827763 18:0.036683805 19:0.058431875 20:0.045989718 21:0.05927835 22:0.033505153 23:0.0077319588 24:0.033505153 25:0.054123711 26:0.064432986 27:0.033505153 28:0.077319585 29:0.082474224 30:0.043814432 31:0.046391752 32:0.054123711 33:0.1185567 34:0.028350515 35:0.064432986 36:0.067010306 37:0.012886598 38:0.018041236 39:0.077319585 40:0.023195876 41:0.0025964011 42:0.010051413 43:0.0052956296 44:0.0025706941 45:0.0068123392 46:0 47:0.00051413884 48:0.00020565552 49:0.0048329048 50:0.0013624679 51:0.0042673522 52:0.003933162 53:0.00020565552 54:0 55:0.0026478148 56:0.00020565552 57:0.0008226221 58:0 59:0.00020565552 60:0.0011053984 61:0 62:0.1 63:0 64:0.050000001 65:0 66:0 67:0.050000001 68:0 69:0.1 70:0 71:0.050000001 72:0 73:0.2 74:0.15000001 75:0.050000001 76:0.25 77:0 78:0 79:0 80:0 81:0.010257069 82:0.012210797 83:0.0067352187 84:0.0031105399 85:0.011979435 86:0 87:0.0013367609 88:0.0030334189 89:0.0075578406 90:0.0051156813 91:0.007352185 92:0.0065295631 93:0.00059125962 94:0.00079691515 95:0.0045244214 96:0.0021593831 97:0.0041388175 98:0.0043187663 99:0.0038046273 100:0.002622108 101:0.025 102:0.050000001 103:0.025 104:0.025 105:0.075000003 106:0.050000001 107:0.025 108:0 109:0.1 110:0 111:0.050000001 112:0.050000001 113:0.15000001 114:0.075000003 115:0.050000001 116:0.175 117:0 118:0 119:0.050000001 120:0.025 121:0.012442159 122:0.014473008 123:0.0090488428 124:0.0031105399 125:0.014678664 126:0 127:0.0073007713 128:0.0065552699 129:0.010205655 130:0.0097429305 131:0.012699229 132:0.0099742934 133:0.00059125962 134:0.0011311054 135:0.0067609255 136:0.0029562982 137:0.0048586116 138:0.0076606683 139:0.0056555271 140:0.0062210797 141:0.016666668 142:0.050000001 143:0.016666668 144:0.050000001 145:0.06666667 146:0.033333335 147:0.033333335 148:0.033333335 149:0.083333336 150:0.050000001 151:0.033333335 152:0.033333335 153:0.11666667 154:0.06666667 155:0.083333336 156:0.16666667 157:0 158:0 159:0.050000001 160:0.016666668 #EP1G_DAUCA                    
1.9739478495494886534089573615347 1:0.073968254 2:0.074126981 3:0.063650794 4:0.063492067 5:0 6:0 7:0.02111111 8:0.12174603 9:0.052698411 10:0.042380951 11:0.084761903 12:0.010634921 13:0.095238097 14:0.010634921 15:0.05825397 16:0.036984127 17:0.0052380953 18:0.052857142 19:0.036984127 20:0.084761903 21:0.032258064 22:0.064516127 23:0.016129032 24:0.096774191 25:0.048387095 26:0.032258064 27:0 28:0.096774191 29:0.016129032 30:0.016129032 31:0.032258064 32:0.064516127 33:0.080645159 34:0.080645159 35:0.048387095 36:0 37:0.048387095 38:0 39:0.12903225 40:0.096774191 41:0.053015873 42:0.015873017 43:0.026507936 44:0.015873017 45:0 46:0 47:0 48:0.036984127 49:0.047460318 50:0 51:0.053015873 52:0 53:0 54:0 55:0.0052380953 56:0 57:0.0052380953 58:0.037142858 59:0 60:0.02111111 61:0 62:0 63:0 64:0.050000001 65:0.15000001 66:0 67:0 68:0.2 69:0 70:0 71:0.1 72:0.2 73:0.050000001 74:0.1 75:0 76:0 77:0 78:0 79:0.15000001 80:0 81:0.068730161 82:0.026507936 83:0.063650794 84:0.036984127 85:0 86:0 87:0.0052380953 88:0.084761903 89:0.052698411 90:0.026507936 91:0.068888888 92:0 93:0.015873017 94:0.010634921 95:0.042380951 96:0.015873017 97:0.0052380953 98:0.052857142 99:0.015873017 100:0.031746034 101:0.025 102:0.075000003 103:0.025 104:0.050000001 105:0.075000003 106:0.025 107:0 108:0.125 109:0 110:0 111:0.050000001 112:0.1 113:0.075000003 114:0.125 115:0.050000001 116:0 117:0.025 118:0 119:0.15000001 120:0.025 121:0.073968254 122:0.074126981 123:0.063650794 124:0.063492067 125:0 126:0 127:0.0052380953 128:0.10587302 129:0.052698411 130:0.042380951 131:0.084761903 132:0.010634921 133:0.079365082 134:0.010634921 135:0.05825397 136:0.036984127 137:0.0052380953 138:0.052857142 139:0.036984127 140:0.084761903 141:0.033333335 142:0.06666667 143:0.016666668 144:0.1 145:0.050000001 146:0.033333335 147:0 148:0.1 149:0.016666668 150:0.016666668 151:0.033333335 152:0.06666667 153:0.083333336 154:0.083333336 155:0.050000001 156:0 157:0.050000001 158:0 159:0.11666667 160:0.083333336 #ITR5_LUFCY                    
4.9955910736813367023501086805481 1:0.071284793 2:0.058650963 3:0.070792288 4:0.013426124 5:0.039807279 6:0.011456103 7:0.029357601 8:0.092826553 9:0.056252677 10:0.039271947 11:0.095203429 12:0.064860813 13:0.025653105 14:0.022526767 15:0.029379016 16:0.052355461 17:0.031541757 18:0.040342614 19:0.063426122 20:0.057066381 21:0.060085837 22:0.030042918 23:0.027896997 24:0.066523604 25:0.05364807 26:0.068669528 27:0.040772531 28:0.08583691 29:0.05364807 30:0.030042918 31:0.060085837 32:0.08583691 33:0.049356222 34:0.070815451 35:0.034334764 36:0.034334764 37:0.010729614 38:0.010729614 39:0.092274681 40:0.034334764 41:0.0038543898 42:0.0068522482 43:0.0042826552 44:0.0021413276 45:0.0072805141 46:0 47:0.00085653103 48:0 49:0.0025695933 50:0.0021413276 51:0.0025695933 52:0.0012847966 53:0.0012847966 54:0.00085653103 55:0.0029978587 56:0.00042826551 57:0.0034261241 58:0 59:0 60:0 61:0 62:0.1 63:0 64:0 65:0 66:0 67:0.1 68:0.050000001 69:0.050000001 70:0 71:0.050000001 72:0.050000001 73:0.15000001 74:0.2 75:0.050000001 76:0.2 77:0 78:0 79:0 80:0 81:0.0051391865 82:0.010706638 83:0.0055674519 84:0.0021413276 85:0.0085653104 86:0 87:0.0047109206 88:0.0021413276 89:0.004561028 90:0.0055674519 91:0.0064239828 92:0.0025695933 93:0.0017130621 94:0.0055674519 95:0.0029978587 96:0.00096359744 97:0.0048179873 98:0.0050963596 99:0.00042826551 100:0.0029978587 101:0 102:0.050000001 103:0.075000003 104:0.050000001 105:0.075000003 106:0 107:0.050000001 108:0.050000001 109:0.050000001 110:0.075000003 111:0.050000001 112:0.050000001 113:0.125 114:0.1 115:0.075000003 116:0.1 117:0 118:0 119:0.025 120:0 121:0.0056316918 122:0.012419701 123:0.007901499 124:0.0026766595 125:0.011862955 126:0 127:0.010471093 128:0.0052462528 129:0.0068950751 130:0.0071734474 131:0.011520343 132:0.0048822272 133:0.0017130621 134:0.0066167023 135:0.0040685227 136:0.002869379 137:0.0055246251 138:0.0062526767 139:0.0030835117 140:0.0059314775 141:0.016666668 142:0.033333335 143:0.050000001 144:0.083333336 145:0.050000001 146:0.016666668 147:0.033333335 148:0.050000001 149:0.06666667 150:0.1 151:0.050000001 152:0.033333335 153:0.083333336 154:0.1 155:0.06666667 156:0.1 157:0 158:0 159:0.06666667 160:0 #PGLR_ACTCH                    
-3.9927106577458086889009791775607 1:0.066899225 2:0.087441862 3:0.051162791 4:0.01872093 5:0.039069768 6:0.0055038761 7:0.031705428 8:0.06713178 9:0.066162787 10:0.046705425 11:0.046007752 12:0.069612406 13:0.019728683 14:0.039379846 15:0.042829458 16:0.068643413 17:0.029689923 18:0.066782944 19:0.045697674 20:0.062441859 21:0.089494161 22:0.023346303 23:0.038910504 24:0.066147856 25:0.070038907 26:0.042801555 27:0.054474708 28:0.031128405 29:0.070038907 30:0.031128405 31:0.066147856 32:0.073929958 33:0.077821009 34:0.054474708 35:0.054474708 36:0.031128405 37:0.011673152 38:0.011673152 39:0.073929958 40:0.027237354 41:0.0093410853 42:0.011356589 43:0.0067829457 44:0.0036046512 45:0.0011627907 46:0.00015503875 47:0.0075581395 48:0.00019379845 49:0.0024031007 50:0.0046511628 51:0.0025581396 52:0.0025193798 53:0.0013953488 54:0.00093023258 55:0.0003875969 56:0.0047674417 57:0.0024418605 58:0.0037596899 59:0.0044573643 60:0.0070155039 61:0.050000001 62:0 63:0.050000001 64:0.1 65:0.050000001 66:0.050000001 67:0.050000001 68:0.1 69:0 70:0.1 71:0 72:0.050000001 73:0.1 74:0.15000001 75:0.050000001 76:0.050000001 77:0 78:0 79:0 80:0.050000001 81:0.020348838 82:0.017093023 83:0.013023255 84:0.0039534885 85:0.0013178295 86:0.00065891474 87:0.0082558142 88:0.0019379845 89:0.012325581 90:0.01116279 91:0.0062403101 92:0.0069379844 93:0.0015891473 94:0.00124031 95:0.0027519381 96:0.0094573647 97:0.0043798448 98:0.0092635658 99:0.0062015504 100:0.015348837 101:0.050000001 102:0 103:0.025 104:0.125 105:0.075000003 106:0.025 107:0.025 108:0.075000003 109:0.025 110:0.050000001 111:0.1 112:0.125 113:0.050000001 114:0.1 115:0.075000003 116:0.025 117:0 118:0 119:0.025 120:0.025 121:0.024689922 122:0.024379846 123:0.017015504 124:0.0044186045 125:0.001744186 126:0.0022093023 127:0.010620155 128:0.0039147288 129:0.017558139 130:0.01131783 131:0.0092635658 132:0.015077519 133:0.0024418605 134:0.015891474 135:0.0049224808 136:0.015116279 137:0.0060077519 138:0.013372093 139:0.010116279 140:0.020581394 141:0.083333336 142:0 143:0.1 144:0.1 145:0.050000001 146:0.016666668 147:0.033333335 148:0.050000001 149:0.050000001 150:0.033333335 151:0.1 152:0.1 153:0.050000001 154:0.083333336 155:0.050000001 156:0.033333335 157:0 158:0.016666668 159:0.033333335 160:0.016666668 #GLO2C_ARATH                   
-2.7280962637491814604118189890869 1:0.05360119 2:0.10017857 3:0.031845238 4:0.0059523811 5:0.039761905 6:0.022827381 7:0.02577381 8:0.063511908 9:0.089017861 10:0.069404759 11:0.092291668 12:0.049642857 13:0.045684524 14:0.018839287 15:0.075297616 16:0.030863095 17:0.013898809 18:0.052648809 19:0.028869048 20:0.069464289 21:0.041791044 22:0.065671645 23:0.017910447 24:0.071641788 25:0.059701491 26:0.038805969 27:0.014925373 28:0.095522389 29:0.053731345 30:0.023880597 31:0.06268657 32:0.05671642 33:0.098507464 34:0.041791044 35:0.065671645 36:0.047761194 37:0.0029850747 38:0.023880597 39:0.065671645 40:0.05074627 41:0.0079464288 42:0.0049107145 43:0.0049702381 44:0.0029761905 45:0.0079761902 46:0 47:0 48:0.00098214287 49:0.0039583333 50:0.0029761905 51:0.0059523811 52:0 53:0.0019940475 54:0 55:0.00098214287 56:0.0019940475 57:0.00098214287 58:0.0049702381 59:0.0019940475 60:0.0039583333 61:0.050000001 62:0 63:0 64:0.050000001 65:0.1 66:0.050000001 67:0 68:0.1 69:0 70:0 71:0.050000001 72:0.15000001 73:0.050000001 74:0.1 75:0.050000001 76:0.2 77:0 78:0 79:0 80:0.050000001 81:0.0099404762 82:0.010863096 83:0.0049702381 84:0.0029761905 85:0.0099702384 86:0.0029761905 87:0 88:0.0019642857 89:0.012857143 90:0.0069345236 91:0.011904762 92:0.0019940475 93:0.0069642859 94:0 95:0.0079166666 96:0.0039880951 97:0.0029761905 98:0.0059523811 99:0.0039880951 100:0.0099107139 101:0.050000001 102:0.050000001 103:0 104:0.075000003 105:0.050000001 106:0.050000001 107:0.025 108:0.1 109:0.025 110:0 111:0.075000003 112:0.1 113:0.050000001 114:0.075000003 115:0.050000001 116:0.125 117:0 118:0.025 119:0 120:0.075000003 121:0.015922619 122:0.01577381 123:0.010952381 124:0.0029761905 125:0.0099702384 126:0.0029761905 127:0.0019940475 128:0.0019642857 129:0.018779762 130:0.011875 131:0.015892858 132:0.0069642859 133:0.013928572 134:0 135:0.012857143 136:0.0059821429 137:0.0049702381 138:0.0059523811 139:0.0059821429 140:0.0099107139 141:0.050000001 142:0.050000001 143:0 144:0.06666667 145:0.033333335 146:0.050000001 147:0.033333335 148:0.1 149:0.050000001 150:0.016666668 151:0.06666667 152:0.11666667 153:0.033333335 154:0.083333336 155:0.050000001 156:0.083333336 157:0 158:0.016666668 159:0 160:0.1 #EID1_ARATH                    
-2.4218099048333110445696547685657 1:0.078243241 2:0.090900898 3:0.037567567 4:0.021486487 5:0.041036036 6:0.014864865 7:0.02490991 8:0.062747747 9:0.069954954 10:0.067837834 11:0.065810814 12:0.055450451 13:0.017972972 14:0.031036036 15:0.05599099 16:0.043288287 17:0.051666666 18:0.066981979 19:0.037747748 20:0.049864866 21:0.049773756 22:0.040723983 23:0.022624435 24:0.04524887 25:0.085972853 26:0.049773756 27:0.049773756 28:0.067873307 29:0.06334842 30:0.027149322 31:0.04524887 32:0.085972853 33:0.085972853 34:0.067873307 35:0.06334842 36:0.03167421 37:0.013574661 38:0.013574661 39:0.06334842 40:0.027149322 41:0.0078378376 42:0.0042792792 43:0.006846847 44:0.0071171173 45:0 46:0 47:0 48:0.011981982 49:0.0047297296 50:0.0039639641 51:0.0089189187 52:0.0025225226 53:0 54:0 55:0.00013513514 56:0.00045045046 57:0.0046846848 58:0.012702703 59:0.0095945951 60:0.0025675676 61:0.050000001 62:0 63:0 64:0.050000001 65:0.1 66:0.1 67:0.050000001 68:0.2 69:0 70:0 71:0 72:0.15000001 73:0.050000001 74:0.1 75:0 76:0 77:0 78:0 79:0.15000001 80:0 81:0.013558558 82:0.017432433 83:0.0090990989 84:0.0089639639 85:0.00049549551 86:0.0045045046 87:0.0041441442 88:0.016981982 89:0.014819819 90:0.013108108 91:0.013603603 92:0.0043693692 93:0.0061711711 94:0.0027027028 95:0.0025675676 96:0.0052702702 97:0.0064864866 98:0.018063063 99:0.011576576 100:0.0037837839 101:0.075000003 102:0 103:0 104:0.050000001 105:0.075000003 106:0.050000001 107:0.050000001 108:0.125 109:0 110:0.050000001 111:0.025 112:0.075000003 113:0.1 114:0.075000003 115:0.050000001 116:0 117:0.025 118:0.025 119:0.1 120:0.050000001 121:0.024324324 122:0.022117117 123:0.011036036 124:0.0095945951 125:0.0059909909 126:0.0045045046 127:0.010630631 128:0.025855856 129:0.021756757 130:0.018873874 131:0.020765767 132:0.0051801801 133:0.0065765767 134:0.0077477479 135:0.005855856 136:0.0075225225 137:0.01509009 138:0.025765765 139:0.012567568 140:0.0050450452 141:0.06666667 142:0 143:0.016666668 144:0.033333335 145:0.1 146:0.033333335 147:0.050000001 148:0.1 149:0.016666668 150:0.06666667 151:0.033333335 152:0.083333336 153:0.1 154:0.06666667 155:0.050000001 156:0.016666668 157:0.016666668 158:0.016666668 159:0.1 160:0.033333335 #ARFW_ARATH                    
2.6815886562639366097471338434843 1:0.042873561 2:0.10724138 3:0.055402298 4:0.029195402 5:0.024022989 6:0 7:0.029655172 8:0.030574713 9:0.079080462 10:0.036781609 11:0.060229886 12:0.077471264 13:0.040574711 14:0.039655171 15:0.037011493 16:0.051149424 17:0.024827586 18:0.081839077 19:0.036781609 20:0.043448277 21:0.069767445 22:0.034883723 23:0.034883723 24:0.093023255 25:0.058139537 26:0.034883723 27:0.011627907 28:0.046511628 29:0.093023255 30:0.023255814 31:0.10465116 32:0.034883723 33:0.10465116 34:0.069767445 35:0.046511628 36:0 37:0.058139537 38:0 39:0.023255814 40:0.058139537 41:0.0062068966 42:0.059540231 43:0.020459769 44:0.01632184 45:0.017356321 46:0 47:0.0040229885 48:0.0016091954 49:0.025632184 50:0 51:0.023563219 52:0.023448275 53:0.016206896 54:0.00068965519 55:0 56:0.0073563219 57:0 58:0 59:0.0063218391 60:0 61:0 62:0 63:0 64:0 65:0 66:0.050000001 67:0 68:0.1 69:0.15000001 70:0 71:0.15000001 72:0.050000001 73:0.30000001 74:0.050000001 75:0 76:0 77:0.050000001 78:0 79:0 80:0.1 81:0.016206896 82:0.07011494 83:0.031494252 84:0.01632184 85:0.02275862 86:0 87:0.0066666668 88:0.0050574713 89:0.058620691 90:0.024022989 91:0.046091955 92:0.047011495 93:0.018160919 94:0.0058620689 95:0.013448276 96:0.0094252871 97:0.0058620689 98:0.0073563219 99:0.01862069 100:0.0089655174 101:0 102:0.025 103:0 104:0.025 105:0.025 106:0.050000001 107:0 108:0.1 109:0.125 110:0 111:0.175 112:0.025 113:0.15000001 114:0.1 115:0.075000003 116:0 117:0.050000001 118:0 119:0 120:0.075000003 121:0.032413792 122:0.077471264 123:0.03908046 124:0.024367817 125:0.024022989 126:0 127:0.0066666668 128:0.026896551 129:0.062873565 130:0.025287356 131:0.058390804 132:0.050114941 133:0.02908046 134:0.010804597 135:0.014022988 136:0.029999999 137:0.010229885 138:0.055287357 139:0.025517242 140:0.019885058 141:0.050000001 142:0.016666668 143:0.016666668 144:0.06666667 145:0.06666667 146:0.050000001 147:0 148:0.06666667 149:0.083333336 150:0 151:0.13333334 152:0.033333335 153:0.11666667 154:0.083333336 155:0.050000001 156:0 157:0.06666667 158:0 159:0.033333335 160:0.06666667 #PSK2_ARATH                    
0.23867086777179299939000145514001 1:0.033707865 2:0.13483146 3:0.011235955 4:0.011235955 5:0.02247191 6:0.011235955 7:0.02247191 8:0.10112359 9:0.044943821 10:0.033707865 11:0.067415729 12:0.10112359 13:0.02247191 14:0.044943821 15:0.044943821 16:0.048651684 17:0.067415729 18:0.056179777 19:0.074943818 20:0.044943821 21:0.045454547 22:0.045454547 23:0.045454547 24:0.045454547 25:0.056818184 26:0.079545453 27:0.06818182 28:0.06818182 29:0.10227273 30:0.022727273 31:0.045454547 32:0.03409091 33:0.13636364 34:0.011363637 35:0.03409091 36:0.022727273 37:0 38:0.011363637 39:0.10227273 40:0.022727273 41:0.011235955 42:0.078651689 43:0 44:0.011235955 45:0 46:0 47:0 48:0.011235955 49:0.033707865 50:0.011235955 51:0 52:0.011235955 53:0.02247191 54:0 55:0.02247191 56:0 57:0 58:0 59:0.011235955 60:0 61:0 62:0.1 63:0 64:0 65:0 66:0.050000001 67:0 68:0 69:0.050000001 70:0 71:0.15000001 72:0.050000001 73:0.40000001 74:0 75:0.050000001 76:0 77:0 78:0 79:0.050000001 80:0.1 81:0.02247191 82:0.12359551 83:0 84:0.011235955 85:0 86:0 87:0 88:0.033707865 89:0.033707865 90:0.011235955 91:0.02247191 92:0.02247191 93:0.02247191 94:0.033707865 95:0.033707865 96:0.02247191 97:0.02247191 98:0.011235955 99:0.011235955 100:0.011235955 101:0.050000001 102:0.075000003 103:0.075000003 104:0.025 105:0.025 106:0.025 107:0.050000001 108:0.050000001 109:0.050000001 110:0 111:0.075000003 112:0.050000001 113:0.27500001 114:0 115:0.025 116:0 117:0 118:0 119:0.1 120:0.050000001 121:0.02247191 122:0.12359551 123:0 124:0.011235955 125:0 126:0 127:0 128:0.089887641 129:0.033707865 130:0.02247191 131:0.056179777 132:0.078651689 133:0.02247191 134:0.033707865 135:0.044943821 136:0.02247191 137:0.033707865 138:0.033707865 139:0.033707865 140:0.011235955 141:0.033333335 142:0.06666667 143:0.050000001 144:0.016666668 145:0.050000001 146:0.06666667 147:0.050000001 148:0.083333336 149:0.11666667 150:0 151:0.050000001 152:0.033333335 153:0.18333334 154:0 155:0.033333335 156:0 157:0 158:0 159:0.13333334 160:0.033333335 #PSK1_ORYSA                    
