SVM-light Version V6.01
2 # kernel type
3 # kernel parameter -d 
3 # kernel parameter -g 
1 # kernel parameter -s 
1 # kernel parameter -r 
empty# kernel parameter -u 
280 # highest feature index 
1793 # number of training documents 
490 # number of support vectors plus 1 
0.84688939 # threshold b, each following line is a SV (starting with alpha*y)
-0.12188632397408583063480591590633 1:0.056034483 2:0.081120692 3:0.035689656 4:0.025344828 5:0.021810345 6:0.0018103449 7:0.032155171 8:0.044310346 9:0.056982759 10:0.058879312 11:0.050086208 12:0.063362069 13:0.019051725 14:0.035172414 15:0.073620692 16:0.094396554 17:0.04775862 18:0.087068968 19:0.026293103 20:0.063189656 21:0.060869563 22:0.11304348 23:0.034782607 24:0.069565214 25:0.086956523 26:0.017391304 27:0.034782607 28:0.069565214 29:0.052173913 30:0.026086956 31:0.078260869 32:0.043478262 33:0.078260869 34:0.017391304 35:0.10434783 36:0.026086956 37:0.017391304 38:0 39:0.052173913 40:0.017391304 41:0.0060344827 42:0.016982758 43:0.0097413789 44:0.0075862068 45:0.00060344825 46:0 47:0.0017241379 48:0.00060344825 49:0.0038793103 50:0.0071551725 51:0.003965517 52:0.012241379 53:0 54:0.004051724 55:0.026724137 56:0.022844827 57:0.0068103448 58:0.011810345 59:0.0035344828 60:0.024051724 61:0.1 62:0.25 63:0.050000001 64:0.1 65:0.1 66:0 67:0.050000001 68:0 69:0 70:0 71:0.050000001 72:0 73:0.1 74:0.050000001 75:0.1 76:0 77:0 78:0 79:0.050000001 80:0 81:0.0098275859 82:0.040689655 83:0.013965517 84:0.0086206896 85:0.0029310344 86:0.00025862068 87:0.0043103448 88:0.010862069 89:0.010948276 90:0.023965517 91:0.0078448271 92:0.015775861 93:0.00051724137 94:0.0051724138 95:0.031206897 96:0.037241381 97:0.016465517 98:0.024396552 99:0.013448276 100:0.04025862 101:0.050000001 102:0.15000001 103:0.025 104:0.125 105:0.075000003 106:0.025 107:0.050000001 108:0.025 109:0 110:0 111:0.075000003 112:0 113:0.075000003 114:0.025 115:0.175 116:0.025 117:0 118:0 119:0.1 120:0 121:0.015517241 122:0.053103447 123:0.022586206 124:0.010172414 125:0.013793103 126:0.0012931034 127:0.020775862 128:0.018965518 129:0.023965517 130:0.02474138 131:0.014568966 132:0.024913793 133:0.018534483 134:0.015344827 135:0.03810345 136:0.046379309 137:0.027327586 138:0.03586207 139:0.017327586 140:0.048448276 141:0.050000001 142:0.13333334 143:0.050000001 144:0.1 145:0.050000001 146:0.033333335 147:0.033333335 148:0.033333335 149:0.033333335 150:0.016666668 151:0.083333336 152:0 153:0.1 154:0.033333335 155:0.11666667 156:0.033333335 157:0 158:0 159:0.06666667 160:0.033333335 161:0.020862069 162:0.0076724137 163:0.0052586207 164:0.010948276 165:0 166:0 167:0 168:0.0024999999 169:0.0059482758 170:0.011551724 171:0.018879311 172:0.025086207 173:0 174:0.00077586208 175:0.008017241 176:0.0087931035 177:0.0089655174 178:0.025172414 179:0.0031034483 180:0.0086206896 181:0 182:0.1 183:0 184:0.050000001 185:0.15000001 186:0 187:0 188:0.1 189:0.2 190:0 191:0.050000001 192:0.15000001 193:0.050000001 194:0 195:0.1 196:0 197:0.050000001 198:0 199:0 200:0 201:0.03698276 202:0.025948277 203:0.011551724 204:0.015172414 205:0.0049999999 206:0.00051724137 207:0.01112069 208:0.022327587 209:0.03275862 210:0.032327585 211:0.03275862 212:0.034655172 213:0.00051724137 214:0.011206897 215:0.031724136 216:0.032241378 217:0.020172413 218:0.051206898 219:0.0084482757 220:0.013965517 221:0.059999999 222:0.079999998 223:0.02 224:0.02 225:0.14 226:0 227:0.039999999 228:0.1 229:0.079999998 230:0.039999999 231:0.079999998 232:0.1 233:0.059999999 234:0 235:0.1 236:0 237:0.039999999 238:0 239:0.039999999 240:0 241:0.050000001 242:0.071034484 243:0.027068965 244:0.01862069 245:0.021206897 246:0.0018103449 247:0.030431034 248:0.044310346 249:0.053620689 250:0.057155173 251:0.049568966 252:0.051637933 253:0.019051725 254:0.03112069 255:0.049137931 256:0.074482761 257:0.043189656 258:0.080172412 259:0.023620689 260:0.039655171 261:0.050000001 262:0.090000004 263:0.029999999 264:0.059999999 265:0.079999998 266:0.02 267:0.039999999 268:0.079999998 269:0.059999999 270:0.029999999 271:0.079999998 272:0.050000001 273:0.079999998 274:0.0099999998 275:0.11 276:0.029999999 277:0.02 278:0 279:0.059999999 280:0.02 #ZN593_HUMAN
-0.79544867236343097527395684664953 1:0.03812379 2:0.06205029 3:0.031992264 4:0.014951644 5:0.036711797 6:0.0057253386 7:0.024622824 8:0.060367506 9:0.03903288 10:0.055106383 11:0.070328817 12:0.053268857 13:0.05377176 14:0.061605416 15:0.053984527 16:0.081392653 17:0.052669246 18:0.079613149 19:0.027988395 20:0.025512572 21:0.05232558 22:0.056201551 23:0.060077518 24:0.048449613 25:0.10271318 26:0.034883723 27:0.058139537 28:0.07751938 29:0.03875969 30:0.027131783 31:0.029069768 32:0.048449613 33:0.085271321 34:0.027131783 35:0.060077518 36:0.042635661 37:0.015503876 38:0.015503876 39:0.058139537 40:0.062015504 41:0.0015667311 42:0.0035589943 43:0.00071566732 44:0.0024758221 45:0.00038684718 46:0.0020116053 47:0 48:0.0036557061 49:0.0013733075 50:0.0062282397 51:0.0013539651 52:0.00036750484 53:0.0018181818 54:0.00011605416 55:0.0037137331 56:0.0037330755 57:0.0012379111 58:0.0031721471 59:0.00094777561 60:0.00029013539 61:0.1 62:0.050000001 63:0 64:0 65:0.1 66:0.050000001 67:0.050000001 68:0.050000001 69:0 70:0 71:0 72:0.050000001 73:0.1 74:0 75:0.2 76:0 77:0 78:0.1 79:0.1 80:0.050000001 81:0.0036363637 82:0.0067504835 83:0.0020116053 84:0.0034235977 85:0.0029980657 86:0.0023791103 87:0.00050290133 88:0.0050676982 89:0.0018762089 90:0.0068085105 91:0.005957447 92:0.0025531915 93:0.00516441 94:0.0033655707 95:0.0044487426 96:0.0058994195 97:0.0029787235 98:0.0065377178 99:0.0014119922 100:0.0024564797 101:0.075000003 102:0.025 103:0.050000001 104:0 105:0.1 106:0.025 107:0.075000003 108:0.075000003 109:0.050000001 110:0 111:0 112:0.075000003 113:0.075000003 114:0 115:0.1 116:0.075000003 117:0.025 118:0.050000001 119:0.050000001 120:0.075000003 121:0.0045841392 122:0.0084719537 123:0.0026885881 124:0.0037330755 125:0.0035589943 126:0.0023791103 127:0.00094777561 128:0.0067117987 129:0.0032495165 130:0.0076595745 131:0.0082205031 132:0.0039458415 133:0.0058220504 134:0.0062088976 135:0.0061315279 136:0.0074854931 137:0.0057253386 138:0.012108318 139:0.0023597679 140:0.0057833656 141:0.050000001 142:0.016666668 143:0.06666667 144:0.033333335 145:0.21666667 146:0.016666668 147:0.06666667 148:0.06666667 149:0.033333335 150:0 151:0 152:0.050000001 153:0.083333336 154:0 155:0.083333336 156:0.050000001 157:0.016666668 158:0.033333335 159:0.06666667 160:0.050000001 161:0.0043326886 162:0.0022630561 163:0.0045261122 164:0.0032301741 165:0 166:0 167:0 168:0.0037137331 169:0.001934236 170:0.0030560929 171:0.0016054158 172:0.00048355901 173:0 174:0 175:0.00063829788 176:0.0025725339 177:0.0038684721 178:0.0064603481 179:0 180:0 181:0.050000001 182:0 183:0 184:0 185:0.2 186:0 187:0.1 188:0.050000001 189:0 190:0 191:0.050000001 192:0.050000001 193:0.050000001 194:0.15000001 195:0.050000001 196:0 197:0.1 198:0 199:0.15000001 200:0 201:0.0078916829 202:0.0079110255 203:0.0064796903 204:0.0032301741 205:0 206:0 207:0.0016054158 208:0.0072920695 209:0.0054932302 210:0.015009671 211:0.0038878142 212:0.0048549324 213:0.00032882011 214:0.00065764022 215:0.0012959382 216:0.0055705998 217:0.0094390716 218:0.012088975 219:0.0026499033 220:0.00032882011 221:0.02 222:0 223:0 224:0 225:0.16 226:0.039999999 227:0.12 228:0.039999999 229:0.02 230:0.039999999 231:0.059999999 232:0.079999998 233:0.039999999 234:0.079999998 235:0.16 236:0 237:0.039999999 238:0 239:0.1 240:0 241:0.014642166 242:0.014448742 243:0.0090135401 244:0.0038684721 245:0.0016827853 246:0 247:0.001934236 248:0.014893617 249:0.011953578 250:0.023617022 251:0.015203095 252:0.010444874 253:0.0016827853 254:0.0024564797 255:0.005048356 256:0.009535783 257:0.015067698 258:0.021740813 259:0.006015474 260:0.0024177949 261:0.029999999 262:0.0099999998 263:0.0099999998 264:0.0099999998 265:0.17 266:0.039999999 267:0.079999998 268:0.1 269:0.029999999 270:0.02 271:0.050000001 272:0.079999998 273:0.059999999 274:0.07 275:0.11 276:0 277:0.02 278:0 279:0.11 280:0 #MIZF_HUMAN 
-0.37883479543247505771930150331173 1:0.057922296 2:0.085033782 3:0.048327703 4:0.026537161 5:0.02731419 6:0.007179054 7:0.024391891 8:0.047162164 9:0.054138515 10:0.033885136 11:0.086587839 12:0.05143581 13:0.032804053 14:0.028868243 15:0.047111485 16:0.071249999 17:0.05070946 18:0.089712836 19:0.041030407 20:0.052331083 21:0.077834181 22:0.047377326 23:0.028764805 24:0.05076142 25:0.10152284 26:0.043993231 27:0.05752961 28:0.072758034 29:0.060913704 30:0.02538071 31:0.059221659 32:0.060913704 33:0.082910322 34:0.055837564 35:0.033840947 36:0.023688663 37:0.030456852 38:0.0067681894 39:0.040609136 40:0.038917091 41:0.0061655403 42:0.0055067567 43:0.0014864865 44:0.0016891892 45:0.00042229731 46:0 47:0 48:0 49:0.0023479729 50:0.0021283785 51:0.0050844597 52:0.0002195946 53:0 54:0.0017060811 55:0.0025506758 56:0.0002195946 57:0.00064189191 58:0.0025506758 59:0.0002195946 60:0.0010641892 61:0 62:0.050000001 63:0.050000001 64:0 65:0.1 66:0 67:0 68:0.15000001 69:0 70:0 71:0.1 72:0.2 73:0.15000001 74:0.050000001 75:0.1 76:0 77:0 78:0 79:0.050000001 80:0 81:0.0068074325 82:0.0059459461 83:0.0025506758 84:0.0033952703 85:0.0027533784 86:0 87:0.00084459462 88:0.0031925675 89:0.0066047297 90:0.0023479729 91:0.0082939193 92:0.0021452704 93:0.00084459462 94:0.0019256757 95:0.003429054 96:0.0031925675 97:0.0012837838 98:0.0074662161 99:0.00086148648 100:0.0031756756 101:0.050000001 102:0.025 103:0.025 104:0.025 105:0.125 106:0 107:0 108:0.125 109:0.050000001 110:0 111:0.125 112:0.1 113:0.1 114:0.050000001 115:0.050000001 116:0.050000001 117:0.025 118:0 119:0.075000003 120:0 121:0.0085304054 122:0.010810811 123:0.0050337836 124:0.0035472973 125:0.0027533784 126:0 127:0.00084459462 128:0.0067905406 129:0.011790541 130:0.0042905407 131:0.010506757 132:0.0036655406 133:0.0015878378 134:0.0025337837 135:0.0039864867 136:0.0068412162 137:0.0014695945 138:0.010287162 139:0.0015033784 140:0.0041047297 141:0.06666667 142:0.016666668 143:0.033333335 144:0.016666668 145:0.11666667 146:0 147:0 148:0.11666667 149:0.033333335 150:0 151:0.15000001 152:0.1 153:0.083333336 154:0.06666667 155:0.050000001 156:0.033333335 157:0.016666668 158:0 159:0.083333336 160:0.016666668 161:0.00048986485 162:0.0010135135 163:0 164:0.00016891892 165:0 166:0 167:0 168:0.0069763511 169:0.0011148648 170:0.0015033784 171:0.0069256756 172:0.00050675677 173:0 174:0.00016891892 175:0.0057432433 176:0.0066047297 177:0.00016891892 178:0 179:0.00035472974 180:0 181:0.2 182:0.15000001 183:0 184:0 185:0 186:0 187:0 188:0.25 189:0 190:0 191:0.050000001 192:0 193:0.050000001 194:0 195:0.050000001 196:0 197:0 198:0 199:0.25 200:0 201:0.0020439189 202:0.0028716216 203:0.0046959459 204:0.0014358108 205:0.00035472974 206:0 207:0 208:0.0094932429 209:0.0058277026 210:0.0052533783 211:0.011739865 212:0.0027027028 213:0 214:0.00065878377 215:0.0070101353 216:0.0092567569 217:0.0058783782 218:0.0044087837 219:0.0024493244 220:0.0023986488 221:0.1 222:0.079999998 223:0.02 224:0 225:0.059999999 226:0.039999999 227:0.1 228:0.16 229:0.02 230:0 231:0.1 232:0 233:0.039999999 234:0.079999998 235:0.059999999 236:0 237:0.02 238:0 239:0.12 240:0 241:0.0052195946 242:0.013293919 243:0.0080405409 244:0.0047804052 245:0.0026182432 246:0.0004391892 247:0.0012162162 248:0.010625 249:0.008935811 250:0.0052533783 251:0.014780405 252:0.006689189 253:0.00099662167 254:0.0015878378 255:0.011452703 256:0.01731419 257:0.014054054 258:0.01579392 259:0.0065371622 260:0.0073310812 261:0.1 262:0.07 263:0.0099999998 264:0.029999999 265:0.1 266:0.050000001 267:0.11 268:0.079999998 269:0.039999999 270:0.0099999998 271:0.059999999 272:0.029999999 273:0.1 274:0.059999999 275:0.029999999 276:0.0099999998 277:0.029999999 278:0 279:0.059999999 280:0.02 #BRAP_HUMAN 
-1.1088525405608595786333125943202 1:0.063737862 2:0.093604371 3:0.062900484 4:0.023385921 5:0.040436894 6:0.0057038837 7:0.020036409 8:0.058082525 9:0.069126211 10:0.053240292 11:0.070800968 12:0.047524273 13:0.014126213 14:0.014150485 15:0.053567961 16:0.06098301 17:0.036213592 18:0.062669903 19:0.041541263 20:0.053640775 21:0.063183472 22:0.060753342 23:0.01944107 24:0.058323208 25:0.065613605 26:0.047387607 27:0.034021873 28:0.080194414 29:0.037667073 30:0.018226003 31:0.082624547 32:0.060753342 33:0.088699877 34:0.063183472 35:0.051032808 36:0.046172541 37:0.036452007 38:0.0060753343 39:0.069258809 40:0.010935602 41:0.002026699 42:0.0012135922 43:0.0016140777 44:0.0012135922 45:0.0016140777 46:0 47:0.00081310677 48:0 49:0 50:0.0024271845 51:0.0032402913 52:0.0012135922 53:0.0044538835 54:0 55:0.00081310677 56:0.0020145632 57:0.00080097088 58:0.00081310677 59:0 60:0 61:0.050000001 62:0.050000001 63:0 64:0 65:0.050000001 66:0 67:0 68:0.15000001 69:0.1 70:0.050000001 71:0 72:0.1 73:0.050000001 74:0.050000001 75:0.1 76:0.050000001 77:0 78:0 79:0 80:0.2 81:0.002026699 82:0.0033373786 83:0.0016140777 84:0.0024271845 85:0.00282767 86:0.0012135922 87:0.0011165049 88:0.00091019418 89:0.0012135922 90:0.0030339805 91:0.0071844659 92:0.0029368931 93:0.0044538835 94:0.00091019418 95:0.0032402913 96:0.0032281554 97:0.0011043689 98:0.0018203884 99:0.0021237864 100:0.0018203884 101:0.050000001 102:0.075000003 103:0.025 104:0.050000001 105:0.050000001 106:0.050000001 107:0 108:0.15000001 109:0.075000003 110:0.025 111:0.025 112:0.050000001 113:0.075000003 114:0.050000001 115:0.050000001 116:0.050000001 117:0.025 118:0.025 119:0 120:0.1 121:0.0033495147 122:0.0040776697 123:0.0023300971 124:0.0030825243 125:0.0031310678 126:0.0012135922 127:0.0016140777 128:0.00091019418 129:0.003604369 130:0.010618932 131:0.0097815534 132:0.0039563105 133:0.0044538835 134:0.0021601941 135:0.0049635922 136:0.0037135922 137:0.0020024271 138:0.0027305826 139:0.0025970873 140:0.0021723302 141:0.033333335 142:0.1 143:0.016666668 144:0.033333335 145:0.050000001 146:0.033333335 147:0.016666668 148:0.13333334 149:0.050000001 150:0.033333335 151:0.050000001 152:0.06666667 153:0.06666667 154:0.033333335 155:0.15000001 156:0.033333335 157:0.016666668 158:0.016666668 159:0 160:0.06666667 161:0.0011650486 162:0.0054733008 163:0.00049757282 164:0.00066747575 165:0.0009830097 166:0 167:0.0018446601 168:0.0012135922 169:0.00125 170:0.00018203883 171:0.0010194174 172:0.00047330098 173:0 174:0.00014563107 175:0.0026820388 176:0.0016504854 177:0.00057038834 178:0.0019660194 179:0.0016140777 180:0.00069174758 181:0 182:0.1 183:0 184:0.050000001 185:0.050000001 186:0.1 187:0 188:0 189:0.050000001 190:0.1 191:0.050000001 192:0.050000001 193:0.25 194:0 195:0.050000001 196:0 197:0.1 198:0 199:0.050000001 200:0 201:0.0031796116 202:0.009235437 203:0.0041868933 204:0.0022208737 205:0.0016626214 206:0.00015776699 207:0.0019902913 208:0.0037985437 209:0.0037742718 210:0.0010072816 211:0.0030946601 212:0.0020752428 213:0.0005461165 214:0.00055825245 215:0.0039199027 216:0.0046723299 217:0.0021116505 218:0.0043446603 219:0.0025364077 220:0.0024999999 221:0.02 222:0.079999998 223:0.039999999 224:0.02 225:0.1 226:0.039999999 227:0.02 228:0.039999999 229:0.02 230:0.039999999 231:0.079999998 232:0.039999999 233:0.18000001 234:0.059999999 235:0.02 236:0.02 237:0.039999999 238:0 239:0.1 240:0.039999999 241:0.0081067961 242:0.015570388 243:0.0079854373 244:0.0047936891 245:0.0042961165 246:0.00027912622 247:0.0027791262 248:0.0056189322 249:0.0069902912 250:0.0034830098 251:0.0071480582 252:0.0044660196 253:0.0011043689 254:0.0019053398 255:0.0066504856 256:0.0077305827 257:0.0052427184 258:0.0094296113 259:0.0057402914 260:0.0069417474 261:0.029999999 262:0.059999999 263:0.02 264:0.079999998 265:0.07 266:0.039999999 267:0.050000001 268:0.039999999 269:0.029999999 270:0.029999999 271:0.050000001 272:0.050000001 273:0.13 274:0.079999998 275:0.029999999 276:0.029999999 277:0.079999998 278:0 279:0.079999998 280:0.02 #NSF_CAEEL  
-6 1:0.0583 2:0.1088 3:0.030400001 4:0.0175 5:0.02575 6:0.0229 7:0.02165 8:0.066550002 9:0.0625 10:0.081299998 11:0.0682 12:0.03915 13:0.020749999 14:0.0137 15:0.11075 16:0.094149999 17:0.051199999 18:0.061250001 19:0.021199999 20:0.0175 21:0.095477387 22:0.12060302 23:0.010050251 24:0.010050251 25:0.070351757 26:0.025125628 27:0.050251257 28:0.065326631 29:0.040201005 30:0.030150754 31:0.075376883 32:0.060301509 33:0.10552764 34:0.030150754 35:0.080402009 36:0.035175879 37:0.010050251 38:0.025125628 39:0.045226131 40:0.015075377 41:0.0066499999 42:0.0217 43:0 44:0.0049999999 45:0.0033 46:0.0033499999 47:0 48:0.0082999999 49:0.01165 50:0.0033499999 51:0.0082999999 52:0.0066499999 53:0 54:0.00165 55:0.0117 56:0.00165 57:0.0033 58:0 59:0 60:0 61:0 62:0.15000001 63:0 64:0 65:0 66:0 67:0 68:0.1 69:0.1 70:0 71:0.15000001 72:0.1 73:0.15000001 74:0 75:0.050000001 76:0.1 77:0 78:0.050000001 79:0.050000001 80:0 81:0.016650001 82:0.03005 83:0.00165 84:0.0049999999 85:0.00825 86:0.0049999999 87:0.0066499999 88:0.018300001 89:0.0133 90:0.01505 91:0.029899999 92:0.0082999999 93:0.00825 94:0.0033 95:0.019950001 96:0.00165 97:0.0033 98:0 99:0.00165 100:0 101:0 102:0.125 103:0 104:0 105:0 106:0 107:0 108:0.15000001 109:0.050000001 110:0.050000001 111:0.1 112:0.075000003 113:0.125 114:0.025 115:0.075000003 116:0.075000003 117:0 118:0.025 119:0.1 120:0.025 121:0.018300001 122:0.038800001 123:0.00165 124:0.0049999999 125:0.00825 126:0.0066499999 127:0.0066499999 128:0.026550001 129:0.026249999 130:0.031300001 131:0.0407 132:0.0129 133:0.00825 134:0.00495 135:0.02825 136:0.0066499999 137:0.0137 138:0.0062500001 139:0.00495 140:0 141:0.016666668 142:0.11666667 143:0 144:0 145:0.016666668 146:0 147:0.033333335 148:0.16666667 149:0.050000001 150:0.033333335 151:0.11666667 152:0.050000001 153:0.11666667 154:0.016666668 155:0.1 156:0.050000001 157:0 158:0.016666668 159:0.083333336 160:0.016666668 161:0 162:0.0099999998 163:0.0049999999 164:0 165:0.00125 166:0.0049999999 167:0.0037499999 168:0.01125 169:0.0099999998 170:0.01125 171:0.0024999999 172:0.0049999999 173:0 174:0 175:0.0037499999 176:0.016249999 177:0.0049999999 178:0.0074999998 179:0.0024999999 180:0 181:0.2 182:0 183:0 184:0 185:0.1 186:0.1 187:0.050000001 188:0 189:0.050000001 190:0.050000001 191:0.1 192:0 193:0.1 194:0.050000001 195:0.1 196:0 197:0 198:0.050000001 199:0.050000001 200:0 201:0.0062500001 202:0.026249999 203:0.015 204:0 205:0.01125 206:0.0099999998 207:0.0037499999 208:0.016249999 209:0.0099999998 210:0.01125 211:0.0024999999 212:0.00875 213:0 214:0 215:0.0425 216:0.047499999 217:0.0125 218:0.018750001 219:0.0024999999 220:0.0049999999 221:0.22 222:0.14 223:0 224:0.02 225:0.079999998 226:0.039999999 227:0.039999999 228:0 229:0.039999999 230:0.02 231:0.039999999 232:0.02 233:0.12 234:0.059999999 235:0.039999999 236:0.039999999 237:0 238:0.039999999 239:0.039999999 240:0 241:0.02125 242:0.03875 243:0.025 244:0.0049999999 245:0.01375 246:0.01125 247:0.0125 248:0.032499999 249:0.022500001 250:0.026249999 251:0.00875 252:0.0125 253:0.0099999998 254:0.00875 255:0.068750001 256:0.081249997 257:0.03125 258:0.037500001 259:0.015 260:0.015 261:0.17 262:0.14 263:0.02 264:0.02 265:0.090000004 266:0.039999999 267:0.059999999 268:0 269:0.029999999 270:0.029999999 271:0.050000001 272:0.050000001 273:0.079999998 274:0.039999999 275:0.050000001 276:0.029999999 277:0.0099999998 278:0.029999999 279:0.039999999 280:0.02 #AKIP_MOUSE 
4.9064402362136245727697314578108 1:0.047035296 2:0.083835296 3:0.03357647 4:0.025858823 5:0.02242353 6:0.0027529411 7:0.013811764 8:0.055152941 9:0.083505884 10:0.044894118 11:0.11385883 12:0.037764706 13:0.015717648 14:0.012423529 15:0.069200002 16:0.06312941 17:0.057599999 18:0.1190353 19:0.036564704 20:0.047858823 21:0.075471699 22:0.068396226 23:0.0070754718 24:0.058962263 25:0.11556604 26:0.028301887 27:0.058962263 28:0.11556604 29:0.040094338 30:0.014150944 31:0.084905662 32:0.054245282 33:0.077830188 34:0.028301887 35:0.042452831 36:0.023584906 37:0.028301887 38:0.0047169812 39:0.061320756 40:0.011792453 41:0.0016235294 42:0.0057176473 43:0.0026117647 44:0.0023529411 45:0 46:0 47:0 48:0.0027294117 49:0 50:0.0025882353 51:0.00025882354 52:0.00023529412 53:0 54:0.00025882354 55:0.0024470589 56:0.0011764705 57:0.0044705882 58:0.017011765 59:0.00023529412 60:0.0033647059 61:0.050000001 62:0.050000001 63:0 64:0.050000001 65:0.40000001 66:0 67:0.1 68:0 69:0 70:0 71:0 72:0.050000001 73:0.1 74:0.050000001 75:0.050000001 76:0 77:0 78:0 79:0.1 80:0 81:0.0032235293 82:0.011647059 83:0.0055999998 84:0.0029882353 85:0 86:0 87:0.00037647059 88:0.0027294117 89:0.0032235293 90:0.0025882353 91:0.0026117647 92:0.0030823529 93:0.00023529412 94:0.00063529413 95:0.0060705882 96:0.0036470587 97:0.0070823529 98:0.024447059 99:0.0059058825 100:0.0079764705 101:0.025 102:0.1 103:0 104:0.1 105:0.27500001 106:0.050000001 107:0.1 108:0.025 109:0.050000001 110:0 111:0.025 112:0.025 113:0.1 114:0.050000001 115:0.025 116:0 117:0 118:0 119:0.050000001 120:0 121:0.0067529413 122:0.017411765 123:0.0071294117 124:0.0037882354 125:0.0019764707 126:0.00023529412 127:0.00096470589 128:0.0036235293 129:0.0058352943 130:0.0027058823 131:0.0069647059 132:0.0067529413 133:0.00058823527 134:0.0013176471 135:0.010352941 136:0.010423529 137:0.010047059 138:0.028541176 139:0.0069411765 140:0.0089882351 141:0.083333336 142:0.083333336 143:0 144:0.083333336 145:0.21666667 146:0.033333335 147:0.06666667 148:0.033333335 149:0.050000001 150:0 151:0.033333335 152:0.083333336 153:0.11666667 154:0.050000001 155:0.016666668 156:0.016666668 157:0 158:0 159:0.033333335 160:0 161:0.0015764706 162:0.0031529411 163:0.0081411768 164:0.0022588235 165:0 166:0 167:0 168:0.0067529413 169:0.0035529411 170:0.00039999999 171:0.0013411765 172:0.00065882353 173:0.0031294117 174:0 175:0.0029176471 176:0.0049882354 177:0.0039764708 178:0.0010117647 179:0.00032941176 180:0.0029176471 181:0.1 182:0.050000001 183:0 184:0.1 185:0 186:0 187:0.1 188:0.050000001 189:0 190:0 191:0.050000001 192:0.050000001 193:0.050000001 194:0.2 195:0 196:0 197:0.050000001 198:0 199:0.15000001 200:0.050000001 201:0.0019058824 202:0.0088705886 203:0.0081411768 204:0.0049411766 205:0 206:0 207:0 208:0.013482353 209:0.006235294 210:0.0020705883 211:0.020164706 212:0.0026823529 213:0.0031294117 214:0 215:0.0059529413 216:0.0093411766 217:0.009011765 218:0.0043764706 219:0.0036941175 220:0.003929412 221:0.079999998 222:0.039999999 223:0 224:0.039999999 225:0.039999999 226:0.02 227:0.1 228:0.23999999 229:0.02 230:0 231:0.039999999 232:0.02 233:0.059999999 234:0.079999998 235:0.02 236:0 237:0.039999999 238:0 239:0.14 240:0.02 241:0.006352941 242:0.014352941 243:0.0096470593 244:0.0076000001 245:0.0041176472 246:0 247:0 248:0.026305882 249:0.016870588 250:0.0091294115 251:0.036894117 252:0.0038588236 253:0.0078352941 254:0 255:0.015929412 256:0.0132 257:0.0093176467 258:0.019670589 259:0.013176471 260:0.0095529407 261:0.059999999 262:0.059999999 263:0 264:0.039999999 265:0.090000004 266:0.050000001 267:0.050000001 268:0.19 269:0.02 270:0 271:0.059999999 272:0.029999999 273:0.050000001 274:0.039999999 275:0.039999999 276:0.02 277:0.039999999 278:0 279:0.13 280:0.029999999 #3BP5_HUMAN 
0.49485952896928531163922571067815 1:0.047901787 2:0.098526783 3:0.047232144 4:0.018035714 5:0.035580356 6:0.023125 7:0.035937499 8:0.076383926 9:0.10383929 10:0.041250002 11:0.074598216 12:0.045535713 13:0.010446428 14:0.037723213 15:0.032232143 16:0.066741072 17:0.043526787 18:0.049285714 19:0.053348213 20:0.040491071 21:0.040358745 22:0.044843048 23:0.035874441 24:0.031390134 25:0.058295965 26:0.053811658 27:0.058295965 28:0.076233186 29:0.040358745 30:0.031390134 31:0.10313901 32:0.040358745 33:0.11210762 34:0.062780268 35:0.040358745 36:0.022421524 37:0.017937221 38:0.022421524 39:0.094170406 40:0.013452915 41:0.0033482143 42:0.0121875 43:0.0015178572 44:0.0063392855 45:0.0032142857 46:0.00040178571 47:0.00071428571 48:0.0051339287 49:0.0128125 50:0.0016964285 51:0.0091517856 52:0.0064285714 53:0.0020982143 54:4.4642857e-05 55:0.014241071 56:0.002232143 57:0.0037499999 58:0.00058035715 59:0.0015178572 60:0 61:0.050000001 62:0.25 63:0 64:0 65:0 66:0 67:0.050000001 68:0.050000001 69:0 70:0 71:0.2 72:0 73:0.2 74:0 75:0 76:0.050000001 77:0 78:0.050000001 79:0.050000001 80:0.050000001 81:0.0045535713 82:0.025892857 83:0.0055803573 84:0.0072321431 85:0.0050446428 86:0.00062499999 87:0.0084821433 88:0.0086607141 89:0.021071428 90:0.015178571 91:0.015669642 92:0.0095982142 93:0.0023660713 94:0.0040624999 95:0.014642857 96:0.0076339287 97:0.0045535713 98:0.0054910714 99:0.003125 100:0.0064285714 101:0.025 102:0.125 103:0.025 104:0.050000001 105:0.050000001 106:0 107:0.025 108:0.050000001 109:0.050000001 110:0.050000001 111:0.15000001 112:0 113:0.175 114:0.025 115:0.075000003 116:0.025 117:0 118:0.025 119:0.050000001 120:0.025 121:0.0096875001 122:0.033080358 123:0.0099999998 124:0.010044643 125:0.0061607142 126:0.0010714285 127:0.014642857 128:0.010357142 129:0.025892857 130:0.015223214 131:0.017544642 132:0.015267857 133:0.0024107143 134:0.020580357 135:0.015758928 136:0.014955357 137:0.010758929 138:0.0094642853 139:0.013705357 140:0.0075892857 141:0.033333335 142:0.083333336 143:0.083333336 144:0.033333335 145:0.033333335 146:0.050000001 147:0.050000001 148:0.050000001 149:0.050000001 150:0.050000001 151:0.11666667 152:0.033333335 153:0.15000001 154:0.033333335 155:0.050000001 156:0.016666668 157:0.016666668 158:0.016666668 159:0.033333335 160:0.016666668 161:0.0031696428 162:0.0044642859 163:0.0012946428 164:0.0012946428 165:0 166:0.0031696428 167:0 168:0.0057589286 169:0.021651786 170:0 171:0.018526785 172:0.002232143 173:0.0044642859 174:0 175:0.0044642859 176:0.0044642859 177:0.0057589286 178:0.0050892858 179:0.002232143 180:0.0012946428 181:0.050000001 182:0.050000001 183:0 184:0 185:0 186:0.050000001 187:0.15000001 188:0.25 189:0.050000001 190:0 191:0.1 192:0 193:0.050000001 194:0.050000001 195:0 196:0 197:0.050000001 198:0 199:0.1 200:0.050000001 201:0.015491071 202:0.016116071 203:0.0092857145 204:0.0043303571 205:0.0046428572 206:0.0076339287 207:0.016294643 208:0.011294642 209:0.028571429 210:0.0041964287 211:0.0253125 212:0.0051785712 213:0.0052678571 214:0.0044642859 215:0.0099553568 216:0.013705357 217:0.0093750004 218:0.010133929 219:0.0087053571 220:0.013169643 221:0.059999999 222:0.059999999 223:0.02 224:0.02 225:0.02 226:0.039999999 227:0.079999998 228:0.14 229:0.02 230:0.059999999 231:0.059999999 232:0.039999999 233:0.079999998 234:0.1 235:0.02 236:0 237:0.039999999 238:0.02 239:0.1 240:0.02 241:0.029330358 242:0.042142857 243:0.020357143 244:0.0059821429 245:0.012991072 246:0.016383929 247:0.018169643 248:0.034107141 249:0.047544643 250:0.015223214 251:0.036294643 252:0.021071428 253:0.0070535713 254:0.0070089283 255:0.013035715 256:0.0309375 257:0.020669643 258:0.018839287 259:0.020803571 260:0.020848215 261:0.039999999 262:0.029999999 263:0.0099999998 264:0.02 265:0.029999999 266:0.050000001 267:0.090000004 268:0.090000004 269:0.050000001 270:0.039999999 271:0.090000004 272:0.050000001 273:0.1 274:0.07 275:0.039999999 276:0.0099999998 277:0.029999999 278:0.029999999 279:0.11 280:0.02 #SODM_CHAFE 
0.60741311097697314735910367744509 1:0.053333335 2:0.059999999 3:0.1 4:0.056666669 5:0.0099999998 6:0.033333335 7:0.07333333 8:0.063333333 9:0.10666667 10:0.056666669 11:0.07 12:0.023333333 13:0.0033333334 14:0.050000001 15:0.033333335 16:0.11666667 17:0.043333333 18:0.016666668 19:0.0066666668 20:0.016666668 21:0.11864407 22:0.033898305 23:0.050847456 24:0.016949153 25:0.016949153 26:0 27:0.050847456 28:0.084745765 29:0.033898305 30:0.084745765 31:0.13559322 32:0.050847456 33:0.06779661 34:0.084745765 35:0.050847456 36:0 37:0.033898305 38:0.033898305 39:0.050847456 40:0 41:0.023333333 42:0.023333333 43:0.043333333 44:0.033333335 45:0.0033333334 46:0.016666668 47:0.033333335 48:0 49:0.0066666668 50:0.033333335 51:0.016666668 52:0.016666668 53:0 54:0 55:0 56:0.050000001 57:0.026666667 58:0 59:0.0066666668 60:0 61:0.15000001 62:0 63:0 64:0 65:0 66:0 67:0.1 68:0.050000001 69:0.050000001 70:0.15000001 71:0.050000001 72:0.050000001 73:0.1 74:0.1 75:0.1 76:0 77:0.050000001 78:0.050000001 79:0 80:0 81:0.053333335 82:0.043333333 83:0.1 84:0.056666669 85:0.0099999998 86:0.033333335 87:0.07333333 88:0.039999999 89:0.02 90:0.033333335 91:0.029999999 92:0.023333333 93:0 94:0 95:0.016666668 96:0.06666667 97:0.043333333 98:0.016666668 99:0.0066666668 100:0 101:0.1 102:0.025 103:0 104:0 105:0.025 106:0 107:0.075000003 108:0.050000001 109:0.050000001 110:0.125 111:0.075000003 112:0.075000003 113:0.075000003 114:0.125 115:0.050000001 116:0 117:0.050000001 118:0.050000001 119:0.050000001 120:0 121:0.053333335 122:0.059999999 123:0.1 124:0.056666669 125:0.0099999998 126:0.033333335 127:0.07333333 128:0.063333333 129:0.10666667 130:0.056666669 131:0.07 132:0.023333333 133:0.0033333334 134:0.050000001 135:0.033333335 136:0.11666667 137:0.043333333 138:0.016666668 139:0.0066666668 140:0.016666668 141:0.11864407 142:0.033898305 143:0.050847456 144:0.016949153 145:0.016949153 146:0 147:0.050847456 148:0.084745765 149:0.033898305 150:0.084745765 151:0.13559322 152:0.050847456 153:0.06779661 154:0.084745765 155:0.050847456 156:0 157:0.033898305 158:0.033898305 159:0.050847456 160:0 161:0 162:0.016666668 163:0 164:0 165:0 166:0 167:0 168:0.023333333 169:0.086666666 170:0.023333333 171:0.039999999 172:0 173:0.0033333334 174:0.050000001 175:0.016666668 176:0.050000001 177:0 178:0 179:0 180:0.016666668 181:0.15000001 182:0.050000001 183:0.15000001 184:0.050000001 185:0 186:0 187:0 188:0.15000001 189:0 190:0 191:0.30000001 192:0 193:0.050000001 194:0 195:0.050000001 196:0 197:0 198:0 199:0.050000001 200:0 201:0.043333333 202:0.036666665 203:0.07 204:0.039999999 205:0.0066666668 206:0.016666668 207:0.07333333 208:0.063333333 209:0.10666667 210:0.056666669 211:0.053333335 212:0.023333333 213:0.0033333334 214:0.050000001 215:0.033333335 216:0.090000004 217:0.026666667 218:0.016666668 219:0 220:0.016666668 221:0.1 222:0.039999999 223:0.059999999 224:0.02 225:0.02 226:0 227:0.039999999 228:0.079999998 229:0.039999999 230:0.1 231:0.16 232:0.039999999 233:0.039999999 234:0.079999998 235:0.059999999 236:0 237:0.039999999 238:0.02 239:0.059999999 240:0 241:0.053333335 242:0.059999999 243:0.1 244:0.056666669 245:0.0099999998 246:0.033333335 247:0.07333333 248:0.063333333 249:0.10666667 250:0.056666669 251:0.07 252:0.023333333 253:0.0033333334 254:0.050000001 255:0.033333335 256:0.11666667 257:0.043333333 258:0.016666668 259:0.0066666668 260:0.016666668 261:0.11864407 262:0.033898305 263:0.050847456 264:0.016949153 265:0.016949153 266:0 267:0.050847456 268:0.084745765 269:0.033898305 270:0.084745765 271:0.13559322 272:0.050847456 273:0.06779661 274:0.084745765 275:0.050847456 276:0 277:0.033898305 278:0.033898305 279:0.050847456 280:0 #68MP_BOVIN 
2.5242188164653622806099519948475 1:0.053228036 2:0.10812438 3:0.052773938 4:0.017956564 5:0.019684106 6:0.0032280355 7:0.016031589 8:0.036614019 9:0.08259625 10:0.034916092 11:0.079772949 12:0.059259623 13:0.0055182627 14:0.016357355 15:0.051865745 16:0.10410661 17:0.039575517 18:0.092892401 19:0.035695951 20:0.064827248 21:0.095849805 22:0.062252965 23:0.017786561 24:0.06719368 25:0.096837945 26:0.028656127 27:0.041501977 28:0.087944664 29:0.070158102 30:0.01284585 31:0.083003953 32:0.056324109 33:0.1096838 34:0.055335969 35:0.03359684 36:0.025691699 37:0.01284585 38:0.0029644268 39:0.03359684 40:0.0059288535 41:0 42:0.0039486676 43:0 44:0.00098716689 45:0 46:0 47:0 48:0.00098716689 49:0.0019743338 50:0 51:0.00098716689 52:0.00098716689 53:0 54:0.0019743338 55:0.0029615005 56:0.00098716689 57:0.00098716689 58:0 59:0.0029615005 60:0 61:0.050000001 62:0.15000001 63:0.1 64:0 65:0 66:0.15000001 67:0.050000001 68:0.050000001 69:0.050000001 70:0 71:0.1 72:0.050000001 73:0.2 74:0 75:0 76:0 77:0 78:0 79:0.050000001 80:0 81:0.0029615005 82:0.0049358341 83:0 84:0.00098716689 85:0.00098716689 86:0 87:0.00098716689 88:0.00098716689 89:0.0029615005 90:0 91:0.0039486676 92:0.0019743338 93:0.0029615005 94:0.0019743338 95:0.0039486676 96:0.0029615005 97:0.00098716689 98:0 99:0.0049358341 100:0.00098716689 101:0.075000003 102:0.1 103:0.050000001 104:0.025 105:0.025 106:0.125 107:0.025 108:0.1 109:0.050000001 110:0.025 111:0.075000003 112:0.075000003 113:0.125 114:0 115:0 116:0.025 117:0 118:0 119:0.025 120:0.075000003 121:0.0036229023 122:0.0085488651 123:0 124:0.00098716689 125:0.00098716689 126:0 127:0.00098716689 128:0.00098716689 129:0.0049358341 130:0.0019743338 131:0.0069101676 132:0.0029615005 133:0.0029615005 134:0.0019743338 135:0.0059230011 136:0.0039486676 137:0.00098716689 138:0.0036229023 139:0.0049358341 140:0.0019743338 141:0.06666667 142:0.1 143:0.033333335 144:0.033333335 145:0.06666667 146:0.083333336 147:0.016666668 148:0.13333334 149:0.050000001 150:0.016666668 151:0.083333336 152:0.06666667 153:0.13333334 154:0 155:0.033333335 156:0.016666668 157:0 158:0 159:0.016666668 160:0.050000001 161:0 162:0.0029615005 163:0.00098716689 164:0 165:0 166:0 167:0 168:0 169:0.0039486676 170:0 171:0.0019743338 172:0.0059230011 173:0 174:0 175:0 176:0.0039486676 177:0 178:0 179:0 180:0 181:0.2 182:0 183:0 184:0 185:0 186:0 187:0 188:0.1 189:0.30000001 190:0 191:0.2 192:0 193:0.15000001 194:0.050000001 195:0 196:0 197:0 198:0 199:0 200:0 201:0 202:0.0049358341 203:0.0039486676 204:0.00098716689 205:0 206:0 207:0 208:0.00098716689 209:0.0059230011 210:0.0059230011 211:0.0049358341 212:0.0098716682 213:0 214:0 215:0.00098716689 216:0.0049358341 217:0.0029615005 218:0.0019743338 219:0 220:0.00098716689 221:0.1 222:0.02 223:0 224:0.02 225:0.039999999 226:0 227:0.059999999 228:0.1 229:0.2 230:0 231:0.12 232:0 233:0.1 234:0.079999998 235:0.12 236:0 237:0.02 238:0 239:0.02 240:0 241:0 242:0.0078973351 243:0.0049358341 244:0.00098716689 245:0 246:0 247:0 248:0.0098716682 249:0.010858835 250:0.010858835 251:0.01579467 252:0.014807503 253:0 254:0 255:0.0019743338 256:0.0088845016 257:0.0029615005 258:0.0039486676 259:0 260:0.0049358341 261:0.090000004 262:0.02 263:0 264:0.050000001 265:0.039999999 266:0 267:0.029999999 268:0.16 269:0.15000001 270:0 271:0.11 272:0 273:0.079999998 274:0.050000001 275:0.11 276:0 277:0.0099999998 278:0 279:0.1 280:0 #A60DA_DROME
0.10660122642424910144320904237247 1:0.063563712 2:0.098358534 3:0.061155509 4:0.022483801 5:0.034827214 6:0.007710583 7:0.032872569 8:0.069481641 9:0.077667385 10:0.051339094 11:0.066684663 12:0.051101513 13:0.015583153 14:0.025172787 15:0.044924404 16:0.061285097 17:0.028056156 18:0.064341255 19:0.030421166 20:0.051079914 21:0.059459459 22:0.048648648 23:0.025945947 24:0.046486486 25:0.069189191 26:0.037837837 27:0.033513512 28:0.069189191 29:0.05081081 30:0.042162161 31:0.063783787 32:0.073513515 33:0.11135135 34:0.059459459 35:0.054054055 36:0.025945947 37:0.032432433 38:0.0064864866 39:0.075675674 40:0.014054054 41:0.00099352049 42:0.004049676 43:0.00064794818 44:0.0012634989 45:0.00041036718 46:0 47:0.00010799136 48:0.00075593952 49:0.0018142549 50:0.00075593952 51:0.00056155509 52:0.0012742981 53:0.00072354212 54:0.00097192224 55:0.004686825 56:0.00035637149 57:0.0010367171 58:8.6393091e-05 59:0.00014038877 60:0 61:0 62:0.30000001 63:0.050000001 64:0 65:0 66:0 67:0.050000001 68:0.050000001 69:0 70:0 71:0.15000001 72:0 73:0.25 74:0 75:0.050000001 76:0 77:0 78:0 79:0.050000001 80:0.050000001 81:0.0027861772 82:0.0055183587 83:0.0017710583 84:0.0014146868 85:0.00041036718 86:0.00066954643 87:0.00010799136 88:0.0014146868 89:0.003887689 90:0.0017386609 91:0.0018142549 92:0.0024622029 93:0.00075593952 94:0.0025053995 95:0.0081533473 96:0.0018574514 97:0.0011339093 98:0.0022786178 99:0.00058315333 100:0.00034557236 101:0.025 102:0.25 103:0.050000001 104:0.025 105:0.050000001 106:0.025 107:0.025 108:0.025 109:0 110:0 111:0.15000001 112:0.050000001 113:0.15000001 114:0 115:0.075000003 116:0 117:0.025 118:0.025 119:0.025 120:0.025 121:0.0052375812 122:0.0082181422 123:0.0031857451 124:0.0014146868 125:0.00085313176 126:0.00066954643 127:0.00056155509 128:0.0028185744 129:0.0054535638 130:0.0034557236 131:0.0027105832 132:0.0046652267 133:0.0010691144 134:0.0034341253 135:0.0088336933 136:0.003801296 137:0.0021598272 138:0.0032721383 139:0.00084233261 140:0.00066954643 141:0.083333336 142:0.16666667 143:0.050000001 144:0.016666668 145:0.033333335 146:0.016666668 147:0.033333335 148:0.016666668 149:0.016666668 150:0.016666668 151:0.11666667 152:0.050000001 153:0.15000001 154:0.050000001 155:0.083333336 156:0 157:0.016666668 158:0.016666668 159:0.050000001 160:0.016666668 161:0.00075593952 162:0.0033801296 163:0.0026241902 164:0.00059395249 165:0.00046436285 166:0 167:0.00096112309 168:0.0010691144 169:0.00087473 170:0 171:0.0013390929 172:0.0022678187 173:0 174:0.0001187905 175:0.00060475164 176:0.0029265659 177:0.00066954643 178:0.002311015 179:0.0001187905 180:0.00049676024 181:0.1 182:0.050000001 183:0 184:0 185:0.1 186:0.050000001 187:0.050000001 188:0.050000001 189:0.1 190:0 191:0.050000001 192:0.050000001 193:0.1 194:0.2 195:0 196:0.050000001 197:0 198:0 199:0.050000001 200:0 201:0.0036177107 202:0.0068790498 203:0.0056155506 204:0.0012742981 205:0.0010691144 206:0.00010799136 207:0.0017926566 208:0.0039308853 209:0.0043844492 210:0.0036285098 211:0.0020950325 212:0.0039308853 213:0.00055075594 214:0.00017278618 215:0.0016738661 216:0.0048920088 217:0.0014902807 218:0.0042116633 219:0.00093952485 220:0.0017926566 221:0.1 222:0.02 223:0 224:0.02 225:0.1 226:0.02 227:0.02 228:0.02 229:0.079999998 230:0.02 231:0.1 232:0.02 233:0.1 234:0.12 235:0.059999999 236:0.039999999 237:0.059999999 238:0 239:0.1 240:0 241:0.0081749456 242:0.010799136 243:0.0079481639 244:0.0032073434 245:0.0027969761 246:0.00041036718 247:0.0039632828 248:0.0096976245 249:0.007850972 250:0.0046112309 251:0.0056371489 252:0.0079913605 253:0.00078833691 254:0.0023542116 255:0.0041792658 256:0.007462203 257:0.0032073434 258:0.00937365 259:0.0026025919 260:0.0048272139 261:0.079999998 262:0.029999999 263:0.02 264:0.050000001 265:0.079999998 266:0.029999999 267:0.0099999998 268:0.050000001 269:0.059999999 270:0.029999999 271:0.07 272:0.050000001 273:0.079999998 274:0.090000004 275:0.050000001 276:0.050000001 277:0.059999999 278:0 279:0.11 280:0 #AASS_MOUSE 
-3.0646940687304176087479845591588 1:0.058804553 2:0.10206831 3:0.061119545 4:0.020189753 5:0.060018975 6:0.0074193547 7:0.029696394 8:0.049506642 9:0.052656546 10:0.057058822 11:0.079354838 12:0.055958256 13:0.017172676 14:0.022789374 15:0.050664138 16:0.058481973 17:0.03740038 18:0.063187853 19:0.046110056 20:0.051100571 21:0.05323194 22:0.047528517 23:0.020912547 24:0.041825093 25:0.072243348 26:0.041825093 27:0.038022812 28:0.07414449 29:0.064638786 30:0.032319393 31:0.055133078 32:0.064638786 33:0.096958175 34:0.055133078 35:0.07414449 36:0.07414449 37:0.013307985 38:0.0057034222 39:0.051330797 40:0.022813689 41:0.0016318785 42:0.0047248579 43:0.0014421252 44:0.0026944971 45:0.0027324478 46:0 47:0 48:0.0018026566 49:0.0034724858 50:0.0010815939 51:0.0032068312 52:0.0019734346 53:0.00011385199 54:0.0004743833 55:0.0048007588 56:0.0036053131 57:0.0011574953 58:0.0018595825 59:0.00026565464 60:0.00081593927 61:0.050000001 62:0.2 63:0 64:0 65:0.050000001 66:0 67:0 68:0.1 69:0 70:0 71:0.15000001 72:0 73:0.30000001 74:0 75:0.050000001 76:0.050000001 77:0 78:0 79:0.050000001 80:0 81:0.0036812145 82:0.010702088 83:0.0037001898 84:0.0029222011 85:0.0033396585 86:0 87:0.0010626186 88:0.0026375712 89:0.0066982922 90:0.0024098672 91:0.0065275142 92:0.0030360532 93:0.0004743833 94:0.00096774194 95:0.0062049334 96:0.006470588 97:0.0024857684 98:0.0078178365 99:0.0018026566 100:0.0026185957 101:0.050000001 102:0.125 103:0 104:0 105:0.125 106:0 107:0.025 108:0.1 109:0.025 110:0.025 111:0.125 112:0 113:0.25 114:0.050000001 115:0.025 116:0.025 117:0 118:0 119:0.050000001 120:0 121:0.0058254269 122:0.015351044 123:0.0064136623 124:0.0035294117 125:0.0037001898 126:0.00096774194 127:0.00142315 128:0.0033396585 129:0.0084629981 130:0.0035294117 131:0.010132827 132:0.0049146111 133:0.00058823527 134:0.00142315 135:0.007020873 136:0.010664137 137:0.0045161289 138:0.011555977 139:0.0043453509 140:0.0053320685 141:0.083333336 142:0.083333336 143:0 144:0.016666668 145:0.13333334 146:0.033333335 147:0.033333335 148:0.1 149:0.016666668 150:0.016666668 151:0.1 152:0.016666668 153:0.2 154:0.06666667 155:0.033333335 156:0.016666668 157:0.016666668 158:0 159:0.033333335 160:0 161:0.0027324478 162:0.0028273244 163:0.0010626186 164:0.00015180265 165:0.0032258064 166:7.5901327e-05 167:0.0027893737 168:0.0022011385 169:0.0020683112 170:0.0018975332 171:0.004231499 172:0.0023149906 173:0.00022770399 174:0.00041745731 175:0.0014611005 176:0.0028083492 177:0.0022390892 178:0.0036053131 179:0.00064516132 180:0.001024668 181:0.15000001 182:0 183:0 184:0.050000001 185:0.050000001 186:0.050000001 187:0.050000001 188:0.15000001 189:0.050000001 190:0.050000001 191:0 192:0.1 193:0.050000001 194:0 195:0.050000001 196:0.15000001 197:0 198:0 199:0.050000001 200:0 201:0.0066223908 202:0.005540797 203:0.0044022771 204:0.0010626186 205:0.0081404177 206:0.00032258066 207:0.0049335863 208:0.0070777987 209:0.0041555976 210:0.0055977232 211:0.0096963951 212:0.0068880455 213:0.0030740038 214:0.0012144212 215:0.0029032258 216:0.0055028461 217:0.0030170777 218:0.0056736241 219:0.0043643266 220:0.0045730551 221:0.079999998 222:0.02 223:0 224:0.059999999 225:0.039999999 226:0.059999999 227:0.02 228:0.1 229:0.1 230:0.039999999 231:0.02 232:0.059999999 233:0.059999999 234:0.039999999 235:0.079999998 236:0.12 237:0 238:0 239:0.059999999 240:0.039999999 241:0.012732448 242:0.019070208 243:0.010967742 244:0.0021252371 245:0.011309298 246:0.0020113853 247:0.0096963951 248:0.008538899 249:0.0075521823 250:0.016812144 251:0.017115749 252:0.013833017 253:0.0042694495 254:0.0061290325 255:0.0063377609 256:0.0083491458 257:0.0069259964 258:0.0079316888 259:0.0076470589 260:0.009639469 261:0.050000001 262:0.029999999 263:0.02 264:0.050000001 265:0.02 266:0.050000001 267:0.02 268:0.079999998 269:0.07 270:0.07 271:0.039999999 272:0.090000004 273:0.1 274:0.039999999 275:0.11 276:0.079999998 277:0 278:0.0099999998 279:0.039999999 280:0.029999999 #DPOE2_HUMAN
-3.5933336808810243390155392262386 1:0.068205126 2:0.086978018 3:0.037747253 4:0.02062271 5:0.024761904 6:0.022417583 7:0.021446886 8:0.059157509 9:0.08214286 10:0.057838827 11:0.075659342 12:0.049285714 13:0.021886447 14:0.025109891 15:0.066465199 16:0.058479853 17:0.058296703 18:0.062692307 19:0.029981686 20:0.03514652 21:0.03119266 22:0.077064224 23:0.022018349 24:0.029357798 25:0.060550459 26:0.020183487 27:0.084403671 28:0.078899086 29:0.051376145 30:0.020183487 31:0.10275229 32:0.077064224 33:0.10091743 34:0.016513761 35:0.066055045 36:0.020183487 37:0.018348623 38:0.023853211 39:0.075229354 40:0.023853211 41:0.0018315018 42:0.0054945056 43:0.0018315018 44:0.0036630037 45:0 46:0.0018315018 47:0 48:0 49:0.0036630037 50:0.0036630037 51:0.0036630037 52:0.0018315018 53:0 54:0 55:0.0073260074 56:0.0018315018 57:0 58:0 59:0 60:0 61:0.050000001 62:0.2 63:0 64:0 65:0 66:0 67:0 68:0.1 69:0.050000001 70:0 71:0.15000001 72:0.050000001 73:0.15000001 74:0.050000001 75:0.1 76:0 77:0.050000001 78:0.050000001 79:0 80:0 81:0.0036630037 82:0.0054945056 83:0.0018315018 84:0.0036630037 85:0 86:0.0018315018 87:0 88:0.0054945056 89:0.010989011 90:0.0036630037 91:0.0073260074 92:0.0018315018 93:0 94:0.0036630037 95:0.010989011 96:0.0054945056 97:0.0054945056 98:0.0018315018 99:0 100:0 101:0.1 102:0.15000001 103:0.050000001 104:0 105:0.025 106:0 107:0.075000003 108:0.1 109:0.025 110:0 111:0.15000001 112:0.050000001 113:0.075000003 114:0.025 115:0.050000001 116:0 117:0.025 118:0.025 119:0.075000003 120:0 121:0.0036630037 122:0.0054945056 123:0.0030586082 124:0.0048901099 125:0 126:0.0018315018 127:0 128:0.0082417587 129:0.015879121 130:0.0067216116 131:0.010989011 132:0.0018315018 133:0.0030586082 134:0.0036630037 135:0.010989011 136:0.0091575095 137:0.0073260074 138:0.0030586082 139:0.0036630037 140:0.0018315018 141:0.083333336 142:0.1 143:0.033333335 144:0.016666668 145:0.033333335 146:0.033333335 147:0.06666667 148:0.1 149:0.016666668 150:0 151:0.16666667 152:0.033333335 153:0.050000001 154:0.033333335 155:0.06666667 156:0 157:0.033333335 158:0.016666668 159:0.083333336 160:0.033333335 161:0 162:0.0018315018 163:0.0018315018 164:0 165:0.0036630037 166:0 167:0 168:0 169:0.0054945056 170:0 171:0.0073260074 172:0.0018315018 173:0 174:0.0036630037 175:0.0018315018 176:0 177:0.0018315018 178:0 179:0.0036630037 180:0.0036630037 181:0 182:0.050000001 183:0.1 184:0.1 185:0 186:0.1 187:0.050000001 188:0.2 189:0.050000001 190:0 191:0.15000001 192:0 193:0.050000001 194:0.050000001 195:0 196:0.1 197:0 198:0 199:0 200:0 201:0.0031318681 202:0.0056043956 203:0.0026190476 204:0.0025091574 205:0.0039194138 206:0 207:0 208:0.0044505494 209:0.0076007326 210:0.0044505494 211:0.013589744 212:0.004194139 213:0.0020879121 214:0.0036630037 215:0.0061721611 216:0.0077106226 217:0.0091575095 218:0.001043956 219:0.004981685 220:0.0036630037 221:0.059999999 222:0.079999998 223:0.039999999 224:0.039999999 225:0 226:0.039999999 227:0.12 228:0.18000001 229:0.039999999 230:0 231:0.059999999 232:0.039999999 233:0.039999999 234:0.02 235:0.059999999 236:0.039999999 237:0.039999999 238:0 239:0.059999999 240:0.039999999 241:0.013553114 242:0.012234433 243:0.0037362638 244:0.0046153846 245:0.0070512821 246:0.0027655677 247:0.0037545788 248:0.010531136 249:0.015201465 250:0.010201465 251:0.016868131 252:0.013406593 253:0.0023443224 254:0.0063736262 255:0.009615385 256:0.013827839 257:0.013223443 258:0.0084615387 259:0.0073809526 260:0.0050549451 261:0.059999999 262:0.059999999 263:0.029999999 264:0.02 265:0.029999999 266:0.02 267:0.1 268:0.1 269:0.090000004 270:0.029999999 271:0.079999998 272:0.079999998 273:0.059999999 274:0.0099999998 275:0.059999999 276:0.039999999 277:0.029999999 278:0.0099999998 279:0.07 280:0.02 #MUTYH_HUMAN
-1.4071510958954622783068089120206 1:0.069708452 2:0.086807579 3:0.056253646 4:0.014431487 5:0.040072888 6:0.021384839 7:0.020685131 8:0.063586004 9:0.060262389 10:0.040291544 11:0.1001312 12:0.058965016 13:0.015451895 14:0.032201167 15:0.044314869 16:0.055670556 17:0.034664724 18:0.039956268 19:0.03909621 20:0.058046646 21:0.059854016 22:0.045255475 23:0.045255475 24:0.05109489 25:0.035036497 26:0.03941606 27:0.043795619 28:0.087591238 29:0.055474453 30:0.027737226 31:0.074452557 32:0.071532845 33:0.091970801 34:0.059854016 35:0.049635038 36:0.055474453 37:0.017518248 38:0.016058395 39:0.055474453 40:0.017518248 41:0.0034402332 42:0.00016034985 43:0.0016618075 44:0.0015160349 45:0.0025072887 46:0.00037900874 47:0.0010932945 48:0.0023469387 49:0.00074344024 50:0.0015451895 51:0.0019096209 52:0.0010495627 53:0.000728863 54:0.001851312 55:0.0030466472 56:0.0016763848 57:0.00074344024 58:0.0010495627 59:0.0008600583 60:0.00077259477 61:0.050000001 62:0.15000001 63:0.050000001 64:0 65:0.050000001 66:0.050000001 67:0 68:0.050000001 69:0 70:0.050000001 71:0 72:0.15000001 73:0 74:0.050000001 75:0.050000001 76:0.15000001 77:0 78:0 79:0.1 80:0.050000001 81:0.0058017494 82:0.0019533527 83:0.0029446064 84:0.0017638484 85:0.0037172011 86:0.00043731779 87:0.0015889213 88:0.0047959182 89:0.0042857141 90:0.0023906706 91:0.0063702622 92:0.0026822158 93:0.001180758 94:0.0023760933 95:0.0044460641 96:0.0025510204 97:0.001851312 98:0.0015451895 99:0.0020262392 100:0.0034256559 101:0.025 102:0.125 103:0.025 104:0.025 105:0.050000001 106:0.1 107:0.025 108:0.075000003 109:0.050000001 110:0.050000001 111:0.050000001 112:0.15000001 113:0.025 114:0.025 115:0.025 116:0.075000003 117:0 118:0 119:0.075000003 120:0.025 121:0.0066909622 122:0.0043877549 123:0.0046355687 124:0.0019241982 125:0.0046647228 126:0.0020991254 127:0.0020553935 128:0.0074489797 129:0.0054081632 130:0.003148688 131:0.0083381925 132:0.0049854228 133:0.0017055394 134:0.00393586 135:0.0053352769 136:0.0042565595 137:0.0031341107 138:0.0035276967 139:0.0032507288 140:0.0049271137 141:0.033333335 142:0.1 143:0.033333335 144:0.016666668 145:0.06666667 146:0.1 147:0.033333335 148:0.083333336 149:0.033333335 150:0.06666667 151:0.050000001 152:0.1 153:0.033333335 154:0.033333335 155:0.033333335 156:0.1 157:0 158:0 159:0.06666667 160:0.016666668 161:0.0010349854 162:0.0024489795 163:0.0022886298 164:0.00071428571 165:0.001851312 166:0.00029154518 167:0.00052478135 168:0.0015451895 169:0.00196793 170:0.0044023325 171:0.00084548106 172:0.0017055394 173:0 174:0.000728863 175:0.00083090377 176:0.0036297375 177:0.0011370262 178:0.00051020406 179:0.00071428571 180:0.0016618075 181:0.2 182:0 183:0 184:0.1 185:0 186:0 187:0.050000001 188:0 189:0.050000001 190:0 191:0.050000001 192:0 193:0.1 194:0.15000001 195:0.2 196:0.050000001 197:0 198:0 199:0.050000001 200:0 201:0.0054227407 202:0.0088775512 203:0.0048542274 204:0.0017055394 205:0.0043877549 206:0.00058309035 207:0.0015160349 208:0.0027259474 209:0.0044169095 210:0.0058600581 211:0.0042711371 212:0.0037609329 213:0.00030612244 214:0.0022886298 215:0.0031632653 216:0.0074344021 217:0.0018367347 218:0.003542274 219:0.0022448979 220:0.0035276967 221:0.14 222:0.039999999 223:0.02 224:0.079999998 225:0.039999999 226:0 227:0.02 228:0.02 229:0.059999999 230:0.02 231:0.079999998 232:0.039999999 233:0.14 234:0.1 235:0.1 236:0.059999999 237:0.02 238:0 239:0.02 240:0 241:0.0092711374 242:0.016209913 243:0.0087609328 244:0.0032653061 245:0.0074344021 246:0.0014139941 247:0.0030174928 248:0.0051020407 249:0.0063702622 250:0.011676385 251:0.011705539 252:0.0068658893 253:0.0014868805 254:0.0044897958 255:0.0078279879 256:0.012346939 257:0.0043731779 258:0.0073032072 259:0.0072886297 260:0.0081778429 261:0.1 262:0.059999999 263:0.039999999 264:0.079999998 265:0.029999999 266:0.029999999 267:0.0099999998 268:0.039999999 269:0.050000001 270:0.029999999 271:0.050000001 272:0.029999999 273:0.13 274:0.090000004 275:0.12 276:0.059999999 277:0.029999999 278:0 279:0.0099999998 280:0.0099999998 #CIR1A_HUMAN
3.6713238818120039752557204337791 1:0.05801636 2:0.10449897 3:0.055296525 4:0.028507158 5:0.050102249 6:0.013190184 7:0.029693251 8:0.055521473 9:0.056687117 10:0.05165644 11:0.05793456 12:0.051186096 13:0.012065439 14:0.022351738 15:0.062310837 16:0.057423312 17:0.032167688 18:0.060879346 19:0.037218813 20:0.046564419 21:0.040983606 22:0.088114753 23:0.016393442 24:0.051229507 25:0.05532787 26:0.036885247 27:0.05532787 28:0.063524589 29:0.05532787 30:0.034836065 31:0.071721308 32:0.057377048 33:0.1352459 34:0.047131147 35:0.05532787 36:0.030737706 37:0.018442623 38:0.014344262 39:0.057377048 40:0.014344262 41:0.0016155419 42:0.0077096117 43:0.0012474437 44:0.0013087934 45:0.0010838446 46:0.00022494888 47:0.0014314929 48:0.000797546 49:0.0028834357 50:0.0020449897 51:0.0043353783 52:0.0043558283 53:0.001206544 54:0.00092024542 55:0.0024744377 56:0.0040695295 57:0.0011656441 58:0.00049079757 59:0.0011042944 60:4.0899795e-05 61:0.15000001 62:0.050000001 63:0 64:0 65:0 66:0 67:0.050000001 68:0.1 69:0.15000001 70:0.050000001 71:0.050000001 72:0 73:0.15000001 74:0.050000001 75:0.050000001 76:0.050000001 77:0 78:0 79:0 80:0.1 81:0.0025971371 82:0.012822086 83:0.0041308794 84:0.0020654397 85:0.0035378323 86:0.00096114521 87:0.0033946831 88:0.0059100203 89:0.0038036809 90:0.00803681 91:0.0068507157 92:0.0050102249 93:0.0016564417 94:0.0015132924 95:0.0038445808 96:0.0053987731 97:0.0016564417 98:0.0013701431 99:0.0025562372 100:0.00053169735 101:0.075000003 102:0.050000001 103:0 104:0 105:0 106:0.050000001 107:0.050000001 108:0.050000001 109:0.075000003 110:0.075000003 111:0.050000001 112:0 113:0.125 114:0.050000001 115:0.125 116:0.050000001 117:0.025 118:0 119:0.1 120:0.050000001 121:0.0034355829 122:0.01601227 123:0.0058691208 124:0.0031492843 125:0.0054396726 126:0.0019631903 127:0.0053578732 128:0.0087116566 129:0.0054601226 130:0.0089570554 131:0.0087321065 132:0.006359918 133:0.0021472392 134:0.0030061349 135:0.0062167691 136:0.0074846623 137:0.003210634 138:0.0032719837 139:0.0047443761 140:0.0016768916 141:0.083333336 142:0.050000001 143:0.016666668 144:0.016666668 145:0.016666668 146:0.033333335 147:0.06666667 148:0.06666667 149:0.050000001 150:0.083333336 151:0.050000001 152:0 153:0.11666667 154:0.050000001 155:0.083333336 156:0.033333335 157:0.016666668 158:0.016666668 159:0.11666667 160:0.033333335 161:0.0029243354 162:0.005582822 163:0.0025153374 164:0.001002045 165:0.001002045 166:0.00026584868 167:0.00040899796 168:0.0011247444 169:0.0012883436 170:0.00398773 171:0.0013701431 172:0.0018609407 173:0.00018404907 174:0.00047034764 175:0.0053169732 176:0.0040695295 177:0.00096114521 178:0.002801636 179:0.0011656441 180:0.0015746421 181:0.050000001 182:0.15000001 183:0 184:0.1 185:0.050000001 186:0.050000001 187:0 188:0 189:0.050000001 190:0 191:0.050000001 192:0.050000001 193:0.25 194:0.1 195:0.1 196:0 197:0 198:0 199:0 200:0 201:0.0070961146 202:0.014253579 203:0.0059100203 204:0.0037014314 205:0.0047239265 206:0.0012883436 207:0.0020449897 208:0.003599182 209:0.0059918202 210:0.0058077709 211:0.0043353783 212:0.004764826 213:0.00063394685 214:0.0015541923 215:0.0082004089 216:0.0073006134 217:0.0031492843 218:0.0073006134 219:0.0031492843 220:0.0043967282 221:0.039999999 222:0.1 223:0.02 224:0.079999998 225:0.1 226:0.039999999 227:0.02 228:0.039999999 229:0.02 230:0.02 231:0.039999999 232:0.039999999 233:0.22 234:0.079999998 235:0.039999999 236:0 237:0.039999999 238:0.02 239:0.039999999 240:0 241:0.010531697 242:0.020633947 243:0.0099795498 244:0.0057873209 245:0.013619632 246:0.0037014314 247:0.0052760737 248:0.011820041 249:0.011411043 250:0.015766872 251:0.0093456032 252:0.0073619634 253:0.0030674846 254:0.0044580777 255:0.016503068 256:0.011635992 257:0.0057055214 258:0.014335378 259:0.00805726 260:0.0099182008 261:0.02 262:0.12 263:0.039999999 264:0.059999999 265:0.059999999 266:0.039999999 267:0.059999999 268:0.029999999 269:0.0099999998 270:0.02 271:0.059999999 272:0.039999999 273:0.18000001 274:0.050000001 275:0.059999999 276:0.029999999 277:0.039999999 278:0.02 279:0.039999999 280:0.02 #CP302_DROME
3.3430098447543028505890561064007 1:0.060814817 2:0.097629629 3:0.045975309 4:0.012716049 5:0.049308643 6:0.024493827 7:0.042049382 8:0.054740742 9:0.059876543 10:0.047283951 11:0.061530866 12:0.053530864 13:0.018592592 14:0.038913582 15:0.056814816 16:0.053382717 17:0.041777778 18:0.055604938 19:0.04348148 20:0.061728396 21:0.049504951 22:0.071782179 23:0.047029704 24:0.056930695 25:0.054455444 26:0.03960396 27:0.047029704 28:0.047029704 29:0.069306932 30:0.051980197 31:0.047029704 32:0.064356439 33:0.11386139 34:0.03960396 35:0.037128713 36:0.047029704 37:0.0074257427 38:0.027227722 39:0.056930695 40:0.024752475 41:0.0019753086 42:0.0093827164 43:0.0024691359 44:0.00049382716 45:0.002962963 46:0 47:0.0019753086 48:0.0054320986 49:0.0024691359 50:0.0083950618 51:0.002962963 52:0 53:0 54:0.00049382716 55:0.00098765432 56:0.0049382718 57:0.0019753086 58:0 59:0.0019753086 60:0.00049382716 61:0.1 62:0.1 63:0.050000001 64:0.050000001 65:0 66:0 67:0 68:0.1 69:0 70:0 71:0.050000001 72:0 73:0.15000001 74:0.050000001 75:0.050000001 76:0.15000001 77:0 78:0 79:0.15000001 80:0 81:0.0055061728 82:0.013876543 83:0.0024691359 84:0.00076543208 85:0.0040000002 86:0.0047407406 87:0.0025925925 88:0.0061481483 89:0.0093827164 90:0.0094814813 91:0.0080493828 92:0.0035555556 93:0.002271605 94:0.0085185189 95:0.00098765432 96:0.0065185186 97:0.0043209875 98:0.0010617283 99:0.0031604939 100:0.0012592593 101:0.075000003 102:0.050000001 103:0.125 104:0.025 105:0.025 106:0.025 107:0.025 108:0.125 109:0.050000001 110:0 111:0.050000001 112:0.025 113:0.1 114:0.025 115:0.025 116:0.075000003 117:0 118:0.050000001 119:0.075000003 120:0.050000001 121:0.008987654 122:0.020518519 123:0.0045679011 124:0.0014320988 125:0.0070123458 126:0.0068888888 127:0.0056049381 128:0.0068888888 129:0.010814815 130:0.010938272 131:0.011037037 132:0.0058518518 133:0.0025432098 134:0.0099753086 135:0.0020246913 136:0.0088148145 137:0.0059753088 138:0.0053333333 139:0.0052839508 140:0.004148148 141:0.050000001 142:0.06666667 143:0.1 144:0.050000001 145:0.033333335 146:0.016666668 147:0.033333335 148:0.1 149:0.050000001 150:0.033333335 151:0.050000001 152:0.050000001 153:0.11666667 154:0.016666668 155:0.016666668 156:0.06666667 157:0.016666668 158:0.050000001 159:0.050000001 160:0.033333335 161:0.0033827161 162:0.0080000004 163:0.0021234567 164:0.00049382716 165:0.0017283951 166:0.0010617283 167:0.0030864198 168:0.0045432099 169:0.0050864196 170:0.000345679 171:0.0026666666 172:0.0014320988 173:0.00093827158 174:0.00046913579 175:0.0048148148 176:0.0012592593 177:0.0016049383 178:0.00056790124 179:0.0010123457 180:0.0045925924 181:0 182:0.1 183:0.050000001 184:0.1 185:0 186:0.050000001 187:0 188:0 189:0.1 190:0.050000001 191:0.1 192:0.050000001 193:0.2 194:0.050000001 195:0 196:0 197:0 198:0 199:0.1 200:0.050000001 201:0.0082716048 202:0.015604938 203:0.0053580245 204:0.0024444445 205:0.0070370371 206:0.0029876544 207:0.0045432099 208:0.01054321 209:0.0075061726 210:0.0024444445 211:0.0057283952 212:0.0057037035 213:0.0030617283 214:0.0035061729 215:0.014320987 216:0.0046666665 217:0.0034567902 218:0.0033580246 219:0.0047407406 220:0.0075555556 221:0.059999999 222:0.1 223:0.039999999 224:0.059999999 225:0.02 226:0.039999999 227:0.02 228:0.02 229:0.059999999 230:0.039999999 231:0.039999999 232:0.079999998 233:0.16 234:0.039999999 235:0.02 236:0.039999999 237:0 238:0.02 239:0.1 240:0.039999999 241:0.015950616 242:0.022716049 243:0.010765432 244:0.0041975309 245:0.01328395 246:0.0069135805 247:0.011432099 248:0.014148148 249:0.01491358 250:0.0084444443 251:0.011876543 252:0.010691358 253:0.0040246914 254:0.0061728396 255:0.024543209 256:0.010246914 257:0.0090864198 258:0.012962963 259:0.013407407 260:0.015135802 261:0.039999999 262:0.12 263:0.029999999 264:0.050000001 265:0.050000001 266:0.07 267:0.0099999998 268:0.0099999998 269:0.07 270:0.079999998 271:0.050000001 272:0.079999998 273:0.13 274:0.039999999 275:0.039999999 276:0.02 277:0 278:0.039999999 279:0.050000001 280:0.02 #TMLH_RAT   
1.6858529901480949764192018847098 1:0.073360324 2:0.091133602 3:0.053825911 4:0.017327935 5:0.032388665 6:0.021093117 7:0.020991903 8:0.076417007 9:0.06757085 10:0.058056679 11:0.066983804 12:0.053603239 13:0.011821862 14:0.020728745 15:0.068866394 16:0.058421053 17:0.029595142 18:0.058259111 19:0.03742915 20:0.052388664 21:0.034482758 22:0.083164297 23:0.022312373 24:0.046653144 25:0.05882353 26:0.018255578 27:0.042596348 28:0.060851928 29:0.062880322 30:0.01622718 31:0.070993915 32:0.093306288 33:0.10750507 34:0.034482758 35:0.085192695 36:0.030425964 37:0.0060851928 38:0.020283977 39:0.09127789 40:0.014198783 41:0.00028340082 42:0.0017206478 43:0 44:0.0023076923 45:0 46:0.010121457 47:0 48:0.0012348178 49:0.0028947368 50:0.0055668014 51:0.0041295546 52:0.0023076923 53:0.0020242915 54:0.00034412954 55:0.0075101214 56:0 57:0 58:0 59:0 60:0 61:0 62:0.15000001 63:0.050000001 64:0 65:0 66:0 67:0 68:0.15000001 69:0 70:0 71:0.1 72:0 73:0.050000001 74:0 75:0.15000001 76:0 77:0 78:0.25 79:0.050000001 80:0.050000001 81:0.001194332 82:0.0021659918 83:0.0015789474 84:0.0023076923 85:0.0026720648 86:0.010283401 87:0.00018218624 88:0.0033603238 89:0.0037246963 90:0.0097165992 91:0.011194332 92:0.0071862349 93:0.0026923076 94:0.0016801619 95:0.010202429 96:0.0011336033 97:0.0034008098 98:0.00085020246 99:0.0012955465 100:8.0971658e-05 101:0.050000001 102:0.1 103:0.025 104:0 105:0.025 106:0 107:0.050000001 108:0.15000001 109:0.1 110:0 111:0.050000001 112:0 113:0.025 114:0 115:0.15000001 116:0.050000001 117:0 118:0.125 119:0.050000001 120:0.050000001 121:0.0045951419 122:0.0061336034 123:0.0045951419 124:0.0025101216 125:0.0039473684 126:0.010283401 127:0.0018016194 128:0.0097570848 129:0.0097570848 130:0.01291498 131:0.01368421 132:0.008562753 133:0.0038866396 134:0.0026113361 135:0.011032389 136:0.0026315791 137:0.0050404859 138:0.00091093115 139:0.0018016194 140:0.00064777327 141:0.050000001 142:0.06666667 143:0.033333335 144:0 145:0.016666668 146:0 147:0.06666667 148:0.11666667 149:0.083333336 150:0.016666668 151:0.06666667 152:0.033333335 153:0.050000001 154:0.016666668 155:0.11666667 156:0.050000001 157:0 158:0.083333336 159:0.083333336 160:0.050000001 161:0.0021255061 162:0.0061133602 163:0.0018421053 164:0.0018218623 165:0.00072874496 166:0.00018218624 167:0 168:0.0035222671 169:0.0010323887 170:0.0017408907 171:0.0013765182 172:0.0014979757 173:6.0728744e-05 174:0.0021457491 175:0.0038259109 176:0.0051821861 177:0.0010323887 178:0.0043724696 179:0.00062753039 180:0.001194332 181:0.1 182:0.2 183:0.050000001 184:0.050000001 185:0.1 186:0 187:0 188:0 189:0.050000001 190:0 191:0 192:0.050000001 193:0.2 194:0 195:0.050000001 196:0 197:0.050000001 198:0 199:0.1 200:0 201:0.0060931174 202:0.010748988 203:0.0046558706 204:0.0021862348 205:0.0021255061 206:0.0031781376 207:0.00042510123 208:0.0075101214 209:0.0049797571 210:0.0028947368 211:0.0050809719 212:0.0033198381 213:0.00012145749 214:0.0029959513 215:0.0081174085 216:0.010789474 217:0.0037651821 218:0.011578947 219:0.0023279353 220:0.0057085021 221:0.059999999 222:0.14 223:0.02 224:0.059999999 225:0.1 226:0.02 227:0.039999999 228:0.079999998 229:0.02 230:0 231:0.039999999 232:0.079999998 233:0.14 234:0 235:0.039999999 236:0.02 237:0.02 238:0.02 239:0.1 240:0 241:0.013360324 242:0.018016195 243:0.011052632 244:0.0044129556 245:0.0044129556 246:0.0056275302 247:0.0034817813 248:0.019858299 249:0.014068826 250:0.0070647774 251:0.012530364 252:0.012469635 253:0.001659919 254:0.0043927124 255:0.011052632 256:0.015263158 257:0.0063562752 258:0.013927125 259:0.0059514171 260:0.011518219 261:0.050000001 262:0.090000004 263:0.0099999998 264:0.050000001 265:0.059999999 266:0.0099999998 267:0.029999999 268:0.079999998 269:0.07 270:0.02 271:0.050000001 272:0.07 273:0.14 274:0.02 275:0.059999999 276:0.02 277:0.02 278:0.02 279:0.12 280:0.0099999998 #ADRO_MOUSE 
-1.3770287884397647282241905486444 1:0.055737514 2:0.092891984 3:0.053844366 4:0.01680604 5:0.02738676 6:0.007084785 7:0.02097561 8:0.041219514 9:0.065749131 10:0.057990707 11:0.089326367 12:0.059674796 13:0.017979095 14:0.019384436 15:0.070778161 16:0.08343786 17:0.041324042 18:0.072833911 19:0.033681765 20:0.046887342 21:0.068604648 22:0.08139535 23:0.024418605 24:0.043023255 25:0.074418604 26:0.027906977 27:0.05232558 28:0.089534886 29:0.060465116 30:0.022093024 31:0.077906974 32:0.055813953 33:0.10232558 34:0.048837211 35:0.065116279 36:0.025581395 37:0.017441861 38:0.0081395349 39:0.032558139 40:0.022093024 41:0.0011614402 42:0.00077816495 43:0.00040650406 44:0.0012891986 45:0.00029036004 46:0.0011614402 47:0.0026016261 48:0.0011614402 49:0.0011149825 50:0.0017421603 51:0.0013356563 52:0.0028803716 53:0 54:0.00083623693 55:0.0036353078 56:0.0023461091 57:0.00038327527 58:0 59:0.00012775842 60:0 61:0.1 62:0.15000001 63:0.050000001 64:0 65:0 66:0 67:0 68:0.050000001 69:0.15000001 70:0.1 71:0.050000001 72:0.050000001 73:0.1 74:0 75:0.1 76:0 77:0 78:0.050000001 79:0.050000001 80:0 81:0.0019279907 82:0.0042624855 83:0.001300813 84:0.002195122 85:0.00029036004 86:0.0011614402 87:0.0045412313 88:0.002833914 89:0.0011149825 90:0.0017421603 91:0.0026132404 92:0.0042973286 93:0.00051103369 94:0.0017421603 95:0.0058188154 96:0.004796748 97:0.001416957 98:0.0018118467 99:0.00038327527 100:0.0016724739 101:0.1 102:0.125 103:0.050000001 104:0.025 105:0.050000001 106:0 107:0.025 108:0.025 109:0.125 110:0.1 111:0.025 112:0.050000001 113:0.1 114:0 115:0.050000001 116:0 117:0.025 118:0.025 119:0.050000001 120:0.050000001 121:0.003728223 122:0.0056794425 123:0.0049128919 124:0.002195122 125:0.0013240419 126:0.0011614402 127:0.004796748 128:0.0054123113 129:0.001242741 130:0.0019976771 131:0.0035191637 132:0.0057142857 133:0.0014053426 134:0.0023925668 135:0.0062020905 136:0.0049245064 137:0.0029732869 138:0.0046457606 139:0.00089430896 140:0.0042624855 141:0.06666667 142:0.083333336 143:0.050000001 144:0.06666667 145:0.083333336 146:0 147:0.050000001 148:0.033333335 149:0.1 150:0.06666667 151:0.016666668 152:0.050000001 153:0.083333336 154:0.06666667 155:0.033333335 156:0.016666668 157:0.016666668 158:0.016666668 159:0.06666667 160:0.033333335 161:0.0019047619 162:0.0033217189 163:0.0011962834 164:0.00046457606 165:0.00094076653 166:2.3228804e-05 167:0.00040650406 168:0.00016260163 169:0.0016144018 170:0.00022067364 171:0.0012311266 172:0.0007084785 173:0.00015098722 174:0.00041811846 175:0.0015447155 176:0.0024738675 177:0.0010452962 178:0.0019860626 179:0.00073170732 180:0.0026713125 181:0.050000001 182:0.1 183:0 184:0.15000001 185:0.050000001 186:0.050000001 187:0.050000001 188:0.050000001 189:0 190:0.050000001 191:0.050000001 192:0.15000001 193:0.25 194:0 195:0 196:0 197:0 198:0 199:0 200:0 201:0.003379791 202:0.0086411154 203:0.0029268293 204:0.0014285714 205:0.0017653891 206:0.00013937282 207:0.00083623693 208:0.0032171893 209:0.0037746807 210:0.0018118467 211:0.0040069688 212:0.0022648084 213:0.0019744483 214:0.00085946574 215:0.0035888501 216:0.0047154473 217:0.0022531939 218:0.0044831592 219:0.0015795587 220:0.0041463412 221:0.02 222:0.079999998 223:0.02 224:0.079999998 225:0.059999999 226:0.039999999 227:0.02 228:0.1 229:0.039999999 230:0.039999999 231:0.039999999 232:0.1 233:0.2 234:0 235:0.059999999 236:0 237:0.039999999 238:0 239:0.02 240:0.039999999 241:0.0074564461 242:0.016062718 243:0.0072125434 244:0.0029616724 245:0.0038908247 246:0.00034843205 247:0.0026364692 248:0.0057142857 249:0.0079442505 250:0.0030662022 251:0.0084901275 252:0.0054355399 253:0.0038327526 254:0.0020789779 255:0.0072009293 256:0.0088850176 257:0.0056562135 258:0.0082810689 259:0.0031126598 260:0.0054471544 261:0.02 262:0.079999998 263:0.02 264:0.039999999 265:0.079999998 266:0.029999999 267:0.050000001 268:0.11 269:0.039999999 270:0.039999999 271:0.07 272:0.07 273:0.16 274:0.039999999 275:0.029999999 276:0.029999999 277:0.029999999 278:0 279:0.029999999 280:0.029999999 #ORC1_HUMAN 
-0.61780788555178767218478697031969 1:0.058387097 2:0.075299539 3:0.053732719 4:0.033778802 5:0.029170508 6:0.0046082949 7:0.0092165899 8:0.021520738 9:0.039907835 10:0.076774195 11:0.079907835 12:0.079907835 13:0.021520738 14:0.049078342 15:0.064516127 16:0.067603685 17:0.041520737 18:0.076820277 19:0.076820277 20:0.036866359 21:0.069444448 22:0.064814813 23:0.041666668 24:0.037037037 25:0.078703701 26:0.078703701 27:0.046296295 28:0.083333336 29:0.083333336 30:0.0092592593 31:0.037037037 32:0.060185187 33:0.078703701 34:0.050925925 35:0.074074075 36:0.027777778 37:0.027777778 38:0.0046296297 39:0.023148147 40:0.023148147 41:0 42:0.0046082949 43:0.0046082949 44:0.0046082949 45:0 46:0 47:0 48:0 49:0 50:0.0092165899 51:0.0030875576 52:0.02764977 53:0.0015207373 54:0 55:0.0092165899 56:0.0076958523 57:0.0015207373 58:0.0046082949 59:0.013824885 60:0 61:0.1 62:0.1 63:0 64:0 65:0.050000001 66:0.15000001 67:0 68:0.050000001 69:0.30000001 70:0 71:0 72:0 73:0.1 74:0.050000001 75:0.1 76:0 77:0 78:0 79:0 80:0 81:0.0092165899 82:0.013824885 83:0.0046082949 84:0.0046082949 85:0 86:0.0046082949 87:0 88:0 89:0 90:0.0092165899 91:0.01078341 92:0.042995393 93:0.0061290325 94:0 95:0.023041476 96:0.016912442 97:0.0015207373 98:0.0092165899 99:0.02764977 100:0 101:0.1 102:0.125 103:0 104:0 105:0.050000001 106:0.15000001 107:0 108:0.075000003 109:0.22499999 110:0 111:0 112:0.050000001 113:0.075000003 114:0.025 115:0.075000003 116:0 117:0 118:0.025 119:0 120:0.025 121:0.0092165899 122:0.01843318 123:0.013824885 124:0.0092165899 125:0.0092165899 126:0.0046082949 127:0 128:0.0092165899 129:0 130:0.023041476 131:0.021520738 132:0.047603685 133:0.0061290325 134:0 135:0.02764977 136:0.021520738 137:0.0015207373 138:0.013824885 139:0.039953917 140:0 141:0.083333336 142:0.1 143:0 144:0 145:0.050000001 146:0.15000001 147:0 148:0.083333336 149:0.16666667 150:0 151:0 152:0.033333335 153:0.06666667 154:0.050000001 155:0.083333336 156:0.033333335 157:0.016666668 158:0.016666668 159:0.050000001 160:0.016666668 161:0.0046082949 162:0.013824885 163:0.0092165899 164:0.0046082949 165:0 166:0 167:0 168:0.0046082949 169:0.0015207373 170:0 171:0 172:0.0076958523 173:0.0046082949 174:0.0030875576 175:0.0046082949 176:0.0046082949 177:0.0015207373 178:0.0046082949 179:0.0092165899 180:0.013824885 181:0.050000001 182:0.050000001 183:0.050000001 184:0.15000001 185:0.050000001 186:0.1 187:0 188:0 189:0.1 190:0 191:0 192:0.050000001 193:0.15000001 194:0.1 195:0 196:0 197:0.050000001 198:0 199:0.050000001 200:0.050000001 201:0.01843318 202:0.035345621 203:0.013824885 204:0.010737327 205:0.0046082949 206:0 207:0.0046082949 208:0.0092165899 209:0.015345622 210:0 211:0.0046082949 212:0.012304148 213:0.0046082949 214:0.012304148 215:0.0092165899 216:0.0061290325 217:0.0015207373 218:0.026129032 219:0.01843318 220:0.023041476 221:0.02 222:0.039999999 223:0.059999999 224:0.1 225:0.12 226:0.079999998 227:0 228:0.02 229:0.059999999 230:0.02 231:0.059999999 232:0.079999998 233:0.16 234:0.059999999 235:0 236:0.02 237:0.039999999 238:0 239:0.039999999 240:0.02 241:0.03529954 242:0.047649771 243:0.029170508 244:0.019953918 245:0.0061290325 246:0 247:0.0092165899 248:0.0092165899 249:0.032258064 250:0.0046082949 251:0.049170505 252:0.021520738 253:0.012304148 254:0.021520738 255:0.023041476 256:0.015345622 257:0.0061290325 258:0.044562213 259:0.036866359 260:0.036866359 261:0.029999999 262:0.050000001 263:0.050000001 264:0.079999998 265:0.1 266:0.079999998 267:0.0099999998 268:0.11 269:0.050000001 270:0.02 271:0.07 272:0.07 273:0.11 274:0.059999999 275:0.0099999998 276:0.0099999998 277:0.039999999 278:0 279:0.02 280:0.029999999 #MTRM_DROME 
-0.30742151649882842878724886759301 1:0.051686462 2:0.1091449 3:0.047054633 4:0.021235155 5:0.045368172 6:0.0043705464 7:0.02831354 8:0.039976247 9:0.04591449 10:0.039287411 11:0.081710212 12:0.049738716 13:0.014726841 14:0.022019003 15:0.056864608 16:0.058741093 17:0.040997624 18:0.047719713 19:0.055486936 20:0.059524942 21:0.047619049 22:0.061904762 23:0.033333335 24:0.05952381 25:0.054761905 26:0.052380953 27:0.035714287 28:0.08809524 29:0.06666667 30:0.040476192 31:0.040476192 32:0.083333336 33:0.083333336 34:0.057142857 35:0.035714287 36:0.064285718 37:0.026190476 38:0.0023809525 39:0.050000001 40:0.016666668 41:0.0011876485 42:0.001567696 43:0.0043230406 44:0.002375297 45:0.00059382425 46:0 47:0.0017814727 48:0.0039667459 49:0.0015914489 50:0.00040380048 51:0.0057244655 52:0.0013776722 53:0 54:0 55:0.010095011 56:0.0025653206 57:0.0021852732 58:0.0019952494 59:0.0037767221 60:0 61:0 62:0.25 63:0.050000001 64:0 65:0.050000001 66:0.1 67:0.050000001 68:0.15000001 69:0 70:0.050000001 71:0 72:0 73:0.1 74:0.050000001 75:0 76:0 77:0 78:0 79:0.15000001 80:0 81:0.0033491687 82:0.005320665 83:0.0057719713 84:0.0031591449 85:0.0016864608 86:0 87:0.0027078385 88:0.004750594 89:0.0041567697 90:0.0061520189 91:0.01327791 92:0.0040380047 93:0.00014251782 94:0.0033729216 95:0.011116389 96:0.0066033253 97:0.0043942994 98:0.0043467935 99:0.0070546316 100:0.00071258907 101:0.025 102:0.175 103:0.075000003 104:0 105:0.050000001 106:0.075000003 107:0.050000001 108:0.175 109:0.050000001 110:0.025 111:0.025 112:0.025 113:0.075000003 114:0.050000001 115:0.050000001 116:0 117:0 118:0 119:0.075000003 120:0 121:0.0065320665 122:0.013064133 123:0.0069833728 124:0.0057719713 125:0.0023277909 126:0 127:0.0046793348 128:0.0056532067 129:0.0068883612 130:0.006247031 131:0.015486936 132:0.0054869358 133:0.00090261281 134:0.0040142518 135:0.014109263 136:0.010546318 137:0.0087410929 138:0.0069833728 139:0.0099762473 140:0.0047268406 141:0.016666668 142:0.11666667 143:0.050000001 144:0.06666667 145:0.033333335 146:0.06666667 147:0.050000001 148:0.13333334 149:0.050000001 150:0.033333335 151:0.033333335 152:0.11666667 153:0.083333336 154:0.033333335 155:0.033333335 156:0 157:0 158:0 159:0.06666667 160:0.016666668 161:0.0021140142 162:0.0039667459 163:0.0015914489 164:0.0010213776 165:0.0016864608 166:0 167:0.0015914489 168:0.0017814727 169:0.0025178147 170:0.00068883609 171:0.003064133 172:0.0049168644 173:0 174:0.00066508312 175:0.0034679335 176:0.0034679335 177:0.0049643707 178:0.0023990499 179:0.00057007128 180:0.006817102 181:0.050000001 182:0.15000001 183:0 184:0.15000001 185:0.050000001 186:0 187:0.1 188:0.050000001 189:0.1 190:0.050000001 191:0.050000001 192:0.050000001 193:0.050000001 194:0.050000001 195:0 196:0 197:0.050000001 198:0 199:0.050000001 200:0 201:0.0090973871 202:0.009263658 203:0.0075771972 204:0.0025415677 205:0.0080047511 206:0.00019002375 207:0.0025890737 208:0.0054869358 209:0.0077197151 210:0.0034679335 211:0.0093349172 212:0.0099049881 213:0.0011401426 214:0.0010688836 215:0.0093586696 216:0.0045368173 217:0.0062232781 218:0.0040617576 219:0.0049406174 220:0.010451307 221:0.039999999 222:0.1 223:0 224:0.1 225:0.039999999 226:0.02 227:0.059999999 228:0.079999998 229:0.079999998 230:0.039999999 231:0.059999999 232:0.079999998 233:0.039999999 234:0.059999999 235:0.02 236:0.059999999 237:0.059999999 238:0 239:0.059999999 240:0 241:0.01807601 242:0.022422804 243:0.01087886 244:0.0049168644 245:0.015771972 246:0.0012826603 247:0.0041092639 248:0.011805226 249:0.012470309 250:0.008171021 251:0.02023753 252:0.01935867 253:0.0024465558 254:0.0061045131 255:0.012612826 256:0.0098574823 257:0.010665083 258:0.0095724463 259:0.0094299288 260:0.017173396 261:0.029999999 262:0.07 263:0.029999999 264:0.079999998 265:0.050000001 266:0.02 267:0.029999999 268:0.07 269:0.1 270:0.02 271:0.07 272:0.079999998 273:0.090000004 274:0.050000001 275:0.039999999 276:0.07 277:0.039999999 278:0 279:0.059999999 280:0 #NXF2_CAEEL 
2.5142623562611303711378241132479 1:0.053809524 2:0.091020405 3:0.064489797 4:0.026258504 5:0.041156463 6:0.00068027212 7:0.047142856 8:0.045034014 9:0.069047622 10:0.058503401 11:0.046802722 12:0.057142857 13:0.0087755099 14:0.026462585 15:0.070204079 16:0.089727893 17:0.042448979 18:0.069795921 19:0.029727891 20:0.05680272 21:0.09589041 22:0.075342469 23:0.034246575 24:0.047945205 25:0.09589041 26:0.020547945 27:0.04109589 28:0.04109589 29:0.04109589 30:0.04109589 31:0.06849315 32:0.047945205 33:0.089041099 34:0.089041099 35:0.06849315 36:0.04109589 37:0.006849315 38:0 39:0.047945205 40:0.006849315 41:0.0076190475 42:0.019523809 43:0.0078231292 44:0.014285714 45:0.0013605442 46:0 47:0.0068027209 48:0.0011564626 49:0.011156462 50:0.01414966 51:0.010408163 52:0.0062585035 53:0 54:0 55:0.010544218 56:0.0067346939 57:0.0051700682 58:0.010204081 59:0 60:0.0028571428 61:0 62:0.1 63:0 64:0 65:0.1 66:0 67:0.050000001 68:0.1 69:0 70:0.050000001 71:0.050000001 72:0.1 73:0.25 74:0.050000001 75:0.15000001 76:0 77:0 78:0 79:0 80:0 81:0.014421768 82:0.035850339 83:0.025918368 84:0.015986394 85:0.00414966 86:0 87:0.0068027209 88:0.013605442 89:0.023673469 90:0.01414966 91:0.013197279 92:0.018163266 93:0 94:0.0027891155 95:0.025306122 96:0.018639456 97:0.0051700682 98:0.018707482 99:0.0039455784 100:0.011360544 101:0.050000001 102:0.125 103:0 104:0.025 105:0.1 106:0.025 107:0.025 108:0.075000003 109:0.025 110:0.025 111:0.050000001 112:0.050000001 113:0.175 114:0.125 115:0.075000003 116:0 117:0 118:0 119:0.050000001 120:0 121:0.022380952 122:0.051700681 123:0.028163265 124:0.016530612 125:0.0069387755 126:0 127:0.011360544 128:0.024353741 129:0.031632654 130:0.024965987 131:0.02170068 132:0.024965987 133:0 134:0.016394557 135:0.037755102 136:0.02829932 137:0.010136055 138:0.026054421 139:0.011836735 140:0.012517007 141:0.050000001 142:0.11666667 143:0.050000001 144:0.016666668 145:0.1 146:0.016666668 147:0.016666668 148:0.083333336 149:0.016666668 150:0.016666668 151:0.050000001 152:0.083333336 153:0.15000001 154:0.083333336 155:0.06666667 156:0 157:0 158:0 159:0.083333336 160:0 161:0.0045578233 162:0.0068027209 163:0 164:0 165:0.013605442 166:0 167:0.020408163 168:0.0068027209 169:0.0011564626 170:0.0068027209 171:0.0034013605 172:0.0068027209 173:0 174:0 175:0.0045578233 176:0.030544218 177:0.013605442 178:0 179:0.010204081 180:0.0068027209 181:0.30000001 182:0 183:0 184:0.050000001 185:0 186:0.1 187:0.1 188:0.050000001 189:0 190:0.15000001 191:0 192:0 193:0.050000001 194:0 195:0.050000001 196:0.1 197:0 198:0 199:0.050000001 200:0 201:0.013129252 202:0.023469388 203:0.012585034 204:0.0052380953 205:0.014353742 206:0.00068027212 207:0.024965987 208:0.0093877548 209:0.024421768 210:0.024965987 211:0.0089795915 212:0.01904762 213:0.0075510205 214:0.0038095238 215:0.012108844 216:0.044897959 217:0.02659864 218:0.032108843 219:0.01292517 220:0.015034013 221:0.16 222:0.02 223:0.02 224:0.039999999 225:0.1 226:0.039999999 227:0.1 228:0.02 229:0.02 230:0.079999998 231:0.079999998 232:0.02 233:0.059999999 234:0.039999999 235:0.1 236:0.039999999 237:0.02 238:0 239:0.02 240:0.02 241:0.039387755 242:0.041564625 243:0.038571429 244:0.0097278915 245:0.037006803 246:0.00068027212 247:0.040340137 248:0.024625851 249:0.042585034 250:0.041496597 251:0.030748298 252:0.037278913 253:0.0087755099 254:0.021972788 255:0.039795917 256:0.068843536 257:0.037278913 258:0.049931973 259:0.020680273 260:0.044285715 261:0.12 262:0.050000001 263:0.050000001 264:0.059999999 265:0.1 266:0.02 267:0.050000001 268:0.02 269:0.050000001 270:0.050000001 271:0.07 272:0.050000001 273:0.039999999 274:0.079999998 275:0.07 276:0.059999999 277:0.0099999998 278:0 279:0.039999999 280:0.0099999998 #RT06_DROME 
3.7197988921528475358968535147142 1:0.043898735 2:0.089316458 3:0.047746837 4:0.018455695 5:0.043645568 6:0.012202532 7:0.01729114 8:0.038481012 9:0.060101267 10:0.050810125 11:0.093088605 12:0.060405064 13:0.0050379746 14:0.022 15:0.065949365 16:0.090025313 17:0.051468354 18:0.085670888 19:0.046430379 20:0.046962027 21:0.09390863 22:0.071065992 23:0.020304568 24:0.04568528 25:0.09390863 26:0.04568528 27:0.043147206 28:0.08883249 29:0.060913704 30:0.017766498 31:0.060913704 32:0.04568528 33:0.08883249 34:0.05076142 35:0.055837564 36:0.04822335 37:0.015228426 38:0.010152284 39:0.038071066 40:0.005076142 41:0.0025316456 42:0.010126582 43:0 44:0.0025316456 45:0.0050632912 46:0 47:0 48:0 49:0 50:0.010126582 51:0.0075949365 52:0.0025316456 53:0 54:0.0025316456 55:0.0075949365 56:0 57:0 58:0 59:0 60:0 61:0 62:0.15000001 63:0.050000001 64:0 65:0 66:0 67:0 68:0.2 69:0.050000001 70:0 71:0 72:0.050000001 73:0.2 74:0 75:0.2 76:0.1 77:0 78:0 79:0 80:0 81:0.0050632912 82:0.015189873 83:0.0025316456 84:0.0050632912 85:0.0050632912 86:0 87:0 88:0.0050632912 89:0.0075949365 90:0.012658228 91:0.015189873 92:0.010126582 93:0 94:0.0050632912 95:0.010126582 96:0 97:0 98:0.0025316456 99:0 100:0 101:0 102:0.1 103:0.050000001 104:0 105:0.025 106:0 107:0 108:0.15000001 109:0.1 110:0 111:0.075000003 112:0.075000003 113:0.15000001 114:0.025 115:0.125 116:0.050000001 117:0.025 118:0 119:0.050000001 120:0 121:0.0075949365 122:0.020253165 123:0.0050632912 124:0.0050632912 125:0.0075949365 126:0 127:0.0050632912 128:0.0050632912 129:0.012658228 130:0.012658228 131:0.020253165 132:0.012658228 133:0 134:0.0050632912 135:0.020253165 136:0.0025316456 137:0.0025316456 138:0.0025316456 139:0.0050632912 140:0 141:0.016666668 142:0.13333334 143:0.033333335 144:0 145:0.016666668 146:0.033333335 147:0.016666668 148:0.13333334 149:0.083333336 150:0.033333335 151:0.083333336 152:0.050000001 153:0.13333334 154:0.033333335 155:0.083333336 156:0.050000001 157:0.016666668 158:0 159:0.050000001 160:0 161:0.00032911391 162:0.002556962 163:0.0041265823 164:0.00032911391 165:0.0078481017 166:0 167:0.0022784809 168:0 169:0.001392405 170:0 171:0.0021518988 172:0.00025316456 173:0 174:0 175:0.0027594937 176:0.0065316455 177:0.0044810125 178:0.0032911391 179:0.0073417723 180:0.0050886078 181:0.15000001 182:0.050000001 183:0 184:0.050000001 185:0.1 186:0.2 187:0.050000001 188:0.050000001 189:0 190:0.050000001 191:0 192:0 193:0.050000001 194:0.1 195:0 196:0.15000001 197:0 198:0 199:0 200:0 201:0.0066582276 202:0.010151898 203:0.0084303794 204:0.0028607594 205:0.010886076 206:0.0025316456 207:0.0043037976 208:0.0025316456 209:0.0034177215 210:0.0043037976 211:0.0059493673 212:0.00278481 213:0.0022784809 214:0.0060759494 215:0.0052911392 216:0.013367089 217:0.0070126583 218:0.009620253 219:0.010126582 220:0.0058481013 221:0.12 222:0.039999999 223:0.039999999 224:0.02 225:0.1 226:0.1 227:0.039999999 228:0.059999999 229:0.02 230:0.039999999 231:0 232:0.059999999 233:0.079999998 234:0.079999998 235:0.039999999 236:0.079999998 237:0.02 238:0.02 239:0.02 240:0.02 241:0.0095189875 242:0.018962026 243:0.014227849 244:0.0045316457 245:0.023265822 246:0.0096708862 247:0.0058734179 248:0.0099999998 249:0.0050886078 250:0.0094177211 251:0.010734177 252:0.005772152 253:0.0025063292 254:0.012886076 255:0.0070379749 256:0.022607595 257:0.013797469 258:0.029974684 259:0.01878481 260:0.015063291 261:0.1 262:0.02 263:0.050000001 264:0.039999999 265:0.14 266:0.079999998 267:0.039999999 268:0.050000001 269:0.02 270:0.02 271:0.0099999998 272:0.029999999 273:0.079999998 274:0.07 275:0.039999999 276:0.1 277:0.0099999998 278:0.029999999 279:0.059999999 280:0.0099999998 #RT31_HUMAN 
0.086446926499874982008364554530999 1:0.073126107 2:0.079520427 3:0.057779752 4:0.02035524 5:0.037939608 6:0.01365897 7:0.026980462 8:0.077122554 9:0.092824154 10:0.048792183 11:0.058596801 12:0.052770872 13:0.015577265 14:0.016678508 15:0.041616339 16:0.063339256 17:0.031651866 18:0.060550623 19:0.037637655 20:0.045523979 21:0.06405694 22:0.046263345 23:0.023131672 24:0.051601425 25:0.053380784 26:0.028469751 27:0.039145909 28:0.072953738 29:0.048042703 30:0.030249109 31:0.10142349 32:0.072953738 33:0.083629891 34:0.048042703 35:0.062277582 36:0.049822062 37:0.012455516 38:0.017793594 39:0.080071174 40:0.014234875 41:0.00088809949 42:0.0069982237 43:0.00058614567 44:0.0020071047 45:0.00028419183 46:0.00088809949 47:0.00014209592 48:0.00095914741 49:0.0061101243 50:0.0033037299 51:0.003445826 52:0.0020426288 53:0.00060390763 54:0 55:0.0049378332 56:0.0014920071 57:0.00072824158 58:0 59:0 60:0 61:0 62:0.15000001 63:0 64:0 65:0 66:0 67:0 68:0.050000001 69:0.050000001 70:0 71:0.2 72:0 73:0.25 74:0 75:0.15000001 76:0 77:0 78:0.050000001 79:0.1 80:0 81:0.0029840141 82:0.010106572 83:0.0019182948 84:0.0022557727 85:0.001776199 86:0.001651865 87:0.0022380108 88:0.0025932505 89:0.0083303731 90:0.0058259326 91:0.0058259326 92:0.0042806393 93:0.00072824158 94:0.0010124334 95:0.0061811721 96:0.0048845471 97:0.001545293 98:0.0022735347 99:0.0023623446 100:0.00072824158 101:0.050000001 102:0.1 103:0.025 104:0 105:0.025 106:0.025 107:0 108:0.075000003 109:0.075000003 110:0 111:0.15000001 112:0.050000001 113:0.2 114:0 115:0.1 116:0.025 117:0 118:0.050000001 119:0.050000001 120:0 121:0.0038365896 122:0.015062167 123:0.0025399644 124:0.0025399644 125:0.0021492008 126:0.0018472469 127:0.0024689166 128:0.005008881 129:0.011740675 130:0.0075133215 131:0.0095026642 132:0.0058792187 133:0.0007992895 134:0.0011900533 135:0.0084902309 136:0.0090230908 137:0.0030550621 138:0.0050621671 139:0.0033214921 140:0.0030195382 141:0.083333336 142:0.1 143:0.016666668 144:0.033333335 145:0.033333335 146:0.016666668 147:0.033333335 148:0.06666667 149:0.050000001 150:0 151:0.13333334 152:0.033333335 153:0.18333334 154:0 155:0.083333336 156:0.016666668 157:0.016666668 158:0.033333335 159:0.06666667 160:0 161:0.0019893427 162:0.0021314388 163:0.0020071047 164:0.001722913 165:0.0016163411 166:0.00090586144 167:0.003534636 168:0.00090586144 169:0.001669627 170:0.0024156305 171:0.0015097691 172:0.0025044405 173:7.1047958e-05 174:0.0011722913 175:0.0015097691 176:0.0028419183 177:0.0018650088 178:0.0020071047 179:0.00094138546 180:0.001634103 181:0.1 182:0 183:0.050000001 184:0.050000001 185:0.050000001 186:0 187:0.1 188:0.050000001 189:0.050000001 190:0.1 191:0.050000001 192:0.050000001 193:0.050000001 194:0.050000001 195:0.1 196:0 197:0.050000001 198:0.050000001 199:0.050000001 200:0 201:0.0043339254 202:0.0051154532 203:0.0038721138 204:0.0026998224 205:0.004831261 206:0.001776199 207:0.0055417405 208:0.011509769 209:0.0042806393 210:0.0049555949 211:0.0063765543 212:0.0045825932 213:0.00071047957 214:0.0022024866 215:0.0043516876 216:0.0050266432 217:0.0035523979 218:0.0051687388 219:0.0025399644 220:0.0026287744 221:0.059999999 222:0.039999999 223:0.039999999 224:0.039999999 225:0.02 226:0.02 227:0.079999998 228:0.059999999 229:0.059999999 230:0.059999999 231:0.059999999 232:0.039999999 233:0.039999999 234:0.059999999 235:0.1 236:0.02 237:0.02 238:0.039999999 239:0.14 240:0 241:0.011563055 242:0.01062167 243:0.0091829486 244:0.0037833038 245:0.0076376554 246:0.0030017763 247:0.0082238009 248:0.017726466 249:0.013907637 250:0.0060035526 251:0.011882771 252:0.010071048 253:0.0021492008 254:0.003357016 255:0.0076731793 256:0.0085257553 257:0.0056838365 258:0.010248668 259:0.0092895208 260:0.0074777976 261:0.07 262:0.029999999 263:0.02 264:0.059999999 265:0.029999999 266:0.039999999 267:0.07 268:0.079999998 269:0.090000004 270:0.050000001 271:0.07 272:0.07 273:0.059999999 274:0.039999999 275:0.050000001 276:0.029999999 277:0.0099999998 278:0.02 279:0.11 280:0 #AL4A1_HUMAN
-6 1:0.069499999 2:0.082699999 3:0.058680002 4:0.0222 5:0.037999999 6:0.0107 7:0.02478 8:0.078440003 9:0.098459996 10:0.041140001 11:0.073980004 12:0.04998 13:0.01162 14:0.0141 15:0.044780001 16:0.077799998 17:0.031800002 18:0.058699999 19:0.049539998 20:0.055339999 21:0.088176355 22:0.034068137 23:0.02004008 24:0.058116231 25:0.054108217 26:0.054108217 27:0.032064129 28:0.072144292 29:0.056112226 30:0.018036073 31:0.10220441 32:0.064128257 33:0.082164332 34:0.066132262 35:0.036072146 36:0.042084169 37:0.018036073 38:0.012024048 39:0.08016032 40:0.01002004 41:0.0020000001 42:0.0040000002 43:0 44:0.0040000002 45:0.0040000002 46:0.0020000001 47:0 48:0 49:0.0020000001 50:0 51:0.0080000004 52:0.0080000004 53:0 54:0 55:0.0040000002 56:0.0020000001 57:0 58:0 59:0 60:0 61:0.050000001 62:0.1 63:0 64:0 65:0 66:0 67:0 68:0.2 69:0.2 70:0 71:0.050000001 72:0.050000001 73:0.15000001 74:0 75:0 76:0.1 77:0.050000001 78:0.050000001 79:0 80:0 81:0.0040000002 82:0.0080000004 83:0.0020000001 84:0.0040000002 85:0.0060000001 86:0.0040000002 87:0 88:0 89:0.0060000001 90:0.0080000004 91:0.0099999998 92:0.0080000004 93:0 94:0 95:0.0099999998 96:0.0040000002 97:0.0020000001 98:0 99:0.0040000002 100:0 101:0.050000001 102:0.15000001 103:0 104:0 105:0 106:0.050000001 107:0.025 108:0.125 109:0.1 110:0 111:0.075000003 112:0.050000001 113:0.1 114:0.025 115:0.1 116:0.075000003 117:0.025 118:0.050000001 119:0 120:0 121:0.0074999998 122:0.01156 123:0.0027999999 124:0.0040000002 125:0.0094799995 126:0.0040000002 127:0.00066000002 128:0.00134 129:0.0083999997 130:0.0097200004 131:0.020400001 132:0.0080000004 133:0.00066000002 134:0 135:0.0144 136:0.0078800004 137:0.0045400001 138:0.00066000002 139:0.0040000002 140:0 141:0.083333336 142:0.11666667 143:0 144:0 145:0 146:0.033333335 147:0.050000001 148:0.18333334 149:0.06666667 150:0 151:0.06666667 152:0.06666667 153:0.083333336 154:0.033333335 155:0.06666667 156:0.083333336 157:0.016666668 158:0.033333335 159:0.016666668 160:0 161:0.00092000002 162:0.00194 163:0.0024999999 164:1.9999999e-05 165:0.0027399999 166:0.00012 167:0.00124 168:0.0041800002 169:0.0046000001 170:0.0020399999 171:0.0011399999 172:0.00036000001 173:0.00012 174:0.00063999998 175:0.0031600001 176:0.0033199999 177:0.00124 178:0.0065000001 179:0.0022400001 180:0.00095999998 181:0.15000001 182:0.050000001 183:0 184:0 185:0.15000001 186:0 187:0.050000001 188:0.050000001 189:0 190:0 191:0.1 192:0.050000001 193:0 194:0.1 195:0.050000001 196:0.1 197:0 198:0 199:0.15000001 200:0 201:0.00428 202:0.01068 203:0.0054000001 204:0.00038000001 205:0.0027999999 206:0.00014 207:0.0029800001 208:0.01038 209:0.0099999998 210:0.00388 211:0.0040000002 212:0.00404 213:0.00242 214:0.00073999999 215:0.0094999997 216:0.0073600002 217:0.0050599999 218:0.00856 219:0.0042400002 220:0.0029200001 221:0.1 222:0.079999998 223:0 224:0.02 225:0.079999998 226:0.02 227:0.059999999 228:0.059999999 229:0.039999999 230:0.02 231:0.079999998 232:0.059999999 233:0.079999998 234:0.079999998 235:0.039999999 236:0.039999999 237:0 238:0 239:0.12 240:0.02 241:0.0116 242:0.01864 243:0.01168 244:0.0029200001 245:0.0048199999 246:0.0022400001 247:0.0033400001 248:0.01832 249:0.02012 250:0.00392 251:0.0134 252:0.01084 253:0.0058599999 254:0.00306 255:0.01206 256:0.01444 257:0.0089400001 258:0.016799999 259:0.01002 260:0.0061400002 261:0.1 262:0.050000001 263:0.02 264:0.02 265:0.079999998 266:0.039999999 267:0.039999999 268:0.07 269:0.059999999 270:0.0099999998 271:0.079999998 272:0.059999999 273:0.090000004 274:0.07 275:0.02 276:0.029999999 277:0.0099999998 278:0.0099999998 279:0.11 280:0.029999999 #ENO_DROME  
-2.1118276537315630037028313381597 1:0.060740739 2:0.10559829 3:0.057079773 4:0.012407407 5:0.02980057 6:0.011923077 7:0.029572649 8:0.056025639 9:0.056296296 10:0.071965814 11:0.077706553 12:0.049686611 13:0.024444444 14:0.021054132 15:0.077962965 16:0.048532765 17:0.041809116 18:0.0538604 19:0.032735042 20:0.03468661 21:0.051355205 22:0.079885878 23:0.025677603 24:0.038516406 25:0.055634808 26:0.031383738 27:0.039942939 28:0.079885878 29:0.052781742 30:0.037089873 31:0.052781742 32:0.062767476 33:0.11554921 34:0.052781742 35:0.081312411 36:0.032810271 37:0.012838801 38:0.0099857347 39:0.055634808 40:0.031383738 41:0.0014245014 42:0.0056980057 43:0 44:0.0014245014 45:0 46:0.0014245014 47:0 48:0.0028490028 49:0.0014245014 50:0 51:0.0042735045 52:0.0014245014 53:0.0014245014 54:0 55:0.0042735045 56:0.0014245014 57:0 58:0 59:0 60:0.0014245014 61:0.050000001 62:0.2 63:0 64:0.050000001 65:0 66:0 67:0 68:0.15000001 69:0.050000001 70:0 71:0.050000001 72:0.050000001 73:0.2 74:0 75:0 76:0 77:0 78:0.050000001 79:0.1 80:0.050000001 81:0.0014245014 82:0.011396011 83:0.0014245014 84:0.0014245014 85:0 86:0.0014245014 87:0 88:0.0042735045 89:0.0028490028 90:0.0028490028 91:0.0071225073 92:0.0014245014 93:0.0014245014 94:0 95:0.014245015 96:0.0028490028 97:0.0014245014 98:0 99:0 100:0.0014245014 101:0.050000001 102:0.27500001 103:0 104:0.025 105:0 106:0 107:0.025 108:0.125 109:0.025 110:0 111:0.050000001 112:0.025 113:0.2 114:0.025 115:0.050000001 116:0 117:0 118:0.025 119:0.075000003 120:0.025 121:0.0028490028 122:0.015669515 123:0.0014245014 124:0.0014245014 125:0 126:0.0042735045 127:0 128:0.0071225073 129:0.0056980057 130:0.0028490028 131:0.008547009 132:0.0014245014 133:0.0028490028 134:0 135:0.022792023 136:0.0028490028 137:0.0042735045 138:0 139:0 140:0.0014245014 141:0.033333335 142:0.26666668 143:0 144:0.033333335 145:0 146:0 147:0.050000001 148:0.1 149:0.016666668 150:0 151:0.06666667 152:0.033333335 153:0.18333334 154:0.016666668 155:0.033333335 156:0 157:0 158:0.050000001 159:0.083333336 160:0.033333335 161:0 162:0 163:0 164:0.0014245014 165:0.0014245014 166:0 167:0.0014245014 168:0 169:0.0014245014 170:0.0042735045 171:0 172:0 173:0.0014245014 174:0.0014245014 175:0.0042735045 176:0.0071225073 177:0 178:0.0042735045 179:0 180:0 181:0.25 182:0.15000001 183:0.050000001 184:0 185:0.15000001 186:0 187:0 188:0 189:0 190:0.050000001 191:0.050000001 192:0 193:0 194:0 195:0.15000001 196:0.050000001 197:0.050000001 198:0 199:0 200:0.050000001 201:0.0030056981 202:0.0015527066 203:0.0027207977 204:0.0015669515 205:0.0029487179 206:0 207:0.0039886041 208:0.0040455842 209:0.0040028491 210:0.0070940172 211:0.0035327636 212:0.0027065526 213:0.0017094017 214:0.001894587 215:0.0068376069 216:0.01005698 217:0.0018660969 218:0.0071509969 219:0.0013960114 220:0.0017521367 221:0.14 222:0.1 223:0.02 224:0.02 225:0.12 226:0.02 227:0.02 228:0.02 229:0.059999999 230:0.059999999 231:0.059999999 232:0.039999999 233:0.02 234:0.039999999 235:0.1 236:0.039999999 237:0.02 238:0 239:0.079999998 240:0.02 241:0.0098860394 242:0.012350427 243:0.0098148147 244:0.0027065526 245:0.0047435896 246:9.97151e-05 247:0.0056267804 248:0.01005698 249:0.0061396011 250:0.012450143 251:0.00502849 252:0.0054558404 253:0.0072507123 254:0.0033760683 255:0.01079772 256:0.012279202 257:0.0043304842 258:0.011182336 259:0.0025925925 260:0.0045868945 261:0.090000004 262:0.079999998 263:0.029999999 264:0.029999999 265:0.090000004 266:0.02 267:0.0099999998 268:0.0099999998 269:0.050000001 270:0.039999999 271:0.050000001 272:0.059999999 273:0.079999998 274:0.07 275:0.090000004 276:0.029999999 277:0.02 278:0 279:0.079999998 280:0.07 #NOL9_HUMAN 
-6 1:0.092763156 2:0.075736843 3:0.048 4:0.027157895 5:0.022473684 6:0.0088684214 7:0.016736843 8:0.059815791 9:0.082973681 10:0.046894737 11:0.059815791 12:0.052394737 13:0.032736842 14:0.027736843 15:0.073526315 16:0.054894738 17:0.047105264 18:0.075973682 19:0.035552632 20:0.036605265 21:0.058047492 22:0.073878631 23:0.026385223 24:0.036939315 25:0.073878631 26:0.036939315 27:0.042216361 28:0.068601586 29:0.052770447 30:0.02110818 31:0.079155676 32:0.10290238 33:0.068601586 34:0.047493402 35:0.052770447 36:0.02110818 37:0.026385223 38:0.0052770451 39:0.073878631 40:0.03166227 41:0.00065789477 42:0.011052632 43:0 44:0.0026315791 45:0.0026315791 46:0 47:0 48:0.0026315791 49:0.0072368421 50:0 51:0.0042105261 52:0.00052631577 53:0.0026315791 54:0.00052631577 55:0.0099999998 56:0.0031578948 57:0.0021052631 58:0.0026315791 59:0 60:0 61:0.050000001 62:0.25 63:0 64:0 65:0.050000001 66:0 67:0.050000001 68:0.1 69:0 70:0 71:0.15000001 72:0 73:0.2 74:0 75:0 76:0.050000001 77:0 78:0 79:0.050000001 80:0.050000001 81:0.0064473683 82:0.015263158 83:0.00052631577 84:0.0031578948 85:0.0026315791 86:0.00052631577 87:0.00052631577 88:0.011052632 89:0.011973685 90:0.0052631581 91:0.0047368421 92:0.00052631577 93:0.0089473687 94:0.00052631577 95:0.017368421 96:0.0042105261 97:0.0068421052 98:0.0036842106 99:0 100:0.0010526315 101:0.025 102:0.175 103:0 104:0 105:0.025 106:0 107:0.075000003 108:0.050000001 109:0 110:0 111:0.125 112:0.1 113:0.125 114:0 115:0.050000001 116:0.025 117:0 118:0 119:0.125 120:0.1 121:0.013736842 122:0.018157896 123:0.0056052632 124:0.0048947367 125:0.0026315791 126:0.00052631577 127:0.00052631577 128:0.015947368 129:0.015631579 130:0.011842106 131:0.0065526315 132:0.0028684211 133:0.012 134:0.00052631577 135:0.019894738 136:0.0042105261 137:0.0093157897 138:0.0053684209 139:0 140:0.003368421 141:0.016666668 142:0.16666667 143:0 144:0.016666668 145:0.016666668 146:0 147:0.050000001 148:0.033333335 149:0.016666668 150:0 151:0.11666667 152:0.083333336 153:0.1 154:0.033333335 155:0.083333336 156:0.016666668 157:0.016666668 158:0 159:0.13333334 160:0.1 161:7.8947371e-05 162:0.0028157895 163:0.00047368422 164:0.0014736842 165:0.00013157894 166:0 167:0.0017105263 168:0.0046842108 169:0.0064736842 170:0.0052631581 171:0.00044736842 172:0 173:0 174:0.0022631579 175:0.0066842106 176:0.0071842107 177:0.0068157893 178:0.0048421053 179:0.00060526317 180:0.00013157894 181:0.15000001 182:0.1 183:0.050000001 184:0 185:0.050000001 186:0 187:0.15000001 188:0 189:0 190:0.050000001 191:0.1 192:0 193:0.050000001 194:0 195:0.1 196:0 197:0.050000001 198:0 199:0.15000001 200:0 201:0.007263158 202:0.0090789478 203:0.0029736841 204:0.0018947369 205:0.0032105264 206:0.00063157897 207:0.0037894738 208:0.0072105261 209:0.0094473688 210:0.012052632 211:0.0041315788 212:0.0054473686 213:0.00015789474 214:0.0028157895 215:0.01368421 216:0.013131579 217:0.011447368 218:0.015921053 219:0.0017368421 220:0.003631579 221:0.1 222:0.079999998 223:0.02 224:0.02 225:0.14 226:0 227:0.1 228:0.059999999 229:0.039999999 230:0.039999999 231:0.039999999 232:0.059999999 233:0.079999998 234:0 235:0.1 236:0.02 237:0.02 238:0 239:0.079999998 240:0 241:0.022526316 242:0.014763158 243:0.011894736 244:0.0061052633 245:0.0085526314 246:0.0016842105 247:0.0058684209 248:0.013657895 249:0.020368421 250:0.014473684 251:0.016157895 252:0.012526316 253:0.0033421053 254:0.006368421 255:0.021473683 256:0.021578947 257:0.016368421 258:0.024631578 259:0.0081315786 260:0.0094473688 261:0.090000004 262:0.079999998 263:0.02 264:0.050000001 265:0.090000004 266:0.0099999998 267:0.059999999 268:0.090000004 269:0.050000001 270:0.029999999 271:0.059999999 272:0.079999998 273:0.050000001 274:0.039999999 275:0.059999999 276:0.039999999 277:0.029999999 278:0 279:0.059999999 280:0.0099999998 #BACH_HUMAN 
3.1105610211366800932353271491593 1:0.067132019 2:0.078543246 3:0.053672232 4:0.024294386 5:0.04104704 6:0.017389985 7:0.036251895 8:0.050880123 9:0.05080425 10:0.042943854 11:0.079044007 12:0.049301974 13:0.015250379 14:0.0269044 15:0.049317148 16:0.063823976 17:0.039696511 18:0.070652507 19:0.032670714 20:0.051578149 21:0.05319149 22:0.060790274 23:0.041033436 24:0.065349542 25:0.072948329 26:0.031914894 27:0.039513677 28:0.0775076 29:0.041033436 30:0.034954406 31:0.060790274 32:0.065349542 33:0.10942249 34:0.045592707 35:0.044072948 36:0.047112461 37:0.028875381 38:0.015197569 39:0.050151974 40:0.015197569 41:0.0044764797 42:0.00083459786 43:0.0013808801 44:0.0020485583 45:0.0016236722 46:0.0015022762 47:0.0020637328 48:0.00033383915 49:0.00031866465 50:0.0019726858 51:0.0019271624 52:0.0017602427 53:0.00016691958 54:0.0015781487 55:0.00094081945 56:0.0023368741 57:0.0020789073 58:0.0019878603 59:0.00019726859 60:0.00068285281 61:0.15000001 62:0.050000001 63:0 64:0 65:0.050000001 66:0 67:0.1 68:0.050000001 69:0 70:0.1 71:0 72:0.2 73:0.050000001 74:0 75:0.1 76:0.1 77:0.050000001 78:0 79:0 80:0 81:0.0068892259 82:0.0016843702 83:0.0026100152 84:0.0036570563 85:0.0031259484 86:0.0018361154 87:0.0036267072 88:0.0012898331 89:0.0031411229 90:0.0061456752 91:0.0032321699 92:0.0031411229 93:0.0010773899 94:0.0018057664 95:0.0026403642 96:0.003566009 97:0.0030349013 98:0.0031866464 99:0.0017602427 100:0.0022154781 101:0.075000003 102:0.075000003 103:0 104:0.025 105:0.075000003 106:0 107:0.075000003 108:0.025 109:0.025 110:0.075000003 111:0.025 112:0.15000001 113:0.050000001 114:0.025 115:0.125 116:0.075000003 117:0.050000001 118:0 119:0 120:0.050000001 121:0.0095902886 122:0.0048710168 123:0.0042943852 124:0.0038391503 125:0.00353566 126:0.0019271624 127:0.0039453716 128:0.0027162367 129:0.0038694993 130:0.0063732928 131:0.0058270106 132:0.0045978758 133:0.0018512899 134:0.0034901365 135:0.0064795143 136:0.0056600911 137:0.0033990894 138:0.005417299 139:0.0028528073 140:0.0044157817 141:0.1 142:0.1 143:0 144:0.050000001 145:0.083333336 146:0.016666668 147:0.050000001 148:0.050000001 149:0.033333335 150:0.050000001 151:0.033333335 152:0.1 153:0.06666667 154:0.033333335 155:0.083333336 156:0.050000001 157:0.033333335 158:0 159:0.016666668 160:0.050000001 161:0.0015174507 162:0.0015174507 163:0 164:0 165:0.0014719272 166:0 167:0 168:0.0013050076 169:0.0034597875 170:0 171:0.013657056 172:0.0013050076 173:0.00016691958 174:0.0010166919 175:0.0015174507 176:0 177:0.0018968134 178:0.0011380881 179:0.00037936267 180:0 181:0 182:0.050000001 183:0 184:0 185:0 186:0.050000001 187:0.1 188:0.44999999 189:0.050000001 190:0 191:0.15000001 192:0.050000001 193:0.050000001 194:0 195:0 196:0.050000001 197:0 198:0 199:0 200:0 201:0.0050682854 202:0.0050379364 203:0.0026858877 204:0.0027769348 205:0.0041578147 206:0.0015174507 207:0.0037329288 208:0.0039908951 209:0.0046433993 210:0.0010470409 211:0.019620636 212:0.0021244308 213:0.0012291351 214:0.0024279212 215:0.0031562974 216:0.0021092563 217:0.0043550837 218:0.0038239758 219:0.0014112291 220:0.0010622154 221:0.02 222:0.02 223:0.02 224:0 225:0.02 226:0.059999999 227:0.059999999 228:0.30000001 229:0.02 230:0.059999999 231:0.1 232:0.059999999 233:0.079999998 234:0 235:0.02 236:0.059999999 237:0.039999999 238:0.02 239:0.039999999 240:0 241:0.01185129 242:0.0091047045 243:0.0049620639 244:0.0045220032 245:0.0057056146 246:0.0030652503 247:0.0055538695 248:0.010713202 249:0.0075872536 250:0.005417299 251:0.026509864 252:0.0047344463 253:0.0028528073 254:0.005538695 255:0.007132018 256:0.007040971 257:0.0094385436 258:0.010576631 259:0.0030652503 260:0.0061153262 261:0.029999999 262:0.029999999 263:0.050000001 264:0.039999999 265:0.07 266:0.059999999 267:0.059999999 268:0.19 269:0.02 270:0.050000001 271:0.059999999 272:0.079999998 273:0.07 274:0.0099999998 275:0.029999999 276:0.059999999 277:0.029999999 278:0.0099999998 279:0.039999999 280:0.0099999998 #RETM_DROME 
