SVM-light Version V6.01
2 # kernel type
3 # kernel parameter -d 
3 # kernel parameter -g 
1 # kernel parameter -s 
1 # kernel parameter -r 
empty# kernel parameter -u 
280 # highest feature index 
1110 # number of training documents 
410 # number of support vectors plus 1 
0.85938892 # threshold b, each following line is a SV (starting with alpha*y)
-0.39843559164910863357178527621727 1:0.048958786 2:0.088004336 3:0.053709328 4:0.025683297 5:0.034490239 6:0.0068980479 7:0.028503254 8:0.045097616 9:0.048611715 10:0.036160521 11:0.067180045 12:0.042299349 13:0.013101952 14:0.022516269 15:0.042537961 16:0.064620391 17:0.030889371 18:0.064208239 19:0.040412147 20:0.049479391 21:0.084782608 22:0.02826087 23:0.032608695 24:0.063043475 25:0.058695652 26:0.067391306 27:0.019565217 28:0.12173913 29:0.054347824 30:0.045652173 31:0.023913043 32:0.060869563 33:0.09565217 34:0.065217391 35:0.036956523 36:0.041304346 37:0.021739131 38:0.0043478259 39:0.047826085 40:0.026086956 41:0.0018872017 42:0.0045119305 43:0.0032537961 44:0.004316703 45:0.001691974 46:0.00015184382 47:0.0020824296 48:0.003383948 49:0.00093275489 50:0.00028199566 51:0.0014099783 52:0.0013882864 53:0.00097613881 54:0.0013882864 55:0.0028850324 56:0.0036659436 57:0.0018221259 58:0.0029501084 59:0.0023861171 60:0.0017136659 61:0 62:0.050000001 63:0.050000001 64:0 65:0.050000001 66:0.15000001 67:0.050000001 68:0.050000001 69:0.050000001 70:0.050000001 71:0 72:0 73:0.050000001 74:0.15000001 75:0 76:0.050000001 77:0.1 78:0 79:0.1 80:0.050000001 81:0.0069631236 82:0.0065509761 83:0.0054013017 84:0.0047505423 85:0.0032537961 86:0.0002603037 87:0.0048806942 88:0.0087852497 89:0.0056616054 90:0.00049891538 91:0.0033188721 92:0.004815618 93:0.0018872017 94:0.0019956615 95:0.005119306 96:0.0066160522 97:0.0030585683 98:0.0047505423 99:0.0034924077 100:0.0032537961 101:0.025 102:0.1 103:0.025 104:0.050000001 105:0.025 106:0.075000003 107:0.050000001 108:0.025 109:0.050000001 110:0.1 111:0.075000003 112:0.025 113:0.075000003 114:0.125 115:0 116:0.025 117:0.050000001 118:0 119:0.075000003 120:0.025 121:0.0083297184 122:0.0075054229 123:0.0071800435 124:0.0051843817 125:0.0037310196 126:0.00028199566 127:0.0050759218 128:0.0095444685 129:0.0065509761 130:0.00093275489 131:0.0044034705 132:0.0054880693 133:0.0019305857 134:0.0021475055 135:0.0060954448 136:0.010911063 137:0.0036225596 138:0.005748373 139:0.0041865511 140:0.004316703 141:0.050000001 142:0.06666667 143:0.033333335 144:0.06666667 145:0.033333335 146:0.06666667 147:0.050000001 148:0.050000001 149:0.033333335 150:0.083333336 151:0.083333336 152:0.06666667 153:0.050000001 154:0.1 155:0 156:0.016666668 157:0.050000001 158:0 159:0.083333336 160:0.016666668 161:0.00071583514 162:0.0052711498 163:0.00095444685 164:0.0013449024 165:0.0031453362 166:0.00023861171 167:0.00071583514 168:0.00091106293 169:0.0011062907 170:0.00043383948 171:0.0071149673 172:0.0027331887 173:0.00023861171 174:0.00067245122 175:0.00164859 176:0.0028416486 177:0.0021041215 178:0.0043383949 179:0.0049023861 180:0.0016268981 181:0.1 182:0.050000001 183:0 184:0 185:0.1 186:0.1 187:0 188:0.25 189:0.050000001 190:0 191:0 192:0 193:0.15000001 194:0 195:0 196:0.15000001 197:0.050000001 198:0 199:0 200:0 201:0.0027982646 202:0.011778742 203:0.0031019524 204:0.0022559653 205:0.0051626898 206:0.00049891538 207:0.0018655098 208:0.0039696312 209:0.0054880693 210:0.0022776572 211:0.017310195 212:0.0067895879 213:0.0014099783 214:0.0018004338 215:0.0031887202 216:0.0073752711 217:0.0055097612 218:0.011583515 219:0.0080694146 220:0.0052494579 221:0.079999998 222:0.02 223:0.02 224:0.059999999 225:0.079999998 226:0.079999998 227:0 228:0.23999999 229:0.12 230:0 231:0 232:0 233:0.1 234:0.02 235:0 236:0.079999998 237:0.02 238:0 239:0.039999999 240:0.039999999 241:0.0062472885 242:0.018828634 243:0.008416486 244:0.0058785249 245:0.0085683297 246:0.00069414318 247:0.0037960955 248:0.0092190886 249:0.011626898 250:0.0061388286 251:0.028091107 252:0.013383948 253:0.0019739696 254:0.0036659436 255:0.007700651 256:0.016247289 257:0.0091757048 258:0.020629067 259:0.014707158 260:0.012950108 261:0.079999998 262:0.02 263:0.02 264:0.079999998 265:0.090000004 266:0.090000004 267:0 268:0.22 269:0.079999998 270:0.029999999 271:0.02 272:0.0099999998 273:0.07 274:0.029999999 275:0.0099999998 276:0.050000001 277:0.02 278:0 279:0.059999999 280:0.02 #VHS1_YEAST                    
0.64047666289885951673710451359511 1:0.067792207 2:0.093160175 3:0.050952382 4:0.02469697 5:0.037445888 6:0.0079653682 7:0.031103896 8:0.064935066 9:0.087056279 10:0.035779219 11:0.082813852 12:0.061060607 13:0.011017316 14:0.026493507 15:0.051277056 16:0.050021645 17:0.034307361 18:0.064783551 19:0.048073594 20:0.048441559 21:0.062906727 22:0.049891539 23:0.019522777 24:0.052060738 25:0.065075919 26:0.058568329 27:0.034707159 28:0.088937096 29:0.071583517 30:0.034707159 31:0.075921908 32:0.071583517 33:0.080260307 34:0.078091107 35:0.041214749 36:0.026030369 37:0.013015185 38:0.010845987 39:0.062906727 40:0.0021691974 41:0.0014718615 42:0.0044155843 43:0.0015584416 44:0.0023809525 45:0.0021428571 46:0 47:0.0010822511 48:0.0011904762 49:0.0044805193 50:0.0005194805 51:0.0071212123 52:0.0031385282 53:0.00015151515 54:0.00036796537 55:0.0062121213 56:0.0018181818 57:0.0012770563 58:0.00054112554 59:0.0022943723 60:0.00025974025 61:0.050000001 62:0.2 63:0 64:0 65:0 66:0.050000001 67:0 68:0.25 69:0.15000001 70:0 71:0.050000001 72:0 73:0.1 74:0.050000001 75:0 76:0.1 77:0 78:0 79:0 80:0 81:0.0054761907 82:0.0094805192 83:0.0036580088 84:0.0026190476 85:0.0025324675 86:0 87:0.0015151515 88:0.0038311689 89:0.0074675325 90:0.0033116883 91:0.010194805 92:0.0085064936 93:0.0004112554 94:0.00060606061 95:0.0084848488 96:0.0040909089 97:0.0026406927 98:0.003095238 99:0.0051731602 100:0.00099567103 101:0.050000001 102:0.125 103:0 104:0 105:0.025 106:0.050000001 107:0.025 108:0.15000001 109:0.175 110:0.025 111:0.050000001 112:0 113:0.1 114:0.075000003 115:0.050000001 116:0.050000001 117:0 118:0 119:0.050000001 120:0 121:0.0095238099 122:0.011558441 123:0.0056709955 124:0.0030086581 125:0.0040259738 126:0.00067099568 127:0.0032251081 128:0.0087012984 129:0.012121212 130:0.0049350648 131:0.015714286 132:0.011493507 133:0.0013419914 134:0.0013203464 135:0.010303031 136:0.005064935 137:0.0033766234 138:0.0036796536 139:0.0069264071 140:0.0032900432 141:0.033333335 142:0.1 143:0 144:0.016666668 145:0.033333335 146:0.050000001 147:0.016666668 148:0.15000001 149:0.15000001 150:0.016666668 151:0.083333336 152:0.033333335 153:0.06666667 154:0.083333336 155:0.050000001 156:0.050000001 157:0 158:0 159:0.06666667 160:0 161:0.002943723 162:0.0033766234 163:0.0025108226 164:0.0011038961 165:0.0011255412 166:0.00038961039 167:0.0019264069 168:0.0032251081 169:0.0022727272 170:0.0025757577 171:0.0043506492 172:0.0019047619 173:8.6580083e-05 174:0.0012554113 175:0.0034632036 176:0.0014935065 177:0.0022727272 178:0.0019264069 179:0.0025541126 180:0.0024891775 181:0.050000001 182:0 183:0 184:0 185:0.1 186:0.15000001 187:0.050000001 188:0.1 189:0.1 190:0.050000001 191:0.050000001 192:0.1 193:0.1 194:0.050000001 195:0.050000001 196:0 197:0 198:0 199:0.050000001 200:0 201:0.0099134203 202:0.0075324676 203:0.0084415581 204:0.0025108226 205:0.0027489178 206:0.001038961 207:0.0031601731 208:0.0042207791 209:0.0099999998 210:0.0041125542 211:0.0084632039 212:0.0053030304 213:0.0008225108 214:0.0017532468 215:0.0071645021 216:0.0073160175 217:0.0040476192 218:0.0062337662 219:0.0043722945 220:0.0078787878 221:0.079999998 222:0.02 223:0 224:0.059999999 225:0.079999998 226:0.1 227:0.059999999 228:0.059999999 229:0.059999999 230:0.039999999 231:0.039999999 232:0.12 233:0.059999999 234:0.079999998 235:0.039999999 236:0.02 237:0.039999999 238:0.02 239:0.02 240:0 241:0.017099567 242:0.021406926 243:0.014134199 244:0.0058225109 245:0.0038961039 246:0.0010822511 247:0.005064935 248:0.010952381 249:0.019848485 250:0.0072727273 251:0.017142856 252:0.012510822 253:0.0021212122 254:0.0033116883 255:0.014740259 256:0.013441558 257:0.0092424238 258:0.014437229 259:0.0084632039 260:0.012770562 261:0.090000004 262:0.039999999 263:0 264:0.059999999 265:0.07 266:0.059999999 267:0.050000001 268:0.079999998 269:0.059999999 270:0.02 271:0.079999998 272:0.1 273:0.090000004 274:0.079999998 275:0.029999999 276:0.0099999998 277:0.02 278:0.0099999998 279:0.050000001 280:0 #MPPB_YEAST                    
-0.84339495146665122149443050147966 1:0.055959303 2:0.088110462 3:0.049156975 4:0.031279068 5:0.049011629 6:0.0011046511 7:0.025203489 8:0.053052325 9:0.047238372 10:0.04264535 11:0.059563953 12:0.052761629 13:0.0075872093 14:0.021337209 15:0.060668606 16:0.11575581 17:0.031744186 18:0.074389532 19:0.037965115 20:0.068837211 21:0.12536444 22:0.049562681 23:0.020408163 24:0.084548108 25:0.069970846 26:0.034985423 27:0.043731779 28:0.055393588 29:0.046647232 30:0.023323616 31:0.040816326 32:0.052478135 33:0.087463558 34:0.049562681 35:0.043731779 36:0.06122449 37:0.043731779 38:0 39:0.06122449 40:0.005830904 41:0.0040116278 42:0.0044186045 43:0.0025290698 44:0.002994186 45:0.00058139535 46:8.7209301e-05 47:8.7209301e-05 48:0.0010465116 49:0.0050581396 50:0.0026453489 51:0.0015697675 52:0.002994186 53:0 54:0.00061046513 55:0.010319768 56:0.012325581 57:0.00075581396 58:0.0043895347 59:0.0014825581 60:0.0003488372 61:0.2 62:0.2 63:0 64:0 65:0.050000001 66:0.050000001 67:0 68:0 69:0.050000001 70:0 71:0.2 72:0.1 73:0.050000001 74:0.050000001 75:0.050000001 76:0 77:0 78:0 79:0 80:0 81:0.0070348838 82:0.0095639536 83:0.0061046514 84:0.0038081396 85:0.0022093023 86:8.7209301e-05 87:0.0001744186 88:0.005523256 89:0.0089244191 90:0.0057558138 91:0.0052325581 92:0.0075290697 93:0.00125 94:0.0011046511 95:0.011802326 96:0.020755814 97:0.0030523257 98:0.0079651158 99:0.0074999998 100:0.0011627907 101:0.175 102:0.1 103:0 104:0 105:0.050000001 106:0.1 107:0.050000001 108:0.025 109:0.025 110:0 111:0.125 112:0.1 113:0.075000003 114:0.050000001 115:0.050000001 116:0.025 117:0 118:0 119:0.025 120:0.025 121:0.01255814 122:0.018488372 123:0.0087209307 124:0.006366279 125:0.0046220929 126:8.7209301e-05 127:0.0032267442 128:0.0065406975 129:0.013110465 130:0.0083139539 131:0.0069476743 132:0.010436047 133:0.0020639536 134:0.0026744185 135:0.014069768 136:0.028750001 137:0.0045348839 138:0.0083139539 139:0.0094767446 140:0.005901163 141:0.16666667 142:0.083333336 143:0.016666668 144:0.050000001 145:0.033333335 146:0.083333336 147:0.033333335 148:0.033333335 149:0.016666668 150:0 151:0.1 152:0.083333336 153:0.1 154:0.050000001 155:0.050000001 156:0.033333335 157:0.033333335 158:0 159:0.016666668 160:0.016666668 161:0.0024127907 162:0 163:0.0029069767 164:0 165:0.0034011628 166:0 167:0.0024418605 168:0.0019476744 169:0.0048546512 170:0.003866279 171:0.0024127907 172:0.0038953489 173:0 174:0 175:0.002994186 176:0.0086337207 177:0.0034011628 178:0.0092441859 179:0 180:0.005348837 181:0.15000001 182:0.050000001 183:0 184:0.050000001 185:0.2 186:0 187:0.050000001 188:0.1 189:0.050000001 190:0.050000001 191:0.1 192:0.050000001 193:0 194:0.050000001 195:0.050000001 196:0.050000001 197:0 198:0 199:0 200:0 201:0.0058720931 202:0.0017151163 203:0.0034302326 204:0.0013953488 205:0.0041569769 206:0 207:0.0062500001 208:0.0065406975 209:0.0086046513 210:0.0041860463 211:0.0087209307 212:0.0074709305 213:0 214:0.00066860463 215:0.0062500001 216:0.013837209 217:0.007005814 218:0.025697675 219:0.001744186 220:0.021889536 221:0.079999998 222:0.02 223:0 224:0.16 225:0.22 226:0 227:0.059999999 228:0.1 229:0.039999999 230:0.059999999 231:0.059999999 232:0.039999999 233:0 234:0.02 235:0.02 236:0.039999999 237:0 238:0 239:0.079999998 240:0 241:0.013517442 242:0.014651163 243:0.0098546511 244:0.008662791 245:0.0062790699 246:8.7209301e-05 247:0.0079069771 248:0.017703488 249:0.016104652 250:0.0083720926 251:0.013081395 252:0.015203488 253:0.00014534884 254:0.0050872094 255:0.015232558 256:0.04497093 257:0.015668605 258:0.031308141 259:0.0070639537 260:0.030116279 261:0.16 262:0.029999999 263:0.02 264:0.11 265:0.14 266:0.0099999998 267:0.059999999 268:0.050000001 269:0.050000001 270:0.029999999 271:0.039999999 272:0.039999999 273:0.059999999 274:0.029999999 275:0.02 276:0.02 277:0.039999999 278:0 279:0.090000004 280:0 #RPF2_YEAST                    
-0.41641770558026591775302449605078 1:0.054216869 2:0.067861445 3:0.040150601 4:0.025903614 5:0.036746986 6:0.0048192772 7:0.035753012 8:0.058825303 9:0.077710845 10:0.039156627 11:0.075060241 12:0.041777108 13:0.0024096386 14:0.025301205 15:0.06066265 16:0.05683735 17:0.074939758 18:0.081295177 19:0.047801204 20:0.059638552 21:0.054380666 22:0.057401814 23:0.027190333 24:0.072507553 25:0.069486402 26:0.048338369 27:0.093655586 28:0.078549847 29:0.051359516 30:0.039274924 31:0.078549847 32:0.060422961 33:0.072507553 34:0.036253776 35:0.039274924 36:0.039274924 37:0.021148037 38:0.003021148 39:0.054380666 40:0.003021148 41:0.0030120481 42:0 43:0.0030120481 44:0.0030120481 45:0 46:0 47:0.0060240962 48:0.0060240962 49:0.0030120481 50:0 51:0.0060240962 52:0 53:0 54:0.0060240962 55:0.0060240962 56:0.012048192 57:0.0060240962 58:0 59:0 60:0 61:0.2 62:0.1 63:0.1 64:0 65:0 66:0 67:0.1 68:0.15000001 69:0 70:0.1 71:0.050000001 72:0.050000001 73:0 74:0.050000001 75:0 76:0 77:0 78:0 79:0.1 80:0 81:0.012048192 82:0 83:0.0090361442 84:0.0060240962 85:0 86:0 87:0.0060240962 88:0.021084337 89:0.0060240962 90:0.0030120481 91:0.015060241 92:0 93:0 94:0.0060240962 95:0.0060240962 96:0.012048192 97:0.0090361442 98:0 99:0.0090361442 100:0 101:0.1 102:0.050000001 103:0.050000001 104:0 105:0 106:0.075000003 107:0.075000003 108:0.125 109:0 110:0.050000001 111:0.050000001 112:0.1 113:0.025 114:0.075000003 115:0.025 116:0 117:0.025 118:0 119:0.175 120:0 121:0.012048192 122:0.0030120481 123:0.0090361442 124:0.0060240962 125:0.0030120481 126:0 127:0.015060241 128:0.030120483 129:0.012048192 130:0.0030120481 131:0.027108435 132:0.0030120481 133:0 134:0.0060240962 135:0.0060240962 136:0.012048192 137:0.012048192 138:0.0060240962 139:0.015060241 140:0 141:0.06666667 142:0.033333335 143:0.033333335 144:0 145:0.033333335 146:0.083333336 147:0.06666667 148:0.15000001 149:0.016666668 150:0.083333336 151:0.06666667 152:0.06666667 153:0.016666668 154:0.050000001 155:0.016666668 156:0.016666668 157:0.033333335 158:0 159:0.16666667 160:0 161:0.0018072289 162:0.0030120481 163:0 164:0 165:0.015060241 166:0 167:0 168:0.0048192772 169:0.0042168675 170:0.0030120481 171:0.00060240965 172:0.0024096386 173:0 174:0 175:0 176:0 177:0.0012048193 178:0.0054216869 179:0.0066265059 180:0.011445783 181:0 182:0 183:0 184:0.2 185:0.1 186:0.15000001 187:0 188:0 189:0.050000001 190:0 191:0.050000001 192:0.050000001 193:0.050000001 194:0 195:0.050000001 196:0.25 197:0 198:0 199:0.050000001 200:0 201:0.0072289156 202:0.0066265059 203:0.0012048193 204:0.0024096386 205:0.018072288 206:0 207:0.0018072289 208:0.008433735 209:0.010240964 210:0.012650602 211:0.0060240962 212:0.0078313258 213:0 214:0.0018072289 215:0 216:0.0012048193 217:0.0066265059 218:0.012650602 219:0.010843374 220:0.019879518 221:0.02 222:0 223:0.02 224:0.14 225:0.1 226:0.079999998 227:0.02 228:0.059999999 229:0.059999999 230:0.02 231:0.079999998 232:0.079999998 233:0.039999999 234:0 235:0.1 236:0.12 237:0.02 238:0 239:0.039999999 240:0 241:0.01686747 242:0.01686747 243:0.0036144578 244:0.0048192772 245:0.018072288 246:0 247:0.0054216869 248:0.010843374 249:0.027108435 250:0.015060241 251:0.008433735 252:0.012650602 253:0 254:0.0036144578 255:0.015662652 256:0.014457831 257:0.034337349 258:0.037349399 259:0.011445783 260:0.025903614 261:0.029999999 262:0.029999999 263:0.02 264:0.1 265:0.1 266:0.039999999 267:0.15000001 268:0.039999999 269:0.059999999 270:0.029999999 271:0.1 272:0.090000004 273:0.050000001 274:0.0099999998 275:0.050000001 276:0.059999999 277:0.0099999998 278:0 279:0.029999999 280:0 #SNF6_YEAST                    
-0.27181855314287073355217216885649 1:0.042747337 2:0.085791476 3:0.050289195 4:0.02085997 5:0.036598172 6:0.0025799086 7:0.021544902 8:0.036560122 9:0.050692543 10:0.049642313 11:0.10210807 12:0.067625567 13:0.0073211566 14:0.01391933 15:0.027929984 16:0.05086758 17:0.064086758 18:0.04981735 19:0.11117961 20:0.04410959 21:0.060167555 22:0.027418127 23:0.0099009899 24:0.03960396 25:0.038842347 26:0.16298553 27:0.08453922 28:0.10053313 29:0.057121098 30:0.023610054 31:0.04798172 32:0.038842347 33:0.10662605 34:0.065498859 35:0.04798172 36:0.04112719 37:0.012185834 38:0.003808073 39:0.025133282 40:0.0060929172 41:0.00025114155 42:0.00038051751 43:0.00025114155 44:0.0011415525 45:0.0016438356 46:0 47:0.00038051751 48:0.00025114155 49:0 50:0.00025114155 51:0.0010045662 52:0.0025418568 53:0.00025114155 54:0 55:0.00038051751 56:0 57:0 58:0.0005022831 59:0.0046879756 60:0.0012633181 61:0 62:0 63:0 64:0.050000001 65:0 66:0.44999999 67:0 68:0 69:0.34999999 70:0 71:0 72:0 73:0.050000001 74:0 75:0 76:0.1 77:0 78:0 79:0 80:0 81:0.00025114155 82:0.00038051751 83:0.0005022831 84:0.0011415525 85:0.0016438356 86:0 87:0.00038051751 88:0.0010045662 89:0.0010121765 90:0.0010045662 91:0.0027777778 92:0.0055783866 93:0.00025114155 94:0 95:0.00038051751 96:0 97:0.0005022831 98:0.0010045662 99:0.010266363 100:0.0017656012 101:0 102:0 103:0 104:0.025 105:0 106:0.60000002 107:0 108:0 109:0.25 110:0 111:0.025 112:0 113:0.025 114:0 115:0.025 116:0.050000001 117:0 118:0 119:0 120:0 121:0.00044140031 122:0.00076103501 123:0.0005022831 124:0.0011415525 125:0.0016438356 126:0 127:0.00038051751 128:0.001826484 129:0.0015829528 130:0.0010045662 131:0.0060121766 132:0.0082343984 133:0.00025114155 134:0.00038051751 135:0.00038051751 136:0 137:0.0005022831 138:0.0019482496 139:0.015585997 140:0.002458143 141:0 142:0 143:0.016666668 144:0.016666668 145:0 146:0.58333331 147:0 148:0.050000001 149:0.23333333 150:0 151:0.016666668 152:0 153:0.016666668 154:0 155:0.016666668 156:0.033333335 157:0 158:0 159:0.016666668 160:0 161:0.00038812787 162:0.0032952817 163:0.0013926941 164:0.0005022831 165:0.00025875191 166:0 167:0.00089041097 168:0.00012937596 169:0.00064687978 170:0 171:0.00063926942 172:0.00038051751 173:0.00025875191 174:0.00012937596 175:0.00025875191 176:0.0010121765 177:0.0011491629 178:0.0017123288 179:0.0015829528 180:0.00050989346 181:0.050000001 182:0 183:0 184:0.050000001 185:0.050000001 186:0.2 187:0.1 188:0 189:0.050000001 190:0.1 191:0 192:0 193:0.25 194:0.15000001 195:0 196:0 197:0 198:0 199:0 200:0 201:0.0012785388 202:0.0058371383 203:0.0046879756 204:0.0011415525 205:0.001651446 206:0 207:0.0010197869 208:0.00064687978 209:0.0021841705 210:0.0020319636 211:0.0026864535 212:0.0022907155 213:0.00025875191 214:0.00025875191 215:0.00025875191 216:0.0019025875 217:0.0021689497 218:0.0031202435 219:0.0029832572 220:0.0015296803 221:0.059999999 222:0 223:0 224:0.059999999 225:0.039999999 226:0.12 227:0.079999998 228:0.039999999 229:0.059999999 230:0.039999999 231:0.02 232:0.02 233:0.18000001 234:0.16 235:0.059999999 236:0.059999999 237:0 238:0 239:0 240:0 241:0.0033181126 242:0.010799087 243:0.0072298325 244:0.0022983258 245:0.0024200913 246:0 247:0.0016590563 248:0.0015449011 249:0.0034703196 250:0.0030517504 251:0.0062480974 252:0.00369863 253:0.00152207 254:0.00064687978 255:0.0011491629 256:0.0052054795 257:0.0036910197 258:0.0059284628 259:0.0066590565 260:0.0026864535 261:0.07 262:0 263:0 264:0.039999999 265:0.050000001 266:0.14 267:0.079999998 268:0.079999998 269:0.050000001 270:0.029999999 271:0.0099999998 272:0.039999999 273:0.16 274:0.12 275:0.050000001 276:0.039999999 277:0 278:0 279:0 280:0.039999999 #SWI1_YEAST                    
0.7281905367580669974358897889033 1:0.090597019 2:0.083358206 3:0.058208954 4:0.027014926 5:0.046044774 6:0.0010447762 7:0.016044777 8:0.026343284 9:0.10753731 10:0.043805972 11:0.086044773 12:0.050000001 13:0.0061940299 14:0.012761194 15:0.052313432 16:0.056567166 17:0.03738806 18:0.072089553 19:0.024626866 20:0.07358209 21:0.052631579 22:0.052631579 23:0.022556391 24:0.082706764 25:0.060150377 26:0.030075189 27:0.037593983 28:0.060150377 29:0.037593983 30:0.015037594 31:0.17293233 32:0.12030075 33:0.052631579 34:0.052631579 35:0.045112781 36:0.060150377 37:0.0075187972 38:0 39:0.037593983 40:0 41:0.015895523 42:0.015 43:0.0011940298 44:0.0085074631 45:0.0073134326 46:0.00029850745 47:0 48:0.0012686567 49:0.030074626 50:0.0072388058 51:0.021044776 52:0.0085074631 53:0.002164179 54:0.00029850745 55:0.021268656 56:0.0023134327 57:0.0037313432 58:0 59:0.0015671642 60:0 61:0 62:0.15000001 63:0 64:0 65:0 66:0 67:0 68:0.050000001 69:0.1 70:0 71:0.40000001 72:0.15000001 73:0.050000001 74:0 75:0.050000001 76:0.050000001 77:0 78:0 79:0 80:0 81:0.03141791 82:0.024253732 83:0.0091044772 84:0.013208956 85:0.014477612 86:0.00074626866 87:0.0018656716 88:0.0051492536 89:0.048805971 90:0.020671641 91:0.036716416 92:0.01880597 93:0.0024626865 94:0.00059701491 95:0.035223879 96:0.0061940299 97:0.010970149 98:0.00029850745 99:0.0047761193 100:0 101:0.025 102:0.125 103:0 104:0 105:0 106:0 107:0.050000001 108:0.025 109:0.050000001 110:0 111:0.34999999 112:0.175 113:0.025 114:0 115:0.075000003 116:0.075000003 117:0 118:0 119:0.025 120:0 121:0.041119404 122:0.03380597 123:0.013880597 124:0.015373134 125:0.022985075 126:0.00074626866 127:0.0074626864 128:0.010597015 129:0.058880597 130:0.027761195 131:0.049402986 132:0.02597015 133:0.0038059701 134:0.0037313432 135:0.048656717 136:0.017313432 137:0.018059701 138:0.011343284 139:0.0066417912 140:0.0091791041 141:0.050000001 142:0.11666667 143:0.016666668 144:0.016666668 145:0.016666668 146:0 147:0.033333335 148:0.050000001 149:0.033333335 150:0.016666668 151:0.26666668 152:0.15000001 153:0.033333335 154:0.016666668 155:0.050000001 156:0.083333336 157:0 158:0 159:0.050000001 160:0 161:0.0097014923 162:0.0074626864 163:0.014850746 164:0.0019402985 165:0.0020895523 166:0 167:0.0058208955 168:0.0014925373 169:0.018731343 170:0.0058208955 171:0.0084328363 172:0.0081343288 173:0.0016417911 174:0.0047761193 175:0.0020895523 176:0.011044776 177:0.0089552235 178:0.012014925 179:0.0079104481 180:0.016567165 181:0.050000001 182:0 183:0.050000001 184:0.15000001 185:0.050000001 186:0.050000001 187:0.1 188:0.1 189:0 190:0.050000001 191:0.1 192:0.1 193:0.050000001 194:0.1 195:0.050000001 196:0 197:0 198:0 199:0 200:0 201:0.027835822 202:0.033283584 203:0.033208955 204:0.010522388 205:0.012910448 206:7.4626863e-05 207:0.0059701493 208:0.013283582 209:0.037313432 210:0.011044776 211:0.019776119 212:0.013208956 213:0.001716418 214:0.0065671643 215:0.0022388059 216:0.017462686 217:0.011343284 218:0.05074627 219:0.011865672 220:0.050895523 221:0.039999999 222:0 223:0.02 224:0.16 225:0.12 226:0.039999999 227:0.039999999 228:0.079999998 229:0.02 230:0.02 231:0.079999998 232:0.1 233:0.079999998 234:0.1 235:0.039999999 236:0.02 237:0.02 238:0 239:0.02 240:0 241:0.061492536 242:0.061119404 243:0.051044777 244:0.015522388 245:0.034029853 246:0.00052238809 247:0.014626865 248:0.022164179 249:0.062238805 250:0.029626865 251:0.054253731 252:0.033955224 253:0.0037313432 254:0.012164179 255:0.01902985 256:0.05261194 257:0.027835822 258:0.071791045 259:0.020522388 260:0.07358209 261:0.07 262:0.02 263:0.029999999 264:0.11 265:0.079999998 266:0.039999999 267:0.039999999 268:0.07 269:0.029999999 270:0.02 271:0.11 272:0.1 273:0.059999999 274:0.07 275:0.039999999 276:0.059999999 277:0.0099999998 278:0 279:0.039999999 280:0 #ACPM_NEUCR                    
3.4100971201513514685643713164609 1:0.070730224 2:0.085740365 3:0.056653146 4:0.015699796 5:0.036369167 6:0.012292089 7:0.024503043 8:0.071906693 9:0.060770791 10:0.047707912 11:0.065517239 12:0.048742395 13:0.0096146045 14:0.018235294 15:0.058194727 16:0.062190671 17:0.028640974 18:0.059208926 19:0.042697769 20:0.053671401 21:0.091463417 22:0.05284553 23:0.020325202 24:0.060975611 25:0.065040648 26:0.060975611 27:0.022357723 28:0.083333336 29:0.046747968 30:0.028455285 31:0.036585364 32:0.058943089 33:0.091463417 34:0.071138211 35:0.044715445 36:0.054878049 37:0.010162601 38:0.020325202 39:0.069105692 40:0.010162601 41:0.0037119675 42:0.0019878296 43:0.0035902637 44:0.0013590264 45:0.0032860041 46:0 47:0.00062880322 48:0.00014198782 49:0.0017849898 50:0.0013793104 51:0.0063894521 52:0.002555781 53:0.00075050711 54:0.0015415822 55:0.0036308316 56:0.0022718052 57:0.0035902637 58:0.00070993917 59:0.00087221095 60:0.00020283976 61:0.050000001 62:0.1 63:0.050000001 64:0 65:0 66:0.050000001 67:0.1 68:0.2 69:0.050000001 70:0 71:0 72:0.15000001 73:0 74:0.2 75:0 76:0.050000001 77:0 78:0 79:0 80:0 81:0.0055983774 82:0.0061460445 83:0.005192698 84:0.001643002 85:0.0046855984 86:0 87:0.0024746449 88:0.0067951321 89:0.0070182555 90:0.0039756591 91:0.0092697768 92:0.0041582151 93:0.0011156186 94:0.0034685598 95:0.0041987831 96:0.0046450305 97:0.0049898578 98:0.0010344827 99:0.0020486815 100:0.00093306287 101:0.075000003 102:0.050000001 103:0.050000001 104:0 105:0 106:0.025 107:0.050000001 108:0.175 109:0.050000001 110:0.050000001 111:0.025 112:0.075000003 113:0.050000001 114:0.125 115:0.075000003 116:0.050000001 117:0 118:0 119:0.075000003 120:0 121:0.010081136 122:0.01070994 123:0.0070385397 124:0.0025354971 125:0.0071805273 126:0.00020283976 127:0.0049290061 128:0.01168357 129:0.0078701824 130:0.0071196756 131:0.010486815 132:0.0053144018 133:0.0012373225 134:0.0043204869 135:0.0072616632 136:0.0063286005 137:0.0053549698 138:0.0029817445 139:0.002576065 140:0.0031034483 141:0.06666667 142:0.050000001 143:0.033333335 144:0 145:0.016666668 146:0.033333335 147:0.033333335 148:0.13333334 149:0.050000001 150:0.050000001 151:0.016666668 152:0.1 153:0.083333336 154:0.1 155:0.083333336 156:0.050000001 157:0 158:0.016666668 159:0.083333336 160:0 161:0.0020486815 162:0.0030223124 163:0.0036105476 164:0.0015618661 165:0.0010344827 166:0.0014198783 167:0.00050709938 168:0.004056795 169:0.00068965519 170:0.001663286 171:0.0018458418 172:0.0012778905 173:6.0851926e-05 174:0.00018255578 175:0.0023732251 176:0.0044624745 177:0.0011359026 178:0.0052738339 179:0.0020486815 180:0.0017444219 181:0.1 182:0.050000001 183:0.050000001 184:0 185:0.15000001 186:0.050000001 187:0 188:0.050000001 189:0.1 190:0 191:0 192:0.050000001 193:0.1 194:0.050000001 195:0 196:0.1 197:0 198:0.050000001 199:0.1 200:0 201:0.0053346856 202:0.0078093307 203:0.0067545641 204:0.0018052738 205:0.002434077 206:0.0045841783 207:0.0012981745 208:0.0081135901 209:0.0046855984 210:0.0031845842 211:0.0062068966 212:0.0036308316 213:0.00012170385 214:0.00099391479 215:0.0067139962 216:0.010933063 217:0.00336714 218:0.011906694 219:0.004056795 220:0.0064908722 221:0.16 222:0.059999999 223:0.039999999 224:0.039999999 225:0.12 226:0.079999998 227:0 228:0.059999999 229:0.079999998 230:0 231:0 232:0.02 233:0.1 234:0.079999998 235:0 236:0.039999999 237:0 238:0.059999999 239:0.059999999 240:0 241:0.012596349 242:0.014381339 243:0.013630832 244:0.0043204869 245:0.0053144018 246:0.0067342799 247:0.0039959433 248:0.019837728 249:0.013732252 250:0.0067342799 251:0.013427992 252:0.012799188 253:0.0017444219 254:0.0022109533 255:0.0090263691 256:0.014888438 257:0.0064908722 258:0.014766734 259:0.0080324542 260:0.012312373 261:0.090000004 262:0.050000001 263:0.029999999 264:0.050000001 265:0.090000004 266:0.039999999 267:0.029999999 268:0.1 269:0.050000001 270:0.0099999998 271:0.039999999 272:0.059999999 273:0.090000004 274:0.079999998 275:0.0099999998 276:0.039999999 277:0.0099999998 278:0.039999999 279:0.090000004 280:0 #ADRO_YEAST                    
0.35201301414033148162729958130512 1:0.06133721 2:0.10174418 3:0.050755814 4:0.024360465 5:0.032151163 6:0.0014534884 7:0.018779069 8:0.061918605 9:0.072674416 10:0.041860465 11:0.070930235 12:0.079186045 13:0.028895348 14:0.032906976 15:0.058720931 16:0.048313953 17:0.031337209 18:0.070058137 19:0.042848837 20:0.066569768 21:0.052631579 22:0.046783626 23:0.03508772 24:0.076023392 25:0.058479533 26:0.046783626 27:0.023391813 28:0.070175439 29:0.099415205 30:0.023391813 31:0.058479533 32:0.03508772 33:0.10526316 34:0.064327486 35:0.046783626 36:0.029239766 37:0.023391813 38:0 39:0.070175439 40:0.03508772 41:0.0065697674 42:0.010116279 43:0.010872093 44:0.0029069767 45:0.00058139535 46:0 47:0.0043604653 48:0.0078488374 49:0.013837209 50:0.0013953488 51:0.0071511627 52:0.009593023 53:0.00075581396 54:0.0084302323 55:0.013081395 56:0.0090116281 57:0.0048255813 58:0.0023255814 59:0.0029069767 60:0 61:0.050000001 62:0.1 63:0.1 64:0 65:0 66:0.050000001 67:0 68:0.050000001 69:0.1 70:0 71:0.2 72:0.050000001 73:0.1 74:0.15000001 75:0 76:0 77:0 78:0 79:0.050000001 80:0 81:0.0125 82:0.027267441 83:0.013837209 84:0.003372093 85:0.0051162792 86:0.0012209303 87:0.005523256 88:0.0094767446 89:0.025465116 90:0.011569767 91:0.01988372 92:0.024244186 93:0.00075581396 94:0.0092441859 95:0.029883722 96:0.010639535 97:0.011860465 98:0.0044186045 99:0.0051744184 100:0 101:0.025 102:0.125 103:0.050000001 104:0 105:0 106:0.025 107:0 108:0.075000003 109:0.22499999 110:0 111:0.1 112:0.025 113:0.15000001 114:0.075000003 115:0.050000001 116:0.050000001 117:0 118:0 119:0.025 120:0 121:0.015988372 122:0.033720929 123:0.016220931 124:0.0051744184 125:0.01127907 126:0.0014534884 127:0.0062209303 128:0.018139536 129:0.029069768 130:0.020465117 131:0.036046512 132:0.035930231 133:0.0022093023 134:0.017267441 135:0.033430234 136:0.020465117 137:0.014418605 138:0.013953488 139:0.0083720926 140:0.0055813952 141:0.06666667 142:0.083333336 143:0.06666667 144:0 145:0.033333335 146:0.033333335 147:0 148:0.1 149:0.16666667 150:0 151:0.06666667 152:0.016666668 153:0.15000001 154:0.050000001 155:0.06666667 156:0.050000001 157:0 158:0 159:0.050000001 160:0 161:0.0096511627 162:0.0068023256 163:0.0036627906 164:0.0057558138 165:0.0082558142 166:0 167:0.0006395349 168:0.0077325581 169:0.0094186049 170:0.0061046514 171:0.0079069771 172:0.0086046513 173:0 174:0.00046511629 175:0.0093604652 176:0.0026162791 177:0.0024418605 178:0.0027906976 179:0.014302325 180:0.0098837214 181:0 182:0.1 183:0 184:0.1 185:0 186:0.2 187:0.050000001 188:0.050000001 189:0.050000001 190:0 191:0.050000001 192:0.1 193:0.050000001 194:0.050000001 195:0.050000001 196:0.050000001 197:0.050000001 198:0 199:0.050000001 200:0 201:0.014186046 202:0.035813954 203:0.0094186049 204:0.014883721 205:0.011046512 206:0 207:0.003139535 208:0.017151162 209:0.018430233 210:0.0092441859 211:0.017674418 212:0.021162791 213:0.0073837209 214:0.00058139535 215:0.017848838 216:0.010523256 217:0.0098837214 218:0.022848837 219:0.018895349 220:0.03122093 221:0.039999999 222:0.059999999 223:0 224:0.14 225:0.059999999 226:0.1 227:0.039999999 228:0.059999999 229:0.059999999 230:0.02 231:0.039999999 232:0.039999999 233:0.1 234:0.059999999 235:0.02 236:0.02 237:0.059999999 238:0 239:0.059999999 240:0.02 241:0.036860466 242:0.064883724 243:0.027034884 244:0.01883721 245:0.015523256 246:0 247:0.01127907 248:0.03854651 249:0.043139536 250:0.021279071 251:0.033372093 252:0.035465118 253:0.026686046 254:0.013953488 255:0.021686047 256:0.023023255 257:0.014593023 258:0.050697673 259:0.029941861 260:0.054709304 261:0.029999999 262:0.029999999 263:0.02 264:0.12 265:0.079999998 266:0.059999999 267:0.029999999 268:0.050000001 269:0.059999999 270:0.039999999 271:0.059999999 272:0.050000001 273:0.079999998 274:0.059999999 275:0.039999999 276:0.0099999998 277:0.039999999 278:0 279:0.079999998 280:0.059999999 #ADRX_YEAST                    
2.2021886985237388856262441549916 1:0.058716215 2:0.090962835 3:0.058716215 4:0.022618243 5:0.049037162 6:0.008141892 7:0.029172298 8:0.053260136 9:0.068057433 10:0.049611486 11:0.090709463 12:0.051520269 13:0.014915541 14:0.029307432 15:0.051452704 16:0.057094596 17:0.033310812 18:0.056807432 19:0.045810811 20:0.040743243 21:0.060913704 22:0.043993231 23:0.030456852 24:0.030456852 25:0.081218272 26:0.043993231 27:0.054145515 28:0.086294413 29:0.059221659 30:0.035532996 31:0.064297803 32:0.059221659 33:0.10152284 34:0.059221659 35:0.05752961 36:0.042301185 37:0.015228426 38:0.0067681894 39:0.05752961 40:0.010152284 41:0.0033783785 42:0.0033783785 43:0.0033783785 44:0.0016891892 45:0.0016891892 46:0 47:0 48:0 49:0.0016891892 50:0 51:0.0067567569 52:0.0033783785 53:0 54:0.0033783785 55:0 56:0.0016891892 57:0 58:0 59:0.0033783785 60:0 61:0.1 62:0 63:0.1 64:0 65:0 66:0.1 67:0 68:0.2 69:0.1 70:0 71:0.050000001 72:0.1 73:0.1 74:0.1 75:0 76:0.050000001 77:0 78:0 79:0 80:0 81:0.0033783785 82:0.0050675673 83:0.0067567569 84:0.0033783785 85:0.0016891892 86:0 87:0.0016891892 88:0 89:0.0033783785 90:0.0022466215 91:0.012381757 92:0.0090202698 93:0 94:0.0067567569 95:0.0016891892 96:0.0056250002 97:0 98:0.0011317568 99:0.0033783785 100:0 101:0.075000003 102:0.025 103:0.1 104:0 105:0.025 106:0.050000001 107:0 108:0.175 109:0.15000001 110:0.025 111:0.050000001 112:0.050000001 113:0.075000003 114:0.1 115:0.050000001 116:0.025 117:0.025 118:0 119:0 120:0 121:0.0056418921 122:0.0073141893 123:0.0073141893 124:0.0033783785 125:0.0045101349 126:0 127:0.0022466215 128:0 129:0.0061993245 130:0.0056250002 131:0.019138513 132:0.011841216 133:0 134:0.0078716213 135:0.0045101349 136:0.0095777027 137:0.00055743242 138:0.0016891892 139:0.0033783785 140:0.00055743242 141:0.1 142:0.050000001 143:0.06666667 144:0 145:0.016666668 146:0.033333335 147:0 148:0.18333334 149:0.13333334 150:0.016666668 151:0.06666667 152:0.06666667 153:0.083333336 154:0.06666667 155:0.050000001 156:0.050000001 157:0.016666668 158:0 159:0 160:0 161:0.00099662167 162:0.00125 163:0.0016216217 164:0.0016385135 165:0.0044932431 166:0.00054054055 167:0.0013851351 168:0.00023648649 169:0.0011148648 170:0.00015202703 171:0.0014527027 172:0.0010810811 173:0.00013513514 174:0.0013682432 175:0.0024662162 176:0.0043581082 177:0.0013006757 178:0.0035135136 179:0.00096283783 180:0.0030405405 181:0.15000001 182:0.050000001 183:0.050000001 184:0.1 185:0.15000001 186:0 187:0.050000001 188:0.050000001 189:0 190:0.050000001 191:0 192:0 193:0.050000001 194:0.050000001 195:0 196:0.15000001 197:0 198:0.1 199:0 200:0 201:0.0051351353 202:0.004560811 203:0.0042398646 204:0.0020101352 205:0.0078378376 206:0.0015540541 207:0.0019087838 208:0.0064189187 209:0.0033614866 210:0.005168919 211:0.0052195946 212:0.0051858108 213:0.001722973 214:0.0028378379 215:0.0049662162 216:0.0056081079 217:0.0027364865 218:0.0067567569 219:0.0021283785 220:0.0038513513 221:0.059999999 222:0.039999999 223:0.039999999 224:0.039999999 225:0.1 226:0 227:0.039999999 228:0.059999999 229:0.1 230:0.039999999 231:0.02 232:0.02 233:0.059999999 234:0.039999999 235:0.059999999 236:0.1 237:0 238:0.039999999 239:0.12 240:0.02 241:0.008327703 242:0.014577703 243:0.0084797293 244:0.0048817568 245:0.012010135 246:0.0028716216 247:0.0041891891 248:0.011756756 249:0.0096452702 250:0.0088851349 251:0.0091047296 252:0.0076520271 253:0.0048479731 254:0.0038344595 255:0.0074999998 256:0.011402027 257:0.0047128377 258:0.013327703 259:0.0052195946 260:0.0073817568 261:0.079999998 262:0.029999999 263:0.029999999 264:0.039999999 265:0.11 266:0.0099999998 267:0.050000001 268:0.039999999 269:0.07 270:0.039999999 271:0.039999999 272:0.02 273:0.1 274:0.039999999 275:0.07 276:0.090000004 277:0.0099999998 278:0.02 279:0.079999998 280:0.029999999 #ALAM_YEAST                    
3.9723295504962337076904077548534 1:0.072626643 2:0.093545966 3:0.074709192 4:0.018667918 5:0.041519701 6:0.0089118201 7:0.028574109 8:0.063095681 9:0.079174481 10:0.041388366 11:0.076341465 12:0.05500938 13:0.016341463 14:0.022795497 15:0.048461538 16:0.056303941 17:0.028442776 18:0.061613508 19:0.042063791 20:0.049399626 21:0.054511279 22:0.054511279 23:0.030075189 24:0.035714287 25:0.063909777 26:0.052631579 27:0.030075189 28:0.086466163 29:0.071428575 30:0.030075189 31:0.067669176 32:0.067669176 33:0.10150376 34:0.078947365 35:0.043233082 36:0.037593983 37:0.015037594 38:0.0075187972 39:0.05075188 40:0.020676691 41:0.0018761726 42:0.0037523452 43:0.0075046904 44:0.0018761726 45:0 46:0.0018761726 47:0 48:0 49:0.0037523452 50:0.0018761726 51:0.0018761726 52:0.0018761726 53:0 54:0 55:0.0056285178 56:0.0037523452 57:0 58:0 59:0.0018761726 60:0 61:0.1 62:0.15000001 63:0 64:0 65:0 66:0.050000001 67:0 68:0.050000001 69:0.050000001 70:0 71:0.1 72:0.050000001 73:0.15000001 74:0.2 75:0.050000001 76:0 77:0 78:0.050000001 79:0 80:0 81:0.0018761726 82:0.010637899 83:0.0081238272 84:0.0037523452 85:0 86:0.0018761726 87:0.0024953096 88:0 89:0.009380863 90:0.0024953096 91:0.0075046904 92:0.0031332083 93:0.0018761726 94:0.0018761726 95:0.0056285178 96:0.0037523452 97:0.00061913696 98:0.0043902439 99:0.0018761726 100:0.0037523452 101:0.050000001 102:0.075000003 103:0.025 104:0.050000001 105:0.075000003 106:0.050000001 107:0 108:0.1 109:0.050000001 110:0.025 111:0.125 112:0.025 113:0.15000001 114:0.1 115:0.025 116:0 117:0.025 118:0.025 119:0 120:0.025 121:0.0031144465 122:0.014390244 123:0.011876172 124:0.0037523452 125:0.0037523452 126:0.0024953096 127:0.0037523452 128:0 129:0.011257036 130:0.0031144465 131:0.010637899 132:0.0031332083 133:0.0018761726 134:0.0037523452 135:0.0056285178 136:0.0068855532 137:0.00061913696 138:0.0081425887 139:0.009380863 140:0.0050093806 141:0.06666667 142:0.050000001 143:0.033333335 144:0.050000001 145:0.083333336 146:0.083333336 147:0 148:0.1 149:0.033333335 150:0.050000001 151:0.1 152:0.016666668 153:0.13333334 154:0.1 155:0.016666668 156:0.033333335 157:0.016666668 158:0.016666668 159:0 160:0.016666668 161:0.0019512195 162:0.0031894934 163:0.0018386492 164:0.0010318949 165:0.00063789869 166:0.00046904315 167:0.0022889306 168:0.0013508443 169:0.0023827392 170:0.0054221386 171:0.0018011257 172:0.0017073171 173:5.6285178e-05 174:0.0020637899 175:0.0022701689 176:0.0026266417 177:0.00080675422 178:0.0021575985 179:0.0009380863 180:0.00095684803 181:0.050000001 182:0.050000001 183:0.050000001 184:0 185:0.1 186:0.050000001 187:0 188:0.050000001 189:0.15000001 190:0 191:0.15000001 192:0.050000001 193:0.050000001 194:0.050000001 195:0.15000001 196:0 197:0 198:0.050000001 199:0 200:0 201:0.0051031895 202:0.0076923077 203:0.0037898687 204:0.0020450281 205:0.0028893058 206:0.00091932458 207:0.0053846152 208:0.010600375 209:0.0045966227 210:0.00630394 211:0.0069981236 212:0.0041275797 213:0.00060037524 214:0.0033771107 215:0.0054409006 216:0.0072232643 217:0.002532833 218:0.0062664165 219:0.0023827392 220:0.0022514071 221:0.059999999 222:0.039999999 223:0.039999999 224:0 225:0.1 226:0.1 227:0 228:0.059999999 229:0.079999998 230:0.02 231:0.1 232:0.059999999 233:0.1 234:0.02 235:0.079999998 236:0 237:0.02 238:0.02 239:0.1 240:0 241:0.013395872 242:0.01412758 243:0.0097936206 244:0.0033771107 245:0.007448405 246:0.0024202627 247:0.008236398 248:0.018611632 249:0.015872421 250:0.0094746714 251:0.013058161 252:0.0096435267 253:0.0026266417 254:0.0049155722 255:0.008986867 256:0.010375234 257:0.0053846152 258:0.0095121954 259:0.0092307692 260:0.0064165103 261:0.07 262:0.029999999 263:0.039999999 264:0 265:0.059999999 266:0.079999998 267:0.02 268:0.059999999 269:0.07 270:0.029999999 271:0.1 272:0.07 273:0.1 274:0.07 275:0.050000001 276:0.029999999 277:0.0099999998 278:0.0099999998 279:0.090000004 280:0.0099999998 #ALDHX_YEAST                   
-3.9532612531126010146920179977315 1:0.067168675 2:0.10596386 3:0.086204819 4:0.013313253 5:0.043734938 6:0.006807229 7:0.027469879 8:0.055722892 9:0.055240963 10:0.050542168 11:0.081024095 12:0.056084339 13:0.01433735 14:0.019518072 15:0.024518073 16:0.076445781 17:0.03813253 18:0.057831325 19:0.045481928 20:0.050000001 21:0.054545455 22:0.030303031 23:0.024242423 24:0.060606062 25:0.06666667 26:0.036363635 27:0.018181818 28:0.1030303 29:0.060606062 30:0.018181818 31:0.060606062 32:0.06666667 33:0.12727273 34:0.084848486 35:0.078787878 36:0.042424243 37:0.0060606059 38:0.012121212 39:0.042424243 40:0.0060606059 41:0 42:0.026144579 43:0.030120483 44:0.0060240962 45:0.008012048 46:0 47:0.0039759036 48:0 49:0.0060240962 50:0 51:0.010060241 52:0.008012048 53:0 54:0.0040361444 55:0.0060240962 56:0.0060240962 57:0 58:0 59:0.0060240962 60:0 61:0.050000001 62:0.050000001 63:0.050000001 64:0 65:0 66:0.050000001 67:0 68:0.1 69:0.050000001 70:0 71:0.050000001 72:0 73:0.25 74:0.30000001 75:0 76:0.050000001 77:0 78:0 79:0 80:0 81:0 82:0.033192772 83:0.0436747 84:0.0060240962 85:0.020060241 86:0 87:0.0059638554 88:0.0090361442 89:0.014578314 90:0.014096386 91:0.016084338 92:0.011506024 93:0 94:0.0055421689 95:0.0060240962 96:0.016084338 97:0.0034939758 98:0.0080722887 99:0.017590361 100:0.0019879518 101:0.075000003 102:0.025 103:0.025 104:0 105:0.050000001 106:0.075000003 107:0 108:0.075000003 109:0.025 110:0 111:0.075000003 112:0 113:0.2 114:0.175 115:0.075000003 116:0.075000003 117:0 118:0 119:0.050000001 120:0 121:0.015783133 122:0.039578315 123:0.046987951 124:0.0075301207 125:0.023493975 126:0 127:0.0074096387 128:0.010120482 129:0.02686747 130:0.023975903 131:0.036204819 132:0.015903614 133:0 134:0.0074698795 135:0.0065060239 136:0.027048193 137:0.0079518072 138:0.015783133 139:0.019457832 140:0.011686747 141:0.083333336 142:0.016666668 143:0.016666668 144:0.050000001 145:0.050000001 146:0.050000001 147:0 148:0.11666667 149:0.033333335 150:0 151:0.083333336 152:0.033333335 153:0.15000001 154:0.11666667 155:0.1 156:0.06666667 157:0 158:0 159:0.033333335 160:0 161:0.0067469878 162:0.025783133 163:0.0063253012 164:0.00030120483 165:0.00042168674 166:0.0049397592 167:0.001686747 168:0.0036746988 169:0.0027108435 170:0.0075301207 171:0.0065060239 172:0.010481928 173:0 174:0.0021686747 175:0.0018072289 176:0.011987952 177:0.0048192772 178:0.0087349396 179:0.0038554217 180:0.009939759 181:0.1 182:0 183:0.050000001 184:0.1 185:0.050000001 186:0.050000001 187:0.050000001 188:0.050000001 189:0.15000001 190:0 191:0 192:0.050000001 193:0.2 194:0.050000001 195:0.050000001 196:0 197:0 198:0.050000001 199:0 200:0 201:0.022108434 202:0.034216866 203:0.019879518 204:0.0025903615 205:0.0078313258 206:0.0061445781 207:0.0035542168 208:0.033975903 209:0.0081927711 210:0.013554217 211:0.015120482 212:0.026927711 213:0.0029518073 214:0.0087349396 215:0.010903615 216:0.021927711 217:0.012771084 218:0.013975903 219:0.015361446 220:0.019879518 221:0.039999999 222:0.02 223:0.039999999 224:0.079999998 225:0.059999999 226:0.039999999 227:0.039999999 228:0.12 229:0.079999998 230:0.02 231:0.02 232:0.059999999 233:0.1 234:0.1 235:0.039999999 236:0.02 237:0.02 238:0.02 239:0.079999998 240:0 241:0.048614457 242:0.064397588 243:0.034578312 244:0.0054819277 245:0.019759037 246:0.006807229 247:0.019518072 248:0.045180723 249:0.02560241 250:0.026566265 251:0.03927711 252:0.038795181 253:0.01433735 254:0.011506024 255:0.017650602 256:0.047228917 257:0.02933735 258:0.036927711 259:0.022289157 260:0.036325302 261:0.039999999 262:0.039999999 263:0.029999999 264:0.07 265:0.07 266:0.02 267:0.029999999 268:0.1 269:0.079999998 270:0.029999999 271:0.050000001 272:0.079999998 273:0.11 274:0.07 275:0.07 276:0.02 277:0.0099999998 278:0.02 279:0.050000001 280:0.0099999998 #GLRX3_SCHPO                   
-6 1:0.063264459 2:0.10057851 3:0.086239666 4:0.025082644 5:0.045826446 6:0.0094628101 7:0.019049587 8:0.057603307 9:0.082231402 10:0.055 11:0.072768591 12:0.096157022 13:0.014380165 14:0.026115702 15:0.070165291 16:0.054173555 17:0.0080165286 18:0.042024795 19:0.025 20:0.046776861 21:0.058091287 22:0.066390045 23:0.029045643 24:0.0373444 25:0.045643155 26:0.016597511 27:0.012448133 28:0.087136932 29:0.091286309 30:0.012448133 31:0.078838177 32:0.070539422 33:0.10788382 34:0.078838177 35:0.058091287 36:0.049792532 37:0.016597511 38:0.012448133 39:0.053941909 40:0.016597511 41:0 42:0.0082644625 43:0.0082644625 44:0.0041322312 45:0.016528925 46:0 47:0 48:0.0041322312 49:0.0082644625 50:0.0041322312 51:0 52:0.012396694 53:0 54:0 55:0.0082644625 56:0.0041322312 57:0 58:0 59:0.0041322312 60:0 61:0.050000001 62:0.1 63:0 64:0 65:0 66:0.1 67:0 68:0 69:0.15000001 70:0 71:0.1 72:0 73:0.1 74:0.1 75:0.050000001 76:0.2 77:0 78:0 79:0.050000001 80:0 81:0 82:0.024793388 83:0.012396694 84:0.0041322312 85:0.024793388 86:0 87:0 88:0.0082644625 89:0.0082644625 90:0.012396694 91:0.0082644625 92:0.02892562 93:0 94:0.0041322312 95:0.012396694 96:0.0082644625 97:0 98:0 99:0.0082644625 100:0 101:0.050000001 102:0.075000003 103:0.025 104:0 105:0 106:0.050000001 107:0 108:0.075000003 109:0.175 110:0 111:0.050000001 112:0 113:0.15000001 114:0.075000003 115:0.075000003 116:0.15000001 117:0 118:0 119:0.050000001 120:0 121:0.010578512 122:0.025371902 123:0.017727273 124:0.0041322312 125:0.024793388 126:0 127:0 128:0.010206612 129:0.01731405 130:0.022603305 131:0.019297522 132:0.037190083 133:0 134:0.0041322312 135:0.023595041 136:0.018553719 137:0 138:0.0041322312 139:0.0082644625 140:0 141:0.06666667 142:0.1 143:0.016666668 144:0 145:0.016666668 146:0.033333335 147:0 148:0.083333336 149:0.15000001 150:0 151:0.06666667 152:0.050000001 153:0.1 154:0.083333336 155:0.1 156:0.1 157:0 158:0 159:0.033333335 160:0 161:0.0010330578 162:0.0041322312 163:0.0082644625 164:0 165:0.0082644625 166:0.0041322312 167:0 168:0.0082644625 169:0.0020661156 170:0.0030991735 171:0.002768595 172:0.0051652892 173:0.0030991735 174:0.0034297521 175:0.0054958677 176:0.0058677685 177:0 178:0.0041322312 179:0.0041322312 180:0.0092975209 181:0.1 182:0.050000001 183:0.050000001 184:0.1 185:0.050000001 186:0 187:0 188:0.050000001 189:0.050000001 190:0 191:0.050000001 192:0 193:0.050000001 194:0.1 195:0.050000001 196:0.1 197:0 198:0.050000001 199:0.1 200:0.050000001 201:0.01446281 202:0.0096280994 203:0.023099173 204:0.0013636363 205:0.015165289 206:0.0041322312 207:0.0041322312 208:0.017892562 209:0.010330578 210:0.018264463 211:0.0096694212 212:0.013099174 213:0.0041322312 214:0.0047933883 215:0.013925619 216:0.0092975209 217:0.0033057851 218:0.0089669423 219:0.0041322312 220:0.016859503 221:0.059999999 222:0.059999999 223:0.039999999 224:0.059999999 225:0.039999999 226:0 227:0.02 228:0.059999999 229:0.039999999 230:0.02 231:0.059999999 232:0.059999999 233:0.079999998 234:0.1 235:0.1 236:0.079999998 237:0 238:0.02 239:0.079999998 240:0.02 241:0.026652893 242:0.045661159 243:0.039090909 244:0.0080165286 245:0.018099174 246:0.0041322312 247:0.0054958677 248:0.022603305 249:0.027024793 250:0.022396695 251:0.024545455 252:0.029462811 253:0.0084710745 254:0.009504132 255:0.038305786 256:0.016198346 257:0.0033057851 258:0.023677686 259:0.010826446 260:0.0296281 261:0.050000001 262:0.079999998 263:0.029999999 264:0.050000001 265:0.059999999 266:0.02 267:0.0099999998 268:0.079999998 269:0.059999999 270:0.0099999998 271:0.07 272:0.050000001 273:0.13 274:0.1 275:0.059999999 276:0.050000001 277:0.0099999998 278:0.0099999998 279:0.050000001 280:0.02 #PAD1_YEAST                    
-1.2875326442052108522062781048589 1:0.057189811 2:0.080271162 3:0.055110928 4:0.020328676 5:0.040731307 6:0.0080772387 7:0.032530814 8:0.05917009 9:0.070164338 10:0.050041083 11:0.067970417 12:0.054864421 13:0.011610517 14:0.019030403 15:0.053064913 16:0.075069845 17:0.046113394 18:0.060813475 19:0.048545603 20:0.045554642 21:0.070723683 22:0.055098683 23:0.012335527 24:0.04194079 25:0.055098683 26:0.063322365 27:0.050986841 28:0.078125 29:0.074013159 30:0.037828948 31:0.086348683 32:0.059210528 33:0.064967103 34:0.068256579 35:0.052631579 36:0.032894738 37:0.02055921 38:0.01069079 39:0.053453948 40:0.011513158 41:0.0014215284 42:0.00069022184 43:0.00076417421 44:0.00082169269 45:9.8603123e-05 46:0 47:4.9301561e-05 48:0.00168447 49:0.0024239933 50:0.00043549712 51:0.00070665573 52:0.0016187346 53:1.6433854e-05 54:0.00018077239 55:0.00079704192 56:0.0023993426 57:0.00049301563 58:0.00092029583 59:0.00024650781 60:0.00035332787 61:0.1 62:0.1 63:0 64:0 65:0 66:0.1 67:0 68:0.050000001 69:0.15000001 70:0 71:0.34999999 72:0 73:0.050000001 74:0.050000001 75:0.050000001 76:0 77:0 78:0 79:0 80:0 81:0.0029005753 82:0.0010271159 83:0.0013640098 84:0.0012243221 85:0.00069843879 86:8.2169267e-05 87:0.00036154478 88:0.0024650781 89:0.0032703369 90:0.0014461791 91:0.0017009039 92:0.0029416599 93:0.00014790468 94:0.0004026294 95:0.0012571898 96:0.0049712406 97:0.0011750206 98:0.0019391947 99:0.00092029583 100:0.001347576 101:0.175 102:0.075000003 103:0 104:0 105:0 106:0.075000003 107:0 108:0.075000003 109:0.15000001 110:0.025 111:0.2 112:0.050000001 113:0.025 114:0.050000001 115:0.025 116:0 117:0 118:0 119:0.075000003 120:0 121:0.0041495482 122:0.0042235004 123:0.0020213639 124:0.0020953163 125:0.00091207889 126:9.8603123e-05 127:0.00081347575 128:0.0032128184 129:0.0042317174 130:0.0018570254 131:0.0025801151 132:0.0037880032 133:0.00034511092 134:0.0010764174 135:0.001347576 136:0.0052752672 137:0.0013804437 138:0.0034428923 139:0.002358258 140:0.0027526706 141:0.15000001 142:0.050000001 143:0 144:0.050000001 145:0.050000001 146:0.083333336 147:0 148:0.06666667 149:0.13333334 150:0.016666668 151:0.13333334 152:0.050000001 153:0.083333336 154:0.06666667 155:0.016666668 156:0 157:0 158:0 159:0.050000001 160:0 161:0.00047658177 162:0.00087921118 163:5.7518489e-05 164:0.00071487261 165:0.00011503698 166:0.00082169269 167:0.00011503698 168:0.00060805259 169:0.0023746919 170:0 171:0.0015119145 172:0.00020542317 173:0 174:0 175:0.001462613 176:0.00097781431 177:0.00027937553 178:0.0017502054 179:0.00050123251 180:0.0031963845 181:0 182:0.15000001 183:0 184:0.15000001 185:0.15000001 186:0 187:0 188:0.1 189:0 190:0 191:0.2 192:0.050000001 193:0.050000001 194:0 195:0 196:0 197:0.050000001 198:0.050000001 199:0.050000001 200:0 201:0.0016680361 202:0.002686935 203:0.00081347575 204:0.00084634346 205:0.00031224321 206:0.00082169269 207:0.00022185703 208:0.002358258 209:0.0061380444 210:0.0019556286 211:0.0047740345 212:0.0018241578 213:0 214:0.00013968776 215:0.0021199672 216:0.0020213639 217:0.002029581 218:0.0034018077 219:0.0025390305 220:0.0038290878 221:0 222:0.059999999 223:0 224:0.059999999 225:0.079999998 226:0.12 227:0.039999999 228:0.12 229:0.059999999 230:0 231:0.22 232:0.059999999 233:0.059999999 234:0 235:0.039999999 236:0 237:0.02 238:0.02 239:0.039999999 240:0 241:0.0044289236 242:0.0055792932 243:0.0028348397 244:0.0012900576 245:0.0012571898 246:0.002711586 247:0.0015365654 248:0.0062941662 249:0.0082744453 250:0.0035497125 251:0.0073048482 252:0.0038044371 253:0.00022185703 254:0.00032046015 255:0.0033935907 256:0.0055382089 257:0.003697617 258:0.0071405093 259:0.0047986852 260:0.0068118325 261:0.050000001 262:0.039999999 263:0 264:0.039999999 265:0.1 266:0.079999998 267:0.029999999 268:0.090000004 269:0.07 270:0.02 271:0.15000001 272:0.059999999 273:0.050000001 274:0.039999999 275:0.050000001 276:0 277:0.02 278:0.039999999 279:0.07 280:0 #MYO1_SCHPO                    
4.2971114398827543467973555380013 1:0.066075951 2:0.099324897 3:0.061645571 4:0.023628691 5:0.032489453 6:0.0040506329 7:0.019535866 8:0.034556963 9:0.056624472 10:0.028312236 11:0.060295358 12:0.043713082 13:0.0043037976 14:0.019746836 15:0.066413499 16:0.11383966 17:0.076286919 18:0.089282699 19:0.04042194 20:0.049578059 21:0.11016949 22:0.080508478 23:0.016949153 24:0.059322033 25:0.088983051 26:0.042372882 27:0.080508478 28:0.063559324 29:0.042372882 30:0.012711864 31:0.042372882 32:0.059322033 33:0.12711865 34:0.059322033 35:0.016949153 36:0.038135592 37:0.016949153 38:0 39:0.038135592 40:0.0042372881 41:0.012405063 42:0.0030379747 43:0.0043459916 44:0.0084388182 45:0.0042194091 46:0 47:0 48:0.0083966246 49:0.0051898733 50:0 51:0.0050632912 52:0.0048101265 53:0 54:0.00029535865 55:0.0048945146 56:0.0090295356 57:0.0084388182 58:0 59:0.0045991563 60:0.00029535865 61:0.15000001 62:0.050000001 63:0 64:0 65:0 66:0.050000001 67:0.15000001 68:0.050000001 69:0.050000001 70:0 71:0.050000001 72:0.15000001 73:0.1 74:0 75:0 76:0.050000001 77:0.050000001 78:0 79:0.1 80:0 81:0.025316456 82:0.0063291141 83:0.0091139236 84:0.010843881 85:0.0084388182 86:0 87:0.0029957807 88:0.0092827007 89:0.0063713081 90:0.0015189874 91:0.0059493673 92:0.0098734181 93:0 94:0.0048101265 95:0.01607595 96:0.024092827 97:0.0090295356 98:0.0059915613 99:0.0091139236 100:0.0024050632 101:0.175 102:0.1 103:0.025 104:0 105:0.050000001 106:0.075000003 107:0.075000003 108:0.025 109:0.050000001 110:0 111:0.025 112:0.15000001 113:0.075000003 114:0.025 115:0 116:0.075000003 117:0.025 118:0 119:0.050000001 120:0 121:0.03400844 122:0.013544303 123:0.015147679 124:0.012320675 125:0.010253165 126:0 127:0.0056962026 128:0.016202532 129:0.0087341769 130:0.0018143459 131:0.0091983126 132:0.011350211 133:0.0021097045 134:0.0093248943 135:0.022405064 136:0.030084388 137:0.009620253 138:0.015021097 139:0.010886076 140:0.013839662 141:0.11666667 142:0.1 143:0.033333335 144:0.050000001 145:0.1 146:0.050000001 147:0.050000001 148:0.033333335 149:0.033333335 150:0.016666668 151:0.016666668 152:0.13333334 153:0.083333336 154:0.050000001 155:0 156:0.050000001 157:0.016666668 158:0 159:0.06666667 160:0 161:0.0034177215 162:0.011350211 163:0.0060337554 164:0.0051476792 165:0.0011392405 166:0 167:0.0005907173 168:0 169:0.0019409283 170:0.0042194091 171:0.0047679325 172:0.0016455696 173:0 174:0.0035443038 175:0.0058227847 176:0.0098734181 177:0.01371308 178:0.0025316456 179:0.0063713081 180:0.0025316456 181:0.15000001 182:0.050000001 183:0.050000001 184:0.050000001 185:0 186:0.1 187:0.15000001 188:0.050000001 189:0 190:0 191:0 192:0.050000001 193:0.1 194:0.050000001 195:0.050000001 196:0 197:0.15000001 198:0 199:0 200:0 201:0.0071729957 202:0.033122364 203:0.0098312236 204:0.0078481017 205:0.0038396625 206:0 207:0.0043459916 208:0.0037552742 209:0.0089451475 210:0.0085232072 211:0.014978903 212:0.0054008439 213:0.0016033755 214:0.0051476792 215:0.0095780594 216:0.026371308 217:0.021308016 218:0.018481012 219:0.012278481 220:0.0089451475 221:0.14 222:0.039999999 223:0.039999999 224:0.1 225:0.039999999 226:0.059999999 227:0.079999998 228:0.059999999 229:0.039999999 230:0 231:0 232:0.039999999 233:0.18000001 234:0.02 235:0.039999999 236:0.02 237:0.059999999 238:0 239:0.02 240:0.02 241:0.018396625 242:0.05599156 243:0.028987342 244:0.0094936704 245:0.0086919833 246:0.0016033755 247:0.0091139236 248:0.011729958 249:0.015443038 250:0.016540084 251:0.028902953 252:0.016666668 253:0.0016033755 254:0.0062447255 255:0.020295359 256:0.045063291 257:0.041561183 258:0.041518986 259:0.019789029 260:0.021772152 261:0.1 262:0.059999999 263:0.02 264:0.079999998 265:0.07 266:0.039999999 267:0.11 268:0.07 269:0.039999999 270:0.0099999998 271:0 272:0.039999999 273:0.17 274:0.059999999 275:0.029999999 276:0.02 277:0.029999999 278:0 279:0.039999999 280:0.0099999998 #RTS17_YEAST                   
5.3940528911690837077230753493495 1:0.053415842 2:0.09413366 3:0.054529704 4:0.014405941 5:0.037623763 6:0.013292079 7:0.045668315 8:0.054678217 9:0.037178218 10:0.060396038 11:0.081534654 12:0.040222771 13:0.013019802 14:0.017871287 15:0.049876239 16:0.086683169 17:0.028712871 18:0.06529703 19:0.056212872 20:0.041485149 21:0.099255584 22:0.054590572 23:0.022332506 24:0.034739453 25:0.066997521 26:0.0719603 27:0.029776676 28:0.094292805 29:0.044665013 30:0.049627792 31:0.022332506 32:0.052109182 33:0.10669975 34:0.062034741 35:0.057071961 36:0.044665013 37:0.017369727 38:0.012406948 39:0.047146402 40:0.0099255582 41:0.0024752475 42:0.0024752475 43:0 44:0.0024752475 45:0.0024752475 46:0 47:0.0024752475 48:0 49:0 50:0.0024752475 51:0.0074257427 52:0 53:0.0024752475 54:0 55:0 56:0.004950495 57:0 58:0.0099009899 59:0.0099009899 60:0 61:0.1 62:0 63:0 64:0 65:0.2 66:0.2 67:0 68:0.15000001 69:0 70:0.050000001 71:0 72:0.050000001 73:0.1 74:0 75:0.050000001 76:0.050000001 77:0 78:0 79:0 80:0.050000001 81:0.0024752475 82:0.0074257427 83:0 84:0.004950495 85:0.004950495 86:0 87:0.0024752475 88:0 89:0 90:0.004950495 91:0.012376238 92:0.0024752475 93:0.0024752475 94:0 95:0.004950495 96:0.01980198 97:0 98:0.017326733 99:0.012376238 100:0 101:0.2 102:0.050000001 103:0 104:0 105:0.175 106:0.125 107:0 108:0.125 109:0.025 110:0.025 111:0 112:0.025 113:0.075000003 114:0 115:0.050000001 116:0.050000001 117:0.025 118:0.025 119:0 120:0.025 121:0.0047524753 122:0.010940594 123:0.0017326733 124:0.004950495 125:0.0057673268 126:0.0024752475 127:0.004950495 128:0.00049504952 129:0.0011138613 130:0.0076732673 131:0.021287128 132:0.004950495 133:0.0030940594 134:0.0012376237 135:0.010965346 136:0.025247525 137:0.0012376237 138:0.017326733 139:0.015470297 140:0 141:0.18333334 142:0.1 143:0.016666668 144:0 145:0.11666667 146:0.1 147:0 148:0.15000001 149:0.033333335 150:0.033333335 151:0 152:0.033333335 153:0.083333336 154:0.016666668 155:0.050000001 156:0.033333335 157:0.016666668 158:0.016666668 159:0 160:0.016666668 161:0.0036881189 162:0.0064108912 163:0.0012623762 164:0.00071782176 165:0 166:0.0024752475 167:0.0021287128 168:0.0064603961 169:0.00066831685 170:0.0021782178 171:0.0055445544 172:0.0013613862 173:0 174:0 175:0.00069306931 176:0.0058415839 177:0.00034653465 178:0.0020792079 179:0.004950495 180:0.0028217821 181:0.1 182:0 183:0 184:0.050000001 185:0.050000001 186:0.1 187:0 188:0.15000001 189:0 190:0.050000001 191:0 192:0.1 193:0.15000001 194:0 195:0.050000001 196:0 197:0 198:0.050000001 199:0.15000001 200:0 201:0.010247525 202:0.01200495 203:0.0055940594 204:0.0016584159 205:0.00094059407 206:0.0024752475 207:0.0071039605 208:0.016707921 209:0.0047772275 210:0.0074752476 211:0.011782179 212:0.0038861386 213:0.0027970297 214:0.00061881187 215:0.00259901 216:0.010841584 217:0.0031435643 218:0.0039851484 219:0.0077970298 220:0.0069059404 221:0.079999998 222:0.02 223:0 224:0.039999999 225:0.039999999 226:0.079999998 227:0.02 228:0.14 229:0 230:0.059999999 231:0.02 232:0.079999998 233:0.12 234:0.059999999 235:0.059999999 236:0 237:0.02 238:0.02 239:0.12 240:0.02 241:0.01608911 242:0.025420792 243:0.013861386 244:0.0023019803 245:0.0063613863 246:0.0027970297 247:0.010792079 248:0.020420792 249:0.0090346532 250:0.014653466 251:0.02170792 252:0.0084900986 253:0.0033910892 254:0.003069307 255:0.0087376237 256:0.020866336 257:0.0099752471 258:0.010445544 259:0.016039604 260:0.013564357 261:0.1 262:0.039999999 263:0 264:0.039999999 265:0.029999999 266:0.079999998 267:0.059999999 268:0.11 269:0.029999999 270:0.050000001 271:0.02 272:0.07 273:0.13 274:0.059999999 275:0.059999999 276:0.02 277:0.0099999998 278:0.0099999998 279:0.07 280:0.0099999998 #CYC2_YEAST                    
2.129605572926443368686477697338 1:0.044444446 2:0.099603176 3:0.073809527 4:0.024603175 5:0.059920635 6:0.015079365 7:0.036111113 8:0.029365079 9:0.043650795 10:0.037301589 11:0.068650797 12:0.053174604 13:0.012301587 14:0.021031747 15:0.054761905 16:0.085317463 17:0.04920635 18:0.063888893 19:0.063492067 20:0.055158731 21:0.089030206 22:0.052464228 23:0.019077901 24:0.050874405 25:0.068362482 26:0.060413353 27:0.054054055 28:0.073131956 29:0.054054055 30:0.034976151 31:0.04292528 32:0.04292528 33:0.10015898 34:0.074721783 35:0.036565978 36:0.063593008 37:0.023847377 38:0.014308427 39:0.031796504 40:0.012718601 41:0.0035714286 42:0.0027777778 43:0 44:0.0027777778 45:0.0015873016 46:0.0019841271 47:0.0003968254 48:0.0011904762 49:0 50:0.0003968254 51:0.0051587303 52:0.0015873016 53:0 54:0 55:0.0051587303 56:0 57:0.0027777778 58:0.0003968254 59:0.0019841271 60:0 61:0 62:0.15000001 63:0 64:0 65:0 66:0.050000001 67:0.1 68:0.2 69:0.050000001 70:0.050000001 71:0 72:0.1 73:0.1 74:0 75:0 76:0.050000001 77:0.050000001 78:0.050000001 79:0.050000001 80:0 81:0.0051587303 82:0.0035714286 83:0.0019841271 84:0.0039682542 85:0.0043650796 86:0.0019841271 87:0.0035714286 88:0.0011904762 89:0.0003968254 90:0.0019841271 91:0.0055555557 92:0.0031746032 93:0.0011904762 94:0.0015873016 95:0.0079365084 96:0.0039682542 97:0.0051587303 98:0.0015873016 99:0.0051587303 100:0 101:0.050000001 102:0.125 103:0.025 104:0 105:0.025 106:0.075000003 107:0.1 108:0.1 109:0.050000001 110:0.050000001 111:0.025 112:0.075000003 113:0.050000001 114:0.025 115:0.025 116:0.075000003 117:0.050000001 118:0.025 119:0.025 120:0.025 121:0.0063492064 122:0.0079365084 123:0.0023809525 124:0.0039682542 125:0.0059523811 126:0.0023809525 127:0.0071428572 128:0.0023809525 129:0.0019841271 130:0.0023809525 131:0.0075396826 132:0.0039682542 133:0.0023809525 134:0.0015873016 135:0.0095238099 136:0.0075396826 137:0.0059523811 138:0.0043650796 139:0.0079365084 140:0.0015873016 141:0.06666667 142:0.083333336 143:0.016666668 144:0.016666668 145:0.050000001 146:0.083333336 147:0.06666667 148:0.083333336 149:0.050000001 150:0.083333336 151:0.016666668 152:0.06666667 153:0.083333336 154:0.033333335 155:0.016666668 156:0.06666667 157:0.033333335 158:0.016666668 159:0.033333335 160:0.033333335 161:0.0015873016 162:0.0031746032 163:0.0047619049 164:0 165:0 166:0 167:0 168:0.0015873016 169:0 170:0.0011904762 171:0.0015873016 172:0.0003968254 173:0 174:0.0015873016 175:0 176:0.0031746032 177:0.0011904762 178:0.0051587303 179:0.0031746032 180:0.0031746032 181:0.1 182:0 183:0.050000001 184:0.1 185:0.15000001 186:0.1 187:0.050000001 188:0.050000001 189:0 190:0 191:0 192:0.050000001 193:0.1 194:0.15000001 195:0.050000001 196:0 197:0 198:0 199:0.050000001 200:0 201:0.0035714286 202:0.0067460318 203:0.0067460318 204:0.0035714286 205:0.0015873016 206:0 207:0.0039682542 208:0.0015873016 209:0.0031746032 210:0.0023809525 211:0.0051587303 212:0.0015873016 213:0.0019841271 214:0.0027777778 215:0.0003968254 216:0.011904762 217:0.0015873016 218:0.0099206353 219:0.0043650796 220:0.0063492064 221:0.16 222:0 223:0.039999999 224:0.079999998 225:0.14 226:0.059999999 227:0.02 228:0.079999998 229:0 230:0.039999999 231:0.039999999 232:0.039999999 233:0.079999998 234:0.079999998 235:0.02 236:0.02 237:0.059999999 238:0 239:0.02 240:0.02 241:0.0083333338 242:0.01547619 243:0.015079365 244:0.0055555557 245:0.0067460318 246:0 247:0.0063492064 248:0.0031746032 249:0.0055555557 250:0.0055555557 251:0.0095238099 252:0.010317461 253:0.0027777778 254:0.0063492064 255:0.0023809525 256:0.018650794 257:0.0047619049 258:0.01468254 259:0.0075396826 260:0.0095238099 261:0.13 262:0.0099999998 263:0.039999999 264:0.059999999 265:0.1 266:0.050000001 267:0.029999999 268:0.059999999 269:0.050000001 270:0.039999999 271:0.039999999 272:0.050000001 273:0.1 274:0.1 275:0.029999999 276:0.039999999 277:0.039999999 278:0 279:0.02 280:0.0099999998 #CBP2_YEAST                    
-0.57259125382654130209658660533023 1:0.058446214 2:0.086354584 3:0.062250998 4:0.013505976 5:0.038505975 6:0.0090239048 7:0.038764939 8:0.042051792 9:0.044721115 10:0.050318725 11:0.07310757 12:0.061513945 13:0.0061752987 14:0.016434263 15:0.039999999 16:0.086334661 17:0.032808766 18:0.080458164 19:0.068605579 20:0.059462152 21:0.093812376 22:0.047904193 23:0.011976048 24:0.061876249 25:0.073852293 26:0.0998004 27:0.029940119 28:0.063872255 29:0.059880238 30:0.041916169 31:0.029940119 32:0.057884231 33:0.087824352 34:0.07185629 35:0.045908183 36:0.039920159 37:0.011976048 38:0.0099800397 39:0.0499002 40:0.0099800397 41:0.0056573707 42:0.0043227091 43:0.0033067728 44:0.0019920319 45:0.0018326694 46:0 47:0.00049800798 48:0.0039840639 49:0.00065737055 50:0 51:0.0029880479 52:0.0024900399 53:0 54:0 55:0.00049800798 56:0.0019920319 57:0.00099601597 58:0.0019920319 59:0.0041434262 60:0.0024900399 61:0.050000001 62:0 63:0 64:0.050000001 65:0.050000001 66:0.1 67:0.050000001 68:0.1 69:0.050000001 70:0 71:0 72:0.2 73:0.15000001 74:0.050000001 75:0 76:0.050000001 77:0 78:0 79:0.1 80:0 81:0.010537849 82:0.0067131473 83:0.0038047808 84:0.0019920319 85:0.0071115536 86:0 87:0.00089641433 88:0.0048804781 89:0.0054382472 90:0.0023904382 91:0.0061752987 92:0.0028884462 93:0.0019920319 94:0.0013944223 95:0.0014940239 96:0.005577689 97:0.00099601597 98:0.0048804781 99:0.0056374501 100:0.0048804781 101:0.075000003 102:0 103:0.025 104:0.050000001 105:0.075000003 106:0.075000003 107:0.025 108:0.1 109:0.025 110:0 111:0.075000003 112:0.175 113:0.075000003 114:0.025 115:0.025 116:0.1 117:0 118:0 119:0.050000001 120:0.025 121:0.011733068 122:0.0079083666 123:0.0069920318 124:0.0019920319 125:0.0087051792 126:0 127:0.0048804781 128:0.0052788844 129:0.0066334661 130:0.0043824702 131:0.010956176 132:0.0040836656 133:0.0027888445 134:0.0013944223 135:0.0038844622 136:0.010756972 137:0.00099601597 138:0.0088645415 139:0.009621514 140:0.0076693227 141:0.11666667 142:0.016666668 143:0.016666668 144:0.050000001 145:0.06666667 146:0.1 147:0.016666668 148:0.11666667 149:0.016666668 150:0.033333335 151:0.050000001 152:0.11666667 153:0.050000001 154:0.050000001 155:0.033333335 156:0.083333336 157:0 158:0 159:0.033333335 160:0.033333335 161:0.0049003982 162:0.0010159363 163:0.0013944223 164:0 165:0.00025896414 166:0 167:0.0029482071 168:0.0027888445 169:0.0015537848 170:0.0035856573 171:0.001812749 172:0.0023505976 173:0 174:0.00079681276 175:0.0047808765 176:0.0091633471 177:0.0011952191 178:0 179:0.0014143427 180:0 181:0.2 182:0.15000001 183:0.050000001 184:0 185:0 186:0.050000001 187:0.050000001 188:0.050000001 189:0 190:0.050000001 191:0.050000001 192:0.1 193:0 194:0.050000001 195:0.1 196:0 197:0 198:0 199:0.1 200:0 201:0.010697211 202:0.0095617529 203:0.0069521912 204:0.00077689241 205:0.0027689242 206:0 207:0.0034661354 208:0.0033067728 209:0.0048406376 210:0.0073306775 211:0.0066334661 212:0.0048804781 213:0 214:0.0015737052 215:0.006812749 216:0.016155379 217:0.0047211153 218:0.0033067728 219:0.0064342627 220:0.00025896414 221:0.18000001 222:0.1 223:0.02 224:0 225:0.02 226:0.079999998 227:0.039999999 228:0.039999999 229:0.02 230:0.02 231:0.059999999 232:0.14 233:0.059999999 234:0.079999998 235:0.079999998 236:0.02 237:0 238:0 239:0.039999999 240:0 241:0.014741036 242:0.024621515 243:0.012270916 244:0.0020717131 245:0.0055378485 246:0 247:0.0057171313 248:0.005577689 249:0.0089043826 250:0.011115538 251:0.012171315 252:0.010179283 253:0.00051792827 254:0.0028685259 255:0.015657371 256:0.027450198 257:0.010019921 258:0.013625498 259:0.011752988 260:0.0065537849 261:0.16 262:0.1 263:0.0099999998 264:0.039999999 265:0.07 266:0.07 267:0.02 268:0.039999999 269:0.039999999 270:0.02 271:0.029999999 272:0.1 273:0.11 274:0.059999999 275:0.059999999 276:0.029999999 277:0 278:0 279:0.039999999 280:0 #RSC58_YEAST                   
-0.2235452832474749684799064652907 1:0.05510537 2:0.10692726 3:0.062399726 4:0.023528213 5:0.038497619 6:0.0095853163 7:0.031883072 8:0.043983683 9:0.067056425 10:0.026016315 11:0.064167231 12:0.047552686 13:0.012902787 14:0.021583956 15:0.050774984 16:0.077212781 17:0.051386811 18:0.077960573 19:0.049082257 20:0.045492861 21:0.070068024 22:0.046938777 23:0.025850341 24:0.03537415 25:0.058503401 26:0.068707481 27:0.05102041 28:0.10136054 29:0.046938777 30:0.039455783 31:0.057823129 32:0.060544219 33:0.12108844 34:0.06530612 35:0.025850341 36:0.044897959 37:0.01292517 38:0.010884354 39:0.038775511 40:0.017687075 41:0.0015227736 42:0.00043507817 43:0.00050305913 44:0.00060503057 45:0.00030591435 46:0.00067301159 47:7.4779062e-05 48:0.00098572404 49:0.0012168593 50:0.00071380014 51:0.0010944935 52:0.00067301159 53:0.00041468389 54:0.00048266485 55:0.00046906865 56:0.0006254249 57:0.00048266485 58:0.00097212783 59:0.00028552004 60:0.0007953773 61:0 62:0.050000001 63:0.1 64:0 65:0.050000001 66:0.15000001 67:0 68:0.2 69:0 70:0 71:0.050000001 72:0.1 73:0.050000001 74:0 75:0 76:0 77:0 78:0.1 79:0.1 80:0.050000001 81:0.0028552006 82:0.0010129163 83:0.0014547927 84:0.00063902105 85:0.00058463629 86:0.0010129163 87:0.00027872197 88:0.0022841603 89:0.00210741 90:0.00080217537 91:0.0017811013 92:0.0014683888 93:0.00046227057 94:0.00057104009 95:0.00084976206 96:0.0017539089 97:0.00080897351 98:0.0024677091 99:0.00050305913 100:0.0014887832 101:0.050000001 102:0.050000001 103:0.050000001 104:0.050000001 105:0.050000001 106:0.1 107:0 108:0.1 109:0.025 110:0 111:0.1 112:0.125 113:0.050000001 114:0.050000001 115:0 116:0 117:0 118:0.050000001 119:0.125 120:0.025 121:0.0043167914 122:0.0018490823 123:0.0019578517 124:0.00097212783 125:0.0007953773 126:0.0010197145 127:0.00040108769 128:0.0029707681 129:0.0026308633 130:0.0011556764 131:0.0024065261 132:0.002739633 133:0.00056424201 134:0.00075458869 135:0.0012644459 136:0.0032562881 137:0.0015159756 138:0.0035825968 139:0.0014411964 140:0.002603671 141:0.050000001 142:0.050000001 143:0.033333335 144:0.033333335 145:0.050000001 146:0.11666667 147:0.050000001 148:0.1 149:0.033333335 150:0.016666668 151:0.083333336 152:0.11666667 153:0.06666667 154:0.050000001 155:0 156:0 157:0 158:0.033333335 159:0.1 160:0.016666668 161:0.00022433719 162:0.0040788581 163:0.0011352821 164:0 165:0 166:0 167:0.00045547247 168:0 169:0.0013596193 170:0.00022433719 171:0.00067980966 172:0.00090414681 173:0 174:0.00067980966 175:0.00045547247 176:0.00090414681 177:0 178:0.0015907546 179:0.00067980966 180:0.00022433719 181:0.050000001 182:0.050000001 183:0.050000001 184:0 185:0.15000001 186:0.050000001 187:0 188:0.050000001 189:0.050000001 190:0.050000001 191:0.1 192:0 193:0.30000001 194:0.1 195:0 196:0 197:0 198:0 199:0 200:0 201:0.00069340586 202:0.0061998642 203:0.0027328348 204:0.00019034671 205:0.0011488784 206:0 207:0.00055064581 208:0.0015703603 209:0.0026308633 210:0.0015839565 211:0.0031815092 212:0.0024813053 213:0 214:0.0013596193 215:0.00067980966 216:0.0015635622 217:0.00019034671 218:0.0026988443 219:0.0030727396 220:0.001271244 221:0.059999999 222:0.02 223:0.039999999 224:0 225:0.079999998 226:0.14 227:0 228:0.059999999 229:0.079999998 230:0.02 231:0.1 232:0 233:0.18000001 234:0.1 235:0.039999999 236:0.02 237:0 238:0 239:0.059999999 240:0 241:0.0032290958 242:0.0095309317 243:0.0064649899 244:0.00050305913 245:0.0015567641 246:0.00033990483 247:0.0022977567 248:0.001828688 249:0.0064106048 250:0.0033650578 251:0.0056560165 252:0.0036165873 253:0.0011828688 254:0.0015703603 255:0.0014276003 256:0.0039292998 257:0.0026376615 258:0.0047654659 259:0.0042284159 260:0.0028755949 261:0.07 262:0.02 263:0.02 264:0.0099999998 265:0.07 266:0.1 267:0.02 268:0.090000004 269:0.039999999 270:0.029999999 271:0.079999998 272:0.050000001 273:0.17 274:0.059999999 275:0.059999999 276:0.029999999 277:0 278:0 279:0.039999999 280:0.039999999 #MYO51_SCHPO                   
-1.2867826053038016187457515115966 1:0.064205609 2:0.094813086 3:0.055747662 4:0.033037383 5:0.018504674 6:0.0086448602 7:0.022897197 8:0.061869159 9:0.092476636 10:0.027336448 11:0.079439253 12:0.061635513 13:0.01724299 14:0.014252337 15:0.037803739 16:0.077663548 17:0.03948598 18:0.062757008 19:0.028130841 20:0.046028037 21:0.065727696 22:0.032863848 23:0.018779343 24:0.061032865 25:0.065727696 26:0.037558686 27:0.032863848 28:0.089201875 29:0.084507041 30:0.023474179 31:0.12206573 32:0.037558686 33:0.089201875 34:0.065727696 35:0.028169014 36:0.023474179 37:0.032863848 38:0.0093896715 39:0.061032865 40:0.018779343 41:0.0054672896 42:0.0093457941 43:0.008551402 44:0.012476635 45:0.0058411215 46:0 47:0.0023364485 48:0 49:0.004672897 50:0 51:0.016728971 52:0.010140187 53:0 54:0 55:0.0011682243 56:0.0062149535 57:0 58:0.0058411215 59:0.004672897 60:0 61:0.050000001 62:0 63:0 64:0 65:0.050000001 66:0.050000001 67:0 68:0.15000001 69:0.15000001 70:0.050000001 71:0.050000001 72:0.050000001 73:0.1 74:0.1 75:0 76:0.050000001 77:0.1 78:0.050000001 79:0 80:0 81:0.0099065425 82:0.022943925 83:0.015981309 84:0.01406542 85:0.011962617 86:0.0035046728 87:0.0066822432 88:0.010046729 89:0.016635515 90:0.0010280374 91:0.026168223 92:0.018364485 93:0.0018224299 94:0.0014485981 95:0.0029906542 96:0.006588785 97:0.0028971962 98:0.0058411215 99:0.0053738318 100:0.00074766355 101:0.025 102:0 103:0 104:0 105:0.025 106:0.050000001 107:0.025 108:0.15000001 109:0.15000001 110:0.050000001 111:0.125 112:0.050000001 113:0.075000003 114:0.075000003 115:0 116:0.075000003 117:0.050000001 118:0.025 119:0.050000001 120:0 121:0.01457944 122:0.028364485 123:0.016728971 124:0.015887851 125:0.012336449 126:0.0038785047 127:0.0070560747 128:0.012570093 129:0.023785047 130:0.0060280375 131:0.040841121 132:0.022616822 133:0.0032242991 134:0.0014485981 135:0.0094859814 136:0.019906541 137:0.0054672896 138:0.0094859814 139:0.0068691587 140:0.0018691589 141:0.1 142:0.016666668 143:0 144:0 145:0.050000001 146:0.033333335 147:0.016666668 148:0.16666667 149:0.13333334 150:0.033333335 151:0.1 152:0.033333335 153:0.1 154:0.050000001 155:0 156:0.050000001 157:0.050000001 158:0.016666668 159:0.050000001 160:0 161:0.008551402 162:0.013364486 163:0.0063084112 164:0.00028037385 165:0.0009813084 166:9.3457944e-05 167:0.0042056073 168:0.013504673 169:0.0066355141 170:0.0076168226 171:0.0022429908 172:0.0051401868 173:0 174:0.0020560748 175:0.0011682243 176:0.0081775701 177:0.0012616822 178:0.0032710279 179:0.0009813084 180:0.0066355141 181:0.1 182:0 183:0 184:0.1 185:0 186:0 187:0.050000001 188:0 189:0.050000001 190:0.050000001 191:0.1 192:0.050000001 193:0.2 194:0.050000001 195:0.1 196:0 197:0 198:0 199:0.15000001 200:0 201:0.020186916 202:0.024205608 203:0.017803738 204:0.001682243 205:0.0014953271 206:9.3457944e-05 207:0.006775701 208:0.025327103 209:0.026448598 210:0.011261682 211:0.010514019 212:0.018925233 213:0.0020560748 214:0.0052803736 215:0.010607476 216:0.014859813 217:0.0095327105 218:0.0082242992 219:0.0051401868 220:0.012196261 221:0.059999999 222:0.02 223:0.02 224:0.059999999 225:0 226:0.02 227:0.039999999 228:0.039999999 229:0.059999999 230:0.039999999 231:0.2 232:0.079999998 233:0.12 234:0.079999998 235:0.039999999 236:0 237:0 238:0 239:0.12 240:0 241:0.033411216 242:0.048551403 243:0.025747664 244:0.0075700935 245:0.0036448599 246:0.0047663553 247:0.01228972 248:0.034299064 249:0.050747663 250:0.017803738 251:0.020560747 252:0.027429907 253:0.012429907 254:0.01135514 255:0.021121494 256:0.033411216 257:0.02317757 258:0.026074767 259:0.012336449 260:0.018691588 261:0.059999999 262:0.039999999 263:0.029999999 264:0.050000001 265:0.0099999998 266:0.039999999 267:0.039999999 268:0.039999999 269:0.07 270:0.029999999 271:0.17 272:0.039999999 273:0.1 274:0.07 275:0.050000001 276:0.02 277:0.02 278:0.0099999998 279:0.07 280:0.039999999 #PTH2_YEAST                    
3.1913002364484825967849701555679 1:0.076184213 2:0.15320176 3:0.11100877 4:0.033070177 5:0.07276316 6:0.0094298245 7:0.047894739 8:0.052807018 9:0.050657894 10:0.022280702 11:0.064561404 12:0.046008773 13:0.0031578948 14:0.012894737 15:0.018947368 16:0.01872807 17:0.013026316 18:0.027368421 19:0.058421053 20:0.023991227 21:0.022026431 22:0.013215859 23:0 24:0.030837005 25:0.026431719 26:0.088105723 27:0.022026431 28:0.088105723 29:0.052863438 30:0.057268724 31:0.022026431 32:0.083700441 33:0.13656388 34:0.18502203 35:0.013215859 36:0.057268724 37:0.013215859 38:0.0088105723 39:0.074889868 40:0.0044052862 41:0.0014473684 42:0.014649123 43:0.01254386 44:0.0058333334 45:0.0058333334 46:0 47:0.0093859648 48:0.0043859649 49:0.0021929825 50:0 51:0.0043859649 52:0 53:0 54:0 55:0 56:0 57:0.0029385965 58:0.0014473684 59:0.01754386 60:0.005131579 61:0 62:0 63:0 64:0.050000001 65:0.050000001 66:0.25 67:0 68:0.050000001 69:0 70:0.1 71:0 72:0.050000001 73:0.2 74:0.15000001 75:0 76:0.050000001 77:0 78:0 79:0.050000001 80:0 81:0.0049561402 82:0.026052631 83:0.02754386 84:0.0064473683 85:0.016754385 86:0 87:0.014429824 88:0.0099999998 89:0.0059210528 90:0.00074561406 91:0.010657894 92:0.0042543858 93:0.00013157894 94:0.00057017541 95:0.00065789477 96:0.0020614036 97:0.0033333334 98:0.0058771931 99:0.024912281 100:0.010350877 101:0.025 102:0 103:0 104:0.075000003 105:0.050000001 106:0.15000001 107:0 108:0.050000001 109:0.025 110:0.1 111:0 112:0.050000001 113:0.125 114:0.2 115:0 116:0.1 117:0 118:0 119:0.050000001 120:0 121:0.01991228 122:0.038771931 123:0.033771928 124:0.0085526314 125:0.021447368 126:0.00021929825 127:0.017675439 128:0.015219298 129:0.0095175439 130:0.0059649125 131:0.021535087 132:0.010043859 133:0.00061403506 134:0.0023684211 135:0.0024122808 136:0.0052192984 137:0.0046491227 138:0.0059649125 139:0.029561404 140:0.010350877 141:0.016666668 142:0.016666668 143:0 144:0.050000001 145:0.033333335 146:0.11666667 147:0 148:0.06666667 149:0.050000001 150:0.06666667 151:0 152:0.1 153:0.11666667 154:0.18333334 155:0.016666668 156:0.11666667 157:0 158:0 159:0.050000001 160:0 161:0.0083771925 162:0.016929824 163:0.01377193 164:0.0067982455 165:0.0012280701 166:0 167:0.0004385965 168:0.0053947368 169:0.0092543857 170:0.0021491228 171:0.0053070174 172:0.0045175441 173:0.0004385965 174:0.0024999999 175:0.0047807018 176:0.0034210526 177:0.0011842105 178:0.00078947371 179:0.00021929825 180:0.0001754386 181:0.1 182:0 183:0 184:0 185:0 186:0 187:0.050000001 188:0.1 189:0.050000001 190:0 191:0.050000001 192:0.15000001 193:0.15000001 194:0.2 195:0 196:0 197:0.050000001 198:0 199:0.1 200:0 201:0.015043859 202:0.036359649 203:0.023508772 204:0.0090789478 205:0.0083771925 206:0.0054385965 207:0.012631579 208:0.012149123 209:0.013421053 210:0.0027192982 211:0.013201755 212:0.015833333 213:0.00074561406 214:0.0047368421 215:0.0075438595 216:0.0053070174 217:0.0029824562 218:0.0049561402 219:0.0089473687 220:0.0025877194 221:0.059999999 222:0 223:0 224:0.02 225:0.02 226:0.059999999 227:0.039999999 228:0.079999998 229:0.079999998 230:0.039999999 231:0.02 232:0.079999998 233:0.1 234:0.2 235:0 236:0.02 237:0.039999999 238:0.039999999 239:0.1 240:0 241:0.023157895 242:0.056535088 243:0.039780702 244:0.012149123 245:0.020657895 246:0.0072368421 247:0.02109649 248:0.017675439 249:0.018947368 250:0.010043859 251:0.027894737 252:0.029780703 253:0.0013157895 254:0.0067105265 255:0.012061403 256:0.0089912284 257:0.0063157897 258:0.011447368 259:0.021052632 260:0.0083333338 261:0.039999999 262:0.0099999998 263:0 264:0.029999999 265:0.02 266:0.079999998 267:0.050000001 268:0.12 269:0.07 270:0.050000001 271:0.0099999998 272:0.07 273:0.079999998 274:0.2 275:0.0099999998 276:0.02 277:0.02 278:0.02 279:0.090000004 280:0.0099999998 #YMCC_EMENI                    
1.2335955713555937229841674707131 1:0.034057971 2:0.060869563 3:0.045434784 4:0.015072464 5:0.049927536 6:0.0036231885 7:0.027463768 8:0.084057972 9:0.066304348 10:0.08898551 11:0.065579712 12:0.063840583 13:0.0090579707 14:0.0088405795 15:0.077391304 16:0.060652174 17:0.046376813 18:0.086521737 19:0.043043479 20:0.048043478 21:0.05839416 22:0.087591238 23:0.00729927 24:0.05109489 25:0.087591238 26:0.05109489 27:0.043795619 28:0.05839416 29:0.087591238 30:0.02919708 31:0.05109489 32:0.02189781 33:0.072992697 34:0.05109489 35:0.087591238 36:0.05109489 37:0.00729927 38:0 39:0.087591238 40:0.00729927 41:0.0042028986 42:0.017536232 43:0.0072463769 44:0.0072463769 45:0 46:0 47:0.014492754 48:0.012101449 49:0.012101449 50:0.0072463769 51:0.011449276 52:0.012101449 53:0.0072463769 54:0 55:0.016304348 56:0.0096376808 57:0.0023913044 58:0 59:0.0036231885 60:0 61:0.050000001 62:0.1 63:0 64:0 65:0 66:0.050000001 67:0 68:0.050000001 69:0.1 70:0.1 71:0.1 72:0 73:0.2 74:0.050000001 75:0.050000001 76:0 77:0 78:0 79:0.1 80:0.050000001 81:0.0096376808 82:0.026594203 83:0.018478261 84:0.011811594 85:0.0090579707 86:0 87:0.015507246 88:0.021086957 89:0.023260869 90:0.019782608 91:0.018333333 92:0.026304347 93:0.0084782606 94:0 95:0.04210145 96:0.014202898 97:0.0046376809 98:0.0061594201 99:0.0099275364 100:0.0010144927 101:0.050000001 102:0.15000001 103:0 104:0 105:0.025 106:0.050000001 107:0 108:0.025 109:0.125 110:0.050000001 111:0.075000003 112:0 113:0.1 114:0.075000003 115:0.1 116:0.025 117:0.025 118:0 119:0.1 120:0.025 121:0.0096376808 122:0.041739132 123:0.023115942 124:0.011811594 125:0.016304348 126:0 127:0.015507246 128:0.021086957 129:0.035072464 130:0.042173915 131:0.022246378 132:0.02826087 133:0.0084782606 134:0.00065217394 135:0.055869564 136:0.024637681 137:0.024347827 138:0.035797101 139:0.011884058 140:0.0023188405 141:0.050000001 142:0.15000001 143:0 144:0 145:0.1 146:0.033333335 147:0.033333335 148:0.033333335 149:0.1 150:0.033333335 151:0.06666667 152:0 153:0.1 154:0.06666667 155:0.1 156:0.033333335 157:0.016666668 158:0 159:0.06666667 160:0.016666668 161:0.0078985505 162:0.0060144928 163:0.00057971012 164:0 165:0.013913044 166:0.0036231885 167:0.0060144928 168:0.016956521 169:0.0018115942 170:0.014492754 171:0.0065942029 172:0.0066666668 173:0.00057971012 174:0.0036231885 175:0.012028986 176:0.0085507249 177:0.0051449277 178:0.0029710145 179:0.008188406 180:0.019347826 181:0.050000001 182:0.1 183:0.050000001 184:0.15000001 185:0 186:0.050000001 187:0.050000001 188:0.050000001 189:0.050000001 190:0.050000001 191:0 192:0.050000001 193:0.050000001 194:0 195:0.1 196:0.1 197:0 198:0 199:0.1 200:0 201:0.01594203 202:0.0099275364 203:0.013115942 204:0.0013043479 205:0.030362319 206:0.0036231885 207:0.0073188404 208:0.057753623 209:0.0063768118 210:0.035652176 211:0.01905797 212:0.020507246 213:0.00057971012 214:0.00557971 215:0.016956521 216:0.024202898 217:0.006884058 218:0.035072464 219:0.018043479 220:0.031884059 221:0.059999999 222:0.039999999 223:0.02 224:0.1 225:0.079999998 226:0.059999999 227:0.02 228:0.079999998 229:0.059999999 230:0.02 231:0 232:0.059999999 233:0.02 234:0.039999999 235:0.1 236:0.1 237:0 238:0 239:0.14 240:0 241:0.024420289 242:0.034275364 243:0.026956521 244:0.0032608695 245:0.040869564 246:0.0036231885 247:0.011956521 248:0.065579712 249:0.046956521 250:0.074492753 251:0.049855072 252:0.037536234 253:0.00057971012 254:0.0088405795 255:0.035289854 256:0.046449274 257:0.041739132 258:0.08036232 259:0.033115942 260:0.047028985 261:0.059999999 262:0.059999999 263:0.0099999998 264:0.07 265:0.11 266:0.050000001 267:0.059999999 268:0.07 269:0.07 270:0.02 271:0.039999999 272:0.029999999 273:0.059999999 274:0.039999999 275:0.1 276:0.059999999 277:0 278:0 279:0.090000004 280:0 #FMP21_YEAST                   
0.81840796106834035050781039899448 1:0.053297296 2:0.087675676 3:0.050864864 4:0.014864865 5:0.053783786 6:0.00081081083 7:0.022540541 8:0.055405404 9:0.042324323 10:0.035513513 11:0.078378379 12:0.052864864 13:0.022972973 14:0.009675676 15:0.048702702 16:0.069837838 17:0.035459459 18:0.058486488 19:0.048378378 20:0.052432433 21:0.081521742 22:0.054347824 23:0.010869565 24:0.076086953 25:0.054347824 26:0.076086953 27:0.016304348 28:0.10869565 29:0.070652172 30:0.027173912 31:0.027173912 32:0.027173912 33:0.11413044 34:0.086956523 35:0.043478262 36:0.054347824 37:0 38:0 39:0.048913043 40:0.021739131 41:0 42:0.020702703 43:0.0013513514 44:0.0054054055 45:0.0090270266 46:0 47:0 48:0 49:0.0094594592 50:0.0027027028 51:0.0054054055 52:0.014864865 53:0 54:0.0013513514 55:0.016216217 56:0.0081081083 57:0.0067567569 58:0.0013513514 59:0.0040540542 60:0.0013513514 61:0.050000001 62:0.2 63:0 64:0 65:0 66:0.050000001 67:0.1 68:0.050000001 69:0.15000001 70:0 71:0.050000001 72:0 73:0.2 74:0 75:0.050000001 76:0.1 77:0 78:0 79:0 80:0 81:0.0057297298 82:0.028972972 83:0.007243243 84:0.0054054055 85:0.024054054 86:0 87:0.0049189189 88:0.0024864865 89:0.012540541 90:0.0090270266 91:0.018054053 92:0.020648649 93:0.0032432433 94:0.0031351352 95:0.017891891 96:0.017567568 97:0.010972973 98:0.0089729726 99:0.0062162164 100:0.0059459461 101:0.075000003 102:0.1 103:0.025 104:0.025 105:0 106:0.025 107:0.050000001 108:0.075000003 109:0.125 110:0.025 111:0.050000001 112:0.025 113:0.175 114:0 115:0.050000001 116:0.15000001 117:0 118:0 119:0 120:0.025 121:0.010918919 122:0.03918919 123:0.01718919 124:0.0058918917 125:0.025837839 126:0 127:0.006108108 128:0.0057837837 129:0.016216217 130:0.019837838 131:0.023297297 132:0.027135136 133:0.0038918918 134:0.0044864863 135:0.024972973 136:0.029405406 137:0.014702703 138:0.015243243 139:0.014486486 140:0.009675676 141:0.083333336 142:0.083333336 143:0.016666668 144:0.016666668 145:0.016666668 146:0.050000001 147:0.033333335 148:0.06666667 149:0.11666667 150:0.016666668 151:0.033333335 152:0.016666668 153:0.16666667 154:0.06666667 155:0.083333336 156:0.1 157:0 158:0 159:0.016666668 160:0.016666668 161:0.0057297298 162:0.0020000001 163:0.0064864866 164:0.0012972973 165:0.0078918915 166:0.00010810811 167:0.00037837838 168:0.012108108 169:0.0038918918 170:0.0035675676 171:0.015459459 172:0.0038918918 173:0.010810811 174:0 175:0.00021621621 176:0.0067027025 177:0.002972973 178:0.0038378378 179:0.015729729 180:0.004810811 181:0.050000001 182:0 183:0 184:0.050000001 185:0.050000001 186:0.1 187:0 188:0.25 189:0 190:0 191:0 192:0 193:0.050000001 194:0.15000001 195:0 196:0.050000001 197:0 198:0 199:0.15000001 200:0.1 201:0.022108108 202:0.020378379 203:0.01972973 204:0.0047567566 205:0.017567568 206:0.00032432433 207:0.0056756758 208:0.022 209:0.012054054 210:0.0054594595 211:0.031945948 212:0.012 213:0.011729729 214:0.0015135135 215:0.0057297298 216:0.01745946 217:0.0075135133 218:0.01345946 219:0.019675676 220:0.017945945 221:0.059999999 222:0.02 223:0 224:0.039999999 225:0.039999999 226:0.12 227:0 228:0.18000001 229:0.079999998 230:0.02 231:0 232:0.02 233:0.1 234:0.14 235:0 236:0.039999999 237:0 238:0 239:0.1 240:0.039999999 241:0.03183784 242:0.030702703 243:0.025135135 244:0.0071351351 245:0.027135136 246:0.00054054055 247:0.014756757 248:0.044918917 249:0.017621621 250:0.011567567 251:0.044864863 252:0.019837838 253:0.017351352 254:0.0035135136 255:0.010378378 256:0.02854054 257:0.015891891 258:0.029405406 259:0.027405405 260:0.037999999 261:0.090000004 262:0.0099999998 263:0.0099999998 264:0.13 265:0.050000001 266:0.079999998 267:0.0099999998 268:0.12 269:0.059999999 270:0.029999999 271:0.0099999998 272:0.029999999 273:0.090000004 274:0.1 275:0.029999999 276:0.039999999 277:0 278:0 279:0.079999998 280:0.029999999 #ISA2_YEAST                    
-3.8902101836185973837700657895766 1:0.049215116 2:0.081380814 3:0.048444767 4:0.017063953 5:0.045639534 6:0.017398255 7:0.029200582 8:0.042965118 9:0.044156976 10:0.033938952 11:0.070523255 12:0.042063955 13:0.019520348 14:0.026322674 15:0.04946221 16:0.047863372 17:0.033270348 18:0.053415697 19:0.045116279 20:0.046031978 21:0.071324602 22:0.052401748 23:0.032023288 24:0.071324602 25:0.052401748 26:0.075691409 27:0.045123726 28:0.08442504 29:0.050946143 30:0.033478893 31:0.021834061 32:0.052401748 33:0.1091703 34:0.056768559 35:0.034934498 36:0.059679765 37:0.014556041 38:0.018922852 39:0.048034936 40:0.014556041 41:0.0036627906 42:0.0022383721 43:0.0022238372 44:0.0017151163 45:0.00037790698 46:4.360465e-05 47:0.00074127904 48:0.00085755816 49:0.0011918604 50:0.0015406976 51:0.0007994186 52:0.0016715117 53:0.00023255814 54:0.0011191861 55:0.0024563954 56:0.0024563954 57:0.00046511629 58:0.0020494186 59:0.0016424418 60:0.0018023256 61:0.1 62:0.1 63:0.050000001 64:0 65:0.050000001 66:0.050000001 67:0 68:0.050000001 69:0.1 70:0.050000001 71:0.1 72:0.15000001 73:0.050000001 74:0.1 75:0 76:0 77:0 78:0 79:0.050000001 80:0 81:0.0050290697 82:0.0065406975 83:0.0041279071 84:0.0017151163 85:0.0017296511 86:7.2674418e-05 87:0.0016569768 88:0.002994186 89:0.0024563954 90:0.0022674419 91:0.0032122093 92:0.0060174419 93:0.0006395349 94:0.0035610464 95:0.0034011628 96:0.0029360466 97:0.0012063953 98:0.0029069767 99:0.0026598838 100:0.0025581396 101:0.050000001 102:0.050000001 103:0.1 104:0 105:0.050000001 106:0.025 107:0.050000001 108:0.075000003 109:0.15000001 110:0.025 111:0.050000001 112:0.075000003 113:0.125 114:0.075000003 115:0.025 116:0.025 117:0 118:0 119:0.050000001 120:0 121:0.0062936046 122:0.0089534884 123:0.0063808141 124:0.0020930232 125:0.0023691861 126:0.0013662791 127:0.0021802327 128:0.0037354652 129:0.0035901163 130:0.0035610464 131:0.0051017441 132:0.0074273255 133:0.00091569766 134:0.005014535 135:0.0039244187 136:0.0047819768 137:0.0015697675 138:0.0051744184 139:0.0032848837 140:0.0029360466 141:0.050000001 142:0.033333335 143:0.083333336 144:0 145:0.050000001 146:0.033333335 147:0.033333335 148:0.06666667 149:0.11666667 150:0.050000001 151:0.033333335 152:0.06666667 153:0.11666667 154:0.06666667 155:0.06666667 156:0.050000001 157:0 158:0.016666668 159:0.06666667 160:0 161:0.00058139535 162:0.0023255814 163:0.001991279 164:0.00087209302 165:0.0040697674 166:0 167:0 168:0.003633721 169:0.00058139535 170:0.00029069767 171:0.0037063954 172:0.00098837214 173:0 174:0 175:0.00058139535 176:0.0046511628 177:0 178:0.0011191861 179:0.0020930232 180:0.0015988372 181:0.1 182:0.050000001 183:0 184:0.1 185:0 186:0.1 187:0 188:0.1 189:0 190:0 191:0 192:0 193:0.1 194:0.050000001 195:0 196:0.15000001 197:0.050000001 198:0 199:0.2 200:0 201:0.0025726743 202:0.0044767442 203:0.0030087209 204:0.0024127907 205:0.0044186045 206:0.00021802326 207:0.00031976745 208:0.0051162792 209:0.0022674419 210:0.0026598838 211:0.007645349 212:0.0023546512 213:0.00061046513 214:0.0018895349 215:0.0037063954 216:0.0072238371 217:0.0012936046 218:0.0051017441 219:0.0049273255 220:0.0054360465 221:0.14 222:0.079999998 223:0.039999999 224:0.12 225:0.059999999 226:0.079999998 227:0 228:0.14 229:0 230:0 231:0 232:0.039999999 233:0.059999999 234:0.039999999 235:0.02 236:0.059999999 237:0.039999999 238:0 239:0.079999998 240:0 241:0.0062500001 242:0.010508721 243:0.0053197676 244:0.003357558 245:0.0078343023 246:0.0029796511 247:0.003880814 248:0.0072529069 249:0.0044476744 250:0.0065552327 251:0.011148256 252:0.0039098836 253:0.0010319768 254:0.0034302326 255:0.0072529069 256:0.011075581 257:0.003866279 258:0.0089244191 259:0.0093313949 260:0.0088953488 261:0.12 262:0.079999998 263:0.029999999 264:0.079999998 265:0.090000004 266:0.079999998 267:0.050000001 268:0.1 269:0 270:0.0099999998 271:0 272:0.039999999 273:0.059999999 274:0.050000001 275:0.029999999 276:0.050000001 277:0.029999999 278:0.039999999 279:0.059999999 280:0 #YMR1_YEAST                    
-0.65454392797731042463738049264066 1:0.052346155 2:0.072442308 3:0.049134616 4:0.020211538 5:0.044519231 6:0.012538462 7:0.025442308 8:0.059615385 9:0.049634617 10:0.048576921 11:0.076019228 12:0.050807692 13:0.02373077 14:0.016807692 15:0.057692308 16:0.065769233 17:0.035192307 18:0.054615386 19:0.048057694 20:0.055326924 21:0.0867052 22:0.065510601 23:0.015414258 24:0.067437381 25:0.05202312 26:0.063583814 27:0.03468208 28:0.0867052 29:0.048169557 30:0.028901733 31:0.03468208 32:0.05009634 33:0.084778421 34:0.080924854 35:0.04238921 36:0.05009634 37:0.019267824 38:0.0096339118 39:0.057803467 40:0.021194605 41:0.0015769231 42:0.0036923077 43:0.0022499999 44:0.0026538461 45:0.00063461537 46:0 47:0.00019230769 48:0.0016730769 49:0 50:0 51:0.0068461536 52:0.0033653846 53:0.00051923079 54:0 55:0.0017115384 56:0.0032500001 57:0.00038461538 58:0.00275 59:0.0042115385 60:0.0028461539 61:0.050000001 62:0.050000001 63:0 64:0.050000001 65:0.1 66:0.1 67:0 68:0.2 69:0.15000001 70:0 71:0 72:0 73:0.15000001 74:0.050000001 75:0 76:0.050000001 77:0 78:0 79:0.050000001 80:0 81:0.0035000001 82:0.0046346155 83:0.0042884615 84:0.0033076922 85:0.0039230771 86:0.0014615385 87:0.0016153846 88:0.0039807693 89:0.00096153846 90:0.0022307693 91:0.0097692311 92:0.0053653847 93:0.00098076928 94:0.00076923077 95:0.0043461537 96:0.0041923076 97:0.0020961538 98:0.0036346153 99:0.0098653845 100:0.002923077 101:0.025 102:0.050000001 103:0.025 104:0.025 105:0.050000001 106:0.125 107:0.075000003 108:0.125 109:0.1 110:0.025 111:0 112:0.025 113:0.075000003 114:0.050000001 115:0.025 116:0.125 117:0.025 118:0 119:0.050000001 120:0 121:0.006096154 122:0.0097500002 123:0.0081538465 124:0.0042500002 125:0.0071346154 126:0.0015192308 127:0.0018846154 128:0.0047307694 129:0.0035384616 130:0.0022307693 131:0.011384616 132:0.0074999998 133:0.0019038462 134:0.00098076928 135:0.0057884618 136:0.0053461539 137:0.0050961538 138:0.0070384615 139:0.010692308 140:0.0071153846 141:0.033333335 142:0.06666667 143:0.016666668 144:0.050000001 145:0.050000001 146:0.083333336 147:0.06666667 148:0.11666667 149:0.083333336 150:0.016666668 151:0.016666668 152:0.033333335 153:0.083333336 154:0.06666667 155:0.016666668 156:0.15000001 157:0.016666668 158:0 159:0.033333335 160:0 161:0.0015192308 162:0.0013846154 163:0.00025000001 164:0 165:0.0038461538 166:0.0019230769 167:0 168:0.0029423076 169:0.0021730768 170:0.0027692309 171:0.0045961537 172:0.0016730769 173:0.0019230769 174:0.00048076923 175:0.0032692307 176:0.001326923 177:0.0023653847 178:0.0015769231 179:0.0026923076 180:0.0018076923 181:0.050000001 182:0.1 183:0 184:0.050000001 185:0.050000001 186:0.1 187:0.050000001 188:0.2 189:0.050000001 190:0 191:0 192:0.050000001 193:0 194:0 195:0 196:0.1 197:0 198:0.050000001 199:0.1 200:0.050000001 201:0.0041730767 202:0.0047115386 203:0.00096153846 204:0.0010192308 205:0.0064038462 206:0.0034615383 207:0.0009423077 208:0.0084038461 209:0.0047499998 210:0.0084423078 211:0.0085961539 212:0.0052884617 213:0.0062884614 214:0.002576923 215:0.0066923075 216:0.0086923074 217:0.0036153847 218:0.0036153847 219:0.0049615386 220:0.0022499999 221:0.1 222:0.079999998 223:0.02 224:0.02 225:0.059999999 226:0.059999999 227:0.02 228:0.14 229:0.059999999 230:0 231:0.02 232:0.02 233:0.039999999 234:0.02 235:0.059999999 236:0.059999999 237:0.02 238:0.039999999 239:0.1 240:0.059999999 241:0.0082307691 242:0.0089423079 243:0.0048461538 244:0.0027692309 245:0.010711539 246:0.0040961537 247:0.0017307692 248:0.011153846 249:0.01275 250:0.014461539 251:0.01951923 252:0.01025 253:0.0065192305 254:0.0032500001 255:0.0098461537 256:0.022557693 257:0.0093269227 258:0.0097115384 259:0.0099423081 260:0.0067692306 261:0.15000001 262:0.059999999 263:0.0099999998 264:0.050000001 265:0.059999999 266:0.079999998 267:0.039999999 268:0.13 269:0.039999999 270:0 271:0.02 272:0.029999999 273:0.039999999 274:0.050000001 275:0.050000001 276:0.07 277:0.0099999998 278:0.02 279:0.059999999 280:0.029999999 #APN2_YEAST                    
-1.8763191312288614032155464883544 1:0.068114184 2:0.092024222 3:0.056245673 4:0.016730104 5:0.053598616 6:0.018685121 7:0.043581314 8:0.071349479 9:0.044740483 10:0.041418687 11:0.065795846 12:0.041989621 13:0.013979238 14:0.029532872 15:0.049065743 16:0.053512111 17:0.029740484 18:0.054948095 19:0.045778546 20:0.064186849 21:0.06239168 22:0.041594453 23:0.03119584 24:0.067590989 25:0.065857887 26:0.045060657 27:0.034662046 28:0.060658578 29:0.046793763 30:0.06239168 31:0.032928944 32:0.067590989 33:0.091854416 34:0.067590989 35:0.048526864 36:0.051993068 37:0.010398613 38:0.017331023 39:0.077989601 40:0.01559792 41:0.0057785469 42:0.0080795847 43:0.002301038 44:0.002301038 45:0.0028719723 46:0 47:0.0034775087 48:0.00057093427 49:0 50:0.0011591696 51:0.00057093427 52:0 53:0 54:0 55:0.0057612457 56:0.00057093427 57:0.0011591696 58:0 59:0 60:0 61:0 62:0.15000001 63:0 64:0 65:0 66:0 67:0.050000001 68:0 69:0 70:0.15000001 71:0 72:0.2 73:0.25 74:0.1 75:0.050000001 76:0.050000001 77:0 78:0 79:0 80:0 81:0.0075086504 82:0.013840831 83:0.0051903115 84:0.002301038 85:0.0069204154 86:0.00057093427 87:0.0057785469 88:0.002301038 89:0.0028892735 90:0.0023183392 91:0.0011418685 92:0 93:0 94:0.002301038 95:0.0069204154 96:0.0017128028 97:0.0023183392 98:0.0028892735 99:0.00057093427 100:0.0017301039 101:0 102:0.1 103:0.025 104:0.025 105:0.050000001 106:0 107:0.050000001 108:0 109:0 110:0.1 111:0.075000003 112:0.125 113:0.2 114:0.075000003 115:0.050000001 116:0.1 117:0 118:0 119:0.025 120:0 121:0.0092387544 122:0.018460207 123:0.0069204154 124:0.0028719723 125:0.0092387544 126:0.002301038 127:0.0057785469 128:0.0046193772 129:0.0046193772 130:0.0034775087 131:0.0028719723 132:0.00057093427 133:0 134:0.0034602077 135:0.0074913497 136:0.004013841 137:0.0046193772 138:0.0046193772 139:0.0040311418 140:0.0034602077 141:0.016666668 142:0.06666667 143:0.033333335 144:0.033333335 145:0.050000001 146:0.033333335 147:0.050000001 148:0.033333335 149:0 150:0.06666667 151:0.050000001 152:0.1 153:0.18333334 154:0.06666667 155:0.050000001 156:0.1 157:0 158:0.016666668 159:0.050000001 160:0 161:0.0036505191 162:0.0024913496 163:0.0019723184 164:0.00048442907 165:0.0010553633 166:0.00043252597 167:0.00074394466 168:0.0026816609 169:0.0012802768 170:0.001799308 171:0.0027681661 172:0.0017474048 173:0 174:0.00051903113 175:0.00038062283 176:0.0018685121 177:0.0017128028 178:0.0026470588 179:0.0023702423 180:0.0032871973 181:0.050000001 182:0 183:0 184:0.1 185:0.1 186:0.050000001 187:0.050000001 188:0.2 189:0 190:0 191:0 192:0.050000001 193:0.050000001 194:0.050000001 195:0.1 196:0.1 197:0.050000001 198:0 199:0.050000001 200:0 201:0.0064532873 202:0.0058131488 203:0.005968858 204:0.0012802768 205:0.0025778548 206:0.0027681661 207:0.0026816609 208:0.0078200689 209:0.0030622839 210:0.0029930796 211:0.0054325261 212:0.0052076126 213:5.1903113e-05 214:0.0010899653 215:0.0072318339 216:0.0057785469 217:0.0026297579 218:0.0062283739 219:0.0047404845 220:0.005968858 221:0.039999999 222:0.079999998 223:0.02 224:0.039999999 225:0.1 226:0.12 227:0.02 228:0.079999998 229:0.039999999 230:0.039999999 231:0.02 232:0.039999999 233:0.039999999 234:0.1 235:0.039999999 236:0.039999999 237:0.02 238:0.02 239:0.1 240:0 241:0.011695501 242:0.011401384 243:0.0080968859 244:0.0028200692 245:0.0066608996 246:0.0041522491 247:0.007283737 248:0.021089965 249:0.0074567473 250:0.0037716264 251:0.010916955 252:0.0073702424 253:0.0042387545 254:0.0061072665 255:0.0094982702 256:0.0092214532 257:0.0033217992 258:0.0096020764 259:0.0093079582 260:0.01216263 261:0.029999999 262:0.059999999 263:0.029999999 264:0.079999998 265:0.07 266:0.090000004 267:0.0099999998 268:0.079999998 269:0.050000001 270:0.050000001 271:0.0099999998 272:0.050000001 273:0.059999999 274:0.07 275:0.029999999 276:0.02 277:0.0099999998 278:0.02 279:0.14 280:0.039999999 #DCR2_YEAST                    
