SVM-light Version V6.01
2 # kernel type
3 # kernel parameter -d 
3 # kernel parameter -g 
1 # kernel parameter -s 
1 # kernel parameter -r 
empty# kernel parameter -u 
280 # highest feature index 
450 # number of training documents 
312 # number of support vectors plus 1 
0.21460547 # threshold b, each following line is a SV (starting with alpha*y)
-2.1718000682722213845465830672765 1:0.079872206 2:0.13100639 3:0.068722047 4:0.021661341 5:0.036086261 6:0.0074440893 7:0.019552715 8:0.037683707 9:0.067603834 10:0.032092653 11:0.097060703 12:0.046597444 13:0.027955271 14:0.018370608 15:0.040734824 16:0.050191693 17:0.030750798 18:0.078674123 19:0.038418531 20:0.059408944 21:0.0528 22:0.039999999 23:0.0176 24:0.068800002 25:0.079999998 26:0.032000002 27:0.0288 28:0.099200003 29:0.048 30:0.019200001 31:0.073600002 32:0.079999998 33:0.1408 34:0.0656 35:0.0352 36:0.033599999 37:0.0128 38:0.0063999998 39:0.036800001 40:0.0288 41:0.0031948881 42:0.0031948881 43:0.0031948881 44:0.0015974441 45:0.0015974441 46:0.0015974441 47:0 48:0 49:0.0031948881 50:0 51:0 52:0.0047923322 53:0 54:0 55:0 56:0.0047923322 57:0 58:0.0015974441 59:0.0031948881 60:0 61:0.15000001 62:0 63:0 64:0 65:0.050000001 66:0.1 67:0 68:0.050000001 69:0.15000001 70:0 71:0.1 72:0.1 73:0.1 74:0.1 75:0 76:0.050000001 77:0 78:0.050000001 79:0 80:0 81:0.0063897762 82:0.0031948881 83:0.0047923322 84:0.0031948881 85:0.0031948881 86:0.0015974441 87:0 88:0.0031948881 89:0.0031948881 90:0 91:0.0095846644 92:0.011182109 93:0 94:0 95:0 96:0.0047923322 97:0 98:0.0063897762 99:0.0031948881 100:0 101:0.075000003 102:0 103:0 104:0 105:0.1 106:0.050000001 107:0 108:0.175 109:0.175 110:0 111:0.050000001 112:0.1 113:0.050000001 114:0.075000003 115:0 116:0.050000001 117:0.025 118:0.025 119:0.050000001 120:0 121:0.0095846644 122:0.0079872208 123:0.0047923322 124:0.0031948881 125:0.0047923322 126:0.0015974441 127:0 128:0.0031948881 129:0.0063897762 130:0.0015974441 131:0.015974442 132:0.011182109 133:0.0015974441 134:0 135:0.0047923322 136:0.0047923322 137:0 138:0.011182109 139:0.0031948881 140:0 141:0.050000001 142:0.050000001 143:0 144:0 145:0.11666667 146:0.033333335 147:0 148:0.16666667 149:0.11666667 150:0 151:0.06666667 152:0.1 153:0.083333336 154:0.050000001 155:0.016666668 156:0.050000001 157:0.016666668 158:0.016666668 159:0.050000001 160:0.016666668 161:0.0031948881 162:0.0058626197 163:0.0026677316 164:0.00052715658 165:0 166:0 167:0.0015974441 168:0 169:0.00052715658 170:0.0015974441 171:0.0015974441 172:0 173:0.0015974441 174:0.0015974441 175:0.0015974441 176:0.0031948881 177:0.00052715658 178:0.0058626197 179:0 180:0 181:0.1 182:0.050000001 183:0.050000001 184:0 185:0.2 186:0 187:0 188:0.050000001 189:0 190:0.050000001 191:0 192:0.1 193:0.2 194:0.1 195:0.050000001 196:0 197:0 198:0 199:0 200:0.050000001 201:0.0063897762 202:0.013322684 203:0.0046645366 204:0.0013258785 205:0.00039936102 206:0 207:0.0015974441 208:0.0030670927 209:0.0029233226 210:0.0019968052 211:0.007715655 212:0.00079872203 213:0.0029233226 214:0.0027955272 215:0.0035942493 216:0.0051916931 217:0.0029233226 218:0.010255591 219:0.0027955272 220:0.0043929713 221:0.059999999 222:0.039999999 223:0.039999999 224:0.059999999 225:0.14 226:0.039999999 227:0.02 228:0.1 229:0.02 230:0.02 231:0.02 232:0.079999998 233:0.2 234:0.059999999 235:0.02 236:0 237:0 238:0 239:0.039999999 240:0.039999999 241:0.0083865812 242:0.024105432 243:0.0086581474 244:0.0033226837 245:0.0035942493 246:0.0015974441 247:0.0043929713 248:0.0070607029 249:0.0081150159 250:0.0035942493 251:0.014504792 252:0.0023961661 253:0.0041214055 254:0.0031948881 255:0.0091853039 256:0.011980831 257:0.0037220446 258:0.017044729 259:0.0059904153 260:0.0071884985 261:0.090000004 262:0.050000001 263:0.02 264:0.050000001 265:0.13 266:0.039999999 267:0.0099999998 268:0.090000004 269:0.0099999998 270:0.029999999 271:0.07 272:0.050000001 273:0.19 274:0.050000001 275:0.02 276:0.02 277:0 278:0.0099999998 279:0.039999999 280:0.029999999 #ALF4_ARATH                    
-0.21672446696905700580515485853539 1:0.05736246 2:0.061731391 3:0.026148867 4:0.031294499 5:0.024271844 6:0.0040776697 7:0.025323624 8:0.054546926 9:0.0552589 10:0.05210356 11:0.085048541 12:0.044029128 13:0.011893203 14:0.028964402 15:0.058122978 16:0.050679613 17:0.039692558 18:0.063478962 19:0.050517801 20:0.061585762 21:0.045380875 22:0.076175041 23:0.038897894 24:0.063209079 25:0.059967585 26:0.06969206 27:0.051863857 28:0.087520257 29:0.047001619 30:0.027552674 31:0.063209079 32:0.058346838 33:0.079416528 34:0.027552674 35:0.056726094 36:0.021069692 37:0.038897894 38:0.0064829821 39:0.071312808 40:0.0097244736 41:0.00098705501 42:0.0038511327 43:0.0006957929 44:0.001828479 45:0.0012621359 46:0 47:0.00012944984 48:0.0048058252 49:0.0016828479 50:0.00077669905 51:0.0018122977 52:0.00058252428 53:0.00097087381 54:0.00056634302 55:0.0027669903 56:0.0035113269 57:0.00080906152 58:0.001132686 59:0.0010841424 60:0.0030420711 61:0.050000001 62:0.15000001 63:0 64:0.15000001 65:0.050000001 66:0.050000001 67:0 68:0.050000001 69:0 70:0 71:0 72:0.050000001 73:0.050000001 74:0.1 75:0 76:0.050000001 77:0 78:0 79:0.2 80:0.050000001 81:0.0055016181 82:0.010339806 83:0.0026375405 84:0.0026537217 85:0.0014886732 86:3.2362459e-05 87:0.00033980582 88:0.0050485437 89:0.0033333334 90:0.0012459547 91:0.0041100322 92:0.0019579288 93:0.0016990291 94:0.00080906152 95:0.0050485437 96:0.0049514561 97:0.0012944983 98:0.0025566344 99:0.0017637541 100:0.0071682846 101:0.025 102:0.075000003 103:0 104:0.125 105:0.075000003 106:0.050000001 107:0 108:0.1 109:0.050000001 110:0 111:0 112:0.050000001 113:0.15000001 114:0.050000001 115:0 116:0.050000001 117:0 118:0 119:0.125 120:0.075000003 121:0.0086407764 122:0.013851132 123:0.003446602 124:0.003171521 125:0.0020711974 126:0.00032362458 127:0.0018932039 128:0.0063592233 129:0.0066343043 130:0.0016990291 131:0.0064401296 132:0.0045954692 133:0.0032200648 134:0.0012621359 135:0.006828479 136:0.006553398 137:0.0027022653 138:0.0047896439 139:0.0027184465 140:0.0084951455 141:0.033333335 142:0.06666667 143:0 144:0.1 145:0.06666667 146:0.050000001 147:0.033333335 148:0.1 149:0.050000001 150:0.016666668 151:0.06666667 152:0.083333336 153:0.11666667 154:0.050000001 155:0 156:0.033333335 157:0 158:0 159:0.083333336 160:0.050000001 161:0.00059870549 162:0.0018932039 163:0.00017799353 164:0 165:0 166:0 167:0.00040453076 168:0.0018932039 169:0.0021521035 170:0.0012944983 171:0.0028317152 172:0.001828479 173:0.00027508091 174:0.00027508091 175:0.0014724919 176:0.00084142393 177:0.001618123 178:0.006343042 179:0.00080906152 180:0.0066343043 181:0 182:0.050000001 183:0 184:0.15000001 185:0.34999999 186:0.050000001 187:0.050000001 188:0.1 189:0.050000001 190:0 191:0.050000001 192:0 193:0.050000001 194:0 195:0.050000001 196:0 197:0 198:0 199:0.050000001 200:0 201:0.002961165 202:0.0030258899 203:0.00088996766 204:0.00025889967 205:0.0017799353 206:0.00011326861 207:0.00088996766 208:0.0056634303 209:0.0057281554 210:0.0024433658 211:0.0055177994 212:0.0031877023 213:0.00061488675 214:0.001618123 215:0.0049838186 216:0.0034789643 217:0.0037540453 218:0.012265372 219:0.0033333334 220:0.013964402 221:0.039999999 222:0.039999999 223:0 224:0.16 225:0.22 226:0.079999998 227:0.059999999 228:0.059999999 229:0.02 230:0.02 231:0.039999999 232:0.059999999 233:0.039999999 234:0 235:0.039999999 236:0.02 237:0.02 238:0 239:0.079999998 240:0 241:0.0073300973 242:0.0073624593 243:0.0035922329 244:0.00197411 245:0.0039805826 246:0.00014563107 247:0.0048381877 248:0.0064401296 249:0.012249191 250:0.006828479 251:0.009288026 252:0.0060841423 253:0.0012459547 254:0.0019093851 255:0.021213593 256:0.013996764 257:0.006553398 258:0.021148868 259:0.0052103559 260:0.015339806 261:0.079999998 262:0.15000001 263:0 264:0.1 265:0.15000001 266:0.090000004 267:0.039999999 268:0.039999999 269:0.0099999998 270:0.02 271:0.039999999 272:0.07 273:0.059999999 274:0.0099999998 275:0.050000001 276:0.029999999 277:0.0099999998 278:0 279:0.039999999 280:0.0099999998 #APRR1_ARATH                   
-0.075881738101562914988740260469058 1:0.053480055 2:0.048610728 3:0.034924347 4:0.025405778 5:0.019037139 6:0.0060797799 7:0.017427785 8:0.069848694 9:0.063287482 10:0.045777168 11:0.11001375 12:0.051403027 13:0.013136176 14:0.022806052 15:0.064401649 16:0.068541951 17:0.033686381 18:0.070935354 19:0.075295739 20:0.064099036 21:0.073002756 22:0.05785124 23:0.034435261 24:0.063360885 25:0.0661157 26:0.0785124 27:0.034435261 28:0.13498622 29:0.048209365 30:0.015151516 31:0.050964188 32:0.059228651 33:0.060606062 34:0.037190083 35:0.035812672 36:0.020661157 37:0.022038568 38:0.0096418737 39:0.081267215 40:0.016528925 41:0 42:0 43:0.0013755158 44:0.0013755158 45:0 46:0 47:0.0013755158 48:0.0041265474 49:0.0013755158 50:0.0013755158 51:0.0013755158 52:0.0027510317 53:0 54:0 55:0.0027510317 56:0.0013755158 57:0 58:0.0041265474 59:0.0027510317 60:0.0013755158 61:0.050000001 62:0.1 63:0 64:0.050000001 65:0.2 66:0.1 67:0 68:0.050000001 69:0.1 70:0.050000001 71:0.050000001 72:0 73:0 74:0.050000001 75:0.050000001 76:0 77:0 78:0 79:0.15000001 80:0 81:0.0013755158 82:0 83:0.0013755158 84:0.0013755158 85:0.0013755158 86:0.00068775791 87:0.0013755158 88:0.0041265474 89:0.0013755158 90:0.0022008254 91:0.0044979369 92:0.0051306742 93:0 94:0.0013755158 95:0.0061898213 96:0.0045804675 97:0 98:0.012242091 99:0.0027510317 100:0.0029848693 101:0.1 102:0.1 103:0.025 104:0.050000001 105:0.22499999 106:0.075000003 107:0 108:0.075000003 109:0.125 110:0.025 111:0.025 112:0.025 113:0 114:0.025 115:0.025 116:0.025 117:0 118:0 119:0.075000003 120:0 121:0.0023933975 122:0.001389271 123:0.0024209078 124:0.002517194 125:0.0016093535 126:0.00068775791 127:0.0013755158 128:0.008321871 129:0.0015680881 130:0.0057359012 131:0.0066574966 132:0.0067537827 133:0 134:0.0019669877 135:0.0070151305 136:0.0045804675 137:0.0015543329 138:0.013755159 139:0.0054607978 140:0.0045942226 141:0.06666667 142:0.083333336 143:0.016666668 144:0.050000001 145:0.15000001 146:0.06666667 147:0.033333335 148:0.1 149:0.1 150:0.016666668 151:0.016666668 152:0.033333335 153:0.033333335 154:0.050000001 155:0.033333335 156:0.016666668 157:0.016666668 158:0 159:0.11666667 160:0 161:0.0018431912 162:0.00015130674 163:0.0021320495 164:1.3755158e-05 165:0.0013617607 166:0 167:0 168:0.00030261348 169:0.0028335627 170:0.00068775791 171:0.002255846 172:0.0010729023 173:0 174:0.00011004126 175:0.0015130674 176:0.0016781293 177:0.00034387896 178:0.002861073 179:0.0025859696 180:0.0051169191 181:0.1 182:0.050000001 183:0 184:0.2 185:0.050000001 186:0.1 187:0 188:0.050000001 189:0.1 190:0 191:0.15000001 192:0.050000001 193:0 194:0.1 195:0 196:0.050000001 197:0 198:0 199:0 200:0 201:0.0029436038 202:0.0010729023 203:0.0040027509 204:0.00030261348 205:0.0026685006 206:0 207:0.0022283357 208:0.0017606602 209:0.0056533702 210:0.0020220082 211:0.0036176066 212:0.0025034389 213:0.00033012379 214:0.00016506189 215:0.011513067 216:0.010192572 217:0.0015818432 218:0.0065612104 219:0.0035213204 220:0.005557084 221:0.16 222:0.18000001 223:0 224:0.079999998 225:0.059999999 226:0.039999999 227:0.079999998 228:0.039999999 229:0.039999999 230:0.02 231:0.079999998 232:0.059999999 233:0.02 234:0.039999999 235:0.02 236:0.039999999 237:0 238:0 239:0.02 240:0.02 241:0.0064924345 242:0.0037001376 243:0.005309491 244:0.0030674003 245:0.0034938101 246:0.00031636865 247:0.0038514442 248:0.012420908 249:0.011361761 250:0.0046079778 251:0.010178817 252:0.0048143053 253:0.00042640991 254:0.0006327373 255:0.018363137 256:0.012627236 257:0.0026822558 258:0.011526822 259:0.010316368 260:0.0091471802 261:0.11 262:0.11 263:0 264:0.07 265:0.050000001 266:0.090000004 267:0.050000001 268:0.090000004 269:0.029999999 270:0.0099999998 271:0.090000004 272:0.029999999 273:0.029999999 274:0.029999999 275:0.0099999998 276:0.029999999 277:0.02 278:0 279:0.14 280:0.0099999998 #APRR7_ARATH                   
-6 1:0.066548504 2:0.077014923 3:0.05005597 4:0.022089552 5:0.035466418 6:0.011996268 7:0.023041045 8:0.061194029 9:0.058861941 10:0.039197762 11:0.086958952 12:0.049906716 13:0.015373134 14:0.015839553 15:0.059626866 16:0.076585822 17:0.034645524 18:0.065615669 19:0.043395523 20:0.054813433 21:0.087850466 22:0.057943925 23:0.022429906 24:0.052336447 25:0.071028039 26:0.046728972 27:0.041121494 28:0.099065423 29:0.063551404 30:0.026168223 31:0.044859812 32:0.057943925 33:0.089719623 34:0.059813086 35:0.037383176 36:0.031775702 37:0.014953271 38:0.013084112 39:0.069158882 40:0.013084112 41:0.0037313432 42:0.0055970149 43:0.0018656716 44:0.0018656716 45:0.0037313432 46:0 47:0.0018656716 48:0.0018656716 49:0.0037313432 50:0 51:0.0037313432 52:0 53:0 54:0 55:0 56:0.0018656716 57:0.0037313432 58:0 59:0.0037313432 60:0 61:0.050000001 62:0 63:0 64:0 65:0 66:0.1 67:0.1 68:0.1 69:0 70:0.050000001 71:0.1 72:0.15000001 73:0.15000001 74:0.050000001 75:0 76:0.1 77:0 78:0 79:0.050000001 80:0 81:0.014925373 82:0.0093283579 83:0.0018656716 84:0.0018656716 85:0.0055970149 86:0 87:0.0018656716 88:0.0093283579 89:0.0037313432 90:0.0018656716 91:0.0093283579 92:0.0018656716 93:0 94:0 95:0.0037313432 96:0.0018656716 97:0.0037313432 98:0 99:0.0037313432 100:0 101:0.025 102:0.075000003 103:0 104:0 105:0 106:0.050000001 107:0.050000001 108:0.125 109:0.025 110:0.025 111:0.050000001 112:0.2 113:0.125 114:0.025 115:0.025 116:0.075000003 117:0 118:0 119:0.125 120:0 121:0.015541045 122:0.01119403 123:0.0037313432 124:0.0037313432 125:0.0093283579 126:0 127:0.0018656716 128:0.0099440301 129:0.0068470151 130:0.0018656716 131:0.016175373 132:0.0037313432 133:0 134:0 135:0.0062313434 136:0.0062126867 137:0.0049626864 138:0 139:0.010578359 140:0 141:0.050000001 142:0.083333336 143:0 144:0 145:0 146:0.1 147:0.033333335 148:0.15000001 149:0.033333335 150:0.016666668 151:0.06666667 152:0.13333334 153:0.1 154:0.033333335 155:0.016666668 156:0.083333336 157:0.016666668 158:0 159:0.083333336 160:0 161:0.0032835822 162:0.0048507461 163:0.0034514926 164:0.0016604478 165:0.0012126865 166:0.00020522389 167:0.00082089554 168:0.0026865671 169:0.0011940298 170:0.0025746268 171:0.0028358209 172:0.00097014924 173:0.0017350747 174:0.002294776 175:0.0007835821 176:0.0014365672 177:0.00065298507 178:0.0012873134 179:0.00089552236 180:0.0026119403 181:0.050000001 182:0 183:0.050000001 184:0.1 185:0 186:0.050000001 187:0 188:0.050000001 189:0 190:0.050000001 191:0 192:0 193:0.2 194:0.2 195:0.1 196:0 197:0 198:0 199:0.1 200:0.050000001 201:0.0073320894 202:0.0097947763 203:0.0066231345 204:0.0029104478 205:0.0031716418 206:0.0014552239 207:0.0036007462 208:0.0071455222 209:0.0046268655 210:0.0037873134 211:0.0079291044 212:0.0029850747 213:0.0028731343 214:0.0033395523 215:0.0064179106 216:0.0045335819 217:0.0019402985 218:0.0023694029 219:0.0041977614 220:0.0066977614 221:0.059999999 222:0.059999999 223:0.059999999 224:0.079999998 225:0 226:0.059999999 227:0.02 228:0.079999998 229:0.02 230:0.059999999 231:0.039999999 232:0.039999999 233:0.12 234:0.1 235:0.039999999 236:0.02 237:0 238:0.02 239:0.1 240:0.02 241:0.0099440301 242:0.015541045 243:0.010186567 244:0.0046641789 245:0.009850746 246:0.0039925375 247:0.007425373 248:0.01369403 249:0.0091604479 250:0.0081716422 251:0.013432836 252:0.0097388057 253:0.0049440297 254:0.0058208955 255:0.012835821 256:0.0098694032 257:0.0047014924 258:0.00891791 259:0.0082649253 260:0.01347015 261:0.059999999 262:0.059999999 263:0.039999999 264:0.07 265:0.02 266:0.059999999 267:0.029999999 268:0.059999999 269:0.039999999 270:0.050000001 271:0.050000001 272:0.050000001 273:0.079999998 274:0.079999998 275:0.039999999 276:0.059999999 277:0 278:0.02 279:0.12 280:0.0099999998 #ARP_ARATH                     
-0.57745718228174480746162089417339 1:0.036608696 2:0.053043477 3:0.031043477 4:0.014869565 5:0.031304348 6:0 7:0.024608696 8:0.079652175 9:0.13156521 10:0.015391304 11:0.030869566 12:0.030869566 13:0 14:0.12573913 15:0.021043478 16:0.14147826 17:0.021478262 18:0.16043478 19:0.0089565217 20:0.041478261 21:0.1754386 22:0.0087719299 23:0.15789473 24:0.043859649 25:0.15789473 26:0 27:0.0087719299 28:0.01754386 29:0.02631579 30:0.01754386 31:0.13157895 32:0.02631579 33:0.061403509 34:0.043859649 35:0.01754386 36:0.03508772 37:0 38:0 39:0.070175439 40:0 41:0.0039130435 42:0.0052173915 43:0 44:0.0086956518 45:0.0052173915 46:0 47:0.0017391305 48:0.0052173915 49:0.013130435 50:0 51:0.0028695653 52:0.0073913042 53:0 54:0.037826087 55:0.0034782609 56:0.021391304 57:0.0026956522 58:0.042521738 59:0.0052173915 60:0.0073913042 61:0.15000001 62:0 63:0.34999999 64:0.050000001 65:0.25 66:0 67:0 68:0 69:0 70:0 71:0.050000001 72:0 73:0.050000001 74:0 75:0 76:0.050000001 77:0 78:0 79:0.050000001 80:0 81:0.016086956 82:0.011826087 83:0.0052173915 84:0.012608696 85:0.0056521739 86:0 87:0.0098260874 88:0.022 89:0.014608696 90:0.0064347824 91:0.0071304347 92:0.0076521738 93:0 94:0.064173914 95:0.0072173914 96:0.051043477 97:0.0053043477 98:0.079478264 99:0.0052173915 100:0.016521739 101:0.175 102:0 103:0.25 104:0.050000001 105:0.2 106:0 107:0.025 108:0 109:0 110:0.025 111:0.025 112:0.025 113:0.075000003 114:0.050000001 115:0.025 116:0.025 117:0 118:0 119:0.050000001 120:0 121:0.023043478 122:0.028695652 123:0.0057391305 124:0.014608696 125:0.0099130431 126:0 127:0.01626087 128:0.039913043 129:0.059652176 130:0.0069565219 131:0.0084347827 132:0.013217391 133:0 134:0.078608699 135:0.0077391304 136:0.079304345 137:0.0055652172 138:0.094173916 139:0.0052173915 140:0.024956523 141:0.16666667 142:0 143:0.2 144:0.050000001 145:0.16666667 146:0 147:0.016666668 148:0 149:0.016666668 150:0.033333335 151:0.1 152:0.033333335 153:0.06666667 154:0.033333335 155:0.033333335 156:0.016666668 157:0 158:0 159:0.06666667 160:0 161:0 162:0.023217391 163:0.0086956518 164:0 165:0.0086956518 166:0 167:0.0043478259 168:0.011652173 169:0.0028695653 170:0 171:0.018869566 172:0.017391304 173:0 174:0 175:0.0058260867 176:0.034782607 177:0.0072173914 178:0.018869566 179:0.0014782608 180:0.010173913 181:0.30000001 182:0.050000001 183:0 184:0.050000001 185:0.1 186:0 187:0 188:0.1 189:0.1 190:0 191:0 192:0 193:0.15000001 194:0.050000001 195:0 196:0.050000001 197:0 198:0 199:0.050000001 200:0 201:0.013565217 202:0.024086956 203:0.025304347 204:0.00026086956 205:0.021391304 206:0 207:0.0083478261 208:0.037999999 209:0.062956519 210:0 211:0.022434782 212:0.017652174 213:0 214:0.034260869 215:0.013043478 216:0.062173914 217:0.015652174 218:0.058347825 219:0.0014782608 220:0.016000001 221:0.2 222:0.02 223:0.079999998 224:0.039999999 225:0.14 226:0 227:0 228:0.039999999 229:0.039999999 230:0 231:0.16 232:0.02 233:0.059999999 234:0.059999999 235:0 236:0.059999999 237:0 238:0 239:0.079999998 240:0 241:0.032695651 242:0.047826085 243:0.031043477 244:0.0061739129 245:0.026086956 246:0 247:0.022869565 248:0.079652175 249:0.12547827 250:0.015391304 251:0.030869566 252:0.02347826 253:0 254:0.087913044 255:0.019304348 256:0.12582609 257:0.019304348 258:0.1326087 259:0.005478261 260:0.037999999 261:0.18000001 262:0.0099999998 263:0.11 264:0.050000001 265:0.15000001 266:0 267:0.0099999998 268:0.02 269:0.029999999 270:0.02 271:0.15000001 272:0.029999999 273:0.059999999 274:0.050000001 275:0.02 276:0.029999999 277:0 278:0 279:0.079999998 280:0 #ASR1_LYCES                    
0.40650592457110040767176428744278 1:0.079918034 2:0.098852456 3:0.068770491 4:0.028770491 5:0.04262295 6:0.00098360656 7:0.015409836 8:0.035819672 9:0.094836064 10:0.03909836 11:0.090409838 12:0.043770492 13:0.004180328 14:0.016639344 15:0.050245903 16:0.05442623 17:0.040245902 18:0.079590164 19:0.027622951 20:0.074098364 21:0.05785124 22:0.049586777 23:0.041322313 24:0.090909094 25:0.074380167 26:0.03305785 27:0.024793388 28:0.099173553 29:0.03305785 30:0.016528925 31:0.049586777 32:0.10743801 33:0.10743801 34:0.0661157 35:0.049586777 36:0.041322313 37:0.016528925 38:0 39:0.03305785 40:0.0082644625 41:0.014590164 42:0.026065573 43:0.0082786884 44:0.010737705 45:0.0024590164 46:0 47:0.001147541 48:0.0072950819 49:0.026311476 50:0.0075409836 51:0.010901639 52:0.0056557376 53:0 54:0.004180328 55:0.024590164 56:0.00057377049 57:0.0065573771 58:0 59:0.004672131 60:0 61:0 62:0.15000001 63:0.050000001 64:0 65:0 66:0.1 67:0.050000001 68:0 69:0.050000001 70:0 71:0.1 72:0.1 73:0.25 74:0.050000001 75:0.050000001 76:0 77:0 78:0 79:0.050000001 80:0 81:0.020409836 82:0.03532787 83:0.016639344 84:0.011803279 85:0.016065573 86:0.00098360656 87:0.0054918034 88:0.016885245 89:0.040573772 90:0.016967213 91:0.034262296 92:0.011147541 93:0.0018852459 94:0.0080327867 95:0.040245902 96:0.0061475411 97:0.014508197 98:0.0066393442 99:0.011147541 100:0.0031967212 101:0.025 102:0.1 103:0.075000003 104:0.050000001 105:0 106:0.050000001 107:0.050000001 108:0.1 109:0.050000001 110:0 111:0.050000001 112:0.050000001 113:0.175 114:0.075000003 115:0.025 116:0.050000001 117:0 118:0 119:0.075000003 120:0 121:0.043934427 122:0.056967214 123:0.02942623 124:0.012704918 125:0.020409836 126:0.00098360656 127:0.00795082 128:0.019754099 129:0.048278689 130:0.019180328 131:0.045245901 132:0.018852459 133:0.0024590164 134:0.0086065577 135:0.047295082 136:0.028442623 137:0.022049181 138:0.019836066 139:0.01352459 140:0.015491803 141:0.050000001 142:0.1 143:0.050000001 144:0.083333336 145:0.016666668 146:0.033333335 147:0.033333335 148:0.1 149:0.033333335 150:0 151:0.050000001 152:0.13333334 153:0.13333334 154:0.050000001 155:0.033333335 156:0.050000001 157:0 158:0 159:0.050000001 160:0 161:0.0095081963 162:0.0090163937 163:0.016311476 164:0.0056557376 165:0.0026229508 166:0 167:0.0072950819 168:0.0016393443 169:0.018524591 170:0.0094262296 171:0.01942623 172:0.0086065577 173:0.0016393443 174:0.0036885245 175:0.0022131146 176:0.0090983603 177:0.011393443 178:0.0095901638 179:0.0056557376 180:0.01204918 181:0.050000001 182:0 183:0.050000001 184:0.1 185:0.050000001 186:0.050000001 187:0 188:0.2 189:0 190:0.1 191:0.050000001 192:0.050000001 193:0.050000001 194:0.1 195:0.050000001 196:0 197:0.050000001 198:0 199:0 200:0.050000001 201:0.029590163 202:0.037540983 203:0.036311474 204:0.014918033 205:0.014262295 206:0 207:0.0074590165 208:0.014590164 209:0.038606558 210:0.015081967 211:0.032295082 212:0.01442623 213:0.0017213115 214:0.0056557376 215:0.0023770491 216:0.016311476 217:0.014016394 218:0.052295081 219:0.0099999998 220:0.049508195 221:0.059999999 222:0 223:0.02 224:0.12 225:0.14 226:0.039999999 227:0 228:0.1 229:0.02 230:0.039999999 231:0.059999999 232:0.059999999 233:0.1 234:0.1 235:0.039999999 236:0.02 237:0.039999999 238:0 239:0.02 240:0.02 241:0.064836062 242:0.072295085 243:0.059999999 244:0.018032787 245:0.040163934 246:0.00098360656 247:0.014262295 248:0.028032787 249:0.068032786 250:0.03057377 251:0.076147541 252:0.038114753 253:0.004180328 254:0.012459016 255:0.023688525 256:0.053852458 257:0.029836066 258:0.079590164 259:0.020081967 260:0.074098364 261:0.07 262:0.029999999 263:0.039999999 264:0.11 265:0.090000004 266:0.02 267:0.0099999998 268:0.12 269:0.029999999 270:0.02 271:0.039999999 272:0.11 273:0.079999998 274:0.07 275:0.050000001 276:0.050000001 277:0.02 278:0 279:0.029999999 280:0.0099999998 #ACPM_ARATH                    
0.058338481990734360194128527155044 1:0.06701681 2:0.089663863 3:0.059306722 4:0.022647059 5:0.040609244 6:0.0076470589 7:0.030441176 8:0.078298323 9:0.084558822 10:0.051302522 11:0.063172266 12:0.047226891 13:0.01630252 14:0.026323529 15:0.0452521 16:0.058088236 17:0.033067226 18:0.056806725 19:0.037226889 20:0.045693278 21:0.054736841 22:0.048421051 23:0.039999999 24:0.054736841 25:0.046315789 26:0.031578947 27:0.035789475 28:0.061052632 29:0.048421051 30:0.039999999 31:0.079999998 32:0.07789474 33:0.094736844 34:0.063157894 35:0.050526317 36:0.035789475 37:0.018947368 38:0.0042105261 39:0.10105263 40:0.012631579 41:0.0012605042 42:0.0055042016 43:0.0020168067 44:0.0021428571 45:0.00079831935 46:0.00027310924 47:0.00069327734 48:0.00052521011 49:0.0044957981 50:0.00090336136 51:0.0043907561 52:0.00079831935 53:0.0006092437 54:0.00069327734 55:0.0072478992 56:0.001617647 57:0.0035714286 58:0 59:0.00088235294 60:0.0005672269 61:0.050000001 62:0.2 63:0.050000001 64:0.050000001 65:0 66:0 67:0.1 68:0.050000001 69:0.050000001 70:0.050000001 71:0.15000001 72:0 73:0.15000001 74:0.1 75:0 76:0 77:0 78:0 79:0 80:0 81:0.0031722689 82:0.0085084038 83:0.0044747898 84:0.0026260505 85:0.0022689076 86:0.00027310924 87:0.0017016807 88:0.0020588236 89:0.0090126051 90:0.0043277312 91:0.011386555 92:0.0046218489 93:0.0007563025 94:0.001302521 95:0.0094327731 96:0.0025630251 97:0.0051680673 98:0.001092437 99:0.0020798319 100:0.0024579831 101:0.025 102:0.125 103:0.050000001 104:0.075000003 105:0 106:0 107:0.050000001 108:0.125 109:0.075000003 110:0.025 111:0.125 112:0 113:0.125 114:0.1 115:0.075000003 116:0.025 117:0 118:0 119:0 120:0 121:0.0051680673 122:0.010504202 123:0.0065126051 124:0.0036974789 125:0.0037394958 126:0.00027310924 127:0.0033193277 128:0.0038235295 129:0.011407563 130:0.011365546 131:0.015210084 132:0.0067857141 133:0.0012394958 134:0.0022268908 135:0.010840336 136:0.0046848739 137:0.0066806721 138:0.003445378 139:0.0031512605 140:0.0039915969 141:0.033333335 142:0.1 143:0.050000001 144:0.06666667 145:0.016666668 146:0 147:0.06666667 148:0.1 149:0.050000001 150:0.033333335 151:0.1 152:0.033333335 153:0.1 154:0.06666667 155:0.13333334 156:0.033333335 157:0 158:0 159:0.016666668 160:0 161:0.0032773109 162:0.0055882353 163:0.0045798318 164:0.00071428571 165:0.0018067227 166:2.1008404e-05 167:0.00027310924 168:0.00050420169 169:0.0032983194 170:0.00029411764 171:0.0024159665 172:0.0023319328 173:0.00014705882 174:0.00088235294 175:0.0011554622 176:0.0032983194 177:0.0013865547 178:0.0055252099 179:0.00090336136 180:0.0037815126 181:0.050000001 182:0.050000001 183:0 184:0.25 185:0 186:0 187:0 188:0.1 189:0.050000001 190:0.050000001 191:0.1 192:0.050000001 193:0.15000001 194:0.050000001 195:0 196:0.1 197:0 198:0 199:0 200:0 201:0.0080252104 202:0.013466386 203:0.0095378151 204:0.002815126 205:0.0037815126 206:0.00031512606 207:0.00086134451 208:0.0065546217 209:0.0067857141 210:0.0043907561 211:0.0045168069 212:0.0047268909 213:0.0020798319 214:0.0024789916 215:0.0050840336 216:0.0070378152 217:0.0025210085 218:0.0071428572 219:0.0030672268 220:0.005945378 221:0.059999999 222:0.059999999 223:0.02 224:0.1 225:0.039999999 226:0.02 227:0.02 228:0.039999999 229:0.02 230:0.02 231:0.039999999 232:0.079999998 233:0.16 234:0.059999999 235:0.039999999 236:0.079999998 237:0.02 238:0 239:0.1 240:0.02 241:0.014642857 242:0.024306722 243:0.01592437 244:0.0043277312 245:0.0076470589 246:0.0011764705 247:0.0025210085 248:0.01697479 249:0.013718488 250:0.0076680672 251:0.0089495797 252:0.0086134458 253:0.0027941177 254:0.0038655463 255:0.011743697 256:0.01577731 257:0.0061344537 258:0.01434874 259:0.0063865548 260:0.011512605 261:0.079999998 262:0.079999998 263:0.029999999 264:0.1 265:0.050000001 266:0.0099999998 267:0.029999999 268:0.050000001 269:0.029999999 270:0.0099999998 271:0.050000001 272:0.090000004 273:0.12 274:0.07 275:0.029999999 276:0.039999999 277:0.02 278:0 279:0.1 280:0.0099999998 #AGT21_ARATH                   
3.0401709180207587834843252494466 1:0.074235037 2:0.090044349 3:0.059157427 4:0.022771619 5:0.041219514 6:0.0074279378 7:0.031463414 8:0.083148561 9:0.087649666 10:0.049623061 11:0.063348114 12:0.049866963 13:0.01631929 14:0.028847007 15:0.042882483 16:0.06008869 17:0.032727271 18:0.062682927 19:0.038625278 20:0.044878047 21:0.048888888 22:0.055555556 23:0.024444444 24:0.033333335 25:0.062222224 26:0.031111112 27:0.031111112 28:0.06666667 29:0.053333335 30:0.028888889 31:0.1 32:0.1 33:0.10666667 34:0.044444446 35:0.048888888 36:0.046666667 37:0.011111111 38:0.0044444446 39:0.086666666 40:0.015555556 41:0.001773836 42:0.0062971176 43:0.0010643016 44:0.0022172949 45:0.0031042129 46:0 47:0.0022172949 48:0 49:0.0025942351 50:0.0042793793 51:0.0049667405 52:0.0040133037 53:0 54:0.0015299335 55:0.0034811529 56:0.00024390244 57:0.0027272727 58:0.0010643016 59:0.0016629712 60:0 61:0 62:0.1 63:0.1 64:0 65:0 66:0.050000001 67:0.050000001 68:0.1 69:0.1 70:0.050000001 71:0.050000001 72:0.050000001 73:0.15000001 74:0 75:0.1 76:0.1 77:0 78:0 79:0 80:0 81:0.0067627495 82:0.0074279378 83:0.0028603105 84:0.002616408 85:0.0041463412 86:0.00019955654 87:0.00345898 88:0.0023503327 89:0.009312639 90:0.0081596449 91:0.0094013307 92:0.0056097559 93:0.00066518848 94:0.0028381376 95:0.007361419 96:0.0018847006 97:0.0045232815 98:0.002638581 99:0.00308204 100:0.001773836 101:0 102:0.075000003 103:0.075000003 104:0 105:0.025 106:0.050000001 107:0.075000003 108:0.1 109:0.050000001 110:0.025 111:0.1 112:0.1 113:0.1 114:0.025 115:0.1 116:0.050000001 117:0 118:0 119:0.025 120:0.025 121:0.0097339246 122:0.010266076 123:0.0046563195 124:0.0038137473 125:0.0054545454 126:0.0002217295 127:0.0048337029 128:0.0044567627 129:0.012461198 130:0.0097339246 131:0.014745011 132:0.0077161863 133:0.00075388025 134:0.0035254988 135:0.0088248337 136:0.0066518849 137:0.0070731705 138:0.0076718405 139:0.0039689578 140:0.0030598671 141:0.050000001 142:0.06666667 143:0.050000001 144:0 145:0.050000001 146:0.033333335 147:0.06666667 148:0.1 149:0.033333335 150:0.016666668 151:0.1 152:0.15000001 153:0.083333336 154:0.016666668 155:0.06666667 156:0.033333335 157:0.016666668 158:0 159:0.050000001 160:0.016666668 161:0.0029046563 162:0.005720621 163:0.0038137473 164:0.00057649665 165:0.00097560976 166:6.6518849e-05 167:0.00024390244 168:0.0032815963 169:0.0031707317 170:0.0002217295 171:0.0020177383 172:0.0018625277 173:0.00050997781 174:0.0027050998 175:0.0014855876 176:0.0039689578 177:0.0010199556 178:0.0053215078 179:0.00066518848 180:0.0034811529 181:0.050000001 182:0.050000001 183:0.050000001 184:0.050000001 185:0.15000001 186:0 187:0.050000001 188:0 189:0 190:0 191:0.15000001 192:0 193:0.25 194:0.050000001 195:0.050000001 196:0 197:0 198:0 199:0.050000001 200:0.050000001 201:0.0072727273 202:0.01345898 203:0.0094235037 204:0.002616408 205:0.0029711751 206:0.00015521064 207:0.000864745 208:0.0086031044 209:0.0072505544 210:0.0050554322 211:0.0046563195 212:0.0056541022 213:0.0025277161 214:0.0042572063 215:0.0052993349 216:0.0084700668 217:0.0021286032 218:0.0085587585 219:0.0032594234 220:0.0063636363 221:0.039999999 222:0.039999999 223:0.02 224:0.02 225:0.079999998 226:0.059999999 227:0.039999999 228:0.02 229:0.039999999 230:0 231:0.1 232:0.079999998 233:0.2 234:0.079999998 235:0.059999999 236:0 237:0 238:0 239:0.079999998 240:0.039999999 241:0.016008869 242:0.026807096 243:0.01676275 244:0.0043458981 245:0.0068070954 246:0.0010199556 247:0.0024390244 248:0.019756097 249:0.014456763 250:0.0080709532 251:0.010022173 252:0.0088913525 253:0.0033702883 254:0.0059201773 255:0.011818182 256:0.01751663 257:0.0064079822 258:0.017339246 259:0.0082705095 260:0.011906873 261:0.059999999 262:0.039999999 263:0.029999999 264:0.02 265:0.07 266:0.050000001 267:0.02 268:0.059999999 269:0.02 270:0.0099999998 271:0.07 272:0.11 273:0.16 274:0.07 275:0.050000001 276:0.02 277:0.0099999998 278:0 279:0.11 280:0.02 #ARGD_ALNGL                    
0.25318885067477903128008165367646 1:0.065983824 2:0.10838275 3:0.055121295 4:0.026549865 5:0.034123991 6:0.0052021565 7:0.022884097 8:0.059757411 9:0.093045823 10:0.035175201 11:0.08336927 12:0.047358491 13:0.014312669 14:0.029245283 15:0.046738543 16:0.05638814 17:0.02819407 18:0.061428573 19:0.034339622 20:0.052075472 21:0.059459459 22:0.054054055 23:0.037837837 24:0.064864866 25:0.064864866 26:0.024324324 27:0.013513514 28:0.1027027 29:0.043243244 30:0.013513514 31:0.097297296 32:0.086486489 33:0.11621621 34:0.056756757 35:0.035135135 36:0.02972973 37:0.018918918 38:0.0027027028 39:0.062162161 40:0.016216217 41:0.0074663074 42:0.0042318059 43:0.0011590297 44:0.0026954177 45:0.00045822104 46:0.0026954177 47:0.00026954178 48:0.0026954177 49:0.001509434 50:0.0013207548 51:0.0091105122 52:0.0023989219 53:0 54:0.0083557954 55:0 56:0.00016172507 57:0.00067385443 58:0.00029649597 59:0.0027223721 60:0 61:0 62:0 63:0.30000001 64:0 65:0 66:0.050000001 67:0 68:0.15000001 69:0.050000001 70:0 71:0.050000001 72:0.15000001 73:0.050000001 74:0.050000001 75:0.050000001 76:0 77:0 78:0.050000001 79:0.050000001 80:0 81:0.0084905662 82:0.0094609167 83:0.0051752022 84:0.0031266846 85:0.0029110513 86:0.0026954177 87:0.0010512129 88:0.004123989 89:0.0017520216 90:0.0055795149 91:0.018059298 92:0.0069541777 93:0.0013477089 94:0.0092722373 95:0.0045552561 96:0.0034231807 97:0.0023719678 98:0.00040431268 99:0.0049595688 100:0.00043126685 101:0.050000001 102:0.050000001 103:0.15000001 104:0 105:0 106:0.025 107:0 108:0.2 109:0.1 110:0 111:0.025 112:0.075000003 113:0.075000003 114:0.1 115:0.075000003 116:0 117:0 118:0.025 119:0.025 120:0.025 121:0.012668463 122:0.014501348 123:0.0082479781 124:0.0039622639 125:0.0049056602 126:0.0028571428 127:0.0019137466 128:0.0049056602 129:0.0048247976 130:0.0080323452 131:0.032210242 132:0.010161725 133:0.0018598383 134:0.009946092 135:0.0079245279 136:0.0075471699 137:0.0042048516 138:0.0011590297 139:0.006819407 140:0.00086253369 141:0.050000001 142:0.06666667 143:0.1 144:0 145:0 146:0.016666668 147:0 148:0.28333333 149:0.1 150:0 151:0.016666668 152:0.11666667 153:0.050000001 154:0.083333336 155:0.050000001 156:0.016666668 157:0 158:0.016666668 159:0.016666668 160:0.016666668 161:0.0022102427 162:0.0061725066 163:0.0035309973 164:0.00016172507 165:0.00088948786 166:0 167:0.0035309973 168:0.00080862537 169:0.010026954 170:0.0032075471 171:0.0020754717 172:0.00091644208 173:0.00035040433 174:0.0013207548 175:0.0035579514 176:0.0026684636 177:0.0022102427 178:0.0018328842 179:0.004393531 180:0.0040970352 181:0.050000001 182:0.050000001 183:0 184:0.1 185:0 186:0.1 187:0.050000001 188:0.050000001 189:0 190:0.1 191:0.2 192:0.050000001 193:0.15000001 194:0.050000001 195:0.050000001 196:0 197:0 198:0 199:0 200:0 201:0.0050673853 202:0.016846361 203:0.0067924527 204:0.0017789757 205:0.0066576819 206:0.00040431268 207:0.0056603774 208:0.0045283018 209:0.018571429 210:0.0067924527 211:0.0050943396 212:0.0044474392 213:0.00080862537 214:0.0021563342 215:0.0085444748 216:0.0088679241 217:0.00574124 218:0.012452831 219:0.0060916441 220:0.0064150942 221:0.079999998 222:0.079999998 223:0 224:0.059999999 225:0.079999998 226:0.059999999 227:0.039999999 228:0.039999999 229:0.02 230:0.059999999 231:0.12 232:0.02 233:0.16 234:0.039999999 235:0.039999999 236:0.039999999 237:0.02 238:0 239:0.039999999 240:0 241:0.013584905 242:0.032452829 243:0.013908355 244:0.0036927224 245:0.011967655 246:0.00051212939 247:0.0088948784 248:0.020296495 249:0.027331537 250:0.0083827497 251:0.013288409 252:0.01115903 253:0.0028571428 254:0.0030997305 255:0.013477089 256:0.019838275 257:0.010539084 258:0.021698114 259:0.0090026958 260:0.020889487 261:0.1 262:0.07 263:0 264:0.1 265:0.07 266:0.029999999 267:0.029999999 268:0.050000001 269:0.029999999 270:0.029999999 271:0.090000004 272:0.039999999 273:0.14 274:0.059999999 275:0.02 276:0.039999999 277:0.0099999998 278:0 279:0.079999998 280:0.0099999998 #GGPPS_ARATH                   
0.33709911397472203109515476171509 1:0.047428571 2:0.044857144 3:0.049285714 4:0.027428571 5:0.029857144 6:0.026428571 7:0.035999998 8:0.044285715 9:0.14057143 10:0.048 11:0.092142858 12:0.067285717 13:0.019714287 14:0.017571429 15:0.071999997 16:0.07514286 17:0.021857142 18:0.054714285 19:0.04542857 20:0.039000001 21:0.086956523 22:0.057971016 23:0.014492754 24:0.043478262 25:0.072463766 26:0.028985508 27:0.014492754 28:0.10144927 29:0.086956523 30:0.028985508 31:0.13043478 32:0.057971016 33:0.028985508 34:0.043478262 35:0.043478262 36:0.043478262 37:0.014492754 38:0.028985508 39:0.043478262 40:0.028985508 41:0.014285714 42:0.0042857141 43:0.016571429 44:0.022 45:0.011142857 46:0.014285714 47:0.017428571 48:0.02 49:0.068999998 50:0.014285714 51:0.022571428 52:0.032142859 53:0 54:0 55:0.014285714 56:0 57:0.0044285716 58:0 59:0.0089999996 60:0 61:0 62:0.050000001 63:0 64:0 65:0 66:0 67:0 68:0.050000001 69:0.15000001 70:0.1 71:0.25 72:0.050000001 73:0 74:0.050000001 75:0.050000001 76:0.050000001 77:0.050000001 78:0.050000001 79:0.1 80:0 81:0.025285713 82:0.035142858 83:0.032000002 84:0.024142858 85:0.015571428 86:0.014285714 87:0.033857144 88:0.024285715 89:0.10628571 90:0.026285714 91:0.042428572 92:0.03757143 93:0.019714287 94:0.0054285713 95:0.041857142 96:0.023 97:0.0055714287 98:0.019714287 99:0.034285713 100:0.0044285716 101:0.050000001 102:0.050000001 103:0 104:0 105:0.050000001 106:0.050000001 107:0 108:0.075000003 109:0.075000003 110:0.050000001 111:0.2 112:0.050000001 113:0.050000001 114:0.050000001 115:0.050000001 116:0.050000001 117:0.025 118:0.025 119:0.050000001 120:0.050000001 121:0.041714285 122:0.040571429 123:0.040714286 124:0.027428571 125:0.029857144 126:0.026428571 127:0.035999998 128:0.040714286 129:0.13914286 130:0.03442857 131:0.072285712 132:0.047428571 133:0.019714287 134:0.017571429 135:0.058285713 136:0.064714283 137:0.017142856 138:0.04142857 139:0.044 140:0.016571429 141:0.1 142:0.050000001 143:0.016666668 144:0.016666668 145:0.06666667 146:0.033333335 147:0.016666668 148:0.1 149:0.06666667 150:0.033333335 151:0.15000001 152:0.050000001 153:0.033333335 154:0.050000001 155:0.033333335 156:0.050000001 157:0.016666668 158:0.033333335 159:0.050000001 160:0.033333335 161:0.0099999998 162:0.0064285714 163:0.013 164:0.0032857142 165:0.0044285716 166:0.012142858 167:0.0021428571 168:0.017857144 169:0.009142857 170:0.021714285 171:0.031142857 172:0.028571429 173:0 174:0 175:0.013714286 176:0.035714287 177:0.016285714 178:0.022857143 179:0.0068571428 180:0.030142857 181:0.15000001 182:0.050000001 183:0 184:0.15000001 185:0.1 186:0 187:0.050000001 188:0.1 189:0.15000001 190:0 191:0 192:0.050000001 193:0 194:0.050000001 195:0.050000001 196:0 197:0 198:0.050000001 199:0.050000001 200:0 201:0.033142857 202:0.040571429 203:0.032714285 204:0.0054285713 205:0.018714286 206:0.012142858 207:0.018571429 208:0.024285715 209:0.071571432 210:0.033714287 211:0.069571428 212:0.035142858 213:0.019714287 214:0.017571429 215:0.057714287 216:0.07514286 217:0.017428571 218:0.054714285 219:0.036428571 220:0.039000001 221:0.12 222:0.059999999 223:0.02 224:0.059999999 225:0.1 226:0.039999999 227:0.02 228:0.12 229:0.059999999 230:0.02 231:0.079999998 232:0.059999999 233:0.039999999 234:0.039999999 235:0.039999999 236:0.039999999 237:0 238:0.02 239:0.02 240:0.039999999 241:0.047428571 242:0.044857144 243:0.049285714 244:0.027428571 245:0.029857144 246:0.026428571 247:0.035999998 248:0.044285715 249:0.14057143 250:0.048 251:0.092142858 252:0.067285717 253:0.019714287 254:0.017571429 255:0.071999997 256:0.07514286 257:0.021857142 258:0.054714285 259:0.04542857 260:0.039000001 261:0.086956523 262:0.057971016 263:0.014492754 264:0.043478262 265:0.072463766 266:0.028985508 267:0.014492754 268:0.10144927 269:0.086956523 270:0.028985508 271:0.13043478 272:0.057971016 273:0.028985508 274:0.043478262 275:0.043478262 276:0.043478262 277:0.014492754 278:0.028985508 279:0.043478262 280:0.028985508 #ATP5E_MAIZE                   
-6 1:0.078148149 2:0.11757202 3:0.072098762 4:0.017119342 5:0.041893005 6:0.00024691358 7:0.016954733 8:0.065967076 9:0.093703702 10:0.060370371 11:0.067407407 12:0.042880658 13:0.017201645 14:0.026872428 15:0.065061726 16:0.053374484 17:0.027736625 18:0.059094649 19:0.028477367 20:0.047160495 21:0.06198347 22:0.0661157 23:0.020661157 24:0.049586777 25:0.0661157 26:0.016528925 27:0.012396694 28:0.070247933 29:0.053719006 30:0.012396694 31:0.10330579 32:0.074380167 33:0.099173553 34:0.099173553 35:0.06198347 36:0.037190083 37:0.016528925 38:0 39:0.06198347 40:0.016528925 41:0.0082304524 42:0.012345679 43:0.012345679 44:0.0041152262 45:0 46:0 47:0 48:0 49:0.0082304524 50:0.0041152262 51:0.0082304524 52:0.0041152262 53:0.0041152262 54:0.0041152262 55:0.0082304524 56:0 57:0.0041152262 58:0 59:0 60:0 61:0 62:0.1 63:0.050000001 64:0 65:0 66:0 67:0.050000001 68:0.1 69:0.050000001 70:0 71:0.1 72:0.1 73:0.15000001 74:0.15000001 75:0.1 76:0 77:0 78:0 79:0 80:0.050000001 81:0.0082304524 82:0.024691358 83:0.016460905 84:0.0041152262 85:0 86:0 87:0 88:0 89:0.012345679 90:0.016460905 91:0.016460905 92:0.0041152262 93:0.0082304524 94:0.012345679 95:0.020576132 96:0 97:0.0041152262 98:0 99:0.016460905 100:0 101:0 102:0.125 103:0.1 104:0 105:0 106:0.1 107:0.025 108:0.1 109:0.025 110:0 111:0.075000003 112:0.050000001 113:0.15000001 114:0.1 115:0.1 116:0 117:0 118:0 119:0 120:0.050000001 121:0.011440329 122:0.031934157 123:0.016460905 124:0.0041152262 125:0.0020576131 126:0 127:0 128:0.0010288066 129:0.023950618 130:0.01802469 131:0.035720166 132:0.014197531 133:0.0082304524 134:0.018518519 135:0.031563785 136:0 137:0.007325103 138:0.0034156379 139:0.016460905 140:0.0024691359 141:0 142:0.13333334 143:0.06666667 144:0.016666668 145:0.016666668 146:0.06666667 147:0.016666668 148:0.16666667 149:0.050000001 150:0 151:0.1 152:0.033333335 153:0.13333334 154:0.06666667 155:0.06666667 156:0.016666668 157:0.016666668 158:0 159:0 160:0.033333335 161:0.0068312758 162:0.013909465 163:0.0018930042 164:0.0004526749 165:0.0030864198 166:0 167:0.0021399178 168:0.0077366256 169:0.0081481477 170:0.003744856 171:0.0049794237 172:0.0033744855 173:0.00032921811 174:0.00094650208 175:0.0038683128 176:0.0095061725 177:0.0022222223 178:0.0050617284 179:0.0016460905 180:0.002510288 181:0.2 182:0 183:0 184:0 185:0.1 186:0 187:0 188:0.1 189:0.050000001 190:0 191:0.1 192:0.1 193:0.2 194:0 195:0 196:0.050000001 197:0 198:0 199:0.1 200:0 201:0.019382715 202:0.032633744 203:0.0086831274 204:0.0027572017 205:0.0064197532 206:0 207:0.0036625515 208:0.023621399 209:0.024238683 210:0.0060082306 211:0.0099999998 212:0.011893004 213:0.0053909463 214:0.0011111111 215:0.0066255145 216:0.014650206 217:0.0038271605 218:0.017325103 219:0.0035802468 220:0.0049794237 221:0.1 222:0.039999999 223:0 224:0 225:0.12 226:0 227:0 228:0.039999999 229:0.059999999 230:0 231:0.12 232:0.12 233:0.16 234:0.059999999 235:0.02 236:0.02 237:0 238:0 239:0.1 240:0.039999999 241:0.042962965 242:0.05020576 243:0.024115227 244:0.0064609055 245:0.013950617 246:8.2304527e-05 247:0.011481482 248:0.04074074 249:0.038518518 250:0.01983539 251:0.01765432 252:0.017448559 253:0.0076954733 254:0.0035390947 255:0.01473251 256:0.033539094 257:0.010288066 258:0.035679013 259:0.0055144033 260:0.019711934 261:0.1 262:0.039999999 263:0.0099999998 264:0.029999999 265:0.12 266:0 267:0 268:0.039999999 269:0.050000001 270:0.02 271:0.090000004 272:0.1 273:0.11 274:0.090000004 275:0.050000001 276:0.02 277:0.02 278:0 279:0.090000004 280:0.02 #APT1_ARATH                    
-2.9717722098706769173759312252514 1:0.074744187 2:0.074465118 3:0.070883721 4:0.023534883 5:0.027116278 6:0.010837209 7:0.040511627 8:0.044883721 9:0.073302329 10:0.061534885 11:0.050976746 12:0.034790698 13:0.011302326 14:0.021627907 15:0.050139535 16:0.072232559 17:0.029767442 18:0.078930229 19:0.047069766 20:0.075581394 21:0.060747664 22:0.060747664 23:0.018691588 24:0.07009346 25:0.065420561 26:0.028037382 27:0.046728972 28:0.074766353 29:0.037383176 30:0.046728972 31:0.084112152 32:0.074766353 33:0.093457945 34:0.060747664 35:0.07009346 36:0.018691588 37:0.023364486 38:0.004672897 39:0.051401868 40:0.0093457941 41:0.0033023255 42:0.0012093023 43:0.0010697674 44:0.0049302327 45:0.00023255814 46:0 47:0.0018604652 48:0.0025581396 49:0.014 50:0.007255814 51:0.011255814 52:0.0063720932 53:0 54:0.00055813952 55:0.0048372094 56:0.0058604651 57:0.0076279072 58:0.011860465 59:0.0015813954 60:0.0029767442 61:0 62:0.050000001 63:0 64:0.050000001 65:0.050000001 66:0 67:0.15000001 68:0.2 69:0.1 70:0 71:0.25 72:0 73:0 74:0 75:0.15000001 76:0 77:0 78:0 79:0 80:0 81:0.0083720926 82:0.011023256 83:0.0073023257 84:0.0058604651 85:0.0024186047 86:0 87:0.0040000002 88:0.0060930233 89:0.019627906 90:0.016418604 91:0.025302326 92:0.0083720926 93:0.00023255814 94:0.0033488371 95:0.014418605 96:0.010651163 97:0.0092093023 98:0.018186046 99:0.0066511626 100:0.0043720929 101:0.025 102:0.1 103:0.025 104:0.025 105:0.050000001 106:0.025 107:0.075000003 108:0.175 109:0.050000001 110:0 111:0.15000001 112:0 113:0.075000003 114:0.025 115:0.1 116:0 117:0 118:0.025 119:0.075000003 120:0 121:0.020930232 122:0.016697675 123:0.018976744 124:0.0086511625 125:0.0074418606 126:0.002744186 127:0.0057674418 128:0.0096744187 129:0.025209302 130:0.023209302 131:0.026186047 132:0.010093023 133:0.0011627907 134:0.0087906979 135:0.014744186 136:0.012790698 137:0.0098139532 138:0.02716279 139:0.01227907 140:0.011674419 141:0.016666668 142:0.06666667 143:0.033333335 144:0.033333335 145:0.06666667 146:0.033333335 147:0.050000001 148:0.11666667 149:0.050000001 150:0 151:0.13333334 152:0.06666667 153:0.06666667 154:0.050000001 155:0.1 156:0.016666668 157:0 158:0.016666668 159:0.083333336 160:0 161:0.0021860464 162:0.01172093 163:0.0092093023 164:0.0041395347 165:0.00027906976 166:0 167:0.011674419 168:0.00088372093 169:0.0095348833 170:0.00013953488 171:0.0075348839 172:0.0020930232 173:0.00013953488 174:0.0030697675 175:0.008186047 176:0.0025581396 177:0.0063720932 178:0.0060000001 179:0.001255814 180:0.0062325583 181:0 182:0.050000001 183:0 184:0.050000001 185:0.050000001 186:0 187:0.2 188:0.1 189:0 190:0.15000001 191:0.1 192:0 193:0.15000001 194:0.1 195:0 196:0 197:0.050000001 198:0 199:0 200:0 201:0.014186046 202:0.020790698 203:0.014930232 204:0.0046976744 205:0.0082790693 206:0.00055813952 207:0.015860464 208:0.002511628 209:0.024651162 210:0.0054883719 211:0.010325582 212:0.0057674418 213:0.00018604651 214:0.0047906977 215:0.015767442 216:0.019906977 217:0.008511628 218:0.023302326 219:0.014139535 220:0.017581396 221:0.079999998 222:0.059999999 223:0 224:0.059999999 225:0.1 226:0.039999999 227:0.1 228:0.039999999 229:0.039999999 230:0.079999998 231:0.12 232:0.039999999 233:0.12 234:0.059999999 235:0.02 236:0.02 237:0.02 238:0 239:0 240:0 241:0.034651164 242:0.039534885 243:0.036790699 244:0.010093023 245:0.011069767 246:0.003627907 247:0.021069767 248:0.017999999 249:0.039999999 250:0.019581396 251:0.015069768 252:0.012093023 253:0.0040465118 254:0.0076744184 255:0.024511628 256:0.035999998 257:0.014279069 258:0.036465116 259:0.020232558 260:0.041488372 261:0.059999999 262:0.07 263:0.0099999998 264:0.079999998 265:0.07 266:0.02 267:0.059999999 268:0.059999999 269:0.029999999 270:0.059999999 271:0.1 272:0.050000001 273:0.1 274:0.079999998 275:0.059999999 276:0.02 277:0.029999999 278:0 279:0.029999999 280:0.0099999998 #IPYR_HORVD                    
-2.9923022120458702133305450843181 1:0.091578946 2:0.073508769 3:0.063070178 4:0.044824563 5:0.035833333 6:0.0086403508 7:0.015745614 8:0.076008774 9:0.10548246 10:0.056008771 11:0.061403509 12:0.037236843 13:0.014824562 14:0.027236842 15:0.028947368 16:0.062631577 17:0.02872807 18:0.056052633 19:0.036535088 20:0.059956141 21:0.052863438 22:0.039647575 23:0.022026431 24:0.048458152 25:0.070484579 26:0.030837005 27:0.022026431 28:0.079295151 29:0.030837005 30:0.013215859 31:0.12334802 32:0.088105723 33:0.079295151 34:0.052863438 35:0.066079296 36:0.035242289 37:0.044052862 38:0.0088105723 39:0.083700441 40:0.0088105723 41:0.0013157895 42:0.0064035086 43:0.0083771925 44:0.0050438596 45:0.0029824562 46:0 47:0.00065789477 48:0.0022807017 49:0.024385964 50:0.0059210528 51:0.015482456 52:0.00052631577 53:0.0012719298 54:8.7719302e-05 55:0.00048245615 56:0.0041228072 57:0.00078947371 58:0 59:0.0038157895 60:0.0036403509 61:0.050000001 62:0 63:0 64:0.050000001 65:0 66:0.050000001 67:0 68:0.15000001 69:0 70:0 71:0.40000001 72:0 73:0.1 74:0.050000001 75:0.050000001 76:0.050000001 77:0.050000001 78:0 79:0 80:0 81:0.0096052634 82:0.019035088 83:0.012368421 84:0.0082894741 85:0.0032017543 86:0.003245614 87:0.0018859649 88:0.0090789478 89:0.033728071 90:0.0059210528 91:0.017982457 92:0.0010964912 93:0.0052192984 94:0.0050877193 95:0.0034649123 96:0.0063157897 97:0.0023245614 98:0.0067982455 99:0.0067982455 100:0.013596491 101:0.025 102:0.050000001 103:0.025 104:0.1 105:0.025 106:0.025 107:0 108:0.075000003 109:0 110:0 111:0.30000001 112:0.025 113:0.1 114:0.050000001 115:0.025 116:0.025 117:0.1 118:0.025 119:0.025 120:0 121:0.020087719 122:0.026403509 123:0.019517545 124:0.013815789 125:0.0086842105 126:0.0033333334 127:0.0023245614 128:0.017149122 129:0.036315791 130:0.015263158 131:0.021008773 132:0.0056578945 133:0.0060087717 134:0.0097368425 135:0.0077631581 136:0.0079824561 137:0.0029385965 138:0.0081140352 139:0.012105263 140:0.01868421 141:0.033333335 142:0.050000001 143:0.033333335 144:0.083333336 145:0.016666668 146:0.033333335 147:0.016666668 148:0.06666667 149:0.016666668 150:0 151:0.21666667 152:0.050000001 153:0.1 154:0.06666667 155:0.050000001 156:0.033333335 157:0.06666667 158:0.016666668 159:0.050000001 160:0 161:0.0069298246 162:0.0040350878 163:0.0062719299 164:0.0015789474 165:0.00048245615 166:0 167:0.0014473684 168:0.0032017543 169:0.0091228066 170:0.003245614 171:0.010526316 172:0.0025877194 173:0.00057017541 174:0.0004385965 175:0.006491228 176:0.010131579 177:0.0054385965 178:0.0064473683 179:0.0033771929 180:0.0054824562 181:0.1 182:0.050000001 183:0 184:0 185:0.15000001 186:0.050000001 187:0.050000001 188:0.2 189:0 190:0 191:0.050000001 192:0.1 193:0.050000001 194:0.050000001 195:0.050000001 196:0 197:0 198:0 199:0.1 200:0 201:0.019736841 202:0.0072807018 203:0.016184211 204:0.003245614 205:0.0039912281 206:0 207:0.0026315791 208:0.026491228 209:0.034561403 210:0.0073245615 211:0.01995614 212:0.0091228066 213:0.0027631579 214:0.0021052631 215:0.0077192984 216:0.014868421 217:0.0070614037 218:0.011228071 219:0.0096491231 220:0.013377193 221:0.039999999 222:0.02 223:0 224:0.039999999 225:0.059999999 226:0.039999999 227:0.02 228:0.16 229:0.02 230:0 231:0.16 232:0.079999998 233:0.039999999 234:0.079999998 235:0.039999999 236:0.02 237:0 238:0 239:0.16 240:0.02 241:0.044517543 242:0.028289475 243:0.02741228 244:0.018552631 245:0.014824562 246:0.0020614036 247:0.0073684212 248:0.041842107 249:0.042412281 250:0.021842105 251:0.02627193 252:0.015526316 253:0.003245614 254:0.0036842106 255:0.015131579 256:0.030043859 257:0.016140351 258:0.0275 259:0.015614036 260:0.024868421 261:0.059999999 262:0.029999999 263:0 264:0.029999999 265:0.1 266:0.029999999 267:0.02 268:0.090000004 269:0.02 270:0.0099999998 271:0.1 272:0.12 273:0.07 274:0.050000001 275:0.07 276:0.039999999 277:0.039999999 278:0 279:0.11 280:0.0099999998 #RPE1_ORYSA                    
0.3147326939297691028585290951014 1:0.047868591 2:0.10908654 3:0.068384618 4:0.01511859 5:0.049490385 6:0.0058846152 7:0.039714742 8:0.039166667 9:0.040108975 10:0.030967949 11:0.081653848 12:0.061996795 13:0.0085192304 14:0.022560898 15:0.03414423 16:0.10830769 17:0.051503204 18:0.042996794 19:0.083730772 20:0.026958333 21:0.11574222 22:0.034947097 23:0.021160629 24:0.027252324 25:0.040397562 26:0.085924976 27:0.05290157 28:0.082077593 29:0.069573581 30:0.040076949 31:0.041680027 32:0.04873357 33:0.11478038 34:0.068611734 35:0.034947097 36:0.052580956 37:0.014748317 38:0.0060916962 39:0.040397562 40:0.0073741586 41:0.00032051283 42:0.00032051283 43:0.00064102566 44:0.00032051283 45:0.00096153846 46:0 47:0.00032051283 48:0.00032051283 49:0 50:0 51:0 52:0 53:0 54:0 55:0.00032051283 56:0.0019230769 57:0.00032051283 58:0 59:0.00064102566 60:0 61:0.30000001 62:0.050000001 63:0.050000001 64:0 65:0 66:0.1 67:0.050000001 68:0 69:0 70:0.050000001 71:0 72:0.050000001 73:0.050000001 74:0.1 75:0 76:0.15000001 77:0 78:0 79:0.050000001 80:0 81:0.0016025641 82:0.00064102566 83:0.00064102566 84:0.00032051283 85:0.0012820513 86:0 87:0.0012820513 88:0.00032051283 89:0 90:0 91:0.00032051283 92:0.00064102566 93:0.00032051283 94:0.00064102566 95:0.00032051283 96:0.0025641026 97:0.00032051283 98:0.00064102566 99:0.00096153846 100:0 101:0.2 102:0.025 103:0.050000001 104:0 105:0.050000001 106:0.075000003 107:0.025 108:0.050000001 109:0.050000001 110:0.1 111:0 112:0.125 113:0.050000001 114:0.050000001 115:0 116:0.1 117:0 118:0 119:0.025 120:0.025 121:0.0022435898 122:0.0012820513 123:0.00064102566 124:0.00032051283 125:0.0016025641 126:0 127:0.0012820513 128:0.00064102566 129:0 130:0 131:0.0016025641 132:0.0012820513 133:0.00064102566 134:0.00064102566 135:0.00032051283 136:0.003525641 137:0.00032051283 138:0.00064102566 139:0.0022435898 140:0 141:0.18333334 142:0.016666668 143:0.033333335 144:0 145:0.033333335 146:0.11666667 147:0.016666668 148:0.083333336 149:0.06666667 150:0.06666667 151:0 152:0.11666667 153:0.06666667 154:0.050000001 155:0 156:0.083333336 157:0 158:0 159:0.033333335 160:0.033333335 161:0.00058012822 162:0.00064102566 163:0.0011891025 164:0.00020512821 165:0.00030128204 166:0 167:8.0128208e-05 168:0.0011826924 169:0.00018589744 170:0.00033333333 171:0.00031730768 172:0.00031410257 173:0 174:9.6153844e-06 175:0.0001025641 176:0.0001474359 177:0.00016346153 178:0 179:0.00066025642 180:6.4102564e-06 181:0 182:0 183:0 184:0 185:0 186:0.15000001 187:0 188:0.1 189:0.050000001 190:0 191:0.050000001 192:0 193:0.15000001 194:0.25 195:0.050000001 196:0.050000001 197:0 198:0 199:0.15000001 200:0 201:0.00093269232 202:0.0019102565 203:0.0018044872 204:0.00022435897 205:0.00065064104 206:0.00022435897 207:9.6153846e-05 208:0.0017948718 209:0.0016474359 210:0.00034615386 211:0.001025641 212:0.0008076923 213:6.4102564e-06 214:1.602564e-05 215:0.00091025641 216:0.0010961539 217:0.00064423075 218:0.00091666664 219:0.00068269233 220:0.00033974359 221:0.1 222:0.02 223:0 224:0.02 225:0.02 226:0.059999999 227:0.059999999 228:0.1 229:0.059999999 230:0.02 231:0.1 232:0.02 233:0.16 234:0.1 235:0.02 236:0.059999999 237:0 238:0 239:0.079999998 240:0 241:0.001400641 242:0.0030897437 243:0.0026730769 244:0.00027884616 245:0.0010801282 246:0.00022435897 247:0.00052564102 248:0.0021955129 249:0.0025352563 250:0.0006474359 251:0.002128205 252:0.0017083334 253:0.00012500001 254:8.6538465e-05 255:0.001474359 256:0.0017307692 257:0.00097756414 258:0.0014391026 259:0.0013108974 260:0.0004551282 261:0.07 262:0.039999999 263:0 264:0.029999999 265:0.059999999 266:0.059999999 267:0.039999999 268:0.1 269:0.07 270:0.02 271:0.1 272:0.050000001 273:0.12 274:0.090000004 275:0.050000001 276:0.050000001 277:0 278:0 279:0.050000001 280:0 #RPOC2_CHLRE                   
0.61646558023130981762705005166936 1:0.044372294 2:0.10017316 3:0.070432901 4:0.033030301 5:0.055541124 6:0.0042424244 7:0.033896104 8:0.045800865 9:0.042943723 10:0.031212121 11:0.069350652 12:0.064458877 13:0.0074891774 14:0.014199134 15:0.038051948 16:0.091255412 17:0.032813855 18:0.04896104 19:0.065108225 20:0.034199134 21:0.11304348 22:0.026086956 23:0.0086956518 24:0.034782607 25:0.043478262 26:0.086956523 27:0.043478262 28:0.1173913 29:0.086956523 30:0.065217391 31:0.034782607 32:0.039130434 33:0.1 34:0.060869563 35:0.017391304 36:0.039130434 37:0.026086956 38:0.0043478259 39:0.026086956 40:0.026086956 41:0 42:0.0086580086 43:0.0043290043 44:0.0086580086 45:0.0043290043 46:0 47:0.0086580086 48:0 49:0.0043290043 50:0 51:0.0043290043 52:0.0086580086 53:0 54:0 55:0.0043290043 56:0.017316017 57:0 58:0 59:0.0086580086 60:0.0043290043 61:0.2 62:0.050000001 63:0 64:0.050000001 65:0 66:0.1 67:0 68:0.050000001 69:0.15000001 70:0.1 71:0.050000001 72:0 73:0.1 74:0.050000001 75:0 76:0.050000001 77:0.050000001 78:0 79:0 80:0 81:0.0043290043 82:0.021645023 83:0.0043290043 84:0.012987013 85:0.0086580086 86:0 87:0.012987013 88:0 89:0.0086580086 90:0 91:0.022380952 92:0.020909091 93:0 94:0 95:0.0043290043 96:0.019480519 97:0 98:0.0064935065 99:0.02021645 100:0.0057575759 101:0.1 102:0.025 103:0 104:0.050000001 105:0.025 106:0.1 107:0 108:0.125 109:0.15000001 110:0.075000003 111:0.050000001 112:0.025 113:0.15000001 114:0.025 115:0 116:0.050000001 117:0.050000001 118:0 119:0 120:0 121:0.008008658 122:0.037575759 123:0.0097835502 124:0.013376623 125:0.012294373 126:0.00034632033 127:0.021385282 128:0.00038961039 129:0.0098701296 130:0.0017748917 131:0.023852814 132:0.024502164 133:0.0008225108 134:0.0042424244 135:0.0072294371 136:0.03073593 137:0.0060173161 138:0.011255411 139:0.025844157 140:0.00995671 141:0.13333334 142:0.016666668 143:0 144:0.06666667 145:0.016666668 146:0.1 147:0.050000001 148:0.083333336 149:0.1 150:0.1 151:0.033333335 152:0.033333335 153:0.13333334 154:0.033333335 155:0 156:0.033333335 157:0.033333335 158:0 159:0 160:0.033333335 161:0.0012121212 162:0.012554113 163:0.0016450216 164:0.0027272727 165:0.0040259738 166:0.0010822511 167:0.001038961 168:0.0065800864 169:0.0048917751 170:0.0043290043 171:0.0047186147 172:0.0061038961 173:0 174:0.00038961039 175:0.0031168831 176:0.0091341995 177:0.004069264 178:0.0041125542 179:0.0005194805 180:0.0028571428 181:0.2 182:0.050000001 183:0 184:0.050000001 185:0 186:0 187:0.050000001 188:0.1 189:0.050000001 190:0.1 191:0.050000001 192:0 193:0.1 194:0.050000001 195:0.050000001 196:0.050000001 197:0.050000001 198:0 199:0.050000001 200:0 201:0.0073160175 202:0.017012987 203:0.014588744 204:0.0050216452 205:0.011428571 206:0.0016017316 207:0.0031601731 208:0.010865801 209:0.0093939397 210:0.0064935065 211:0.00995671 212:0.016796537 213:0.00073593075 214:0.0045887446 215:0.0056277057 216:0.013679653 217:0.0081818178 218:0.013809524 219:0.0078354981 220:0.010303031 221:0.1 222:0.02 223:0.02 224:0.039999999 225:0.059999999 226:0.059999999 227:0.079999998 228:0.12 229:0.1 230:0.039999999 231:0.02 232:0.039999999 233:0.1 234:0.059999999 235:0.02 236:0.059999999 237:0.02 238:0 239:0.039999999 240:0 241:0.015887447 242:0.037229437 243:0.029480519 244:0.012251082 245:0.032813855 246:0.0025108226 247:0.0095670996 248:0.022987014 249:0.013290043 250:0.017012987 251:0.027402597 252:0.024891775 253:0.0018181818 254:0.0060606059 255:0.015670996 256:0.024242423 257:0.013376623 258:0.022900432 259:0.02082251 260:0.018744588 261:0.090000004 262:0.029999999 263:0.0099999998 264:0.039999999 265:0.050000001 266:0.090000004 267:0.039999999 268:0.15000001 269:0.090000004 270:0.07 271:0.02 272:0.050000001 273:0.090000004 274:0.059999999 275:0.02 276:0.050000001 277:0.02 278:0.0099999998 279:0.02 280:0 #RM05_PROWI                    
0.49145456267883402823315464047482 1:0.052111112 2:0.13511111 3:0.060666665 4:0.014222222 5:0.041999999 6:0.0046666665 7:0.032222223 8:0.041888889 9:0.021777777 10:0.0082222223 11:0.091111109 12:0.034777779 13:0.0028888888 14:0.023444444 15:0.11288889 16:0.12722223 17:0.045666665 18:0.068111114 19:0.04588889 20:0.027777778 21:0.15730338 22:0.10112359 23:0.02247191 24:0.02247191 25:0.078651689 26:0.056179777 27:0.033707865 28:0.078651689 29:0.044943821 30:0.033707865 31:0.011235955 32:0.044943821 33:0.14606741 34:0.067415729 35:0 36:0.044943821 37:0 38:0 39:0.044943821 40:0.011235955 41:0.014555556 42:0.0071111112 43:0.020888889 44:0.012111112 45:0.0092222225 46:0.0024444445 47:0 48:0.011777778 49:0.0021111111 50:0.0044444446 51:0.029777778 52:0.0015555555 53:0 54:0 55:0.006222222 56:0.029888889 57:0.0073333331 58:0.032333333 59:0.016333334 60:0.0054444443 61:0.25 62:0 63:0 64:0.050000001 65:0.15000001 66:0.1 67:0 68:0.2 69:0 70:0 71:0 72:0.050000001 73:0 74:0.1 75:0 76:0.050000001 77:0 78:0 79:0.050000001 80:0 81:0.038111109 82:0.032888889 83:0.032000002 84:0.012111112 85:0.034222223 86:0.0024444445 87:0.0023333333 88:0.011777778 89:0.0096666664 90:0.0047777779 91:0.058555555 92:0.019222222 93:0.0018888889 94:0.011666667 95:0.025222221 96:0.040444445 97:0.021 98:0.043555554 99:0.027444445 100:0.0063333334 101:0.15000001 102:0.050000001 103:0.025 104:0.025 105:0.125 106:0.075000003 107:0.025 108:0.1 109:0.050000001 110:0 111:0 112:0.075000003 113:0.075000003 114:0.075000003 115:0 116:0.1 117:0 118:0 119:0.025 120:0.025 121:0.039333332 122:0.070444442 123:0.037666667 124:0.013666667 125:0.039555557 126:0.0040000002 127:0.0089999996 128:0.032888889 129:0.0099999998 130:0.0051111113 131:0.078000002 132:0.020777779 133:0.0018888889 134:0.023111111 135:0.063111112 136:0.07711111 137:0.029333333 138:0.055888887 139:0.029666666 140:0.017777778 141:0.16666667 142:0.083333336 143:0.033333335 144:0.033333335 145:0.083333336 146:0.050000001 147:0.050000001 148:0.1 149:0.050000001 150:0.016666668 151:0 152:0.050000001 153:0.1 154:0.050000001 155:0 156:0.06666667 157:0 158:0 159:0.050000001 160:0.016666668 161:0.010555555 162:0.031666666 163:0.022444444 164:0 165:0.0015555555 166:0.00066666666 167:0.011444445 168:0.0089999996 169:0 170:0.003111111 171:0.0083333338 172:0.012444444 173:0.001 174:0.00033333333 175:0.037 176:0.027888888 177:0.0082222223 178:0.012222222 179:0.015555556 180:0.0096666664 181:0.15000001 182:0.15000001 183:0 184:0 185:0.1 186:0.1 187:0 188:0.050000001 189:0.050000001 190:0.050000001 191:0 192:0.050000001 193:0.15000001 194:0.1 195:0 196:0 197:0 198:0 199:0.050000001 200:0 201:0.014 202:0.10222222 203:0.028666666 204:0.0021111111 205:0.007777778 206:0.0022222223 207:0.029888889 208:0.030111112 209:0.012111112 210:0.0034444444 211:0.032555554 212:0.015555556 213:0.001 214:0.011777778 215:0.087666668 216:0.086777776 217:0.024666667 218:0.024555556 219:0.018444445 220:0.021444444 221:0.16 222:0.14 223:0.02 224:0.02 225:0.059999999 226:0.039999999 227:0.039999999 228:0.059999999 229:0.039999999 230:0.059999999 231:0.02 232:0.02 233:0.2 234:0.059999999 235:0 236:0 237:0 238:0 239:0.059999999 240:0 241:0.052111112 242:0.13511111 243:0.060666665 244:0.014222222 245:0.041999999 246:0.0046666665 247:0.032222223 248:0.041888889 249:0.021777777 250:0.0082222223 251:0.091111109 252:0.034777779 253:0.0028888888 254:0.023444444 255:0.11288889 256:0.12722223 257:0.045666665 258:0.068111114 259:0.04588889 260:0.027777778 261:0.15730338 262:0.10112359 263:0.02247191 264:0.02247191 265:0.078651689 266:0.056179777 267:0.033707865 268:0.078651689 269:0.044943821 270:0.033707865 271:0.011235955 272:0.044943821 273:0.14606741 274:0.067415729 275:0 276:0.044943821 277:0 278:0 279:0.044943821 280:0.011235955 #RR15_SPIOL                    
-4.1724924516305463839671574532986 1:0.092500001 2:0.070056818 3:0.087840907 4:0.027443182 5:0.064829543 6:0.0024431818 7:0.034147728 8:0.083011366 9:0.055624999 10:0.049204547 11:0.05244318 12:0.054261364 13:0.016647728 14:0.021534091 15:0.036931816 16:0.062954545 17:0.027102273 18:0.057159092 19:0.037954547 20:0.055113636 21:0.068571426 22:0.045714285 23:0.022857143 24:0.062857144 25:0.051428571 26:0.034285713 27:0.028571429 28:0.028571429 29:0.062857144 30:0.011428571 31:0.057142857 32:0.10857143 33:0.062857144 34:0.079999998 35:0.039999999 36:0.085714288 37:0.028571429 38:0 39:0.09714286 40:0.022857143 41:0.0032386363 42:0.016761364 43:0.0070454543 44:0.0067613637 45:0.016022727 46:0.00045454546 47:0.0049431818 48:0.0052272729 49:0.00062499999 50:0.0096022729 51:0.0067613637 52:0.0028409092 53:0.00045454546 54:0.010170454 55:0.0048295455 56:0.0043181819 57:0.0019318182 58:0.0060227271 59:0.0037499999 60:0.001875 61:0 62:0.15000001 63:0.1 64:0 65:0.050000001 66:0.1 67:0.050000001 68:0 69:0 70:0 71:0 72:0.050000001 73:0.1 74:0.050000001 75:0.050000001 76:0.2 77:0.050000001 78:0 79:0.050000001 80:0 81:0.011875 82:0.031704545 83:0.010738636 84:0.0095454548 85:0.017556818 86:0.00045454546 87:0.0084090913 88:0.015 89:0.0035795455 90:0.010056818 91:0.012102272 92:0.014886363 93:0.0055681816 94:0.010965909 95:0.008238636 96:0.014715909 97:0.0079545453 98:0.018579546 99:0.0097159091 100:0.0064204545 101:0.075000003 102:0.1 103:0.050000001 104:0.025 105:0.075000003 106:0.075000003 107:0.025 108:0.050000001 109:0.025 110:0 111:0 112:0.075000003 113:0.125 114:0.025 115:0.025 116:0.1 117:0.050000001 118:0 119:0.075000003 120:0.025 121:0.023806818 122:0.036874998 123:0.032556817 124:0.011079545 125:0.021704545 126:0.00045454546 127:0.014829545 128:0.030170454 129:0.0080681816 130:0.010738636 131:0.015284091 132:0.021022728 133:0.007556818 134:0.013295455 135:0.013011363 136:0.021306818 137:0.010681818 138:0.022556819 139:0.012556818 140:0.012954545 141:0.06666667 142:0.083333336 143:0.050000001 144:0.050000001 145:0.050000001 146:0.050000001 147:0.016666668 148:0.033333335 149:0.050000001 150:0 151:0.016666668 152:0.083333336 153:0.1 154:0.083333336 155:0.016666668 156:0.083333336 157:0.033333335 158:0 159:0.11666667 160:0.016666668 161:0.0043181819 162:0.010568182 163:0.011988636 164:0.0017613636 165:0.0048863636 166:0.00017045454 167:0.0048863636 168:0.01221591 169:0.022500001 170:0.0049431818 171:0.0060795452 172:0.0030113636 173:0.0014204546 174:0.00034090909 175:0.0009659091 176:0.0030113636 177:0.00062499999 178:0.0032386363 179:0.0049999999 180:0.012045454 181:0.050000001 182:0 183:0 184:0.15000001 185:0 186:0.050000001 187:0 188:0 189:0.050000001 190:0 191:0.15000001 192:0.1 193:0.050000001 194:0.1 195:0.050000001 196:0.1 197:0 198:0 199:0.1 200:0.050000001 201:0.021306818 202:0.017443182 203:0.032670453 204:0.005284091 205:0.0080681816 206:0.00034090909 207:0.0092613632 208:0.022329545 209:0.028352274 210:0.0064772726 211:0.016875001 212:0.016363636 213:0.0034090909 214:0.00125 215:0.014886363 216:0.016079545 217:0.006875 218:0.014886363 219:0.011761364 220:0.026363635 221:0.079999998 222:0.039999999 223:0 224:0.1 225:0.039999999 226:0.02 227:0.02 228:0.039999999 229:0.1 230:0.02 231:0.1 232:0.1 233:0.039999999 234:0.12 235:0.02 236:0.039999999 237:0 238:0 239:0.079999998 240:0.039999999 241:0.052386362 242:0.031022727 243:0.050454546 244:0.015227273 245:0.036079545 246:0.0019886363 247:0.012727273 248:0.043579545 249:0.041193184 250:0.032499999 251:0.034886364 252:0.026761364 253:0.0078409091 254:0.0081249997 255:0.019886363 256:0.035568181 257:0.013636364 258:0.030852273 259:0.023409091 260:0.040170453 261:0.07 262:0.029999999 263:0.0099999998 264:0.079999998 265:0.059999999 266:0.029999999 267:0.029999999 268:0.029999999 269:0.059999999 270:0.0099999998 271:0.090000004 272:0.1 273:0.050000001 274:0.090000004 275:0.050000001 276:0.079999998 277:0.029999999 278:0 279:0.079999998 280:0.02 #RPB7_ARATH                    
-3.5234649884549504861297464231029 1:0.054773871 2:0.073366836 3:0.042512562 4:0.02160804 5:0.042211056 6:0.0012060301 7:0.031708542 8:0.076231159 9:0.12271357 10:0.056381911 11:0.061557788 12:0.043919597 13:0.027889447 14:0.041105527 15:0.059346735 16:0.029346734 17:0.075175881 18:0.034120604 19:0.03271357 20:0.053919598 21:0.035353534 22:0.055555556 23:0.04040404 24:0.060606062 25:0.030303031 26:0.04040404 27:0.080808081 28:0.070707068 29:0.035353534 30:0.030303031 31:0.11111111 32:0.055555556 33:0.095959596 34:0.035353534 35:0.060606062 36:0.045454547 37:0.01010101 38:0 39:0.075757578 40:0.030303031 41:0.0010552764 42:0.0058291457 43:0.00070351758 44:0.0045728642 45:0.0024120603 46:0 47:0.00095477386 48:0.0053768842 49:0.013467337 50:0.0050251256 51:0.015175879 52:0.0056281406 53:0.015125629 54:0.00065326632 55:0.011658291 56:0.0077889445 57:0.00080402009 58:0.00015075377 59:0.0037185929 60:5.0251256e-05 61:0.1 62:0.1 63:0 64:0 65:0 66:0.050000001 67:0.050000001 68:0.2 69:0.050000001 70:0 71:0.15000001 72:0 73:0.050000001 74:0 75:0.050000001 76:0.050000001 77:0 78:0 79:0 80:0.15000001 81:0.0051256283 82:0.008190955 83:0.0024120603 84:0.0049246233 85:0.016080402 86:5.0251256e-05 87:0.0061809043 88:0.0078894468 89:0.02879397 90:0.020351758 91:0.019195979 92:0.0079396982 93:0.020954775 94:0.0035678393 95:0.014371859 96:0.011708543 97:0.0052261306 98:0.0057286434 99:0.0068341708 100:0.0047236183 101:0.075000003 102:0.050000001 103:0 104:0.025 105:0.025 106:0.050000001 107:0.075000003 108:0.1 109:0.025 110:0.025 111:0.125 112:0.050000001 113:0.025 114:0 115:0.15000001 116:0.1 117:0 118:0 119:0 120:0.1 121:0.017336683 122:0.020703517 123:0.0068341708 124:0.0068844222 125:0.021306533 126:5.0251256e-05 127:0.0065829144 128:0.013819096 129:0.036984924 130:0.024623116 131:0.027035177 132:0.0096984925 133:0.021055276 134:0.011105528 135:0.017587939 136:0.019547738 137:0.0080402009 138:0.010703517 139:0.01321608 140:0.0057788943 141:0.083333336 142:0.033333335 143:0.033333335 144:0.016666668 145:0.033333335 146:0.06666667 147:0.06666667 148:0.1 149:0.033333335 150:0.016666668 151:0.1 152:0.06666667 153:0.06666667 154:0 155:0.11666667 156:0.083333336 157:0 158:0 159:0.016666668 160:0.06666667 161:0.0050251256 162:0 163:0 164:0 165:0.0050251256 166:0 167:0 168:0.010050251 169:0.015075377 170:0.010050251 171:0.0050251256 172:0.0050251256 173:0 174:0 175:0.015075377 176:0 177:0.015075377 178:0 179:0 180:0.015075377 181:0 182:0.15000001 183:0 184:0.15000001 185:0 186:0 187:0.15000001 188:0.050000001 189:0.050000001 190:0 191:0.15000001 192:0.050000001 193:0 194:0 195:0.1 196:0.050000001 197:0 198:0 199:0.1 200:0 201:0.0087939696 202:0.012562814 203:0.016331658 204:0.0062814071 205:0.016331658 206:0 207:0.0050251256 208:0.037688442 209:0.025125628 210:0.020100502 211:0.0050251256 212:0.011306533 213:0 214:0 215:0.018844221 216:0 217:0.025125628 218:0.0037688443 219:0.0075376886 220:0.023869347 221:0 222:0.079999998 223:0 224:0.1 225:0.02 226:0.039999999 227:0.1 228:0.02 229:0.039999999 230:0.02 231:0.1 232:0.039999999 233:0.039999999 234:0.059999999 235:0.079999998 236:0.079999998 237:0.02 238:0 239:0.16 240:0 241:0.018040201 242:0.035477389 243:0.025075376 244:0.011155779 245:0.018241206 246:0.00010050251 247:0.015477387 248:0.052261308 249:0.062964827 250:0.02638191 251:0.024120603 252:0.029698493 253:0.00080402009 254:0.026130654 255:0.024874372 256:0.0060804021 257:0.047889449 258:0.013015076 259:0.014321608 260:0.036884423 261:0.02 262:0.050000001 263:0.050000001 264:0.079999998 265:0.02 266:0.029999999 267:0.079999998 268:0.059999999 269:0.050000001 270:0.029999999 271:0.13 272:0.029999999 273:0.090000004 274:0.059999999 275:0.039999999 276:0.039999999 277:0.0099999998 278:0 279:0.12 280:0.0099999998 #LBD6_ARATH                    
-3.2906942303425976703579181048553 1:0.061945137 2:0.089625932 3:0.052718204 4:0.02446384 5:0.044763092 6:0.012119701 7:0.027506234 8:0.055935163 9:0.05713217 10:0.056882791 11:0.068578556 12:0.040349126 13:0.014663341 14:0.025286783 15:0.044887781 16:0.06468828 17:0.033441398 18:0.071471319 19:0.042069826 20:0.059177056 21:0.067500003 22:0.050000001 23:0.02 24:0.0625 25:0.07 26:0.057500001 27:0.0425 28:0.075000003 29:0.032499999 30:0.0275 31:0.037500001 32:0.057500001 33:0.092500001 34:0.094999999 35:0.057500001 36:0.052499998 37:0.02 38:0.0074999998 39:0.057500001 40:0.0175 41:0.001670823 42:0.0033167081 43:0.0066334163 44:0.0033167081 45:0.0033416459 46:0.0024937657 47:0 48:0 49:0.0016458853 50:0.0066583543 51:0.0087531172 52:0 53:0.0024937657 54:0.001670823 55:0 56:0.0039401497 57:0.0016458853 58:0 59:0.0022942643 60:0 61:0.050000001 62:0 63:0.050000001 64:0 65:0.050000001 66:0.050000001 67:0 68:0.25 69:0 70:0 71:0 72:0.050000001 73:0.050000001 74:0.1 75:0.15000001 76:0.1 77:0 78:0.050000001 79:0 80:0.050000001 81:0.0030423941 82:0.005062344 83:0.0075062346 84:0.0061097257 85:0.0055112219 86:0.0024937657 87:0.00032418952 88:0.0011471321 89:0.0051371572 90:0.0066583543 91:0.012593516 92:0.0024189525 93:0.0024937657 94:0.0031670823 95:0.0026683293 96:0.0080548627 97:0.005062344 98:0.0066084787 99:0.0043640896 100:0.0054114712 101:0.075000003 102:0.025 103:0.050000001 104:0.025 105:0.125 106:0.050000001 107:0.025 108:0.175 109:0.025 110:0 111:0.050000001 112:0.025 113:0.075000003 114:0.050000001 115:0.075000003 116:0.075000003 117:0.025 118:0.025 119:0 120:0.025 121:0.0071571073 122:0.011097257 123:0.0087032421 124:0.0066832919 125:0.0077556111 126:0.0027182044 127:0.00044887781 128:0.0044887778 129:0.0094264336 130:0.0072069825 131:0.016309228 132:0.0055112219 133:0.0025685786 134:0.0034413964 135:0.006533666 136:0.013117207 137:0.0061346632 138:0.011296758 139:0.0053615961 140:0.0095511219 141:0.1 142:0.033333335 143:0.033333335 144:0.050000001 145:0.11666667 146:0.033333335 147:0.016666668 148:0.11666667 149:0.050000001 150:0 151:0.06666667 152:0.050000001 153:0.083333336 154:0.050000001 155:0.050000001 156:0.06666667 157:0.016666668 158:0.016666668 159:0.033333335 160:0.016666668 161:0.0012219452 162:0.0063092271 163:0.0019700748 164:0.00069825439 165:0.0035411471 166:9.9750621e-05 167:0.0021197007 168:0.0019700748 169:0.003266833 170:0.00074812968 171:0.0036408978 172:0.0018703241 173:0.0002244389 174:0.0018703241 175:0.0033167081 176:0.0050124689 177:0.0014713217 178:0.0016957606 179:0.0044389027 180:0.0035660849 181:0.050000001 182:0.15000001 183:0 184:0.1 185:0 186:0.1 187:0 188:0.2 189:0 190:0 191:0.050000001 192:0 193:0.1 194:0.050000001 195:0.050000001 196:0.15000001 197:0 198:0 199:0 200:0 201:0.0059102243 202:0.011421447 203:0.0048877806 204:0.0022443889 205:0.0070573566 206:0.00064837903 207:0.0066334163 208:0.0036907732 209:0.0071321698 210:0.0091022439 211:0.0067581045 212:0.0054862844 213:0.00084788032 214:0.0027431422 215:0.0059600999 216:0.010673317 217:0.0029426434 218:0.0084538655 219:0.0063840398 220:0.0074812965 221:0.079999998 222:0.079999998 223:0 224:0.059999999 225:0.079999998 226:0.059999999 227:0 228:0.12 229:0.039999999 230:0.039999999 231:0.02 232:0.039999999 233:0.079999998 234:0.1 235:0.1 236:0.079999998 237:0 238:0 239:0.02 240:0 241:0.018778054 242:0.020249376 243:0.013017456 244:0.0050374065 245:0.012593516 246:0.0012219452 247:0.010174563 248:0.011246882 249:0.014763093 250:0.013216957 251:0.017231921 252:0.010723192 253:0.002394015 254:0.006733167 255:0.013216957 256:0.016334165 257:0.0055860351 258:0.012369078 259:0.014413965 260:0.012394015 261:0.079999998 262:0.059999999 263:0.0099999998 264:0.050000001 265:0.059999999 266:0.059999999 267:0.029999999 268:0.079999998 269:0.050000001 270:0.02 271:0.059999999 272:0.090000004 273:0.090000004 274:0.1 275:0.059999999 276:0.059999999 277:0 278:0 279:0.039999999 280:0 #DV4H_CATRO                    
4.1363023199168278409842969267629 1:0.063232325 2:0.087525256 3:0.065050505 4:0.027727272 5:0.03378788 6:0.008459596 7:0.034520201 8:0.053712122 9:0.087297983 10:0.062146466 11:0.083232321 12:0.033282828 13:0.01020202 14:0.028257575 15:0.050681818 16:0.054570708 17:0.032424241 18:0.075454548 19:0.047702022 20:0.055050503 21:0.053164557 22:0.048101265 23:0.025316456 24:0.053164557 25:0.083544306 26:0.048101265 27:0.032911394 28:0.083544306 29:0.032911394 30:0.027848102 31:0.09620253 32:0.055696204 33:0.09367089 34:0.070886075 35:0.06329114 36:0.040506329 37:0.017721519 38:0.0075949365 39:0.055696204 40:0.010126582 41:0.0025252525 42:0.002070707 43:0.002070707 44:0.0031818182 45:0.00022727273 46:0 47:0 48:0 49:0.013813131 50:0.00022727273 51:0.006641414 52:0.0025252525 53:0 54:0.00090909092 55:0.00068181817 56:0.0025252525 57:0.0025252525 58:0.005050505 59:0.00068181817 60:0.002979798 61:0.050000001 62:0 63:0 64:0.050000001 65:0.1 66:0 67:0.1 68:0.15000001 69:0.050000001 70:0 71:0.40000001 72:0 73:0.050000001 74:0.050000001 75:0 76:0 77:0 78:0 79:0 80:0 81:0.0043939394 82:0.0058838385 83:0.0023989899 84:0.0033838383 85:0.0024747474 86:0 87:0.00098484848 88:0.0016919192 89:0.018055556 90:0.0023737373 91:0.012323232 92:0.0042929291 93:0 94:0.0035353536 95:0.0074494951 96:0.0036616162 97:0.0036616162 98:0.0093686869 99:0.0036363637 100:0.0057575759 101:0.050000001 102:0.1 103:0.025 104:0.050000001 105:0.1 106:0.025 107:0.050000001 108:0.15000001 109:0.025 110:0.025 111:0.22499999 112:0.025 113:0.050000001 114:0.025 115:0.025 116:0.025 117:0 118:0 119:0.025 120:0 121:0.0065151514 122:0.012904041 123:0.005050505 124:0.0033838383 125:0.0027525253 126:0 127:0.0012626263 128:0.005429293 129:0.022070708 130:0.0054040402 131:0.017045455 132:0.0060101012 133:0.00065656565 134:0.0037878789 135:0.0095454548 136:0.0087373741 137:0.0051010102 138:0.018787879 139:0.0041666669 140:0.0071969698 141:0.083333336 142:0.06666667 143:0.016666668 144:0.033333335 145:0.15000001 146:0.033333335 147:0.033333335 148:0.11666667 149:0.033333335 150:0.016666668 151:0.16666667 152:0.016666668 153:0.083333336 154:0.033333335 155:0.050000001 156:0.016666668 157:0 158:0 159:0.033333335 160:0.016666668 161:0.0031060607 162:0.0046464647 163:0.0033585858 164:0 165:0.00030303031 166:0.0025252525 167:0.00015151515 168:0.0053282827 169:0.0036616162 170:0.0036363637 171:0.0092676766 172:0.0019949495 173:0 174:0.0015656565 175:0.0011616162 176:0.0028282828 177:0.0045202021 178:0.0011363636 179:0.00030303031 180:0.0012878788 181:0.050000001 182:0 183:0 184:0.050000001 185:0 186:0 187:0.1 188:0.2 189:0.050000001 190:0 191:0.1 192:0.050000001 193:0.1 194:0.050000001 195:0.050000001 196:0 197:0 198:0.050000001 199:0.15000001 200:0 201:0.0095959594 202:0.0096969698 203:0.0036616162 204:0.00098484848 205:0.0015909091 206:0.0025252525 207:0.0065909089 208:0.0060606059 209:0.014090909 210:0.0058838385 211:0.016313132 212:0.0056818184 213:0.0014141414 214:0.0025757577 215:0.002449495 216:0.0098989895 217:0.0081818178 218:0.0090151513 219:0.0053787879 220:0.0051515154 221:0.079999998 222:0.02 223:0.02 224:0.039999999 225:0.059999999 226:0.039999999 227:0.059999999 228:0.12 229:0.059999999 230:0.039999999 231:0.12 232:0.079999998 233:0.079999998 234:0.02 235:0.039999999 236:0.02 237:0.02 238:0.02 239:0.059999999 240:0 241:0.018308081 242:0.019848485 243:0.018484848 244:0.0036363637 245:0.006489899 246:0.0026515152 247:0.010303031 248:0.016464647 249:0.023712121 250:0.018510101 251:0.024444444 252:0.0094949491 253:0.0043181819 254:0.008308081 255:0.0052525252 256:0.014848485 257:0.010580808 258:0.020555556 259:0.0082070706 260:0.0086363638 261:0.050000001 262:0.02 263:0.029999999 264:0.029999999 265:0.090000004 266:0.029999999 267:0.039999999 268:0.090000004 269:0.029999999 270:0.02 271:0.12 272:0.07 273:0.090000004 274:0.07 275:0.07 276:0.039999999 277:0.02 278:0.0099999998 279:0.07 280:0.0099999998 #PLSB_CUCMO                    
1.7729355371563113585864357446553 1:0.073949277 2:0.080144927 3:0.0625 4:0.018115941 5:0.032427534 6:0.0054347827 7:0.021992754 8:0.0834058 9:0.07974638 10:0.032934781 11:0.097608693 12:0.047391303 13:0.017391304 14:0.020797102 15:0.057210144 16:0.064710148 17:0.034565218 18:0.064637683 19:0.045289855 20:0.048478261 21:0.06909091 22:0.054545455 23:0.014545455 24:0.061818182 25:0.050909091 26:0.047272727 27:0.029090909 28:0.094545454 29:0.032727271 30:0.025454545 31:0.06909091 32:0.07272727 33:0.094545454 34:0.058181819 35:0.039999999 36:0.021818181 37:0.021818181 38:0.0072727273 39:0.10181818 40:0.032727271 41:0 42:0.010869565 43:0.0072463769 44:0.0072463769 45:0 46:0 47:0 48:0.010869565 49:0.014492754 50:0.0036231885 51:0.010869565 52:0 53:0 54:0 55:0 56:0.0072463769 57:0 58:0 59:0 60:0 61:0.1 62:0 63:0 64:0 65:0 66:0 67:0 68:0.15000001 69:0 70:0 71:0.2 72:0 73:0.15000001 74:0.1 75:0.050000001 76:0.050000001 77:0.050000001 78:0 79:0.15000001 80:0 81:0.018115941 82:0.010869565 83:0.0072463769 84:0.010869565 85:0.0036231885 86:0 87:0 88:0.010869565 89:0.019021738 90:0.0036231885 91:0.031702898 92:0 93:0.0036231885 94:0 95:0.0072463769 96:0.0072463769 97:0 98:0 99:0.0072463769 100:0.0036231885 101:0.050000001 102:0.050000001 103:0 104:0.025 105:0 106:0.050000001 107:0 108:0.22499999 109:0 110:0 111:0.125 112:0.125 113:0.075000003 114:0.050000001 115:0.025 116:0.025 117:0.075000003 118:0 119:0.075000003 120:0.025 121:0.022644928 122:0.013586956 123:0.010326087 124:0.012681159 125:0.0052536232 126:0 127:0 128:0.018115941 129:0.019021738 130:0.0062681157 131:0.045471016 132:0.0045289854 133:0.0036231885 134:0.0031884059 135:0.0077173915 136:0.012971015 137:0.0043478259 138:0.0063768118 139:0.014311594 140:0.0070652175 141:0.06666667 142:0.033333335 143:0.016666668 144:0.033333335 145:0.016666668 146:0.06666667 147:0.016666668 148:0.21666667 149:0.016666668 150:0 151:0.083333336 152:0.1 153:0.06666667 154:0.06666667 155:0.033333335 156:0.016666668 157:0.050000001 158:0 159:0.083333336 160:0.016666668 161:0.0061231884 162:0.0088768117 163:0.0079710148 164:0.0014492754 165:0.0013043479 166:7.2463765e-05 167:0.0040217391 168:0.0043115942 169:0.0053985505 170:0.0014130435 171:0.004094203 172:0.0014492754 173:0.0010507246 174:0.0014855072 175:0.0010869565 176:0.0046014492 177:0.0042028986 178:0.0082608694 179:0.0013043479 180:0.0030434784 181:0.1 182:0 183:0 184:0.050000001 185:0.1 186:0.050000001 187:0.050000001 188:0 189:0 190:0.1 191:0.1 192:0.1 193:0.1 194:0.050000001 195:0.050000001 196:0 197:0.050000001 198:0 199:0.1 200:0 201:0.01307971 202:0.01442029 203:0.016847827 204:0.0018478261 205:0.0048550726 206:7.2463765e-05 207:0.0082246372 208:0.016086956 209:0.010398551 210:0.0099275364 211:0.010326087 212:0.0093115941 213:0.0019927537 214:0.003115942 215:0.0026449275 216:0.011956521 217:0.0067028985 218:0.02076087 219:0.0046014492 220:0.011268116 221:0.079999998 222:0.02 223:0 224:0.059999999 225:0.1 226:0.039999999 227:0.02 228:0.039999999 229:0.039999999 230:0.059999999 231:0.039999999 232:0.039999999 233:0.079999998 234:0.079999998 235:0.079999998 236:0.02 237:0.02 238:0 239:0.16 240:0.02 241:0.025471015 242:0.026413044 243:0.028152173 244:0.0031521739 245:0.015072464 246:0.00032608697 247:0.016014492 248:0.022028986 249:0.030289855 250:0.02115942 251:0.019311594 252:0.014565217 253:0.0060507245 254:0.0060144928 255:0.020326087 256:0.026159421 257:0.01057971 258:0.035108697 259:0.0072826087 260:0.022971015 261:0.059999999 262:0.059999999 263:0 264:0.079999998 265:0.079999998 266:0.02 267:0.0099999998 268:0.059999999 269:0.029999999 270:0.050000001 271:0.07 272:0.059999999 273:0.1 274:0.059999999 275:0.079999998 276:0.029999999 277:0.02 278:0 279:0.1 280:0.029999999 #KAP1_ARATH                    
0.070058820328802881571839122898382 1:0.064872883 2:0.076991528 3:0.038347457 4:0.01618644 5:0.071016952 6:0.0080084745 7:0.033389829 8:0.063262708 9:0.069194913 10:0.055254236 11:0.10144068 12:0.059067797 13:0.014533898 14:0.011694916 15:0.037923727 16:0.078008473 17:0.034915254 18:0.048135594 19:0.055211864 20:0.04161017 21:0.093617022 22:0.025531914 23:0.008510638 24:0.034042552 25:0.046808511 26:0.05957447 27:0.029787235 28:0.11489362 29:0.063829787 30:0.025531914 31:0.063829787 32:0.063829787 33:0.072340429 34:0.051063828 35:0.055319149 36:0.097872339 37:0.008510638 38:0.004255319 39:0.068085104 40:0.012765957 41:0.0058474578 42:0.0037711863 43:0 44:0.0070762713 45:0.0093220342 46:0 47:0.002838983 48:0.0018644067 49:0.011355932 50:0.0040677967 51:0.02088983 52:0.010593221 53:0.00059322035 54:0.00046610169 55:0.0013135594 56:0.00084745762 57:0.00046610169 58:0.00046610169 59:0.0018644067 60:0.00059322035 61:0 62:0 63:0 64:0 65:0 66:0.050000001 67:0 68:0.40000001 69:0.2 70:0.050000001 71:0 72:0.15000001 73:0 74:0 75:0 76:0.050000001 77:0.050000001 78:0 79:0.050000001 80:0 81:0.0081355935 82:0.0087711867 83:0.0019067797 84:0.007457627 85:0.015508475 86:0.00038135593 87:0.002838983 88:0.0052966103 89:0.020296611 90:0.01440678 91:0.032881357 92:0.020381356 93:0.00059322035 94:0.00084745762 95:0.0088983048 96:0.0039830511 97:0.0012288135 98:0.00046610169 99:0.0051694917 100:0.0021610169 101:0.025 102:0.025 103:0 104:0 105:0 106:0.050000001 107:0 108:0.32499999 109:0.15000001 110:0.025 111:0.025 112:0.1 113:0.050000001 114:0.025 115:0.050000001 116:0.075000003 117:0.025 118:0 119:0.050000001 120:0 121:0.012881356 122:0.015550847 123:0.0035593221 124:0.007457627 125:0.021186441 126:0.0010169492 127:0.0035169492 128:0.010127119 129:0.02440678 130:0.019830508 131:0.048983052 132:0.023644067 133:0.00093220337 134:0.0022033898 135:0.012542373 136:0.0077542374 137:0.0026694916 138:0.00084745762 139:0.012838983 140:0.0036864406 141:0.033333335 142:0.016666668 143:0 144:0 145:0 146:0.1 147:0 148:0.26666668 149:0.1 150:0.016666668 151:0.033333335 152:0.06666667 153:0.083333336 154:0.033333335 155:0.06666667 156:0.1 157:0.016666668 158:0 159:0.06666667 160:0 161:0.0026694916 162:0.010932203 163:0.0068220338 164:0.0012711864 165:0.0019491526 166:0.00055084744 167:0.0033474576 168:0.0036016949 169:0.006059322 170:0.0073305084 171:0.0088983048 172:0.0065254238 173:0.00012711865 174:0.00076271186 175:0.0022457626 176:0.0072033899 177:0.0017372881 178:0.0072881356 179:0.0011864407 180:0.0045762714 181:0.1 182:0 183:0 184:0.050000001 185:0.050000001 186:0 187:0.1 188:0.050000001 189:0.1 190:0.050000001 191:0.1 192:0 193:0.1 194:0.1 195:0.15000001 196:0.050000001 197:0 198:0 199:0 200:0 201:0.013220339 202:0.018940678 203:0.013686441 204:0.0023728814 205:0.012669492 206:0.0052542374 207:0.0044491524 208:0.017288135 209:0.0089406781 210:0.011144068 211:0.015635593 212:0.010084745 213:0.00093220337 214:0.001779661 215:0.0099999998 216:0.026271187 217:0.0046610171 218:0.013050848 219:0.0094067799 220:0.012415254 221:0.16 222:0.02 223:0 224:0.039999999 225:0.059999999 226:0.039999999 227:0.039999999 228:0.039999999 229:0.039999999 230:0.02 231:0.059999999 232:0.039999999 233:0.1 234:0.079999998 235:0.059999999 236:0.079999998 237:0 238:0.02 239:0.1 240:0 241:0.025550848 242:0.030211864 243:0.022330508 244:0.0048728813 245:0.035677966 246:0.0066101695 247:0.01161017 248:0.033474576 249:0.022754237 250:0.027457627 251:0.022161016 252:0.016313558 253:0.0082627116 254:0.0052118646 255:0.013771187 256:0.041228812 257:0.017372882 258:0.031186441 259:0.026440678 260:0.022415254 261:0.11 262:0.02 263:0 264:0.039999999 265:0.07 266:0.050000001 267:0.050000001 268:0.050000001 269:0.039999999 270:0.02 271:0.07 272:0.039999999 273:0.059999999 274:0.07 275:0.079999998 276:0.12 277:0 278:0.0099999998 279:0.079999998 280:0.02 #GPX1_ARATH                    
-5.6018596632564863213588068902027 1:0.063453235 2:0.10892086 3:0.047697842 4:0.01352518 5:0.011870503 6:7.1942442e-05 7:0.022374101 8:0.10697842 9:0.12841727 10:0.037050359 11:0.06705036 12:0.040071942 13:0.0014388489 14:0.020431655 15:0.076906472 16:0.095467627 17:0.033309352 18:0.051079135 19:0.03820144 20:0.021582734 21:0.094202898 22:0.065217391 23:0.014492754 24:0.014492754 25:0.057971016 26:0.050724637 27:0.028985508 28:0.086956523 29:0.036231883 30:0.021739131 31:0.12318841 32:0.079710148 33:0.10144927 34:0.043478262 35:0.043478262 36:0.021739131 37:0 38:0 39:0.11594203 40:0 41:0.0034532375 42:0.000647482 43:0.0015827338 44:0.0076258993 45:7.1942442e-05 46:0 47:0 48:0.030143885 49:0.024100719 50:0.0013669065 51:0.019568345 52:0.0092805754 53:7.1942442e-05 54:0.00028776977 55:0.009064748 56:0.028705036 57:0.0030935251 58:0.0010071943 59:0.00071942445 60:0.0023741007 61:0.2 62:0.050000001 63:0 64:0 65:0 66:0 67:0 68:0.25 69:0.15000001 70:0 71:0.1 72:0.050000001 73:0 74:0 75:0.050000001 76:0 77:0 78:0 79:0.15000001 80:0 81:0.014748202 82:0.017482014 83:0.0066906475 84:0.0088489205 85:0.0084172664 86:0 87:0.0014388489 88:0.045323741 89:0.034532376 90:0.0084172664 91:0.03647482 92:0.011294964 93:0.00035971223 94:0.0054676258 95:0.037194245 96:0.035755396 97:0.0092805754 98:0.001294964 99:0.001294964 100:0.0025179856 101:0.15000001 102:0.1 103:0 104:0 105:0 106:0 107:0.025 108:0.175 109:0.075000003 110:0 111:0.125 112:0.050000001 113:0.050000001 114:0.025 115:0.050000001 116:0.050000001 117:0 118:0 119:0.125 120:0 121:0.03352518 122:0.028561151 123:0.010431655 124:0.01086331 125:0.0086330939 126:7.1942442e-05 127:0.01438849 128:0.063956834 129:0.066978417 130:0.014028777 131:0.041798562 132:0.015683454 133:0.00050359714 134:0.0069064749 135:0.047697842 136:0.042158272 137:0.011582734 138:0.0040287771 139:0.0055395681 140:0.0028057555 141:0.11666667 142:0.083333336 143:0 144:0 145:0.033333335 146:0 147:0.016666668 148:0.13333334 149:0.050000001 150:0.033333335 151:0.15000001 152:0.083333336 153:0.06666667 154:0.016666668 155:0.050000001 156:0.033333335 157:0 158:0 159:0.13333334 160:0 161:0.0018705036 162:0.018633094 163:0.002589928 164:0.00079136691 165:0.0023741007 166:0 167:0.000647482 168:0.0123741 169:0.011438849 170:0.0070503596 171:0.014676259 172:0.0060431655 173:0 174:0.000647482 175:0.0015107914 176:0.028705036 177:0.0084172664 178:0.011798562 179:0.0021582735 180:0.0020863309 181:0.2 182:0 183:0 184:0 185:0.1 186:0 187:0.050000001 188:0.1 189:0 190:0 191:0.050000001 192:0.050000001 193:0.1 194:0.050000001 195:0.050000001 196:0.050000001 197:0 198:0 199:0.2 200:0 201:0.021870503 202:0.050791368 203:0.02294964 204:0.0022302158 205:0.0030935251 206:0 207:0.00086330937 208:0.036043167 209:0.031294964 210:0.015539568 211:0.021582734 212:0.014748202 213:0.00021582734 214:0.0066187051 215:0.0096402876 216:0.037266187 217:0.015755396 218:0.025251798 219:0.019640287 220:0.012302158 221:0.1 222:0.02 223:0.02 224:0.02 225:0.079999998 226:0.059999999 227:0.039999999 228:0.079999998 229:0.039999999 230:0 231:0.059999999 232:0.079999998 233:0.14 234:0.059999999 235:0.039999999 236:0.02 237:0 238:0 239:0.14 240:0 241:0.048705038 242:0.091438852 243:0.041007195 244:0.0046762591 245:0.0034532375 246:7.1942442e-05 247:0.020935252 248:0.061654676 249:0.093884893 250:0.028633093 251:0.03057554 252:0.028776979 253:0.0010791367 254:0.014964029 255:0.043597121 256:0.062949643 257:0.024028776 258:0.049784172 259:0.036906473 260:0.019064749 261:0.079999998 262:0.050000001 263:0.02 264:0.02 265:0.079999998 266:0.07 267:0.029999999 268:0.050000001 269:0.02 270:0.029999999 271:0.13 272:0.090000004 273:0.12 274:0.050000001 275:0.039999999 276:0.0099999998 277:0 278:0 279:0.11 280:0 #H2A_CICAR                     
0.27190327961655991195755177614046 1:0.069880001 2:0.081320003 3:0.04868 4:0.02084 5:0.045880001 6:0.01136 7:0.02648 8:0.049400002 9:0.075479999 10:0.04228 11:0.094520003 12:0.042599998 13:0.01152 14:0.01468 15:0.056480002 16:0.05012 17:0.033039998 18:0.090159997 19:0.042399999 20:0.063879997 21:0.052208837 22:0.060240965 23:0.012048192 24:0.08835341 25:0.080321282 26:0.060240965 27:0.020080321 28:0.1124498 29:0.048192769 30:0.024096385 31:0.064257026 32:0.076305218 33:0.076305218 34:0.056224901 35:0.044176705 36:0.048192769 37:0.020080321 38:0.0080321282 39:0.040160641 40:0.0080321282 41:0.0087599996 42:0.0052399999 43:0.00056000001 44:0.0040000002 45:0.0040000002 46:0.0038399999 47:0.0020000001 48:0.0047200001 49:0.01528 50:0 51:0.01148 52:0.001 53:0.0060000001 54:0 55:0.0079600001 56:0.0025200001 57:0 58:0 59:0 60:0 61:0.050000001 62:0.1 63:0 64:0 65:0 66:0 67:0 68:0.15000001 69:0 70:0.050000001 71:0.2 72:0.15000001 73:0.050000001 74:0 75:0 76:0.050000001 77:0 78:0.050000001 79:0.1 80:0.050000001 81:0.01736 82:0.01084 83:0.0045599998 84:0.0042400002 85:0.0046000001 86:0.0038399999 87:0.0022400001 88:0.0079600001 89:0.02812 90:0.0032800001 91:0.023600001 92:0.0025200001 93:0.0060000001 94:0.00124 95:0.021 96:0.0038000001 97:0.00272 98:0 99:0.0044399998 100:0.00023999999 101:0.025 102:0.15000001 103:0 104:0 105:0 106:0.050000001 107:0 108:0.2 109:0 110:0.025 111:0.2 112:0.125 113:0.050000001 114:0.025 115:0.025 116:0.025 117:0 118:0.025 119:0.050000001 120:0.025 121:0.021919999 122:0.017200001 123:0.0084800003 124:0.00612 125:0.0089999996 126:0.0038399999 127:0.0041200002 128:0.01196 129:0.03624 130:0.00868 131:0.03892 132:0.0080800001 133:0.0060000001 134:0.00188 135:0.02892 136:0.0066399998 137:0.00388 138:0.00088000001 139:0.0073600002 140:0.00188 141:0.016666668 142:0.15000001 143:0 144:0.016666668 145:0 146:0.050000001 147:0 148:0.2 149:0.016666668 150:0.033333335 151:0.16666667 152:0.1 153:0.050000001 154:0.06666667 155:0.033333335 156:0.033333335 157:0 158:0.016666668 159:0.033333335 160:0.016666668 161:0.0065600001 162:0.0073600002 163:0.0022400001 164:0.0016 165:0.0048799999 166:0.0041999999 167:0.0038000001 168:0.00136 169:0.00063999998 170:0 171:0.00416 172:0.00152 173:0.00023999999 174:0.00124 175:0.0047200001 176:0.01236 177:0.0044 178:0.01024 179:0.0048799999 180:0.0034 181:0.15000001 182:0.1 183:0 184:0 185:0.15000001 186:0.1 187:0.050000001 188:0 189:0 190:0.050000001 191:0 192:0.1 193:0.1 194:0 195:0 196:0.1 197:0.050000001 198:0.050000001 199:0 200:0 201:0.01148 202:0.021880001 203:0.0076000001 204:0.00556 205:0.01308 206:0.0050400002 207:0.01148 208:0.0057999999 209:0.0077999998 210:0.0018 211:0.01172 212:0.0063999998 213:0.00108 214:0.0045599998 215:0.01076 216:0.017200001 217:0.0088 218:0.023560001 219:0.0092399996 220:0.01372 221:0.14 222:0.059999999 223:0.02 224:0.02 225:0.12 226:0.079999998 227:0.02 228:0.02 229:0.079999998 230:0.059999999 231:0.02 232:0.059999999 233:0.1 234:0.02 235:0 236:0.1 237:0.039999999 238:0.02 239:0.02 240:0 241:0.0242 242:0.0394 243:0.0176 244:0.0089199999 245:0.022919999 246:0.0059600002 247:0.01708 248:0.01976 249:0.022120001 250:0.01308 251:0.028279999 252:0.0156 253:0.0041999999 254:0.0070000002 255:0.01532 256:0.02716 257:0.01556 258:0.042240001 259:0.017279999 260:0.02916 261:0.1 262:0.029999999 263:0.02 264:0.07 265:0.11 266:0.050000001 267:0.02 268:0.050000001 269:0.07 270:0.029999999 271:0.050000001 272:0.059999999 273:0.11 274:0.029999999 275:0.029999999 276:0.079999998 277:0.029999999 278:0.0099999998 279:0.039999999 280:0.0099999998 #YB95_ARATH                    
-3.2190688279880648181574542832095 1:0.078991599 2:0.10831933 3:0.067626052 4:0.016806724 5:0.041008402 6:0.0072268909 7:0.023571428 8:0.064873949 9:0.053823531 10:0.047331933 11:0.065189078 12:0.055735294 13:0.0081092436 14:0.019096639 15:0.034264706 16:0.07779412 17:0.027542017 18:0.060987394 19:0.064033613 20:0.060462184 21:0.088235296 22:0.021008404 23:0.012605042 24:0.063025214 25:0.05882353 26:0.069327734 27:0.021008404 28:0.063025214 29:0.052521009 30:0.021008404 31:0.073529415 32:0.081932776 33:0.11554622 34:0.065126054 35:0.054621849 36:0.037815128 37:0.010504202 38:0.0084033618 39:0.073529415 40:0.0084033618 41:0.00029411764 42:0.0059243697 43:0.0006092437 44:0.00054621848 45:8.4033614e-05 46:0 47:0 48:8.4033614e-05 49:0.0091176471 50:0.0012184874 51:0.0036344538 52:0.0067226891 53:0.00046218486 54:0.001197479 55:0.0005672269 56:0.0035294117 57:0.00058823527 58:0.0023529411 59:0.0023319328 60:0.0017016807 61:0.1 62:0 63:0 64:0.050000001 65:0.050000001 66:0.1 67:0 68:0.1 69:0.15000001 70:0 71:0.25 72:0 73:0.15000001 74:0 75:0.050000001 76:0 77:0 78:0 79:0 80:0 81:0.0024369748 82:0.010042016 83:0.0023319328 84:0.0012605042 85:0.0040966389 86:0 87:0.00031512606 88:0.0027731094 89:0.011638655 90:0.0018487395 91:0.0071638655 92:0.008277311 93:0.00058823527 94:0.0020798319 95:0.0016386554 96:0.0066386554 97:0.0020168067 98:0.0064495797 99:0.0052731093 100:0.0037815126 101:0.075000003 102:0 103:0 104:0.025 105:0.075000003 106:0.125 107:0.025 108:0.1 109:0.075000003 110:0 111:0.15000001 112:0.050000001 113:0.125 114:0.050000001 115:0.025 116:0.025 117:0 118:0 119:0.075000003 120:0 121:0.0040336135 122:0.012710084 123:0.0050840336 124:0.0013865547 125:0.0051050419 126:0.0020588236 127:0.001512605 128:0.0044537815 129:0.013214285 130:0.0058613447 131:0.010105042 132:0.010231093 133:0.00067226891 134:0.0028571428 135:0.0049789916 136:0.010315126 137:0.0044327732 138:0.01039916 139:0.006155462 140:0.0067436974 141:0.06666667 142:0.016666668 143:0.016666668 144:0.050000001 145:0.06666667 146:0.083333336 147:0.050000001 148:0.1 149:0.083333336 150:0.016666668 151:0.11666667 152:0.033333335 153:0.1 154:0.06666667 155:0.033333335 156:0.016666668 157:0 158:0.016666668 159:0.06666667 160:0 161:0.0038025209 162:0.0036974789 163:0.0069117649 164:0.00014705882 165:8.4033614e-05 166:0 167:4.2016807e-05 168:0.0040756301 169:0.0015966387 170:0.0045378152 171:0.0019747899 172:0.0005672269 173:0.00018907562 174:2.1008404e-05 175:6.3025211e-05 176:0.0017857143 177:0.00018907562 178:0.0043067229 179:0.0034873949 180:0.0045168069 181:0.050000001 182:0 183:0 184:0.15000001 185:0.1 186:0.1 187:0 188:0 189:0 190:0 191:0.1 192:0.050000001 193:0.050000001 194:0.2 195:0.1 196:0 197:0 198:0 199:0.1 200:0 201:0.013319327 202:0.008172269 203:0.011785714 204:0.00035714285 205:0.0020588236 206:0.00088235294 207:0.00023109243 208:0.013109243 209:0.0040756301 210:0.0047689076 211:0.0064495797 212:0.0065126051 213:0.00065126049 214:0.0022058825 215:0.0016596639 216:0.0072478992 217:0.00065126049 218:0.0052100839 219:0.0060294117 220:0.0094327731 221:0.12 222:0 223:0 224:0.1 225:0.039999999 226:0.039999999 227:0 228:0.059999999 229:0.059999999 230:0 231:0.079999998 232:0.14 233:0.059999999 234:0.079999998 235:0.039999999 236:0.02 237:0 238:0.02 239:0.14 240:0 241:0.019516807 242:0.021596638 243:0.01802521 244:0.0020168067 245:0.0090756305 246:0.00088235294 247:0.0034033614 248:0.019159663 249:0.0069117649 250:0.012710084 251:0.01552521 252:0.011134454 253:0.0011134454 254:0.0039285715 255:0.0069327732 256:0.015105042 257:0.0024579831 258:0.011197479 259:0.011323529 260:0.015441176 261:0.090000004 262:0.029999999 263:0 264:0.079999998 265:0.050000001 266:0.059999999 267:0 268:0.079999998 269:0.050000001 270:0.02 271:0.059999999 272:0.090000004 273:0.079999998 274:0.090000004 275:0.07 276:0.039999999 277:0 278:0.0099999998 279:0.1 280:0 #UGPA_SOLTU                    
