SVM-light Version V6.01
2 # kernel type
3 # kernel parameter -d 
150 # kernel parameter -g 
1 # kernel parameter -s 
1 # kernel parameter -r 
empty# kernel parameter -u 
40 # highest feature index 
1605 # number of training documents 
1188 # number of support vectors plus 1 
-0.5243732 # threshold b, each following line is a SV (starting with alpha*y)
-2 1:0.052582782 2:0.069514349 3:0.065540835 4:0.019028697 5:0.049139071 6:0.014459161 7:0.032825608 8:0.044922736 9:0.055055186 10:0.032737307 11:0.089911699 12:0.05441501 13:0.018410595 14:0.029801324 15:0.054128036 16:0.065253861 17:0.025938191 18:0.069359824 19:0.062560707 20:0.07264901 21:0.061946902 22:0.06858407 23:0.03539823 24:0.07300885 25:0.075221241 26:0.057522126 27:0.019911505 28:0.092920355 29:0.044247787 30:0.030973451 31:0.059734512 32:0.050884955 33:0.066371679 34:0.066371679 35:0.03318584 36:0.053097345 37:0.022123894 38:0.015486726 39:0.050884955 40:0.022123894 #2ABD_RAT   
-1.6780772865164841345375634773518 1:0.073216781 2:0.092307694 3:0.047377624 4:0.025524475 5:0.044265736 6:0.021958042 7:0.03027972 8:0.076573424 9:0.040349651 10:0.06055944 11:0.054615386 12:0.053461537 13:0.018496504 14:0.021503497 15:0.051713288 16:0.062342659 17:0.04576923 18:0.080874123 19:0.042062938 20:0.055979021 21:0.038596492 22:0.073684208 23:0.021052632 24:0.052631579 25:0.080701753 26:0.01754386 27:0.063157894 28:0.063157894 29:0.049122807 30:0.031578947 31:0.042105265 32:0.08421053 33:0.11578947 34:0.028070176 35:0.059649121 36:0.038596492 37:0.024561403 38:0.021052632 39:0.08421053 40:0.010526316 #3HAO_HUMAN 
-2 1:0.054830659 2:0.097130127 3:0.041782532 4:0.028324421 5:0.052816398 6:0.012192514 7:0.050213903 8:0.049928699 9:0.048039217 10:0.042067736 11:0.062709451 12:0.054438502 13:0.013368984 14:0.033903744 15:0.056417111 16:0.058021389 17:0.033992872 18:0.069376111 19:0.036060605 20:0.069607846 21:0.064285718 22:0.055357143 23:0.032142859 24:0.076785713 25:0.067857146 26:0.030357143 27:0.028571429 28:0.073214285 29:0.060714286 30:0.055357143 31:0.044642858 32:0.051785715 33:0.10714286 34:0.042857144 35:0.042857144 36:0.060714286 37:0.026785715 38:0.0089285718 39:0.055357143 40:0.014285714 #5NTC_HUMAN 
0.65783054960917342057769019447733 1:0.04230047 2:0.05255086 3:0.030328639 4:0.025696401 5:0.014303599 6:0.0075899842 7:0.020923318 8:0.095477305 9:0.071549296 10:0.17989045 11:0.065758996 12:0.055305164 13:0.0081064161 14:0.018607199 15:0.044647887 16:0.04431925 17:0.048043817 18:0.046322379 19:0.036635369 20:0.04428795 21:0.042319749 22:0.048589341 23:0.021943573 24:0.032915361 25:0.047021944 26:0.043887146 27:0.05956113 28:0.061128527 29:0.061128527 30:0.014106583 31:0.05956113 32:0.032915361 33:0.056426331 34:0.031347964 35:0.20846395 36:0.012539185 37:0.05172414 38:0.010971786 39:0.097178683 40:0.0062695923 #SF01_HUMAN 
-1.7139653514821151514269104154664 1:0.058091167 2:0.09136752 3:0.054957263 4:0.028547009 5:0.046068378 6:0.025840456 7:0.037435897 8:0.067749284 9:0.066609688 10:0.053475782 11:0.073988602 12:0.042193733 13:0.013219373 14:0.026837606 15:0.0502849 16:0.056438748 17:0.024472935 18:0.063076921 19:0.042364672 20:0.052364673 21:0.04857143 22:0.057142857 23:0.025714286 24:0.04857143 25:0.065714285 26:0.031428572 27:0.022857143 28:0.074285716 29:0.04857143 30:0.031428572 31:0.071428575 32:0.054285713 33:0.1 34:0.054285713 35:0.068571426 36:0.045714285 37:0.02 38:0.025714286 39:0.085714288 40:0.02 #ABHD5_MOUSE
2 1:0.047270533 2:0.10635266 3:0.05342995 4:0.025193237 5:0.066763282 6:0.016666668 7:0.046014491 8:0.045338165 9:0.058526572 10:0.040458936 11:0.057222221 12:0.040531401 13:0.023333333 14:0.020217391 15:0.050241545 16:0.048985507 17:0.038405798 18:0.091497585 19:0.033574879 20:0.081304349 21:0.050847456 22:0.048426151 23:0.024213076 24:0.082324453 25:0.094430991 26:0.021791767 27:0.036319613 28:0.060532689 29:0.036319613 30:0.041162226 31:0.072639227 32:0.050847456 33:0.10895884 34:0.043583535 35:0.038740922 36:0.065375306 37:0.019370461 38:0.019370461 39:0.055690072 40:0.02905569 #2ACC_HUMAN 
0.49172590657298725913548764765437 1:0.037482142 2:0.081660718 3:0.030446429 4:0.016446428 5:0.029071428 6:0.007964286 7:0.015339286 8:0.051071428 9:0.064160712 10:0.033839285 11:0.083428569 12:0.040928572 13:0.0033035714 14:0.016553571 15:0.050160713 16:0.075482145 17:0.045714285 18:0.10332143 19:0.037250001 20:0.099178575 21:0.07692308 22:0.064400718 23:0.023255814 24:0.096601076 25:0.11449016 26:0.019677997 27:0.046511628 28:0.080500893 29:0.039355993 30:0.016100179 31:0.066189624 32:0.039355993 33:0.10375671 34:0.02862254 35:0.050089445 36:0.035778176 37:0.016100179 38:0.008944544 39:0.069767445 40:0.0035778175 #AATF_HUMAN 
0.35279870158062753837668878986733 1:0.044690531 2:0.055630125 3:0.023579419 4:0.012393736 5:0.010082028 6:0.0051528709 7:0.0052125282 8:0.046718866 9:0.052132737 10:0.078105889 11:0.1035645 12:0.055749442 13:0.0043475018 14:0.016465325 15:0.093318418 16:0.10302013 17:0.0401044 18:0.14312454 19:0.022759136 20:0.050313201 21:0.071641788 22:0.1119403 23:0.021641791 24:0.048507463 25:0.14850746 26:0.014179105 27:0.053731345 28:0.11343284 29:0.052985076 30:0.0059701493 31:0.06044776 32:0.045522388 33:0.068656713 34:0.023134328 35:0.082089551 36:0.0089552235 37:0.0097014923 38:0.0059701493 39:0.047761194 40:0.0052238805 #ACINU_HUMAN
0.87017556864799217031247735576471 1:0.040338602 2:0.095282167 3:0.047584649 4:0.022641083 5:0.033882618 6:0.0090293456 7:0.037133183 8:0.046343114 9:0.058171559 10:0.043747179 11:0.063182846 12:0.039548531 13:0.025349887 14:0.025485327 15:0.072934538 16:0.074537247 17:0.043024831 18:0.087246053 19:0.042302482 20:0.064446956 21:0.067873307 22:0.079185523 23:0.024886878 24:0.07013575 25:0.08371041 26:0.033936653 27:0.040723983 28:0.05882353 29:0.047511313 30:0.03846154 31:0.065610863 32:0.029411765 33:0.09728507 34:0.0520362 35:0.0520362 36:0.04524887 37:0.03167421 38:0.0090497741 39:0.042986427 40:0.029411765 #ADA2_HUMAN 
0.027705145491989102701779756898759 1:0.054379195 2:0.092046984 3:0.050536912 4:0.023137584 5:0.031577181 6:0.0032718121 7:0.020637583 8:0.053020135 9:0.087499999 10:0.034697987 11:0.082902685 12:0.040419463 13:0.0087416107 14:0.018640939 15:0.043942954 16:0.11964765 17:0.031124162 18:0.093506709 19:0.036879193 20:0.047600672 21:0.1092437 22:0.052100841 23:0.023529412 24:0.031932775 25:0.10252101 26:0.036974791 27:0.031932775 28:0.10252101 29:0.033613447 30:0.020168068 31:0.085714288 32:0.062184874 33:0.10084034 34:0.050420169 35:0.035294119 36:0.033613447 37:0.018487396 38:0.0016806723 39:0.055462185 40:0.011764706 #NOP56_HUMAN
-2 1:0.04955231 2:0.098734796 3:0.044155717 4:0.018832117 5:0.024326034 6:0.0053868615 7:0.020058393 8:0.037240878 9:0.068944037 10:0.03236983 11:0.071790755 12:0.044014599 13:0.014861314 14:0.021557178 15:0.064934306 16:0.078700729 17:0.0576545 18:0.10625791 19:0.037571777 20:0.048768856 21:0.075462513 22:0.069133401 23:0.025316456 24:0.045764361 25:0.11246349 26:0.035053555 27:0.064264849 28:0.079844207 29:0.039435249 30:0.02288218 31:0.074975654 32:0.049172346 33:0.11392405 34:0.037487827 35:0.040895812 36:0.028724439 37:0.025803311 38:0.0063291141 39:0.035540409 40:0.017526777 #CTRO_MOUSE 
-2 1:0.055941422 2:0.092552304 3:0.057531379 4:0.02623431 5:0.030878661 6:0.0084937243 7:0.025104603 8:0.045564853 9:0.050125524 10:0.039414227 11:0.060627613 12:0.042343095 13:0.014435146 14:0.015690377 15:0.051631801 16:0.081631802 17:0.044769876 18:0.11175732 19:0.038577408 20:0.078619249 21:0.084033616 22:0.054621849 23:0.012605042 24:0.071428575 25:0.13445379 26:0.037815128 27:0.033613447 28:0.050420169 29:0.042016808 30:0.025210084 31:0.046218488 32:0.050420169 33:0.11344538 34:0.067226894 35:0.046218488 36:0.029411765 37:0.021008404 38:0.016806724 39:0.054621849 40:0.0084033618 #PDCL3_HUMAN
-1.7245861247189837595072958720266 1:0.024746377 2:0.11963768 3:0.041123189 4:0.034927536 5:0.058659419 6:0.0084057972 7:0.028623188 8:0.057463769 9:0.054746378 10:0.022862319 11:0.05061594 12:0.037789855 13:0.0086231884 14:0.013586956 15:0.038224638 16:0.083913043 17:0.047427535 18:0.09742754 19:0.046268117 20:0.082246378 21:0.087272726 22:0.061818182 23:0.018181818 24:0.098181821 25:0.083636366 26:0.032727271 27:0.036363635 28:0.054545455 29:0.032727271 30:0.018181818 31:0.065454543 32:0.036363635 33:0.12363636 34:0.043636363 35:0.018181818 36:0.06909091 37:0.043636363 38:0.010909091 39:0.054545455 40:0.010909091 #SEGN_HUMAN 
2 1:0.068026319 2:0.092403047 3:0.0582687 4:0.020401662 5:0.039785318 6:0.0065166205 7:0.031807479 8:0.061225761 9:0.053961217 10:0.042596951 11:0.070041552 12:0.053234071 13:0.013850415 14:0.021551246 15:0.045706373 16:0.047222991 17:0.034265928 18:0.065457061 19:0.0408241 20:0.052430749 21:0.043659043 22:0.063063063 23:0.027027028 24:0.045738045 25:0.076230079 26:0.03049203 27:0.037422039 28:0.065835066 29:0.056826055 30:0.033957034 31:0.067221068 32:0.079695083 33:0.10464311 34:0.042966042 35:0.060291059 36:0.040887039 37:0.023562023 38:0.0097020101 39:0.074844077 40:0.015939016 #CPSF1_BOVIN
2 1:0.061631139 2:0.088721037 3:0.061556999 4:0.033345692 5:0.03570899 6:0.0067840591 7:0.033892494 8:0.070231698 9:0.054717332 10:0.043957368 11:0.062057462 12:0.052344766 13:0.019193698 14:0.026598703 15:0.064615384 16:0.055013902 17:0.038850788 18:0.055959221 19:0.038785912 20:0.048860054 21:0.05380334 22:0.054730982 23:0.025046382 24:0.048237476 25:0.055658627 26:0.046382189 27:0.033395175 28:0.063079774 29:0.045454547 30:0.039888684 31:0.052875694 32:0.068645641 33:0.10296846 34:0.05380334 35:0.055658627 36:0.05380334 37:0.039888684 38:0.010204081 39:0.072356217 40:0.024118738 #RPA2_HUMAN 
0.066137508254525231854437095080357 1:0.045617979 2:0.062423754 3:0.041926164 4:0.0241252 5:0.034430176 6:0.0064205457 7:0.035056181 8:0.03892456 9:0.047479935 10:0.057030499 11:0.11149278 12:0.076709472 13:0.009261637 14:0.025473515 15:0.057736758 16:0.03576244 17:0.075746387 18:0.067929372 19:0.048234351 20:0.064253613 21:0.03215434 22:0.073954985 23:0.020900322 24:0.061093248 25:0.065916397 26:0.046623792 27:0.088424437 28:0.13987139 29:0.078778133 30:0.036977492 31:0.040192924 32:0.046623792 33:0.062700965 34:0.045016076 35:0.051446944 36:0.033762056 37:0.017684888 38:0.0064308681 39:0.041800644 40:0.0096463021 #SKN1_CAEEL 
-2 1:0.064943276 2:0.099157214 3:0.055413291 4:0.031880066 5:0.040583469 6:0.0055753645 7:0.02795786 8:0.055445705 9:0.04675851 10:0.038752027 11:0.062609397 12:0.051523499 13:0.015510535 14:0.027828202 15:0.050729334 16:0.050907619 17:0.035510536 18:0.061199352 19:0.035769854 20:0.048038896 21:0.071428575 22:0.053571429 23:0.030844156 24:0.040584415 25:0.069805197 26:0.04383117 27:0.050324675 28:0.061688311 29:0.053571429 30:0.027597403 31:0.056818184 32:0.076298699 33:0.095779218 34:0.061688311 35:0.042207792 36:0.042207792 37:0.042207792 38:0.0097402595 39:0.053571429 40:0.016233766 #GCYB2_HUMAN
-2 1:0.07819625 2:0.085252523 3:0.074776337 4:0.01936508 5:0.037287157 6:0.0056854258 7:0.026147187 8:0.070692644 9:0.054632034 10:0.045772005 11:0.054531023 12:0.053751804 13:0.014935065 14:0.026839826 15:0.046118326 16:0.059870131 17:0.032669552 18:0.063795097 19:0.044675324 20:0.052655123 21:0.06936416 22:0.050578035 23:0.024566473 24:0.049132947 25:0.078034684 26:0.039017342 27:0.03034682 28:0.059248555 29:0.062138729 30:0.018786127 31:0.056358382 32:0.085260116 33:0.0867052 34:0.078034684 35:0.054913294 36:0.041907515 37:0.01734104 38:0.00433526 39:0.075144507 40:0.018786127 #GUAA_HUMAN 
-0.86735509677171906961490321918973 1:0.070213132 2:0.091385335 3:0.059808183 4:0.023081841 5:0.034160271 6:0.010302642 7:0.030089514 8:0.061466325 9:0.073478259 10:0.04264706 11:0.07168372 12:0.044479966 13:0.010558398 14:0.023503836 15:0.055869564 16:0.050797101 17:0.036082692 18:0.070805624 19:0.037510656 20:0.051150896 21:0.046055436 22:0.061833687 23:0.026012793 24:0.053731345 25:0.069936037 26:0.044776119 27:0.043496802 28:0.067803837 29:0.045628998 30:0.034968019 31:0.064818762 32:0.08187633 33:0.094243072 34:0.06055437 35:0.047761194 36:0.040511727 37:0.031130064 38:0.011513859 39:0.060980812 40:0.012366738 #COA1_BOVIN 
2 1:0.047370128 2:0.096168831 3:0.03969156 4:0.020413961 5:0.020227272 6:0.0030032468 7:0.01387987 8:0.037727274 9:0.06727273 10:0.022199675 11:0.077045456 12:0.050137985 13:0.01726461 14:0.015795454 15:0.058214284 16:0.089196429 17:0.061850648 18:0.11545455 19:0.04502435 20:0.051785715 21:0.10073111 22:0.0528026 23:0.012185215 24:0.04874086 25:0.11454102 26:0.04224208 27:0.079610072 28:0.073111288 29:0.050365556 30:0.013809911 31:0.060926076 32:0.056051992 33:0.11047929 34:0.040617384 35:0.034118604 36:0.021933388 37:0.019496344 38:0.0040617385 39:0.041429732 40:0.022745736 #KIF4A_HUMAN
0.82348457807529240604083042853745 1:0.050935961 2:0.096781611 3:0.055911329 4:0.021165846 5:0.028555008 6:0.0024302134 7:0.020853858 8:0.039376028 9:0.063973725 10:0.015525452 11:0.062766828 12:0.0445977 13:0.0074220034 14:0.016288998 15:0.056141216 16:0.09986864 17:0.057331692 18:0.11148604 19:0.048177339 20:0.054868639 21:0.10599836 22:0.073130652 23:0.015612161 24:0.055875104 25:0.11668036 26:0.046836484 27:0.068200491 28:0.055875104 29:0.046836484 30:0.02465078 31:0.058340181 32:0.046836484 33:0.10188989 34:0.050944947 35:0.017255547 36:0.033689398 37:0.028759245 38:0.0032867708 39:0.042728018 40:0.0057518487 #SMC3_BOVIN 
0.26562357899454680509876425276161 1:0.079745762 2:0.10932203 3:0.049067795 4:0.03983051 5:0.031610169 6:0.0068644066 7:0.0072033899 8:0.048050847 9:0.038813557 10:0.03983051 11:0.058728814 12:0.043898307 13:0.013559322 14:0.013644068 15:0.068389833 16:0.11076272 17:0.022542372 18:0.081949152 19:0.07220339 20:0.033898305 21:0.14529915 22:0.05982906 23:0.008547009 24:0.025641026 25:0.085470088 26:0.094017096 27:0.025641026 28:0.068376072 29:0.042735044 30:0.008547009 31:0.017094018 32:0.094017096 33:0.1025641 34:0.034188036 35:0.051282052 36:0.025641026 37:0.034188036 38:0.008547009 39:0.051282052 40:0.017094018 #SMD2_HUMAN 
-2 1:0.041072179 2:0.10067975 3:0.033735108 4:0.017351085 5:0.014632096 6:0.0028451297 7:0.010294324 8:0.036461107 9:0.078899793 10:0.019957954 11:0.069222145 12:0.05046251 13:0.0095725302 14:0.015430974 15:0.060084093 16:0.097203925 17:0.068213031 18:0.13531184 19:0.038297128 20:0.0540925 21:0.10729313 22:0.046984572 23:0.018232819 24:0.049088359 25:0.13955119 26:0.039971948 27:0.063113607 28:0.085553996 29:0.06171108 30:0.0063113603 31:0.080645159 32:0.045582049 33:0.10939691 34:0.032959327 35:0.023842918 36:0.020336606 37:0.022440393 38:0.0035063114 39:0.03436185 40:0.0091164093 #REST_HUMAN 
-2 1:0.033841465 2:0.10823171 3:0.053577237 4:0.011239838 5:0.039105691 6:0.00050813006 7:0.015731707 8:0.033150405 9:0.061504066 10:0.034878049 11:0.070121951 12:0.063516259 13:0.0067682927 14:0.019004066 15:0.052581299 16:0.095792681 17:0.05851626 18:0.10613821 19:0.056890246 20:0.056808945 21:0.099796332 22:0.044806518 23:0.020366598 24:0.057026476 25:0.11608961 26:0.054989818 27:0.059063137 28:0.073319755 29:0.052953158 30:0.012219959 31:0.059063137 32:0.038696539 33:0.12016293 34:0.050916497 35:0.034623217 36:0.044806518 37:0.012219959 38:0 39:0.040733196 40:0.0081466399 #SAS6_CAEEL 
-2 1:0.037021223 2:0.11304014 3:0.037363846 4:0.019092305 5:0.015349016 6:0.0028560471 7:0.011539248 8:0.026241371 9:0.07067246 10:0.01023012 11:0.073922269 12:0.045415495 13:0.0074789058 14:0.017266683 15:0.060255688 16:0.095584251 17:0.082615696 18:0.15132192 19:0.037443109 20:0.048049092 21:0.086445011 22:0.050127879 23:0.019437341 24:0.043222506 25:0.15294118 26:0.039641943 27:0.095396422 28:0.077237852 29:0.050639387 30:0.015089514 31:0.04629156 32:0.046035804 33:0.12173913 34:0.049360614 35:0.014578005 36:0.023273658 37:0.023273658 38:0.0035805628 39:0.031202046 40:0.010485933 #AKAP9_HUMAN
2 1:0.071776159 2:0.10097323 3:0.049878344 4:0.023114355 5:0.036496349 6:0.018248174 7:0.023114355 8:0.064476885 9:0.062043797 10:0.056776155 11:0.075425789 12:0.053527981 13:0.026350364 14:0.02919708 15:0.047445256 16:0.059209246 17:0.047445256 18:0.071776159 19:0.036496349 20:0.046228711 21:0.059683312 22:0.047503047 23:0.029232644 24:0.046285018 25:0.071863584 26:0.036540803 27:0.047503047 28:0.075517662 29:0.053593177 30:0.023142509 31:0.062119368 32:0.071863584 33:0.10109623 34:0.0499391 35:0.057247259 36:0.036540803 37:0.021924483 38:0.018270401 39:0.064555421 40:0.025578562 #TF3C4_HUMAN
2 1:0.075701751 2:0.094049707 3:0.068888888 4:0.034298245 5:0.038406432 6:0.0079239765 7:0.030453216 8:0.057821639 9:0.060336258 10:0.040570177 11:0.063260235 12:0.052192982 13:0.017982457 14:0.0298538 15:0.041140351 16:0.061403509 17:0.03773392 18:0.070657894 19:0.040365499 20:0.056023393 21:0.061493412 22:0.040995609 23:0.03660322 24:0.057101026 25:0.084919475 26:0.040995609 27:0.03660322 28:0.057101026 29:0.04978038 30:0.035139091 31:0.064421669 32:0.065885797 33:0.096632503 34:0.079062961 35:0.040995609 36:0.033674963 37:0.03660322 38:0.0087847728 39:0.057101026 40:0.016105417 #CPSF3_BOVIN
2 1:0.07485088 2:0.10195614 3:0.069947369 4:0.020552631 5:0.039605264 6:0.006614035 7:0.032833334 8:0.06391228 9:0.053508773 10:0.035868421 11:0.073640354 12:0.057438597 13:0.01791228 14:0.022175439 15:0.044859648 16:0.047166668 17:0.036315791 18:0.065561406 19:0.045342106 20:0.052929826 21:0.047410008 22:0.042142231 23:0.024582967 24:0.048287973 25:0.079894647 26:0.047410008 27:0.041264266 28:0.074626863 29:0.061457418 30:0.030728709 31:0.052677788 32:0.079894647 33:0.10974539 34:0.063213348 35:0.035996489 36:0.040386304 37:0.02282704 38:0.0070237052 39:0.071115009 40:0.019315189 #DDB1_CERAE 
-2 1:0.062718578 2:0.10214481 3:0.05441257 4:0.029357923 5:0.044795081 6:0.0038524589 7:0.027486339 8:0.056065574 9:0.052909836 10:0.044918034 11:0.077117488 12:0.051871583 13:0.019180328 14:0.026789617 15:0.057377048 16:0.05195355 17:0.03668033 18:0.073948085 19:0.038729507 20:0.048196722 21:0.05882353 22:0.061559506 23:0.027359782 24:0.042407662 25:0.075239398 26:0.035567716 27:0.041039672 28:0.079343364 29:0.050615594 30:0.020519836 31:0.069767445 32:0.05608755 33:0.098495215 34:0.05608755 35:0.05745554 36:0.050615594 37:0.025991792 38:0.0027359782 39:0.061559506 40:0.02872777 #GCYA2_HUMAN
-2 1:0.063861385 2:0.089482948 3:0.058756877 4:0.021980198 5:0.03438944 6:0.0095049506 7:0.030561056 8:0.055533554 9:0.062112212 10:0.046094611 11:0.063872389 12:0.044554457 13:0.011760176 14:0.027590759 15:0.05218922 16:0.063663363 17:0.041056104 18:0.074961498 19:0.037425742 20:0.058932893 21:0.063876651 22:0.053964756 23:0.039647575 24:0.057268724 25:0.081497796 26:0.038546257 27:0.040748898 28:0.063876651 29:0.047356829 30:0.035242289 31:0.063876651 32:0.072687224 33:0.087004408 34:0.059471365 35:0.053964756 36:0.035242289 37:0.024229076 38:0.0099118939 39:0.053964756 40:0.017621145 #CSKP_RAT   
-2 1:0.062435132 2:0.11215569 3:0.063872255 4:0.024371257 5:0.032195609 6:0.0059081838 7:0.028283434 8:0.066387229 9:0.076487027 10:0.031976048 11:0.085189618 12:0.048383232 13:0.026227545 14:0.023852296 15:0.056187626 16:0.05958084 17:0.035608783 18:0.058562875 19:0.051317364 20:0.050419163 21:0.059999999 22:0.061999999 23:0.028000001 24:0.054000001 25:0.059999999 26:0.046 27:0.029999999 28:0.079999998 29:0.041999999 30:0.028000001 31:0.078000002 32:0.068000004 33:0.108 34:0.059999999 35:0.035999998 36:0.035999998 37:0.029999999 38:0.0040000002 39:0.064000003 40:0.026000001 #UGTAP_HUMAN
1.5325203901662673988681717673899 1:0.037112676 2:0.12190141 3:0.040140845 4:0.021549296 5:0.045704227 6:0 7:0.02084507 8:0.039507043 9:0.086690143 10:0.026056338 11:0.071338028 12:0.051478874 13:0.013661972 14:0.018098591 15:0.053169016 16:0.068169013 17:0.054788731 18:0.12816902 19:0.041690141 20:0.056971829 21:0.063829787 22:0.056737587 23:0.021276595 24:0.04964539 25:0.14893617 26:0.035460994 27:0.063829787 28:0.078014188 29:0.04964539 30:0.014184397 31:0.08510638 32:0.028368793 33:0.12765957 34:0.035460994 35:0.028368793 36:0.056737587 37:0.014184397 38:0 39:0.028368793 40:0.014184397 #RPB4_HUMAN 
2 1:0.036323987 2:0.11732399 3:0.031152649 4:0.01823053 5:0.0096012466 6:0.0016884735 7:0.0075669782 8:0.024626167 9:0.079077885 10:0.0098348912 11:0.068694703 12:0.04123053 13:0.0065140189 14:0.013461059 15:0.057850469 16:0.10223365 17:0.077735201 18:0.15347664 19:0.041233644 20:0.054591902 21:0.10065441 22:0.038329698 23:0.019320661 24:0.041445933 25:0.15051419 26:0.04985977 27:0.085696481 28:0.0925522 29:0.045185417 30:0.012153319 31:0.048924897 32:0.041757558 33:0.13555625 34:0.033343721 35:0.019009037 36:0.014334683 37:0.021190401 38:0.0024929885 39:0.029604238 40:0.018074166 #CENPF_HUMAN
1.1768913997726435649582299447502 1:0.047543861 2:0.12171052 3:0.054254387 4:0.031096492 5:0.032456141 6:0.011666667 7:0.029429825 8:0.029517544 9:0.071228072 10:0.03381579 11:0.061491229 12:0.046710525 13:0.010964912 14:0.020219298 15:0.056008771 16:0.078421056 17:0.048771929 18:0.11105263 19:0.047675438 20:0.053245615 21:0.074889868 22:0.052863438 23:0.022026431 24:0.048458152 25:0.14096916 26:0.039647575 27:0.066079296 28:0.044052862 29:0.048458152 30:0.026431719 31:0.066079296 32:0.035242289 33:0.14096916 34:0.052863438 35:0.035242289 36:0.026431719 37:0.035242289 38:0.013215859 39:0.026431719 40:0.0044052862 #CT011_HUMAN
-2 1:0.036647175 2:0.11723197 3:0.038115658 4:0.018862898 5:0.010279402 6:0.0019298246 7:0.0095321639 8:0.017608836 9:0.079525664 10:0.0045354124 11:0.056185834 12:0.043125406 13:0.0043079923 14:0.015022742 15:0.05331384 16:0.11597791 17:0.076692656 18:0.15922028 19:0.045854449 20:0.054853801 21:0.12873863 22:0.053966191 23:0.021456437 24:0.043563068 25:0.14629389 26:0.051365409 27:0.07607282 28:0.056566969 29:0.042262677 30:0.013654096 31:0.058517557 32:0.038361508 33:0.13459037 34:0.053966191 35:0.015604681 36:0.014304291 37:0.021456437 38:0.0045513655 39:0.020806242 40:0.0039011703 #CE290_HUMAN
-2 1:0.05077406 2:0.11705021 3:0.037656903 4:0.025104603 5:0.019058578 6:0.0036401674 7:0.01997908 8:0.030418411 9:0.076255232 10:0.018870292 11:0.036924686 12:0.045439329 13:0.0041004182 14:0.023284519 15:0.080669455 16:0.096841007 17:0.066380754 18:0.14043933 19:0.044393305 20:0.045794979 21:0.11530399 22:0.079664573 23:0.025157232 24:0.04821803 25:0.1446541 26:0.04821803 27:0.060796645 28:0.01048218 29:0.046121594 30:0.018867925 31:0.075471699 32:0.064989515 33:0.11111111 34:0.039832287 35:0.016771488 36:0.02096436 37:0.029350106 38:0.004192872 39:0.033542976 40:0.006289308 #GAS8_MOUSE 
0.3192333083201625010261182069371 1:0.0492827 2:0.11097047 3:0.015147679 4:0.026413502 5:0.02670886 6:0.0049789031 7:0.030084388 8:0.056919832 9:0.062742613 10:0.073881857 11:0.095527425 12:0.040590718 13:0.012869198 14:0.034641352 15:0.070337556 16:0.05472574 17:0.062784813 18:0.089156121 19:0.032700423 20:0.041814346 21:0.025423728 22:0.10593221 23:0.012711864 24:0.038135592 25:0.088983051 26:0.012711864 27:0.055084746 28:0.076271184 29:0.038135592 30:0.029661017 31:0.10169491 32:0.042372882 33:0.12711865 34:0 35:0.088983051 36:0.021186441 37:0.021186441 38:0.0042372881 39:0.097457625 40:0.012711864 #NRL_HUMAN  
1.1788833241054652578583272770629 1:0.058591317 2:0.088812448 3:0.052932024 4:0.025085995 5:0.043030303 6:0.011924652 7:0.035143327 8:0.03930385 9:0.055782147 10:0.044340704 11:0.075593777 12:0.054226045 13:0.015790336 14:0.027772319 15:0.049148239 16:0.072186731 17:0.037690416 18:0.067321867 19:0.046560198 20:0.062186733 21:0.065573767 22:0.055737704 23:0.032786883 24:0.05819672 25:0.067213118 26:0.043442622 27:0.043442622 28:0.077868849 29:0.062295083 30:0.037704919 31:0.063114755 32:0.062295083 33:0.095901638 34:0.054918032 35:0.048360657 36:0.04262295 37:0.022950819 38:0.0090163937 39:0.037704919 40:0.018852459 #TAF2_DROME 
2 1:0.060605709 2:0.083808966 3:0.056895748 4:0.0267152 5:0.035241701 6:0.0056493883 7:0.023541059 8:0.05828771 9:0.05379732 10:0.038305182 11:0.058177054 12:0.048351776 13:0.014531159 14:0.021520093 15:0.054589402 16:0.063214913 17:0.038124636 18:0.069079794 19:0.044414677 20:0.053878859 21:0.063519813 22:0.062354311 23:0.026223777 24:0.047202796 25:0.082167834 26:0.039627038 27:0.048368298 28:0.064102568 29:0.048368298 30:0.02972028 31:0.064685315 32:0.062937066 33:0.1072261 34:0.044871796 35:0.051282052 36:0.037878789 37:0.027389277 38:0.0087412586 39:0.062937066 40:0.02039627 #RPA1_HUMAN 
2 1:0.056580774 2:0.096957386 3:0.050257679 4:0.025312191 5:0.035569873 6:0.011744301 7:0.026025768 8:0.05134787 9:0.05392468 10:0.040287413 11:0.065629333 12:0.047552031 13:0.015857285 14:0.02135778 15:0.054697722 16:0.070634291 17:0.044023786 18:0.064212091 19:0.046035677 20:0.053300299 21:0.08730159 22:0.052579366 23:0.024801588 24:0.054563493 25:0.070436507 26:0.052579366 27:0.038690478 28:0.071428575 29:0.056547619 30:0.020833334 31:0.057539683 32:0.057539683 33:0.10119048 34:0.055555556 35:0.050595239 36:0.035714287 37:0.022817461 38:0.013888889 39:0.057539683 40:0.017857144 #SMRA3_HUMAN
-2 1:0.05926 2:0.097209997 3:0.050779998 4:0.024979999 5:0.036970001 6:0.0085300002 7:0.020199999 8:0.0407 9:0.068970002 10:0.058350001 11:0.080650002 12:0.067079999 13:0.017419999 14:0.02296 15:0.056129999 16:0.058710001 17:0.046410002 18:0.063529998 19:0.045310002 20:0.060430001 21:0.069069073 22:0.053053051 23:0.022022022 24:0.063063063 25:0.061061062 26:0.043043043 27:0.047047049 28:0.078078076 29:0.071071073 30:0.026026025 31:0.069069073 32:0.060060062 33:0.098098099 34:0.055055056 35:0.060060062 36:0.039039038 37:0.026026025 38:0.0080080079 39:0.034034032 40:0.017017016 #SARM1_CAEEL
-2 1:0.056570984 2:0.084010862 3:0.048557021 4:0.019193172 5:0.030775795 6:0.010434445 7:0.027905352 8:0.058463927 9:0.060465477 10:0.055593483 11:0.083149731 12:0.051830877 13:0.016594259 14:0.021667959 15:0.053266097 16:0.070605122 17:0.03773468 18:0.0703879 19:0.040659428 20:0.052777346 21:0.068322979 22:0.049689442 23:0.020962734 24:0.057453416 25:0.072981365 26:0.045807455 27:0.048136648 28:0.081521742 29:0.049689442 30:0.031055901 31:0.061335403 32:0.060559005 33:0.086956523 34:0.055900622 35:0.064440995 36:0.031055901 37:0.019409938 38:0.011645962 39:0.057453416 40:0.025621118 #DUET_HUMAN 
-2 1:0.056512196 2:0.087926827 3:0.05204878 4:0.026341463 5:0.041097563 6:0.0062682927 7:0.024170732 8:0.052682925 9:0.055878051 10:0.037073169 11:0.065756097 12:0.046780489 13:0.026073171 14:0.024634147 15:0.048780486 16:0.068146341 17:0.036512196 18:0.066146344 19:0.040585365 20:0.058292683 21:0.06601467 22:0.051344745 23:0.029339854 24:0.061124694 25:0.075794622 26:0.044009779 27:0.036674816 28:0.083129585 29:0.048899755 30:0.019559903 31:0.06356968 32:0.061124694 33:0.09535452 34:0.053789731 35:0.046454769 36:0.048899755 37:0.026894866 38:0.0048899758 39:0.051344745 40:0.03178484 #CASP1_FELCA
1.6503447377738502677146925634588 1:0.034387186 2:0.12423398 3:0.03380223 4:0.021295264 5:0.018969359 6:0.002172702 7:0.012284122 8:0.024610028 9:0.072423398 10:0.010153203 11:0.069275767 12:0.047938719 13:0.0057381615 14:0.014610028 15:0.067270197 16:0.08603064 17:0.084707521 18:0.13800836 19:0.043760445 20:0.050571032 21:0.059972107 22:0.097629011 23:0.018131102 24:0.034867503 25:0.14225942 26:0.022315202 27:0.10041841 28:0.082287312 29:0.041841004 30:0.012552301 31:0.07391911 32:0.037656903 33:0.14086471 34:0.025104603 35:0.015341702 36:0.013947002 37:0.032078102 38:0.0027894003 39:0.039051604 40:0.0069735008 #MD1L1_HUMAN
1.6322577172586063554149404808413 1:0.035366099 2:0.11128385 3:0.031223672 4:0.019809429 5:0.017011033 6:0.0028284856 7:0.009508526 8:0.019237714 9:0.076529592 10:0.016188566 11:0.069257773 12:0.049518555 13:0.0064192577 14:0.0132999 15:0.055697091 16:0.11604814 17:0.070290871 18:0.14719157 19:0.044423271 20:0.053771313 21:0.14257029 22:0.035140563 23:0.015060241 24:0.042168673 25:0.15662651 26:0.060240965 27:0.059236947 28:0.07429719 29:0.062248997 30:0.019076305 31:0.043172691 32:0.042168673 33:0.11445783 34:0.046184737 35:0.016064256 36:0.020080321 37:0.024096385 38:0.0040160641 39:0.014056225 40:0.0090361442 #SYCP1_RAT  
0.64075807215507252223574141680729 1:0.033295508 2:0.11140899 3:0.032846335 4:0.017588653 5:0.010832151 6:0.0020661938 7:0.0083971629 8:0.027669031 9:0.090312056 10:0.019531915 11:0.071957447 12:0.047669031 13:0.0062174941 14:0.015399527 15:0.069276594 16:0.092666663 17:0.078898348 18:0.13718203 19:0.035910167 20:0.050709222 21:0.071428575 22:0.074266791 23:0.017975403 24:0.029801324 25:0.13765374 26:0.020813623 27:0.11778618 28:0.076631978 29:0.0487228 30:0.0070955534 31:0.11684012 32:0.033112582 33:0.12346263 34:0.018921476 35:0.028855251 36:0.01371807 37:0.013245033 38:0.0037842952 39:0.036896877 40:0.0089877015 #NUMA1_HUMAN
-2 1:0.041849114 2:0.086553253 3:0.03199704 4:0.030458581 5:0.017233727 6:0.0018786982 7:0.0099260351 8:0.02372781 9:0.075902365 10:0.057736687 11:0.072485209 12:0.061331362 13:0.0081065092 14:0.014467455 15:0.04551775 16:0.090532541 17:0.079970412 18:0.13797337 19:0.039778106 20:0.053254437 21:0.096296296 22:0.035555556 23:0.017777778 24:0.044444446 25:0.14814815 26:0.04148148 27:0.078518517 28:0.065185182 29:0.071111113 30:0.011851852 31:0.075555556 32:0.031111112 33:0.088888891 34:0.037037037 35:0.060740739 36:0.019259259 37:0.037037037 38:0.002962963 39:0.02074074 40:0.016296295 #TXLNB_CHICK
-1.2890179249246329629130514149438 1:0.03585821 2:0.13835821 3:0.027238807 4:0.021380598 5:0.015 6:0.0054850746 7:0.022705223 8:0.034608208 9:0.057033584 10:0.021212686 11:0.063041046 12:0.039216418 13:0.015037313 14:0.018283581 15:0.084440298 16:0.068395525 17:0.094328359 18:0.1297015 19:0.038880598 20:0.060522389 21:0.074766353 22:0.093457945 23:0.020560747 24:0.067289717 25:0.11962617 26:0.020560747 27:0.082242988 28:0.059813086 29:0.031775702 30:0.018691588 31:0.061682243 32:0.046728972 33:0.13831776 34:0.026168223 35:0.028037382 36:0.016822429 37:0.022429906 38:0.0074766357 39:0.046728972 40:0.016822429 #CARD9_HUMAN
0.48839483539459693783868488026201 1:0.04846473 2:0.086085752 3:0.057510372 4:0.034564316 5:0.035352696 6:0.0030290456 7:0.026569847 8:0.042890731 9:0.067413554 10:0.055449516 11:0.08875519 12:0.046514522 13:0.023692947 14:0.027786998 15:0.048948824 16:0.051576763 17:0.051687412 18:0.062378976 19:0.042752419 20:0.05835408 21:0.062326871 22:0.058171745 23:0.018005541 24:0.072022162 25:0.060941827 26:0.059556786 27:0.049861494 28:0.087257616 29:0.041551247 30:0.024930747 31:0.081717454 32:0.048476454 33:0.077562325 34:0.070637122 35:0.048476454 36:0.033240996 37:0.037396122 38:0.002770083 39:0.040166207 40:0.024930747 #HR96_DROME 
2 1:0.051082801 2:0.089219742 3:0.043519109 4:0.022754777 5:0.047722928 6:0.012117835 7:0.027643312 8:0.050573248 9:0.065621018 10:0.045414012 11:0.082149684 12:0.0458121 13:0.017738853 14:0.020621018 15:0.060254779 16:0.055859871 17:0.0425 18:0.051273886 19:0.054012738 20:0.059458598 21:0.049441785 22:0.074960127 23:0.031897925 24:0.073365234 25:0.057416268 26:0.051036682 27:0.036682617 28:0.079744816 29:0.038277511 30:0.023923445 31:0.089314193 32:0.068580545 33:0.070175439 34:0.047846891 35:0.038277511 36:0.062200956 37:0.023923445 38:0.011164274 39:0.05582137 40:0.015948962 #NXF1_CAEEL 
0.5336748731186303773554868712381 1:0.05854591 2:0.089739196 3:0.044237226 4:0.023054663 5:0.032122187 6:0.0094498033 7:0.019085387 8:0.054994643 9:0.069739193 10:0.05231154 11:0.095494822 12:0.050214361 13:0.016852448 14:0.020307252 15:0.060032155 16:0.045416221 17:0.042122185 18:0.068149336 19:0.043197572 20:0.059678458 21:0.04217298 22:0.06897784 23:0.020729093 24:0.058613297 25:0.073981412 26:0.04610436 27:0.044317368 28:0.10328806 29:0.048963547 30:0.018227305 31:0.077912793 32:0.057898499 33:0.10007148 34:0.040743388 35:0.058255896 36:0.028234454 37:0.023945676 38:0.0096497498 39:0.057898499 40:0.020014295 #EDD1_HUMAN 
-2 1:0.056826446 2:0.090429753 3:0.046115704 4:0.02109091 5:0.02983471 6:0.02323967 7:0.022842975 8:0.050198346 9:0.057719007 10:0.034000002 11:0.091289259 12:0.056132231 13:0.030793389 14:0.026082644 15:0.050727274 16:0.056413222 17:0.033867769 18:0.049239669 19:0.041454546 20:0.055867769 21:0.052980132 22:0.076158941 23:0.026490066 24:0.061258279 25:0.057947021 26:0.044701986 27:0.033112582 28:0.082781456 29:0.05629139 30:0.031456955 31:0.061258279 32:0.06291391 33:0.096026488 34:0.057947021 35:0.03642384 36:0.024834437 37:0.021523179 38:0.023178808 39:0.051324502 40:0.041390728 #FBW1A_HUMAN
-2 1:0.063899368 2:0.096666664 3:0.056273583 4:0.020801887 5:0.040408805 6:0.020550314 7:0.037908804 8:0.050345913 9:0.067279875 10:0.058128931 11:0.075864777 12:0.046336479 13:0.017091194 14:0.026006289 15:0.047845911 16:0.046415094 17:0.035723269 18:0.060738992 19:0.047295596 20:0.051509432 21:0.045597482 22:0.056603774 23:0.028301887 24:0.047169812 25:0.073899373 26:0.048742138 27:0.040880505 28:0.066037737 29:0.048742138 30:0.034591194 31:0.066037737 32:0.064465411 33:0.09591195 34:0.051886793 35:0.069182388 36:0.048742138 37:0.020440252 38:0.022012578 39:0.051886793 40:0.018867925 #SKB1_HUMAN 
-2 1:0.05404282 2:0.088324934 3:0.067581862 4:0.030264484 5:0.036977328 6:0.014382872 7:0.04629723 8:0.058350127 9:0.073123425 10:0.0384131 11:0.065037787 12:0.058110829 13:0.01892947 14:0.022216626 15:0.048929472 16:0.066675059 17:0.036813602 18:0.065969773 19:0.053702772 20:0.055642318 21:0.070617907 22:0.042875156 23:0.017654477 24:0.047919292 25:0.07187894 26:0.061790667 27:0.039092056 28:0.061790667 29:0.066834807 30:0.046658259 31:0.07692308 32:0.046658259 33:0.090794452 34:0.068095841 35:0.036569986 36:0.032786883 37:0.027742749 38:0.015132409 39:0.058007564 40:0.020176545 #RIR1_BRARE 
1.0840771538333571211154549018829 1:0.051602211 2:0.10558011 3:0.037790056 4:0.025193371 5:0.027734807 6:0.00093922653 7:0.0032596686 8:0.031325966 9:0.073701657 10:0.052486189 11:0.079226516 12:0.04845304 13:0.021491712 14:0.02160221 15:0.077182323 16:0.075635359 17:0.064861879 18:0.11342541 19:0.037458565 20:0.029668508 21:0.094444446 22:0.072222225 23:0.027777778 24:0.022222223 25:0.12222222 26:0.050000001 27:0.055555556 28:0.077777781 29:0.03888889 30:0.0055555557 31:0.077777781 32:0.061111111 33:0.094444446 34:0.050000001 35:0.050000001 36:0.027777778 37:0.016666668 38:0 39:0.027777778 40:0.027777778 #ATF3_HUMAN 
1.1976570595257216567119940009434 1:0.040007621 2:0.10824695 3:0.049885672 4:0.019474085 5:0.017157013 6:0.0028734757 7:0.013140243 8:0.027995426 9:0.068689026 10:0.0075838417 11:0.064314023 12:0.047400914 13:0.0089862803 14:0.016493902 15:0.05961128 16:0.101875 17:0.070777439 18:0.13284299 19:0.046166159 20:0.057789635 21:0.11289092 22:0.063310452 23:0.020594966 24:0.061022121 25:0.12128147 26:0.049580473 27:0.078565978 28:0.061784897 29:0.048817698 30:0.019069413 31:0.038138825 32:0.043478262 33:0.10602593 34:0.067887112 35:0.012967201 36:0.022883296 37:0.024408849 38:0.0030511061 39:0.030511061 40:0.013729977 #RAD50_HUMAN
0.69108684534360498297189678851282 1:0.053094555 2:0.090000004 3:0.054441262 4:0.02538682 5:0.022320917 6:0.0043553007 7:0.014584527 8:0.034785099 9:0.047621775 10:0.03166189 11:0.06383954 12:0.038968481 13:0.0066189114 14:0.019971346 15:0.05982808 16:0.090744987 17:0.063925505 18:0.12426934 19:0.039398279 20:0.083524354 21:0.10344828 22:0.057471264 23:0.028735632 24:0.094827585 25:0.12356322 26:0.034482758 27:0.060344826 28:0.071839079 29:0.045977011 30:0.011494253 31:0.043103449 32:0.054597702 33:0.10057471 34:0.05172414 35:0.037356321 36:0.017241379 37:0.017241379 38:0.0057471264 39:0.034482758 40:0.0057471264 #TAF7_HUMAN 
-2 1:0.065774649 2:0.11197183 3:0.044119719 4:0.025528168 5:0.029542254 6:0.0064788731 7:0.013239437 8:0.029295774 9:0.055 10:0.034366198 11:0.06785211 12:0.042711269 13:0.048450705 14:0.030704224 15:0.059612677 16:0.067781687 17:0.066549294 18:0.10700704 19:0.032640845 20:0.038133804 21:0.098939933 22:0.053003535 23:0.021201413 24:0.053003535 25:0.098939933 26:0.042402826 27:0.081272088 28:0.07067138 29:0.021201413 30:0.014134276 31:0.045936394 32:0.074204944 33:0.091872789 34:0.045936394 35:0.031802122 36:0.045936394 37:0.031802122 38:0.014134276 39:0.017667845 40:0.045936394 #TRI12_MOUSE
-2 1:0.048237443 2:0.075634703 3:0.026602739 4:0.020730594 5:0.021378996 6:0.0061643836 7:0.021662101 8:0.059707761 9:0.059899542 10:0.046876714 11:0.10769863 12:0.053415526 13:0.0057260273 14:0.020018265 15:0.059881277 16:0.077506848 17:0.056995433 18:0.10948858 19:0.044136986 20:0.060319636 21:0.080438755 22:0.058500916 23:0.014625229 24:0.064899452 25:0.11608775 26:0.046617918 27:0.062157221 28:0.10146252 29:0.054844607 30:0.021023765 31:0.058500916 32:0.05941499 33:0.073126145 34:0.02833638 35:0.046617918 36:0.024680072 37:0.019195613 38:0.0054844609 39:0.060329068 40:0.0036563072 #NEB1_RAT   
-2 1:0.053399999 2:0.081116669 3:0.022133334 4:0.0091833333 5:0.020533333 6:0.0036833333 7:0.01215 8:0.062083334 9:0.086300001 10:0.055166665 11:0.10283333 12:0.041033335 13:0.021333333 14:0.032016668 15:0.074666664 16:0.065650001 17:0.048433334 18:0.098449998 19:0.0285 20:0.06271667 21:0.066777967 22:0.070116863 23:0.036727879 24:0.061769616 25:0.10517529 26:0.025041737 27:0.048414022 28:0.10350584 29:0.040066779 30:0.013355592 31:0.0884808 32:0.055091821 33:0.090150252 34:0.021702837 35:0.058430716 36:0.020033389 37:0.0066777961 38:0.0033388981 39:0.065108515 40:0.020033389 #MELPH_HUMAN
2 1:0.053394835 2:0.088757686 3:0.045977861 4:0.014858549 5:0.044206642 6:0.018905289 7:0.038228784 8:0.058167282 9:0.067896679 10:0.0499877 11:0.072632223 12:0.053185731 13:0.016986471 14:0.020602707 15:0.049766298 16:0.057392374 17:0.047146372 18:0.069311194 19:0.038708486 20:0.049077492 21:0.071428575 22:0.044334974 23:0.024630541 24:0.052955665 25:0.061576355 26:0.044334974 27:0.046798028 28:0.073891625 29:0.057881773 30:0.049261082 31:0.060344826 32:0.055418719 33:0.082512312 34:0.061576355 35:0.06280788 36:0.046798028 37:0.014778325 38:0.017241379 39:0.055418719 40:0.016009852 #CAN7_HUMAN 
2 1:0.056797385 2:0.067995645 3:0.052657951 4:0.014204793 5:0.043246187 6:0.023747277 7:0.027538126 8:0.051568627 9:0.046122003 10:0.029847495 11:0.07498911 12:0.041982573 13:0.02490196 14:0.030653594 15:0.041198257 16:0.057973858 17:0.024553377 18:0.041023966 19:0.041459695 20:0.063986927 21:0.056768559 22:0.063318774 23:0.032751091 24:0.063318774 25:0.058951966 26:0.048034936 27:0.026200874 28:0.085152842 29:0.058951966 30:0.026200874 31:0.05021834 32:0.074235804 33:0.076419212 34:0.058951966 35:0.037117902 36:0.05021834 37:0.013100437 38:0.017467249 39:0.065502182 40:0.037117902 #MES6_CAEEL 
2 1:0.057007786 2:0.10757879 3:0.058242492 4:0.023934001 5:0.032169078 6:0.013192436 7:0.026095662 8:0.037601039 9:0.070567295 10:0.039099 11:0.066614754 12:0.046967 13:0.012369299 14:0.024308491 15:0.053207267 16:0.049714498 17:0.045261402 18:0.06067853 19:0.040126067 20:0.045035224 21:0.05823442 22:0.063798219 23:0.024480712 24:0.053041544 25:0.061572701 26:0.043397628 27:0.055637982 28:0.07195846 29:0.054896142 30:0.02893175 31:0.080118693 32:0.066394657 33:0.10756677 34:0.054525223 35:0.047477745 36:0.030044511 37:0.034866467 38:0.012982196 39:0.035237391 40:0.014836796 #TOR_CAEEL  
-1.6365385813895152455899051346933 1:0.064304635 2:0.098642386 3:0.059006624 4:0.028509934 5:0.03807947 6:0.0098344367 7:0.035562914 8:0.060695365 9:0.058178809 10:0.045463577 11:0.063344374 12:0.04566225 13:0.017450331 14:0.026556291 15:0.05178808 16:0.062682122 17:0.035231788 18:0.065596029 19:0.037086092 20:0.052450333 21:0.076411963 22:0.053156145 23:0.029900333 24:0.066445179 25:0.049833886 26:0.039867111 27:0.046511628 28:0.059800666 29:0.03322259 30:0.049833886 31:0.069767445 32:0.056478404 33:0.096345514 34:0.059800666 35:0.056478404 36:0.039867111 37:0.03322259 38:0.0066445181 39:0.049833886 40:0.026578072 #NEK7_MOUSE 
-0.32553075569062195349090416129911 1:0.054052863 2:0.087826729 3:0.049104258 4:0.022731278 5:0.057019088 6:0.023348019 7:0.027254038 8:0.064052865 9:0.055521291 10:0.034478709 11:0.062892802 12:0.04599119 13:0.02092511 14:0.017797356 15:0.054684289 16:0.050690163 17:0.041732747 18:0.069750369 19:0.040748898 20:0.064508073 21:0.054411765 22:0.051470589 23:0.027941177 24:0.055882353 25:0.055882353 26:0.039705884 27:0.044117648 28:0.06911765 29:0.060294118 30:0.030882353 31:0.061764706 32:0.070588239 33:0.10882353 34:0.047058824 35:0.036764707 36:0.050000001 37:0.026470589 38:0.022058824 39:0.057352941 40:0.029411765 #CANC_DROME 
-2 1:0.061982475 2:0.084786415 3:0.049660459 4:0.021675793 5:0.039671414 6:0.010547645 7:0.035585981 8:0.051872946 9:0.053121578 10:0.050262868 11:0.077437021 12:0.053077765 13:0.016845563 14:0.028214676 15:0.062979192 16:0.060394306 17:0.048335157 18:0.064107336 19:0.039244249 20:0.055125959 21:0.054824561 22:0.057017542 23:0.037280701 24:0.059210528 25:0.060307018 26:0.047149122 27:0.054824561 28:0.085526317 29:0.055921052 30:0.03618421 31:0.043859649 32:0.069078945 33:0.08991228 34:0.049342107 35:0.051535089 36:0.038377192 37:0.024122806 38:0.010964912 39:0.052631579 40:0.021929825 #PTN3_HUMAN 
2 1:0.045029763 2:0.084910713 3:0.038511906 4:0.01860119 5:0.033839285 6:0.010119048 7:0.017857144 8:0.030833334 9:0.068452381 10:0.036517859 11:0.090892859 12:0.055535715 13:0.014494048 14:0.017529761 15:0.059285715 16:0.076250002 17:0.051160716 18:0.11797619 19:0.038690478 20:0.061755951 21:0.077611938 22:0.05671642 23:0.017910447 24:0.065671645 25:0.12537314 26:0.05074627 27:0.038805969 28:0.10149254 29:0.053731345 30:0.017910447 31:0.06268657 32:0.044776119 33:0.092537314 34:0.05074627 35:0.029850746 36:0.035820894 37:0.017910447 38:0.0089552235 39:0.035820894 40:0.014925373 #XRCC4_HUMAN
0.24653169624265186543610184344288 1:0.053929172 2:0.079856664 3:0.043979764 4:0.019224284 5:0.029317033 6:0.0044688028 7:0.015784148 8:0.051247891 9:0.06173693 10:0.04426644 11:0.09612985 12:0.048541315 13:0.011526139 14:0.014527825 15:0.056610454 16:0.082394607 17:0.04426644 18:0.10355818 19:0.04208263 20:0.066188872 21:0.075949363 22:0.059915613 23:0.020253165 24:0.061603375 25:0.11308017 26:0.037974682 27:0.053164557 28:0.09957806 29:0.052320674 30:0.012658228 31:0.064978905 32:0.053164557 33:0.091983125 34:0.037974682 35:0.047257382 36:0.034599155 37:0.015189873 38:0.0075949365 39:0.04978903 40:0.010970464 #ERCC5_HUMAN
1.593038550683715470768220257014 1:0.053310152 2:0.066759385 3:0.028748261 4:0.015299027 5:0.027816411 6:0.0083449231 7:0.0083449231 8:0.063977748 9:0.055632822 10:0.0472879 11:0.12100139 12:0.059805285 13:0.029207231 14:0.016689846 15:0.057955492 16:0.082058415 17:0.059805285 18:0.11867872 19:0.027816411 20:0.051460363 21:0.082172699 22:0.058495823 23:0.016713092 24:0.051532034 25:0.1183844 26:0.027855154 27:0.059888579 28:0.12116992 29:0.059888579 30:0.0083565461 31:0.055710308 32:0.052924789 33:0.066852368 34:0.029247912 35:0.047353759 36:0.027855154 37:0.013927577 38:0.0083565461 39:0.06406685 40:0.029247912 #RXINP_HUMAN
-2 1:0.049868248 2:0.057799738 3:0.02687747 4:0.016679842 5:0.020671938 6:0.0096706189 7:0.014927536 8:0.045823451 9:0.05295125 10:0.057747036 11:0.11260869 12:0.051646903 13:0.0128722 14:0.022608696 15:0.048313569 16:0.08988142 17:0.041765481 18:0.10857707 19:0.043662716 20:0.044677205 21:0.09762533 22:0.05540897 23:0.025065962 24:0.042216361 25:0.11873351 26:0.052770447 27:0.046174143 28:0.12532982 29:0.044854883 30:0.017150396 31:0.063324541 32:0.047493402 33:0.0646438 34:0.03166227 35:0.059366755 36:0.022427442 37:0.015831135 38:0.01187335 39:0.047493402 40:0.01055409 #EPLIN_HUMAN
-2 1:0.054432988 2:0.081374571 3:0.05202749 4:0.025756015 5:0.033934709 6:0.011202749 7:0.023402061 8:0.031134021 9:0.053934708 10:0.052233677 11:0.079931274 12:0.047938146 13:0.015360825 14:0.017457044 15:0.05773196 16:0.061924398 17:0.043058418 18:0.10670103 19:0.043969072 20:0.078711338 21:0.074010327 22:0.067125648 23:0.015490534 24:0.077452667 25:0.10843374 26:0.046471599 27:0.036144577 28:0.084337346 29:0.046471599 30:0.025817556 31:0.065404475 32:0.049913943 33:0.077452667 34:0.060240965 35:0.04302926 36:0.04475043 37:0.032702237 38:0.0068846815 39:0.025817556 40:0.012048192 #ERI1_CAEEL 
-1.6310699948853031315820771851577 1:0.039106797 2:0.080601938 3:0.027504854 4:0.011912622 5:0.011252427 6:0.0063203885 7:0.01976699 8:0.046660196 9:0.078087382 10:0.042611651 11:0.11345631 12:0.07579612 13:0.0066407765 14:0.015640777 15:0.080262139 16:0.070242718 17:0.04006796 18:0.10107767 19:0.036359224 20:0.052796118 21:0.084548108 22:0.070942663 23:0.011661808 24:0.065111756 25:0.11758989 26:0.038872693 27:0.043731779 28:0.11661807 29:0.087463558 30:0.023323616 31:0.072886296 32:0.042759962 33:0.073858112 34:0.034985423 35:0.031098153 36:0.010689991 37:0.011661808 38:0.0087463558 39:0.046647232 40:0.0068027209 #MYPT1_HUMAN
2 1:0.06826783 2:0.10169578 3:0.055196505 4:0.030145561 5:0.037547309 6:0.0083042216 7:0.030924309 8:0.048253275 9:0.054163028 10:0.058930133 11:0.074425034 12:0.05449054 13:0.018770015 14:0.028660845 15:0.051637556 16:0.045713246 17:0.051222708 18:0.051259097 19:0.046048034 20:0.045400292 21:0.047341589 22:0.060451567 23:0.029133284 24:0.046613257 25:0.057538237 26:0.045156591 27:0.05098325 28:0.080116533 29:0.048798252 30:0.031318281 31:0.056809906 32:0.069919884 33:0.10269483 34:0.057538237 35:0.059723232 36:0.040058266 37:0.035688274 38:0.0072833211 39:0.052439913 40:0.020393299 #RGR1_CAEEL 
2 1:0.061332773 2:0.083679795 3:0.064886838 4:0.032170996 5:0.035498742 6:0.0070326906 7:0.034585081 8:0.066831514 9:0.055213746 10:0.042087175 11:0.060486168 12:0.054794636 13:0.017401509 14:0.025817268 15:0.064249791 16:0.057703268 17:0.041869238 18:0.064610228 19:0.037937973 20:0.056152556 21:0.056208055 22:0.066275164 23:0.02432886 24:0.064597316 25:0.065436244 26:0.046140939 27:0.039429531 28:0.06291946 29:0.048657719 30:0.035234898 31:0.06291946 32:0.064597316 33:0.084731542 34:0.062080536 35:0.045302015 36:0.032718122 37:0.046140939 38:0.0075503355 39:0.067114092 40:0.017617449 #RPB2_CAEEL 
2 1:0.066815242 2:0.090086266 3:0.067225017 4:0.02892164 5:0.036721785 6:0.0061897915 7:0.024536304 8:0.064428471 9:0.055535585 10:0.043874912 11:0.057253774 12:0.053472321 13:0.01667146 14:0.023141624 15:0.05612509 16:0.065571532 17:0.037268151 18:0.062782168 19:0.046570811 20:0.054277498 21:0.08273381 22:0.051079135 23:0.023741007 24:0.053237408 25:0.064748198 26:0.043165468 27:0.038129497 28:0.055395685 29:0.056115109 30:0.026618704 31:0.058992807 32:0.064028777 33:0.10503597 34:0.065467626 35:0.046762589 36:0.04028777 37:0.02733813 38:0.0028776978 39:0.069064751 40:0.025179856 #RPC1_HUMAN 
-2 1:0.055132575 2:0.087575756 3:0.049147729 4:0.022916667 5:0.033541668 6:0.0068371212 7:0.029450757 8:0.05558712 9:0.052556816 10:0.050757576 11:0.069829546 12:0.048484847 13:0.010909091 14:0.030492425 15:0.046401516 16:0.064659089 17:0.040378787 18:0.057878789 19:0.043011364 20:0.04748106 21:0.072106265 22:0.064516127 23:0.039848197 24:0.043643262 25:0.051233396 26:0.04174573 27:0.056925997 28:0.066413663 29:0.053130928 30:0.032258064 31:0.047438331 32:0.056925997 33:0.10436433 34:0.047438331 35:0.055028465 36:0.032258064 37:0.032258064 38:0.0075901328 39:0.077798858 40:0.017077798 #DYRK2_HUMAN
-2 1:0.072427742 2:0.10231214 3:0.060809247 4:0.024315992 5:0.036127169 6:0.0060500964 7:0.030134875 8:0.06572254 9:0.068323702 10:0.030154143 11:0.063314065 12:0.043333333 13:0.017109826 14:0.015722543 15:0.060211945 16:0.071348749 17:0.036146436 18:0.069768786 19:0.029402697 20:0.053737957 21:0.071428575 22:0.059845559 23:0.013513514 24:0.063706562 25:0.075289577 26:0.027027028 27:0.040540539 28:0.042471044 29:0.057915058 30:0.032818533 31:0.081081077 32:0.075289577 33:0.1023166 34:0.063706562 35:0.028957529 36:0.03088803 37:0.03088803 38:0.0038610038 39:0.073359072 40:0.025096525 #SYH_FUGRU  
-2 1:0.063737862 2:0.093604371 3:0.062900484 4:0.023385921 5:0.040436894 6:0.0057038837 7:0.020036409 8:0.058082525 9:0.069126211 10:0.053240292 11:0.070800968 12:0.047524273 13:0.014126213 14:0.014150485 15:0.053567961 16:0.06098301 17:0.036213592 18:0.062669903 19:0.041541263 20:0.053640775 21:0.063183472 22:0.060753342 23:0.01944107 24:0.058323208 25:0.065613605 26:0.047387607 27:0.034021873 28:0.080194414 29:0.037667073 30:0.018226003 31:0.082624547 32:0.060753342 33:0.088699877 34:0.063183472 35:0.051032808 36:0.046172541 37:0.036452007 38:0.0060753343 39:0.069258809 40:0.010935602 #NSF_CAEEL  
0.47975582764670743340928993347916 1:0.050053764 2:0.062634408 3:0.049964156 4:0.034498207 5:0.029874552 6:0.013046595 7:0.03905018 8:0.03467742 9:0.0644086 10:0.049928315 11:0.077939071 12:0.04562724 13:0.022258064 14:0.016612904 15:0.062329751 16:0.070465952 17:0.036200717 18:0.10892473 19:0.04234767 20:0.07697133 21:0.064631954 22:0.053859964 23:0.012567325 24:0.086175941 25:0.1059246 26:0.059245959 27:0.046678636 28:0.091561936 29:0.048473969 30:0.032315977 31:0.061041292 32:0.052064631 33:0.05745063 34:0.064631954 35:0.044883303 36:0.03411131 37:0.019748654 38:0.0089766607 39:0.030520646 40:0.025134649 #SPR1_CAEEL 
0.31002139737328260338244945160113 1:0.037873134 2:0.058880597 3:0.038320895 4:0.029141791 5:0.018917911 6:0.00026119404 7:0.013022388 8:0.059179105 9:0.039738808 10:0.076641791 11:0.16014925 12:0.055410448 13:0.012201493 14:0.019626865 15:0.048805971 16:0.060223881 17:0.052574627 18:0.06899254 19:0.048619404 20:0.06708955 21:0.052434456 22:0.056179777 23:0.018726591 24:0.071161047 25:0.067415729 26:0.041198503 27:0.059925094 28:0.14606741 29:0.056179777 30:0.014981274 31:0.037453182 32:0.033707865 33:0.059925094 34:0.041198503 35:0.12734082 36:0.018726591 37:0.018726591 38:0 39:0.067415729 40:0.011235955 #EAF1_HUMAN 
0.99228667852673879679059609770775 1:0.041751824 2:0.048199512 3:0.027469587 4:0.029902676 5:0.016982969 6:0.0052068126 7:0.031727493 8:0.044184916 9:0.092968367 10:0.069902673 11:0.081119224 12:0.058807787 13:0.0021411192 14:0.016836982 15:0.059075426 16:0.073746957 17:0.05486618 18:0.13549878 19:0.043454986 20:0.048856448 21:0.073170729 22:0.058536585 23:0.017073171 24:0.048780486 25:0.14878049 26:0.043902438 27:0.053658538 28:0.085365854 29:0.053658538 30:0.036585364 31:0.075609758 32:0.041463416 33:0.051219512 34:0.03902439 35:0.073170729 36:0.012195121 37:0.031707317 38:0.0073170732 39:0.046341464 40:0.0024390244 #SMCE1_HUMAN
-2 1:0.059153076 2:0.085560232 3:0.040189374 4:0.015938979 5:0.038269334 6:0.0041557075 7:0.018805891 8:0.034350343 9:0.063703313 10:0.050236717 11:0.12953709 12:0.056180958 13:0.025249869 14:0.027511835 15:0.029905314 16:0.072961599 17:0.046186216 18:0.080326147 19:0.045397159 20:0.059310891 21:0.07631579 22:0.026842106 23:0.029999999 24:0.061578948 25:0.082631581 26:0.046315789 27:0.046842106 28:0.12894736 29:0.058421053 30:0.022105264 31:0.06368421 32:0.059999999 33:0.088947371 34:0.03894737 35:0.047368422 36:0.040526316 37:0.015789473 38:0.0036842106 39:0.037368421 40:0.023684211 #AKA11_HUMAN
-2 1:0.064158417 2:0.043539602 3:0.037524752 4:0.02 5:0.020445544 6:0.0043316833 7:0.035074256 8:0.027846534 9:0.072004952 10:0.076311879 11:0.078168318 12:0.060049504 13:0.0092821782 14:0.013811881 15:0.094034657 16:0.066014849 17:0.065990098 18:0.10329208 19:0.050965346 20:0.045420792 21:0.064516127 22:0.086848639 23:0.012406948 24:0.047146402 25:0.099255584 26:0.049627792 27:0.074441686 28:0.074441686 29:0.064516127 30:0.034739453 31:0.081885859 32:0.066997521 33:0.042183623 34:0.042183623 35:0.079404466 36:0.022332506 37:0.017369727 38:0.0049627791 39:0.024813896 40:0.0099255582 #SAS5_CAEEL 
-2 1:0.037702128 2:0.089702129 3:0.041617021 4:0.026425531 5:0.068638295 6:0.016042553 7:0.027234042 8:0.030510638 9:0.059659574 10:0.037531916 11:0.1 12:0.045531914 13:0.014340426 14:0.020382978 15:0.060127661 16:0.088468082 17:0.045446809 18:0.088638298 19:0.038680851 20:0.056042552 21:0.0982906 22:0.068376072 23:0.02991453 24:0.055555556 25:0.0982906 26:0.02991453 27:0.047008548 28:0.085470088 29:0.051282052 30:0.021367522 31:0.068376072 32:0.042735044 33:0.085470088 34:0.051282052 35:0.02991453 36:0.072649576 37:0.017094018 38:0.012820513 39:0.021367522 40:0.012820513 #RGS18_MOUSE
2 1:0.065324679 2:0.090961039 3:0.048207793 4:0.012441559 5:0.026000001 6:0.01935065 7:0.018051948 8:0.080545455 9:0.068259738 10:0.041688312 11:0.061584417 12:0.060597401 13:0.015272727 14:0.022883117 15:0.060857143 16:0.070545457 17:0.042987011 18:0.066987015 19:0.039584417 20:0.056077924 21:0.049479168 22:0.078125 23:0.028645834 24:0.0546875 25:0.059895832 26:0.03125 27:0.0625 28:0.046875 29:0.059895832 30:0.013020833 31:0.0703125 32:0.065104164 33:0.109375 34:0.028645834 35:0.0625 36:0.015625 37:0.010416667 38:0.0234375 39:0.10416666 40:0.026041666 #WDR74_HUMAN
2 1:0.083110601 2:0.083617508 3:0.05610599 4:0.020414747 5:0.024953917 6:0.015875576 7:0.024262672 8:0.077442393 9:0.072580643 10:0.037304148 11:0.074953914 12:0.027373271 13:0.025230415 14:0.02640553 15:0.064447008 16:0.070230417 17:0.035023041 18:0.07156682 19:0.033064514 20:0.058986176 21:0.073903002 22:0.066974595 23:0.025404157 24:0.055427253 25:0.078521937 26:0.036951501 27:0.036951501 28:0.080831409 29:0.02078522 30:0.030023094 31:0.069284067 32:0.078521937 33:0.08314088 34:0.06235566 35:0.034642033 36:0.02078522 37:0.016166281 38:0.016166281 39:0.085450344 40:0.027713627 #NEUA_HUMAN 
2 1:0.068761997 2:0.097783111 3:0.061017275 4:0.024491362 5:0.038320538 6:0.0064491364 7:0.024126679 8:0.051084451 9:0.064731285 10:0.039923225 11:0.061180424 12:0.046996161 13:0.013790787 14:0.019145872 15:0.051813819 16:0.071909785 17:0.038790789 18:0.078090213 19:0.037927065 20:0.053809982 21:0.084534101 22:0.049951971 23:0.020172911 24:0.058597501 25:0.08645533 26:0.036503363 27:0.038424592 28:0.056676272 29:0.04418828 30:0.027857829 31:0.069164269 32:0.072046109 33:0.091258407 34:0.061479345 35:0.04418828 36:0.04418828 37:0.031700287 38:0.0067243036 39:0.058597501 40:0.017291067 #SK2L2_HUMAN
-2 1:0.047308918 2:0.088765927 3:0.052476116 4:0.024323249 5:0.037547771 6:0.0095859868 7:0.02937898 8:0.044777069 9:0.07071656 10:0.030477706 11:0.050382167 12:0.042515922 13:0.012356688 14:0.019458599 15:0.059920382 16:0.080238856 17:0.054896496 18:0.086799361 19:0.044769108 20:0.046273887 21:0.077290833 22:0.070916332 23:0.021513944 24:0.050199203 25:0.082071714 26:0.050996017 27:0.053386454 28:0.056573704 29:0.042231075 30:0.036653388 31:0.07888446 32:0.044621512 33:0.095617533 34:0.062948205 35:0.036653388 36:0.038247012 37:0.022310756 38:0.0071713147 39:0.055776894 40:0.015936255 #MYS9_DROME 
-1.2838577371618222766613826024695 1:0.073749997 2:0.087660715 3:0.060785715 4:0.021339286 5:0.025250001 6:0.010089286 7:0.019607143 8:0.080750003 9:0.074428573 10:0.051660713 11:0.071607143 12:0.058482144 13:0.012821428 14:0.019964285 15:0.042053573 16:0.065464288 17:0.034303572 18:0.065142855 19:0.035982143 20:0.046607144 21:0.0625 22:0.051785715 23:0.019642858 24:0.057142857 25:0.067857146 26:0.032142859 27:0.039285716 28:0.071428575 29:0.051785715 30:0.014285714 31:0.075000003 32:0.076785713 33:0.091071427 34:0.058928572 35:0.053571429 36:0.025 37:0.030357143 38:0.016071429 39:0.08214286 40:0.023214286 #CBS_RAT    
-2 1:0.056984924 2:0.08505863 3:0.051876046 4:0.026549414 5:0.045259632 6:0.0033835846 7:0.030703517 8:0.051892798 9:0.068458959 10:0.049396984 11:0.050536014 12:0.052144054 13:0.01160804 14:0.022194305 15:0.054723617 16:0.072613068 17:0.042462312 18:0.084673367 19:0.036365159 20:0.054254606 21:0.080536909 22:0.050335571 23:0.026845638 24:0.052013423 25:0.098993286 26:0.035234898 27:0.033557046 28:0.03691275 29:0.063758388 30:0.03691275 31:0.068791948 32:0.046979867 33:0.095637582 34:0.068791948 35:0.052013423 36:0.041946311 37:0.031879194 38:0.0033557047 39:0.060402684 40:0.015100671 #SYK_CRIGR  
0.23164559497207326543843919353094 1:0.04045558 2:0.082255125 3:0.029476082 4:0.025421413 5:0.039726652 6:0.010501139 7:0.021002278 8:0.039977223 9:0.06765376 10:0.070979498 11:0.11127563 12:0.05170843 13:0.014829157 14:0.022551253 15:0.051548976 16:0.067744873 17:0.049567197 18:0.085170843 19:0.053211845 20:0.045558088 21:0.084474884 22:0.045662101 23:0.020547945 24:0.057077624 25:0.084474884 26:0.052511416 27:0.050228309 28:0.098173514 29:0.059360731 30:0.018264839 31:0.073059358 32:0.038812786 33:0.073059358 34:0.031963471 35:0.079908676 36:0.043378994 37:0.036529679 38:0.0091324197 39:0.02739726 40:0.015981736 #HM32_CAEEL 
0.016135118202568875245273005702984 1:0.03703364 2:0.056636084 3:0.019113149 4:0.027553517 5:0.026177371 6:0.013149847 7:0.04556575 8:0.073761471 9:0.075657494 10:0.11908257 11:0.10189603 12:0.058165137 13:0.0063608564 14:0.040519878 15:0.04201835 16:0.041834861 17:0.062415902 18:0.040703364 19:0.040519878 20:0.035779815 21:0.046012271 22:0.033742331 23:0.049079753 24:0.030674847 25:0.021472393 26:0.042944785 27:0.07668712 28:0.095092021 29:0.055214725 30:0.042944785 31:0.064417176 32:0.027607363 33:0.055214725 34:0.021472393 35:0.15337424 36:0.024539877 37:0.027607363 38:0.015337423 39:0.11042945 40:0.0061349692 #DLL_DROME  
0.32207525139142628711752536219137 1:0.060740739 2:0.10559829 3:0.057079773 4:0.012407407 5:0.02980057 6:0.011923077 7:0.029572649 8:0.056025639 9:0.056296296 10:0.071965814 11:0.077706553 12:0.049686611 13:0.024444444 14:0.021054132 15:0.077962965 16:0.048532765 17:0.041809116 18:0.0538604 19:0.032735042 20:0.03468661 21:0.051355205 22:0.079885878 23:0.025677603 24:0.038516406 25:0.055634808 26:0.031383738 27:0.039942939 28:0.079885878 29:0.052781742 30:0.037089873 31:0.052781742 32:0.062767476 33:0.11554921 34:0.052781742 35:0.081312411 36:0.032810271 37:0.012838801 38:0.0099857347 39:0.055634808 40:0.031383738 #NOL9_HUMAN 
-2 1:0.056533664 2:0.074638404 3:0.042855363 4:0.021795511 5:0.041221946 6:0.010149626 7:0.029763091 8:0.041695762 9:0.048640899 10:0.071047381 11:0.11436409 12:0.058827929 13:0.017082294 14:0.023453865 15:0.042456359 16:0.064725682 17:0.04425187 18:0.072842896 19:0.049239401 20:0.046159603 21:0.067415729 22:0.048689138 23:0.021223471 24:0.0474407 25:0.069912612 26:0.043695379 27:0.0474407 28:0.11860175 29:0.059925094 30:0.029962547 31:0.054931335 32:0.048689138 33:0.083645441 34:0.041198503 35:0.076154806 36:0.041198503 37:0.019975031 38:0.0087390766 39:0.044943821 40:0.026217228 #PTN8_MOUSE 
-2 1:0.044268709 2:0.072125852 3:0.029370748 4:0.027585033 5:0.029217687 6:0.0090816328 7:0.028044218 8:0.068758503 9:0.063469388 10:0.0510034 11:0.099030614 12:0.049489796 13:0.020986395 14:0.023333333 15:0.062074829 16:0.071343534 17:0.051666666 18:0.080459185 19:0.0539966 20:0.044506803 21:0.080068141 22:0.056218058 23:0.023850085 24:0.051107325 25:0.088586032 26:0.049403749 27:0.049403749 28:0.10051107 29:0.04770017 30:0.028960818 31:0.061328791 32:0.044293016 33:0.076660991 34:0.028960818 35:0.04770017 36:0.037478704 37:0.023850085 38:0.0085178874 39:0.074957408 40:0.020442931 #TRI29_HUMAN
-2 1:0.055538461 2:0.066641025 3:0.048089743 4:0.017769231 5:0.030102564 6:0.009615385 7:0.023012821 8:0.041884616 9:0.046923079 10:0.081346154 11:0.105 12:0.06773077 13:0.018217949 14:0.026166666 15:0.047846153 16:0.060987178 17:0.042615384 18:0.071551286 19:0.049089745 20:0.05452564 21:0.06161746 22:0.052631579 23:0.029525032 24:0.062901154 25:0.086007699 26:0.051347882 27:0.043645699 28:0.092426188 29:0.069319643 30:0.025673941 31:0.047496792 32:0.051347882 33:0.060333762 34:0.06161746 35:0.084724002 36:0.032092426 37:0.015404365 38:0.011553274 39:0.041078307 40:0.019255456 #PTN12_HUMAN
2 1:0.068439558 2:0.09496703 3:0.068065934 4:0.025648352 5:0.03731868 6:0.0037802197 7:0.021736264 8:0.063516483 9:0.067406595 10:0.038351648 11:0.055538461 12:0.054593407 13:0.012791209 14:0.018681319 15:0.066681318 16:0.074000001 17:0.044219781 18:0.069582418 19:0.034747254 20:0.059802197 21:0.081497796 22:0.06167401 23:0.019823788 24:0.055066079 25:0.066079296 26:0.030837005 27:0.046255507 28:0.052863438 29:0.068281941 30:0.017621145 31:0.085903086 32:0.059471365 33:0.10132159 34:0.068281941 35:0.039647575 36:0.044052862 37:0.022026431 38:0.0022026431 39:0.066079296 40:0.011013215 #DDX47_HUMAN
2 1:0.069043718 2:0.099262297 3:0.080819674 4:0.024426229 5:0.037950821 6:0.0034153005 7:0.024453552 8:0.098497264 9:0.059289619 10:0.043825138 11:0.065819673 12:0.06021858 13:0.020245902 14:0.016666668 15:0.051748633 16:0.058469944 17:0.029316939 18:0.054207649 19:0.036666665 20:0.044617485 21:0.063013695 22:0.046575341 23:0.016438356 24:0.04109589 25:0.063013695 26:0.032876711 27:0.04109589 28:0.043835618 29:0.060273971 30:0.019178081 31:0.087671235 32:0.073972605 33:0.08219178 34:0.084931508 35:0.046575341 36:0.035616439 37:0.030136986 38:0 39:0.10684931 40:0.024657534 #RTC1_HUMAN 
2 1:0.078077711 2:0.071922287 3:0.067689158 4:0.025664622 5:0.033210635 6:0.012740286 7:0.026748465 8:0.08255624 9:0.082044989 10:0.047137015 11:0.059325155 12:0.057382412 13:0.01584867 14:0.027873211 15:0.044723928 16:0.055746421 17:0.027873211 18:0.062249489 19:0.034580778 20:0.059815951 21:0.047131147 22:0.053278688 23:0.036885247 24:0.053278688 25:0.065573767 26:0.047131147 27:0.020491803 28:0.05532787 29:0.063524589 30:0.024590164 31:0.08401639 32:0.075819671 33:0.061475411 34:0.077868849 35:0.05532787 36:0.032786883 37:0.030737706 38:0.012295082 39:0.079918034 40:0.022540983 #DHP1_CAEEL 
-1.7548481618012454763544383240514 1:0.075340599 2:0.10275204 3:0.078746594 4:0.019591281 5:0.026839238 6:0.0072752042 7:0.031008175 8:0.070027247 9:0.063460492 10:0.036866486 11:0.054495912 12:0.054768391 13:0.015531335 14:0.025667574 15:0.048828337 16:0.086376019 17:0.033160765 18:0.065667577 19:0.036648501 20:0.058065396 21:0.1010929 22:0.040983606 23:0.027322404 24:0.060109291 25:0.060109291 26:0.035519127 27:0.021857923 28:0.040983606 29:0.057377048 30:0.032786883 31:0.068306014 32:0.076502733 33:0.10382514 34:0.090163931 35:0.046448089 36:0.024590164 37:0.0054644807 38:0.0081967209 39:0.084699452 40:0.013661202 #DRG1_HUMAN 
0.46775471590598832749563484867394 1:0.012692308 2:0.012788462 3:0 4:0 5:0 6:0 7:0 8:0.05125 9:0.17 10:0.093076922 11:0.06076923 12:0.03846154 13:0 14:0.0064423075 15:0.041634616 16:0.23096153 17:0.015961539 18:0.15067308 19:0.035288461 20:0.060961537 21:0.25 22:0.03846154 23:0.009615385 24:0.067307696 25:0.15384616 26:0.03846154 27:0.009615385 28:0.048076924 29:0.03846154 30:0 31:0.1826923 32:0 33:0.009615385 34:0 35:0.10576923 36:0 37:0 38:0 39:0.048076924 40:0 #HM14A_CHICK
-0.81846565910355917328189434556407 1:0.084026255 2:0.089387305 3:0.058599561 4:0.013763676 5:0.038271334 6:0.0102407 7:0.033719912 8:0.10757112 9:0.057768054 10:0.039037198 11:0.055514224 12:0.054507658 13:0.015864333 14:0.021312911 15:0.051925603 16:0.064967178 17:0.029737419 18:0.062407002 19:0.040437635 20:0.055317286 21:0.065789476 22:0.057017542 23:0.024122806 24:0.054824561 25:0.059210528 26:0.037280701 27:0.043859649 28:0.041666668 29:0.057017542 30:0.02631579 31:0.070175439 32:0.087719299 33:0.085526317 34:0.054824561 35:0.039473683 36:0.039473683 37:0.015350877 38:0.015350877 39:0.11403508 40:0.010964912 #PURA1_MOUSE
0.14691093516461598000866217716975 1:0.056098267 2:0.084624276 3:0.047731213 4:0.015780346 5:0.038208093 6:0.009378613 7:0.029797688 8:0.044465318 9:0.04302023 10:0.057919074 11:0.10699422 12:0.064132951 13:0.021430636 14:0.031112717 15:0.046040464 16:0.05565029 17:0.038208093 18:0.075635836 19:0.031329479 20:0.057962429 21:0.057887118 22:0.056439944 23:0.030390738 24:0.053545587 25:0.086830683 26:0.031837918 27:0.037626628 28:0.11287989 29:0.066570185 30:0.034732271 31:0.039073806 32:0.056439944 33:0.08972504 34:0.049204051 35:0.060781475 36:0.037626628 37:0.015918959 38:0.010130246 39:0.046309695 40:0.026049204 #DCR1C_HUMAN
0.11487027746730281430043163481969 1:0.05847561 2:0.047134146 3:0.019004066 4:0.015630081 5:0.013109756 6:0.0020325202 7:0.0093699191 8:0.083353661 9:0.075386181 10:0.10136179 11:0.10400406 12:0.052682925 13:0.0059756096 14:0.029024391 15:0.071971543 16:0.12613821 17:0.033800814 18:0.085040651 19:0.0086788619 20:0.036585364 21:0.13441955 22:0.069246434 23:0.022403259 24:0.036659878 25:0.085539714 26:0.0061099795 27:0.030549899 28:0.10590632 29:0.054989818 30:0.010183299 31:0.081466392 32:0.059063137 33:0.046843179 34:0.024439918 35:0.11201629 36:0.012219959 37:0.01629328 38:0.00203666 39:0.083503053 40:0.0061099795 #MECP2_RAT  
0.77709138290156343220616008693469 1:0.036115386 2:0.054557692 3:0.057115383 4:0.022115385 5:0.035942309 6:0.0048076925 7:0.0285 8:0.060365386 9:0.038961537 10:0.029480768 11:0.092788458 12:0.060576923 13:0.030134615 14:0.051346153 15:0.041596156 16:0.087538458 17:0.044769231 18:0.075634614 19:0.070884615 20:0.045807693 21:0.075144507 22:0.03468208 23:0.048169557 24:0.053949904 25:0.073217727 26:0.088631988 27:0.038535647 28:0.10597303 29:0.067437381 30:0.021194605 31:0.040462427 32:0.05009634 33:0.063583814 34:0.05973025 35:0.026974952 36:0.040462427 37:0.023121387 38:0.0038535646 39:0.061657034 40:0.023121387 #PHO_DROME  
-2 1:0.05218241 2:0.077166125 3:0.05359935 4:0.02995114 5:0.039087947 6:0.0036970684 7:0.029446254 8:0.045228012 9:0.041938111 10:0.040423453 11:0.081254072 12:0.048469055 13:0.018599348 14:0.031205211 15:0.049967427 16:0.053078175 17:0.058192182 18:0.057182409 19:0.05296417 20:0.044543974 21:0.053833604 22:0.061990213 23:0.03588907 24:0.060358889 25:0.052202284 26:0.05872757 27:0.053833604 28:0.10277325 29:0.05872757 30:0.026101142 31:0.048939642 32:0.053833604 33:0.091353998 34:0.048939642 35:0.034257747 36:0.050570961 37:0.040783033 38:0.0065252855 39:0.03588907 40:0.024469821 #FBF1_CAEEL 
-2 1:0.050000001 2:0.099895902 3:0.04412492 4:0.019733246 5:0.026011711 6:0.0085426159 7:0.024586858 8:0.054918673 9:0.04569291 10:0.078230321 11:0.10438517 12:0.055341575 13:0.010279765 14:0.023968771 15:0.054580349 16:0.052192584 17:0.055211451 18:0.060520496 19:0.059342876 20:0.0458946 21:0.059244793 22:0.055338543 23:0.021484375 24:0.051432293 25:0.0703125 26:0.055989582 27:0.064453125 28:0.096354164 29:0.055338543 30:0.022786459 31:0.043619793 32:0.048828125 33:0.1015625 34:0.041015625 35:0.081380211 36:0.030598959 37:0.022786459 38:0.009114583 39:0.054036457 40:0.014322917 #LRRC7_HUMAN
-2 1:0.068042815 2:0.073730886 3:0.043323141 4:0.013027523 5:0.026615698 6:0.01648318 7:0.021213047 8:0.068939857 9:0.05917431 10:0.048685014 11:0.10554536 12:0.063863404 13:0.016544342 14:0.026625892 15:0.045708463 16:0.05005097 17:0.034179408 18:0.057798166 19:0.035188582 20:0.057492353 21:0.066326529 22:0.043877549 23:0.034693878 24:0.067346938 25:0.06530612 26:0.037755102 27:0.041836735 28:0.098979592 29:0.068367347 30:0.024489796 31:0.053061225 32:0.064285718 33:0.072448976 34:0.059183672 35:0.054081634 36:0.028571429 37:0.012244898 38:0.018367346 39:0.069387756 40:0.019387756 #EMAL4_HUMAN
2 1:0.070944443 2:0.099166669 3:0.056333333 4:0.027444445 5:0.049444444 6:0.0058333334 7:0.047333334 8:0.071444444 9:0.061722223 10:0.034833334 11:0.055833332 12:0.067111112 13:0.017000001 14:0.029444445 15:0.054722223 16:0.076055557 17:0.027166666 18:0.058333334 19:0.041666668 20:0.052166667 21:0.078212291 22:0.05027933 23:0.033519555 24:0.05027933 25:0.061452515 26:0.027932961 27:0.033519555 28:0.044692736 29:0.06703911 30:0.061452515 31:0.06703911 32:0.089385472 33:0.089385472 34:0.05027933 35:0.033519555 36:0.044692736 37:0.022346368 38:0.005586592 39:0.072625697 40:0.016759777 #NIP7_HUMAN 
2 1:0.066604778 2:0.090344824 3:0.053209551 4:0.025888594 5:0.044668436 6:0.0077718832 7:0.052679043 8:0.081246682 9:0.063527852 10:0.048806366 11:0.056525201 12:0.042599469 13:0.022228116 14:0.039018568 15:0.04448276 16:0.043925729 17:0.028832892 18:0.057771884 19:0.047161803 20:0.062652521 21:0.055851065 22:0.029255319 23:0.034574468 24:0.066489361 25:0.055851065 26:0.026595745 27:0.039893616 28:0.061170213 29:0.045212764 30:0.055851065 31:0.074468084 32:0.069148935 33:0.08510638 34:0.066489361 35:0.050531916 36:0.034574468 37:0.023936171 38:0.010638298 39:0.087765954 40:0.026595745 #HDAC8_HUMAN
2 1:0.049062502 2:0.12998958 3:0.051822916 4:0.018187501 5:0.030333333 6:0.0041770833 7:0.0086770831 8:0.066312499 9:0.095479168 10:0.024250001 11:0.071010418 12:0.042020835 13:0.013739583 14:0.0170625 15:0.043635417 16:0.061614584 17:0.035197917 18:0.076354168 19:0.059031252 20:0.06178125 21:0.066736184 22:0.04692388 23:0.017726799 24:0.080291972 25:0.078206465 26:0.06152242 27:0.025026068 28:0.068821691 29:0.037539102 30:0.00729927 31:0.082377478 32:0.050052136 33:0.1282586 34:0.063607924 35:0.032325339 36:0.038581856 37:0.017726799 38:0.00729927 39:0.067778938 40:0.02189781 #RGP2_CAEEL 
-0.048928069863666323602302554718335 1:0.062463157 2:0.12425263 3:0.048505262 4:0.019305263 5:0.027957894 6:0.0073052631 7:0.016631579 8:0.061915789 9:0.083873682 10:0.029031578 11:0.056484211 12:0.055263158 13:0.021494737 14:0.033768423 15:0.042884212 16:0.058126315 17:0.04176842 18:0.072231576 19:0.047621053 20:0.056568421 21:0.082278483 22:0.044303797 23:0.023206752 24:0.054852322 25:0.088607594 26:0.048523206 27:0.03164557 28:0.061181433 29:0.067510545 30:0.012658228 31:0.071729958 32:0.054852322 33:0.14556962 34:0.052742615 35:0.025316456 36:0.03164557 37:0.014767933 38:0.010548524 39:0.061181433 40:0.016877636 #ASZ1_MOUSE 
-2 1:0.066561341 2:0.10765799 3:0.054237917 4:0.035687733 5:0.035724908 6:0.015130112 7:0.021877324 8:0.054628253 9:0.078457251 10:0.034256507 11:0.058308549 12:0.062360596 13:0.023438662 14:0.023717472 15:0.048661709 16:0.080390334 17:0.035204463 18:0.074925654 19:0.036412638 20:0.049832713 21:0.085661083 22:0.046554934 23:0.024208566 24:0.046554934 25:0.078212291 26:0.033519555 27:0.035381749 28:0.052141529 29:0.065176912 30:0.022346368 31:0.078212291 32:0.065176912 33:0.10986964 34:0.054003723 35:0.031657357 36:0.035381749 37:0.039106146 38:0.014897579 39:0.057728119 40:0.024208566 #RO60_HUMAN 
-1.6907273786707937013318314711796 1:0.066438094 2:0.084247619 3:0.041104764 4:0.020171428 5:0.043828573 6:0.0082666669 7:0.029847618 8:0.077542856 9:0.086095236 10:0.049504761 11:0.075085714 12:0.050590478 13:0.023600001 14:0.019333333 15:0.048057143 16:0.037790477 17:0.041866668 18:0.061790477 19:0.033599999 20:0.046514284 21:0.034351144 22:0.053435113 23:0.015267176 24:0.041984733 25:0.061068702 26:0.043893129 27:0.036259543 28:0.051526718 29:0.070610687 30:0.020992367 31:0.13167939 32:0.074427478 33:0.076335877 34:0.038167939 35:0.064885497 36:0.055343512 37:0.011450382 38:0.005725191 39:0.089694656 40:0.022900764 #BTBD2_HUMAN
0.070349208368055721196654417326499 1:0.051525973 2:0.077132031 3:0.041580088 4:0.018160174 5:0.03082251 6:0.012997836 7:0.024880953 8:0.055941559 9:0.055227272 10:0.068668835 11:0.10176407 12:0.051114719 13:0.0093398271 14:0.021103896 15:0.044945888 16:0.055616882 17:0.037023809 18:0.062597401 19:0.03621212 20:0.059296537 21:0.065005414 22:0.04767064 23:0.026002167 24:0.06608884 25:0.056338027 26:0.043336947 27:0.044420369 28:0.11592633 29:0.053087756 30:0.022751896 31:0.062838569 32:0.050920911 33:0.086673893 34:0.039003249 35:0.073672809 36:0.034669556 37:0.020585049 38:0.013001083 39:0.061755147 40:0.016251354 #LPIN1_MOUSE
0.59015236255948400057036451471504 1:0.062675588 2:0.065150499 3:0.042173915 4:0.026872911 5:0.040033445 6:0.0057190633 7:0.028093645 8:0.049264215 9:0.053444818 10:0.07438127 11:0.10327759 12:0.056872908 13:0.019180601 14:0.030735785 15:0.047826085 16:0.045618728 17:0.05882943 18:0.051822744 19:0.061822742 20:0.0519398 21:0.050251257 22:0.045226131 23:0.028475711 24:0.058626465 25:0.0519263 26:0.065326631 27:0.063651592 28:0.093802348 29:0.053601339 30:0.030150754 31:0.061976548 32:0.050251257 33:0.077051923 34:0.046901174 35:0.082077049 36:0.043551087 37:0.021775544 38:0.0067001674 39:0.048576213 40:0.020100502 #REL_CHICK  
1.0057900357215405762190130189992 1:0.051819887 2:0.087692305 3:0.050619137 4:0.020825516 5:0.045609757 6:0.013302064 7:0.034315199 8:0.072532833 9:0.040469043 10:0.060018763 11:0.090431519 12:0.059437148 13:0.038086303 14:0.026529081 15:0.0430394 16:0.05444653 17:0.033545967 18:0.064409003 19:0.0378424 20:0.060844276 21:0.033834588 22:0.065789476 23:0.030075189 24:0.045112781 25:0.086466163 26:0.02443609 27:0.045112781 28:0.086466163 29:0.04887218 30:0.033834588 31:0.033834588 32:0.046992481 33:0.097744361 34:0.030075189 35:0.073308274 36:0.035714287 37:0.022556391 38:0.015037594 39:0.10526316 40:0.039473683 #RAG2_ONCMY 
-2 1:0.051133092 2:0.079091728 3:0.05948741 4:0.013633094 5:0.033723023 6:0.0069784173 7:0.02073741 8:0.045890287 9:0.044424459 10:0.047787771 11:0.093093522 12:0.055026978 13:0.021079136 14:0.020098921 15:0.052482013 16:0.077967629 17:0.043228418 18:0.077922665 19:0.06071043 20:0.06064748 21:0.087308727 22:0.05130513 23:0.023402341 24:0.057605762 25:0.089108914 26:0.068406843 27:0.044104412 28:0.095409542 29:0.049504951 30:0.01980198 31:0.03870387 32:0.054905489 33:0.07830783 34:0.064806484 35:0.05130513 36:0.03870387 37:0.01080108 38:0.0072007203 39:0.045904592 40:0.023402341 #SENP6_HUMAN
-2 1:0.034123112 2:0.063995354 3:0.036434378 4:0.016782811 5:0.034134727 6:0.0072241579 7:0.036573753 8:0.05504065 9:0.04912892 10:0.071881533 11:0.090569109 12:0.042984903 13:0.039105691 14:0.034099884 15:0.066573754 16:0.059442509 17:0.032195121 18:0.060360048 19:0.027235772 20:0.047061555 21:0.061627906 22:0.074418604 23:0.041860465 24:0.048837211 25:0.060465116 26:0.029069768 27:0.037209302 28:0.10116279 29:0.046511628 30:0.038372092 31:0.047674417 32:0.037209302 33:0.077906974 34:0.040697675 35:0.091860466 36:0.033720929 37:0.017441861 38:0.0069767442 39:0.068604648 40:0.038372092 #ABLM1_MOUSE
-2 1:0.03864184 2:0.084720701 3:0.046429355 4:0.022135817 5:0.034457833 6:0.009485214 7:0.024523549 8:0.057371303 9:0.061533406 10:0.10061336 11:0.087250821 12:0.049824752 13:0.023767799 14:0.027393209 15:0.055049289 16:0.051741511 17:0.039671414 18:0.058707558 19:0.039737131 20:0.05773275 21:0.05372807 22:0.052631579 23:0.024122806 24:0.05372807 25:0.0625 26:0.03618421 27:0.042763159 28:0.095394738 29:0.052631579 30:0.025219299 31:0.066885963 32:0.041666668 33:0.085526317 34:0.039473683 35:0.10526316 36:0.03618421 37:0.025219299 38:0.010964912 39:0.067982458 40:0.021929825 #CBL_MOUSE  
2 1:0.062312208 2:0.080140844 3:0.043720659 4:0.01830986 5:0.030598592 6:0.011549296 7:0.029143192 8:0.07535211 9:0.092159621 10:0.062476527 11:0.064413145 12:0.049072769 13:0.0079929577 14:0.018626761 15:0.051866196 16:0.052852113 17:0.036244132 18:0.078286387 19:0.03640845 20:0.044612676 21:0.059929494 22:0.050528791 23:0.017626323 24:0.03760282 25:0.082256168 26:0.036427733 27:0.050528791 28:0.062279671 29:0.051703878 30:0.02467685 31:0.10223266 32:0.070505291 33:0.092831962 34:0.03760282 35:0.07638073 36:0.031727381 37:0.016451234 38:0.010575793 39:0.07755582 40:0.010575793 #LSD1_HUMAN 
2 1:0.058613569 2:0.099203542 3:0.067286134 4:0.028908554 5:0.035693217 6:0.0010619469 7:0.023657817 8:0.083834805 9:0.097227141 10:0.032064896 11:0.057581119 12:0.059439529 13:0.017168142 14:0.020058997 15:0.050737463 16:0.05737463 17:0.047020648 18:0.074690267 19:0.02879056 20:0.050884955 21:0.05029586 22:0.059171598 23:0.01775148 24:0.053254437 25:0.079881653 26:0.026627218 27:0.044378698 28:0.047337279 29:0.068047337 30:0.029585799 31:0.12426036 32:0.053254437 33:0.085798815 34:0.065088756 35:0.029585799 36:0.035502959 37:0.032544378 38:0 39:0.082840234 40:0.0147929 #RAD51_HUMAN
2 1:0.070829697 2:0.120131 3:0.060043667 4:0.017117904 5:0.044323143 6:0.0053275111 7:0.037860263 8:0.050131004 9:0.066681221 10:0.020655021 11:0.067336246 12:0.046593886 13:0.0099126641 14:0.021048035 15:0.060786027 16:0.066244543 17:0.04746725 18:0.083144106 19:0.032445416 20:0.055633187 21:0.057017542 22:0.078947365 23:0.021929825 24:0.057017542 25:0.087719299 26:0.021929825 27:0.048245613 28:0.052631579 29:0.057017542 30:0.03508772 31:0.083333336 32:0.078947365 33:0.11842106 34:0.043859649 35:0.01754386 36:0.048245613 37:0.013157895 38:0.0043859649 39:0.070175439 40:0.0043859649 #TSN_CHICK  
-1.9449487105616400928198572728434 1:0.06326203 2:0.095267378 3:0.049465239 4:0.034171123 5:0.039037433 6:0.0054812836 7:0.037486631 8:0.05302139 9:0.071443848 10:0.038502675 11:0.07489305 12:0.045775402 13:0.014278075 14:0.01842246 15:0.038021389 16:0.060962565 17:0.035481282 18:0.090935826 19:0.045641713 20:0.074812837 21:0.042895444 22:0.042895444 23:0.021447722 24:0.061662197 25:0.077747986 26:0.03753351 27:0.048257373 28:0.080428958 29:0.072386056 30:0.034852546 31:0.083109923 32:0.080428958 33:0.088471852 34:0.042895444 35:0.042895444 36:0.042895444 37:0.034852546 38:0.0080428952 39:0.050938338 40:0.0053619305 #XAB1_HUMAN 
-2 1:0.065939397 2:0.087191917 3:0.059333332 4:0.022262625 5:0.046101011 6:0.0053939396 7:0.031919193 8:0.0629697 9:0.078808084 10:0.053252526 11:0.066868685 12:0.04751515 13:0.01840404 14:0.018282829 15:0.047858585 16:0.055737372 17:0.03549495 18:0.061878789 19:0.04248485 20:0.048424244 21:0.032323234 22:0.074747473 23:0.018181818 24:0.04040404 25:0.068686865 26:0.024242423 27:0.060606062 28:0.05050505 29:0.036363635 30:0.030303031 31:0.1030303 32:0.082828283 33:0.11111111 34:0.036363635 35:0.06666667 36:0.042424243 37:0.022222223 38:0.0020202021 39:0.076767676 40:0.02020202 #ALAT_HUMAN 
-2 1:0.070053048 2:0.08708223 3:0.061511938 4:0.021061009 5:0.041618038 6:0.0043766578 7:0.029761273 8:0.057586208 9:0.070875332 10:0.039363395 11:0.066949598 12:0.048381962 13:0.011538462 14:0.012864722 15:0.065464191 16:0.062732093 17:0.045013264 18:0.085225463 19:0.038116712 20:0.064350136 21:0.055851065 22:0.063829787 23:0.010638298 24:0.090425529 25:0.074468084 26:0.039893616 27:0.05319149 28:0.074468084 29:0.039893616 30:0.039893616 31:0.077127658 32:0.079787232 33:0.087765954 34:0.045212764 35:0.034574468 36:0.045212764 37:0.031914894 38:0.0026595744 39:0.050531916 40:0.0026595744 #KAPR2_DROME
0.1083465004010459586947234811305 1:0.05338686 2:0.078379564 3:0.036372263 4:0.022240875 5:0.032240875 6:0.0077226278 7:0.028992701 8:0.053262774 9:0.051321167 10:0.08369343 11:0.089810222 12:0.060927007 13:0.041591242 14:0.018145986 15:0.037919708 16:0.067788318 17:0.049605839 18:0.066627741 19:0.038372263 20:0.048861314 21:0.058436815 22:0.056245435 23:0.016800584 24:0.050401755 25:0.074506938 26:0.03287071 27:0.049671292 28:0.084733382 29:0.059167277 30:0.027027028 31:0.042366691 32:0.054784514 33:0.092037983 34:0.027027028 35:0.092037983 36:0.035792548 37:0.020452885 38:0.010956903 39:0.065010957 40:0.049671292 #ZN261_MOUSE
0.28550626406449619576477516602608 1:0.049820665 2:0.083834328 3:0.062912039 4:0.023343297 5:0.032318532 6:0.0052690008 7:0.018941076 8:0.034854826 9:0.041836038 10:0.041716482 11:0.093642183 12:0.073155425 13:0.02178053 14:0.028023057 15:0.033872757 16:0.081549957 17:0.049688302 18:0.086400509 19:0.069047824 20:0.063906915 21:0.081161894 22:0.033746261 23:0.026484407 24:0.064075179 25:0.087142244 26:0.070909865 27:0.051260144 28:0.09269543 29:0.073045708 30:0.02007689 31:0.041008115 32:0.050405808 33:0.084152073 34:0.063220844 35:0.043143954 36:0.033319093 37:0.023067065 38:0.0055531822 39:0.033319093 40:0.022212729 #CASC5_HUMAN
0.44076020399113780001698614796624 1:0.043456789 2:0.013004115 3:0.003744856 4:0.018477365 5:0.010576132 6:0 7:0.012386831 8:0.043004114 9:0.053045269 10:0.086995885 11:0.13144033 12:0.036666665 13:0 14:0.005473251 15:0.053703703 16:0.17209877 17:0.035020575 18:0.15127572 19:0.016995884 20:0.10604938 21:0.1570248 22:0.05785124 23:0.0082644625 24:0.11983471 25:0.14876033 26:0.020661157 27:0.037190083 28:0.1322314 29:0.03305785 30:0.012396694 31:0.049586777 32:0.041322313 33:0.012396694 34:0.0041322312 35:0.082644626 36:0.012396694 37:0.020661157 38:0 39:0.049586777 40:0 #NUCKS_HUMAN
-2 1:0.04868146 2:0.088263705 3:0.045143604 4:0.019490862 5:0.032806788 6:0.0092428196 7:0.023955613 8:0.043289818 9:0.054738902 10:0.048903394 11:0.091357701 12:0.04810705 13:0.024921671 14:0.027493473 15:0.050182767 16:0.071031332 17:0.051370759 18:0.083720624 19:0.0383812 20:0.0462141 21:0.079738565 22:0.041830067 23:0.031372551 24:0.048366014 25:0.1006536 26:0.045751635 27:0.052287582 28:0.084967323 29:0.054901961 30:0.023529412 31:0.064052291 32:0.048366014 33:0.095424838 34:0.047058824 35:0.048366014 36:0.027450981 37:0.023529412 38:0.010457517 39:0.047058824 40:0.024836602 #FGD4_RAT   
-2 1:0.039348915 2:0.077145241 3:0.027762938 4:0.013722871 5:0.034207013 6:0.0086143576 7:0.032888148 8:0.048130218 9:0.063372284 10:0.060918197 11:0.080166943 12:0.055759598 13:0.047362272 14:0.04063439 15:0.067963272 16:0.051018365 17:0.052003339 18:0.064156927 19:0.04899833 20:0.044140235 21:0.060200669 22:0.060200669 23:0.031772576 24:0.051839463 25:0.065217391 26:0.088628761 27:0.053511705 28:0.085284278 29:0.065217391 30:0.04180602 31:0.053511705 32:0.035117056 33:0.086956523 34:0.033444814 35:0.051839463 36:0.033444814 37:0.010033445 38:0.0066889632 39:0.036789298 40:0.048494983 #UNK_DROME  
-2 1:0.043336757 2:0.091344967 3:0.02922998 4:0.015287475 5:0.027022587 6:0.014609857 7:0.015420944 8:0.069507189 9:0.078367554 10:0.080369607 11:0.1187269 12:0.046149898 13:0.012587269 14:0.018090349 15:0.068655029 16:0.047268994 17:0.049928132 18:0.05919918 19:0.025934292 20:0.04708419 21:0.051387463 22:0.067831449 23:0.017471736 24:0.058581706 25:0.061664954 26:0.026721479 27:0.057553958 28:0.13669065 29:0.04008222 30:0.01438849 31:0.077081189 32:0.041109968 33:0.10585817 34:0.026721479 35:0.081192188 36:0.025693731 37:0.012332991 38:0.01336074 39:0.070914693 40:0.01336074 #RHG06_HUMAN
1.3715601772356891263626721411129 1:0.078265898 2:0.078410402 3:0.064999998 4:0.02 5:0.039826591 6:0.0076300576 7:0.023034682 8:0.042919077 9:0.065635838 10:0.044277456 11:0.056329481 12:0.049104046 13:0.019248554 14:0.022312138 15:0.053959537 16:0.061791908 17:0.029219653 18:0.076763004 19:0.044624276 20:0.070346817 21:0.04057971 22:0.078260869 23:0.031884059 24:0.078260869 25:0.08115942 26:0.04057971 27:0.034782607 28:0.043478262 29:0.04057971 30:0.023188407 31:0.075362317 32:0.10144927 33:0.089855075 34:0.055072464 35:0.049275361 36:0.043478262 37:0.023188407 38:0.0057971017 39:0.052173913 40:0.011594203 #RPA5_HUMAN 
2 1:0.059190728 2:0.093525812 3:0.057992127 4:0.023849519 5:0.042497814 6:0.013429571 7:0.036924761 8:0.045713037 9:0.059597552 10:0.041386701 11:0.066377953 12:0.044247594 13:0.017729659 14:0.022060368 15:0.056185476 16:0.064536311 17:0.040581804 18:0.072375327 19:0.042585302 20:0.058171477 21:0.05820569 22:0.063019693 23:0.026695842 24:0.054266959 25:0.083150983 26:0.03369803 27:0.04463895 28:0.068708971 29:0.042450767 30:0.036323853 31:0.070459522 32:0.065645516 33:0.098468274 34:0.053829324 35:0.047702406 36:0.044201314 37:0.024070023 38:0.014442014 39:0.049452953 40:0.020568928 #DPOE1_HUMAN
2 1:0.057964824 2:0.070427135 3:0.06776382 4:0.030904522 5:0.028919598 6:0.0098241204 7:0.035175879 8:0.063391961 9:0.067839198 10:0.04580402 11:0.063994974 12:0.056432161 13:0.010201005 14:0.020653266 15:0.04580402 16:0.047738694 17:0.029522613 18:0.067160808 19:0.027964825 20:0.049623117 21:0.042821158 22:0.0604534 23:0.020151133 24:0.062972292 25:0.085642315 26:0.047858942 27:0.052896727 28:0.040302265 29:0.04534005 30:0.042821158 31:0.065491185 32:0.10075567 33:0.080604531 34:0.055415615 35:0.042821158 36:0.04534005 37:0.017632242 38:0.010075566 39:0.057934508 40:0.022670025 #ARP6_DROME 
-2 1:0.074189305 2:0.093382999 3:0.055486415 4:0.019824715 5:0.038194567 6:0.019482911 7:0.033251535 8:0.053155128 9:0.056871165 10:0.04351446 11:0.059851009 12:0.052524101 13:0.012532866 14:0.02450482 15:0.048957054 16:0.068168275 17:0.032304995 18:0.069956176 19:0.038974583 20:0.058352321 21:0.071052633 22:0.053508773 23:0.024561403 24:0.062280703 25:0.071929827 26:0.045614034 27:0.02631579 28:0.058771931 29:0.052631579 30:0.036842104 31:0.060526315 32:0.099122807 33:0.096491225 34:0.042982455 35:0.042982455 36:0.045614034 37:0.019298246 38:0.021052632 39:0.058771931 40:0.0096491231 #SYI_CAEEL  
0.063436001190353863421478308737278 1:0.047794119 2:0.080882356 3:0.0073529412 4:0.022058824 5:0.014705882 6:0.0036764706 7:0.014705882 8:0.12408088 9:0.125 10:0.05882353 11:0.089154415 12:0.047794119 13:0.022058824 14:0.011029412 15:0.044117648 16:0.0625 17:0.077205881 18:0.080882356 19:0.022058824 20:0.044117648 21:0.062730625 22:0.044280443 23:0.011070111 24:0.044280443 25:0.081180811 26:0.022140222 27:0.077490777 28:0.088560887 29:0.047970481 30:0.014760148 31:0.12546125 32:0.047970481 33:0.081180811 34:0.0073800739 35:0.059040591 36:0.014760148 37:0.018450184 38:0.0036900369 39:0.12546125 40:0.022140222 #RFXAP_HUMAN
-2 1:0.075734429 2:0.077779084 3:0.057567567 4:0.027614571 5:0.042185664 6:0.0072502936 7:0.037027027 8:0.057873089 9:0.058037601 10:0.052479435 11:0.05757932 12:0.056004699 13:0.018213866 14:0.027027028 15:0.061186839 16:0.064418331 17:0.050023504 18:0.047520563 19:0.042573445 20:0.049964748 21:0.064705886 22:0.068235293 23:0.03882353 24:0.048235293 25:0.048235293 26:0.025882352 27:0.067058824 28:0.049411766 29:0.063529409 30:0.031764705 31:0.057647061 32:0.085882351 33:0.072941177 34:0.056470588 35:0.05882353 36:0.044705883 37:0.024705883 38:0.0070588235 39:0.059999999 40:0.025882352 #I2C2_HUMAN 
2 1:0.054068707 2:0.079012349 3:0.041497584 4:0.015619968 5:0.023022007 6:0.0053408481 7:0.015856147 8:0.045882985 9:0.05099839 10:0.050064411 11:0.1210467 12:0.060638756 13:0.022979066 14:0.026473429 15:0.046280194 16:0.068529256 17:0.055324744 18:0.098373592 19:0.056258723 20:0.049898013 21:0.073576801 22:0.040816326 23:0.02631579 24:0.045649838 25:0.10633727 26:0.064983889 27:0.052094523 28:0.12030075 29:0.059613317 30:0.016648766 31:0.045112781 32:0.054242749 33:0.083780877 34:0.041353382 35:0.051557466 36:0.02631579 37:0.015574651 38:0.0053705694 39:0.046723954 40:0.023630505 #BRCA1_HUMAN
1.4155187187715561059064839355415 1:0.043333333 2:0.093249999 3:0.029266667 4:0.011483333 5:0.010566667 6:0.0089999996 7:0.015333333 8:0.063066669 9:0.059149999 10:0.1002 11:0.10901666 12:0.058233332 13:0.011316666 14:0.032833334 15:0.06621667 16:0.064116664 17:0.056383334 18:0.055966668 19:0.035733335 20:0.055366665 21:0.058430716 22:0.076794654 23:0.028380634 24:0.056761269 25:0.056761269 26:0.030050084 27:0.066777967 28:0.10684474 29:0.038397327 30:0.013355592 31:0.073455758 32:0.043405674 33:0.096828043 34:0.026711185 35:0.11018364 36:0.013355592 37:0.0066777961 38:0.010016695 39:0.073455758 40:0.013355592 #CRSP7_HUMAN
0.072893711217172946215114848200756 1:0.037667103 2:0.092568807 3:0.044246394 4:0.018414155 5:0.027719527 6:0.010524247 7:0.014351245 8:0.050799474 9:0.053211011 10:0.10647444 11:0.11813892 12:0.050917432 13:0.013709043 14:0.017352555 15:0.052909568 16:0.057706423 17:0.051690694 18:0.070707731 19:0.037221495 20:0.042726081 21:0.057742782 22:0.060367454 23:0.018372703 24:0.034120735 25:0.081364833 26:0.036745407 27:0.047244094 28:0.12073491 29:0.047244094 30:0.011811024 31:0.056430448 32:0.043307088 33:0.099737532 34:0.047244094 35:0.12204725 36:0.024934383 37:0.018372703 38:0.01312336 39:0.048556432 40:0.010498688 #FOXM1_HUMAN
-2 1:0.039316546 2:0.071636692 3:0.026065648 4:0.016560251 5:0.032383092 6:0.00477518 7:0.021789568 8:0.067153774 9:0.073992804 10:0.084168166 11:0.11183003 12:0.059154674 13:0.0030980215 14:0.018606115 15:0.064105213 16:0.050098922 17:0.051978417 18:0.062670864 19:0.034244604 20:0.079707734 21:0.046783626 22:0.066576697 23:0.019343229 24:0.0845704 25:0.060728744 26:0.032388665 27:0.058929376 28:0.1120108 29:0.060728744 30:0.021592442 31:0.081871346 32:0.040485829 33:0.075573549 34:0.026990553 35:0.087269455 36:0.034637876 37:0.015744489 38:0.0044984254 39:0.066576697 40:0.0026990552 #DAB_DROME  
-2 1:0.051425554 2:0.082206972 3:0.044825766 4:0.017888067 5:0.030221753 6:0.012133052 7:0.020316791 8:0.056325238 9:0.066927135 10:0.082566001 11:0.087835267 12:0.045469906 13:0.016462512 14:0.029894404 15:0.051425554 16:0.071752906 17:0.048352692 18:0.067697994 19:0.030612461 20:0.040306229 21:0.063424945 22:0.05179704 23:0.035940804 24:0.031712472 25:0.08139535 26:0.022198731 27:0.05179704 28:0.095137417 29:0.034883723 30:0.016913319 31:0.072938688 32:0.052854124 33:0.10676533 34:0.028541226 35:0.10359408 36:0.025369979 37:0.013742072 38:0.015856236 39:0.070824526 40:0.024312897 #M3K14_HUMAN
-2 1:0.052375168 2:0.084993251 3:0.031835359 4:0.015168691 5:0.021066127 6:0.0036977057 7:0.0030499324 8:0.045033738 9:0.076990552 10:0.097219974 11:0.14704454 12:0.054723348 13:0.010985156 14:0.012307692 15:0.052442644 16:0.073900133 17:0.035641026 18:0.053832658 19:0.033292849 20:0.040620781 21:0.055405404 22:0.066216215 23:0.010810811 24:0.040540539 25:0.058108106 26:0.022972973 27:0.060810812 28:0.14324324 29:0.064864866 30:0.0054054055 31:0.071621619 32:0.048648648 33:0.10135135 34:0.018918918 35:0.11216217 36:0.021621622 37:0.010810811 38:0.0027027028 39:0.072972976 40:0.010810811 #GTSE1_MOUSE
2 1:0.057867512 2:0.088221416 3:0.052604355 4:0.021615244 5:0.05009982 6:0.011016333 7:0.039292198 8:0.041932851 9:0.042695101 10:0.044827588 11:0.060998186 12:0.048756804 13:0.016034482 14:0.029237749 15:0.048411977 16:0.066751361 17:0.049183302 18:0.076969147 19:0.049537204 20:0.063148819 21:0.072661214 22:0.049954586 23:0.032697547 24:0.082652137 25:0.07992734 26:0.044504996 27:0.059037238 28:0.052679382 29:0.045413259 30:0.036330607 31:0.040871933 32:0.062670298 33:0.087193459 34:0.045413259 35:0.048138056 36:0.054495912 37:0.029064488 38:0.010899182 39:0.048138056 40:0.017257039 #UBP7_HUMAN 
2 1:0.066932082 2:0.079297423 3:0.064894617 4:0.019344263 5:0.043957844 6:0.010901639 7:0.030948477 8:0.062693208 9:0.06620609 10:0.042248245 11:0.076545671 12:0.04468384 13:0.023981264 14:0.023700234 15:0.039578453 16:0.074320845 17:0.051147539 18:0.066674471 19:0.048852459 20:0.041990634 21:0.077373974 22:0.033997655 23:0.026963657 24:0.030480657 25:0.07620164 26:0.046893317 27:0.064478315 28:0.065650642 29:0.048065651 30:0.023446659 31:0.066822976 32:0.072684646 33:0.086752638 34:0.069167644 35:0.045720983 36:0.046893317 37:0.026963657 38:0.014067995 39:0.056271981 40:0.021101993 #BAL_HUMAN  
1.6632261172238793633937348204199 1:0.058816567 2:0.10002367 3:0.052650888 4:0.026792899 5:0.044 6:0.0076568048 7:0.029254438 8:0.034177516 9:0.055443786 10:0.042236686 11:0.079183429 12:0.049384616 13:0.022757396 14:0.021621302 15:0.052284025 16:0.060958579 17:0.04095858 18:0.072520711 19:0.046213016 20:0.047349114 21:0.063981041 22:0.050947867 23:0.024881518 24:0.049763035 25:0.077014215 26:0.0521327 27:0.048578199 28:0.069905214 29:0.053317536 30:0.029620852 31:0.060426541 32:0.055687204 33:0.095971562 34:0.065165877 35:0.04265403 36:0.043838862 37:0.034360189 38:0.011848342 39:0.037914693 40:0.031990521 #RBF_DROME  
-2 1:0.057824999 2:0.087425001 3:0.060199998 4:0.02125 5:0.035174999 6:0.0031999999 7:0.025525 8:0.051475 9:0.053950001 10:0.040424999 11:0.072750002 12:0.04865 13:0.024499999 14:0.025175 15:0.061925001 16:0.058049999 17:0.048875 18:0.075999998 19:0.043049999 20:0.051750001 21:0.05764411 22:0.05764411 23:0.025062656 24:0.060150377 25:0.087719299 26:0.047619049 27:0.05764411 28:0.070175439 29:0.047619049 30:0.032581452 31:0.047619049 32:0.05764411 33:0.090225562 34:0.060150377 35:0.04010025 36:0.042606518 37:0.025062656 38:0.0050125313 39:0.065162905 40:0.022556391 #ASCC1_HUMAN
-2 1:0.06017004 2:0.10785622 3:0.061943606 4:0.024044339 5:0.04211795 6:0.015210934 7:0.028021954 8:0.042111494 9:0.059752475 10:0.035006456 11:0.064158417 12:0.049754627 13:0.012565648 14:0.017085666 15:0.048923805 16:0.064334914 17:0.046764959 18:0.071485147 19:0.045322858 20:0.054167025 21:0.063078582 22:0.062217437 23:0.019806243 24:0.055113025 25:0.082454249 26:0.040688913 27:0.05532831 28:0.058772873 29:0.051237889 30:0.027556513 31:0.066092573 32:0.075565122 33:0.11151776 34:0.053175457 35:0.040043056 36:0.038320776 37:0.026049515 38:0.016576964 39:0.046071045 40:0.010333692 #DYHC_HUMAN 
-2 1:0.067056514 2:0.10065149 3:0.060455259 4:0.019348508 5:0.034803767 6:0.0067111459 7:0.022817897 8:0.04876766 9:0.051185243 10:0.034552589 11:0.071287282 12:0.064474098 13:0.014317111 14:0.0183281 15:0.052496076 16:0.063830458 17:0.037715856 18:0.085879117 19:0.043720566 20:0.04866562 21:0.061272584 22:0.061272584 23:0.016496465 24:0.052631579 25:0.087195598 26:0.043205027 27:0.040848389 28:0.080911234 29:0.064414769 30:0.026708562 31:0.044776119 32:0.070699133 33:0.10212097 34:0.066771403 35:0.035349566 36:0.046347212 37:0.024351925 38:0.0062843678 39:0.051060487 40:0.017282011 #ARMI_DROME 
0.50539580032650699426000073799514 1:0.067361109 2:0.086309522 3:0.057500001 4:0.01686508 5:0.02781746 6:0.019166667 7:0.021071428 8:0.060119048 9:0.070753969 10:0.03875 11:0.093869045 12:0.064305559 13:0.020555556 14:0.029345239 15:0.046805557 16:0.055059522 17:0.037638888 18:0.052996032 19:0.035753969 20:0.061488096 21:0.059642147 22:0.033797216 23:0.035785288 24:0.055666003 25:0.053677931 26:0.027833002 27:0.049701788 28:0.091451295 29:0.077534795 30:0.021868788 31:0.079522863 32:0.073558651 33:0.099403575 34:0.061630219 35:0.051689859 36:0.031809144 37:0.0099403579 38:0.01192843 39:0.057654075 40:0.015904572 #PRP19_HUMAN
0.028804846667333159487833782463895 1:0.047100175 2:0.06961336 3:0.029103691 4:0.01797891 5:0.036133569 6:0.0033743409 7:0.022091389 8:0.082372583 9:0.078312829 10:0.064182773 11:0.084235504 12:0.049349736 13:0.028734623 14:0.038295254 15:0.046256591 16:0.056063268 17:0.044956062 18:0.072231986 19:0.034130052 20:0.050527241 21:0.045774646 22:0.054577466 23:0.026408451 24:0.086267605 25:0.063380279 26:0.026408451 27:0.035211269 28:0.054577466 29:0.049295776 30:0.024647888 31:0.11091549 32:0.058098592 33:0.072183095 34:0.022887323 35:0.080985919 36:0.035211269 37:0.012323944 38:0.00528169 39:0.11091549 40:0.024647888 #ZBTB7_RAT  
1.8602270434430807632963933428982 1:0.043142144 2:0.079002492 3:0.022518704 4:0.018179551 5:0.023167083 6:0.012194513 7:0.013466334 8:0.065561101 9:0.089201994 10:0.09157107 11:0.10399003 12:0.048129674 13:0.012144638 14:0.018753117 15:0.050947633 16:0.047506236 17:0.049127184 18:0.049975064 19:0.028678304 20:0.043566085 21:0.037500001 22:0.067500003 23:0.0175 24:0.039999999 25:0.0425 26:0.032499999 27:0.050000001 28:0.1225 29:0.0625 30:0.0125 31:0.082500003 32:0.039999999 33:0.097499996 34:0.025 35:0.1125 36:0.029999999 37:0.0175 38:0.0125 39:0.075000003 40:0.022500001 #TGIF_HUMAN 
-2 1:0.062579185 2:0.088739499 3:0.040077571 4:0.018784745 5:0.024964448 6:0.011493213 7:0.026742082 8:0.059767291 9:0.066257276 10:0.095966384 11:0.097065285 12:0.060109891 13:0.018875243 14:0.019631544 15:0.049282484 16:0.047802199 17:0.053458307 18:0.045546219 19:0.04107951 20:0.044744667 21:0.045924969 22:0.053040102 23:0.018111255 24:0.048512291 25:0.05045278 26:0.038163003 27:0.05886158 28:0.097024582 29:0.055627424 30:0.029754205 31:0.07179819 32:0.065329887 33:0.090556271 34:0.038809832 35:0.10349289 36:0.025873221 37:0.019404916 38:0.01164295 39:0.059508409 40:0.018111255 #TULP4_MOUSE
-2 1:0.057692308 2:0.077587411 3:0.030993007 4:0.015160839 5:0.013223777 6:0.0043216785 7:0.01541958 8:0.072006993 9:0.10327972 10:0.11254545 11:0.091034964 12:0.047664337 13:0.0078461543 14:0.023496503 15:0.053713288 16:0.05058042 17:0.043062937 18:0.063426577 19:0.027223777 20:0.038076922 21:0.055983204 22:0.060181946 23:0.023093073 24:0.040587824 25:0.059482154 26:0.023093073 27:0.047585726 28:0.094471656 29:0.047585726 30:0.013296011 31:0.11056683 32:0.056682996 33:0.085374385 34:0.031490553 35:0.12946115 36:0.011196641 37:0.013296011 38:0.0041987402 39:0.084674597 40:0.0076976907 #CSKI1_RAT  
-2 1:0.050158639 2:0.086240791 3:0.040371105 4:0.017773371 5:0.038065154 6:0.0092294617 7:0.036240794 8:0.059025496 9:0.073943339 10:0.09646742 11:0.071294621 12:0.050679885 13:0.010048158 14:0.020518413 15:0.058923513 16:0.057872523 17:0.04688102 18:0.060594901 19:0.026218131 20:0.041396599 21:0.04703882 22:0.076792292 23:0.02663644 24:0.040804762 25:0.060923774 26:0.021535845 27:0.052422784 28:0.069141403 29:0.040804762 30:0.035987534 31:0.086143382 32:0.055256445 33:0.1062624 34:0.029470105 35:0.1011618 36:0.041371495 37:0.018135449 38:0.011901389 39:0.065741003 40:0.012468121 #MYO15_HUMAN
2 1:0.062850192 2:0.11652245 3:0.052855596 4:0.02433748 5:0.031687398 6:0.010659816 7:0.020118983 8:0.044521362 9:0.069670089 10:0.038464036 11:0.067636557 12:0.048734453 13:0.013791239 14:0.020243375 15:0.050611142 16:0.057382368 17:0.04355868 18:0.061573822 19:0.038664144 20:0.053044889 21:0.057359308 22:0.047619049 23:0.027597403 24:0.055194806 25:0.063852817 26:0.04112554 27:0.058982685 28:0.066558443 29:0.056818184 30:0.018398268 31:0.071969695 32:0.074675322 33:0.12770563 34:0.051406927 35:0.045995671 36:0.028138528 37:0.026515152 38:0.011363637 39:0.04707792 40:0.021645023 #BTAF1_HUMAN
2 1:0.058546342 2:0.11521951 3:0.062468294 4:0.021395123 5:0.038721953 6:0.0060682925 7:0.031073172 8:0.050809756 9:0.06379512 10:0.038682926 11:0.074175611 12:0.048136584 13:0.012107317 14:0.020614633 15:0.050731707 16:0.079346344 17:0.04214634 18:0.067697562 19:0.046097562 20:0.054546341 21:0.071289062 22:0.056640625 23:0.022460938 24:0.049804688 25:0.0703125 26:0.038085938 27:0.05078125 28:0.065429688 29:0.045898438 30:0.030273438 31:0.071289062 32:0.06640625 33:0.13183594 34:0.051757812 35:0.045898438 36:0.03515625 37:0.022460938 38:0.0068359375 39:0.051757812 40:0.015625 #ALP_HUMAN  
2 1:0.054885376 2:0.10805534 3:0.052956522 4:0.034901187 5:0.038498025 6:0.0085059293 7:0.026901186 8:0.038671937 9:0.056814231 10:0.03544664 11:0.075249009 12:0.052142292 13:0.014664032 14:0.023375494 15:0.05850593 16:0.05939921 17:0.044490118 18:0.082094863 19:0.037343875 20:0.065754943 21:0.059335444 22:0.06329114 23:0.026898734 24:0.0625 25:0.095727846 26:0.038765822 27:0.047468353 28:0.072784811 29:0.046677217 30:0.026107594 31:0.059335444 32:0.058544304 33:0.1107595 34:0.052215189 35:0.034018986 36:0.038765822 37:0.037974682 38:0.0087025315 39:0.044303797 40:0.015822785 #STAG1_XENLA
-2 1:0.067712083 2:0.12365039 3:0.056696657 4:0.022853471 5:0.038290489 6:0.0071465294 7:0.024434447 8:0.030501286 9:0.062467866 10:0.030539846 11:0.075051412 12:0.048753213 13:0.018200515 14:0.022994859 15:0.043534704 16:0.066748075 17:0.046015423 18:0.083470434 19:0.041028276 20:0.048534703 21:0.074550129 22:0.042416453 23:0.025706941 24:0.043701798 25:0.091259643 26:0.038560413 27:0.052699231 28:0.082262211 29:0.055269923 30:0.026992287 31:0.057840616 32:0.059125964 33:0.13496144 34:0.056555271 35:0.039845757 36:0.033419024 37:0.026992287 38:0.0077120825 39:0.03084833 40:0.019280206 #ZW10_HUMAN 
-2 1:0.056241412 2:0.10686948 3:0.060343474 4:0.021570167 5:0.052315995 6:0.010853779 7:0.041786063 8:0.042080469 9:0.054288518 10:0.045564279 11:0.069646716 12:0.047114819 13:0.010755643 14:0.027850835 15:0.044720314 16:0.070951916 17:0.038537782 18:0.076820411 19:0.052158978 20:0.051364083 21:0.073673867 22:0.044204321 23:0.03438114 24:0.050098233 25:0.083497055 26:0.048133597 27:0.042239685 28:0.051080551 29:0.041257367 30:0.044204321 31:0.059921414 32:0.049115915 33:0.11394892 34:0.057956778 35:0.059921414 36:0.053045187 37:0.023575639 38:0.0098231826 39:0.047151279 40:0.012770138 #IDE_RAT    
-2 1:0.053910114 2:0.11739326 3:0.060674157 4:0.028179776 5:0.048921347 6:0.01411236 7:0.042764045 8:0.027078651 9:0.065438204 10:0.028067416 11:0.054382022 12:0.048606742 13:0.015011236 14:0.022764046 15:0.054359552 16:0.057393257 17:0.055348314 18:0.071393259 19:0.059213482 20:0.062157303 21:0.058558557 22:0.058558557 23:0.020270269 24:0.067567565 25:0.067567565 26:0.056306306 27:0.056306306 28:0.054054055 29:0.054054055 30:0.045045044 31:0.063063063 32:0.058558557 33:0.11711711 34:0.054054055 35:0.029279279 36:0.056306306 37:0.029279279 38:0.013513514 39:0.024774775 40:0.015765766 #IF36_HUMAN 
0.23091476028447682766753246141889 1:0.038612716 2:0.068583816 3:0.02317919 4:0.016907515 5:0.025953757 6:0.014161849 7:0.029421965 8:0.058583815 9:0.090375721 10:0.070751444 11:0.14534682 12:0.071502887 13:0.0095953755 14:0.025289018 15:0.047658961 16:0.042196531 17:0.052601155 18:0.04398844 19:0.047543354 20:0.047225434 21:0.046376813 22:0.046376813 23:0.011594203 24:0.060869563 25:0.043478262 26:0.049275361 27:0.04057971 28:0.15072463 29:0.089855075 30:0.037681159 31:0.10144927 32:0.028985508 33:0.06666667 34:0.028985508 35:0.069565214 36:0.034782607 37:0.020289855 38:0.014492754 39:0.052173913 40:0.0057971017 #HM22_CAEEL 
