SVM-light Version V6.01
2 # kernel type
3 # kernel parameter -d 
150 # kernel parameter -g 
1 # kernel parameter -s 
1 # kernel parameter -r 
empty# kernel parameter -u 
40 # highest feature index 
922 # number of training documents 
622 # number of support vectors plus 1 
-0.60171212 # threshold b, each following line is a SV (starting with alpha*y)
-2 1:0.057272729 2:0.05709729 3:0.037990432 4:0.010988836 5:0.038389154 6:0.0092185009 7:0.022551835 8:0.050542265 9:0.061307814 10:0.032440193 11:0.078341305 12:0.062727273 13:0.0096331742 14:0.015821371 15:0.037113238 16:0.082089312 17:0.043094099 18:0.12929824 19:0.077575758 20:0.073125996 21:0.089314193 22:0.036682617 23:0.014354067 24:0.076555021 25:0.13397129 26:0.089314193 27:0.043062203 28:0.062200956 29:0.060606062 30:0.022328548 31:0.06379585 32:0.05582137 33:0.049441785 34:0.046251994 35:0.036682617 36:0.043062203 37:0.0079744812 38:0.01275917 39:0.051036682 40:0.0047846888 #AB140_YEAST                   
0.20401281336953830392033637508575 1:0.057767108 2:0.063637458 3:0.041824728 4:0.017563025 5:0.043841537 6:0.0042256904 7:0.022605043 8:0.055006001 9:0.075486198 10:0.032268908 11:0.071860746 12:0.043193277 13:0.0058703483 14:0.012917167 15:0.053481393 16:0.089183673 17:0.036410563 18:0.087671071 19:0.045642257 20:0.063517407 21:0.10096154 22:0.052884616 23:0.020432692 24:0.070913464 25:0.091346152 26:0.044471152 27:0.03125 28:0.081730768 29:0.051682692 30:0.026442308 31:0.097355768 32:0.050480768 33:0.09495192 34:0.046875 35:0.037259616 36:0.043269232 37:0.012019231 38:0.0036057692 39:0.03966346 40:0.0024038462 #YHI2_SCHPO                    
0.15473506226779010219729570962954 1:0.050159998 2:0.1216 3:0.068240002 4:0.0176 5:0.0128 6:0.0063999998 7:0.0352 8:0.016000001 9:0.038880002 10:0.064560004 11:0.063519999 12:0.076800004 13:0.0016 14:0.0144 15:0.045839999 16:0.077359997 17:0.0352 18:0.12 19:0.0272 20:0.078400001 21:0.080645159 22:0.040322579 23:0.0080645159 24:0.10483871 25:0.12096774 26:0.032258064 27:0.024193548 28:0.072580643 29:0.096774191 30:0.040322579 31:0.040322579 32:0.056451611 33:0.11290322 34:0.080645159 35:0.056451611 36:0 37:0.0080645159 38:0.0080645159 39:0.016129032 40:0 #IES5_YEAST                    
-2 1:0.065411143 2:0.073766582 3:0.072572947 4:0.039496019 5:0.035384614 6:0.010397878 7:0.038222812 8:0.074641913 9:0.071564987 10:0.049761273 11:0.068196289 12:0.060238726 13:0.014323607 14:0.022970822 15:0.048275862 16:0.050769232 17:0.030954907 18:0.073899202 19:0.027824935 20:0.056710877 21:0.045212764 22:0.05319149 23:0.026595745 24:0.055851065 25:0.074468084 26:0.023936171 27:0.037234042 28:0.077127658 29:0.061170213 30:0.039893616 31:0.077127658 32:0.055851065 33:0.07180851 34:0.077127658 35:0.050531916 36:0.034574468 37:0.04255319 38:0.010638298 39:0.074468084 40:0.010638298 #ACT2_ABSGL                    
-2 1:0.072742857 2:0.068000004 3:0.049600001 4:0.014457143 5:0.043200001 6:0.021342857 7:0.022085715 8:0.062799998 9:0.055771429 10:0.036228571 11:0.072457142 12:0.066571429 13:0.0077999998 14:0.017514287 15:0.033771429 16:0.07805714 17:0.035285715 18:0.078542858 19:0.047485713 20:0.051171429 21:0.10315187 22:0.025787966 23:0.017191976 24:0.042979944 25:0.085959889 26:0.054441262 27:0.040114611 28:0.11461318 29:0.051575933 30:0.022922637 31:0.045845274 32:0.074498564 33:0.071633235 34:0.054441262 35:0.042979944 36:0.063037246 37:0.0028653296 38:0.020057306 39:0.057306591 40:0.0085959882 #AHA1_YEAST                    
0.12508636519913365892087142583478 1:0.039413966 2:0.046633415 3:0.039912719 4:0.020324189 5:0.026197007 6:0.0018952618 7:0.030286783 8:0.056508727 9:0.053154614 10:0.081084788 11:0.07776808 12:0.03467581 13:0.0051371572 14:0.018541148 15:0.036246885 16:0.060960099 17:0.088778056 18:0.085149623 19:0.074850373 20:0.072344139 21:0.046192259 22:0.036204744 23:0.02247191 24:0.082397006 25:0.10237204 26:0.078651689 27:0.10362048 28:0.083645441 29:0.036204744 30:0.031210987 31:0.051186018 32:0.036204744 33:0.04993758 34:0.043695379 35:0.082397006 36:0.026217228 37:0.028714107 38:0.0012484394 39:0.054931335 40:0.0024968788 #NAB3_YEAST                    
0.21522963848639353745539892770466 1:0.064302668 2:0.093857564 3:0.040029675 4:0.018664688 5:0.02735905 6:0.014124629 7:0.043412462 8:0.043887239 9:0.058545996 10:0.044154301 11:0.064807124 12:0.041839764 13:0.0073293769 14:0.019970326 15:0.045816023 16:0.094658755 17:0.040860534 18:0.076824926 19:0.044896141 20:0.053768545 21:0.086309522 22:0.047619049 23:0.023809524 24:0.0625 25:0.095238097 26:0.053571429 27:0.047619049 28:0.071428575 29:0.0625 30:0.041666668 31:0.041666668 32:0.065476194 33:0.089285716 34:0.05952381 35:0.047619049 36:0.026785715 37:0.014880952 38:0.017857144 39:0.032738097 40:0.011904762 #ALP13_SCHPO                   
0.099614775077082273746498231048463 1:0.047079999 2:0.10104 3:0.0528 4:0.0128 5:0.034320001 6:0.0063999998 7:0.026079999 8:0.025760001 9:0.078919999 10:0.033599999 11:0.068439998 12:0.063239999 13:0.0024000001 14:0.03032 15:0.040520001 16:0.089560002 17:0.053520001 18:0.062040001 19:0.084119998 20:0.074519999 21:0.08835341 22:0.032128513 23:0.032128513 24:0.080321282 25:0.060240965 26:0.10040161 27:0.052208837 28:0.056224901 29:0.080321282 30:0.020080321 31:0.092369474 32:0.040160641 33:0.096385539 34:0.060240965 35:0.028112451 36:0.040160641 37:0.012048192 38:0.0040160641 39:0.024096385 40:0 #IES3_YEAST                    
0.34538838828863344110331468073127 1:0.04941358 2:0.12228395 3:0.060277779 4:0.01308642 5:0.026172839 6:0.0026234568 7:0.020185186 8:0.02345679 9:0.058858026 10:0.040277779 11:0.078055553 12:0.050493829 13:0.0041049384 14:0.019444445 15:0.058981482 16:0.051172841 17:0.048888888 18:0.0633642 19:0.074537039 20:0.10135803 21:0.068111457 22:0.055727553 23:0.015479876 24:0.12383901 25:0.055727553 26:0.086687304 27:0.05882353 28:0.086687304 29:0.043343652 30:0.024767801 31:0.030959751 32:0.040247679 33:0.12074304 34:0.077399381 35:0.040247679 36:0.034055728 37:0.012383901 38:0.0030959751 39:0.018575851 40:0.0030959751 #AME1_YEAST                    
0.29696601339416883735822239032132 1:0.037747368 2:0.035094738 3:0.037578948 4:0.017663158 5:0.072631583 6:0.004905263 7:0.013010526 8:0.083621055 9:0.083578944 10:0.082589477 11:0.12210526 12:0.056105264 13:0.0094736842 14:0.0047157896 15:0.022042105 16:0.034989472 17:0.076442108 18:0.028526315 19:0.082568422 20:0.027136842 21:0.040084388 22:0.027426161 23:0.0042194091 24:0.035864979 25:0.025316456 26:0.12236287 27:0.088607594 28:0.13080169 29:0.061181433 30:0.014767933 31:0.06329114 32:0.052742615 33:0.033755273 34:0.037974682 35:0.092827007 36:0.07805907 37:0.016877636 38:0.0084388182 39:0.056962024 40:0.0084388182 #AMO1_SCHPO                    
-2 1:0.053976744 2:0.10502326 3:0.064558141 4:0.020232558 5:0.035348836 6:0.0093023255 7:0.03344186 8:0.037139535 9:0.052581396 10:0.040906977 11:0.079255812 12:0.049023256 13:0.0082325581 14:0.026209302 15:0.0667907 16:0.060395349 17:0.03976744 18:0.07709302 19:0.047581397 20:0.06444186 21:0.065268062 22:0.060606062 23:0.030303031 24:0.069930069 25:0.090909094 26:0.044289045 27:0.051282052 28:0.081585079 29:0.044289045 30:0.039627038 31:0.039627038 32:0.060606062 33:0.1002331 34:0.074592076 35:0.039627038 36:0.032634031 37:0.020979021 38:0.0093240095 39:0.037296038 40:0.0069930069 #RMD1_YEAST                    
-2 1:0.048747253 2:0.097604394 3:0.053846154 4:0.01821978 5:0.050175823 6:0.0045934068 7:0.031802196 8:0.043868132 9:0.055956043 10:0.042351648 11:0.067604393 12:0.043934066 13:0.0097582415 14:0.021384615 15:0.072153844 16:0.046791207 17:0.049516484 18:0.086109892 19:0.048087914 20:0.055428572 21:0.044052862 22:0.077092513 23:0.024229076 24:0.059471365 25:0.077092513 26:0.070484579 27:0.077092513 28:0.092511013 29:0.035242289 30:0.039647575 31:0.037444934 32:0.04185022 33:0.11894273 34:0.059471365 35:0.037444934 36:0.037444934 37:0.015418503 38:0.0066079297 39:0.04185022 40:0.0066079297 #UBX3_YEAST                    
-2 1:0.038194608 2:0.11730363 3:0.0496483 4:0.019413834 5:0.036002345 6:0.0092731537 7:0.047737397 8:0.034525204 9:0.070281357 10:0.029859319 11:0.056037515 12:0.037080891 13:0.013681126 14:0.023153575 15:0.048675265 16:0.091887459 17:0.041383352 18:0.080656506 19:0.04622509 20:0.054243844 21:0.11254396 22:0.043376319 23:0.014067995 24:0.069167644 25:0.070339978 26:0.055099647 27:0.042203985 28:0.06799531 29:0.033997655 30:0.055099647 31:0.071512312 32:0.038686987 33:0.11606096 34:0.051582649 35:0.033997655 36:0.048065651 37:0.017584994 38:0.0093786633 39:0.039859321 40:0.0093786633 #NAT1_YEAST                    
1.7814106908679228080671919087763 1:0.06540411 2:0.087691784 3:0.064958908 4:0.028869864 5:0.035821918 6:0.0058493149 7:0.023945205 8:0.063143834 9:0.056383561 10:0.042726029 11:0.05741781 12:0.051746577 13:0.016684931 14:0.022500001 15:0.054726027 16:0.065013699 17:0.036753424 18:0.062301371 19:0.046835616 20:0.055219177 21:0.0705963 22:0.05757368 23:0.020562029 24:0.061000686 25:0.059629884 26:0.054146677 27:0.032213844 28:0.068540096 29:0.045921866 30:0.027416039 31:0.067169294 32:0.073337905 33:0.096641533 34:0.06511309 35:0.045921866 36:0.034270048 37:0.024674434 38:0.0068540098 39:0.071967103 40:0.016449623 #RPC1_YEAST                    
1.1234315592978738607143895933405 1:0.067435898 2:0.069893159 3:0.053846154 4:0.014444444 5:0.035918802 6:0.021495726 7:0.021025641 8:0.059957266 9:0.059188034 10:0.046025641 11:0.093931623 12:0.059273504 13:0.016431624 14:0.026581196 15:0.037307691 16:0.054294873 17:0.02792735 18:0.041111112 19:0.037905984 20:0.059465811 21:0.053533189 22:0.044967879 23:0.023554605 24:0.06423983 25:0.049250536 26:0.051391862 27:0.034261242 28:0.087794431 29:0.044967879 30:0.029978586 31:0.077087797 32:0.089935757 33:0.085653104 34:0.053533189 35:0.051391862 36:0.032119915 37:0.012847966 38:0.017130621 39:0.074946463 40:0.021413276 #CAC2_YEAST                    
2 1:0.070054494 2:0.096811987 3:0.077547684 4:0.022234332 5:0.038501363 6:0.0035422344 7:0.026076294 8:0.094141692 9:0.061307903 10:0.042452317 11:0.075177111 12:0.061961852 13:0.018746594 14:0.016975477 15:0.053378746 16:0.061035421 17:0.027356949 18:0.051280655 19:0.034468666 20:0.043732971 21:0.079234973 22:0.043715846 23:0.013661202 24:0.040983606 25:0.065573767 26:0.035519127 27:0.024590164 28:0.084699452 29:0.051912569 30:0.024590164 31:0.060109291 32:0.071038254 33:0.079234973 34:0.10928962 35:0.049180329 36:0.035519127 37:0.019125683 38:0.010928961 39:0.090163931 40:0.010928961 #RCL1_YEAST                    
-2 1:0.071889766 2:0.083674543 3:0.079842523 4:0.024146982 5:0.036377952 6:0.0036745407 7:0.039370079 8:0.079317585 9:0.069186352 10:0.047690287 11:0.086824149 12:0.060708661 13:0.01328084 14:0.013937008 15:0.030052494 16:0.042519685 17:0.031916011 18:0.047139108 19:0.055800524 20:0.054041997 21:0.060526315 22:0.023684211 23:0.018421052 24:0.060526315 25:0.050000001 26:0.052631579 27:0.039473683 28:0.092105262 29:0.050000001 30:0.044736844 31:0.060526315 32:0.078947365 33:0.078947365 34:0.089473687 35:0.052631579 36:0.028947368 37:0.015789473 38:0 39:0.07631579 40:0.02631579 #ASPG1_YEAST                   
-2 1:0.074509807 2:0.10539216 3:0.064901963 4:0.018137256 5:0.036200982 6:0.0073039215 7:0.016691176 8:0.054044116 9:0.052352943 10:0.050049018 11:0.11394608 12:0.060343139 13:0.005392157 14:0.036004901 15:0.049779411 16:0.050465688 17:0.038602941 18:0.04142157 19:0.050024509 20:0.05110294 21:0.044226043 22:0.054054055 23:0.027027028 24:0.05896806 25:0.03194103 26:0.044226043 27:0.036855038 28:0.12776412 29:0.056511056 30:0.014742015 31:0.083538085 32:0.066339068 33:0.098280095 34:0.068796068 35:0.049140047 36:0.044226043 37:0.017199017 38:0.0073710075 39:0.05896806 40:0.0098280096 #SDS23_SCHPO                   
-2 1:0.066297226 2:0.092418134 3:0.065012597 4:0.023564233 5:0.04220403 6:0.004622166 7:0.016901763 8:0.062418137 9:0.066108309 10:0.055289671 11:0.068589419 12:0.046221662 13:0.009722922 14:0.014710328 15:0.048853904 16:0.062594458 17:0.038148616 18:0.062481109 19:0.043539044 20:0.055214107 21:0.075662039 22:0.046658259 23:0.01891551 24:0.069356874 25:0.054224465 26:0.066834807 27:0.045397226 28:0.068095841 29:0.044136193 30:0.025220681 31:0.041614123 32:0.060529634 33:0.098360658 34:0.095838584 35:0.054224465 36:0.04035309 37:0.01891551 38:0.0025220681 39:0.069356874 40:0.0037831021 #SEC18_CANAL                   
0.40943312733012721116310217439604 1:0.044595122 2:0.10328781 3:0.049160976 4:0.022663414 5:0.038809758 6:0.011073171 7:0.046663415 8:0.040507317 9:0.075834148 10:0.025102438 11:0.05884878 12:0.032507315 13:0.010097561 14:0.021453658 15:0.061112195 16:0.062136587 17:0.045668293 18:0.089385368 19:0.046887804 20:0.064351216 21:0.073242188 22:0.065429688 23:0.017578125 24:0.077148438 25:0.099609375 26:0.05078125 27:0.040039062 28:0.072265625 29:0.032226562 30:0.049804688 31:0.069335938 32:0.051757812 33:0.10742188 34:0.0546875 35:0.021484375 36:0.049804688 37:0.01953125 38:0.010742188 39:0.028320312 40:0.0087890625 #TFC4_YEAST                    
1.0030543220063494747051890954026 1:0.053995881 2:0.11212152 3:0.054407828 4:0.022636456 5:0.048197735 6:0.0094026774 7:0.027528321 8:0.03476828 9:0.059371781 10:0.026158599 11:0.069505662 12:0.042883623 13:0.008970134 14:0.020391349 15:0.065139033 16:0.068589084 17:0.041555099 18:0.084727086 19:0.042245109 20:0.06755922 21:0.072164945 22:0.060824741 23:0.018556701 24:0.074226804 25:0.079381444 26:0.051546391 27:0.037113402 28:0.080412373 29:0.049484536 30:0.036082473 31:0.05257732 32:0.050515465 33:0.12989691 34:0.059793815 35:0.022680413 36:0.058762886 37:0.015463918 38:0.006185567 39:0.031958763 40:0.012371134 #SWI1_SCHPO                    
1.193109841271202675727636233205 1:0.037156548 2:0.1098083 3:0.042891372 4:0.02258786 5:0.035814695 6:0.013210863 7:0.052124601 8:0.036070287 9:0.077156551 10:0.025718849 11:0.063562304 12:0.031469647 13:0.017332269 14:0.021261981 15:0.051277954 16:0.060079873 17:0.040399361 18:0.070463262 19:0.042635784 20:0.052891374 21:0.075199999 22:0.044799998 23:0.0144 24:0.0656 25:0.079999998 26:0.0528 27:0.049600001 28:0.073600002 29:0.0416 30:0.057599999 31:0.067199998 32:0.036800001 33:0.1136 34:0.056000002 35:0.0144 36:0.054400001 37:0.025599999 38:0.016000001 39:0.038400002 40:0.022399999 #CDC23_YEAST                   
-2 1:0.052001908 2:0.10873213 3:0.054280266 4:0.023517637 5:0.044795044 6:0.006081983 7:0.028646329 8:0.033813156 9:0.054156341 10:0.034623452 11:0.065795995 12:0.048112489 13:0.011382269 14:0.015204957 15:0.051696856 16:0.077788368 17:0.039056245 18:0.086882748 19:0.047292661 20:0.059027646 21:0.070610687 22:0.055343512 23:0.017175572 24:0.055343512 25:0.096374042 26:0.056297708 27:0.033396948 28:0.099236645 29:0.049618322 30:0.035305344 31:0.043893129 32:0.052480917 33:0.12977099 34:0.045801528 35:0.033396948 36:0.058206107 37:0.025763359 38:0.0076335878 39:0.020992367 40:0.013358778 #NMD2_SCHPO                    
-2 1:0.051576845 2:0.10560878 3:0.053433135 4:0.025489021 5:0.042295408 6:0.0099999998 7:0.035409182 8:0.021676647 9:0.061816368 10:0.025988024 11:0.049241517 12:0.044451099 13:0.012854291 14:0.02267465 15:0.046846308 16:0.053473055 17:0.047405191 18:0.065069862 19:0.0498004 20:0.053852294 21:0.048 22:0.044 23:0.029999999 24:0.061999999 25:0.088 26:0.054000001 27:0.056000002 28:0.078000002 29:0.056000002 30:0.034000002 31:0.079999998 32:0.054000001 33:0.122 34:0.044 35:0.032000002 36:0.044 37:0.014 38:0.012 39:0.032000002 40:0.016000001 #IF36_SCHPO                    
-1.1926831716299728380903388824663 1:0.068100557 2:0.11351955 3:0.058603354 4:0.015921788 5:0.049441341 6:0.0084916204 7:0.029776536 8:0.067541897 9:0.065865919 10:0.029832402 11:0.069720671 12:0.05055866 13:0.013072626 14:0.020446928 15:0.051564246 16:0.074189946 17:0.03139665 18:0.072737433 19:0.037318435 20:0.068379886 21:0.084269665 22:0.044943821 23:0.02247191 24:0.073033705 25:0.089887641 26:0.033707865 27:0.02247191 28:0.073033705 29:0.050561797 30:0.039325844 31:0.061797753 32:0.050561797 33:0.11235955 34:0.039325844 35:0.033707865 36:0.067415729 37:0.016853932 38:0.0056179776 39:0.056179777 40:0.02247191 #YBY7_YEAST                    
2 1:0.064626865 2:0.077014923 3:0.0655597 4:0.02597015 5:0.046567164 6:0.00085820898 7:0.025261194 8:0.05705224 9:0.095485076 10:0.064738803 11:0.073805973 12:0.060522389 13:0.013544776 14:0.015186567 15:0.049962688 16:0.061007462 17:0.038843285 18:0.044589553 19:0.043656718 20:0.03175373 21:0.063670412 22:0.048689138 23:0.014981274 24:0.041198503 25:0.033707865 26:0.056179777 27:0.037453182 28:0.071161047 29:0.063670412 30:0.02247191 31:0.11985019 32:0.056179777 33:0.074906364 34:0.067415729 35:0.067415729 36:0.052434456 37:0.02247191 38:0 39:0.078651689 40:0.0074906368 #TBP_EMENI                     
2 1:0.062751144 2:0.079646118 3:0.057465754 4:0.027009133 5:0.034092467 6:0.0063242009 7:0.02716895 8:0.063430369 9:0.062151827 10:0.068515979 11:0.073909819 12:0.062134702 13:0.014446347 14:0.020833334 15:0.052591324 16:0.058841325 17:0.03706621 18:0.06232306 19:0.043767124 20:0.052688356 21:0.046830382 22:0.05596802 23:0.017704168 24:0.05882353 25:0.061679039 26:0.037121646 27:0.034837235 28:0.10793832 29:0.062821247 30:0.03826385 31:0.05596802 32:0.05596802 33:0.077669904 34:0.062250141 35:0.075956598 36:0.031981725 37:0.03083952 38:0.009708738 39:0.067390062 40:0.01027984 #RPB1_SCHPO                    
1.3385328824055837682038827551878 1:0.057361703 2:0.087645389 3:0.056070924 4:0.018170213 5:0.040070921 6:0.0025815603 7:0.024936169 8:0.048539009 9:0.048624113 10:0.063234046 11:0.08177305 12:0.051460993 13:0.0098439716 14:0.017815603 15:0.039092198 16:0.054780141 17:0.033900708 18:0.057078015 19:0.044652481 20:0.052964538 21:0.07244318 22:0.038352273 23:0.019886363 24:0.052556816 25:0.0625 26:0.058238637 27:0.04971591 28:0.10085227 29:0.066761367 30:0.028409092 31:0.045454547 32:0.058238637 33:0.089488633 34:0.06818182 35:0.066761367 36:0.051136363 37:0.011363637 38:0.0028409092 39:0.051136363 40:0.0056818184 #DPOA2_YEAST                   
-1.8975694268532443675923104819958 1:0.052828282 2:0.071481481 3:0.045881033 4:0.019887766 5:0.030684624 6:0.0062738494 7:0.02419753 8:0.050022446 9:0.059079684 10:0.065914705 11:0.095634118 12:0.056487095 13:0.0085297422 14:0.024062851 15:0.058439955 16:0.059786756 17:0.035667788 18:0.055387206 19:0.042996634 20:0.042637486 21:0.070786513 22:0.066292137 23:0.026966292 24:0.039325844 25:0.048314605 26:0.047191013 27:0.026966292 28:0.12921348 29:0.059550561 30:0.039325844 31:0.058426965 32:0.059550561 33:0.075280897 34:0.059550561 35:0.080898874 36:0.028089888 37:0.019101124 38:0.0044943821 39:0.055056181 40:0.0056179776 #KIN1_SCHPO                    
-2 1:0.057189811 2:0.080271162 3:0.055110928 4:0.020328676 5:0.040731307 6:0.0080772387 7:0.032530814 8:0.05917009 9:0.070164338 10:0.050041083 11:0.067970417 12:0.054864421 13:0.011610517 14:0.019030403 15:0.053064913 16:0.075069845 17:0.046113394 18:0.060813475 19:0.048545603 20:0.045554642 21:0.070723683 22:0.055098683 23:0.012335527 24:0.04194079 25:0.055098683 26:0.063322365 27:0.050986841 28:0.078125 29:0.074013159 30:0.037828948 31:0.086348683 32:0.059210528 33:0.064967103 34:0.068256579 35:0.052631579 36:0.032894738 37:0.02055921 38:0.01069079 39:0.053453948 40:0.011513158 #MYO1_SCHPO                    
-0.28543353267539128825802663413924 1:0.060126584 2:0.070337556 3:0.05625879 4:0.02257384 5:0.042165965 6:0.0089732772 7:0.032489453 8:0.041870605 9:0.061744023 10:0.071097046 11:0.1066526 12:0.054585092 13:0.021012658 14:0.021603376 15:0.048917018 16:0.053347398 17:0.039395217 18:0.052953586 19:0.046174403 20:0.043206751 21:0.070422538 22:0.045070421 23:0.02253521 24:0.052112676 25:0.04084507 26:0.061971832 27:0.026760563 28:0.12253521 29:0.049295776 30:0.032394364 31:0.053521127 32:0.061971832 33:0.070422538 34:0.060563382 35:0.077464789 36:0.050704226 37:0.01971831 38:0.011267605 39:0.043661971 40:0.026760563 #PYP2_SCHPO                    
2 1:0.059942029 2:0.12173913 3:0.0492029 4:0.015072464 5:0.046434782 6:0.0065652174 7:0.028043479 8:0.040608697 9:0.060811594 10:0.031202899 11:0.072463766 12:0.045942031 13:0.018405797 14:0.027478261 15:0.050579712 16:0.056956522 17:0.04368116 18:0.073159419 19:0.034434784 20:0.046144929 21:0.071117565 22:0.05079826 23:0.027576197 24:0.055152394 25:0.094339624 26:0.040638607 27:0.034833092 28:0.088534109 29:0.052249637 30:0.044992745 31:0.031930335 32:0.05079826 33:0.12917271 34:0.060957909 35:0.02467344 36:0.046444122 37:0.021770682 38:0.010159652 39:0.043541364 40:0.020319303 #ORC3_SCHPO                    
0.36616785242793004062633599460241 1:0.055352341 2:0.11042362 3:0.060427699 4:0.018725051 5:0.04140937 6:0.01002444 7:0.025358452 8:0.041983705 9:0.0573055 10:0.032000002 11:0.079989813 12:0.049122199 13:0.010366599 14:0.018949084 15:0.045877799 16:0.065995924 17:0.041965377 18:0.081916496 19:0.049494907 20:0.060468432 21:0.075168058 22:0.039722957 23:0.016092891 24:0.073742107 25:0.08861275 26:0.058667753 27:0.036463637 28:0.081482992 29:0.053575065 30:0.027907925 31:0.053575065 32:0.051130578 33:0.11509472 34:0.069871664 35:0.031982075 36:0.04603789 37:0.019352211 38:0.010796497 39:0.04277857 40:0.0079445913 #MDN1_YEAST                    
0.10419706177580036199348256786834 1:0.10168539 2:0.11786517 3:0.071235955 4:0.026516855 5:0.027303372 6:0.00056179776 7:0.02247191 8:0.054382022 9:0.038202249 10:0.031573035 11:0.043595504 12:0.049662922 13:0.0067415731 14:0.017977528 15:0.069662921 16:0.045842696 17:0.02 18:0.11730337 19:0.031910114 20:0.089775279 21:0.022727273 22:0.06818182 23:0.011363637 24:0.090909094 25:0.11363637 26:0.045454547 27:0.022727273 28:0.06818182 29:0.079545453 30:0.022727273 31:0.045454547 32:0.079545453 33:0.13636364 34:0.06818182 35:0.022727273 36:0.022727273 37:0.011363637 38:0 39:0.045454547 40:0.022727273 #LSM3_YEAST                    
-2 1:0.057045251 2:0.11324756 3:0.062165041 4:0.01555457 5:0.048873115 6:0.0081987577 7:0.024276841 8:0.031038154 9:0.049281277 10:0.035767525 11:0.087941438 12:0.043141082 13:0.0069920141 14:0.017071873 15:0.054099377 16:0.064472049 17:0.046086956 18:0.068358473 19:0.053664595 20:0.057116237 21:0.081705153 22:0.040852576 23:0.020426288 24:0.063055061 25:0.071936056 26:0.069271758 27:0.040852576 28:0.091474243 29:0.044404972 30:0.029307282 31:0.036412079 32:0.04706927 33:0.13143872 34:0.073712252 35:0.031083481 36:0.061278865 37:0.018650088 38:0.0062166965 39:0.034635879 40:0.0062166965 #MDM1_YEAST                    
-2 1:0.055983458 2:0.10837317 3:0.054632355 4:0.022463236 5:0.038327206 6:0.0070955884 7:0.031911764 8:0.03883272 9:0.053566176 10:0.032637868 11:0.086479783 12:0.049880516 13:0.0080330884 14:0.020533089 15:0.049136028 16:0.057766546 17:0.044126838 18:0.06561581 19:0.054494485 20:0.055946693 21:0.066237353 22:0.050597977 23:0.02299908 24:0.061637536 25:0.068997242 26:0.059797607 27:0.036798529 28:0.10119595 29:0.046918124 30:0.045078196 31:0.041398343 32:0.064397424 33:0.11223551 34:0.057957683 35:0.030358786 36:0.049678013 37:0.025758971 38:0.0045998162 39:0.041398343 40:0.011959522 #SEC8_SCHPO                    
-2 1:0.06157764 2:0.1008323 3:0.063440993 4:0.028099379 5:0.040795032 6:0.0082111806 7:0.033304349 8:0.030621119 9:0.056062113 10:0.024695652 11:0.060534161 12:0.045267079 13:0.010795031 14:0.014819875 15:0.046596274 16:0.071118012 17:0.046024844 18:0.088484474 19:0.042037267 20:0.0657764 21:0.084577113 22:0.039800994 23:0.014925373 24:0.069651738 25:0.094527364 26:0.048507463 27:0.044776119 28:0.06467662 29:0.052238807 30:0.037313432 31:0.043532338 32:0.060945272 33:0.10323383 34:0.084577113 35:0.02238806 36:0.052238807 37:0.024875622 38:0.0087064672 39:0.037313432 40:0.01119403 #SEC6_YEAST                    
1.1019281096744126813291586586274 1:0.073835127 2:0.054802869 3:0.052939069 4:0.026129032 5:0.039784946 6:0.0048387097 7:0.029641578 8:0.092473119 9:0.072186381 10:0.034050178 11:0.080824375 12:0.062401433 13:0.0079211472 14:0.027455198 15:0.033691756 16:0.044050179 17:0.053476702 18:0.048709676 19:0.057992831 20:0.059354838 21:0.035971224 22:0.025179856 23:0.043165468 24:0.050359711 25:0.053956833 26:0.064748198 27:0.071942449 28:0.06115108 29:0.068345323 30:0.043165468 31:0.097122304 32:0.071942449 33:0.053956833 34:0.071942449 35:0.032374099 36:0.043165468 37:0.01438849 38:0.0035971224 39:0.093525179 40:0 #RFA2_SCHPO                    
1.0813636170711065087601809864282 1:0.058052257 2:0.066270784 3:0.061496437 4:0.018432304 5:0.054560572 6:0.017315915 7:0.03175772 8:0.050593823 9:0.05871734 10:0.049596198 11:0.075961992 12:0.050617576 13:0.01351544 14:0.018432304 15:0.044845607 16:0.093064129 17:0.03047506 18:0.062019002 19:0.047125891 20:0.059311163 21:0.10714286 22:0.033333335 23:0.028571429 24:0.047619049 25:0.061904762 26:0.047619049 27:0.042857144 28:0.11190476 29:0.050000001 30:0.040476192 31:0.047619049 32:0.047619049 33:0.064285718 34:0.078571431 35:0.047619049 36:0.061904762 37:0.011904762 38:0.01904762 39:0.040476192 40:0.0095238099 #PNK1_SCHPO                    
2 1:0.072363637 2:0.081181817 3:0.057181817 4:0.020545455 5:0.04231818 6:0.0086363638 7:0.029863637 8:0.051636364 9:0.081318185 10:0.042363636 11:0.061909091 12:0.05881818 13:0.012409091 14:0.012181818 15:0.04340909 16:0.06081818 17:0.050500002 18:0.071500003 19:0.045272727 20:0.073681816 21:0.08219178 22:0.036529679 23:0.022831051 24:0.063926943 25:0.063926943 26:0.05479452 27:0.050228309 28:0.02739726 29:0.059360731 30:0.04109589 31:0.077625573 32:0.08219178 33:0.077625573 34:0.050228309 35:0.05479452 36:0.05479452 37:0.01369863 38:0.01369863 39:0.059360731 40:0.01369863 #GSP2_YEAST                    
-0.96644114009532378073430436415947 1:0.057324413 2:0.084949836 3:0.041454848 4:0.019515051 5:0.039063547 6:0.012792642 7:0.03215719 8:0.051254179 9:0.059933111 10:0.049882945 11:0.058160536 12:0.043026756 13:0.0098996656 14:0.017207358 15:0.038595319 16:0.075033441 17:0.03826087 18:0.067725755 19:0.042859532 20:0.061036788 21:0.085427135 22:0.041876048 23:0.018425461 24:0.075376883 25:0.070351757 26:0.036850922 27:0.040201005 28:0.050251257 29:0.046901174 30:0.028475711 31:0.093802348 32:0.068676718 33:0.080402009 34:0.050251257 35:0.058626465 36:0.036850922 37:0.01675042 38:0.013400335 39:0.080402009 40:0.0067001674 #NMT_CRYNV                     
-1.3841292753386256197956072355737 1:0.064931504 2:0.06109589 3:0.041278537 4:0.015296804 5:0.040136985 6:0.013105023 7:0.032191779 8:0.058904111 9:0.059863012 10:0.061232876 11:0.055479452 12:0.054246575 13:0.00369863 14:0.023515983 15:0.030319635 16:0.052054796 17:0.033013698 18:0.050365295 19:0.049132422 20:0.047671232 21:0.087155961 22:0.013761468 23:0.027522936 24:0.059633028 25:0.055045873 26:0.050458714 27:0.050458714 28:0.087155961 29:0.068807341 30:0.036697246 31:0.082568809 32:0.050458714 33:0.064220183 34:0.032110091 35:0.068807341 36:0.064220183 37:0.018348623 38:0.013761468 39:0.059633028 40:0.0091743115 #CPYI_YEAST                    
-2 1:0.040817566 2:0.056763515 3:0.037175674 4:0.028121622 5:0.028432433 6:0.005087838 7:0.017060811 8:0.068405405 9:0.079499997 10:0.096851349 11:0.087074324 12:0.06370946 13:0.0014797298 14:0.010891892 15:0.03764189 16:0.049067568 17:0.092621624 18:0.059972972 19:0.044675674 20:0.044824325 21:0.052738335 22:0.0270453 23:0.0074374578 24:0.043948613 25:0.0540906 26:0.072346181 27:0.10209601 28:0.10006762 29:0.070317782 30:0.022988506 31:0.070993915 32:0.041244082 33:0.060851928 34:0.047329277 35:0.10141988 36:0.031778228 37:0.02163624 38:0.00270453 39:0.066260986 40:0.00270453 #PAN1_YEAST                    
0.13773112754673930147042426597181 1:0.036238533 2:0.05262997 3:0.038042814 4:0.040458716 5:0.029480122 6:0.0061162082 7:0.017828746 8:0.064128444 9:0.065657489 10:0.082446486 11:0.097003058 12:0.056452598 13:0.0025382263 14:0.0081039751 15:0.028287461 16:0.04996942 17:0.041773699 18:0.064556576 19:0.070366971 20:0.097247705 21:0.046012271 22:0.033742331 23:0.0061349692 24:0.10736196 25:0.055214725 26:0.088957056 27:0.042944785 28:0.12269939 29:0.061349694 30:0.021472393 31:0.055214725 32:0.036809817 33:0.067484662 34:0.042944785 35:0.082822084 36:0.030674847 37:0.036809817 38:0.0061349692 39:0.055214725 40:0 #FIP1_YEAST                    
0.14667069975889682198477714791807 1:0.037186205 2:0.046744827 3:0.024827586 4:0.028896552 5:0.03412414 6:0.0071034483 7:0.017503448 8:0.07085517 9:0.081255175 10:0.096675865 11:0.13059311 12:0.064717241 13:0.0070206895 14:0.030565517 15:0.051158622 16:0.030317241 17:0.054744828 18:0.031931035 19:0.055365518 20:0.05084138 21:0.026243094 22:0.053867403 23:0.031767957 24:0.048342541 25:0.034530386 26:0.051104974 27:0.048342541 28:0.14088398 29:0.060773481 30:0.01519337 31:0.095303871 32:0.042817678 33:0.066298343 34:0.023480663 35:0.11049724 36:0.035911601 37:0.023480663 38:0.0082872929 39:0.07596685 40:0.0069060773 #AREA_PENCH                    
0.57760392888701161950848472770303 1:0.050408758 2:0.12213138 3:0.073795624 4:0.024861313 5:0.047737226 6:0.0098394165 7:0.041927006 8:0.027970802 9:0.04521168 10:0.025605839 11:0.081094891 12:0.048306569 13:0.016102189 14:0.019635037 15:0.040978104 16:0.059737228 17:0.036817517 18:0.066846713 19:0.057051096 20:0.054496352 21:0.067251459 22:0.036549706 23:0.014619883 24:0.059941519 25:0.076023392 26:0.073099412 27:0.036549706 28:0.092105262 29:0.049707603 30:0.039473683 31:0.03508772 32:0.052631579 33:0.12573099 34:0.086257309 35:0.024853801 36:0.051169589 37:0.024853801 38:0.010233918 39:0.02631579 40:0.01754386 #APC5_YEAST                    
-2 1:0.059569471 2:0.12305284 3:0.071682975 4:0.016360078 5:0.044735812 6:0.0087084146 7:0.022915851 8:0.039999999 9:0.041291583 10:0.037005872 11:0.090567514 12:0.059001956 13:0.012387476 14:0.022348337 15:0.052622311 16:0.066594914 17:0.030508807 18:0.061448142 19:0.06594912 20:0.053581212 21:0.072549023 22:0.039215688 23:0.023529412 24:0.054901961 25:0.064705886 26:0.068627454 27:0.025490196 28:0.096078433 29:0.056862745 30:0.031372551 31:0.037254903 32:0.05882353 33:0.13333334 34:0.088235296 35:0.037254903 36:0.054901961 37:0.0039215689 38:0.011764706 39:0.027450981 40:0.01372549 #ALP21_SCHPO                   
-2 1:0.053048182 2:0.094542772 3:0.056086529 4:0.021543756 5:0.038466077 6:0.0075614555 7:0.026155358 8:0.04328417 9:0.057826944 10:0.039036382 11:0.07244838 12:0.052497543 13:0.034051131 14:0.02608653 15:0.047984269 16:0.06780728 17:0.038554572 18:0.06666667 19:0.046283185 20:0.04892822 21:0.085629918 22:0.04035433 23:0.022637796 24:0.049212597 25:0.063976377 26:0.062007874 27:0.039370079 28:0.083661415 29:0.066929132 30:0.041338582 31:0.043307088 32:0.049212597 33:0.10433071 34:0.068897635 35:0.041338582 36:0.042322833 37:0.024606299 38:0.0078740157 39:0.033464566 40:0.02952756 #LRG1_YEAST                    
0.10249043000099881950415436904223 1:0.063287668 2:0.10369863 3:0.050958905 4:0.026164383 5:0.017054794 6:0.0009589041 7:0.011780822 8:0.049315069 9:0.027808219 10:0.037534248 11:0.058356166 12:0.061986301 13:0.0010958904 14:0.015205479 15:0.071232878 16:0.076643832 17:0.025616439 18:0.031712327 19:0.070342466 20:0.04130137 21:0.068965517 22:0.08275862 23:0 24:0.048275862 25:0.013793103 26:0.096551724 27:0.075862072 28:0.075862072 29:0.062068965 30:0.013793103 31:0.055172414 32:0.04137931 33:0.14482759 34:0.068965517 35:0.055172414 36:0.013793103 37:0.013793103 38:0.0068965517 39:0.062068965 40:0 #SMD1_YEAST                    
0.40111691885205147389825697246124 1:0.042957317 2:0.061219513 3:0.044725608 4:0.022972561 5:0.045167685 6:0.006265244 7:0.042591464 8:0.047621951 9:0.068490855 10:0.06359756 11:0.088353656 12:0.067576222 13:0.0053658537 14:0.017835366 15:0.030503049 16:0.056402437 17:0.076143295 18:0.049390245 19:0.069115855 20:0.050015245 21:0.059541985 22:0.027480915 23:0.019847328 24:0.045801528 25:0.051908396 26:0.071755722 27:0.080916032 28:0.088549621 29:0.08549618 30:0.047328245 31:0.082442746 32:0.039694656 33:0.058015268 34:0.047328245 35:0.056488551 36:0.045801528 37:0.022900764 38:0.0061068702 39:0.056488551 40:0.0061068702 #CPH1_CANAL                    
0.46085776040153225707740602956619 1:0.065519124 2:0.066147543 3:0.042213116 4:0.024071038 5:0.018797815 6:0.0059289616 7:0.043278687 8:0.044945356 9:0.073797815 10:0.090245903 11:0.091229506 12:0.07579235 13:0.0054918034 14:0.032131147 15:0.046120219 16:0.038333334 17:0.064316943 18:0.041775957 19:0.061857924 20:0.030245902 21:0.049315069 22:0.049315069 23:0.02739726 24:0.032876711 25:0.052054796 26:0.06849315 27:0.052054796 28:0.087671235 29:0.084931508 30:0.038356163 31:0.079452053 32:0.065753423 33:0.06849315 34:0.063013695 35:0.093150683 36:0.024657534 37:0.019178081 38:0.0054794522 39:0.032876711 40:0.0054794522 #PHD1_YEAST                    
-2 1:0.070341878 2:0.072564103 3:0.043717947 4:0.018461538 5:0.041709401 6:0.0091025643 7:0.033846155 8:0.080470085 9:0.049316239 10:0.044914529 11:0.072948717 12:0.047606837 13:0.012521368 14:0.012051282 15:0.054273505 16:0.072136752 17:0.036709402 18:0.078333333 19:0.035683762 20:0.074444443 21:0.06437768 22:0.06437768 23:0.012875536 24:0.060085837 25:0.094420604 26:0.06437768 27:0.042918455 28:0.072961375 29:0.051502146 30:0.034334764 31:0.038626611 32:0.077253222 33:0.090128757 34:0.038626611 35:0.060085837 36:0.042918455 37:0.0042918455 38:0.012875536 39:0.06437768 40:0.008583691 #ALP11_SCHPO                   
-2 1:0.036976192 2:0.080642857 3:0.043000001 4:0.016261905 5:0.021071428 6:0.0037619048 7:0.029285714 8:0.03104762 9:0.062190477 10:0.042571429 11:0.070095241 12:0.052000001 13:0.013238096 14:0.026119048 15:0.044309523 16:0.068761908 17:0.059428573 18:0.11992857 19:0.057619046 20:0.078261904 21:0.066825777 22:0.050119333 23:0.028639618 24:0.081145585 25:0.13126491 26:0.057279237 27:0.0548926 28:0.066825777 29:0.05966587 30:0.040572792 31:0.05966587 32:0.033412889 33:0.088305488 34:0.050119333 35:0.045346063 36:0.019093079 37:0.019093079 38:0.0047732699 39:0.023866348 40:0.019093079 #DEP1_YEAST                    
-2 1:0.066567943 2:0.076777004 3:0.053797908 4:0.033222996 5:0.027212543 6:0.0059930314 7:0.022595819 8:0.058362368 9:0.067212544 10:0.082125433 11:0.11020906 12:0.067857146 13:0.0085714282 14:0.015522648 15:0.067386761 16:0.037874565 17:0.028623693 18:0.040958188 19:0.055087108 20:0.04433798 21:0.040139616 22:0.068062827 23:0.013961606 24:0.047120418 25:0.04886562 26:0.047120418 27:0.027923211 28:0.11518325 29:0.069808029 30:0.022687608 31:0.069808029 32:0.068062827 33:0.083769634 34:0.054101221 35:0.082024433 36:0.033158813 37:0.033158813 38:0.0069808029 39:0.055846423 40:0.012216405 #YCI2_SCHPO                    
2 1:0.055885207 2:0.10253032 3:0.054074373 4:0.015012126 5:0.047970898 6:0.010129346 7:0.027687956 8:0.043225545 9:0.05593371 10:0.044349231 11:0.07892482 12:0.049717057 13:0.0085044466 14:0.023274051 15:0.04282134 16:0.068488277 17:0.034915116 18:0.059757479 19:0.043936945 20:0.052206952 21:0.087378643 22:0.031553399 23:0.023462784 24:0.053398058 25:0.057443365 26:0.064724922 27:0.033980582 28:0.09223301 29:0.063106798 30:0.036407769 31:0.047734629 32:0.050161812 33:0.11407767 34:0.064724922 35:0.046116505 36:0.063915856 37:0.011326861 38:0.0064724921 39:0.042880259 40:0.0088996766 #UTP22_YEAST                   
0.16842568913743927172532721669995 1:0.054100506 2:0.12204814 3:0.06322635 4:0.021908784 5:0.043205235 6:0.013213682 7:0.033733107 8:0.038226351 9:0.059493244 10:0.030764358 11:0.073327705 12:0.048910473 13:0.016355574 14:0.02301098 15:0.051765203 16:0.060299832 17:0.041630067 18:0.058568411 19:0.046144426 20:0.051963683 21:0.078580484 22:0.044359948 23:0.020278834 24:0.059146598 25:0.055766795 26:0.05999155 27:0.040557668 28:0.083650187 29:0.053654414 30:0.040980145 31:0.046049852 32:0.048162229 33:0.12843262 34:0.077313058 35:0.029995775 36:0.050697085 37:0.01858893 38:0.013519223 39:0.035910435 40:0.014364174 #MEC1_YEAST                    
0.023818874233580176330571376297485 1:0.044389438 2:0.062838286 3:0.044092409 4:0.015082508 5:0.023861386 6:0.0073267329 7:0.022145215 8:0.053135313 9:0.062673271 10:0.032673266 11:0.095643565 12:0.038976897 13:0.0007920792 14:0.012310231 15:0.052772276 16:0.11161716 17:0.045115512 18:0.13419142 19:0.036864687 20:0.082805283 21:0.086092718 22:0.072847679 23:0.013245033 24:0.079470202 25:0.12582782 26:0.033112582 27:0.066225164 28:0.092715234 29:0.033112582 30:0.029801324 31:0.069536425 32:0.046357617 33:0.089403972 34:0.03642384 35:0.033112582 36:0.016556291 37:0 38:0.0099337753 39:0.066225164 40:0 #SWC5_YEAST                    
-2 1:0.057045694 2:0.1038576 3:0.061466526 4:0.0234644 5:0.040053137 6:0.006981934 7:0.029426143 8:0.045759831 9:0.059160467 10:0.035855472 11:0.074165784 12:0.056259297 13:0.015409139 14:0.020701382 15:0.046099894 16:0.065749206 17:0.038480341 18:0.063496284 19:0.04261424 20:0.049628057 21:0.080851063 22:0.044680852 23:0.024468085 24:0.04893617 25:0.062765956 26:0.057446808 27:0.040425532 28:0.093617022 29:0.061702128 30:0.027659575 31:0.04893617 32:0.05319149 33:0.11595745 34:0.070212767 35:0.038297873 36:0.050000001 37:0.019148936 38:0.0074468087 39:0.040425532 40:0.013829787 #MSH1_SCHPO                    
-2 1:0.056514163 2:0.12152506 3:0.06797386 4:0.026786493 5:0.039106753 6:0.01087146 7:0.022342049 8:0.037864923 9:0.070359476 10:0.044923749 11:0.064640522 12:0.041122004 13:0.023551198 14:0.019651417 15:0.033485837 16:0.040849674 17:0.048529413 18:0.065305009 19:0.04946623 20:0.063344225 21:0.047982551 22:0.025081789 23:0.020719739 24:0.076335877 25:0.0697928 26:0.062159214 27:0.040348966 28:0.074154854 29:0.050163578 30:0.022900764 31:0.061068702 32:0.05561614 33:0.12104689 34:0.082878955 35:0.040348966 36:0.05125409 37:0.029443838 38:0.01308615 39:0.038167939 40:0.0174482 #IMB2_YEAST                    
-2 1:0.060469169 2:0.14373995 3:0.065241285 4:0.019986596 5:0.03489276 6:0.0068096514 7:0.019075068 8:0.025509384 9:0.084008045 10:0.041099194 11:0.081608579 12:0.052788205 13:0.023016086 14:0.014624665 15:0.042855229 16:0.061890081 17:0.045013405 18:0.067533515 19:0.047050938 20:0.045563001 21:0.063087247 22:0.041610736 23:0.020134227 24:0.048322149 25:0.061744966 26:0.056375839 27:0.04966443 28:0.084563762 29:0.059060402 30:0.024161074 31:0.071140938 32:0.041610736 33:0.147651 34:0.085906044 35:0.038926173 36:0.040268455 37:0.013422819 38:0.0067114094 39:0.017449664 40:0.028187919 #RNG3_SCHPO                    
0.37933358147792467507386504621536 1:0.053821784 2:0.07 3:0.041029703 4:0.017663367 5:0.029227722 6:0.017306931 7:0.022079207 8:0.058415841 9:0.063782178 10:0.04891089 11:0.080693066 12:0.053643566 13:0.0053663366 14:0.018415842 15:0.03819802 16:0.060950495 17:0.046693068 18:0.09792079 19:0.06257426 20:0.068198018 21:0.071428575 22:0.027777778 23:0.025793651 24:0.081349209 25:0.10515873 26:0.077380955 27:0.057539683 28:0.083333336 29:0.057539683 30:0.021825397 31:0.057539683 32:0.063492067 33:0.05952381 34:0.041666668 35:0.045634922 36:0.037698414 37:0.017857144 38:0.015873017 39:0.049603175 40:0.0019841271 #SMI1_YEAST                    
1.5214272570204281365136012027506 1:0.043741006 2:0.06916067 3:0.048657075 4:0.012470024 5:0.042877696 6:0.0075299758 7:0.023980815 8:0.04033573 9:0.060599521 10:0.054196641 11:0.055755395 12:0.045419663 13:0.007122302 14:0.017961631 15:0.033453237 16:0.076618709 17:0.047338128 18:0.11911271 19:0.041606713 20:0.089208633 21:0.067307696 22:0.033653848 23:0.009615385 24:0.09375 25:0.14423077 26:0.045673076 27:0.067307696 28:0.05528846 29:0.043269232 30:0.024038462 31:0.048076924 32:0.03846154 33:0.09375 34:0.057692308 35:0.052884616 36:0.048076924 37:0.0072115385 38:0.009615385 39:0.050480768 40:0.009615385 #NAP1_YEAST                    
1.9144788323103223426357999414904 1:0.052831717 2:0.084983818 3:0.043511327 4:0.019935274 5:0.035307445 6:0.0044012945 7:0.020809062 8:0.05001618 9:0.067621358 10:0.047378641 11:0.064190939 12:0.042686082 13:0.012313915 14:0.017605178 15:0.053106796 16:0.089741103 17:0.03566343 18:0.10592233 19:0.043495145 20:0.075161815 21:0.092382498 22:0.053484604 23:0.016207455 24:0.079416528 25:0.11831442 26:0.045380875 27:0.030794166 28:0.056726094 29:0.050243113 30:0.025931928 31:0.08427877 32:0.053484604 33:0.077795789 34:0.050243113 35:0.043760128 36:0.042139385 37:0.016207455 38:0.0016207455 39:0.050243113 40:0.011345219 #NOP2_YEAST                    
-2 1:0.05458042 2:0.079370633 3:0.055804197 4:0.020454545 5:0.035839159 6:0.0074475524 7:0.026678322 8:0.051188812 9:0.049335666 10:0.037552446 11:0.042097904 12:0.033916082 13:0.0087762242 14:0.015734266 15:0.048496503 16:0.076293707 17:0.038916085 18:0.10265734 19:0.055069931 20:0.086608395 21:0.077192985 22:0.056140352 23:0.01754386 24:0.087719299 25:0.1368421 26:0.070175439 27:0.03508772 28:0.056140352 29:0.01754386 30:0.028070176 31:0.052631579 32:0.052631579 33:0.077192985 34:0.063157894 35:0.028070176 36:0.045614034 37:0.01754386 38:0.003508772 39:0.070175439 40:0.007017544 #PLP2_YEAST                    
-2 1:0.0610101 2:0.064999998 3:0.055202018 4:0.039040405 5:0.021262627 6:0.02020202 7:0.014292929 8:0.047424242 9:0.042777777 10:0.047929294 11:0.066616163 12:0.049797978 13:0.0082828281 14:0.017474748 15:0.031919193 16:0.10823233 17:0.052070707 18:0.10323232 19:0.03560606 20:0.077070706 21:0.11167513 22:0.035532996 23:0.020304568 24:0.076142132 25:0.10659899 26:0.02538071 27:0.05076142 28:0.081218272 29:0.060913704 30:0.010152284 31:0.071065992 32:0.071065992 33:0.05076142 34:0.05076142 35:0.060913704 36:0.020304568 37:0.035532996 38:0.020304568 39:0.040609136 40:0 #NUDC_EMENI                    
-2 1:0.043925926 2:0.085555553 3:0.041496295 4:0.015288888 5:0.03614815 6:0.010607407 7:0.019718518 8:0.041096296 9:0.066355556 10:0.040222224 11:0.080044441 12:0.051155556 13:0.0034814815 14:0.019051852 15:0.050029628 16:0.067348145 17:0.048296295 18:0.095422223 19:0.045022223 20:0.06171852 21:0.087537095 22:0.047477745 23:0.013353116 24:0.068249255 25:0.10385757 26:0.065281898 27:0.040059347 28:0.10385757 29:0.051928785 30:0.017804155 31:0.0578635 32:0.045994066 33:0.089020774 34:0.053412464 35:0.037091989 36:0.047477745 37:0.014836796 38:0.0089020776 39:0.043026708 40:0.002967359 #VPS5_YEAST                    
0.025942172949977866658333169880279 1:0.042727273 2:0.054545455 3:0.037272729 4:0.035454545 5:0.034545455 6:0.0081818178 7:0.039090909 8:0.061500002 9:0.053272728 10:0.056363635 11:0.08668182 12:0.047409091 13:0.0045454544 14:0.012409091 15:0.060318183 16:0.056363635 17:0.06818182 18:0.054545455 19:0.060909092 20:0.082954548 21:0.05479452 22:0.059360731 23:0.01369863 24:0.08219178 25:0.04109589 26:0.06849315 27:0.091324203 28:0.10958904 29:0.05479452 30:0.04109589 31:0.050228309 32:0.031963471 33:0.063926943 34:0.04109589 35:0.059360731 36:0.036529679 37:0.022831051 38:0.0091324197 39:0.063926943 40:0.0045662099 #ROX3_YEAST                    
0.21954828418567026715457757291006 1:0.056058519 2:0.12493976 3:0.064612739 4:0.024251292 5:0.039432015 6:0.0074354559 7:0.025249571 8:0.032530122 9:0.069913939 10:0.055490535 11:0.082857139 12:0.056196213 13:0.011652323 14:0.017538726 15:0.038726334 16:0.053407919 17:0.039104991 18:0.058915664 19:0.055301204 20:0.050929431 21:0.068965517 22:0.043103449 23:0.012068965 24:0.046551723 25:0.062068965 26:0.053448275 27:0.036206897 28:0.093103446 29:0.053448275 30:0.027586207 31:0.070689656 32:0.046551723 33:0.13965517 34:0.067241378 35:0.058620691 36:0.046551723 37:0.018965518 38:0.0068965517 39:0.03275862 40:0.015517241 #RSC9_YEAST                    
1.9729639936640073205609269280103 1:0.055887096 2:0.12559298 3:0.07108634 4:0.01980076 5:0.047016129 6:0.0081831124 7:0.02975332 8:0.029549336 9:0.06345351 10:0.045156546 11:0.070811197 12:0.049810246 13:0.011541746 14:0.022699241 15:0.041081592 16:0.055796962 17:0.05223909 18:0.061048388 19:0.056247629 20:0.047044594 21:0.06359753 22:0.040341716 23:0.016136687 24:0.052681539 25:0.060275272 26:0.059326056 27:0.0616991 28:0.075462744 29:0.058376838 30:0.022781206 31:0.058851447 32:0.06359753 33:0.13051732 34:0.077361174 35:0.041290935 36:0.054579973 37:0.020408163 38:0.0090175606 39:0.027527289 40:0.0061699096 #NOT1_YEAST                    
-2 1:0.046804566 2:0.12861626 3:0.075021401 4:0.012425107 5:0.045848787 6:0.0096005704 7:0.04088445 8:0.021554921 9:0.039129816 10:0.021697575 11:0.077703282 12:0.047689017 13:0.0070613408 14:0.016490728 15:0.032025676 16:0.073380888 17:0.047631953 18:0.074165478 19:0.074365191 20:0.056447931 21:0.078571431 22:0.028571429 23:0.017142856 24:0.058571428 25:0.059999999 26:0.09142857 27:0.059999999 28:0.085714288 29:0.052857142 30:0.045714285 31:0.039999999 32:0.057142857 33:0.13142857 34:0.071428575 35:0.024285715 36:0.045714285 37:0.014285714 38:0.0085714282 39:0.021428572 40:0.0071428572 #TIP20_YEAST                   
-2 1:0.053590503 2:0.12323442 3:0.069169141 4:0.016127596 5:0.048753709 6:0.0070919883 7:0.037982196 8:0.028679525 9:0.048071217 10:0.032908011 11:0.068204746 12:0.05430267 13:0.018115727 14:0.014406528 15:0.033620179 16:0.071246289 17:0.028397625 18:0.077789314 19:0.049718101 20:0.061439168 21:0.093610696 22:0.032689448 23:0.0089153042 24:0.065378897 25:0.07726597 26:0.049034175 27:0.037147101 28:0.072808318 29:0.063893013 30:0.04754829 31:0.038632985 32:0.069836549 33:0.12481426 34:0.066864781 35:0.031203566 36:0.052005943 37:0.011887073 38:0.0059435363 39:0.029717682 40:0.020802377 #YBP1_YEAST                    
0.37495992607044481559341875254177 1:0.02983683 2:0.056293707 3:0.035384614 4:0.011188812 5:0.03885781 6:0.002144522 7:0.026293706 8:0.052820511 9:0.033123542 10:0.036060605 11:0.072214454 12:0.056200467 13:0.054685313 14:0.07272727 15:0.059393939 16:0.10533799 17:0.044708624 18:0.070256412 19:0.033170164 20:0.028298369 21:0.10280374 22:0.053738318 23:0.06775701 24:0.044392522 25:0.081775703 26:0.058411215 27:0.053738318 28:0.081775703 29:0.053738318 30:0.028037382 31:0.01635514 32:0.037383176 33:0.093457945 34:0.049065422 35:0.039719626 36:0.03504673 37:0.0093457941 38:0.004672897 39:0.042056076 40:0.046728972 #TF3A_YEAST                    
0.1657884012505564386152911993122 1:0.04407547 2:0.068314463 3:0.050125785 4:0.012566037 5:0.023710692 6:0.0043773586 7:0.015861636 8:0.032301888 9:0.045761008 10:0.044943396 11:0.081308179 12:0.059257861 13:0.0034213837 14:0.0096352203 15:0.048792452 16:0.087471701 17:0.048490565 18:0.11919497 19:0.055031445 20:0.073169813 21:0.098236777 22:0.050377835 23:0.013853904 24:0.078085646 25:0.10957178 26:0.065491185 27:0.0604534 28:0.094458438 29:0.066750631 30:0.01511335 31:0.044080604 32:0.039042823 33:0.069269523 34:0.055415615 35:0.052896727 36:0.028967254 37:0.012594459 38:0.0062972293 39:0.035264485 40:0.0037783375 #VPS72_YEAST                   
1.5538184635889737972291868572938 1:0.04928717 2:0.079470471 3:0.056456212 4:0.015845213 5:0.018696537 6:0.0037474541 7:0.014256619 8:0.031262729 9:0.066720977 10:0.040794298 11:0.10503055 12:0.056089614 13:0.0054378817 14:0.022790223 15:0.059205703 16:0.065050915 17:0.046293277 18:0.13283096 19:0.069755599 20:0.057841141 21:0.071428575 22:0.059183672 23:0.020408163 24:0.059183672 25:0.12653062 26:0.077551022 27:0.044897959 28:0.097959183 29:0.06530612 30:0.012244898 31:0.059183672 32:0.042857144 33:0.089795917 34:0.06122449 35:0.036734693 36:0.022448979 37:0.014285714 38:0.0020408162 39:0.028571429 40:0.008163265 #YOS2_SCHPO                    
-2 1:0.060743801 2:0.072334714 3:0.048264463 4:0.026714876 5:0.034297522 6:0.0045661158 7:0.026900826 8:0.040785123 9:0.053491734 10:0.027086778 11:0.061838843 12:0.039814051 13:0.0097520659 14:0.025061984 15:0.064834714 16:0.097685948 17:0.02803719 18:0.085247934 19:0.04481405 20:0.076611571 21:0.10973085 22:0.057971016 23:0.028985508 24:0.082815737 25:0.099378884 26:0.045548655 27:0.022774328 28:0.07867495 29:0.037267081 30:0.043478262 31:0.053830229 32:0.057971016 33:0.076604553 34:0.053830229 35:0.026915114 36:0.049689442 37:0.020703934 38:0.0020703934 39:0.045548655 40:0.0062111802 #RIO1_YEAST                    
-2 1:0.067722775 2:0.081782177 3:0.046237625 4:0.02079208 5:0.031534653 6:0.010148515 7:0.04059406 8:0.052821781 9:0.04891089 10:0.049851485 11:0.067673266 12:0.056287128 13:0.0062376237 14:0.019158415 15:0.035792079 16:0.09707921 17:0.031633664 18:0.099702969 19:0.032722771 20:0.070742577 21:0.12935324 22:0.024875622 23:0.014925373 24:0.069651738 25:0.099502489 26:0.05472637 27:0.029850746 28:0.069651738 29:0.05472637 30:0.044776119 31:0.05472637 32:0.074626863 33:0.084577113 34:0.06467662 35:0.039800994 36:0.039800994 37:0 38:0.0099502485 39:0.039800994 40:0 #GDIR_YEAST                    
-2 1:0.058658008 2:0.09021645 3:0.055757575 4:0.019588744 5:0.037619047 6:0.0096969698 7:0.033225108 8:0.057662338 9:0.067012988 10:0.04134199 11:0.056796536 12:0.042683981 13:0.015909091 14:0.020952381 15:0.051709957 16:0.083008654 17:0.043246754 18:0.090129867 19:0.042554114 20:0.051212121 21:0.097613886 22:0.043383949 23:0.019522777 24:0.045553144 25:0.11930586 26:0.049891539 27:0.045553144 28:0.060737528 29:0.026030369 30:0.045553144 31:0.067245118 32:0.062906727 33:0.080260307 34:0.062906727 35:0.039045554 36:0.036876354 37:0.0086767897 38:0.013015185 39:0.058568329 40:0.017353579 #SYSC_CANAL                    
2 1:0.058941729 2:0.12272605 3:0.074427329 4:0.021466846 5:0.042464837 6:0.0053851306 7:0.026711319 8:0.031185532 9:0.052726056 10:0.030823845 11:0.086014733 12:0.052478231 13:0.014079035 14:0.019611521 15:0.041507032 16:0.068285331 17:0.036778297 18:0.064701945 19:0.051667783 20:0.057173476 21:0.083109923 22:0.036193028 23:0.021447722 24:0.063672923 25:0.06233244 26:0.068364613 27:0.029490616 28:0.087131366 29:0.056970511 30:0.034182306 31:0.040884718 32:0.054959785 33:0.14142092 34:0.083780162 35:0.02613941 36:0.04758713 37:0.017426273 38:0.0046916888 39:0.026809651 40:0.013404826 #SCC2_YEAST                    
0.3954568262912191989322252538841 1:0.062713176 2:0.14804263 3:0.061666667 4:0.017897287 5:0.046666667 6:0.0052422481 7:0.024612403 8:0.030397287 9:0.062577516 10:0.038740311 11:0.076753877 12:0.052422479 13:0.0163469 14:0.018517442 15:0.033972867 16:0.060484495 17:0.039534885 18:0.061036821 19:0.045562014 20:0.054273255 21:0.082444228 22:0.024248302 23:0.014548982 24:0.053346265 25:0.06886518 26:0.067895249 27:0.034917556 28:0.077594571 29:0.064015523 30:0.031037828 31:0.047526672 32:0.064015523 33:0.14354995 34:0.077594571 35:0.032007761 36:0.058195926 37:0.016488846 38:0.0058195926 39:0.02327837 40:0.012609118 #MET18_YEAST                   
0.3281214290997920279835398105206 1:0.040698197 2:0.086726725 3:0.047319818 4:0.018783784 5:0.032252252 6:0.0050375373 7:0.02487988 8:0.041171171 9:0.050713215 10:0.037905406 11:0.072552554 12:0.052027028 13:0.0051951953 14:0.017012011 15:0.039376877 16:0.076689191 17:0.042034533 18:0.094144143 19:0.06171171 20:0.082972974 21:0.096919611 22:0.034560479 23:0.016528925 24:0.093914352 25:0.10443275 26:0.078136742 27:0.042824943 28:0.081142001 29:0.060105182 30:0.025544703 31:0.043576259 32:0.038317055 33:0.096168295 34:0.055597294 35:0.029301276 36:0.035311796 37:0.0202855 38:0.0060105184 39:0.036814425 40:0.0045078886 #SPT7_YEAST                    
-2 1:0.05300501 2:0.096978299 3:0.075008348 4:0.017746244 5:0.043088481 6:0.0080968281 7:0.038631052 8:0.023522537 9:0.038631052 10:0.059232052 11:0.1036227 12:0.059382305 13:0.00721202 14:0.016343907 15:0.044991653 16:0.077579297 17:0.03342237 18:0.045308847 19:0.061185308 20:0.052704509 21:0.088628761 22:0.043478262 23:0.011705685 24:0.058528427 25:0.04180602 26:0.056856189 27:0.04180602 28:0.1187291 29:0.053511705 30:0.040133778 31:0.045150504 32:0.055183947 33:0.10535117 34:0.078595318 35:0.063545153 36:0.051839463 37:0.016722407 38:0.0066889632 39:0.016722407 40:0.0050167223 #ECM25_YEAST                   
-2 1:0.046933334 2:0.081546664 3:0.053906668 4:0.018999999 5:0.037733335 6:0.0078400001 7:0.030893333 8:0.035613332 9:0.033893332 10:0.042959999 11:0.069813333 12:0.048226666 13:0.016039999 14:0.018719999 15:0.045866668 16:0.067079999 17:0.043186668 18:0.042800002 19:0.056759998 20:0.04764 21:0.093457945 22:0.030707611 23:0.018691588 24:0.061415222 25:0.033377837 26:0.10146862 27:0.048064087 28:0.093457945 29:0.054739654 30:0.032042723 31:0.029372497 32:0.037383176 33:0.11615487 34:0.073431239 35:0.058744993 36:0.044058744 37:0.014686248 38:0.0093457941 39:0.024032043 40:0.025367156 #PTP2_YEAST                    
-2 1:0.05051282 2:0.098060898 3:0.064300217 4:0.023547009 5:0.051672008 6:0.010486111 7:0.03715812 8:0.034503207 9:0.043044873 10:0.033488248 11:0.079118587 12:0.049610041 13:0.026944444 14:0.025443377 15:0.046864316 16:0.057313032 17:0.033792734 18:0.063888893 19:0.055646367 20:0.055021368 21:0.066809192 22:0.04382683 23:0.024051309 24:0.060395509 25:0.065740243 26:0.076964192 27:0.02725815 28:0.086584717 29:0.060395509 30:0.04543025 31:0.040085517 32:0.049171567 33:0.091394976 34:0.075895242 35:0.032068413 36:0.059326563 37:0.025120256 38:0.010154997 39:0.032602888 40:0.026723677 #UBR2_YEAST                    
0.026176751424386260347354493660532 1:0.052388798 2:0.08441516 3:0.052998353 4:0.016738055 5:0.039818782 6:0.0068533774 7:0.037775949 8:0.038434926 9:0.064909391 10:0.041762769 11:0.055897858 12:0.041779242 13:0.0088632619 14:0.019934103 15:0.05509061 16:0.10056013 17:0.039225701 18:0.092240527 19:0.041416805 20:0.058072489 21:0.10066006 22:0.052805282 23:0.01980198 24:0.059405942 25:0.097359739 26:0.054455444 27:0.031353135 28:0.074257426 29:0.044554457 30:0.041254126 31:0.080858089 32:0.051155116 33:0.07920792 34:0.059405942 35:0.042904291 36:0.042904291 37:0.011551155 38:0.004950495 39:0.042904291 40:0.0082508251 #PESC_SCHPO                    
2 1:0.047486339 2:0.08068306 3:0.059262294 4:0.020218579 5:0.04248634 6:0.0079234969 7:0.026475409 8:0.066748634 9:0.076284155 10:0.031748634 11:0.062431693 12:0.045409836 13:0.016721312 14:0.0265847 15:0.039699454 16:0.10893442 17:0.02819672 18:0.0795082 19:0.054125682 20:0.058306012 21:0.10928962 22:0.032786883 23:0.021857923 24:0.054644808 25:0.079234973 26:0.062841527 27:0.035519127 28:0.073770493 29:0.054644808 30:0.040983606 31:0.057377048 32:0.043715846 33:0.090163931 34:0.049180329 35:0.032786883 36:0.043715846 37:0.021857923 38:0.0081967209 39:0.073770493 40:0.013661202 #APN1_YEAST                    
2 1:0.062106598 2:0.076497465 3:0.051522844 4:0.023286803 5:0.042385787 6:0.010241116 7:0.026827412 8:0.056802031 9:0.059060913 10:0.045241117 11:0.066827409 12:0.044225886 13:0.0097335028 14:0.022994924 15:0.056954313 16:0.078426398 17:0.039530456 18:0.075697966 19:0.039517768 20:0.065431476 21:0.085133418 22:0.055908512 23:0.022871664 24:0.074968234 25:0.092757307 26:0.048284624 27:0.039390087 28:0.064803049 29:0.038119443 30:0.031766202 31:0.053367216 32:0.060991105 33:0.082592122 34:0.060991105 35:0.044472679 36:0.053367216 37:0.017789073 38:0.011435832 39:0.054637864 40:0.00635324 #TSR1_YEAST                    
-2 1:0.056288134 2:0.086932205 3:0.051033899 4:0.025949152 5:0.045576271 6:0.0033050848 7:0.030372882 8:0.05259322 9:0.066864409 10:0.048779663 11:0.049033899 12:0.048101693 13:0.011372881 14:0.022813559 15:0.056169491 16:0.074593224 17:0.043406781 18:0.089644067 19:0.038576271 20:0.054864407 21:0.081355929 22:0.059322033 23:0.027118644 24:0.069491528 25:0.093220338 26:0.035593219 27:0.044067796 28:0.038983051 29:0.049152542 30:0.033898305 31:0.062711865 32:0.055932205 33:0.088135593 34:0.047457628 35:0.055932205 36:0.050847456 37:0.032203391 38:0.0033898305 39:0.055932205 40:0.015254238 #SYKC_YEAST                    
-2 1:0.053610355 2:0.088651225 3:0.052356947 4:0.021539509 5:0.050653949 6:0.016444141 7:0.031730246 8:0.0586376 9:0.063337877 10:0.042343326 11:0.056457765 12:0.041893732 13:0.016376022 14:0.025395095 15:0.054591279 16:0.077697545 17:0.042602181 18:0.079114445 19:0.040899184 20:0.059114441 21:0.088676669 22:0.053206004 23:0.025920874 24:0.060027286 25:0.087312415 26:0.043656208 27:0.036834925 28:0.064120054 29:0.040927693 30:0.032742154 31:0.053206004 32:0.062755801 33:0.084583901 34:0.047748975 35:0.038199183 36:0.053206004 37:0.028649386 38:0.017735334 39:0.064120054 40:0.016371077 #SYTC_YEAST                    
-2 1:0.060251798 2:0.088830933 3:0.05352518 4:0.022895683 5:0.043147482 6:0.0060431655 7:0.031654675 8:0.056169067 9:0.063381292 10:0.044172663 11:0.053687051 12:0.046474822 13:0.012715828 14:0.02057554 15:0.059874102 16:0.071133092 17:0.042787768 18:0.086582735 19:0.033830937 20:0.0547482 21:0.086330935 22:0.064748198 23:0.021582734 24:0.059352517 25:0.10251798 26:0.028776979 27:0.041366905 28:0.050359711 29:0.04496403 30:0.032374099 31:0.077338129 32:0.059352517 33:0.10071942 34:0.050359711 35:0.046762589 36:0.050359711 37:0.017985612 38:0.0017985612 39:0.057553958 40:0.0053956835 #SYDC_YEAST                    
1.6728685771986291364044063811889 1:0.046406396 2:0.09427093 3:0.062041391 4:0.021796802 5:0.051298212 6:0.0095672626 7:0.037168391 8:0.03324553 9:0.04271872 10:0.037309501 11:0.095296331 12:0.055221073 13:0.019143932 14:0.019840075 15:0.041702729 16:0.066406399 17:0.036208842 18:0.062427092 19:0.065333962 20:0.055192851 21:0.06779661 22:0.040489644 23:0.02259887 24:0.053672317 25:0.059322033 26:0.088512242 27:0.035781544 28:0.10640302 29:0.051789079 30:0.034839924 31:0.040489644 32:0.054613937 33:0.0913371 34:0.063088514 35:0.037664782 36:0.062146891 37:0.01977401 38:0.0075329565 39:0.039548021 40:0.02259887 #PDR1_YEAST                    
1.3521947390223956197985444305232 1:0.056619354 2:0.091600001 3:0.045858063 4:0.017006451 5:0.036645163 6:0.018696774 7:0.018929033 8:0.045406453 9:0.042167742 10:0.039612904 11:0.11223226 12:0.057329033 13:0.024051612 14:0.028941935 15:0.050206453 16:0.053032257 17:0.031870969 18:0.049096774 19:0.056787096 20:0.056619354 21:0.050387599 22:0.055555556 23:0.036175709 24:0.058139537 25:0.051679585 26:0.072351418 27:0.033591732 28:0.12403101 29:0.059431523 30:0.021963824 31:0.032299742 32:0.065891474 33:0.10335917 34:0.052971575 35:0.045219637 36:0.045219637 37:0.007751938 38:0.016795866 39:0.03875969 40:0.028423773 #POP1_SCHPO                    
2 1:0.049919248 2:0.095275909 3:0.049488559 4:0.025733512 5:0.040309556 6:0.010080754 7:0.031076716 8:0.040646028 9:0.069798119 10:0.051117092 11:0.09325707 12:0.050928667 13:0.020296097 14:0.02512786 15:0.052597579 16:0.04384926 17:0.045464333 18:0.048021533 19:0.05410498 20:0.054562584 21:0.055256065 22:0.03773585 23:0.020215634 24:0.05929919 25:0.039083559 26:0.067385443 27:0.041778974 28:0.11455525 29:0.047169812 30:0.03773585 31:0.057951484 32:0.063342318 33:0.086253367 34:0.068733156 35:0.045822103 36:0.051212937 37:0.030997304 38:0.0053908355 39:0.043126684 40:0.026954178 #YN25_SCHPO                    
-2 1:0.045997821 2:0.095256269 3:0.066226825 4:0.016139586 5:0.039672848 6:0.0066957469 7:0.024994547 8:0.035027262 9:0.033489641 10:0.052159216 11:0.1108506 12:0.059934568 13:0.019302072 14:0.020883314 15:0.043904036 16:0.052475464 17:0.028778626 18:0.060567066 19:0.067022897 20:0.061679389 21:0.054585151 22:0.044759825 23:0.021834061 24:0.068777293 25:0.06113537 26:0.078602619 27:0.030567685 28:0.12227074 29:0.063318774 30:0.021834061 31:0.03930131 32:0.046943232 33:0.10152838 34:0.074235804 35:0.055676855 36:0.044759825 37:0.0098253274 38:0.0065502184 39:0.036026202 40:0.017467249 #STE5_YEAST                    
-2 1:0.048075821 2:0.091087267 3:0.048447784 4:0.016194563 5:0.029763948 6:0.0033404864 7:0.020994278 8:0.040114447 9:0.059849784 10:0.056065809 11:0.10510729 12:0.051466379 13:0.0098211728 14:0.030851215 15:0.051158797 16:0.070701003 17:0.03467096 18:0.062646635 19:0.054320458 20:0.062911302 21:0.075876877 22:0.047959913 23:0.031496063 24:0.065139584 25:0.062276307 26:0.070150323 27:0.03722262 28:0.11453114 29:0.047959913 30:0.01932713 31:0.067287043 32:0.057265569 33:0.08947745 34:0.049391553 35:0.057265569 36:0.030780243 37:0.020042948 38:0.0042949175 39:0.041517537 40:0.010737294 #MHP1_YEAST                    
-2 1:0.056900229 2:0.098522469 3:0.056549884 4:0.019657273 5:0.041561309 6:0.020639757 7:0.026694592 8:0.049771514 9:0.066633664 10:0.048956588 11:0.085620716 12:0.056626048 13:0.019086063 14:0.024767708 15:0.051751714 16:0.046984006 17:0.041782178 18:0.054120336 19:0.045247525 20:0.055529322 21:0.041158538 22:0.052591462 23:0.02667683 24:0.052591462 25:0.057164636 26:0.0625 27:0.038109757 28:0.096036583 29:0.049542684 30:0.032012194 31:0.068597563 32:0.058689024 33:0.11737805 34:0.057164636 35:0.05335366 36:0.038109757 37:0.020579269 38:0.020579269 39:0.038109757 40:0.019054879 #MIP1_SCHPO                    
2 1:0.069403544 2:0.09769804 3:0.060969245 4:0.024520038 5:0.03727866 6:0.0061137001 7:0.024044733 8:0.048378378 9:0.060978565 10:0.039515376 11:0.060680337 12:0.04612302 13:0.013019571 14:0.019338304 15:0.050624419 16:0.071230195 17:0.038825721 18:0.079804286 19:0.040074557 20:0.052935693 21:0.084888063 22:0.054104477 23:0.02238806 24:0.061567165 25:0.092350744 26:0.045708954 27:0.031716418 28:0.061567165 29:0.043843284 30:0.027985075 31:0.056902986 32:0.076492541 33:0.087686568 34:0.068097018 35:0.042910449 36:0.039179105 37:0.028917911 38:0.0074626864 39:0.055037312 40:0.01119403 #MTR4_YEAST                    
2 1:0.060888384 2:0.075649202 3:0.064760819 4:0.029088838 5:0.043439634 6:0.0067881551 7:0.04047836 8:0.054168563 9:0.050523918 10:0.0452164 11:0.047084283 12:0.050091118 13:0.011640091 14:0.02690205 15:0.050022781 16:0.092460133 17:0.041640092 18:0.093143508 19:0.040797267 20:0.059202734 21:0.09589041 22:0.050228309 23:0.020547945 24:0.05479452 25:0.10045662 26:0.061643835 27:0.036529679 28:0.034246575 29:0.05479452 30:0.050228309 31:0.050228309 32:0.059360731 33:0.070776254 34:0.070776254 35:0.045662101 36:0.043378994 37:0.031963471 38:0.006849315 39:0.05479452 40:0.006849315 #GCN5_YEAST                    
0.92682220603409437575948004450765 1:0.062123552 2:0.12633204 3:0.06100386 4:0.014710424 5:0.029999999 6:0.0075289574 7:0.024749035 8:0.027992278 9:0.044633206 10:0.033359073 11:0.062355213 12:0.063861005 13:0.003976834 14:0.032084942 15:0.056563705 16:0.068841696 17:0.049536679 18:0.10378379 19:0.054864865 20:0.069034748 21:0.07751938 22:0.058139537 23:0.031007752 24:0.065891474 25:0.10465116 26:0.042635661 27:0.046511628 28:0.058139537 29:0.065891474 30:0.034883723 31:0.046511628 32:0.073643409 33:0.10852713 34:0.046511628 35:0.034883723 36:0.046511628 37:0.015503876 38:0.007751938 39:0.034883723 40:0 #MIS12_SCHPO                   
-2 1:0.062385391 2:0.097894326 3:0.058725718 4:0.022680653 5:0.03846154 6:0.0073659671 7:0.023154624 8:0.052719504 9:0.058997668 10:0.042385392 11:0.065788656 12:0.048010878 13:0.011554002 14:0.018306138 15:0.049829058 16:0.065633252 17:0.037871018 18:0.075656563 19:0.042307694 20:0.054009326 21:0.083981335 22:0.052099533 23:0.02021773 24:0.051321927 25:0.092534989 26:0.056765161 27:0.0311042 28:0.059875581 29:0.055209953 30:0.022550544 31:0.058320373 32:0.059097979 33:0.090979785 34:0.077760495 35:0.043545879 36:0.045878693 37:0.02488336 38:0.0077760499 39:0.056765161 40:0.0093312599 #SKI2_YEAST                    
-2 1:0.063338071 2:0.096292615 3:0.070440345 4:0.022471592 5:0.029105114 6:0.0026136364 7:0.020568183 8:0.047329545 9:0.057230115 10:0.041122161 11:0.062017046 12:0.049090911 13:0.0086789774 14:0.017514205 15:0.053650569 16:0.066562504 17:0.041789774 18:0.073849432 19:0.040823862 20:0.054502841 21:0.091038406 22:0.044096727 23:0.018492177 24:0.05832148 25:0.075391181 26:0.044096727 27:0.044096727 28:0.078236133 29:0.056899004 30:0.024182077 31:0.051209103 32:0.065433852 33:0.099573255 34:0.085348509 35:0.054054055 36:0.031294454 37:0.018492177 38:0.0014224751 39:0.055476528 40:0.0028449502 #VPS1_YEAST                    
-1.6569453474976156837072949201684 1:0.067555249 2:0.084447511 3:0.058535911 4:0.018991712 5:0.042458564 6:0.01640884 7:0.037320442 8:0.055676796 9:0.07046961 10:0.043853592 11:0.057002764 12:0.051795579 13:0.012472375 14:0.021809392 15:0.048867404 16:0.084544197 17:0.027734807 18:0.069267958 19:0.044640884 20:0.063825965 21:0.10511757 22:0.049792532 23:0.019363763 24:0.088520057 25:0.063623793 26:0.049792532 27:0.022130014 28:0.041493777 29:0.051175658 30:0.031811897 31:0.071922548 32:0.070539422 33:0.08437068 34:0.069156297 35:0.041493777 36:0.040110651 37:0.022130014 38:0.016597511 39:0.051175658 40:0.0096818814 #SYEC_YEAST                    
2 1:0.047780391 2:0.084980391 3:0.053882353 4:0.01347451 5:0.042407844 6:0.00652549 7:0.022956863 8:0.033184312 9:0.043011766 10:0.064925492 11:0.14335686 12:0.055584315 13:0.0068313726 14:0.022588234 15:0.058384314 16:0.062674507 17:0.035435293 18:0.062611766 19:0.051498041 20:0.060368627 21:0.058869701 22:0.056514915 23:0.02511774 24:0.06436421 25:0.069858715 26:0.058869701 27:0.032182105 28:0.14913657 29:0.054160126 30:0.02433281 31:0.041601256 32:0.04866562 33:0.094976455 34:0.060439561 35:0.063579276 36:0.045525901 37:0.01177394 38:0.0054945056 39:0.028257458 40:0.006279435 #RGA2_SCHPO                    
2 1:0.059782609 2:0.089130431 3:0.042391304 4:0.018478261 5:0.040217392 6:0.0043478259 7:0.033695653 8:0.045652173 9:0.058695652 10:0.055434782 11:0.13695653 12:0.057608694 13:0.0043478259 14:0.019565217 15:0.05326087 16:0.061956521 17:0.031521738 18:0.070652172 19:0.060869563 20:0.055434782 21:0.062023938 22:0.053318825 23:0.019586507 24:0.055495102 25:0.070729055 26:0.060935799 27:0.03155604 28:0.13710555 29:0.057671383 30:0.033732317 31:0.058759522 32:0.05984766 33:0.089227423 34:0.04243743 35:0.055495102 36:0.040261153 37:0.017410228 38:0.004352557 39:0.04570185 40:0.004352557 #DMF1_SCHPO                    
1.1341918953155731841775377688464 1:0.064152822 2:0.092026576 3:0.043554816 4:0.017541528 5:0.038106311 6:0.016810631 7:0.024817275 8:0.047275748 9:0.069069766 10:0.035415281 11:0.11285714 12:0.054485049 13:0.0075083058 14:0.025415283 15:0.070033222 16:0.070963457 17:0.0289701 18:0.066179402 19:0.056611296 20:0.040830564 21:0.07 22:0.059999999 23:0.023333333 24:0.039999999 25:0.07 26:0.063333333 27:0.026666667 28:0.13 29:0.063333333 30:0.026666667 31:0.063333333 32:0.076666668 33:0.090000004 34:0.046666667 35:0.043333333 36:0.036666665 37:0.013333334 38:0.016666668 39:0.033333335 40:0.0066666668 #YNVD_SCHPO                    
-2 1:0.058509089 2:0.074763633 3:0.050927274 4:0.021 5:0.040600002 6:0.012727273 7:0.030290909 8:0.054127272 9:0.066018179 10:0.056636363 11:0.084563635 12:0.054909091 13:0.018072728 14:0.023072727 15:0.052545454 16:0.052345455 17:0.042618182 18:0.04930909 19:0.044963636 20:0.05150909 21:0.060109291 22:0.043715846 23:0.021857923 24:0.058287796 25:0.038251366 26:0.061930783 27:0.038251366 28:0.12932605 29:0.051001821 30:0.040072858 31:0.051001821 32:0.078324229 33:0.071038254 34:0.056466304 35:0.056466304 36:0.051001821 37:0.010928961 38:0.014571949 39:0.045537341 40:0.021857923 #PYP1_SCHPO                    
-2 1:0.051134329 2:0.07129851 3:0.030716417 4:0.021776119 5:0.03083582 6:0.0096716415 7:0.027656717 8:0.041179106 9:0.066731341 10:0.055582091 11:0.1077015 12:0.052671641 13:0.0083283586 14:0.017761193 15:0.059686568 16:0.066044778 17:0.062611938 18:0.075134329 19:0.048373133 20:0.050671641 21:0.064275034 22:0.058295965 23:0.014947684 24:0.067264572 25:0.062780268 26:0.068759345 27:0.047832586 28:0.12406577 29:0.059790734 30:0.035874441 31:0.067264572 32:0.052316889 33:0.073243648 34:0.031390134 35:0.059790734 36:0.040358745 37:0.013452915 38:0.0089686103 39:0.040358745 40:0.0089686103 #IMP2_SCHPO                    
-2 1:0.047615249 2:0.084742911 3:0.051294327 4:0.015913121 5:0.029388297 6:0.0042819148 7:0.020407801 8:0.040088654 9:0.051019505 10:0.064264186 11:0.1122961 12:0.066764183 13:0.0062943264 14:0.021462766 15:0.044113476 16:0.061897162 17:0.042278368 18:0.058554966 19:0.053031914 20:0.052703902 21:0.069210291 22:0.039041705 23:0.022182787 24:0.054125998 25:0.06122449 26:0.067435667 27:0.038154393 28:0.14285715 29:0.075421475 30:0.023957409 31:0.039929014 32:0.047914818 33:0.10204082 34:0.06122449 35:0.062999114 36:0.034605145 37:0.01242236 38:0.0017746229 39:0.037267081 40:0.0062111802 #BEM3_YEAST                    
2 1:0.072589286 2:0.07769841 3:0.057569444 4:0.028025793 5:0.034841269 6:0.0074007935 7:0.027003968 8:0.06081349 9:0.058531746 10:0.04518849 11:0.050069444 12:0.047857143 13:0.014097222 14:0.016656745 15:0.044126984 16:0.062936507 17:0.032956351 18:0.073749997 19:0.034662697 20:0.064186506 21:0.075471699 22:0.039721947 23:0.016881827 24:0.058589872 25:0.073485598 26:0.047666337 27:0.032770608 28:0.079443894 29:0.049652431 30:0.039721947 31:0.038728897 32:0.064548165 33:0.11519364 34:0.080436945 35:0.052631579 36:0.03773585 37:0.020854022 38:0.008937438 39:0.058589872 40:0.008937438 #SN114_YEAST                   
2 1:0.060816992 2:0.083145425 3:0.063872546 4:0.031633988 5:0.035637256 6:0.0070669935 7:0.034534313 8:0.065694444 9:0.054722223 10:0.042197712 11:0.059542485 12:0.054477125 13:0.017042484 14:0.024787582 15:0.064150326 16:0.057214051 17:0.040506534 18:0.064207517 19:0.038537581 20:0.057622548 21:0.060506951 22:0.06459526 23:0.026982829 24:0.062959932 25:0.076042518 26:0.033524122 27:0.039247751 28:0.061324611 29:0.057236303 30:0.037612427 31:0.065412916 32:0.049877349 33:0.08667212 34:0.074407198 35:0.04333606 36:0.040883075 37:0.031888798 38:0.0057236305 39:0.067865901 40:0.013900246 #RPB2_YEAST                    
2 1:0.060063004 2:0.093825385 3:0.059671465 4:0.024923492 5:0.044671468 6:0.013316832 7:0.038442843 8:0.045414042 9:0.058420341 10:0.041404139 11:0.067092709 12:0.045225024 13:0.017538253 14:0.02170567 15:0.055184517 16:0.06809631 17:0.039486948 18:0.071327634 19:0.043739874 20:0.058528353 21:0.083295815 22:0.043674022 23:0.018009905 24:0.061683927 25:0.069788381 26:0.057631698 27:0.038721297 28:0.074290857 29:0.046825755 30:0.040522289 31:0.046375506 32:0.056731202 33:0.10175597 34:0.068437643 35:0.041422784 36:0.050427735 37:0.02476362 38:0.01350743 39:0.047276001 40:0.014858172 #DPOE_YEAST                    
-2 1:0.056315791 2:0.11566416 3:0.069498748 4:0.017781954 5:0.039812028 6:0.015576441 7:0.040225565 8:0.038659148 9:0.068007521 10:0.03085213 11:0.066215537 12:0.040563911 13:0.017017543 14:0.02056391 15:0.046203006 16:0.073771931 17:0.043922305 18:0.067581452 19:0.041516289 20:0.062355891 21:0.092848182 22:0.037641153 23:0.015056462 24:0.066499375 25:0.066499375 26:0.047678795 27:0.046424091 28:0.065244667 29:0.045169387 30:0.050188206 31:0.047678795 32:0.047678795 33:0.1229611 34:0.082810536 35:0.030112924 36:0.045169387 37:0.020075282 38:0.013801756 39:0.037641153 40:0.018820576 #VPS16_YEAST                   
-2 1:0.062984243 2:0.10294357 3:0.069166243 4:0.026065074 5:0.03989324 6:0.0099034058 7:0.031682767 8:0.042343672 9:0.056939501 10:0.038439248 11:0.065836295 12:0.051753938 13:0.012923233 14:0.023106253 15:0.049323842 16:0.060650736 17:0.039913572 18:0.067895271 19:0.043533299 20:0.052247077 21:0.06765005 22:0.047304172 23:0.026449643 24:0.065106817 25:0.063072227 26:0.042217702 27:0.048321463 28:0.068667345 29:0.057477109 30:0.030518821 31:0.052390642 32:0.063580878 33:0.1017294 34:0.076805696 35:0.039165817 36:0.0508647 37:0.030010173 38:0.01017294 39:0.047812819 40:0.010681587 #SLH1_YEAST                    
0.90618929577261997376780300328392 1:0.043962263 2:0.090310767 3:0.051087681 4:0.024150943 5:0.030055493 6:0.0072586015 7:0.019977802 8:0.035993341 9:0.061487235 10:0.052552719 11:0.10895672 12:0.065715872 13:0.010810211 14:0.025582686 15:0.045671478 16:0.059112098 17:0.045960043 18:0.054051053 19:0.068091013 20:0.054428414 21:0.062222224 22:0.052222222 23:0.023333333 24:0.054444443 25:0.041111112 26:0.093333334 27:0.043333333 28:0.11666667 29:0.064444445 30:0.024444444 31:0.052222222 32:0.039999999 33:0.096666664 34:0.071111113 35:0.065555558 36:0.033333335 37:0.016666668 38:0.007777778 39:0.031111112 40:0.0099999998 #SOK1_YEAST                    
1.7659913653939847133500506970449 1:0.042090546 2:0.088914782 3:0.04946072 4:0.024780292 5:0.033215713 6:0.0043741679 7:0.024480693 8:0.043155793 9:0.046684422 10:0.055945408 11:0.09723036 12:0.060139813 13:0.015013316 14:0.020552596 15:0.035066579 16:0.055865511 17:0.037037283 18:0.040705726 19:0.065239683 20:0.050619174 21:0.059293803 22:0.035976015 23:0.028647568 24:0.055296469 25:0.041972019 26:0.087275147 27:0.037974682 28:0.13057962 29:0.063957363 30:0.026648901 31:0.053297803 32:0.037308462 33:0.093937375 34:0.051299132 35:0.058627583 36:0.031978682 37:0.038640905 38:0.0053297803 39:0.046635576 40:0.015323118 #CYP1_YEAST                    
2 1:0.053071484 2:0.08466614 3:0.050267085 4:0.018020425 5:0.038656715 6:0.011956009 7:0.033472113 8:0.047769051 9:0.067949727 10:0.063275725 11:0.1078476 12:0.053605657 13:0.010243519 14:0.021633936 15:0.046237234 16:0.04545169 17:0.044194814 18:0.05925373 19:0.051060487 20:0.05309505 21:0.045597482 22:0.045597482 23:0.025157232 24:0.054245282 25:0.054245282 26:0.061320756 27:0.053459119 28:0.1273585 29:0.051886793 30:0.035377357 31:0.062893085 32:0.046383649 33:0.091981135 34:0.055031445 35:0.057389937 36:0.045597482 37:0.014150944 38:0.012578616 39:0.04481132 40:0.014937107 #YAR2_SCHPO                    
-2 1:0.037967034 2:0.10799058 3:0.061507065 4:0.018838305 5:0.049207222 6:0.010675039 7:0.036004711 8:0.027715856 9:0.037935637 10:0.040078495 11:0.11652277 12:0.06099686 13:0.0083594974 14:0.019945055 15:0.036836736 16:0.051153846 17:0.03320251 18:0.039199371 19:0.08403454 20:0.051711146 21:0.051846035 22:0.035349566 23:0.028279655 24:0.052631579 25:0.035349566 26:0.09583661 27:0.043990575 28:0.13118617 29:0.068342499 30:0.034564022 31:0.040062845 32:0.032207385 33:0.11468971 34:0.070699133 35:0.043205027 36:0.061272584 37:0.016496465 38:0.010997644 39:0.026708562 40:0.0062843678 #ECM30_YEAST                   
-2 1:0.052605193 2:0.075380482 3:0.049632944 4:0.017090421 5:0.028406445 6:0.0033572067 7:0.031432409 8:0.04407341 9:0.048531782 10:0.064431511 11:0.12463742 12:0.065756492 13:0.0064547895 14:0.02199642 15:0.050904207 16:0.054440465 17:0.025783349 18:0.05204118 19:0.071683079 20:0.058361683 21:0.058243729 22:0.053763442 23:0.021505376 24:0.058243729 25:0.060035843 26:0.07706093 27:0.029569892 28:0.13172042 29:0.067204304 30:0.031362008 31:0.048387095 32:0.054659497 33:0.076164871 34:0.055555556 35:0.068100356 36:0.034050178 37:0.015232975 38:0.002688172 39:0.050179213 40:0.0062724017 #ECM21_YEAST                   
-2 1:0.048506025 2:0.097518072 3:0.061012048 4:0.018530121 5:0.036216866 6:0.0073734941 7:0.01973494 8:0.033951808 9:0.048819277 10:0.078530118 11:0.1373253 12:0.053373493 13:0.014481927 14:0.027204819 15:0.038722891 16:0.068337351 17:0.039686747 18:0.052867468 19:0.046578314 20:0.048987951 21:0.072463766 22:0.048309177 23:0.024154589 24:0.045893721 25:0.057971016 26:0.048309177 27:0.036231883 28:0.13285024 29:0.050724637 30:0.021739131 31:0.043478262 32:0.053140096 33:0.099033818 34:0.057971016 35:0.08454106 36:0.038647342 37:0.021739131 38:0.0096618356 39:0.036231883 40:0.016908212 #YNH2_SCHPO                    
2 1:0.049993016 2:0.11418995 3:0.055321228 4:0.014937151 5:0.034322627 6:0.015558659 7:0.039497208 8:0.041515362 9:0.092702515 10:0.024196927 11:0.070879892 12:0.039853353 13:0.01474162 14:0.020139664 15:0.042932961 16:0.065272346 17:0.042011172 18:0.078945532 19:0.044755585 20:0.057032123 21:0.088050313 22:0.030747728 23:0.018867925 24:0.069881201 25:0.081062198 26:0.050314464 27:0.045422781 28:0.076170512 29:0.044723969 30:0.0349406 31:0.071977638 32:0.046121594 33:0.11809923 34:0.080363385 35:0.023060797 36:0.04192872 37:0.014675053 38:0.015373864 39:0.0349406 40:0.013277428 #SKI3_YEAST                    
2 1:0.069295771 2:0.095545776 3:0.060387325 4:0.018169014 5:0.046707746 6:0.015193662 7:0.030475352 8:0.045774646 9:0.058556337 10:0.047552817 11:0.068538733 12:0.050140847 13:0.014859155 14:0.021690141 15:0.05137324 16:0.072887324 17:0.031866197 18:0.070774645 19:0.052165493 20:0.05536972 21:0.084656082 22:0.052910052 23:0.017636685 24:0.063492067 25:0.070546739 26:0.052910052 27:0.029982364 28:0.061728396 29:0.051146384 30:0.029982364 31:0.067019403 32:0.075837739 33:0.088183418 34:0.067019403 35:0.047619049 36:0.051146384 37:0.014109347 38:0.012345679 39:0.047619049 40:0.014109347 #PAP_YEAST                     
0.97909518795980521321808964785305 1:0.072406016 2:0.10105263 3:0.074035086 4:0.024586467 5:0.042431079 6:0.0037092732 7:0.024185464 8:0.057518795 9:0.065614037 10:0.03867168 11:0.058370925 12:0.057744361 13:0.014285714 14:0.018847117 15:0.058997493 16:0.064135335 17:0.045488723 18:0.062556393 19:0.036591478 20:0.058070175 21:0.097989947 22:0.047738694 23:0.010050251 24:0.072864324 25:0.050251257 26:0.042713568 27:0.060301509 28:0.067839198 29:0.055276383 30:0.022613065 31:0.05276382 32:0.075376883 33:0.090452261 34:0.085427135 35:0.020100502 36:0.042713568 37:0.030150754 38:0.0075376886 39:0.055276383 40:0.012562814 #FAL1_YEAST                    
-2 1:0.069981344 2:0.090261191 3:0.057500001 4:0.020923508 5:0.041697763 6:0.020093283 7:0.033731345 8:0.049654853 9:0.056856342 10:0.04369403 11:0.058180969 12:0.050270524 13:0.013022388 14:0.022873133 15:0.049235076 16:0.068768658 17:0.032360073 18:0.071902983 19:0.038927238 20:0.058694031 21:0.086834736 22:0.042950515 23:0.018674137 24:0.072829135 25:0.073762842 26:0.042950515 27:0.022408964 28:0.066293187 29:0.054154996 30:0.043884221 31:0.052287582 32:0.078431375 33:0.092436977 34:0.06255836 35:0.042016808 36:0.049486462 37:0.015873017 38:0.020541551 39:0.053221289 40:0.0084033618 #SYIC_YEAST                    
-2 1:0.077814728 2:0.082232781 3:0.064869359 4:0.030795725 5:0.038467932 6:0.0086460812 7:0.027612826 8:0.06800475 9:0.065201901 10:0.046211403 11:0.053586699 12:0.05270784 13:0.016389549 14:0.018551068 15:0.047743469 16:0.071983375 17:0.032589074 18:0.067125894 19:0.036365796 20:0.061128266 21:0.07491082 22:0.047562424 23:0.016646849 24:0.067776456 25:0.064209275 26:0.039239001 27:0.040428061 28:0.054696791 29:0.05350773 30:0.024970273 31:0.073721759 32:0.10107016 33:0.080856122 34:0.059453033 35:0.047562424 36:0.039239001 37:0.024970273 38:0.0083234245 39:0.068965517 40:0.011890606 #EF2_CANAL                     
2 1:0.037466064 2:0.085927598 3:0.036425341 4:0.019713424 5:0.036998492 6:0.0056410255 7:0.028371042 8:0.040573154 9:0.058733031 10:0.096681751 11:0.14110106 12:0.065309204 13:0.0074811461 14:0.02158371 15:0.040090498 16:0.064509802 17:0.030075414 18:0.037269983 19:0.05745098 20:0.056500755 21:0.064954683 22:0.040785499 23:0.019637462 24:0.052870091 25:0.036253776 26:0.063444108 27:0.031722054 28:0.15105741 29:0.066465259 30:0.033232629 31:0.045317221 32:0.042296074 33:0.095166162 34:0.046827793 35:0.098187312 36:0.043806646 37:0.013595167 38:0.0060422961 39:0.043806646 40:0.0045317221 #SEP1_SCHPO                    
0.94353866929418839237797556052101 1:0.061025642 2:0.075160258 3:0.036538463 4:0.017403847 5:0.016474359 6:0.0052243588 7:0.013910256 8:0.044134617 9:0.07782051 10:0.074102566 11:0.1198718 12:0.069967948 13:0.0024038462 14:0.036121793 15:0.053205129 16:0.065801285 17:0.034166668 18:0.062339742 19:0.065064102 20:0.061378203 21:0.064308681 22:0.057877813 23:0.041800644 24:0.057877813 25:0.064308681 26:0.061093248 27:0.03215434 28:0.12861736 29:0.070739552 30:0.012861736 31:0.083601288 32:0.064308681 33:0.070739552 34:0.035369776 35:0.073954985 36:0.01607717 37:0.012861736 38:0.0064308681 39:0.041800644 40:0.003215434 #PHO4_YEAST                    
0.87858286485578429569898162299069 1:0.033958077 2:0.071270034 3:0.039876696 4:0.016411837 5:0.021307029 6:0.01298397 7:0.015844636 8:0.054586928 9:0.045918617 10:0.058976572 11:0.11319359 12:0.059136868 13:0.0046485821 14:0.035277434 15:0.047805179 16:0.065462396 17:0.04194821 18:0.055228114 19:0.067632556 20:0.05431566 21:0.074074075 22:0.046913579 23:0.032098766 24:0.061728396 25:0.056790125 26:0.082716048 27:0.038271606 28:0.13209876 29:0.072839506 30:0.01728395 31:0.039506175 32:0.0345679 33:0.08024691 34:0.049382716 35:0.064197533 36:0.019753087 37:0.018518519 38:0.012345679 39:0.062962964 40:0.0037037036 #BAS1_YEAST                    
-2 1:0.053833865 2:0.069616616 3:0.042374868 4:0.020425985 5:0.027252397 6:0.0052822153 7:0.01944622 8:0.054739084 9:0.058796592 10:0.066762514 11:0.11510117 12:0.066560172 13:0.0065388712 14:0.024132056 15:0.044227902 16:0.063045792 17:0.037539937 18:0.060266241 19:0.058562301 20:0.057635784 21:0.085287847 22:0.031982943 23:0.02238806 24:0.058635395 25:0.060767591 26:0.076759063 27:0.031982943 28:0.12793177 29:0.083155647 30:0.019189766 31:0.057569295 32:0.052238807 33:0.066098079 34:0.052238807 35:0.071428575 36:0.018123668 37:0.023454158 38:0.0053304904 39:0.047974415 40:0.0074626864 #STE20_YEAST                   
-2 1:0.047486629 2:0.088128343 3:0.028609626 4:0.022673797 5:0.036292337 6:0.0042245989 7:0.024010696 8:0.073903747 9:0.072228163 10:0.074652404 11:0.1406417 12:0.062121212 13:0.0088057043 14:0.028467024 15:0.052335117 16:0.033654191 17:0.029251337 18:0.043368984 19:0.077433154 20:0.039714795 21:0.032142859 22:0.050000001 23:0.033928573 24:0.037500001 25:0.042857144 26:0.078571431 27:0.019642858 28:0.16071428 29:0.067857146 30:0.028571429 31:0.064285718 32:0.051785715 33:0.089285716 34:0.028571429 35:0.078571431 36:0.039285716 37:0.0125 38:0.005357143 39:0.066071428 40:0.0125 #SCW1_SCHPO                    
-1.5332614606907843946004277313477 1:0.047858942 2:0.10327456 3:0.022670025 4:0.022670025 5:0.020151133 6:0.0050377832 7:0.035264485 8:0.01511335 9:0.062972292 10:0.0906801 11:0.1813602 12:0.050377835 13:0.0050377832 14:0.04534005 15:0.055415615 16:0.022670025 17:0.042821158 18:0.052896727 19:0.070528969 20:0.047858942 21:0.022727273 22:0.055555556 23:0.045454547 24:0.047979798 25:0.053030305 26:0.070707068 27:0.042929292 28:0.18181819 29:0.05050505 30:0.035353534 31:0.06313131 32:0.047979798 33:0.10353535 34:0.022727273 35:0.090909094 36:0.02020202 37:0.02020202 38:0.005050505 39:0.015151516 40:0.005050505 #YHP6_SCHPO                    
1.3470130072026884615610242690309 1:0.059881587 2:0.082735345 3:0.059319124 4:0.026062759 5:0.035056245 6:0.0051095323 7:0.023534635 8:0.059775013 9:0.055719361 10:0.038087625 11:0.06134991 12:0.049390171 13:0.01420367 14:0.02151569 15:0.05304322 16:0.064108938 17:0.036406156 18:0.069425695 19:0.044156305 20:0.056299586 21:0.069312796 22:0.050355449 23:0.025473934 24:0.062203791 25:0.068720378 26:0.051540285 27:0.039099526 28:0.088862561 29:0.047985781 30:0.035545025 31:0.059834123 32:0.063388623 33:0.09656398 34:0.053909954 35:0.046208531 36:0.039099526 37:0.023104265 38:0.0041469196 39:0.061611373 40:0.013033175 #RPA1_SCHPO                    
2 1:0.05881311 2:0.089548275 3:0.052329496 4:0.020398583 5:0.049052257 6:0.011399468 7:0.039574847 8:0.040159434 9:0.04258636 10:0.04248007 11:0.062595218 12:0.047945086 13:0.015757307 14:0.02728078 15:0.046891052 16:0.065615587 17:0.041930914 18:0.075819306 19:0.047838796 20:0.062391497 21:0.060283687 22:0.051418439 23:0.035460994 24:0.083333336 25:0.07180851 26:0.051418439 27:0.039893616 28:0.066489361 29:0.059397165 30:0.04609929 31:0.045212764 32:0.077127658 33:0.093971632 34:0.048758864 35:0.038120568 36:0.04964539 37:0.023936171 38:0.0097517734 39:0.039893616 40:0.0079787234 #UBP21_SCHPO                   
0.27167524880737647929862532691914 1:0.063855968 2:0.094548769 3:0.066855058 4:0.023874203 5:0.039653599 6:0.0080036465 7:0.036426619 8:0.050738376 9:0.053518686 10:0.044211484 11:0.067985415 12:0.048933454 13:0.022051048 14:0.018486783 15:0.054466728 16:0.074010938 17:0.042971741 18:0.065770283 19:0.043965358 20:0.057593435 21:0.076642334 22:0.05109489 23:0.017335767 24:0.064781025 25:0.057481751 26:0.056569342 27:0.036496349 28:0.072080292 29:0.054744527 30:0.044708028 31:0.052919708 32:0.072992697 33:0.086678833 34:0.072080292 35:0.040145986 36:0.040145986 37:0.022810219 38:0.0082116788 39:0.053832117 40:0.018248174 #DPOD_YEAST                    
-2 1:0.054971911 2:0.10446629 3:0.043286517 4:0.025912922 5:0.046250001 6:0.012710674 7:0.037766855 8:0.047963481 9:0.063497193 10:0.042401686 11:0.069971912 12:0.049382024 13:0.012233146 14:0.025561798 15:0.051924158 16:0.06233146 17:0.037331462 18:0.072247192 19:0.04105337 20:0.056713484 21:0.084388189 22:0.026722925 23:0.023909986 24:0.074542895 25:0.061884668 26:0.071729958 27:0.035161745 28:0.085794657 29:0.050632913 30:0.045007031 31:0.043600563 32:0.046413504 33:0.10548523 34:0.059071731 35:0.039381154 36:0.05625879 37:0.021097047 38:0.016877636 39:0.046413504 40:0.0056258789 #PRTD_YEAST                    
-2 1:0.066643551 2:0.096879333 3:0.049521498 4:0.015332871 5:0.037212204 6:0.010769764 7:0.033994451 8:0.065492369 9:0.07642857 10:0.041969486 11:0.068793342 12:0.053800277 13:0.008772538 14:0.017364772 15:0.042704578 16:0.059646323 17:0.037392512 18:0.067267686 19:0.045811374 20:0.057635229 21:0.070784181 22:0.036086053 23:0.01943095 24:0.067314364 25:0.067314364 26:0.056904927 27:0.038861901 28:0.08188758 29:0.060374741 30:0.035392091 31:0.061068702 32:0.058986817 33:0.11242193 34:0.056210965 35:0.045801528 36:0.043719638 37:0.010409438 38:0.010409438 39:0.061762664 40:0.0048577376 #ECM17_YEAST                   
-2 1:0.07073684 2:0.089820176 3:0.060460526 4:0.022614036 5:0.03441228 6:0.010701754 7:0.030820176 8:0.062447369 9:0.075026318 10:0.042293862 11:0.068631582 12:0.045486841 13:0.010671053 14:0.022631578 15:0.056741226 16:0.051565789 17:0.036315791 18:0.069635965 19:0.037776317 20:0.049758773 21:0.049144361 22:0.064501971 23:0.021061869 24:0.054848619 25:0.071083806 26:0.049144361 27:0.035103116 28:0.074594118 29:0.055287406 30:0.038174637 31:0.069328651 32:0.071961388 33:0.091706887 34:0.064063184 35:0.04563405 36:0.039929792 37:0.017551558 38:0.013163668 39:0.062746815 40:0.010969724 #COAC_SCHPO                    
1.6940031270897544235509712962084 1:0.052445482 2:0.062538944 3:0.043940809 4:0.022320872 5:0.024875389 6:0.0087850466 7:0.029610591 8:0.040420562 9:0.064688474 10:0.082024924 11:0.12394081 12:0.051978193 13:0.004672897 14:0.026214954 15:0.048442367 16:0.062305298 17:0.062788159 18:0.052056074 19:0.061806854 20:0.047523364 21:0.084243372 22:0.042121686 23:0.018720748 24:0.049921997 25:0.063962556 26:0.053042121 27:0.051482059 28:0.1326053 29:0.05928237 30:0.035881434 31:0.073322929 32:0.060842432 33:0.053042121 34:0.053042121 35:0.073322929 36:0.015600624 37:0.024960998 38:0.012480499 39:0.039001562 40:0.0031201248 #FKH2_SCHPO                    
0.92299918509951439649086069039186 1:0.042107143 2:0.079499997 3:0.051285714 4:0.015607143 5:0.025035715 6:0.0011785714 7:0.041000001 8:0.037035715 9:0.039642856 10:0.032749999 11:0.11242857 12:0.06589286 13:0.026214285 14:0.015464285 15:0.077428572 16:0.079464287 17:0.032035716 18:0.045392856 19:0.072571427 20:0.050607141 21:0.089605734 22:0.07526882 23:0.021505376 24:0.053763442 25:0.050179213 26:0.071684591 27:0.028673835 28:0.1218638 29:0.068100356 30:0.043010753 31:0.025089607 32:0.046594981 33:0.096774191 34:0.05734767 35:0.039426524 36:0.028673835 37:0.010752688 38:0.0035842294 39:0.043010753 40:0.025089607 #VPS71_YEAST                   
0.64300058941502324927341760485433 1:0.046217278 2:0.082696334 3:0.07527487 4:0.012787958 5:0.041753925 6:0.012277487 7:0.02565445 8:0.038547121 9:0.037342932 10:0.043481674 11:0.083678007 12:0.056086387 13:0.015091623 14:0.022172775 15:0.043455496 16:0.077212043 17:0.035850786 18:0.053730365 19:0.058285341 20:0.057421464 21:0.090432502 22:0.035386633 23:0.023591088 24:0.061598953 25:0.041939713 26:0.077326342 27:0.041939713 28:0.1061599 29:0.066841416 30:0.030144168 31:0.02621232 32:0.035386633 33:0.089121886 34:0.10091743 35:0.048492793 36:0.049803406 37:0.01310616 38:0.010484928 39:0.036697246 40:0.014416776 #DPB11_YEAST                   
-2 1:0.047493309 2:0.079982162 3:0.050838538 4:0.016449599 5:0.032917038 6:0.0057448708 7:0.023853702 8:0.049652096 9:0.04322926 10:0.039616413 11:0.088251561 12:0.053220339 13:0.018189117 14:0.015423729 15:0.046743978 16:0.1003033 17:0.03634255 18:0.062515609 19:0.064843893 20:0.043140054 21:0.10625 22:0.051785715 23:0.015178571 24:0.040178571 25:0.075000003 26:0.086607143 27:0.044642858 28:0.081249997 29:0.0625 30:0.025 31:0.039285716 32:0.050000001 33:0.077678569 34:0.067857146 35:0.04107143 36:0.040178571 37:0.011607143 38:0.0062500001 39:0.059821427 40:0.017857144 #ECM32_YEAST                   
-2 1:0.047971014 2:0.069064558 3:0.047628459 4:0.021449275 5:0.028050065 6:0.0059552044 7:0.023333333 8:0.046231885 9:0.051172595 10:0.05093544 11:0.092635043 12:0.053201582 13:0.012121212 14:0.044571806 15:0.049486168 16:0.066416338 17:0.045256916 18:0.064624503 19:0.06126482 20:0.061725955 21:0.073878631 22:0.040897097 23:0.062005278 24:0.073878631 25:0.047493402 26:0.088390499 27:0.059366755 28:0.094986804 29:0.059366755 30:0.027704485 31:0.056728233 32:0.048812665 33:0.05540897 34:0.047493402 35:0.052770447 36:0.026385223 37:0.018469658 38:0.0039577838 39:0.036939315 40:0.025065962 #HRK1_YEAST                    
-2 1:0.058559999 2:0.036680002 3:0.028999999 4:0.032200001 5:0.04236 6:0.00352 7:0.043079998 8:0.05776 9:0.055199999 10:0.055720001 11:0.087920003 12:0.047959998 13:0.00428 14:0.01428 15:0.059280001 16:0.089479998 17:0.052359998 18:0.073080003 19:0.067680001 20:0.051879998 21:0.1124498 22:0.040160641 23:0.020080321 24:0.048192769 25:0.06827309 26:0.096385539 27:0.072289154 28:0.080321282 29:0.056224901 30:0.060240965 31:0.036144577 32:0.036144577 33:0.052208837 34:0.044176705 35:0.072289154 36:0.036144577 37:0.0080321282 38:0.0080321282 39:0.048192769 40:0.0040160641 #SGN1_YEAST                    
1.308507737923186198258918011561 1:0.042731959 2:0.11365979 3:0.044587627 4:0.028195877 5:0.044845361 6:0.014639175 7:0.034175258 8:0.048195876 9:0.061804123 10:0.040670104 11:0.073402062 12:0.041082475 13:0.0075773196 14:0.018917525 15:0.044381443 16:0.054587629 17:0.026958764 18:0.06324742 19:0.04427835 20:0.064999998 21:0.082901552 22:0.020725388 23:0.025906736 24:0.06735751 25:0.07772021 26:0.056994818 27:0.015544041 28:0.07772021 29:0.051813472 30:0.031088082 31:0.06735751 32:0.046632126 33:0.12953368 34:0.062176164 35:0.051813472 36:0.046632126 37:0.025906736 38:0.015544041 39:0.041450776 40:0.005181347 #PSF3_YEAST                    
1.9974625821949767434659861464752 1:0.063197672 2:0.11186046 3:0.053798448 4:0.017267441 5:0.030872094 6:0.0074612405 7:0.023449613 8:0.047170542 9:0.065155037 10:0.045755815 11:0.064031005 12:0.049050387 13:0.0096705426 14:0.022403101 15:0.043023255 16:0.054496124 17:0.038856588 18:0.06583333 19:0.035406977 20:0.050678294 21:0.066019416 22:0.036893204 23:0.019417476 24:0.066019416 25:0.066019416 26:0.048543688 27:0.048543688 28:0.075728156 29:0.075728156 30:0.031067962 31:0.05631068 32:0.073786408 33:0.12815534 34:0.062135924 35:0.042718448 36:0.0407767 37:0.0077669905 38:0.0058252425 39:0.044660196 40:0.0038834952 #TAF6_YEAST                    
2 1:0.05404612 2:0.075283021 3:0.052243188 4:0.026603773 5:0.029580712 6:0.0098951785 7:0.031404611 8:0.060901467 9:0.058825996 10:0.040041927 11:0.060796645 12:0.056331236 13:0.0082599577 14:0.019853249 15:0.042033542 16:0.047547169 17:0.033081762 18:0.064339623 19:0.036603775 20:0.04899371 21:0.071428575 22:0.031512607 23:0.0084033618 24:0.052521009 25:0.067226894 26:0.063025214 27:0.05882353 28:0.075630255 29:0.063025214 30:0.039915968 31:0.065126054 32:0.054621849 33:0.094537817 34:0.063025214 35:0.044117648 36:0.037815128 37:0.031512607 38:0.014705882 39:0.054621849 40:0.0084033618 #ARP7_YEAST                    
-2 1:0.055225227 2:0.097194336 3:0.058713 4:0.018468469 5:0.043191765 6:0.0071042469 7:0.031994853 8:0.038223937 9:0.064903475 10:0.036743887 11:0.095057912 12:0.054169886 13:0.0093693696 14:0.020180181 15:0.055598456 16:0.067220077 17:0.042625483 18:0.078764476 19:0.053114545 20:0.055598456 21:0.06056701 22:0.046391752 23:0.019329896 24:0.054123711 25:0.079896905 26:0.052835051 27:0.048969071 28:0.11340206 29:0.05927835 30:0.039948452 31:0.051546391 32:0.05927835 33:0.11469072 34:0.064432986 35:0.041237112 36:0.038659792 37:0.0090206182 38:0.0064432989 39:0.030927835 40:0.0090206182 #RGA8_SCHPO                    
-2 1:0.071782179 2:0.075049505 3:0.062112212 4:0.027755776 5:0.037524752 6:0.014455445 7:0.03920792 8:0.049669966 9:0.045181517 10:0.042640265 11:0.059603959 12:0.05808581 13:0.020462045 14:0.024026403 15:0.055214521 16:0.053234324 17:0.054059405 18:0.065775581 19:0.04181518 20:0.043102309 21:0.069536425 22:0.043046359 23:0.013245033 24:0.039735101 25:0.069536425 26:0.046357617 27:0.03642384 28:0.092715234 29:0.069536425 30:0.03642384 31:0.03642384 32:0.076158941 33:0.11258278 34:0.076158941 35:0.043046359 36:0.046357617 37:0.019867551 38:0.016556291 39:0.043046359 40:0.013245033 #PYP3_SCHPO                    
-2 1:0.05510537 2:0.10692726 3:0.062399726 4:0.023528213 5:0.038497619 6:0.0095853163 7:0.031883072 8:0.043983683 9:0.067056425 10:0.026016315 11:0.064167231 12:0.047552686 13:0.012902787 14:0.021583956 15:0.050774984 16:0.077212781 17:0.051386811 18:0.077960573 19:0.049082257 20:0.045492861 21:0.070068024 22:0.046938777 23:0.025850341 24:0.03537415 25:0.058503401 26:0.068707481 27:0.05102041 28:0.10136054 29:0.046938777 30:0.039455783 31:0.057823129 32:0.060544219 33:0.12108844 34:0.06530612 35:0.025850341 36:0.044897959 37:0.01292517 38:0.010884354 39:0.038775511 40:0.017687075 #MYO51_SCHPO                   
2 1:0.045540202 2:0.073077887 3:0.04594221 4:0.022977388 5:0.038228642 6:0.011595477 7:0.031984925 8:0.048706029 9:0.048077889 10:0.071834169 11:0.09472362 12:0.053291459 13:0.020087941 14:0.031507537 15:0.046494976 16:0.066042714 17:0.037776381 18:0.062148239 19:0.060075376 20:0.038178392 21:0.093081757 22:0.03773585 23:0.031446543 24:0.042767294 25:0.062893085 26:0.071698114 27:0.038993713 28:0.11069182 29:0.050314464 30:0.032704402 31:0.042767294 32:0.042767294 33:0.086792454 34:0.055345912 35:0.075471699 36:0.040251572 37:0.018867925 38:0.011320755 39:0.041509435 40:0.012578616 #RPH1_YEAST                    
0.42987379607071884990432408812921 1:0.042303208 2:0.06386783 3:0.04543246 4:0.019446064 5:0.03637512 6:0.0049173953 7:0.037181731 8:0.050427601 9:0.04282799 10:0.053323615 11:0.088163264 12:0.049523808 13:0.0053547132 14:0.036277939 15:0.047220603 16:0.062157433 17:0.038999029 18:0.053683188 19:0.084062196 20:0.053595725 21:0.070038907 22:0.042801555 23:0.036964979 24:0.07101167 25:0.059338521 26:0.10894942 27:0.037937742 28:0.10505836 29:0.052529182 30:0.046692606 31:0.04085603 32:0.037937742 33:0.059338521 34:0.050583657 35:0.050583657 36:0.042801555 37:0.02237354 38:0.0048638131 39:0.053501945 40:0.0058365758 #KSP1_YEAST                    
1.3413646754994561494100935306051 1:0.047196969 2:0.077992424 3:0.046363637 4:0.020265151 5:0.033106059 6:0.0067992425 7:0.034621213 8:0.056382574 9:0.053712122 10:0.054545455 11:0.089981064 12:0.049128789 13:0.0097916666 14:0.028295454 15:0.057784092 16:0.068958335 17:0.036306817 18:0.059810605 19:0.05935606 20:0.053276516 21:0.087286524 22:0.053130928 23:0.020872865 24:0.043643262 25:0.053130928 26:0.10815939 27:0.045540798 28:0.096774191 29:0.060721062 30:0.049335863 31:0.026565464 32:0.043643262 33:0.087286524 34:0.049335863 35:0.047438331 36:0.032258064 37:0.020872865 38:0.0075901328 39:0.055028465 40:0.0113852 #CTK1_YEAST                    
-2 1:0.053480227 2:0.074192092 3:0.052305084 4:0.019977402 5:0.040350281 6:0.014361582 7:0.033559322 8:0.047819208 9:0.056745764 10:0.064259887 11:0.093096048 12:0.050135594 13:0.014564971 14:0.026440678 15:0.056474578 16:0.059548024 17:0.034903955 18:0.058508474 19:0.056169491 20:0.048858758 21:0.081447966 22:0.048642535 23:0.021493213 24:0.044117648 25:0.065610863 26:0.069004528 27:0.027149322 28:0.10972851 29:0.042986427 30:0.041855205 31:0.053167421 32:0.047511313 33:0.082579188 34:0.065610863 35:0.064479642 36:0.041855205 37:0.021493213 38:0.014705882 39:0.044117648 40:0.012443439 #CYK3_YEAST                    
-2 1:0.047554418 2:0.065352112 3:0.041895006 4:0.016773367 5:0.028591549 6:0.0057106274 7:0.022125481 8:0.054788731 9:0.062880918 10:0.089116514 11:0.11581306 12:0.051895007 13:0.0088476315 14:0.032048654 15:0.047925737 16:0.055364918 17:0.036914211 18:0.046478875 19:0.042138286 20:0.044839948 21:0.070512824 22:0.04871795 23:0.034615386 24:0.04871795 25:0.042307694 26:0.065384619 27:0.028205128 28:0.13076924 29:0.052564103 30:0.033333335 31:0.064102568 32:0.03846154 33:0.064102568 34:0.047435898 35:0.094871797 36:0.032051284 37:0.01923077 38:0.0076923077 39:0.055128206 40:0.021794872 #KJ45_SCHPO                    
-2 1:0.052776735 2:0.063996248 3:0.044709194 4:0.024446528 5:0.048292682 6:0.0054409006 7:0.040093809 8:0.036041275 9:0.063752346 10:0.090600379 11:0.11660413 12:0.049737334 13:0.0091744838 14:0.023395872 15:0.044409007 16:0.056923077 17:0.044052534 18:0.045478422 19:0.049981236 20:0.04641651 21:0.05075188 22:0.037593983 23:0.02443609 24:0.041353382 25:0.041353382 26:0.037593983 27:0.054511279 28:0.13345864 29:0.04887218 30:0.045112781 31:0.069548875 32:0.056390978 33:0.069548875 34:0.045112781 35:0.12218045 36:0.045112781 37:0.028195489 38:0.0075187972 39:0.033834588 40:0.0075187972 #MSA1_SCHPO                    
0.63818379844457762128939748436096 1:0.064007938 2:0.10761905 3:0.062420636 4:0.017579366 5:0.039404761 6:0.0080555556 7:0.032301586 8:0.038690478 9:0.066825397 10:0.045277778 11:0.078134924 12:0.049087301 13:0.015674604 14:0.020515872 15:0.050595239 16:0.075357147 17:0.042301588 18:0.068888888 19:0.052579366 20:0.051746033 21:0.059760958 22:0.043824703 23:0.027888447 24:0.035856575 25:0.083665341 26:0.039840639 27:0.055776894 28:0.10358566 29:0.047808766 30:0.039840639 31:0.059760958 32:0.067729086 33:0.11952192 34:0.063745022 35:0.05179283 36:0.031872511 37:0.015936255 38:0.011952192 39:0.035856575 40:0.0039840639 #SWI10_SCHPO                   
2 1:0.067952029 2:0.10544281 3:0.066328414 4:0.019723248 5:0.028154982 6:0.0089667896 7:0.017214023 8:0.049409594 9:0.083634689 10:0.040387455 11:0.067915127 12:0.045313653 13:0.017785978 14:0.01601476 15:0.045036901 16:0.050055351 17:0.054040592 18:0.073579334 19:0.056826569 20:0.056180812 21:0.042513862 22:0.053604435 23:0.012939001 24:0.059149724 25:0.083179295 26:0.064695008 27:0.060998153 28:0.072088726 29:0.044362292 30:0.018484289 31:0.083179295 32:0.064695008 33:0.09981516 34:0.079482444 35:0.044362292 36:0.025878003 37:0.012939001 38:0.012939001 39:0.048059151 40:0.016635859 #IMA1_SCHPO                    
2 1:0.065804414 2:0.099652998 3:0.060820188 4:0.027192429 5:0.031955834 6:0.011324921 7:0.034164038 8:0.04769716 9:0.057003155 10:0.025583597 11:0.082113564 12:0.046561513 13:0.011545741 14:0.015425867 15:0.033564668 16:0.074511044 17:0.0522082 18:0.074321769 19:0.051388014 20:0.0592429 21:0.085443035 22:0.022151899 23:0.015822785 24:0.041139241 25:0.094936706 26:0.056962024 27:0.053797469 28:0.079113923 29:0.056962024 30:0.034810126 31:0.047468353 32:0.0664557 33:0.098101266 34:0.06329114 35:0.028481012 36:0.050632913 37:0.028481012 38:0.012658228 39:0.053797469 40:0.0094936704 #RPC6_YEAST                    
-2 1:0.061101444 2:0.10765743 3:0.062015112 4:0.023787497 5:0.042328831 6:0.014561484 7:0.027996337 8:0.04070529 9:0.061980765 10:0.035365239 11:0.064614154 12:0.05068697 13:0.012269292 14:0.017833753 15:0.048964966 16:0.063322648 17:0.046956722 18:0.072147928 19:0.04556217 20:0.055234715 21:0.059780121 22:0.056802567 23:0.020155748 24:0.057718735 25:0.077645443 26:0.04397618 27:0.050847456 28:0.060467247 29:0.056344479 30:0.024049474 31:0.0758131 32:0.076271184 33:0.11383417 34:0.053366926 35:0.040311497 36:0.039166287 37:0.022217132 38:0.016720111 39:0.04580852 40:0.0087036192 #DYHC_NEUCR                    
