SVM-light Version V6.01
2 # kernel type
3 # kernel parameter -d 
150 # kernel parameter -g 
1 # kernel parameter -s 
1 # kernel parameter -r 
empty# kernel parameter -u 
40 # highest feature index 
179 # number of training documents 
128 # number of support vectors plus 1 
-0.27871861 # threshold b, each following line is a SV (starting with alpha*y)
0.22840289796907545238902059736574 1:0.050350405 2:0.091805927 3:0.04207547 4:0.020269541 5:0.046603773 6:0.0078167114 7:0.04115903 8:0.050404314 9:0.045822103 10:0.033638813 11:0.069029652 12:0.048167117 13:0.026657682 14:0.026873315 15:0.039487872 16:0.061832882 17:0.042830188 18:0.05967655 19:0.048274934 20:0.049380053 21:0.078378379 22:0.032432433 23:0.037837837 24:0.037837837 25:0.091891892 26:0.05135135 27:0.043243244 28:0.086486489 29:0.054054055 30:0.043243244 31:0.05135135 32:0.07027027 33:0.097297296 34:0.040540539 35:0.032432433 36:0.062162161 37:0.010810811 38:0.0054054055 39:0.045945946 40:0.027027028 #UBP3_ARATH                    
-1.4630222700716271067022944407654 1:0.064488187 2:0.0728084 3:0.06976378 4:0.038057745 5:0.034698162 6:0.010262467 7:0.038057745 8:0.076220475 9:0.071837269 10:0.04926509 11:0.06774278 12:0.059895013 13:0.01312336 14:0.022755906 15:0.047480315 16:0.050472442 17:0.030761154 18:0.070629925 19:0.027244095 20:0.055879265 21:0.052631579 22:0.050000001 23:0.023684211 24:0.050000001 25:0.057894737 26:0.023684211 27:0.021052632 28:0.081578948 29:0.057894737 30:0.042105265 31:0.068421051 32:0.073684208 33:0.081578948 34:0.063157894 35:0.055263158 36:0.02631579 37:0.050000001 38:0.010526316 39:0.094736844 40:0.015789473 #ACT2_DAUCA                    
-1.7148118814423474187691454062588 1:0.070647486 2:0.061798561 3:0.058633093 4:0.029568346 5:0.053309351 6:0.0086330939 7:0.037482016 8:0.039064746 9:0.080359712 10:0.026330935 11:0.077482015 12:0.042374101 13:0.019928057 14:0.010071943 15:0.051726617 16:0.10201439 17:0.030431654 18:0.075971223 19:0.03388489 20:0.082877696 21:0.086956523 22:0.057971016 23:0.0072463769 24:0.10144927 25:0.057971016 26:0.043478262 27:0.043478262 28:0.10144927 29:0.036231883 30:0.036231883 31:0.079710148 32:0.065217391 33:0.065217391 34:0.057971016 35:0.014492754 36:0.065217391 37:0.021739131 38:0.0072463769 39:0.036231883 40:0.014492754 #ADF3_MAIZE                    
-0.29156306093820549829587207568693 1:0.096020944 2:0.063900523 3:0.061047122 4:0.02486911 5:0.042696334 6:0.0073036649 7:0.016649215 8:0.098481677 9:0.077225134 10:0.047015708 11:0.05421466 12:0.053926703 13:0.032513089 14:0.026780104 15:0.033638742 16:0.066963352 17:0.019136125 18:0.066858642 19:0.035968587 20:0.043219894 21:0.073490813 22:0.034120735 23:0.031496063 24:0.05511811 25:0.065616801 26:0.036745407 27:0.026246719 28:0.05511811 29:0.062992126 30:0.015748031 31:0.06824147 32:0.097112864 33:0.060367454 34:0.05511811 35:0.049868766 36:0.049868766 37:0.026246719 38:0.0078740157 39:0.094488189 40:0.034120735 #ADH1_PETHY                    
-1.4491562933999915241400913146208 1:0.07134328 2:0.09469083 3:0.045266524 4:0.021791045 5:0.051236674 6:0.012558635 7:0.023624733 8:0.061023455 9:0.073901922 10:0.057825159 11:0.073326223 12:0.046823028 13:0.016076759 14:0.022601278 15:0.047569297 16:0.04488273 17:0.023390193 18:0.052473348 19:0.032004263 20:0.052025586 21:0.070512824 22:0.032051284 23:0.021367522 24:0.06623932 25:0.057692308 26:0.03846154 27:0.025641026 28:0.07692308 29:0.053418804 30:0.034188036 31:0.05982906 32:0.079059832 33:0.1025641 34:0.055555556 35:0.053418804 36:0.061965812 37:0.025641026 38:0.012820513 39:0.055555556 40:0.017094018 #ANTA_GENTR                    
1.6031720808591896076933380754781 1:0.079872206 2:0.13100639 3:0.068722047 4:0.021661341 5:0.036086261 6:0.0074440893 7:0.019552715 8:0.037683707 9:0.067603834 10:0.032092653 11:0.097060703 12:0.046597444 13:0.027955271 14:0.018370608 15:0.040734824 16:0.050191693 17:0.030750798 18:0.078674123 19:0.038418531 20:0.059408944 21:0.0528 22:0.039999999 23:0.0176 24:0.068800002 25:0.079999998 26:0.032000002 27:0.0288 28:0.099200003 29:0.048 30:0.019200001 31:0.073600002 32:0.079999998 33:0.1408 34:0.0656 35:0.0352 36:0.033599999 37:0.0128 38:0.0063999998 39:0.036800001 40:0.0288 #ALF4_ARATH                    
0.65449616315756187212571148847928 1:0.06780488 2:0.045888502 3:0.023240417 4:0.008850174 5:0.0091289198 6:0 7:0.0094425092 8:0.02912892 9:0.17313589 10:0.108223 11:0.062926829 12:0.067351915 13:0.0008013937 14:0.0080139376 15:0.027979095 16:0.21567944 17:0.015296168 18:0.061045296 19:0.023205575 20:0.009372822 21:0.24825175 22:0.024475524 23:0.0069930069 24:0.0069930069 25:0.048951048 26:0.020979021 27:0.013986014 28:0.045454547 29:0.066433564 30:0.0069930069 31:0.24475524 32:0.059440561 33:0.031468533 34:0.017482517 35:0.12587413 36:0.013986014 37:0.0034965035 38:0 39:0.013986014 40:0 #H1_LYCES                      
0.36811333129477596948220252670581 1:0.057928994 2:0.069526628 3:0.040414203 4:0.023372781 5:0.04402367 6:0.0068639051 7:0.018934911 8:0.056094676 9:0.071360946 10:0.071538463 11:0.10449704 12:0.043313611 13:0.036094673 14:0.045088757 15:0.05260355 16:0.052248519 17:0.042426035 18:0.045680474 19:0.058520708 20:0.032662723 21:0.023809524 22:0.071428575 23:0.041666668 24:0.023809524 25:0.035714287 26:0.089285716 27:0.071428575 28:0.089285716 29:0.053571429 30:0.035714287 31:0.065476194 32:0.083333336 33:0.035714287 34:0.047619049 35:0.05952381 36:0.041666668 37:0.023809524 38:0.0059523811 39:0.065476194 40:0.035714287 #YAB1_ORYSA                    
0.11163460846645358037765305425637 1:0.060869563 2:0.070621118 3:0.026956521 4:0.02037267 5:0.028136646 6:0.018633541 7:0.027267082 8:0.051614907 9:0.094223604 10:0.068012424 11:0.086211182 12:0.054347824 13:0.017701864 14:0.014037267 15:0.077142857 16:0.052670807 17:0.036273293 18:0.067080744 19:0.048819877 20:0.054161489 21:0.03125 22:0.087499999 23:0.0062500001 24:0.043749999 25:0.068750001 26:0.1 27:0.03125 28:0.09375 29:0.037500001 30:0.037500001 31:0.09375 32:0.0625 33:0.10625 34:0.03125 35:0.056249999 36:0.025 37:0.0125 38:0.0125 39:0.043749999 40:0.018750001 #PTI5_LYCES                    
0.72117392332119434339432473279885 1:0.036608696 2:0.053043477 3:0.031043477 4:0.014869565 5:0.031304348 6:0 7:0.024608696 8:0.079652175 9:0.13156521 10:0.015391304 11:0.030869566 12:0.030869566 13:0 14:0.12573913 15:0.021043478 16:0.14147826 17:0.021478262 18:0.16043478 19:0.0089565217 20:0.041478261 21:0.1754386 22:0.0087719299 23:0.15789473 24:0.043859649 25:0.15789473 26:0 27:0.0087719299 28:0.01754386 29:0.02631579 30:0.01754386 31:0.13157895 32:0.02631579 33:0.061403509 34:0.043859649 35:0.01754386 36:0.03508772 37:0 38:0 39:0.070175439 40:0 #ASR1_LYCES                    
-2 1:0.066469006 2:0.12978436 3:0.061401617 4:0.023153638 5:0.039447438 6:0.0082345009 7:0.023544474 8:0.029609164 9:0.064312667 10:0.031832885 11:0.075296499 12:0.048598383 13:0.017479785 14:0.021778977 15:0.044663072 16:0.06610512 17:0.047385443 18:0.08597035 19:0.039851751 20:0.052614555 21:0.060728744 22:0.059379216 23:0.020242915 24:0.066126853 25:0.089068823 26:0.028340081 27:0.031039136 28:0.093117408 29:0.037786774 30:0.01754386 31:0.085020244 32:0.079622135 33:0.12010796 34:0.068825908 35:0.025641026 36:0.049932525 37:0.016194332 38:0.0080971662 39:0.024291499 40:0.018893387 #ZW10_ARATH                    
-2 1:0.062489081 2:0.11206695 3:0.063391559 4:0.017510917 5:0.034264918 6:0.01294032 7:0.019417759 8:0.050640468 9:0.063740902 10:0.030582242 11:0.073420666 12:0.04816594 13:0.011761281 14:0.020407569 15:0.04135371 16:0.066200875 17:0.036739446 18:0.074599706 19:0.061746724 20:0.065080062 21:0.075801753 22:0.039358601 23:0.020408163 24:0.05102041 25:0.074344024 26:0.055393588 27:0.033527698 28:0.088921286 29:0.056851313 30:0.020408163 31:0.056851313 32:0.081632651 33:0.13265306 34:0.045189504 35:0.034985423 36:0.033527698 37:0.017492712 38:0.016034985 39:0.049562681 40:0.016034985 #FIMB1_ARATH                   
-1.5427240441674412441130925799371 1:0.059034482 2:0.064000003 3:0.054068964 4:0.014482759 5:0.02275862 6:0.0073103448 7:0.026965518 8:0.067793101 9:0.066068962 10:0.059448276 11:0.074551724 12:0.052551724 13:0.018137932 14:0.017310346 15:0.073655173 16:0.11289655 17:0.048551723 18:0.053793103 19:0.045724139 20:0.042965516 21:0.14583333 22:0.069444448 23:0.020833334 24:0.034722224 25:0.0625 26:0.034722224 27:0.048611112 28:0.090277776 29:0.055555556 30:0.020833334 31:0.055555556 32:0.076388888 33:0.048611112 34:0.069444448 35:0.055555556 36:0.0069444445 37:0.013888889 38:0.0069444445 39:0.055555556 40:0.027777778 #SRP19_ARATH                   
2 1:0.057846155 2:0.10158242 3:0.049648352 4:0.021758242 5:0.051846154 6:0.010571429 7:0.04575824 8:0.074549451 9:0.069186814 10:0.044131868 11:0.075450547 12:0.053428572 13:0.016395604 14:0.017406594 15:0.033626374 16:0.058329672 17:0.033978023 18:0.057758242 19:0.040131867 20:0.044307694 21:0.072687224 22:0.026431719 23:0.011013215 24:0.050660793 25:0.048458152 26:0.059471365 27:0.033039648 28:0.070484579 29:0.052863438 30:0.057268724 31:0.081497796 32:0.063876651 33:0.10792951 34:0.057268724 35:0.050660793 36:0.044052862 37:0.013215859 38:0.0066079297 39:0.079295151 40:0.013215859 #NTPA_PEA                      
1.7513847855390038965595067566028 1:0.092500001 2:0.070056818 3:0.087840907 4:0.027443182 5:0.064829543 6:0.0024431818 7:0.034147728 8:0.083011366 9:0.055624999 10:0.049204547 11:0.05244318 12:0.054261364 13:0.016647728 14:0.021534091 15:0.036931816 16:0.062954545 17:0.027102273 18:0.057159092 19:0.037954547 20:0.055113636 21:0.068571426 22:0.045714285 23:0.022857143 24:0.062857144 25:0.051428571 26:0.034285713 27:0.028571429 28:0.028571429 29:0.062857144 30:0.011428571 31:0.057142857 32:0.10857143 33:0.062857144 34:0.079999998 35:0.039999999 36:0.085714288 37:0.028571429 38:0 39:0.09714286 40:0.022857143 #RPB7_ARATH                    
2 1:0.055775534 2:0.08334174 3:0.045460276 4:0.021904161 5:0.04074401 6:0.016216898 7:0.036216896 8:0.073846154 9:0.052950818 10:0.057755359 11:0.069936946 12:0.051223204 13:0.020756621 14:0.027755359 15:0.047213115 16:0.041235812 17:0.0314628 18:0.051387139 19:0.043076921 20:0.060453974 21:0.027777778 22:0.046717171 23:0.035353534 24:0.069444448 25:0.066919193 26:0.045454547 27:0.027777778 28:0.073232323 29:0.054292928 30:0.035353534 31:0.06313131 32:0.060606062 33:0.094696969 34:0.06313131 35:0.061868686 36:0.035353534 37:0.026515152 38:0.015151516 39:0.085858583 40:0.011363637 #BSU1_ARATH                    
-2 1:0.060063899 2:0.10450479 3:0.060255591 4:0.023482429 5:0.054632589 6:0.011054313 7:0.043610223 8:0.065527156 9:0.047507986 10:0.047891375 11:0.053514376 12:0.041884985 13:0.032204472 14:0.024600638 15:0.052619807 16:0.04709265 17:0.035271566 18:0.062492013 19:0.046900958 20:0.070447281 21:0.028846154 22:0.060897436 23:0.028846154 24:0.07692308 25:0.060897436 26:0.048076924 27:0.051282052 28:0.048076924 29:0.05448718 30:0.044871796 31:0.048076924 32:0.057692308 33:0.083333336 34:0.064102568 35:0.05448718 36:0.048076924 37:0.025641026 38:0.012820513 39:0.067307696 40:0.035256412 #P2A3_ARATH                    
-2 1:0.061260998 2:0.081730202 3:0.057947215 4:0.016979473 5:0.029765395 6:0.032551318 7:0.026246333 8:0.044985339 9:0.065806448 10:0.051260997 11:0.10618769 12:0.058387097 13:0.017096775 14:0.029999999 15:0.041231673 16:0.039706744 17:0.03665689 18:0.051847506 19:0.05117302 20:0.070058651 21:0.032352943 22:0.047058824 23:0.020588236 24:0.079411767 25:0.052941177 26:0.041176472 27:0.029411765 28:0.13235295 29:0.052941177 30:0.023529412 31:0.070588239 32:0.055882353 33:0.088235296 34:0.067647062 35:0.070588239 36:0.032352943 37:0.023529412 38:0.026470589 39:0.038235296 40:0.014705882 #TTG1_ARATH                    
-1.5689205629305278399954204360256 1:0.056104783 2:0.053507973 3:0.048564922 4:0.025535308 5:0.035421412 6:0.0070615034 7:0.018564921 8:0.036469247 9:0.038861047 10:0.045626424 11:0.16362187 12:0.057152621 13:0.012984055 14:0.020136675 15:0.042460136 16:0.077312075 17:0.035694759 18:0.062255125 19:0.057927106 20:0.052050114 21:0.09589041 22:0.043378994 23:0.006849315 24:0.047945205 25:0.066210046 26:0.052511416 27:0.038812786 28:0.1849315 29:0.066210046 30:0.01369863 31:0.04109589 32:0.066210046 33:0.057077624 34:0.034246575 35:0.061643835 36:0.031963471 37:0.02739726 38:0.006849315 39:0.04109589 40:0.015981736 #PKS1_ARATH                    
2 1:0.065629631 2:0.098685183 3:0.063222222 4:0.01738889 5:0.042981483 6:0.0083333338 7:0.030851852 8:0.050148148 9:0.067444444 10:0.037129629 11:0.069481485 12:0.048648149 13:0.014 14:0.023166666 15:0.04561111 16:0.064333335 17:0.040703703 18:0.075407408 19:0.049537037 20:0.059666667 21:0.077922076 22:0.040816326 23:0.018552875 24:0.059369203 25:0.077922076 26:0.048237476 27:0.029684601 28:0.079777367 29:0.038961038 30:0.022263451 31:0.074211501 32:0.081632651 33:0.094619669 34:0.06122449 35:0.040816326 36:0.048237476 37:0.022263451 38:0.0074211503 39:0.059369203 40:0.016697587 #AXR1_ARATH                    
1.5542757154800261876204103828059 1:0.064333335 2:0.093874998 3:0.065166667 4:0.029708333 5:0.041333333 6:0.015666667 7:0.018166667 8:0.046041667 9:0.051624998 10:0.047083333 11:0.068833336 12:0.043708332 13:0.0087916665 14:0.015208334 15:0.057416666 16:0.053374998 17:0.038708333 18:0.086166665 19:0.040166665 20:0.071000002 21:0.075313807 22:0.071129709 23:0.012552301 24:0.079497911 25:0.079497911 26:0.025104603 27:0.041841004 28:0.079497911 29:0.037656903 30:0.025104603 31:0.075313807 32:0.075313807 33:0.09205021 34:0.050209206 35:0.046025105 36:0.050209206 37:0.016736401 38:0.012552301 39:0.050209206 40:0.0041841003 #BSH_ARATH                     
1.4493325335820359534011458890745 1:0.069247648 2:0.080532916 3:0.06799373 4:0.022100313 5:0.037805643 6:0.0064576804 7:0.022351097 8:0.050219435 9:0.064012542 10:0.042884011 11:0.054106582 12:0.04570533 13:0.020846395 14:0.023072101 15:0.049749218 16:0.061943572 17:0.028369905 18:0.077210031 19:0.042727273 20:0.071034484 21:0.062893085 22:0.056603774 23:0.012578616 24:0.10691824 25:0.078616351 26:0.015723271 27:0.025157232 28:0.08176101 29:0.059748426 30:0.018867925 31:0.072327048 32:0.084905662 33:0.075471699 34:0.072327048 35:0.03773585 36:0.03773585 37:0.031446543 38:0.003144654 39:0.050314464 40:0.015723271 #RPB3A_ARATH                   
-1.2421608142021380860597901119036 1:0.065527521 2:0.095848627 3:0.0646789 4:0.020068808 5:0.049954128 6:0.0055733947 7:0.02956422 8:0.07713303 9:0.055160552 10:0.023325687 11:0.058967888 12:0.051926605 13:0.01016055 14:0.012729358 15:0.042821102 16:0.08245413 17:0.039243121 18:0.082201838 19:0.055619266 20:0.064334862 21:0.071264371 22:0.050574712 23:0.011494253 24:0.06666667 25:0.08275862 26:0.06666667 27:0.034482758 28:0.06666667 29:0.052873563 30:0.029885057 31:0.06666667 32:0.057471264 33:0.10114942 34:0.059770115 35:0.022988506 36:0.045977011 37:0.018390805 38:0.0068965517 39:0.080459774 40:0.0068965517 #ERF1X_ARATH                   
-2 1:0.058391545 2:0.10845588 3:0.06559743 4:0.016709559 5:0.055588234 6:0.011479779 7:0.026801471 8:0.065064341 9:0.077435665 10:0.042270221 11:0.08689338 12:0.047463235 13:0.021599265 14:0.020689338 15:0.046691176 16:0.051397059 17:0.032959558 18:0.066185661 19:0.037987132 20:0.053180147 21:0.050597977 22:0.050597977 23:0.018399265 24:0.052437901 25:0.068997242 26:0.045078196 27:0.032198712 28:0.080036797 29:0.056117754 30:0.027598895 31:0.069917202 32:0.053357866 33:0.11131555 34:0.069917202 35:0.042318307 36:0.056117754 37:0.014719411 38:0.012879485 39:0.066237353 40:0.021159153 #MMT1_WOLBI                    
-1.2392691778240296773816453423933 1:0.065647773 2:0.080182187 3:0.054251011 4:0.026174089 5:0.053562753 6:0.019210527 7:0.036963563 8:0.071437247 9:0.061457489 10:0.027388664 11:0.068238869 12:0.038157895 13:0.019210527 14:0.020789474 15:0.048562754 16:0.076619431 17:0.035850201 18:0.081963561 19:0.042165991 20:0.064473681 21:0.087221093 22:0.038539555 23:0.018255578 24:0.07707911 25:0.081135906 26:0.03245436 27:0.038539555 28:0.079107508 29:0.028397566 30:0.042596348 31:0.052738335 32:0.068965517 33:0.081135906 34:0.060851928 35:0.028397566 36:0.054766733 37:0.024340771 38:0.01622718 39:0.070993915 40:0.018255578 #PEAMT_SPIOL                   
0.77765851553385689776121125760255 1:0.094058439 2:0.048766233 3:0.052435067 4:0.024415584 5:0.035714287 6:0.0040259738 7:0.025422078 8:0.1450974 9:0.075194806 10:0.059577923 11:0.054512989 12:0.032142859 13:0.0075324676 14:0.024902597 15:0.084935062 16:0.075551949 17:0.023701299 18:0.053538959 19:0.030974027 20:0.043993507 21:0.068403907 22:0.087947883 23:0.022801302 24:0.042345278 25:0.048859935 26:0.029315962 27:0.029315962 28:0.055374593 29:0.03257329 30:0.019543974 31:0.084690556 32:0.097719871 33:0.045602605 34:0.045602605 35:0.058631923 36:0.042345278 37:0.016286645 38:0.0065146578 39:0.15635179 40:0.0097719869 #FBRL1_ARATH                   
0.88860406309940531688340570326545 1:0.054788731 2:0.15197183 3:0.062816903 4:0.040985916 5:0.02 6:0.012394366 7:0.050704226 8:0.058309861 9:0.041267607 10:0.035211269 11:0.030422535 12:0.038169015 13:0.059718311 14:0.016338028 15:0.068873242 16:0.064788729 17:0.016338028 18:0.064084508 19:0.043239437 20:0.071549296 21:0.057142857 22:0.057142857 23:0.014285714 24:0.085714288 25:0.057142857 26:0.057142857 27:0.014285714 28:0.014285714 29:0.057142857 30:0.057142857 31:0.057142857 32:0.071428575 33:0.14285715 34:0.042857144 35:0.028571429 36:0.014285714 37:0.042857144 38:0.014285714 39:0.057142857 40:0.057142857 #RPB10_ARATH                   
0.94487754103879539879784488221048 1:0.072044447 2:0.057955556 3:0.025288889 4:0.018622221 5:0.038088888 6:0.012711111 7:0.024977777 8:0.072488889 9:0.11088889 10:0.069244444 11:0.076622225 12:0.04808889 13:0.0069333334 14:0.020711111 15:0.073866665 16:0.048222221 17:0.028133333 18:0.04671111 19:0.042800002 20:0.051955555 21:0.053571429 22:0.066964284 23:0.026785715 24:0.053571429 25:0.058035713 26:0.0625 27:0.026785715 28:0.075892858 29:0.049107142 30:0.026785715 31:0.084821425 32:0.09375 33:0.058035713 34:0.013392857 35:0.084821425 36:0.03125 37:0.0089285718 38:0.013392857 39:0.10714286 40:0.0044642859 #ERF4_TOBAC                    
-1.2195952285898286060472628378193 1:0.086951219 2:0.065426826 3:0.040182926 4:0.034756098 5:0.03262195 6:0.0097560976 7:0.0086585367 8:0.055792682 9:0.062560976 10:0.056646343 11:0.058048781 12:0.049939025 13:0.0029878048 14:0.019024391 15:0.063292682 16:0.083841465 17:0.024085365 18:0.097743906 19:0.033841465 20:0.067317076 21:0.067484662 22:0.08588957 23:0.0061349692 24:0.098159507 25:0.073619634 26:0.012269938 27:0.012269938 28:0.018404908 29:0.055214725 30:0.018404908 31:0.11042945 32:0.12269939 33:0.073619634 34:0.012269938 35:0.067484662 36:0.024539877 37:0.042944785 38:0 39:0.092024542 40:0.0061349692 #HSP22_MAIZE                   
-1.2784144499847576170736829226371 1:0.025153374 2:0.02202454 3:0.026503067 4:0.037055213 5:0.0074846623 6:0.00049079757 7:0.021042945 8:0.2184049 9:0.062208589 10:0.030736197 11:0.05165644 12:0.083374232 13:0.00049079757 14:0.057423312 15:0.033496931 16:0.079325154 17:0.06404908 18:0.053926382 19:0.01398773 20:0.042392638 21:0.08024691 22:0.037037037 23:0.061728396 24:0.030864198 25:0.061728396 26:0.012345679 27:0.067901231 28:0.055555556 29:0.14197531 30:0.012345679 31:0.043209877 32:0.024691358 33:0.018518519 34:0.024691358 35:0.024691358 36:0.0061728396 37:0.043209877 38:0 39:0.25308642 40:0 #DH21_ORYSA                    
-1.2820615778508173132621550394106 1:0.053045046 2:0.021747747 3:0.019855855 4:0.020144144 5:0.0087927924 6:0.0036576577 7:0.028630631 8:0.061369371 9:0.16731532 10:0.0077657658 11:0.052108109 12:0.079729728 13:0.00066666666 14:0.012468468 15:0.039747749 16:0.1456036 17:0.038684685 18:0.10466667 19:0.023567567 20:0.088594593 21:0.1696751 22:0.028880866 23:0.0054151625 24:0.075812273 25:0.13357401 26:0.0072202166 27:0.050541516 28:0.018050542 29:0.075812273 30:0.041516244 31:0.19314079 32:0.050541516 33:0.02166065 34:0.012635379 35:0.0054151625 36:0.0072202166 37:0.028880866 38:0 39:0.074007221 40:0 #LEAD8_DAUCA                   
2 1:0.077674635 2:0.10542279 3:0.072104782 4:0.020027574 5:0.039494485 6:0.006773897 7:0.033786766 8:0.064163603 9:0.052003678 10:0.036525734 11:0.076084562 12:0.056718752 13:0.018529411 14:0.023538603 15:0.044540443 16:0.047904413 17:0.036534928 18:0.065009192 19:0.045845587 20:0.053556986 21:0.04599816 22:0.046918124 23:0.026678933 24:0.056117754 25:0.077276908 26:0.043238271 27:0.039558418 28:0.072677091 29:0.056117754 30:0.030358786 31:0.05427783 32:0.07543698 33:0.11407544 34:0.069917202 35:0.033118676 36:0.041398343 37:0.014719411 38:0.0082796691 39:0.074517019 40:0.019319227 #DDB1A_ARATH                   
2 1:0.061922755 2:0.084483624 3:0.065398827 4:0.0325021 5:0.03577666 6:0.0071116709 7:0.034492023 8:0.067623846 9:0.055432409 10:0.041973133 11:0.059370276 12:0.05452561 13:0.017279597 14:0.025306465 15:0.064080603 16:0.060881611 17:0.041595299 18:0.063694373 19:0.038522251 20:0.055852223 21:0.05882353 22:0.071428575 23:0.02605042 24:0.062184874 25:0.06386555 26:0.032773111 27:0.048739497 28:0.052100841 29:0.063025214 30:0.042857144 31:0.06386555 32:0.061344538 33:0.076470591 34:0.066386558 35:0.041176472 36:0.035294119 37:0.036134455 38:0.0058823531 39:0.074789919 40:0.016806724 #RPB2_LYCES                    
0.49434281268998403469083768868586 1:0.048898071 2:0.12044077 3:0.0546281 4:0.020468319 5:0.054269973 6:0.010550965 7:0.033801652 8:0.04278237 9:0.051983472 10:0.029614326 11:0.086749308 12:0.046831954 13:0.0091184573 14:0.028044077 15:0.043829203 16:0.06137741 17:0.044407714 18:0.065922864 19:0.049889807 20:0.052286502 21:0.063535914 22:0.035911601 23:0.035911601 24:0.063535914 25:0.069060773 26:0.038674034 27:0.044198897 28:0.10497238 29:0.044198897 30:0.027624309 31:0.060773481 32:0.063535914 33:0.12430939 34:0.044198897 35:0.035911601 36:0.046961326 37:0.019337017 38:0.011049724 39:0.049723756 40:0.016574586 #ORC2_ARATH                    
-2 1:0.05684536 2:0.11605155 3:0.051969074 4:0.024958763 5:0.036422681 6:0.013742268 7:0.029783506 8:0.057041235 9:0.072721653 10:0.049824741 11:0.058402061 12:0.053051546 13:0.010783505 14:0.022587629 15:0.072350517 16:0.055309277 17:0.039731957 18:0.081587628 19:0.028432989 20:0.061494846 21:0.05366357 22:0.069143444 23:0.020639835 24:0.057791539 25:0.08255934 26:0.026831785 27:0.043343652 28:0.054695562 29:0.052631579 30:0.027863776 31:0.075335398 32:0.06501548 33:0.1124871 34:0.049535602 35:0.056759547 36:0.039215688 37:0.020639835 38:0.013415893 39:0.068111457 40:0.010319917 #CAPP1_MAIZE                   
-2 1:0.050969388 2:0.087176874 3:0.052585036 4:0.027431972 5:0.045714285 6:0.003095238 7:0.031275511 8:0.052210886 9:0.060187075 10:0.04647959 11:0.050578233 12:0.047193877 13:0.01127551 14:0.022568027 15:0.055663265 16:0.068384357 17:0.040374149 18:0.079489797 19:0.034914967 20:0.052874148 21:0.051107325 22:0.074957408 23:0.022146508 24:0.066439524 25:0.081771724 26:0.045996591 27:0.030664396 28:0.0681431 29:0.054514479 30:0.035775129 31:0.057921637 32:0.04770017 33:0.11243612 34:0.054514479 35:0.056218058 36:0.044293016 37:0.030664396 38:0.0017035775 39:0.052810904 40:0.010221465 #SYK_LYCES                     
-2 1:0.074744187 2:0.074465118 3:0.070883721 4:0.023534883 5:0.027116278 6:0.010837209 7:0.040511627 8:0.044883721 9:0.073302329 10:0.061534885 11:0.050976746 12:0.034790698 13:0.011302326 14:0.021627907 15:0.050139535 16:0.072232559 17:0.029767442 18:0.078930229 19:0.047069766 20:0.075581394 21:0.060747664 22:0.060747664 23:0.018691588 24:0.07009346 25:0.065420561 26:0.028037382 27:0.046728972 28:0.074766353 29:0.037383176 30:0.046728972 31:0.084112152 32:0.074766353 33:0.093457945 34:0.060747664 35:0.07009346 36:0.018691588 37:0.023364486 38:0.004672897 39:0.051401868 40:0.0093457941 #IPYR_HORVD                    
0.53723553958536496288900252693566 1:0.038292684 2:0.11880919 3:0.032740317 4:0.016987087 5:0.016571019 6:0.0018507891 7:0.0075179338 8:0.023888092 9:0.088823527 10:0.011965566 11:0.072969869 12:0.042022955 13:0.0093687233 14:0.012123386 15:0.058938306 16:0.099526539 17:0.076685794 18:0.14708751 19:0.043902438 20:0.050186515 21:0.097701147 22:0.057471264 23:0.011494253 24:0.04454023 25:0.15517241 26:0.053160921 27:0.061781608 28:0.10057471 29:0.048850574 30:0.0057471264 31:0.056034483 32:0.057471264 33:0.13649425 34:0.033045977 35:0.012931035 36:0.015804598 37:0.01867816 38:0 39:0.024425287 40:0.0086206896 #MFP1_LYCES                    
0.67396712735762920321036517634639 1:0.056156069 2:0.04602601 3:0.020881504 4:0.016849712 5:0.026589595 6:0.0089161852 7:0.0057225432 8:0.020910405 9:0.051026013 10:0.081286125 11:0.11960983 12:0.061878614 13:0.011387283 14:0.023815028 15:0.040635839 16:0.13809249 17:0.027875723 18:0.11202312 19:0.033858381 20:0.057283238 21:0.092619389 22:0.060781475 23:0.039073806 24:0.066570185 25:0.079594791 26:0.065123007 27:0.028943559 28:0.12879884 29:0.069464542 30:0.010130246 31:0.057887118 32:0.062228654 33:0.056439944 34:0.033285093 35:0.07091172 36:0.023154847 37:0.013024602 38:0.0086830677 39:0.021707671 40:0.011577424 #FIS2_ARATH                    
0.67654000033247962964111366090947 1:0.058925081 2:0.043094464 3:0.022410423 4:0.010521173 5:0.028827362 6:0.0037459284 7:0.010162867 8:0.059218243 9:0.069348536 10:0.059120521 11:0.11325733 12:0.051889252 13:0.0099348538 14:0.023517916 15:0.0099022798 16:0.11543974 17:0.035276871 18:0.10309447 19:0.029902279 20:0.10312703 21:0.13071896 22:0.0065359478 23:0.019607844 24:0.12091503 25:0.10457516 26:0.019607844 27:0.03267974 28:0.12745099 29:0.055555556 30:0.0098039219 31:0.065359481 32:0.065359481 33:0.049019609 34:0.019607844 35:0.062091503 36:0.029411765 37:0.0098039219 38:0.0032679739 39:0.05882353 40:0.0098039219 #HD2A_MAIZE                    
-1.2816045049830406821200767808477 1:0.055950001 2:0.025800001 3:0.089249998 4:0.0188 5:0 6:0 7:0.023150001 8:0.056200001 9:0.023250001 10:0.057050001 11:0.04335 12:0.045249999 13:0.0069499998 14:0.02005 15:0.0151 16:0.1504 17:0.048250001 18:0.17839999 19:0.0352 20:0.096649997 21:0.15075377 22:0.015075377 23:0.020100502 24:0.10050251 25:0.1758794 26:0.035175879 27:0.050251257 28:0.045226131 29:0.045226131 30:0.030150754 31:0.020100502 32:0.055276383 33:0.030150754 34:0.090452261 35:0.055276383 36:0 37:0.020100502 38:0 39:0.055276383 40:0.0050251256 #SYST_LYCES                    
-1.3791830431837466264255454007071 1:0.052727271 2:0.077121213 3:0.025 4:0.028181817 5:0.023181818 6:0.0037878789 7:0.022196969 8:0.0425 9:0.075303033 10:0.034015153 11:0.11643939 12:0.067651518 13:0.014545455 14:0.0060606059 15:0.052727271 16:0.19651516 17:0.026363635 18:0.070075758 19:0.02659091 20:0.035 21:0.19847329 22:0.053435113 23:0.015267176 24:0.022900764 25:0.076335877 26:0.0076335878 27:0.030534351 28:0.099236645 29:0.045801528 30:0.030534351 31:0.1221374 32:0.061068702 33:0.068702288 34:0.015267176 35:0.038167939 36:0.015267176 37:0.038167939 38:0.0076335878 39:0.030534351 40:0.022900764 #SRP14_ORYSA                   
-1.3602517190480194475554753807955 1:0.04109589 2:0.075342469 3:0.09589041 4:0.01369863 5:0.04109589 6:0 7:0.034246575 8:0.05479452 9:0.047945205 10:0.1369863 11:0.09589041 12:0.09589041 13:0 14:0.04109589 15:0.04109589 16:0.02739726 17:0.047945205 18:0.034246575 19:0.020547945 20:0.05479452 21:0.027586207 22:0.04137931 23:0.04137931 24:0.055172414 25:0.034482758 26:0.020689655 27:0.048275862 28:0.096551724 29:0.096551724 30:0.034482758 31:0.048275862 32:0.04137931 33:0.075862072 34:0.096551724 35:0.13793103 36:0.04137931 37:0.0068965517 38:0 39:0.055172414 40:0 #HSY1_LYCES                    
2 1:0.060669683 2:0.094959274 3:0.063312218 4:0.022977376 5:0.038470589 6:0.0078099547 7:0.036914028 8:0.054416291 9:0.060063347 10:0.049040724 11:0.064950228 12:0.046398189 13:0.021864254 14:0.019601811 15:0.055710409 16:0.068923078 17:0.040334843 18:0.063031673 19:0.041683257 20:0.05273303 21:0.060688406 22:0.066123188 23:0.019021738 24:0.055253625 25:0.066123188 26:0.031702898 27:0.039855074 28:0.067028984 29:0.044384059 30:0.036231883 31:0.075181156 32:0.069746375 33:0.097826086 34:0.061594203 35:0.053442027 36:0.03713768 37:0.025362318 38:0.0054347827 39:0.064311594 40:0.023550725 #DPOD1_ORYSA                   
0.84365679238875512790940547347418 1:0.057177912 2:0.11437628 3:0.061124746 4:0.02192229 5:0.038323108 6:0.0026584866 7:0.04196319 8:0.033271983 9:0.086032718 10:0.031145195 11:0.067914113 12:0.048629858 13:0.0093865031 14:0.023640081 15:0.069509201 16:0.061738241 17:0.046032719 18:0.073128834 19:0.042638037 20:0.058588956 21:0.053278688 22:0.08401639 23:0.028688524 24:0.047131147 25:0.075819671 26:0.047131147 27:0.032786883 28:0.06967213 29:0.049180329 30:0.036885247 31:0.11270492 32:0.059426229 33:0.11885246 34:0.05532787 35:0.030737706 36:0.034836065 37:0.014344262 38:0.0040983604 39:0.028688524 40:0.010245902 #PSD3_DAUCA                    
-1.4293553505068625764096168495598 1:0.078495413 2:0.094293579 3:0.076954126 4:0.025559632 5:0.021137614 6:0.0027889907 7:0.014073394 8:0.066733941 9:0.089743122 10:0.025944954 11:0.058844037 12:0.053376146 13:0.015045872 14:0.015174312 15:0.043743119 16:0.072917432 17:0.034348626 18:0.070165135 19:0.04133945 20:0.059155963 21:0.073529415 22:0.051470589 23:0.018382354 24:0.066176474 25:0.071691178 26:0.038602941 27:0.03125 28:0.056985293 29:0.060661763 30:0.018382354 31:0.11029412 32:0.090073526 33:0.10110294 34:0.071691178 35:0.022058824 36:0.014705882 37:0.03125 38:0 39:0.0625 40:0.0091911769 #TCPA_ARATH                    
-0.25450857054503200904704840468185 1:0.078710057 2:0.082674555 3:0.063443787 4:0.031420119 5:0.038911242 6:0.0085443789 7:0.026804734 8:0.06685207 9:0.065491125 10:0.046071004 11:0.054414202 12:0.051727809 13:0.016142013 14:0.018994084 15:0.049502958 16:0.070603549 17:0.032804735 18:0.067041419 19:0.036603551 20:0.061668638 21:0.065165877 22:0.054502368 23:0.020142181 24:0.065165877 25:0.069905214 26:0.029620852 27:0.040284362 28:0.040284362 29:0.065165877 30:0.027251184 31:0.086492889 32:0.079383887 33:0.081753552 34:0.055687204 35:0.045023698 36:0.037914693 37:0.037914693 38:0.0094786733 39:0.072274879 40:0.016587678 #EF2_CHLKE                     
-1.9142507849063152836066592499265 1:0.055015974 2:0.077364214 3:0.057651758 4:0.023961661 5:0.038498402 6:0.012731629 7:0.037060704 8:0.071789138 9:0.083019167 10:0.055367414 11:0.070575081 12:0.071884982 13:0.01528754 14:0.028610224 15:0.040159743 16:0.063753992 17:0.021533547 18:0.061916932 19:0.049345046 20:0.051581468 21:0.062399998 22:0.036800001 23:0.022399999 24:0.043200001 25:0.062399998 26:0.0592 27:0.024 28:0.073600002 29:0.071999997 30:0.043200001 31:0.097599998 32:0.049600001 33:0.079999998 34:0.060800001 35:0.049600001 36:0.038400002 37:0.0208 38:0.0128 39:0.078400001 40:0.0128 #PEPC2_UROPA                   
0.91478164924744331809591812998406 1:0.053821657 2:0.041337579 3:0.04732484 4:0.020191083 5:0.016878981 6:0.00025477706 7:0.026496815 8:0.044585988 9:0.12375796 10:0.058917198 11:0.089235671 12:0.059808917 13:0.00050955411 14:0.016433122 15:0.050318472 16:0.16675159 17:0.019872611 18:0.075796179 19:0.021656051 20:0.022484077 21:0.21153846 22:0.01923077 23:0.012820513 24:0.025641026 25:0.089743592 26:0.01923077 27:0.01923077 28:0.083333336 29:0.057692308 30:0.025641026 31:0.1474359 32:0.07692308 33:0.03846154 34:0.03846154 35:0.064102568 36:0.01923077 37:0.012820513 38:0 39:0.03846154 40:0 #H2B3_VOLCA                    
0.59428076707031274317216684721643 1:0.05360119 2:0.10017857 3:0.031845238 4:0.0059523811 5:0.039761905 6:0.022827381 7:0.02577381 8:0.063511908 9:0.089017861 10:0.069404759 11:0.092291668 12:0.049642857 13:0.045684524 14:0.018839287 15:0.075297616 16:0.030863095 17:0.013898809 18:0.052648809 19:0.028869048 20:0.069464289 21:0.041791044 22:0.065671645 23:0.017910447 24:0.071641788 25:0.059701491 26:0.038805969 27:0.014925373 28:0.095522389 29:0.053731345 30:0.023880597 31:0.06268657 32:0.05671642 33:0.098507464 34:0.041791044 35:0.065671645 36:0.047761194 37:0.0029850747 38:0.023880597 39:0.065671645 40:0.05074627 #EID1_ARATH                    
0.77327612087575214872003925847821 1:0.058165938 2:0.076899566 3:0.025283843 4:0.042663757 5:0.024497816 6:0.013318777 7:0.025502183 8:0.074541487 9:0.062358078 10:0.047991265 11:0.082401745 12:0.037860263 13:0.014541484 14:0.0067685591 15:0.051572051 16:0.083449781 17:0.02209607 18:0.063973799 19:0.040174674 20:0.058384281 21:0.087719299 22:0.048245613 23:0.0087719299 24:0.074561402 25:0.061403509 26:0.048245613 27:0.0087719299 28:0.083333336 29:0.039473683 30:0.02631579 31:0.065789476 32:0.078947365 33:0.078947365 34:0.013157895 35:0.065789476 36:0.030701755 37:0.057017542 38:0.01754386 39:0.083333336 40:0.021929825 #IAA17_ARATH                   
1.5623217867160650307312153017847 1:0.070139661 2:0.086215086 3:0.064999998 4:0.023938548 5:0.032332402 6:0.0033379889 7:0.028938547 8:0.051410615 9:0.07099162 10:0.036298882 11:0.064958103 12:0.055782124 13:0.016382681 14:0.020446928 15:0.063715085 16:0.058100559 17:0.041243017 18:0.068826817 19:0.036606144 20:0.063966483 21:0.057342656 22:0.065734267 23:0.027972028 24:0.07132867 25:0.07692308 26:0.027972028 27:0.033566434 28:0.07132867 29:0.047552448 30:0.036363635 31:0.095104896 32:0.05874126 33:0.099300697 34:0.062937066 35:0.044755246 36:0.032167833 37:0.022377623 38:0.0055944058 39:0.051748253 40:0.011188812 #PROL_ARATH                    
-1.7972820159889251190321601825417 1:0.093370169 2:0.067237571 3:0.040828731 4:0.023480663 5:0.050883979 6:0.010386741 7:0.031381216 8:0.06850829 9:0.061657459 10:0.073425412 11:0.062983423 12:0.058563534 13:0.0085635362 14:0.024751382 15:0.072707184 16:0.041381214 17:0.03127072 18:0.048342541 19:0.04635359 20:0.053535912 21:0.044444446 22:0.072222225 23:0.03888889 24:0.055555556 25:0.044444446 26:0.044444446 27:0.022222223 28:0.077777781 29:0.06666667 30:0.022222223 31:0.044444446 32:0.11111111 33:0.055555556 34:0.050000001 35:0.072222225 36:0.06666667 37:0.027777778 38:0.0055555557 39:0.06666667 40:0.011111111 #CEN_ANTMA                     
-1.1490370435921535285928030134528 1:0.13161765 2:0.08098039 3:0.030735293 4:0.0091666663 5:0.031078432 6:0.0068137255 7:0.055049021 8:0.043480393 9:0.13431373 10:0.063039213 11:0.055147059 12:0.048774511 13:0.0052941176 14:0.0069607841 15:0.040637255 16:0.068872549 17:0.041568626 18:0.067745097 19:0.025980392 20:0.042156864 21:0.064039409 22:0.029556651 23:0 24:0.054187194 25:0.068965517 26:0.029556651 27:0.034482758 28:0.064039409 29:0.068965517 30:0.064039409 31:0.093596056 32:0.1724138 33:0.078817733 34:0.034482758 35:0.064039409 36:0.029556651 37:0 38:0.0049261083 39:0.044334974 40:0 #SRPP_HEVBR                    
-1.104889251955583517883496824652 1:0.095089287 2:0.063303575 3:0.054017857 4:0.017053571 5:0.049375001 6:0.016071429 7:0.022767857 8:0.064553574 9:0.099196427 10:0.03875 11:0.054910716 12:0.043303572 13:0.025535714 14:0.020446429 15:0.023125 16:0.093214288 17:0.032499999 18:0.072589286 19:0.032857142 20:0.061875001 21:0.10714286 22:0 23:0.026785715 24:0.089285716 25:0.035714287 26:0.0089285718 27:0.017857144 28:0.035714287 29:0.044642858 30:0.017857144 31:0.1875 32:0.11607143 33:0.0625 34:0.053571429 35:0.035714287 36:0.035714287 37:0.017857144 38:0.017857144 39:0.071428575 40:0.017857144 #TRXH_CHLRE                    
1.863405347671453604618818644667 1:0.059 2:0.097588234 3:0.066764705 4:0.02735294 5:0.035088234 6:0.0012647059 7:0.023235295 8:0.08435294 9:0.098176472 10:0.03132353 11:0.060911763 12:0.060411766 13:0.017205883 14:0.020352941 15:0.050058823 16:0.058911763 17:0.047029413 18:0.073147058 19:0.027794117 20:0.049794119 21:0.053097345 22:0.056047197 23:0.020648967 24:0.04719764 25:0.076696165 26:0.014749262 27:0.067846611 28:0.064896755 29:0.053097345 30:0.017699115 31:0.12979351 32:0.056047197 33:0.09439528 34:0.064896755 35:0.029498525 36:0.03539823 37:0.020648967 38:0 39:0.08259587 40:0.014749262 #R51A1_MAIZE                   
2 1:0.059733123 2:0.088116169 3:0.048697017 4:0.025635792 5:0.029372057 6:0.0078335954 7:0.03800628 8:0.060439561 9:0.058979593 10:0.033076923 11:0.070109889 12:0.047566719 13:0.011648351 14:0.020156985 15:0.044364206 16:0.094160125 17:0.033814758 18:0.076499216 19:0.049199373 20:0.056169543 21:0.091194965 22:0.044025157 23:0.014150944 24:0.062893085 25:0.083333336 26:0.064465411 27:0.033018868 28:0.073899373 29:0.050314464 30:0.045597482 31:0.0581761 32:0.069182388 33:0.084905662 34:0.047169812 35:0.036163524 36:0.031446543 37:0.02672956 38:0.011006289 39:0.062893085 40:0.0094339624 #PARP2_ARATH                   
1.182117470633190947637558565475 1:0.045000002 2:0.079999998 3:0.052967034 4:0.029725274 5:0.033461537 6:0.018241758 7:0.035219781 8:0.056923077 9:0.077142857 10:0.089890108 11:0.082252748 12:0.061538462 13:0.012967033 14:0.017032968 15:0.049285714 16:0.066098899 17:0.036813188 18:0.052362636 19:0.044615384 20:0.048241757 21:0.060773481 22:0.055248618 23:0.016574586 24:0.055248618 25:0.038674034 26:0.022099448 27:0.011049724 28:0.082872927 29:0.066298343 30:0.044198897 31:0.082872927 32:0.044198897 33:0.082872927 34:0.077348068 35:0.099447511 36:0.038674034 37:0.016574586 38:0.022099448 39:0.071823202 40:0.011049724 #COP10_ARATH                   
-1.6236281951049869043401940871263 1:0.069226362 2:0.08939828 3:0.049742121 4:0.026074499 5:0.042464182 6:0.012550144 7:0.029999999 8:0.057134669 9:0.060315188 10:0.059742119 11:0.064699143 12:0.046790831 13:0.014355301 14:0.02469914 15:0.044899713 16:0.061060172 17:0.036733523 18:0.074240685 19:0.03893983 20:0.057134669 21:0.086206898 22:0.02586207 23:0.02586207 24:0.043103449 25:0.097701147 26:0.048850574 27:0.037356321 28:0.057471264 29:0.043103449 30:0.05172414 31:0.054597702 32:0.083333336 33:0.068965517 34:0.077586204 35:0.068965517 36:0.022988506 37:0.020114943 38:0.020114943 39:0.057471264 40:0.0086206896 #FLS_SOLTU                     
-0.58296946884993994242307735476061 1:0.078991599 2:0.10831933 3:0.067626052 4:0.016806724 5:0.041008402 6:0.0072268909 7:0.023571428 8:0.064873949 9:0.053823531 10:0.047331933 11:0.065189078 12:0.055735294 13:0.0081092436 14:0.019096639 15:0.034264706 16:0.07779412 17:0.027542017 18:0.060987394 19:0.064033613 20:0.060462184 21:0.088235296 22:0.021008404 23:0.012605042 24:0.063025214 25:0.05882353 26:0.069327734 27:0.021008404 28:0.063025214 29:0.052521009 30:0.021008404 31:0.073529415 32:0.081932776 33:0.11554622 34:0.065126054 35:0.054621849 36:0.037815128 37:0.010504202 38:0.0084033618 39:0.073529415 40:0.0084033618 #UGPA_SOLTU                    
-1.8535314219560956594534673058661 1:0.061945137 2:0.089625932 3:0.052718204 4:0.02446384 5:0.044763092 6:0.012119701 7:0.027506234 8:0.055935163 9:0.05713217 10:0.056882791 11:0.068578556 12:0.040349126 13:0.014663341 14:0.025286783 15:0.044887781 16:0.06468828 17:0.033441398 18:0.071471319 19:0.042069826 20:0.059177056 21:0.067500003 22:0.050000001 23:0.02 24:0.0625 25:0.07 26:0.057500001 27:0.0425 28:0.075000003 29:0.032499999 30:0.0275 31:0.037500001 32:0.057500001 33:0.092500001 34:0.094999999 35:0.057500001 36:0.052499998 37:0.02 38:0.0074999998 39:0.057500001 40:0.0175 #DV4H_CATRO                    
2 1:0.078243241 2:0.090900898 3:0.037567567 4:0.021486487 5:0.041036036 6:0.014864865 7:0.02490991 8:0.062747747 9:0.069954954 10:0.067837834 11:0.065810814 12:0.055450451 13:0.017972972 14:0.031036036 15:0.05599099 16:0.043288287 17:0.051666666 18:0.066981979 19:0.037747748 20:0.049864866 21:0.049773756 22:0.040723983 23:0.022624435 24:0.04524887 25:0.085972853 26:0.049773756 27:0.049773756 28:0.067873307 29:0.06334842 30:0.027149322 31:0.04524887 32:0.085972853 33:0.085972853 34:0.067873307 35:0.06334842 36:0.03167421 37:0.013574661 38:0.013574661 39:0.06334842 40:0.027149322 #ARFW_ARATH                    
1.132423013576001169511187072203 1:0.072547428 2:0.072222225 3:0.051680218 4:0.014525745 5:0.039295394 6:0.026639566 7:0.028780488 8:0.066802166 9:0.051490515 10:0.029647697 11:0.091707319 12:0.057913277 13:0.028563686 14:0.027750678 15:0.042466126 16:0.051680218 17:0.027750678 18:0.037804879 19:0.036747966 20:0.065745257 21:0.065217391 22:0.032608695 23:0.019021738 24:0.0625 25:0.048913043 26:0.046195652 27:0.024456521 28:0.092391305 29:0.0625 30:0.032608695 31:0.048913043 32:0.089673914 33:0.067934781 34:0.076086953 35:0.040760871 36:0.051630434 37:0.010869565 38:0.029891305 39:0.070652172 40:0.027173912 #FIE_ARATH                     
0.72129226679046776204984325886471 1:0.041715976 2:0.0352071 3:0.02704142 4:0.018520711 5:0.03928994 6:0.011183432 7:0.052662723 8:0.23130177 9:0.050769232 10:0.02745562 11:0.082366861 12:0.033905324 13:0.0051479288 14:0.013609467 15:0.085147932 16:0.044733729 17:0.028934911 18:0.056390531 19:0.046035502 20:0.05994083 21:0.023809524 22:0.083333336 23:0 24:0.053571429 25:0.05952381 26:0.017857144 27:0.017857144 28:0.071428575 29:0.029761905 30:0.053571429 31:0.041666668 32:0.029761905 33:0.023809524 34:0.023809524 35:0.0059523811 36:0.035714287 37:0.011904762 38:0.011904762 39:0.39880952 40:0.0059523811 #GRP2_SINAL                    
-1.7575957252612945946879108305438 1:0.072438478 2:0.075704701 3:0.040939596 4:0.03720358 5:0.050067116 6:0.008724832 7:0.034653243 8:0.078478746 9:0.071543626 10:0.040760625 11:0.064586133 12:0.058187921 13:0.02067114 14:0.022371365 15:0.049082775 16:0.035190158 17:0.043579418 18:0.075391501 19:0.048277404 20:0.058053691 21:0.031390134 22:0.051569507 23:0.020179372 24:0.05605381 25:0.082959644 26:0.051569507 27:0.047085203 28:0.067264572 29:0.058295965 30:0.035874441 31:0.060538117 32:0.067264572 33:0.07399103 34:0.038116593 35:0.040358745 36:0.051569507 37:0.044843048 38:0.011210762 39:0.082959644 40:0.026905829 #TBB1_LUPAL                    
-1.1165481862750308295062495744787 1:0.078148149 2:0.11757202 3:0.072098762 4:0.017119342 5:0.041893005 6:0.00024691358 7:0.016954733 8:0.065967076 9:0.093703702 10:0.060370371 11:0.067407407 12:0.042880658 13:0.017201645 14:0.026872428 15:0.065061726 16:0.053374484 17:0.027736625 18:0.059094649 19:0.028477367 20:0.047160495 21:0.06198347 22:0.0661157 23:0.020661157 24:0.049586777 25:0.0661157 26:0.016528925 27:0.012396694 28:0.070247933 29:0.053719006 30:0.012396694 31:0.10330579 32:0.074380167 33:0.099173553 34:0.099173553 35:0.06198347 36:0.037190083 37:0.016528925 38:0 39:0.06198347 40:0.016528925 #APT1_ARATH                    
-1.0647422766322818254991489084205 1:0.087194242 2:0.092517987 3:0.061474819 4:0.032589927 5:0.027517986 6:0.0031654676 7:0.013669065 8:0.087949641 9:0.12543166 10:0.04643885 11:0.073129497 12:0.056618705 13:0.018956834 14:0.018776979 15:0.039604317 16:0.053309351 17:0.03179856 18:0.05769784 19:0.027014388 20:0.034712229 21:0.064981952 22:0.050541516 23:0.014440433 24:0.0433213 25:0.061371841 26:0.010830325 27:0.025270758 28:0.068592057 29:0.046931408 30:0.0072202166 31:0.13718411 32:0.093862817 33:0.097472921 34:0.061371841 35:0.036101084 36:0.039711192 37:0.018050542 38:0.0072202166 39:0.11552346 40:0 #P5CR_ACTCH                    
1.3529280917352577429113580365083 1:0.049137931 2:0.095344827 3:0.069137931 4:0.023275862 5:0.063103445 6:0.0015517242 7:0.027241379 8:0.034396552 9:0.067327589 10:0.054051723 11:0.043275863 12:0.066465519 13:0.014051724 14:0.027844828 15:0.038793102 16:0.077672414 17:0.039051723 18:0.088189654 19:0.058448277 20:0.058793105 21:0.069565214 22:0.060869563 23:0.034782607 24:0.060869563 25:0.078260869 26:0.069565214 27:0.060869563 28:0.052173913 29:0.052173913 30:0.052173913 31:0.069565214 32:0.069565214 33:0.060869563 34:0.069565214 35:0.043478262 36:0.052173913 37:0.017391304 38:0 39:0.026086956 40:0 #RPB11_ARATH                   
0.8391876374823776796318952619913 1:0.063062496 2:0.076187499 3:0.074500002 4:0.030437499 5:0.038687501 6:0.0144375 7:0.0144375 8:0.032499999 9:0.075374998 10:0.03675 11:0.052124999 12:0.055750001 13:0.017312501 14:0.015812499 15:0.033374999 16:0.078187503 17:0.028625 18:0.1116875 19:0.0518125 20:0.081812501 21:0.08176101 22:0.025157232 23:0.012578616 24:0.08176101 25:0.12578617 26:0.050314464 27:0.025157232 28:0.050314464 29:0.062893085 30:0.012578616 31:0.11949685 32:0.075471699 33:0.075471699 34:0.062893085 35:0.025157232 36:0.03773585 37:0.018867925 38:0.012578616 39:0.025157232 40:0.018867925 #SKP1A_ARATH                   
0.66354611518154105187505820140359 1:0.037708335 2:0.038833335 3:0.021416666 4:0.0087083336 5:0.011916666 6:0.00070833333 7:0.012791666 8:0.021 9:0.14770833 10:0.11820833 11:0.091708332 12:0.048541665 13:0 14:0.0094999997 15:0.013208333 16:0.25329167 17:0.014333333 18:0.099749997 19:0.013583333 20:0.028916666 21:0.32499999 22:0.0041666669 23:0.0083333338 24:0.025 25:0.029166667 26:0.0083333338 27:0.0125 28:0.037500001 29:0.041666668 30:0.0125 31:0.26666668 32:0.025 33:0.037500001 34:0.016666668 35:0.11666667 36:0.0125 37:0.0041666669 38:0 39:0.016666668 40:0 #H12_VOLCA                     
-1.1043424791534239837176301080035 1:0.076906078 2:0.10265193 3:0.014254143 4:0.027624309 5:0.049723756 6:0.012430939 7:0.038674034 8:0.042817678 9:0.092099451 10:0.049723756 11:0.056132596 12:0.077403314 13:0.027624309 14:0.026685083 15:0.045580111 16:0.062154695 17:0.016574586 18:0.10403315 19:0.024419889 20:0.052486189 21:0.072222225 22:0.033333335 23:0.022222223 24:0.050000001 25:0.11111111 26:0.033333335 27:0.016666668 28:0.061111111 29:0.10555556 30:0.033333335 31:0.083333336 32:0.072222225 33:0.11111111 34:0 35:0.044444446 36:0.055555556 37:0.022222223 38:0.011111111 39:0.027777778 40:0.033333335 #CPD_ARATH                     
-0.99352931437723357444014027350931 1:0.065467834 2:0.11260234 3:0.061461989 4:0.023947369 5:0.046023391 6:0.012631579 7:0.054415204 8:0.0525731 9:0.059444446 10:0.028596491 11:0.054736841 12:0.039941519 13:0.018391812 14:0.019444445 15:0.040701754 16:0.079181284 17:0.04371345 18:0.071257308 19:0.036783624 20:0.072397664 21:0.087976538 22:0.035190616 23:0.02052786 24:0.07331378 25:0.07331378 26:0.038123168 27:0.04105572 28:0.061583579 29:0.035190616 30:0.052785926 31:0.046920821 32:0.070381232 33:0.1202346 34:0.058651026 35:0.029325513 36:0.046920821 37:0.017595308 38:0.014662757 39:0.061583579 40:0.014662757 #FPPS1_PARAR                   
-0.91016851632124839976967223265092 1:0.070060119 2:0.086492985 3:0.058216434 4:0.062364731 5:0.039218437 6:0.0024649298 7:0.014228457 8:0.090080157 9:0.077214427 10:0.027955912 11:0.058056112 12:0.046833668 13:0.0081162322 14:0.011362726 15:0.04260521 16:0.085811622 17:0.053086173 18:0.056052104 19:0.041402806 20:0.056252506 21:0.09437751 22:0.036144577 23:0.018072288 24:0.054216869 25:0.056224901 26:0.032128513 27:0.058232933 28:0.060240965 29:0.044176705 30:0.016064256 31:0.076305218 32:0.062248997 33:0.07429719 34:0.058232933 35:0.038152609 36:0.044176705 37:0.070281126 38:0.0060240962 39:0.090361446 40:0.01004016 #SR542_LYCES                   
0.89704795074958654232943899842212 1:0.063453235 2:0.10892086 3:0.047697842 4:0.01352518 5:0.011870503 6:7.1942442e-05 7:0.022374101 8:0.10697842 9:0.12841727 10:0.037050359 11:0.06705036 12:0.040071942 13:0.0014388489 14:0.020431655 15:0.076906472 16:0.095467627 17:0.033309352 18:0.051079135 19:0.03820144 20:0.021582734 21:0.094202898 22:0.065217391 23:0.014492754 24:0.014492754 25:0.057971016 26:0.050724637 27:0.028985508 28:0.086956523 29:0.036231883 30:0.021739131 31:0.12318841 32:0.079710148 33:0.10144927 34:0.043478262 35:0.043478262 36:0.021739131 37:0 38:0 39:0.11594203 40:0 #H2A_CICAR                     
0.62952986197243576693693967172294 1:0.059462916 2:0.11432225 3:0.047868714 4:0.017203752 5:0.025191816 6:0.017536232 7:0.021602727 8:0.050238702 9:0.10977834 10:0.061099745 11:0.10040921 12:0.05080989 13:0.020093776 14:0.027186701 15:0.053282183 16:0.039130434 17:0.037058823 18:0.061500426 19:0.031099744 20:0.037041772 21:0.040102389 22:0.052901022 23:0.025597269 24:0.037542664 25:0.060580205 26:0.030716723 27:0.035836179 28:0.099829353 29:0.054607507 30:0.024744028 31:0.11604095 32:0.06313993 33:0.11262798 34:0.052047782 35:0.065699659 36:0.024744028 37:0.017064847 38:0.017918089 39:0.047781572 40:0.020477816 #GIGAN_ARATH                   
0.8620471257615373028571070790349 1:0.052346367 2:0.0550838 3:0.051620111 4:0.030167598 5:0.02782123 6:0.0029050279 7:0.028044693 8:0.09642458 9:0.084748603 10:0.044692736 11:0.090335198 12:0.042234637 13:0.014581006 14:0.020335196 15:0.042569831 16:0.062737428 17:0.055195529 18:0.083463684 19:0.043016762 20:0.052290503 21:0.078651689 22:0.039325844 23:0.016853932 24:0.056179777 25:0.073033705 26:0.033707865 27:0.050561797 28:0.10112359 29:0.028089888 30:0.033707865 31:0.095505618 32:0.033707865 33:0.044943821 34:0.061797753 35:0.039325844 36:0.02247191 37:0.033707865 38:0.0056179776 39:0.14044943 40:0.011235955 #CBFA_MAIZE                    
-0.85813246613756366532044239647803 1:0.056224901 2:0.092008032 3:0.037228916 4:0.015742972 5:0.051847391 6:0.0083935745 7:0.02686747 8:0.078152612 9:0.10650603 10:0.052088354 11:0.067429721 12:0.051526103 13:0.012851406 14:0.022168675 15:0.050803214 16:0.058995984 17:0.028915662 18:0.054497991 19:0.037309237 20:0.070642568 21:0.064257026 22:0.056224901 23:0.036144577 24:0.084337346 25:0.064257026 26:0.020080321 27:0.028112451 28:0.052208837 29:0.040160641 30:0.020080321 31:0.10441767 32:0.048192769 33:0.092369474 34:0.036144577 35:0.064257026 36:0.060240965 37:0.016064256 38:0.0080321282 39:0.084337346 40:0.020080321 #APX1_ARATH                    
-0.857271314343818868763946738909 1:0.072739132 2:0.092434786 3:0.057739131 4:0.031608697 5:0.024826087 6:0.0094782608 7:0.03395652 8:0.088434786 9:0.077913046 10:0.048956521 11:0.067826085 12:0.035956521 13:0.0095652174 14:0.030043479 15:0.041565217 16:0.058956522 17:0.042130433 18:0.05604348 19:0.033521738 20:0.065652177 21:0.048034936 22:0.043668121 23:0.030567685 24:0.056768559 25:0.06113537 26:0.034934498 27:0.034934498 28:0.087336242 29:0.034934498 30:0.021834061 31:0.10043668 32:0.1091703 33:0.069868997 34:0.056768559 35:0.052401748 36:0.026200874 37:0.030567685 38:0.0087336246 39:0.082969435 40:0.0087336246 #PIMT_ARATH                    
-0.44073630103504596311481122938858 1:0.071480267 2:0.080065787 3:0.038092107 4:0.027532894 5:0.033421054 6:0.017434211 7:0.017960526 8:0.058059212 9:0.11223684 10:0.046414472 11:0.046315789 12:0.073782891 13:0.0045723682 14:0.014802632 15:0.047730263 16:0.056875002 17:0.035460528 18:0.051381581 19:0.040888157 20:0.062565789 21:0.082508251 22:0.03960396 23:0.01650165 24:0.066006601 25:0.066006601 26:0.03960396 27:0.042904291 28:0.0330033 29:0.07920792 30:0.01650165 31:0.12541254 32:0.07920792 33:0.072607264 34:0.03960396 35:0.046204619 36:0.036303632 37:0.0330033 38:0.01980198 39:0.059405942 40:0.0066006603 #RIP9_MAIZE                    
0.8011293858745769380647061552736 1:0.065235846 2:0.073349059 3:0.050471697 4:0.016084906 5:0.030542454 6:0.027617924 7:0.025542453 8:0.057476416 9:0.057146225 10:0.045353774 11:0.08198113 12:0.05601415 13:0.015683962 14:0.033962265 15:0.037500001 16:0.050613206 17:0.031273585 18:0.05985849 19:0.046108492 20:0.074575469 21:0.052009456 22:0.035460994 23:0.04255319 24:0.08510638 25:0.08747045 26:0.047281325 27:0.040189125 28:0.061465722 29:0.044917259 30:0.028368793 31:0.054373521 32:0.066193856 33:0.08510638 34:0.052009456 35:0.056737587 36:0.033096928 37:0.016548464 38:0.030732861 39:0.061465722 40:0.01891253 #MSI1_LYCES                    
0.76989621728516366427896855384461 1:0.059500925 2:0.091367841 3:0.052162662 4:0.016543439 5:0.075914972 6:0.0058410349 7:0.038761552 8:0.04009242 9:0.046617374 10:0.041497227 11:0.087929763 12:0.047726434 13:0.016691312 14:0.035415895 15:0.065619223 16:0.04397412 17:0.044602588 18:0.046155266 19:0.044399261 20:0.05456562 21:0.046296295 22:0.061111111 23:0.037037037 24:0.068518519 25:0.037037037 26:0.042592593 27:0.055555556 28:0.12037037 29:0.050000001 30:0.033333335 31:0.042592593 32:0.055555556 33:0.1 34:0.046296295 35:0.048148148 36:0.088888891 37:0.012962963 38:0.0055555557 39:0.037037037 40:0.011111111 #DET1_ARATH                    
0.4586760484945904270404071212397 1:0.049936306 2:0.065573245 3:0.037277069 4:0.038996816 5:0.040636942 6:0.016050955 7:0.021114649 8:0.057308916 9:0.052070063 10:0.067149684 11:0.068328023 12:0.034426752 13:0.016592357 14:0.020350318 15:0.046194267 16:0.063391723 17:0.060031846 18:0.060716562 19:0.054060511 20:0.070047773 21:0.06379585 22:0.051036682 23:0.025518341 24:0.070175439 25:0.068580545 26:0.078149922 27:0.057416268 28:0.068580545 29:0.031897925 30:0.01754386 31:0.049441785 32:0.060606062 33:0.06379585 34:0.033492822 35:0.070175439 36:0.046251994 37:0.047846891 38:0.015948962 39:0.062200956 40:0.01754386 #EIN3_ARATH                    
-0.75779662024513105844647498088307 1:0.056062501 2:0.087499999 3:0.044624999 4:0.0315625 5:0.056781251 6:0.022656251 7:0.0390625 8:0.046750002 9:0.046 10:0.050031248 11:0.064156249 12:0.051781248 13:0.01465625 14:0.0280625 15:0.044531249 16:0.071468748 17:0.033812501 18:0.074375004 19:0.035031252 20:0.052312501 21:0.10031348 22:0.028213166 23:0.021943573 24:0.050156739 25:0.087774292 26:0.050156739 27:0.025078369 28:0.05956113 29:0.056426331 30:0.050156739 31:0.047021944 32:0.040752351 33:0.097178683 34:0.072100312 35:0.050156739 36:0.065830722 37:0.018808777 38:0.015673982 39:0.043887146 40:0.018808777 #F4ST_FLACH                    
-0.83829338577377787711242262957967 1:0.066899225 2:0.087441862 3:0.051162791 4:0.01872093 5:0.039069768 6:0.0055038761 7:0.031705428 8:0.06713178 9:0.066162787 10:0.046705425 11:0.046007752 12:0.069612406 13:0.019728683 14:0.039379846 15:0.042829458 16:0.068643413 17:0.029689923 18:0.066782944 19:0.045697674 20:0.062441859 21:0.089494161 22:0.023346303 23:0.038910504 24:0.066147856 25:0.070038907 26:0.042801555 27:0.054474708 28:0.031128405 29:0.070038907 30:0.031128405 31:0.066147856 32:0.073929958 33:0.077821009 34:0.054474708 35:0.054474708 36:0.031128405 37:0.011673152 38:0.011673152 39:0.073929958 40:0.027237354 #GLO2C_ARATH                   
-1.2558321083025167919089426504797 1:0.06750562 2:0.07213483 3:0.049303371 4:0.016606741 5:0.056853931 6:0.0068764044 7:0.03339326 8:0.071393259 9:0.069460675 10:0.036494382 11:0.062719099 12:0.045775279 13:0.0082247192 14:0.031820226 15:0.040741574 16:0.055842698 17:0.039730337 18:0.066539325 19:0.040876403 20:0.054247189 21:0.056306306 22:0.047297299 23:0.027027028 24:0.058558557 25:0.074324325 26:0.033783782 27:0.029279279 28:0.092342339 29:0.047297299 30:0.027027028 31:0.074324325 32:0.065315314 33:0.081081077 34:0.047297299 35:0.047297299 36:0.065315314 37:0.018018018 38:0.0045045046 39:0.092342339 40:0.011261261 #HPPD_ARATH                    
0.69118964069433064256742227371433 1:0.062789112 2:0.094852611 3:0.035736963 4:0.025283447 5:0.041632652 6:0.013265306 7:0.022131519 8:0.066553287 9:0.10122449 10:0.038911566 11:0.069614515 12:0.038548753 13:0.014489796 14:0.024126984 15:0.058662131 16:0.035827663 17:0.039863944 18:0.060861677 19:0.036122449 20:0.040657595 21:0.0090909088 22:0.081818178 23:0.038636364 24:0.047727272 25:0.047727272 26:0.020454545 27:0.025 28:0.061363637 29:0.038636364 30:0.011363637 31:0.19545455 32:0.065909088 33:0.10681818 34:0.022727273 35:0.052272726 36:0.031818181 37:0.0068181818 38:0.015909091 39:0.10909091 40:0.011363637 #MOC_ORYSA                     
0.65183360648443100515692094631959 1:0.035060976 2:0.058810975 3:0.020670732 4:0.03792683 5:0.028780488 6:0.0064329267 7:0.026463415 8:0.09320122 9:0.052286584 10:0.067378052 11:0.11518293 12:0.074969515 13:0.02152439 14:0.016341463 15:0.039390244 16:0.04414634 17:0.03179878 18:0.026371952 19:0.12213415 20:0.030365855 21:0.042813454 22:0.042813454 23:0.024464833 24:0.024464833 25:0.018348623 26:0.12844037 27:0.036697246 28:0.12232416 29:0.073394492 30:0.027522936 31:0.051987767 32:0.024464833 33:0.064220183 34:0.024464833 35:0.079510704 36:0.03058104 37:0.061162081 38:0.0061162082 39:0.094801225 40:0.021406727 #PBF_MAIZE                     
0.78420929213682788461170503069297 1:0.062459677 2:0.060120966 3:0.027298387 4:0.024354838 5:0.050564516 6:0.012580645 7:0.023266129 8:0.05294355 9:0.079919353 10:0.041169357 11:0.085846774 12:0.066612907 13:0.0087903226 14:0.02076613 15:0.077096775 16:0.055604838 17:0.023104839 18:0.076290324 19:0.042096775 20:0.073225804 21:0.056680162 22:0.080971658 23:0.016194332 24:0.10526316 25:0.07692308 26:0.040485829 27:0.012145749 28:0.068825908 29:0.093117408 30:0.016194332 31:0.068825908 32:0.10526316 33:0.044534411 34:0.028340081 35:0.044534411 36:0.060728744 37:0.0080971662 38:0.012145749 39:0.052631579 40:0.0080971662 #PTI6_LYCES                    
-0.40756295770793798949327424452349 1:0.080188677 2:0.067924529 3:0.069622643 4:0.0081132073 5:0.042830188 6:0.0028301887 7:0.044213835 8:0.089308172 9:0.081257865 10:0.044339623 11:0.065597482 12:0.053773586 13:0.005283019 14:0.023018869 15:0.013207547 16:0.094150946 17:0.01408805 18:0.089056604 19:0.045597482 20:0.053018868 21:0.094339624 22:0.018867925 23:0.025157232 24:0.056603774 25:0.088050313 26:0.056603774 27:0.012578616 28:0.069182388 29:0.056603774 30:0.044025157 31:0.069182388 32:0.075471699 33:0.056603774 34:0.08176101 35:0.050314464 36:0.050314464 37:0.006289308 38:0 39:0.088050313 40:0 #BEV1A_BETVE                   
1.6106632889517389362055155288544 1:0.057048459 2:0.10312776 3:0.054027691 4:0.019515419 5:0.037665199 6:0.0070044054 7:0.029427312 8:0.044348646 9:0.058797985 10:0.04206419 11:0.07390812 12:0.050641913 13:0.0206545 14:0.026626809 15:0.046123348 16:0.065808684 17:0.034858402 18:0.067174323 19:0.039137822 20:0.052045312 21:0.071158692 22:0.044710327 23:0.031486146 24:0.05352645 25:0.079974808 26:0.039672542 27:0.028337531 28:0.096347608 29:0.042821158 30:0.027707808 31:0.058564231 32:0.064861462 33:0.11523929 34:0.056045339 35:0.045969773 36:0.046599496 37:0.01511335 38:0.0062972293 39:0.048488665 40:0.027078087 #DCL4_ARATH                    
0.42884342610451259281134639422817 1:0.031943463 2:0.067561835 3:0.04342756 4:0.019646643 5:0.029187279 6:0.024275618 7:0.028727915 8:0.049045935 9:0.049575973 10:0.045123674 11:0.10625441 12:0.059717316 13:0.014204947 14:0.030388692 15:0.055335689 16:0.068445228 17:0.036501765 18:0.071130745 19:0.065971732 20:0.055441696 21:0.074468084 22:0.04609929 23:0.04255319 24:0.035460994 25:0.081560284 26:0.063829787 27:0.035460994 28:0.16312057 29:0.04964539 30:0.031914894 31:0.039007094 32:0.021276595 33:0.074468084 34:0.04609929 35:0.04609929 36:0.04255319 37:0.014184397 38:0.028368793 39:0.04255319 40:0.021276595 #LAF1_ARATH                    
-0.79979252774226572419991043716436 1:0.070931457 2:0.1002109 3:0.055518452 4:0.021370826 5:0.046994727 6:0.015307557 7:0.022847101 8:0.070720561 9:0.080913886 10:0.04539543 11:0.06952548 12:0.056274164 13:0.0057469243 14:0.029648507 15:0.037539542 16:0.058347978 17:0.039367311 18:0.061564147 19:0.0485413 20:0.046151143 21:0.052816901 22:0.040492959 23:0.029929578 24:0.051056337 25:0.056338027 26:0.049295776 27:0.040492959 28:0.079225354 29:0.049295776 30:0.022887323 31:0.075704224 32:0.082746476 33:0.10211267 34:0.054577466 35:0.054577466 36:0.045774646 37:0.01584507 38:0.01584507 39:0.07394366 40:0.0070422534 #G6PI1_CLALE                   
0.43184143453172491033953406258661 1:0.026155779 2:0.080427133 3:0.027085427 4:0.036633167 5:0.023467336 6:0.0020351759 7:0.0099246232 8:0.055829145 9:0.081633165 10:0.049422111 11:0.095477387 12:0.037462313 13:0.0042211055 14:0.025552765 15:0.060954776 16:0.051432163 17:0.096532665 18:0.068542711 19:0.052788943 20:0.049371861 21:0.052896727 22:0.047858942 23:0.025188917 24:0.050377835 25:0.062972292 26:0.055415615 27:0.15617129 28:0.098236777 29:0.052896727 30:0.012594459 31:0.070528969 32:0.025188917 33:0.088161208 34:0.032745592 35:0.042821158 36:0.022670025 37:0.037783377 38:0.0050377832 39:0.055415615 40:0.0050377832 #POF21_ARATH                   
0.44528683305163041517005240166327 1:0.054773871 2:0.073366836 3:0.042512562 4:0.02160804 5:0.042211056 6:0.0012060301 7:0.031708542 8:0.076231159 9:0.12271357 10:0.056381911 11:0.061557788 12:0.043919597 13:0.027889447 14:0.041105527 15:0.059346735 16:0.029346734 17:0.075175881 18:0.034120604 19:0.03271357 20:0.053919598 21:0.035353534 22:0.055555556 23:0.04040404 24:0.060606062 25:0.030303031 26:0.04040404 27:0.080808081 28:0.070707068 29:0.035353534 30:0.030303031 31:0.11111111 32:0.055555556 33:0.095959596 34:0.035353534 35:0.060606062 36:0.045454547 37:0.01010101 38:0 39:0.075757578 40:0.030303031 #LBD6_ARATH                    
0.34614575926424473450992991274688 1:0.037794486 2:0.076215535 3:0.019223057 4:0.020200502 5:0.037493736 6:0 7:0.029649124 8:0.070526317 9:0.1035589 10:0.071203008 11:0.095889725 12:0.039774437 13:0.01962406 14:0.066466168 15:0.047343358 16:0.036942355 17:0.067593984 18:0.044185463 19:0.041654136 20:0.043959901 21:0.047738694 22:0.042713568 23:0.075376883 24:0.050251257 25:0.040201005 26:0.035175879 27:0.060301509 28:0.10050251 29:0.040201005 30:0.037688442 31:0.13316584 32:0.032663316 33:0.075376883 34:0.015075377 35:0.072864324 36:0.040201005 37:0.017587939 38:0 39:0.065326631 40:0.017587939 #LG1_MAIZE                     
0.90660367916492623496793612503097 1:0.061554346 2:0.077554345 3:0.055179346 4:0.025956521 5:0.033206522 6:0.0062826085 7:0.0265 8:0.06361413 9:0.061663043 10:0.073016301 11:0.075576089 12:0.063364133 13:0.013771739 14:0.021092391 15:0.05172826 16:0.058847826 17:0.036961958 18:0.062570654 19:0.04360326 20:0.052288044 21:0.05872757 22:0.050570961 23:0.016856987 24:0.061990213 25:0.061990213 26:0.036976617 27:0.030451333 28:0.1038608 29:0.068515494 30:0.041870583 31:0.053289831 32:0.050027188 33:0.07721588 34:0.054921154 35:0.085372485 36:0.032082655 37:0.031538881 38:0.0092441542 39:0.061446439 40:0.013050571 #RPB1_ARATH                    
0.56154428859090788073160638305126 1:0.050946373 2:0.065646686 3:0.032681387 4:0.022113565 5:0.05141956 6:0.018012619 7:0.037034702 8:0.086151421 9:0.054258674 10:0.054952681 11:0.087413251 12:0.048170347 13:0.011324921 14:0.02444795 15:0.052839115 16:0.057287067 17:0.038201891 18:0.061892744 19:0.049053628 20:0.053280756 21:0.060126584 22:0.047468353 23:0.022151899 24:0.053797469 25:0.0664557 26:0.0664557 27:0.041139241 28:0.094936706 29:0.050632913 30:0.047468353 31:0.047468353 32:0.047468353 33:0.069620252 34:0.041139241 35:0.047468353 36:0.06329114 37:0.012658228 38:0.018987341 39:0.091772154 40:0.0094936704 #NAC19_ARATH                   
0.3504897451067031655114192290057 1:0.054079421 2:0.090162456 3:0.033790614 4:0.02196751 5:0.03967509 6:0.013303249 7:0.023537906 8:0.054909747 9:0.084891699 10:0.047725633 11:0.081534296 12:0.042743683 13:0.010992779 14:0.024711192 15:0.050649818 16:0.038628157 17:0.044711191 18:0.070722021 19:0.04527076 20:0.052725632 21:0.052441228 22:0.048824593 23:0.025316456 24:0.048824593 25:0.072332732 26:0.095840871 27:0.036166366 28:0.10488246 29:0.059674501 30:0.016274864 31:0.065099455 32:0.04159132 33:0.094032548 34:0.032549728 35:0.048824593 36:0.043399639 37:0.018083183 38:0.0198915 39:0.059674501 40:0.016274864 #NSP1_MEDTR                    
-0.53955938549089743627718007701333 1:0.072556183 2:0.091488764 3:0.054073032 4:0.026601123 5:0.038735956 6:0.018117977 7:0.034831461 8:0.084662922 9:0.071292132 10:0.058792137 11:0.062275279 12:0.060196631 13:0.016207865 14:0.016629213 15:0.045533709 16:0.054719102 17:0.033539325 18:0.065056182 19:0.032668538 20:0.046376403 21:0.067605637 22:0.03943662 23:0.01971831 24:0.047887325 25:0.067605637 26:0.028169014 27:0.028169014 28:0.070422538 29:0.078873239 30:0.03943662 31:0.070422538 32:0.087323941 33:0.084507041 34:0.050704226 35:0.059154928 36:0.030985916 37:0.016901409 38:0.0084507046 39:0.084507041 40:0.01971831 #BCAT6_ARATH                   
-0.53455527506596867137744766296237 1:0.086301371 2:0.0874364 3:0.063502938 4:0.028493151 5:0.037279844 6:0.0090019573 7:0.033855185 8:0.065675147 9:0.06600783 10:0.048747554 11:0.070273973 12:0.052896284 13:0.010176125 14:0.020078277 15:0.0348728 16:0.063757338 17:0.030293543 18:0.060195696 19:0.064246573 20:0.056653619 21:0.068627454 22:0.029411765 23:0.019607844 24:0.060784314 25:0.062745102 26:0.06666667 27:0.025490196 28:0.06666667 29:0.052941177 30:0.029411765 31:0.062745102 32:0.098039217 33:0.070588239 34:0.072549023 35:0.050980393 36:0.041176472 37:0.039215688 38:0.0078431377 39:0.068627454 40:0.0058823531 #INO1_ARATH                    
0.58383861313065354980977872401127 1:0.030810811 2:0.11576577 3:0.067297295 4:0.016036035 5:0.0036936938 6:0 7:0.022972973 8:0.017747749 9:0.086306304 10:0.0044144145 11:0.071801804 12:0.052342344 13:0.015855856 14:0.011621621 15:0.069819823 16:0.10936937 17:0.076126128 18:0.13432433 19:0.06045045 20:0.031891894 21:0.12727273 22:0.054545455 23:0.0090909088 24:0.036363635 25:0.13636364 26:0.054545455 27:0.081818178 28:0.063636363 29:0.063636363 30:0.018181818 31:0.1 32:0.045454547 33:0.10909091 34:0.081818178 35:0 36:0 37:0 38:0 39:0.0090909088 40:0.0090909088 #DIP13_CHLRE                   
0.50002182965554942128960647096392 1:0.044238411 2:0.097284772 3:0.031854305 4:0.037615895 5:0.013178808 6:0.0070860926 7:0.011125828 8:0.033509932 9:0.090596028 10:0.050463576 11:0.10152318 12:0.037814569 13:0.0099999998 14:0.015165563 15:0.091589406 16:0.056092717 17:0.061456952 18:0.081788078 19:0.048410594 20:0.052913908 21:0.013333334 22:0.14 23:0.026666667 24:0.06666667 25:0.079999998 26:0.026666667 27:0.053333335 28:0.093333334 29:0.033333335 30:0.02 31:0.13333334 32:0.059999999 33:0.1 34:0.013333334 35:0.053333335 36:0.0066666668 37:0.033333335 38:0.0066666668 39:0.039999999 40:0 #OCS1_MAIZE                    
0.44151196519290469844065682991641 1:0.038242426 2:0.10215151 3:0.04660606 4:0.024787879 5:0.029939394 6:0.0049999999 7:0.013515151 8:0.050787877 9:0.077848487 10:0.018848484 11:0.06812121 12:0.04218182 13:0.0099999998 14:0.0050606062 15:0.050484847 16:0.087484851 17:0.075363636 18:0.12930302 19:0.037969697 20:0.080060609 21:0.10638298 22:0.048632219 23:0.012158055 24:0.069908813 25:0.13981763 26:0.039513677 27:0.054711245 28:0.079027355 29:0.030395137 30:0.0091185411 31:0.082066871 32:0.039513677 33:0.091185413 34:0.057750762 35:0.021276595 36:0.030395137 37:0.021276595 38:0.0030395137 39:0.051671732 40:0.012158055 #FIP37_ARATH                   
0.47685781142140371002824394963682 1:0.034496125 2:0.092984498 3:0.040348839 4:0.018410852 5:0.032519381 6:0.02507752 7:0.015387597 8:0.062945738 9:0.040891472 10:0.045155037 11:0.084031008 12:0.051472869 13:0.027751938 14:0.029418604 15:0.072906978 16:0.06523256 17:0.034534883 18:0.068720929 19:0.061162792 20:0.075116277 21:0.070038907 22:0.089494161 23:0.035019454 24:0.073929958 25:0.062256809 26:0.070038907 27:0.027237354 28:0.08171206 29:0.062256809 30:0.0077821012 31:0.023346303 32:0.023346303 33:0.11673152 34:0.050583657 35:0.038910504 36:0.031128405 37:0.011673152 38:0.023346303 39:0.073929958 40:0.027237354 #TT2_ARATH                     
0.44390769953640901723801448497397 1:0.05338816 2:0.054835528 3:0.023289474 4:0.019243421 5:0.039407894 6:0.009210526 7:0.037335526 8:0.076348685 9:0.056217104 10:0.052565791 11:0.13483553 12:0.066973686 13:0.015592106 14:0.02381579 15:0.050296053 16:0.049934212 17:0.040460527 18:0.062401317 19:0.042171054 20:0.061480261 21:0.072607264 22:0.052805282 23:0.01650165 24:0.042904291 25:0.085808583 26:0.03960396 27:0.03960396 28:0.15511551 29:0.062706269 30:0.036303632 31:0.046204619 32:0.036303632 33:0.069306932 34:0.026402641 35:0.066006601 36:0.042904291 37:0.01650165 38:0.0099009899 39:0.069306932 40:0.013201321 #WRK29_ARATH                   
0.37114797144639632975327003805432 1:0.063150406 2:0.077296749 3:0.04063008 4:0.029166667 5:0.020955285 6:0.0060975607 7:0.0061178864 8:0.040691055 9:0.076707318 10:0.047439024 11:0.1281504 12:0.049451221 13:0.010142276 14:0.010873984 15:0.065060973 16:0.065691054 17:0.085386179 18:0.052764229 19:0.03390244 20:0.040691055 21:0.063136458 22:0.067209773 23:0.014256619 24:0.044806518 25:0.044806518 26:0.036659878 27:0.087576374 28:0.13849287 29:0.048879836 30:0.0081466399 31:0.091649696 32:0.077393077 33:0.083503053 34:0.038696539 35:0.048879836 36:0.01629328 37:0.030549899 38:0.0061099795 39:0.044806518 40:0.0081466399 #PAIR1_ORYSA                   
0.37583101277835123665838068518497 1:0.045314286 2:0.059828572 3:0.025714286 4:0.015542857 5:0.038742859 6:0.011885715 7:0.030114286 8:0.081085712 9:0.077085711 10:0.05097143 11:0.063085712 12:0.060114287 13:0.045028571 14:0.021657143 15:0.082000002 16:0.06542857 17:0.058228571 18:0.0524 19:0.049714286 20:0.040342856 21:0.068965517 22:0.074712642 23:0.017241379 24:0.040229887 25:0.05172414 26:0.040229887 27:0.080459774 28:0.045977011 29:0.074712642 30:0.022988506 31:0.091954023 32:0.05172414 33:0.057471264 34:0.034482758 35:0.057471264 36:0.045977011 37:0.0057471264 38:0.011494253 39:0.086206898 40:0.040229887 #DOF15_ARATH                   
0.36895227740156516516023543772462 1:0.032260273 2:0.058184933 3:0.035171233 4:0.024178082 5:0.029828766 6:0.013767123 7:0.041952055 8:0.078630134 9:0.052054796 10:0.055479452 11:0.078082189 12:0.044863015 13:0.014760274 14:0.065650687 15:0.048664384 16:0.037842467 17:0.055890411 18:0.07017123 19:0.083184935 20:0.033253424 21:0.04467354 22:0.048109967 23:0.082474224 24:0.030927835 25:0.058419243 26:0.10309278 27:0.054982819 28:0.0790378 29:0.04467354 30:0.048109967 31:0.054982819 32:0.034364261 33:0.054982819 34:0.027491409 35:0.054982819 36:0.030927835 37:0.030927835 38:0.013745705 39:0.085910656 40:0.01718213 #WUS_ARATH                     
0.36019545254527929323273838235764 1:0.041727021 2:0.094094709 3:0.031337049 4:0.028551532 5:0.026239553 6:0.014178273 7:0.028077994 8:0.074846797 9:0.089080781 10:0.05947075 11:0.080194987 12:0.034902506 13:0.012924791 14:0.051420614 15:0.043760445 16:0.052200556 17:0.052451253 18:0.075626738 19:0.033231199 20:0.04356546 21:0.061452515 22:0.036312848 23:0.069832399 24:0.030726258 25:0.086592175 26:0.033519555 27:0.05027933 28:0.092178769 29:0.039106146 30:0.033519555 31:0.081005588 32:0.041899443 33:0.10893854 34:0.027932961 35:0.055865921 36:0.019553073 37:0.022346368 38:0.016759777 39:0.086592175 40:0.005586592 #KN1_MAIZE                     
0.23746039871709839763624927400087 1:0.06697572 2:0.059094924 3:0.03527594 4:0.038697571 5:0.020419426 6:0.012626932 7:0.010927152 8:0.062207505 9:0.091920532 10:0.069646798 11:0.1002649 12:0.049006622 13:0.015960265 14:0.018896246 15:0.064172186 16:0.03169978 17:0.041501105 18:0.068476819 19:0.045386314 20:0.052295804 21:0.028761063 22:0.07079646 23:0.022123894 24:0.055309735 25:0.079646021 26:0.044247787 27:0.03318584 28:0.095132746 29:0.050884955 30:0.011061947 31:0.099557519 32:0.075221241 33:0.059734512 34:0.03761062 35:0.081858404 36:0.017699115 37:0.046460178 38:0.013274336 39:0.059734512 40:0.017699115 #OP2_MAIZE                     
0.40891050727633027062069004387013 1:0.064957269 2:0.086695157 3:0.036153845 4:0.033561252 5:0.044928774 6:0.013789174 7:0.015555556 8:0.048062678 9:0.046666667 10:0.046524215 11:0.069914527 12:0.035669517 13:0.0052991454 14:0.021509971 15:0.05039886 16:0.06096866 17:0.063760683 18:0.092279203 19:0.051623933 20:0.065014243 21:0.057142857 22:0.054285713 23:0.014285714 24:0.065714285 25:0.10285714 26:0.037142858 27:0.068571426 28:0.085714288 29:0.054285713 30:0.017142856 31:0.037142858 32:0.082857139 33:0.079999998 34:0.045714285 35:0.039999999 36:0.045714285 37:0.039999999 38:0.014285714 39:0.054285713 40:0.0028571428 #HSF30_LYCPE                   
0.30107282419008457585718474547321 1:0.018235294 2:0.092303924 3:0.031127451 4:0.023186274 5:0.040392157 6:0.010098039 7:0.035049021 8:0.065245099 9:0.059754901 10:0.071764708 11:0.11279412 12:0.045049019 13:0.024656862 14:0.028235294 15:0.076862745 16:0.035784315 17:0.03622549 18:0.051764704 19:0.049509805 20:0.049019609 21:0.039408866 22:0.088669948 23:0.029556651 24:0.044334974 25:0.059113301 26:0.049261082 27:0.029556651 28:0.14778325 29:0.049261082 30:0.044334974 31:0.054187194 32:0.0098522166 33:0.10344828 34:0.034482758 35:0.093596056 36:0.034482758 37:0.0098522166 38:0.0098522166 39:0.044334974 40:0.024630541 #SUP_ARATH                     
0.25513837694818114476547066260537 1:0.045201004 2:0.071721107 3:0.033756282 4:0.026884422 5:0.022135679 6:0.0078140702 7:0.014635678 8:0.046633165 9:0.040640704 10:0.042110551 11:0.11059045 12:0.052587941 13:0.021909548 14:0.014070352 15:0.05821608 16:0.090012565 17:0.034158293 18:0.13871859 19:0.04755025 20:0.066193469 21:0.085534588 22:0.062893085 23:0.013836478 24:0.06666667 25:0.14339623 26:0.051572327 27:0.040251572 28:0.10188679 29:0.056603774 30:0.012578616 31:0.038993713 32:0.054088049 33:0.069182388 34:0.031446543 35:0.036477987 36:0.021383647 37:0.031446543 38:0.010062893 39:0.050314464 40:0.021383647 #PRH_ARATH                     
0.18855114487772475784232995010825 1:0.057592593 2:0.053888887 3:0.038814817 4:0.039592594 5:0.026074074 6:0.0077037038 7:0.015777778 8:0.057777777 9:0.067555554 10:0.037555557 11:0.11792593 12:0.039777778 13:0.0016666667 14:0.024518518 15:0.08937037 16:0.063629627 17:0.039370369 18:0.082407407 19:0.050222222 20:0.054185186 21:0.070631973 22:0.08178439 23:0.022304833 24:0.066914499 25:0.10780669 26:0.040892195 27:0.029739777 28:0.13011153 29:0.029739777 30:0.01858736 31:0.066914499 32:0.048327137 33:0.055762082 34:0.044609666 35:0.044609666 36:0.029739777 37:0.052044611 38:0.0074349442 39:0.052044611 40:0 #GBF4_ARATH                    
0.43187268037560594402535230074136 1:0.058945686 2:0.078306712 3:0.063035145 4:0.021501597 5:0.028466454 6:0.0059105433 7:0.022492012 8:0.058051117 9:0.086613417 10:0.033194888 11:0.078977637 12:0.05140575 13:0.032172523 14:0.015015975 15:0.060287539 16:0.064952075 17:0.030702876 18:0.05881789 19:0.046134185 20:0.058306709 21:0.067307696 22:0.060897436 23:0.012820513 24:0.067307696 25:0.067307696 26:0.057692308 27:0.035256412 28:0.086538464 29:0.048076924 30:0.022435898 31:0.089743592 32:0.05448718 33:0.070512824 34:0.067307696 35:0.035256412 36:0.025641026 37:0.012820513 38:0.009615385 39:0.07692308 40:0.032051284 #TF2B_SOYBN                    
-0.20364277586311138601438130990573 1:0.065130644 2:0.088598572 3:0.064168647 4:0.024168646 5:0.045617577 6:0.018016627 7:0.041033253 8:0.059572447 9:0.073527314 10:0.039429929 11:0.050736342 12:0.044988122 13:0.010249406 14:0.021448931 15:0.051258907 16:0.064334914 17:0.035415675 18:0.072410926 19:0.055439431 20:0.058800474 21:0.060642093 22:0.055885851 23:0.015457788 24:0.057074912 25:0.07609988 26:0.048751485 27:0.043995243 28:0.066587396 29:0.047562424 30:0.039239001 31:0.070154577 32:0.064209275 33:0.10225922 34:0.055885851 35:0.042806182 36:0.043995243 37:0.016646849 38:0.022592152 39:0.061831154 40:0.0083234245 #PHSH_VICFA                    
0.21653111782952075281549753071886 1:0.064506441 2:0.070386268 3:0.026609441 4:0.019871244 5:0.029399142 6:0.018240344 7:0.021759657 8:0.054034334 9:0.088669531 10:0.071373388 11:0.095021456 12:0.05665236 13:0.011072962 14:0.010987124 15:0.068755366 16:0.060214594 17:0.036437768 18:0.075836912 19:0.035965666 20:0.04412017 21:0.05172414 22:0.073275864 23:0.0086206896 24:0.034482758 25:0.086206898 26:0.02586207 27:0.034482758 28:0.081896551 29:0.06465517 30:0.02586207 31:0.11637931 32:0.060344826 33:0.081896551 34:0.034482758 35:0.094827585 36:0.021551725 37:0.021551725 38:0.017241379 39:0.056034483 40:0.0086206896 #ERF2_TOBAC                    
0.2511866243481346017141220272606 1:0.06110565 2:0.10110565 3:0.043316953 4:0.03014742 5:0.021916462 6:0.0092383288 7:0.033538084 8:0.052850123 9:0.045479115 10:0.052628994 11:0.082407862 12:0.049754299 13:0.0097788693 14:0.032923833 15:0.051572483 16:0.052579854 17:0.04867322 18:0.055675674 19:0.065700248 20:0.052800983 21:0.054187194 22:0.027093597 23:0.029556651 24:0.044334974 25:0.064039409 26:0.078817733 27:0.078817733 28:0.059113301 29:0.068965517 30:0.036945812 31:0.044334974 32:0.054187194 33:0.091133006 34:0.071428575 35:0.064039409 36:0.027093597 37:0.032019705 38:0.01231527 39:0.054187194 40:0.0073891627 #ARR19_ARATH                   
0.17912974178373719524870466557331 1:0.044532761 2:0.082728252 3:0.039881848 4:0.024307197 5:0.024564983 6:0.016777659 7:0.015338345 8:0.068592913 9:0.058152523 10:0.045918368 11:0.093276046 12:0.05160043 13:0.0094629433 14:0.025843179 15:0.044103116 16:0.052943073 17:0.097969927 18:0.050085928 19:0.044060152 20:0.049011815 21:0.043010753 22:0.035483871 23:0.031182796 24:0.048387095 25:0.036559138 26:0.051612902 27:0.13440861 28:0.11290322 29:0.056989249 30:0.011827957 31:0.056989249 32:0.05268817 33:0.084946238 34:0.029032258 35:0.056989249 36:0.025806451 37:0.031182796 38:0.012903226 39:0.07526882 40:0.011827957 #LEUNG_ARATH                   
0.19998797676800506017968928063056 1:0.063012555 2:0.071129709 3:0.025983263 4:0.032635983 5:0.021129707 6:0.013096235 7:0.023012552 8:0.073012553 9:0.054476988 10:0.049330544 11:0.081841007 12:0.037698746 13:0.01125523 14:0.0098744771 15:0.053765692 16:0.075062759 17:0.030041842 18:0.066025108 19:0.038912132 20:0.050376568 21:0.075630255 22:0.075630255 23:0.012605042 24:0.050420169 25:0.079831935 26:0.046218488 27:0.033613447 28:0.092436977 29:0.029411765 30:0.0084033618 31:0.054621849 32:0.088235296 33:0.088235296 34:0.021008404 35:0.046218488 36:0.025210084 37:0.042016808 38:0.016806724 39:0.1092437 40:0.0042016809 #IAA12_ARATH                   
0.051305064623473853324675530984678 1:0.033564355 2:0.080231026 3:0.036171619 4:0.01379538 5:0.04108911 6:0.010528053 7:0.027128713 8:0.057887789 9:0.044224422 10:0.056468647 11:0.082673267 12:0.044323433 13:0.038481846 14:0.051716171 15:0.056138612 16:0.071584158 17:0.039306931 18:0.074290432 19:0.053696368 20:0.042541254 21:0.079470202 22:0.049668875 23:0.052980132 24:0.043046359 25:0.086092718 26:0.06291391 27:0.033112582 28:0.079470202 29:0.033112582 30:0.029801324 31:0.033112582 32:0.029801324 33:0.089403972 34:0.043046359 35:0.066225164 36:0.046357617 37:0.0099337753 38:0.013245033 39:0.079470202 40:0.039735101 #TT1_ARATH                     
0.11112106537636613767805471297834 1:0.05325 2:0.079999998 3:0.041636363 4:0.023681818 5:0.04515909 6:0.012363636 7:0.022409091 8:0.032318182 9:0.051727273 10:0.036318183 11:0.078045458 12:0.038340908 13:0.026840908 14:0.037045453 15:0.066681817 16:0.061295453 17:0.0405 18:0.065613635 19:0.079659089 20:0.070681818 21:0.061503418 22:0.070615031 23:0.029612755 24:0.070615031 25:0.066059224 26:0.097949885 27:0.029612755 28:0.088838272 29:0.041002277 30:0.020501139 31:0.043280181 32:0.059225511 33:0.091116175 34:0.036446471 35:0.036446471 36:0.054669704 37:0.01594533 38:0.011389522 39:0.038724374 40:0.036446471 #VRN2_ARATH                    
0.081857577397790245998798752680159 1:0.047139589 2:0.12205949 3:0.036338672 4:0.016803967 5:0.01706331 6:0.0050343247 7:0.028314264 8:0.060907703 9:0.085423343 10:0.020983981 11:0.081174679 12:0.037223492 13:0.034324944 14:0.028489703 15:0.048428681 16:0.055942029 17:0.048520215 18:0.075491987 19:0.050533943 20:0.059069414 21:0.079389311 22:0.039694656 23:0.026717557 24:0.058015268 25:0.092366412 26:0.053435113 27:0.038931299 28:0.095419846 29:0.039694656 30:0.029007634 31:0.068702288 32:0.051908396 33:0.11450382 34:0.05496183 35:0.022137405 36:0.020610686 37:0.022900764 38:0.0061068702 39:0.052671757 40:0.032824427 #BRU1_ARATH                    
0.055962078386666523621695290557909 1:0.02423567 2:0.079267517 3:0.027643312 4:0.030445861 5:0.041273884 6:0.012738854 7:0.019235669 8:0.042993631 9:0.049617834 10:0.041337579 11:0.085000001 12:0.044363059 13:0.0127707 14:0.044522293 15:0.058598727 16:0.053535033 17:0.070159234 18:0.091847137 19:0.073375799 20:0.053757962 21:0.06709265 22:0.044728436 23:0.063897766 24:0.063897766 25:0.06709265 26:0.092651755 27:0.073482431 28:0.083067089 29:0.047923323 30:0.019169329 31:0.057507988 32:0.022364218 33:0.083067089 34:0.028753994 35:0.03514377 36:0.041533545 37:0.038338657 38:0.015974442 39:0.047923323 40:0.0063897762 #HAT7_ARATH                    
0.044266915889740035550126151520089 1:0.061495017 2:0.073754154 3:0.031893689 4:0.029667774 5:0.044252492 6:0.013122924 7:0.01717608 8:0.06036545 9:0.044053156 10:0.045116279 11:0.083521597 12:0.038471762 13:0.012192691 14:0.022392027 15:0.054883722 16:0.080299005 17:0.045946844 18:0.066079736 19:0.055049833 20:0.052358802 21:0.11 22:0.033333335 23:0.0033333334 24:0.083333336 25:0.06666667 26:0.056666669 27:0.036666665 28:0.1 29:0.059999999 30:0.02 31:0.056666669 32:0.063333333 33:0.07333333 34:0.026666667 35:0.046666667 36:0.039999999 37:0.023333333 38:0.013333334 39:0.076666668 40:0.0099999998 #HSF24_LYCPE                   
0.013099944332907545799238313577462 1:0.037213542 2:0.10880208 3:0.038020834 4:0.041718751 5:0.029765625 6:0.013515625 7:0.019036459 8:0.053828124 9:0.086302087 10:0.026041666 11:0.090572916 12:0.047057293 13:0.0086979168 14:0.023645833 15:0.072031252 16:0.03919271 17:0.074973956 18:0.07033854 19:0.0425 20:0.049010418 21:0.033942558 22:0.075718015 23:0.020887729 24:0.044386424 25:0.080939949 26:0.067885116 27:0.086161882 28:0.10182767 29:0.041775458 30:0.020887729 31:0.083550915 32:0.05221932 33:0.10443864 34:0.031331591 35:0.02610966 36:0.031331591 37:0.039164491 38:0.01305483 39:0.039164491 40:0.0052219322 #TGA3_ARATH                    
0.0071673926257643230317007088103765 1:0.052943721 2:0.068975471 3:0.042510822 4:0.023780664 5:0.037676767 6:0.004906205 7:0.017734488 8:0.047633477 9:0.066103898 10:0.075858586 11:0.080490619 12:0.060937952 13:0.0035209234 14:0.020923521 15:0.055093795 16:0.046666667 17:0.046767678 18:0.074401155 19:0.044559885 20:0.07060606 21:0.036127169 22:0.065028898 23:0.0216763 24:0.079479769 25:0.080924854 26:0.0433526 27:0.0433526 28:0.10260116 29:0.079479769 30:0.018786127 31:0.062138729 32:0.06069364 33:0.079479769 34:0.033236995 35:0.089595377 36:0.036127169 37:0.01734104 38:0.0072254334 39:0.041907515 40:0.0014450867 #SCC13_ARATH                   
