SVM-light Version V6.01
2 # kernel type
3 # kernel parameter -d 
150 # kernel parameter -g 
1 # kernel parameter -s 
1 # kernel parameter -r 
empty# kernel parameter -u 
40 # highest feature index 
271 # number of training documents 
226 # number of support vectors plus 1 
0.37613205 # threshold b, each following line is a SV (starting with alpha*y)
-1.8330281801216816717214896925725 1:0.065430462 2:0.089735098 3:0.056534216 4:0.026048565 5:0.04249448 6:0.013002208 7:0.033156734 8:0.071103752 9:0.090883002 10:0.047439292 11:0.083443709 12:0.047439292 13:0.010728477 14:0.024944812 15:0.048896246 16:0.060463578 17:0.035099339 18:0.0492936 19:0.047527593 20:0.049227372 21:0.07300885 22:0.042035397 23:0.017699115 24:0.050884955 25:0.059734512 26:0.044247787 27:0.024336284 28:0.079646021 29:0.044247787 30:0.03318584 31:0.099557519 32:0.066371679 33:0.086283185 34:0.059734512 35:0.046460178 36:0.044247787 37:0.03318584 38:0.013274336 39:0.075221241 40:0.0066371681 #AAT5_ARATH                    
-0.24524023961130067550406863574608 1:0.040704224 2:0.077867202 3:0.071187124 4:0.026760563 5:0.041086517 6:0.0075452714 7:0.048772637 8:0.063722335 9:0.034205232 10:0.026458753 11:0.094607644 12:0.045432597 13:0.015432595 14:0.019517103 15:0.039557345 16:0.044909455 17:0.033138834 18:0.051750503 19:0.056338027 20:0.06024145 21:0.054435484 22:0.060483869 23:0.022177419 24:0.060483869 25:0.054435484 26:0.056451611 27:0.040322579 28:0.10483871 29:0.044354837 30:0.052419353 31:0.036290321 32:0.048387095 33:0.082661293 34:0.072580643 35:0.032258064 36:0.048387095 37:0.032258064 38:0.0060483869 39:0.078629032 40:0.012096774 #ACCD_CUSRE                    
-0.63639379840553988998408385668881 1:0.062129378 2:0.10210243 3:0.047897574 4:0.021051213 5:0.063611858 6:0.03218329 7:0.03865229 8:0.050161727 9:0.079407007 10:0.052587602 11:0.06115903 12:0.065579511 13:0.010592991 14:0.045983829 15:0.052830189 16:0.062803231 17:0.018706199 18:0.028005391 19:0.03587601 20:0.041078169 21:0.054054055 22:0.043243244 23:0.045945946 24:0.040540539 25:0.032432433 26:0.040540539 27:0.032432433 28:0.062162161 29:0.059459459 30:0.027027028 31:0.089189187 32:0.072972976 33:0.10810811 34:0.02972973 35:0.048648648 36:0.067567565 37:0.024324324 38:0.05135135 39:0.056756757 40:0.013513514 #ADS3_ARATH                    
-0.057821463934965872111249041154224 1:0.097098321 2:0.09848921 3:0.066474818 4:0.024652278 5:0.026930455 6:0.0026139088 7:0.012182254 8:0.066570744 9:0.088441245 10:0.046546761 11:0.059544366 12:0.03942446 13:0.0097841723 14:0.013717026 15:0.068848923 16:0.058705036 17:0.040119905 18:0.078393288 19:0.033357315 20:0.063117504 21:0.052884616 22:0.07932692 23:0.009615385 24:0.069711536 25:0.067307696 26:0.03125 27:0.040865384 28:0.052884616 29:0.040865384 30:0.009615385 31:0.10817308 32:0.09375 33:0.088942304 34:0.0625 35:0.052884616 36:0.03125 37:0.024038462 38:0.0024038462 39:0.074519232 40:0.0072115385 #CHLI_CHLRE                    
-0.51789789863631296995549746498 1:0.054169834 2:0.10599493 3:0.055323195 4:0.027617237 5:0.043662865 6:0.017465146 7:0.038428389 8:0.045462612 9:0.066958174 10:0.034017745 11:0.071596958 12:0.048263624 13:0.014283904 14:0.024600761 15:0.047845375 16:0.053257287 17:0.03234474 18:0.072091252 19:0.040621039 20:0.0587199 21:0.055837564 22:0.04822335 23:0.020304568 24:0.068527922 25:0.073604062 26:0.04568528 27:0.029187817 28:0.081218272 29:0.043147206 30:0.032994922 31:0.069796957 32:0.060913704 33:0.11675127 34:0.04822335 35:0.031725887 36:0.04568528 37:0.031725887 38:0.020304568 39:0.058375634 40:0.017766498 #KSB_CUCMA                     
1.6990392815598338582816495545558 1:0.079918034 2:0.098852456 3:0.068770491 4:0.028770491 5:0.04262295 6:0.00098360656 7:0.015409836 8:0.035819672 9:0.094836064 10:0.03909836 11:0.090409838 12:0.043770492 13:0.004180328 14:0.016639344 15:0.050245903 16:0.05442623 17:0.040245902 18:0.079590164 19:0.027622951 20:0.074098364 21:0.05785124 22:0.049586777 23:0.041322313 24:0.090909094 25:0.074380167 26:0.03305785 27:0.024793388 28:0.099173553 29:0.03305785 30:0.016528925 31:0.049586777 32:0.10743801 33:0.10743801 34:0.0661157 35:0.049586777 36:0.041322313 37:0.016528925 38:0 39:0.03305785 40:0.0082644625 #ACPM_ARATH                    
2 1:0.06701681 2:0.089663863 3:0.059306722 4:0.022647059 5:0.040609244 6:0.0076470589 7:0.030441176 8:0.078298323 9:0.084558822 10:0.051302522 11:0.063172266 12:0.047226891 13:0.01630252 14:0.026323529 15:0.0452521 16:0.058088236 17:0.033067226 18:0.056806725 19:0.037226889 20:0.045693278 21:0.054736841 22:0.048421051 23:0.039999999 24:0.054736841 25:0.046315789 26:0.031578947 27:0.035789475 28:0.061052632 29:0.048421051 30:0.039999999 31:0.079999998 32:0.07789474 33:0.094736844 34:0.063157894 35:0.050526317 36:0.035789475 37:0.018947368 38:0.0042105261 39:0.10105263 40:0.012631579 #AGT21_ARATH                   
2 1:0.074235037 2:0.090044349 3:0.059157427 4:0.022771619 5:0.041219514 6:0.0074279378 7:0.031463414 8:0.083148561 9:0.087649666 10:0.049623061 11:0.063348114 12:0.049866963 13:0.01631929 14:0.028847007 15:0.042882483 16:0.06008869 17:0.032727271 18:0.062682927 19:0.038625278 20:0.044878047 21:0.048888888 22:0.055555556 23:0.024444444 24:0.033333335 25:0.062222224 26:0.031111112 27:0.031111112 28:0.06666667 29:0.053333335 30:0.028888889 31:0.1 32:0.1 33:0.10666667 34:0.044444446 35:0.048888888 36:0.046666667 37:0.011111111 38:0.0044444446 39:0.086666666 40:0.015555556 #ARGD_ALNGL                    
2 1:0.081921183 2:0.085812807 3:0.046600986 4:0.021921182 5:0.039556649 6:0.0079310341 7:0.0088669946 8:0.047733989 9:0.13113301 10:0.061921183 11:0.096600987 12:0.067536943 13:0.001182266 14:0.012660098 15:0.044433497 16:0.051477831 17:0.040147785 18:0.06901478 19:0.036453202 20:0.037044335 21:0.064356439 22:0.01980198 23:0.024752475 24:0.03960396 25:0.054455444 26:0.01980198 27:0.03960396 28:0.11386139 29:0.07920792 30:0.0099009899 31:0.11386139 32:0.089108914 33:0.07920792 34:0.049504951 35:0.07920792 36:0.044554457 37:0.024752475 38:0.004950495 39:0.049504951 40:0 #ATP4_ARATH                    
1.5830001060676590629583415648085 1:0.047428571 2:0.044857144 3:0.049285714 4:0.027428571 5:0.029857144 6:0.026428571 7:0.035999998 8:0.044285715 9:0.14057143 10:0.048 11:0.092142858 12:0.067285717 13:0.019714287 14:0.017571429 15:0.071999997 16:0.07514286 17:0.021857142 18:0.054714285 19:0.04542857 20:0.039000001 21:0.086956523 22:0.057971016 23:0.014492754 24:0.043478262 25:0.072463766 26:0.028985508 27:0.014492754 28:0.10144927 29:0.086956523 30:0.028985508 31:0.13043478 32:0.057971016 33:0.028985508 34:0.043478262 35:0.043478262 36:0.043478262 37:0.014492754 38:0.028985508 39:0.043478262 40:0.028985508 #ATP5E_MAIZE                   
-2 1:0.064397588 2:0.084277108 3:0.043333333 4:0.020321285 5:0.044899598 6:0.016104417 7:0.035662651 8:0.097208835 9:0.093072288 10:0.045602411 11:0.03684739 12:0.063594379 13:0.016626505 14:0.029016064 15:0.060100403 16:0.058092371 17:0.023634538 18:0.069959842 19:0.032429717 20:0.062771082 21:0.056338027 22:0.064386316 23:0.028169014 24:0.068410464 25:0.064386316 26:0.032193158 27:0.030181086 28:0.036217302 29:0.062374245 30:0.036217302 31:0.086519115 32:0.062374245 33:0.092555329 34:0.044265594 35:0.048289739 36:0.044265594 37:0.012072435 38:0.016096579 39:0.098591551 40:0.016096579 #RBL_CUSRE                     
-1.2616661241146183147776582700317 1:0.085102044 2:0.092755102 3:0.057714287 4:0.012714285 5:0.037693877 6:0.0089387754 7:0.035714287 8:0.098530613 9:0.060816325 10:0.041653059 11:0.065469384 12:0.052999999 13:0.016693877 14:0.022755101 15:0.052408163 16:0.063244902 17:0.027346939 18:0.058632653 19:0.039999999 20:0.052571427 21:0.049079753 22:0.057259712 23:0.026584867 24:0.059304703 25:0.051124744 26:0.026584867 27:0.028629856 28:0.08588957 29:0.049079753 30:0.032719836 31:0.065439671 32:0.077709608 33:0.10838446 34:0.057259712 35:0.049079753 36:0.036809817 37:0.0061349692 38:0.0061349692 39:0.11042945 40:0.016359918 #PURA_ARATH                    
-2 1:0.079926781 2:0.087081589 3:0.048535563 4:0.038640168 5:0.038713388 6:0.0069351466 7:0.019372385 8:0.090439327 9:0.091527194 10:0.047133893 11:0.053661089 12:0.049968619 13:0.016286612 14:0.018002093 15:0.057949793 16:0.056663182 17:0.035627615 18:0.073566943 19:0.033002093 20:0.04963389 21:0.054450262 22:0.056544501 23:0.018848168 24:0.053403143 25:0.070157066 26:0.037696335 27:0.035602093 28:0.055497382 29:0.053403143 30:0.018848168 31:0.084816754 32:0.079581149 33:0.093193717 34:0.047120418 35:0.048167538 36:0.036649216 37:0.040837698 38:0.0083769634 39:0.092146598 40:0.014659686 #PPDK_FLAPR                    
2 1:0.060817309 2:0.076057695 3:0.048221152 4:0.023221154 5:0.053365383 6:0.031778846 7:0.031346153 8:0.076778844 9:0.055769231 10:0.040288463 11:0.082163461 12:0.047884617 13:0.0046634614 14:0.014423077 15:0.059230771 16:0.064278848 17:0.02951923 18:0.04798077 19:0.042259615 20:0.060240384 21:0.067632847 22:0.057971016 23:0.014492754 24:0.062801935 25:0.057971016 26:0.048309177 27:0.014492754 28:0.10144927 29:0.028985508 30:0.033816423 31:0.072463766 32:0.062801935 33:0.072463766 34:0.053140096 35:0.038647342 36:0.048309177 37:0.019323671 38:0.043478262 39:0.091787443 40:0.0096618356 #CIA30_ARATH                   
2 1:0.063326657 2:0.10436874 3:0.046252504 4:0.033246495 5:0.034048095 6:0.0076953908 7:0.03240481 8:0.052705411 9:0.083026052 10:0.052605212 11:0.070501 12:0.057515029 13:0.014188377 14:0.021723447 15:0.059879761 16:0.054448899 17:0.035430863 18:0.062765531 19:0.036553107 20:0.046953909 21:0.046184737 22:0.060240965 23:0.028112451 24:0.058232933 25:0.056224901 26:0.030120483 27:0.030120483 28:0.092369474 29:0.050200805 30:0.032128513 31:0.10441767 32:0.060240965 33:0.096385539 34:0.046184737 35:0.054216869 36:0.038152609 37:0.036144577 38:0.0060240962 39:0.058232933 40:0.016064256 #PROD_ARATH                    
2 1:0.049726028 2:0.089726031 3:0.09105023 4:0.027579909 5:0.039680365 6:0.0063926941 7:0.024931507 8:0.051506851 9:0.061369862 10:0.036757991 11:0.074063927 12:0.052465752 13:0.021552511 14:0.025890412 15:0.057305936 16:0.061278541 17:0.03374429 18:0.037990868 19:0.054566208 20:0.05191781 21:0.073394492 22:0.055045873 23:0.036697246 24:0.04587156 25:0.04587156 26:0.059633028 27:0.02293578 28:0.059633028 29:0.055045873 30:0.027522936 31:0.077981651 32:0.073394492 33:0.082568809 34:0.068807341 35:0.041284405 36:0.064220183 37:0.032110091 38:0.0045871558 39:0.050458714 40:0.02293578 #RT02_ARATH                    
-1.4782726648405153380139154251083 1:0.068053335 2:0.093840003 3:0.054186668 4:0.032693334 5:0.040373333 6:0.0048000002 7:0.023066666 8:0.053920001 9:0.089173332 10:0.048026666 11:0.088293336 12:0.059146665 13:0.01016 14:0.024666667 15:0.055626668 16:0.052186668 17:0.034320001 18:0.057466667 19:0.031306665 20:0.047066666 21:0.05882353 22:0.04812834 23:0.029411765 24:0.056149732 25:0.050802138 26:0.03208556 27:0.03208556 28:0.098930478 29:0.040106952 30:0.02406417 31:0.10427807 32:0.082887702 33:0.077540107 34:0.045454547 35:0.050802138 36:0.050802138 37:0.037433155 38:0.0053475937 39:0.061497327 40:0.013368984 #OTC_ARATH                     
-0.88528892356679600439406385703478 1:0.06989418 2:0.10222222 3:0.063015871 4:0.015238095 5:0.029259259 6:0.0005820106 7:0.0059788357 8:0.039894179 9:0.12846561 10:0.05952381 11:0.094444446 12:0.080105819 13:0.0013227513 14:0.01005291 15:0.035026453 16:0.089047618 17:0.023439154 18:0.086560845 19:0.021322751 20:0.031428572 21:0.074468084 22:0.037234042 23:0.010638298 24:0.047872342 25:0.079787232 26:0.021276595 27:0.031914894 28:0.08510638 29:0.08510638 30:0 31:0.14893617 32:0.069148935 33:0.10638298 34:0.04255319 35:0.079787232 36:0.026595745 37:0.0053191488 38:0.0053191488 39:0.04255319 40:0 #RK12_SPIOL                    
-1.2466796283086181151844584746868 1:0.054561403 2:0.088020049 3:0.047393482 4:0.031654134 5:0.040125314 6:0.017619047 7:0.03293233 8:0.053734336 9:0.080601506 10:0.056892231 11:0.058746867 12:0.061478697 13:0.0091478694 14:0.024511278 15:0.066365913 16:0.05819549 17:0.038145363 18:0.074235588 19:0.028195489 20:0.061754387 21:0.065326631 22:0.065326631 23:0.022613065 24:0.062814072 25:0.082914576 26:0.025125628 27:0.042713568 28:0.07788945 29:0.05276382 30:0.032663316 31:0.075376883 32:0.055276383 33:0.087939702 34:0.042713568 35:0.065326631 36:0.042713568 37:0.030150754 38:0.017587939 39:0.042713568 40:0.010050251 #STAD_SPIOL                    
2 1:0.071093753 2:0.095729165 3:0.059895832 4:0.019973958 5:0.02546875 6:0.0082552079 7:0.029401042 8:0.080546878 9:0.10044271 10:0.037421875 11:0.058125 12:0.055364583 13:0.013255209 14:0.026614584 15:0.052473959 16:0.057317708 17:0.029453125 18:0.063020833 19:0.037213542 20:0.052708331 21:0.070496082 22:0.049608354 23:0.023498695 24:0.054830287 25:0.065274149 26:0.046997391 27:0.033942558 28:0.044386424 29:0.049608354 30:0.039164491 31:0.09660574 32:0.067885116 33:0.086161882 34:0.057441253 35:0.046997391 36:0.028720627 37:0.028720627 38:0.010443864 39:0.086161882 40:0.01305483 #FDH_ARATH                     
1.5924398780970518973987282151938 1:0.068929441 2:0.078953773 3:0.059732359 4:0.027372263 5:0.042506084 6:0.013017031 7:0.028199513 8:0.10625304 9:0.090486616 10:0.03510949 11:0.053722627 12:0.049318735 13:0.015985401 14:0.019513382 15:0.05109489 16:0.066618003 17:0.030364964 18:0.0626764 19:0.053527981 20:0.047396593 21:0.05609756 22:0.046341464 23:0.034146342 24:0.060975611 25:0.058536585 26:0.051219512 27:0.024390243 28:0.041463416 29:0.058536585 30:0.019512195 31:0.09512195 32:0.068292685 33:0.080487803 34:0.075609758 35:0.03902439 36:0.034146342 37:0.024390243 38:0.014634146 39:0.10243902 40:0.014634146 #DHE2_ARATH                    
2 1:0.068308823 2:0.09463235 3:0.050784312 4:0.023186274 5:0.035784315 6:0.011446078 7:0.033970587 8:0.091813728 9:0.072009802 10:0.042034313 11:0.067647062 12:0.054166667 13:0.015931373 14:0.025931373 15:0.055759802 16:0.063504905 17:0.036249999 18:0.051789217 19:0.030563725 20:0.050490197 21:0.078624077 22:0.049140047 23:0.027027028 24:0.051597051 25:0.06142506 26:0.02948403 27:0.027027028 28:0.054054055 29:0.051597051 30:0.02948403 31:0.078624077 32:0.06388206 33:0.090909094 34:0.056511056 35:0.044226043 36:0.039312039 37:0.019656019 38:0.0098280096 39:0.11793612 40:0.019656019 #GCST_MESCR                    
-1.8313492907791573127695983203012 1:0.072222225 2:0.075294115 3:0.071503267 4:0.026862744 5:0.048823528 6:0.020392157 7:0.028431373 8:0.086143792 9:0.075620912 10:0.045294117 11:0.061307188 12:0.039084967 13:0.011307189 14:0.022941176 15:0.05267974 16:0.068954252 17:0.032745097 18:0.076732025 19:0.037254903 20:0.052941177 21:0.084967323 22:0.052287582 23:0.019607844 24:0.052287582 25:0.078431375 26:0.03267974 27:0.019607844 28:0.045751635 29:0.03267974 30:0.039215688 31:0.078431375 32:0.09150327 33:0.052287582 34:0.084967323 35:0.05882353 36:0.045751635 37:0.0065359478 38:0.026143791 39:0.098039217 40:0 #NDK3_SPIOL                    
-1.3461941436389130988260376398102 1:0.040801689 2:0.098523207 3:0.096329115 4:0.028227849 5:0.027510548 6:0.018438818 7:0.028059071 8:0.057974685 9:0.078902952 10:0.030590717 11:0.046202533 12:0.064008437 13:0.023755275 14:0.025232067 15:0.075780593 16:0.072700419 17:0.026202532 18:0.040928271 19:0.04978903 20:0.051434599 21:0.088983051 22:0.063559324 23:0.029661017 24:0.059322033 25:0.042372882 26:0.046610169 27:0.021186441 28:0.042372882 29:0.063559324 30:0.029661017 31:0.093220338 32:0.038135592 33:0.088983051 34:0.10593221 35:0.029661017 36:0.025423728 37:0.021186441 38:0.021186441 39:0.063559324 40:0.025423728 #RR2_EPIVI                     
-2 1:0.080952384 2:0.090336137 3:0.063893557 4:0.026806723 5:0.029803922 6:0.010560224 7:0.025910364 8:0.074733891 9:0.09072829 10:0.048515406 11:0.066134453 12:0.0505042 13:0.015770309 14:0.023221288 15:0.054033615 16:0.056218486 17:0.025042016 18:0.057955183 19:0.054817926 20:0.044257704 21:0.053370785 22:0.070224717 23:0.028089888 24:0.042134833 25:0.073033705 26:0.053370785 27:0.016853932 28:0.061797753 29:0.047752809 30:0.033707865 31:0.078651689 32:0.073033705 33:0.10393258 34:0.067415729 35:0.044943821 36:0.025280898 37:0.016853932 38:0.011235955 39:0.073033705 40:0.025280898 #LEU3_SOLTU                    
2 1:0.071065575 2:0.10442623 3:0.05819672 4:0.027254099 5:0.038729507 6:0.00020491803 7:0.016065573 8:0.04614754 9:0.10266393 10:0.035696723 11:0.094508193 12:0.056721311 13:0.0054098358 14:0.01204918 15:0.050942622 16:0.089262292 17:0.040655736 18:0.057581969 19:0.043934427 20:0.036516394 21:0.078189299 22:0.065843619 23:0.012345679 24:0.03292181 25:0.074074075 26:0.037037037 27:0.049382716 28:0.08230453 29:0.065843619 30:0.020576132 31:0.090534978 32:0.069958851 33:0.098765433 34:0.053497944 35:0.037037037 36:0.041152265 37:0.03292181 38:0 39:0.049382716 40:0.0082304524 #ATPO_IPOBA                    
2 1:0.060613498 2:0.08628834 3:0.068159506 4:0.029386504 5:0.029386504 6:0.0013190184 7:0.025460122 8:0.052515339 9:0.10760736 10:0.02809816 11:0.090674847 12:0.053680982 13:0.0078220861 14:0.0058588958 15:0.061595093 16:0.068711653 17:0.032300614 18:0.065552145 19:0.044509202 20:0.040092025 21:0.06769231 22:0.061538462 23:0.0030769231 24:0.036923077 25:0.07692308 26:0.055384614 27:0.036923077 28:0.12 29:0.061538462 30:0.012307692 31:0.079999998 32:0.079999998 33:0.095384613 34:0.064615384 35:0.030769231 36:0.027692307 37:0.024615385 38:0.0030769231 39:0.055384614 40:0.0061538462 #ATPG3_IPOBA                   
2 1:0.065709971 2:0.097522661 3:0.048066467 4:0.023323262 5:0.037401814 6:0.007824773 7:0.030543806 8:0.065287009 9:0.061631419 10:0.04776435 11:0.071842901 12:0.065015107 13:0.024864048 14:0.033262841 15:0.058700908 16:0.061963744 17:0.03021148 18:0.05383686 19:0.037764352 20:0.05063444 21:0.060606062 22:0.057575759 23:0.030303031 24:0.054545455 25:0.045454547 26:0.036363635 27:0.024242423 28:0.10606061 29:0.06969697 30:0.027272727 31:0.060606062 32:0.048484847 33:0.10909091 34:0.07272727 35:0.054545455 36:0.024242423 37:0.015151516 38:0.012121212 39:0.06666667 40:0.024242423 #GLO2M_ARATH                   
-0.70276516549799206146076357981656 1:0.083505534 2:0.087380074 3:0.054391146 4:0.027822878 5:0.021180812 6:0.003505535 7:0.01704797 8:0.037896678 9:0.081365317 10:0.028376384 11:0.10158671 12:0.059778597 13:0.013911439 14:0.011586715 15:0.061845019 16:0.099446498 17:0.039335795 18:0.067380071 19:0.045719557 20:0.049557194 21:0.1 22:0.070370369 23:0.0037037036 24:0.044444446 25:0.085185185 26:0.048148148 27:0.033333335 28:0.12592593 29:0.055555556 30:0.029629629 31:0.070370369 32:0.085185185 33:0.085185185 34:0.048148148 35:0.025925925 36:0.014814815 37:0.025925925 38:0.0037037036 39:0.029629629 40:0.014814815 #RRFC_SPIOL                    
-0.46673946380269937250773182313424 1:0.047292929 2:0.093414143 3:0.07256566 4:0.012727273 5:0.026464647 6:0.0052323234 7:0.022707071 8:0.03579798 9:0.050363638 10:0.054141413 11:0.084909089 12:0.055191919 13:0.01220202 14:0.015858585 15:0.059070706 16:0.084727272 17:0.037373737 18:0.074565656 19:0.052646466 20:0.040161617 21:0.082995951 22:0.068825908 23:0.010121457 24:0.042510122 25:0.070850201 26:0.044534411 27:0.040485829 28:0.10121457 29:0.072874494 30:0.01417004 31:0.074898787 32:0.062753037 33:0.10323887 34:0.056680162 35:0.068825908 36:0.024291499 37:0.012145749 38:0.0040485831 39:0.040485829 40:0.0040485831 #RPOA_NEPOL                    
-0.34123743800046052454533196396369 1:0.061597221 2:0.084236108 3:0.052048612 4:0.02111111 5:0.028680556 6:0.0066319443 7:0.020243056 8:0.058958333 9:0.074340276 10:0.046805557 11:0.073680557 12:0.04673611 13:0.0099652782 14:0.015798612 15:0.05454861 16:0.068125002 17:0.031006945 18:0.061770834 19:0.02795139 20:0.051736113 21:0.062717773 22:0.05574913 23:0.010452962 24:0.048780486 25:0.073170729 26:0.034843206 27:0.027874565 28:0.11498258 29:0.045296166 30:0.017421603 31:0.069686413 32:0.073170729 33:0.1184669 34:0.059233449 35:0.05574913 36:0.031358887 37:0.0069686412 38:0.010452962 39:0.066202089 40:0.017421603 #KADC_SOLTU                    
2 1:0.083362371 2:0.095574915 3:0.064111501 4:0.026114983 5:0.032195121 6:0.00054006971 7:0.023170732 8:0.082508713 9:0.091062717 10:0.046167247 11:0.063275263 12:0.054860625 13:0.0032752613 14:0.0084494771 15:0.051986061 16:0.055940766 17:0.035801392 18:0.078797907 19:0.035818815 20:0.052839722 21:0.057591625 22:0.04886562 23:0.012216405 24:0.064572424 25:0.076788828 26:0.029668411 27:0.038394414 28:0.057591625 29:0.059336822 30:0.020942409 31:0.095986038 32:0.10122164 33:0.085514836 34:0.057591625 35:0.043630019 36:0.033158813 37:0.020942409 38:0.0017452007 39:0.089005239 40:0.0052356021 #ATPBM_CHLRE                   
2 1:0.065200001 2:0.093800001 3:0.073074996 4:0.039175 5:0.045899998 6:0.0138 7:0.040975001 8:0.0704 9:0.062799998 10:0.048 11:0.051325001 12:0.040075 13:0.0156 14:0.0288 15:0.067725003 16:0.046174999 17:0.034249999 18:0.070424996 19:0.030449999 20:0.0535 21:0.050125312 22:0.072681703 23:0.030075189 24:0.052631579 25:0.067669176 26:0.027568921 27:0.037593983 28:0.047619049 29:0.045112781 30:0.045112781 31:0.065162905 32:0.072681703 33:0.097744361 34:0.070175439 35:0.042606518 36:0.045112781 37:0.037593983 38:0.010025063 39:0.070175439 40:0.012531328 #NUCM_PROWI                    
2 1:0.080936641 2:0.076225892 3:0.060909092 4:0.027603306 5:0.042644627 6:0.0046831956 7:0.02892562 8:0.077024795 9:0.10699724 10:0.049862258 11:0.054655649 12:0.047272727 13:0.020220386 14:0.018595042 15:0.053636365 16:0.049035814 17:0.03245179 18:0.061515152 19:0.029090909 20:0.0469146 21:0.049723756 22:0.060773481 23:0.0082872929 24:0.041436464 25:0.080110498 26:0.027624309 27:0.024861878 28:0.071823202 29:0.035911601 30:0.038674034 31:0.13812155 32:0.080110498 33:0.071823202 34:0.066298343 35:0.049723756 36:0.038674034 37:0.022099448 38:0.002762431 39:0.077348068 40:0.013812155 #ODPB_ARATH                    
-2 1:0.069376297 2:0.076943867 3:0.04933472 4:0.023804573 5:0.05006237 6:0.0090020793 7:0.026694387 8:0.088316008 9:0.092328481 10:0.045259874 11:0.071538463 12:0.05070686 13:0.016424116 14:0.023243243 15:0.03873181 16:0.062390853 17:0.029293139 18:0.059168398 19:0.034532223 20:0.04047817 21:0.064583331 22:0.039583333 23:0.018750001 24:0.043749999 25:0.064583331 26:0.025 27:0.020833334 28:0.064583331 29:0.064583331 30:0.025 31:0.10416666 32:0.056249999 33:0.072916664 34:0.064583331 35:0.056249999 36:0.052083332 37:0.03125 38:0.0062500001 39:0.1125 40:0.0125 #GSA_LYCES                     
-2 1:0.080985218 2:0.085320197 3:0.060615763 4:0.023719212 5:0.028201971 6:0.0046305419 7:0.022586206 8:0.073029555 9:0.095098525 10:0.045418721 11:0.065467983 12:0.053300492 13:0.012438424 14:0.019581281 15:0.04682266 16:0.056354679 17:0.026527094 18:0.057463054 19:0.042783253 20:0.045812808 21:0.061728396 22:0.05185185 23:0.012345679 24:0.05185185 25:0.0691358 26:0.0345679 27:0.027160494 28:0.061728396 29:0.046913579 30:0.022222223 31:0.11851852 32:0.081481479 33:0.10617284 34:0.05185185 35:0.05185185 36:0.027160494 37:0.019753087 38:0.0049382718 39:0.091358028 40:0.0074074073 #LEU3_BRANA                    
-1.6420366187520392120546830483363 1:0.085843749 2:0.083968751 3:0.0581875 4:0.022031249 5:0.03253125 6:0.0065624998 7:0.01940625 8:0.087531254 9:0.11725 10:0.034531251 11:0.075000003 12:0.063281253 13:0.014875 14:0.0165 15:0.0465625 16:0.054906249 17:0.02996875 18:0.04415625 19:0.034718748 20:0.03803125 21:0.068965517 22:0.037617553 23:0.0031347962 24:0.031347964 25:0.050156739 26:0.037617553 27:0.034482758 28:0.081504703 29:0.05956113 30:0.015673982 31:0.13479623 32:0.090909094 33:0.068965517 34:0.075235106 35:0.025078369 36:0.028213166 37:0.025078369 38:0.0062695923 39:0.11285266 40:0.012539185 #FABG_CUPLA                    
2 1:0.061707921 2:0.090841584 3:0.066101484 4:0.02144802 5:0.027710397 6:0.0025742573 7:0.022289604 8:0.051831685 9:0.060940593 10:0.048168316 11:0.07923267 12:0.053898513 13:0.0079826731 14:0.019925743 15:0.054022279 16:0.065495051 17:0.045037128 18:0.075433165 19:0.043539602 20:0.052537128 21:0.049566295 22:0.066914499 23:0.023543989 24:0.058240395 25:0.071871124 26:0.035935562 27:0.044609666 28:0.096654274 29:0.059479553 30:0.021065675 31:0.065675341 32:0.070631973 33:0.10161091 34:0.065675341 35:0.054522924 36:0.029739777 37:0.01858736 38:0.0024783148 39:0.054522924 40:0.0086741019 #DRP3A_ARATH                   
2 1:0.088756219 2:0.086815923 3:0.048358209 4:0.020199005 5:0.044527363 6:0.0084079606 7:0.015572139 8:0.076965176 9:0.10109453 10:0.039004974 11:0.094328359 12:0.052885573 13:0.010597015 14:0.011691542 15:0.040995024 16:0.07134328 17:0.020248756 18:0.041741293 19:0.038606964 20:0.054776121 21:0.094999999 22:0.035 23:0.015 24:0.064999998 25:0.045000002 26:0.025 27:0.02 28:0.12 29:0.029999999 30:0.02 31:0.105 32:0.079999998 33:0.075000003 34:0.059999999 35:0.035 36:0.050000001 37:0.0049999999 38:0.015 39:0.094999999 40:0.0099999998 #PDX_ARATH                     
2 1:0.069880001 2:0.081320003 3:0.04868 4:0.02084 5:0.045880001 6:0.01136 7:0.02648 8:0.049400002 9:0.075479999 10:0.04228 11:0.094520003 12:0.042599998 13:0.01152 14:0.01468 15:0.056480002 16:0.05012 17:0.033039998 18:0.090159997 19:0.042399999 20:0.063879997 21:0.052208837 22:0.060240965 23:0.012048192 24:0.08835341 25:0.080321282 26:0.060240965 27:0.020080321 28:0.1124498 29:0.048192769 30:0.024096385 31:0.064257026 32:0.076305218 33:0.076305218 34:0.056224901 35:0.044176705 36:0.048192769 37:0.020080321 38:0.0080321282 39:0.040160641 40:0.0080321282 #YB95_ARATH                    
-1.0596977066622184082689273054712 1:0.050685301 2:0.087556355 3:0.078034267 4:0.024174932 5:0.039747521 6:0.0049774572 7:0.032939587 8:0.067862943 9:0.046068531 10:0.038809739 11:0.064220019 12:0.049224526 13:0.010378719 14:0.021181244 15:0.062542833 16:0.056654643 17:0.046889089 18:0.057673581 19:0.042957619 20:0.046023443 21:0.050541516 22:0.074909747 23:0.026173284 24:0.053249098 25:0.057761732 26:0.026173284 27:0.058664259 28:0.058664259 29:0.051444042 30:0.03068592 31:0.05595668 32:0.074909747 33:0.10379061 34:0.063176893 35:0.052346569 36:0.03068592 37:0.034296028 38:0.0090252711 39:0.080324911 40:0.0072202166 #RPOB_NEPOL                    
-0.056081478068581103180179070477607 1:0.052044887 2:0.1032793 3:0.053690773 4:0.025299251 5:0.04107232 6:0.018603491 7:0.033403989 8:0.042680796 9:0.060997505 10:0.030947631 11:0.076047383 12:0.048017457 13:0.014513716 14:0.026059851 15:0.048379052 16:0.050037406 17:0.041857854 18:0.06851621 19:0.038915213 20:0.059289277 21:0.056179777 22:0.058676653 23:0.028714107 24:0.059925094 25:0.074906364 26:0.051186018 27:0.039950062 28:0.082397006 29:0.041198503 30:0.038701624 31:0.058676653 32:0.051186018 33:0.098626718 34:0.062421974 35:0.028714107 36:0.056179777 37:0.02372035 38:0.02372035 39:0.04993758 40:0.014981274 #KSA_ARATH                     
2 1:0.091786668 2:0.082213335 3:0.058826666 4:0.021600001 5:0.035706665 6:0.0083733331 7:0.026773334 8:0.089866668 9:0.088160001 10:0.043786667 11:0.066613331 12:0.050853334 13:0.01096 14:0.016213333 15:0.039173335 16:0.068986669 17:0.029626667 18:0.051199999 19:0.031599998 20:0.038773332 21:0.05882353 22:0.04812834 23:0.0053475937 24:0.037433155 25:0.069518715 26:0.045454547 27:0.02406417 28:0.082887702 29:0.050802138 30:0.026737968 31:0.066844918 32:0.10160428 33:0.090909094 34:0.053475935 35:0.064171121 36:0.034759358 37:0.02406417 38:0.013368984 39:0.085561499 40:0.01604278 #MECR_ARATH                    
2 1:0.073407158 2:0.076201022 3:0.063100509 4:0.024395229 5:0.04117547 6:0.0055025555 7:0.029216355 8:0.09311755 9:0.091771722 10:0.046371382 11:0.058620103 12:0.048091993 13:0.013015333 14:0.020885861 15:0.060902897 16:0.048841566 17:0.033730835 18:0.054701872 19:0.034122657 20:0.04894378 21:0.056313992 22:0.064846419 23:0.015358361 24:0.044368602 25:0.06313993 26:0.035836179 27:0.030716723 28:0.061433446 29:0.046075087 30:0.029010238 31:0.090443686 32:0.061433446 33:0.075085327 34:0.078498296 35:0.046075087 36:0.044368602 37:0.025597269 38:0.0068259384 39:0.10580204 40:0.018771332 #MCCB_ARATH                    
1.6739225008171541020374206709675 1:0.071757928 2:0.065389052 3:0.074985594 4:0.021729106 5:0.032651298 6:0.0023919309 7:0.01870317 8:0.11149856 9:0.097002879 10:0.0518732 11:0.070489913 12:0.064466856 13:0.016772334 14:0.02054755 15:0.040115274 16:0.06832853 17:0.038760807 18:0.052910663 19:0.033141211 20:0.029193083 21:0.066473991 22:0.03468208 23:0.020231213 24:0.031791907 25:0.057803467 26:0.02601156 27:0.037572253 28:0.06936416 29:0.06936416 30:0.014450867 31:0.10115607 32:0.078034684 33:0.06069364 34:0.075144507 35:0.057803467 36:0.037572253 37:0.01734104 38:0 39:0.12138728 40:0.023121387 #SUCA1_ARATH                   
-2 1:0.093987204 2:0.083731346 3:0.057377398 4:0.025692964 5:0.028379532 6:0.0023454158 7:0.026417911 8:0.063624732 9:0.11017057 10:0.052857142 11:0.080106609 12:0.055202559 13:0.013837953 14:0.019701492 15:0.038933903 16:0.063560769 17:0.039701492 18:0.062899783 19:0.029616205 20:0.047761194 21:0.06623932 22:0.040598292 23:0.017094018 24:0.047008548 25:0.068376072 26:0.027777778 27:0.027777778 28:0.089743592 29:0.05982906 30:0.02991453 31:0.1025641 32:0.089743592 33:0.081196584 34:0.057692308 35:0.044871796 36:0.03846154 37:0.025641026 38:0.0064102565 39:0.064102568 40:0.014957265 #HISX_BRAOC                    
-1.0807925885524058973174987841048 1:0.091778524 2:0.059228189 3:0.056140941 4:0.017315436 5:0.030201342 6:0.016644295 7:0.016644295 8:0.080671139 9:0.12251678 10:0.051174495 11:0.0709396 12:0.052114096 13:0.015167785 14:0.014765101 15:0.048825502 16:0.069261745 17:0.035637584 18:0.064697988 19:0.040503357 20:0.038020134 21:0.063973062 22:0.04040404 23:0.01010101 24:0.053872053 25:0.057239056 26:0.037037037 27:0.030303031 28:0.080808081 29:0.067340069 30:0.013468013 31:0.13131313 32:0.090909094 33:0.05050505 34:0.060606062 35:0.05050505 36:0.033670034 37:0.01010101 38:0.02020202 39:0.077441074 40:0.02020202 #TPIC_SECCE                    
-0.57629318145770025427765403946978 1:0.10466667 2:0.10243137 3:0.050705884 4:0.01627451 5:0.028627452 6:0.0002745098 7:0.020862745 8:0.087803923 9:0.077411763 10:0.050392158 11:0.085333332 12:0.065921567 13:0.0030980392 14:0.0058039217 15:0.046745099 16:0.08011765 17:0.024078431 18:0.059333332 19:0.025843138 20:0.052196078 21:0.090551183 22:0.031496063 23:0.0078740157 24:0.05511811 25:0.05905512 26:0.027559055 27:0.0078740157 28:0.11417323 29:0.082677163 30:0.027559055 31:0.062992126 32:0.11417323 33:0.090551183 34:0.05905512 35:0.043307088 36:0.023622047 37:0.0078740157 38:0 39:0.090551183 40:0.0039370079 #CH10C_SPIOL                   
2 1:0.066518985 2:0.1164557 3:0.042510547 4:0.024430379 5:0.036181435 6:0.015168777 7:0.036983121 8:0.074240506 9:0.078755274 10:0.050717298 11:0.0756962 12:0.045801688 13:0.0082489448 14:0.02721519 15:0.04742616 16:0.063122362 17:0.036835443 18:0.06092827 19:0.035590716 20:0.043691982 21:0.059196617 22:0.044397462 23:0.029598309 24:0.048625793 25:0.063424945 26:0.033826638 27:0.046511628 28:0.084566593 29:0.038054969 30:0.035940804 31:0.067653276 32:0.080338269 33:0.12684989 34:0.035940804 35:0.050739959 36:0.027484143 37:0.021141648 38:0.019027485 39:0.073995769 40:0.01268499 #CISY4_ARATH                   
1.5824664633842857597301190253347 1:0.036202531 2:0.10993671 3:0.088291138 4:0.025063291 5:0.065189876 6:0.019303797 7:0.037721518 8:0.075949363 9:0.010949367 10:0.024430379 11:0.11772152 12:0.045063291 13:0.033164557 14:0.018670887 15:0.063924052 16:0.056329112 17:0.037215188 18:0.026962025 19:0.05341772 20:0.040886074 21:0.063694268 22:0.076433122 23:0.019108281 24:0.044585988 25:0.025477707 26:0.050955415 27:0.031847134 28:0.10828026 29:0.044585988 30:0.031847134 31:0.012738854 32:0.038216561 33:0.10828026 34:0.089171976 35:0.019108281 36:0.076433122 37:0.019108281 38:0.019108281 39:0.082802549 40:0.038216561 #YMF19_ARATH                   
1.6169890547891441201500128954649 1:0.050023254 2:0.066511631 3:0.071534887 4:0.012790698 5:0.056186046 6:0.0095581394 7:0.045418605 8:0.056348838 9:0.049488373 10:0.044209301 11:0.083790697 12:0.043906976 13:0.010348837 14:0.016883722 15:0.08176744 16:0.087767445 17:0.032116279 18:0.042046513 19:0.043767441 20:0.03695349 21:0.086247087 22:0.072261073 23:0.016317016 24:0.044289045 25:0.032634031 26:0.034965035 27:0.060606062 28:0.097902097 29:0.048951048 30:0.051282052 31:0.058275059 32:0.046620045 33:0.065268062 34:0.081585079 35:0.037296038 36:0.067599066 37:0.011655011 38:0.013986014 39:0.055944055 40:0.016317016 #RT03_MARPO                    
-0.54328693496719382416415555780986 1:0.069099098 2:0.090225227 3:0.063648649 4:0.019144144 5:0.032702703 6:0.0037387388 7:0.023198199 8:0.063603602 9:0.06297297 10:0.045675676 11:0.062027026 12:0.048153155 13:0.012657657 14:0.016756756 15:0.053963963 16:0.075045042 17:0.037792794 18:0.071666665 19:0.03472973 20:0.060765766 21:0.072072074 22:0.054054055 23:0.0090090092 24:0.063063063 25:0.1036036 26:0.031531531 27:0.040540539 28:0.058558557 29:0.04954955 30:0.036036037 31:0.076576576 32:0.072072074 33:0.11711711 34:0.063063063 35:0.045045044 36:0.018018018 37:0.022522522 38:0.0045045046 39:0.058558557 40:0.0045045046 #KADC_MAIZE                    
-0.70552641663935844462685054168105 1:0.075812183 2:0.10134517 3:0.05713198 4:0.025609137 5:0.040406093 6:0.014086294 7:0.02961929 8:0.068248734 9:0.070355333 10:0.058984771 11:0.078451775 12:0.051548224 13:0.017309645 14:0.020126903 15:0.05852792 16:0.05324873 17:0.04007614 18:0.062918782 19:0.021040609 20:0.045736041 21:0.053435113 22:0.061068702 23:0.015267176 24:0.045801528 25:0.063613228 26:0.027989822 27:0.040712468 28:0.099236645 29:0.053435113 30:0.025445292 31:0.063613228 32:0.099236645 33:0.094147585 34:0.058524173 35:0.055979643 36:0.045801528 37:0.012722646 38:0.010178117 39:0.066157758 40:0.0076335878 #DCUP_ARATH                    
-0.083248778103100773417821756083868 1:0.046443768 2:0.097568393 3:0.048784196 4:0.027325228 5:0.073252283 6:0.016018238 7:0.043221883 8:0.050729483 9:0.0587538 10:0.051306989 11:0.078419454 12:0.049635258 13:0.0087234043 14:0.021914894 15:0.054468084 16:0.081337385 17:0.03006079 18:0.074498482 19:0.038510639 20:0.048145898 21:0.079268292 22:0.051829267 23:0.021341464 24:0.042682927 25:0.082317077 26:0.033536587 27:0.036585364 28:0.079268292 29:0.064024389 30:0.042682927 31:0.05792683 32:0.042682927 33:0.094512194 34:0.048780486 35:0.042682927 36:0.073170729 37:0.030487806 38:0.015243903 39:0.051829267 40:0.0091463411 #PFBS_ARATH                    
-1.4798646848355356819837425064179 1:0.05768 2:0.0744 3:0.056279998 4:0.03528 5:0.035560001 6:0.0118 7:0.041839998 8:0.0548 9:0.05796 10:0.0506 11:0.085280001 12:0.06244 13:0.026079999 14:0.01732 15:0.0592 16:0.063479997 17:0.031640001 18:0.047279999 19:0.044440001 20:0.054880001 21:0.06827309 22:0.060240965 23:0.012048192 24:0.056224901 25:0.040160641 26:0.044176705 27:0.020080321 28:0.10843374 29:0.052208837 30:0.036144577 31:0.064257026 32:0.040160641 33:0.080321282 34:0.072289154 35:0.060240965 36:0.048192769 37:0.036144577 38:0.012048192 39:0.060240965 40:0.028112451 #NUKC_ADICA                    
2 1:0.059356671 2:0.087265849 3:0.055979185 4:0.031248817 5:0.032384105 6:0.0068495744 7:0.031693473 8:0.071504258 9:0.090832546 10:0.055856198 11:0.070037842 12:0.057606433 13:0.017142856 14:0.031343427 15:0.04693472 16:0.050425734 17:0.032052979 18:0.056319773 19:0.042554401 20:0.04719016 21:0.057765152 22:0.040719695 23:0.028409092 24:0.047348484 25:0.052083332 26:0.044507574 27:0.03125 28:0.069128789 29:0.065340906 30:0.030303031 31:0.098484851 32:0.061553031 33:0.082386367 34:0.055871211 35:0.057765152 36:0.036931816 37:0.035037879 38:0.0075757578 39:0.084280305 40:0.013257576 #GCSP_PEA                      
2 1:0.064206548 2:0.07161209 3:0.048261967 4:0.033123426 5:0.036826197 6:0.0065743071 7:0.043501258 8:0.079899244 9:0.091586903 10:0.040352646 11:0.066498742 12:0.053375315 13:0.019395467 14:0.022947103 15:0.060277078 16:0.05813602 17:0.031460956 18:0.065012597 19:0.034886651 20:0.050075568 21:0.06313131 22:0.060606062 23:0.025252525 24:0.06313131 25:0.055555556 26:0.030303031 27:0.017676767 28:0.085858583 29:0.060606062 30:0.04040404 31:0.088383839 32:0.053030305 33:0.088383839 34:0.037878789 35:0.042929292 36:0.042929292 37:0.027777778 38:0.005050505 39:0.090909094 40:0.02020202 #ODPA_PEA                      
2 1:0.097382814 2:0.069492191 3:0.072304688 4:0.013125 5:0.0275 6:0.01328125 7:0.025937499 8:0.078945309 9:0.097109377 10:0.0465625 11:0.083437502 12:0.060781252 13:0.011132812 14:0.020898437 15:0.048710939 16:0.050195314 17:0.029648438 18:0.050195314 19:0.050664064 20:0.038164064 21:0.039215688 22:0.062745102 23:0.011764706 24:0.027450981 25:0.05882353 26:0.031372551 27:0.031372551 28:0.094117649 29:0.06666667 30:0.031372551 31:0.086274512 32:0.094117649 33:0.090196081 34:0.074509807 35:0.062745102 36:0.023529412 37:0.0039215689 38:0.023529412 39:0.070588239 40:0.015686275 #UMP8_ARATH                    
-1.2248845133572423549139784881845 1:0.067679323 2:0.072742619 3:0.052974682 4:0.034113925 5:0.040949367 6:0.0072573838 7:0.032447256 8:0.089936711 9:0.081350207 10:0.045063291 11:0.059198312 12:0.056244727 13:0.010675105 14:0.0082911393 15:0.04978903 16:0.061814345 17:0.041371308 18:0.048037976 19:0.05443038 20:0.071202531 21:0.061310783 22:0.050739959 23:0.0063424949 24:0.065539114 25:0.052854124 26:0.057082452 27:0.044397462 28:0.050739959 29:0.054968286 30:0.033826638 31:0.082452431 32:0.076109938 33:0.069767445 34:0.048625793 35:0.044397462 36:0.042283297 37:0.040169135 38:0.0063424949 39:0.097251587 40:0.014799154 #RCA_ARATH                     
-2 1:0.06790223 2:0.094900988 3:0.057085395 4:0.024610149 5:0.03336015 6:0.0092202974 7:0.02796411 8:0.083774753 9:0.086794555 10:0.047122523 11:0.066639848 12:0.046460398 13:0.015210396 14:0.022469059 15:0.052914605 16:0.054071784 17:0.033112623 18:0.06288366 19:0.041417081 20:0.048199259 21:0.048297215 22:0.056965943 23:0.016718267 24:0.050154798 25:0.062538698 26:0.038390093 27:0.039009288 28:0.070588239 29:0.047058824 30:0.025386997 31:0.096594431 32:0.074303403 33:0.095975235 34:0.053250775 35:0.052631579 36:0.030959751 37:0.022910217 38:0.011145511 39:0.091021672 40:0.016099071 #GLTB_MAIZE                    
-0.81293133003354967058839974924922 1:0.084616564 2:0.076319017 3:0.053220861 4:0.025153374 5:0.04766871 6:0.013542945 7:0.030368099 8:0.081395708 9:0.072361961 10:0.046917178 11:0.05989264 12:0.039739262 13:0.015245399 14:0.019463191 15:0.05101227 16:0.057392638 17:0.030981595 18:0.056978527 19:0.030690184 20:0.056441717 21:0.035330262 22:0.062980033 23:0.024577573 24:0.053763442 25:0.058371738 26:0.035330262 27:0.029185869 28:0.072196618 29:0.052227344 30:0.041474655 31:0.072196618 32:0.07526882 33:0.073732719 34:0.053763442 35:0.052227344 36:0.047619049 37:0.021505376 38:0.019969279 39:0.10599078 40:0.012288786 #SSY1_ARATH                    
2 1:0.073712766 2:0.10032979 3:0.061212767 4:0.021468084 5:0.028148936 6:0.0042234045 7:0.023617022 8:0.060531914 9:0.071521275 10:0.047521278 11:0.06645745 12:0.051308509 13:0.0078191487 14:0.020989362 15:0.051829789 16:0.068680853 17:0.031936169 18:0.075308509 19:0.034053192 20:0.056893617 21:0.069222577 22:0.052183174 23:0.024494143 24:0.057507988 25:0.094781682 26:0.034078807 27:0.030883919 28:0.068157613 29:0.055378061 30:0.021299254 31:0.082002133 32:0.077742279 33:0.097976573 34:0.062832803 35:0.045793395 36:0.029818956 37:0.017039403 38:0.0053248135 39:0.063897766 40:0.0095846644 #LONH2_ARATH                   
1.7944035854681275043986943273921 1:0.044372294 2:0.10017316 3:0.070432901 4:0.033030301 5:0.055541124 6:0.0042424244 7:0.033896104 8:0.045800865 9:0.042943723 10:0.031212121 11:0.069350652 12:0.064458877 13:0.0074891774 14:0.014199134 15:0.038051948 16:0.091255412 17:0.032813855 18:0.04896104 19:0.065108225 20:0.034199134 21:0.11304348 22:0.026086956 23:0.0086956518 24:0.034782607 25:0.043478262 26:0.086956523 27:0.043478262 28:0.1173913 29:0.086956523 30:0.065217391 31:0.034782607 32:0.039130434 33:0.1 34:0.060869563 35:0.017391304 36:0.039130434 37:0.026086956 38:0.0043478259 39:0.026086956 40:0.026086956 #RM05_PROWI                    
1.4933597898634101142079089186154 1:0.049459461 2:0.11364865 3:0.080945946 4:0.02135135 5:0.027297297 6:0.012657657 7:0.016621621 8:0.048603602 9:0.074864864 10:0.025810812 11:0.088423423 12:0.036936939 13:0.0056306305 14:0.015315316 15:0.070900902 16:0.10504504 17:0.029054053 18:0.06045045 19:0.072252251 20:0.037747748 21:0.11312217 22:0.054298643 23:0.0090497741 24:0.040723983 25:0.06334842 26:0.1040724 27:0.040723983 28:0.1040724 29:0.03167421 30:0.022624435 31:0.072398193 32:0.040723983 33:0.13122173 34:0.085972853 35:0.022624435 36:0.018099548 37:0.0045248871 38:0.013574661 39:0.022624435 40:0.0045248871 #RT07_PROWI                    
-1.3509521268873927457576655797311 1:0.047868591 2:0.10908654 3:0.068384618 4:0.01511859 5:0.049490385 6:0.0058846152 7:0.039714742 8:0.039166667 9:0.040108975 10:0.030967949 11:0.081653848 12:0.061996795 13:0.0085192304 14:0.022560898 15:0.03414423 16:0.10830769 17:0.051503204 18:0.042996794 19:0.083730772 20:0.026958333 21:0.11574222 22:0.034947097 23:0.021160629 24:0.027252324 25:0.040397562 26:0.085924976 27:0.05290157 28:0.082077593 29:0.069573581 30:0.040076949 31:0.041680027 32:0.04873357 33:0.11478038 34:0.068611734 35:0.034947097 36:0.052580956 37:0.014748317 38:0.0060916962 39:0.040397562 40:0.0073741586 #RPOC2_CHLRE                   
-0.22224753059857621506623104323808 1:0.079898477 2:0.094873093 3:0.062639594 4:0.019898478 5:0.04218274 6:0.010659899 7:0.014416244 8:0.058680203 9:0.075329952 10:0.028934009 11:0.077055834 12:0.051573604 13:0.0072081219 14:0.010152284 15:0.047715735 16:0.11390863 17:0.053401016 18:0.068832487 19:0.040710662 20:0.039390862 21:0.12244898 22:0.05102041 23:0.010204081 24:0.045918368 25:0.076530613 26:0.030612245 27:0.056122448 28:0.071428575 29:0.045918368 30:0.0051020407 31:0.071428575 32:0.081632651 33:0.11734694 34:0.045918368 35:0.025510205 36:0.05102041 37:0.015306123 38:0.010204081 39:0.06122449 40:0.0051020407 #RK9_ARATH                     
-2 1:0.070917927 2:0.099913605 3:0.068293735 4:0.024136068 5:0.028304536 6:0.0023542116 7:0.020172786 8:0.07051836 9:0.07987041 10:0.035140388 11:0.06236501 12:0.046922248 13:0.0066846651 14:0.015183586 15:0.071555078 16:0.069676027 17:0.035982721 18:0.084902808 19:0.035896327 20:0.05225702 21:0.065945946 22:0.078918919 23:0.016216217 24:0.049729731 25:0.1027027 26:0.03135135 27:0.02918919 28:0.055135135 29:0.05081081 30:0.017297298 31:0.081081077 32:0.07027027 33:0.098378375 34:0.07027027 35:0.035675675 36:0.030270271 37:0.023783784 38:0.0010810811 39:0.084324323 40:0.0075675678 #CLAA_LYCES                    
2 1:0.056568626 2:0.06828431 3:0.04980392 4:0.019436274 5:0.039068628 6:0.0073039215 7:0.030245097 8:0.088823527 9:0.051397059 10:0.041985296 11:0.06134804 12:0.047499999 13:0.020612745 14:0.022058824 15:0.061519608 16:0.085098036 17:0.042867646 18:0.067941174 19:0.0377451 20:0.059877452 21:0.05896806 22:0.073710077 23:0.019656019 24:0.054054055 25:0.071253069 26:0.054054055 27:0.041769043 28:0.085995086 29:0.05896806 30:0.034398034 31:0.05896806 32:0.05896806 33:0.06388206 34:0.06142506 35:0.039312039 36:0.051597051 37:0.0049140048 38:0.0049140048 39:0.081081077 40:0.022113021 #DNAJ1_ARATH                   
-1.3454735544136668945469637037604 1:0.079336099 2:0.086825728 3:0.040311202 4:0.019481327 5:0.034605809 6:0.0061618257 7:0.034751039 8:0.067033194 9:0.068360999 10:0.039626557 11:0.076099582 12:0.061846472 13:0.015580913 14:0.028319502 15:0.038153525 16:0.063236512 17:0.033319503 18:0.050394192 19:0.049460582 20:0.041244812 21:0.062370062 22:0.047817048 23:0.033264033 24:0.047817048 25:0.056133058 26:0.051975053 27:0.043659043 28:0.072765075 29:0.081081077 30:0.033264033 31:0.064449064 32:0.079002082 33:0.085239083 34:0.047817048 35:0.033264033 36:0.043659043 37:0.016632017 38:0.01039501 39:0.06860707 40:0.02079002 #SQD1_SPIOL                    
-1.8504330162411961602231258439133 1:0.063524902 2:0.073544063 3:0.080536395 4:0.023390805 5:0.041513409 6:0.0074137929 7:0.034463603 8:0.07729885 9:0.076666668 10:0.041609194 11:0.069616862 12:0.051149424 13:0.015823755 14:0.017337164 15:0.053141762 16:0.063314177 17:0.026494253 18:0.055517241 19:0.049521074 20:0.06277778 21:0.063339733 22:0.04606526 23:0.017274473 24:0.069097891 25:0.04990403 26:0.047984645 27:0.032629557 28:0.086372361 29:0.053742804 30:0.030710172 31:0.071017273 32:0.072936662 33:0.067178503 34:0.071017273 35:0.042226486 36:0.059500959 37:0.02303263 38:0.007677543 39:0.076775432 40:0.011516315 #GLGL1_BETVU                   
-1.2856062799570953103511783410795 1:0.077176474 2:0.077529415 3:0.058882352 4:0.016235294 5:0.034176469 6:0.0047647059 7:0.020117648 8:0.072529413 9:0.081352942 10:0.023176471 11:0.11029412 12:0.050352942 13:0.017999999 14:0.028000001 15:0.086647056 16:0.080941178 17:0.034411766 18:0.042470589 19:0.039999999 20:0.029764706 21:0.082840234 22:0.07692308 23:0.035502959 24:0.029585799 25:0.059171598 26:0.023668639 27:0.029585799 28:0.1183432 29:0.071005918 30:0.023668639 31:0.082840234 32:0.07692308 33:0.065088756 34:0.053254437 35:0.029585799 36:0.035502959 37:0.01183432 38:0.0059171598 39:0.071005918 40:0.01775148 #RK18_ARATH                    
1.6905058311098128953631203330588 1:0.063814811 2:0.076148145 3:0.059296295 4:0.018999999 5:0.060074072 6:0.012222222 7:0.021555556 8:0.060962964 9:0.033925924 10:0.045222223 11:0.066370368 12:0.066370368 13:0.0077407407 14:0.013888889 15:0.057185184 16:0.13255556 17:0.052962963 18:0.040407408 19:0.053333335 20:0.028629629 21:0.15241636 22:0.03717472 23:0.01858736 24:0.026022306 25:0.03717472 26:0.044609666 27:0.063197024 28:0.074349441 29:0.055762082 30:0.029739777 31:0.029739777 32:0.070631973 33:0.089219332 34:0.070631973 35:0.048327137 36:0.059479553 37:0.011152416 38:0.014869888 39:0.055762082 40:0.011152416 #RT01_MARPO                    
1.6554073256408519121407607599394 1:0.071822919 2:0.10411458 3:0.087812498 4:0.02515625 5:0.060729168 6:0.00083333335 7:0.0059895832 8:0.042187501 9:0.05828125 10:0.033854168 11:0.10328125 12:0.049062502 13:0.032656249 14:0.0060416665 15:0.084218748 16:0.055260416 17:0.045625001 18:0.069322914 19:0.040208332 20:0.023489583 21:0.057591625 22:0.078534029 23:0 24:0.020942409 25:0.062827222 26:0.041884817 27:0.047120418 28:0.083769634 29:0.05235602 30:0.015706806 31:0.062827222 32:0.078534029 33:0.13089006 34:0.083769634 35:0.020942409 36:0.057591625 37:0.02617801 38:0 39:0.041884817 40:0.036649216 #MI25_ARATH                    
1.5192294892579649712160971830599 1:0.051883116 2:0.082662337 3:0.092077926 4:0.025454545 5:0.011883117 6:0.0042207791 7:0.018701298 8:0.086298704 9:0.055324674 10:0.025844157 11:0.071428575 12:0.054155845 13:0.0053246752 14:0.029285714 15:0.13324675 16:0.077467531 17:0.061493505 18:0.039805196 19:0.03051948 20:0.040324677 21:0.078431375 22:0.13071896 23:0.045751635 24:0.03267974 25:0.052287582 26:0.039215688 27:0.052287582 28:0.045751635 29:0.05882353 30:0.013071896 31:0.052287582 32:0.071895428 33:0.11111111 34:0.045751635 35:0.026143791 36:0.013071896 37:0 38:0 39:0.11111111 40:0.019607844 #RT13_ARATH                    
-1.1673993138758398391274795358186 1:0.058453236 2:0.064784169 3:0.075000003 4:0.015611511 5:0.015071942 6:0.0079856114 7:0.029820144 8:0.11960432 9:0.064712234 10:0.0552518 11:0.058057554 12:0.053992804 13:0.010539568 14:0.031223021 15:0.10417266 16:0.088381298 17:0.017985612 18:0.03230216 19:0.050791368 20:0.028741008 21:0.068592057 22:0.11552346 23:0.025270758 24:0.032490976 25:0.0433213 26:0.061371841 27:0.025270758 28:0.050541516 29:0.054151624 30:0.025270758 31:0.061371841 32:0.061371841 33:0.079422385 34:0.079422385 35:0.061371841 36:0.018050542 37:0.0072202166 38:0.010830325 39:0.11191336 40:0.0072202166 #RK2_CHLRE                     
-0.74113698555119178479344554943964 1:0.088749997 2:0.063357145 3:0.043321427 4:0.022214286 5:0.029821429 6:0.0023928571 7:0.014464286 8:0.037 9:0.095071428 10:0.10514285 11:0.13328572 12:0.060035713 13:0.0092142858 14:0.0098928567 15:0.034928571 16:0.065499999 17:0.045607142 18:0.054499999 19:0.028214285 20:0.029357143 21:0.071684591 22:0.032258064 23:0.0071684588 24:0.032258064 25:0.053763442 26:0.021505376 27:0.05734767 28:0.14336918 29:0.053763442 30:0.017921148 31:0.11469534 32:0.089605734 33:0.068100356 34:0.028673835 35:0.11827957 36:0.028673835 37:0.021505376 38:0 39:0.032258064 40:0.0071684588 #BCCP_ARATH                    
-0.46040865199598396406699407634733 1:0.045533981 2:0.10038835 3:0.11019418 4:0.026796117 5:0.02776699 6:0 7:0.024466019 8:0.050194174 9:0.045436893 10:0.046504855 11:0.071067959 12:0.051165048 13:0.00019417476 14:0.00038834952 15:0.1015534 16:0.13165049 17:0.066019416 18:0.035242718 19:0.053203885 20:0.011359223 21:0.13725491 22:0.088235296 23:0 24:0.0098039219 25:0.019607844 26:0.039215688 27:0.068627454 28:0.05882353 29:0.05882353 30:0.029411765 31:0.078431375 32:0.068627454 33:0.068627454 34:0.098039217 35:0.049019609 36:0.029411765 37:0.019607844 38:0 39:0.078431375 40:0 #RR18_CHLVU                    
2 1:0.059652511 2:0.09169884 3:0.052316602 4:0.028243244 5:0.037027027 6:0.0054633203 7:0.039864864 8:0.072567567 9:0.089768343 10:0.045888029 11:0.070135131 12:0.049806949 13:0.012355212 14:0.0238417 15:0.052953668 16:0.067683399 17:0.031853281 18:0.061698843 19:0.040154438 20:0.049324322 21:0.08510638 22:0.038684718 23:0.021276595 24:0.050290134 25:0.063829787 26:0.034816246 27:0.034816246 28:0.081237912 29:0.050290134 30:0.0483559 31:0.092843324 32:0.077369437 33:0.090909094 34:0.04255319 35:0.0483559 36:0.038684718 37:0.023210831 38:0.0058027077 39:0.067698263 40:0.0038684721 #GLYM_PEA                      
1.8457992396211932994987137135467 1:0.10514563 2:0.077669904 3:0.068883494 4:0.032621358 5:0.020873787 6:0.0074757282 7:0.017621359 8:0.067281552 9:0.074368931 10:0.027038835 11:0.077961162 12:0.059320386 13:0.011650485 14:0.023495145 15:0.063349515 16:0.060728155 17:0.042718448 18:0.056262136 19:0.032669902 20:0.051310681 21:0.063414633 22:0.063414633 23:0.024390243 24:0.048780486 25:0.058536585 26:0.029268293 27:0.053658538 28:0.087804876 29:0.068292685 30:0.019512195 31:0.048780486 32:0.11707317 33:0.053658538 34:0.078048781 35:0.029268293 36:0.014634146 37:0.03902439 38:0.0097560976 39:0.082926832 40:0.0097560976 #UMP3_ARATH                    
1.4198364395107596624967527532135 1:0.070375279 2:0.082803532 3:0.069845475 4:0.029050773 5:0.030750552 6:0.0078366445 7:0.028675497 8:0.072891831 9:0.082406178 10:0.041015454 11:0.075761586 12:0.05651214 13:0.01392936 14:0.028278146 15:0.054635763 16:0.057306845 17:0.030286975 18:0.069514349 19:0.038896248 20:0.04624724 21:0.061946902 22:0.057522126 23:0.028761063 24:0.039823011 25:0.086283185 26:0.039823011 27:0.03318584 28:0.061946902 29:0.055309735 30:0.030973451 31:0.079646021 32:0.088495575 33:0.075221241 34:0.057522126 35:0.03539823 36:0.022123894 37:0.044247787 38:0.0088495575 39:0.079646021 40:0.013274336 #NFS1_ARATH                    
-2 1:0.080235295 2:0.091193274 3:0.059243698 4:0.022756303 5:0.039714284 6:0.0044705882 7:0.02964706 8:0.071966387 9:0.081747897 10:0.050621849 11:0.072571427 12:0.054134455 13:0.01497479 14:0.019092437 15:0.046840336 16:0.057361346 17:0.026890757 18:0.067613445 19:0.043714285 20:0.046487395 21:0.062289562 22:0.033670034 23:0.016835017 24:0.055555556 25:0.067340069 26:0.052188553 27:0.028619528 28:0.063973062 29:0.058922559 30:0.030303031 31:0.085858583 32:0.079124577 33:0.0976431 34:0.063973062 35:0.043771043 36:0.047138046 37:0.025252525 38:0.0016835016 39:0.077441074 40:0.0084175086 #THD1_LYCES                    
-0.93087640640129454272511111412314 1:0.068677045 2:0.10774319 3:0.027665369 4:0.022957198 5:0.047276266 6:0.0049805446 7:0.032023348 8:0.059455253 9:0.07871595 10:0.035214007 11:0.084085606 12:0.031595331 13:0.012101167 14:0.032451361 15:0.041984435 16:0.069455251 17:0.03844358 18:0.08151751 19:0.045992218 20:0.05377432 21:0.0703125 22:0.03515625 23:0.04296875 24:0.046875 25:0.08984375 26:0.04296875 27:0.03515625 28:0.08984375 29:0.01171875 30:0.04296875 31:0.08984375 32:0.08203125 33:0.10546875 34:0.04296875 35:0.0390625 36:0.05078125 37:0.00390625 38:0.00390625 39:0.05859375 40:0.0078125 #FRI2_SOYBN                    
-0.88034593357316925921196570925531 1:0.071111113 2:0.081481479 3:0.08296296 4:0.046620369 5:0.039583333 6:0.017407408 7:0.035648149 8:0.070925929 9:0.070231482 10:0.056064814 11:0.058333334 12:0.044259258 13:0.013425926 14:0.019351851 15:0.046388891 16:0.043981481 17:0.032546297 18:0.068379633 19:0.026944444 20:0.069444448 21:0.027906977 22:0.055813953 23:0.023255814 24:0.069767445 25:0.08372093 26:0.018604651 27:0.013953488 28:0.041860465 29:0.060465116 30:0.041860465 31:0.065116279 32:0.069767445 33:0.079069771 34:0.088372096 35:0.055813953 36:0.051162791 37:0.051162791 38:0.023255814 39:0.065116279 40:0.013953488 #CLPP_MAIZE                    
1.1234836313230822657516227991437 1:0.048199609 2:0.11821917 3:0.091135032 4:0.0077103716 5:0.044246577 6:0.0011937377 7:0.033346381 8:0.021409001 9:0.02001957 10:0.021174168 11:0.10303327 12:0.049863014 13:0.0085322894 14:0.017181996 15:0.063013695 16:0.11520548 17:0.046536203 18:0.049784735 19:0.093992174 20:0.034716241 21:0.12941177 22:0.041176472 23:0.015686275 24:0.029411765 25:0.047058824 26:0.10196079 27:0.041176472 28:0.12352941 29:0.047058824 30:0.035294119 31:0.025490196 32:0.047058824 33:0.12156863 34:0.094117649 35:0.015686275 36:0.054901961 37:0.0039215689 38:0 39:0.01372549 40:0.011764706 #RT04_PROWI                    
1.0363084666289006374739756211056 1:0.0447 2:0.1012 3:0.073639996 4:0.01108 5:0.046859998 6:0.0082200002 7:0.051320001 8:0.033 9:0.03864 10:0.024080001 11:0.10838 12:0.034540001 13:0.01196 14:0.01486 15:0.053959999 16:0.099600002 17:0.038339999 18:0.044539999 19:0.1019 20:0.033240002 21:0.10420842 22:0.042084169 23:0.014028057 24:0.034068137 25:0.036072146 26:0.12024048 27:0.044088177 28:0.1262525 29:0.028056113 30:0.058116231 31:0.032064129 32:0.042084169 33:0.094188377 34:0.076152302 35:0.022044089 36:0.062124249 37:0.0080160322 38:0.0080160322 39:0.032064129 40:0.016032064 #RT03_PROWI                    
2 1:0.043896846 2:0.068395413 3:0.045243554 4:0.015759312 5:0.044383954 6:0.012148997 7:0.015530086 8:0.078338109 9:0.082320914 10:0.05948424 11:0.086733527 12:0.050401147 13:0.016991405 14:0.024040114 15:0.085042983 16:0.084011458 17:0.028767908 18:0.035816617 19:0.027191978 20:0.028424069 21:0.10057471 22:0.080459774 23:0.017241379 24:0.028735632 25:0.022988506 26:0.020114943 27:0.034482758 28:0.11206897 29:0.054597702 30:0.0086206896 31:0.097701147 32:0.05172414 33:0.071839079 34:0.043103449 35:0.063218392 36:0.057471264 37:0.020114943 38:0.011494253 39:0.08908046 40:0.014367816 #RM02_ARATH                    
-1.1778788549414338504561783338431 1:0.0532852 2:0.085379064 3:0.039097473 4:0.012454874 5:0.031335741 6:0.0060288808 7:0.019638989 8:0.090794221 9:0.095090255 10:0.053754512 11:0.086064979 12:0.053574007 13:0.011083033 14:0.015667871 15:0.071768954 16:0.093465701 17:0.040216606 18:0.040036101 19:0.040866427 20:0.018231047 21:0.090579711 22:0.079710148 23:0.0072463769 24:0.014492754 25:0.047101449 26:0.032608695 27:0.054347824 28:0.097826086 29:0.057971016 30:0.014492754 31:0.10507246 32:0.043478262 33:0.10144927 34:0.032608695 35:0.057971016 36:0.032608695 37:0.014492754 38:0.0036231885 39:0.10144927 40:0.010869565 #RK15_ARATH                    
-0.79823863871350919652059019426815 1:0.035366569 2:0.12310851 3:0.092346042 4:0.01255132 5:0.053431086 6:0.017067449 7:0.042170089 8:0.03175953 9:0.034193549 10:0.02234604 11:0.077448681 12:0.035454545 13:0.012316716 14:0.027917888 15:0.058093842 16:0.058944281 17:0.039941348 18:0.04653959 19:0.068093844 20:0.036451612 21:0.097058825 22:0.050000001 23:0.01764706 24:0.026470589 25:0.044117648 26:0.079411767 27:0.047058824 28:0.088235296 29:0.035294119 30:0.050000001 31:0.026470589 32:0.023529412 33:0.1382353 34:0.12352941 35:0.026470589 36:0.064705886 37:0.0088235298 38:0.01764706 39:0.026470589 40:0.0088235298 #TILS_CHAGL                    
-0.71903554417812010068900008263881 1:0.0396627 2:0.10785715 3:0.064801589 4:0.0059325397 5:0.11051587 6:0.0092460318 7:0.031071428 8:0.022460317 9:0.021150794 10:0.019166667 11:0.11371031 12:0.064186506 13:0.021150794 14:0.016527778 15:0.068095237 16:0.11577381 17:0.028452381 18:0.04892857 19:0.073452383 20:0.017857144 21:0.11928429 22:0.065606363 23:0.015904572 24:0.017892644 25:0.047713719 26:0.077534795 27:0.029821074 28:0.10934394 29:0.067594431 30:0.029821074 31:0.019880716 32:0.03777336 33:0.11332008 34:0.063618287 35:0.017892644 36:0.11729623 37:0.0019880715 38:0.0079522859 39:0.019880716 40:0.019880716 #TILS_CHLVU                    
1.698457069469330171784804406343 1:0.075180724 2:0.083674699 3:0.043132529 4:0.018313253 5:0.028373495 6:0.017710844 7:0.025903614 8:0.064759038 9:0.094457835 10:0.040903613 11:0.11433735 12:0.053192772 13:0.011024096 14:0.026746988 15:0.026024096 16:0.063072287 17:0.014277108 18:0.091867469 19:0.03626506 20:0.049819276 21:0.07272727 22:0.012121212 23:0.036363635 24:0.024242423 25:0.11515152 26:0.030303031 27:0.0060606059 28:0.15757576 29:0.042424243 30:0.018181818 31:0.096969694 32:0.07272727 33:0.084848486 34:0.048484847 35:0.048484847 36:0.030303031 37:0.018181818 38:0.018181818 39:0.054545455 40:0.012121212 #GCSH2_ARATH                   
1.7729771734443504627165566489566 1:0.078646079 2:0.086959623 3:0.070522562 4:0.02736342 5:0.034988124 6:0.0032541568 7:0.021401426 8:0.086745843 9:0.10168646 10:0.028954869 11:0.048052255 12:0.0412114 13:0.013325416 14:0.015106888 15:0.041330166 16:0.078931116 17:0.038978621 18:0.065534443 19:0.043847982 20:0.059239905 21:0.097619049 22:0.033333335 23:0.011904762 24:0.06666667 25:0.069047622 26:0.040476192 27:0.035714287 28:0.047619049 29:0.035714287 30:0.014285714 31:0.10238095 32:0.097619049 33:0.092857145 34:0.069047622 35:0.028571429 36:0.028571429 37:0.026190476 38:0.0023809525 39:0.08809524 40:0.011904762 #SUCB_ARATH                    
2 1:0.067865856 2:0.089471541 3:0.061646342 4:0.031991869 5:0.036930893 6:0.0054268292 7:0.017825203 8:0.077154472 9:0.10071138 10:0.042947154 11:0.065487802 12:0.059349593 13:0.011402439 14:0.023943089 15:0.042052846 16:0.062215447 17:0.035772357 18:0.063536584 19:0.057317074 20:0.040365852 21:0.057026476 22:0.048879836 23:0.024439918 24:0.030549899 25:0.071283095 26:0.054989818 27:0.03258656 28:0.069246434 29:0.075356416 30:0.01629328 31:0.10183299 32:0.075356416 33:0.089613035 34:0.048879836 35:0.042769857 36:0.034623217 37:0.022403259 38:0.00407332 39:0.081466392 40:0.018329939 #FUM1_ARATH                    
-1.8570908282315359283387579125701 1:0.08766114 2:0.097863719 3:0.058213629 4:0.029668508 5:0.020018416 6:0.0069797421 7:0.012173112 8:0.052302025 9:0.090920813 10:0.029465931 11:0.089650095 12:0.043627992 13:0.016022099 14:0.023480663 15:0.065469615 16:0.070976056 17:0.02955801 18:0.0826151 19:0.038674034 20:0.040073663 21:0.060885608 22:0.064575642 23:0.025830258 24:0.033210333 25:0.088560887 26:0.042435423 27:0.033210333 28:0.095940962 29:0.047970481 30:0.012915129 31:0.090405904 32:0.092250921 33:0.090405904 34:0.055350553 35:0.031365313 36:0.018450184 37:0.031365313 38:0.0055350554 39:0.059040591 40:0.020295203 #HEM11_ARATH                   
-0.8532204485337889776630504456989 1:0.073857442 2:0.095429771 3:0.073123686 4:0.019643607 5:0.030775681 6:0.01542977 7:0.020985326 8:0.065220125 9:0.095366873 10:0.062914044 11:0.073354296 12:0.045262054 13:0.016016772 14:0.023563942 15:0.035660379 16:0.067924529 17:0.029916143 18:0.060377359 19:0.033312369 20:0.051383648 21:0.065126054 22:0.044117648 23:0.021008404 24:0.050420169 25:0.063025214 26:0.035714287 27:0.033613447 28:0.067226894 29:0.044117648 30:0.018907564 31:0.098739497 32:0.081932776 33:0.094537817 34:0.067226894 35:0.067226894 36:0.029411765 37:0.016806724 38:0.016806724 39:0.071428575 40:0.012605042 #DXR_ARATH                     
-0.42719537986362488002356485594646 1:0.074316546 2:0.082014389 3:0.052398082 4:0.025923261 5:0.026810551 6:0.0086091124 7:0.034244604 8:0.07038369 9:0.11884892 10:0.075179853 11:0.065803356 12:0.033932853 13:0.021270983 14:0.015923262 15:0.073429257 16:0.044772182 17:0.024532374 18:0.055467624 19:0.031414866 20:0.05853717 21:0.045673076 22:0.067307696 23:0.01923077 24:0.069711536 25:0.060096152 26:0.024038462 27:0.021634616 28:0.069711536 29:0.03846154 30:0.036057692 31:0.13221154 32:0.07692308 33:0.081730768 34:0.045673076 35:0.07932692 36:0.01923077 37:0.024038462 38:0.009615385 39:0.064903848 40:0.014423077 #HEM2_SELMA                    
1.4186067385130229911993637870182 1:0.04403061 2:0.11306123 3:0.093367346 4:0.017397959 5:0.031530611 6:0.0022448979 7:0.030867347 8:0.042142857 9:0.029387755 10:0.041989796 11:0.066071428 12:0.046989795 13:0.0087244902 14:0.024438776 15:0.088673472 16:0.09035714 17:0.055612244 18:0.038316328 19:0.053418368 20:0.036734693 21:0.13846155 22:0.051282052 23:0.015384615 24:0.041025642 25:0.030769231 26:0.082051285 27:0.087179489 28:0.061538462 29:0.041025642 30:0.030769231 31:0.020512821 32:0.051282052 33:0.11794872 34:0.087179489 35:0.025641026 36:0.06666667 37:0.015384615 38:0.0051282053 39:0.015384615 40:0.015384615 #RT04_MARPO                    
1.7737884275389144139722930049174 1:0.037955802 2:0.11395027 3:0.077154696 4:0.020911602 5:0.035497237 6:0.010386741 7:0.028480664 8:0.048259668 9:0.021657459 10:0.040745858 11:0.076629832 12:0.049364641 13:0.013508287 14:0.028674033 15:0.11718232 16:0.092182323 17:0.038121548 18:0.04262431 19:0.055 20:0.028729282 21:0.091412745 22:0.11911357 23:0.030470913 24:0.024930747 25:0.047091413 26:0.047091413 27:0.036011081 28:0.074792244 29:0.055401661 30:0.036011081 31:0.013850415 32:0.030470913 33:0.14127424 34:0.083102494 35:0.041551247 36:0.044321328 37:0.016620498 38:0.013850415 39:0.038781162 40:0.013850415 #RT04_ARATH                    
1.11000028321104737827340613876 1:0.047478262 2:0.096869566 3:0.052565217 4:0.019173913 5:0.037130434 6:0.016391305 7:0.032217391 8:0.063391306 9:0.077130437 10:0.023565218 11:0.086217389 12:0.039130434 13:0.023869565 14:0.026043478 15:0.11143478 16:0.076826088 17:0.023695651 18:0.050130434 19:0.053304348 20:0.025173914 21:0.096069872 22:0.10043668 23:0.030567685 24:0.030567685 25:0.048034936 26:0.048034936 27:0.021834061 28:0.091703057 29:0.03930131 30:0.034934498 31:0.065502182 32:0.043668121 33:0.1048035 34:0.069868997 35:0.021834061 36:0.030567685 37:0.017467249 38:0.017467249 39:0.052401748 40:0.034934498 #RT07_MARPO                    
-1.1477181375444558408815964867244 1:0.054812498 2:0.075312503 3:0.07175 4:0.032937501 5:0.026249999 6:0.011 7:0.052250002 8:0.042125002 9:0.071249999 10:0.036562499 11:0.0691875 12:0.043812498 13:0.015625 14:0.021062501 15:0.0760625 16:0.1206875 17:0.0290625 18:0.052187499 19:0.046812501 20:0.0315625 21:0.11320755 22:0.069182388 23:0.018867925 24:0.025157232 25:0.062893085 26:0.050314464 27:0.031446543 28:0.08176101 29:0.044025157 30:0.088050313 31:0.062893085 32:0.044025157 33:0.075471699 34:0.069182388 35:0.031446543 36:0.018867925 37:0.025157232 38:0.006289308 39:0.056603774 40:0.025157232 #RK22_ARATH                    
-0.8862805022571191848612670582952 1:0.052111112 2:0.13511111 3:0.060666665 4:0.014222222 5:0.041999999 6:0.0046666665 7:0.032222223 8:0.041888889 9:0.021777777 10:0.0082222223 11:0.091111109 12:0.034777779 13:0.0028888888 14:0.023444444 15:0.11288889 16:0.12722223 17:0.045666665 18:0.068111114 19:0.04588889 20:0.027777778 21:0.15730338 22:0.10112359 23:0.02247191 24:0.02247191 25:0.078651689 26:0.056179777 27:0.033707865 28:0.078651689 29:0.044943821 30:0.033707865 31:0.011235955 32:0.044943821 33:0.14606741 34:0.067415729 35:0 36:0.044943821 37:0 38:0 39:0.044943821 40:0.011235955 #RR15_SPIOL                    
-1.0166530353753520099502338780439 1:0.045219298 2:0.10377193 3:0.083640352 4:0.015350877 5:0.019692982 6:0.0015350877 7:0.036885966 8:0.046842106 9:0.027807018 10:0.035877194 11:0.061096489 12:0.039210528 13:0.0062280702 14:0.020131579 15:0.091271929 16:0.075482458 17:0.053464912 18:0.037807018 19:0.053070176 20:0.025657894 21:0.088105723 22:0.12334802 23:0.026431719 24:0.048458152 25:0.026431719 26:0.048458152 27:0.06167401 28:0.06167401 29:0.035242289 30:0.039647575 31:0.026431719 32:0.044052862 33:0.11013216 34:0.10132159 35:0.06167401 36:0.022026431 37:0.022026431 38:0.0044052862 39:0.039647575 40:0.0088105723 #RR4_PINKO                     
1.70824092897893775599982291169 1:0.0826158 2:0.07 3:0.059632152 4:0.025912806 5:0.030054497 6:0.0073160762 7:0.027656676 8:0.072275206 9:0.086335152 10:0.041662127 11:0.063228883 12:0.043160763 13:0.011811989 14:0.025326975 15:0.049250681 16:0.052234333 17:0.034128066 18:0.066321529 19:0.036716621 20:0.043147139 21:0.054570258 22:0.05047749 23:0.043656208 24:0.040927693 25:0.076398365 26:0.036834925 27:0.03956344 28:0.081855386 29:0.036834925 30:0.027285129 31:0.094133697 32:0.085948162 33:0.062755801 34:0.06139154 35:0.046384722 36:0.0313779 37:0.027285129 38:0.0095497956 39:0.081855386 40:0.010914052 #MCCA_ARATH                    
1.6698022011839541711708534421632 1:0.065408558 2:0.090622567 3:0.048754863 4:0.041050583 5:0.027276265 6:0.014396887 7:0.034280155 8:0.10326848 9:0.086342409 10:0.029377433 11:0.083774321 12:0.044591438 13:0.013968872 14:0.019805448 15:0.059455253 16:0.056926072 17:0.026459144 18:0.081167318 19:0.025992218 20:0.047198445 21:0.0625 22:0.05859375 23:0.02734375 24:0.05859375 25:0.07421875 26:0.02734375 27:0.03515625 28:0.0859375 29:0.05078125 30:0.02734375 31:0.09375 32:0.07421875 33:0.078125 34:0.0546875 35:0.02734375 36:0.0234375 37:0.0390625 38:0.0078125 39:0.08984375 40:0.00390625 #UMP6_ARATH                    
1.4427971696764005926638674282003 1:0.076725662 2:0.063362829 3:0.032477874 4:0.017699115 5:0.010353982 6:0.0088495575 7:0.022123894 8:0.099557519 9:0.14964601 10:0.031681415 11:0.090000004 12:0.03318584 13:0 14:0.0044247787 15:0.057522126 16:0.099557519 17:0.039823011 18:0.1039823 19:0.034690265 20:0.011061947 21:0.098214284 22:0.0625 23:0 24:0.0089285718 25:0.10714286 26:0.035714287 27:0.053571429 28:0.098214284 29:0.017857144 30:0.017857144 31:0.16071428 32:0.098214284 33:0.044642858 34:0.035714287 35:0.026785715 36:0.017857144 37:0.0089285718 38:0.0089285718 39:0.098214284 40:0 #UMP2_ARATH                    
-1.1865207197878218092768065616838 1:0.091083333 2:0.071666665 3:0.039000001 4:0.0265 5:0.039166667 6:0.0086666662 7:0.033500001 8:0.084833331 9:0.099333331 10:0.047583334 11:0.076333337 12:0.054083332 13:0.0125 14:0.02825 15:0.052666668 16:0.046750002 17:0.026666667 18:0.075750001 19:0.037916668 20:0.045083333 21:0.042016808 22:0.042016808 23:0.042016808 24:0.050420169 25:0.042016808 26:0.042016808 27:0.033613447 28:0.1092437 29:0.050420169 30:0.025210084 31:0.092436977 32:0.084033616 33:0.067226894 34:0.042016808 35:0.042016808 36:0.033613447 37:0.016806724 38:0.0084033618 39:0.11764706 40:0.016806724 #STR16_ARATH                   
-1.2936524884410547375779287904152 1:0.069929078 2:0.083546102 3:0.055780143 4:0.044556737 5:0.040212765 6:0.0049468083 7:0.012464539 8:0.083599292 9:0.081897162 10:0.031152483 11:0.077588655 12:0.051276594 13:0.010460993 14:0.011382978 15:0.055372339 16:0.079627663 17:0.045975178 18:0.058829788 19:0.040815603 20:0.050425533 21:0.085257553 22:0.065719359 23:0.0035523979 24:0.049733572 25:0.071047954 26:0.023090586 27:0.042628776 28:0.067495562 29:0.046181172 30:0.0088809943 31:0.090586148 32:0.09413854 33:0.087033749 34:0.046181172 35:0.039076377 36:0.028419184 37:0.044404972 38:0.005328597 39:0.092362344 40:0.0088809943 #SR54C_ARATH                   
-0.4378101982423721061365995410597 1:0.065965667 2:0.052918456 3:0.040686697 4:0.018197425 5:0.051416308 6:0.0073390556 7:0.022145923 8:0.084635191 9:0.07690987 10:0.036824033 11:0.074678108 12:0.054549355 13:0.013519313 14:0.012961374 15:0.057038628 16:0.065064378 17:0.041587982 18:0.082403436 19:0.047339056 20:0.058197424 21:0.021459227 22:0.077253222 23:0.0042918455 24:0.06437768 25:0.12446352 26:0.034334764 27:0.030042918 28:0.08583691 29:0.047210302 30:0.017167382 31:0.08583691 32:0.11158799 33:0.051502146 34:0.017167382 35:0.042918455 36:0.042918455 37:0.012875536 38:0.012875536 39:0.10729614 40:0.008583691 #ROC1_SPIOL                    
1.5271742317225183160900314760511 1:0.071443297 2:0.086958766 3:0.097113401 4:0.016907217 5:0.029536083 6:0.0040721651 7:0.031237114 8:0.074020617 9:0.031288661 10:0.046546392 11:0.056649484 12:0.058144331 13:0.0075773196 14:0.015927834 15:0.035412371 16:0.10989691 17:0.030773196 18:0.048659794 19:0.045876287 20:0.027731959 21:0.10362694 22:0.041450776 23:0.025906736 24:0.03626943 25:0.03626943 26:0.062176164 27:0.031088082 28:0.07772021 29:0.07772021 30:0.051813472 31:0.020725388 32:0.07253886 33:0.093264252 34:0.11398964 35:0.041450776 36:0.025906736 37:0 38:0 39:0.07253886 40:0.015544041 #RM06_PROWI                    
1.2655570661589721215278814270278 1:0.045499999 2:0.11495833 3:0.06491667 4:0.039250001 5:0.035958335 6:0 7:0.01725 8:0.037916668 9:0.086374998 10:0.034166668 11:0.040208332 12:0.036666665 13:0.0024166666 14:0.0066666668 15:0.054083332 16:0.129375 17:0.039958332 18:0.109625 19:0.025208334 20:0.077875003 21:0.12552302 22:0.058577407 23:0.0083682006 24:0.083682008 25:0.10460251 26:0.020920502 27:0.058577407 28:0.041841004 29:0.029288704 30:0.016736401 31:0.096234307 32:0.041841004 33:0.10041841 34:0.058577407 35:0.033472802 36:0.046025105 37:0.037656903 38:0 39:0.037656903 40:0 #ATP7_ARATH                    
1.2591180161767605572009642855846 1:0.06215569 2:0.061077844 3:0.050000001 4:0.019161677 5:0.04281437 6:0.017964073 7:0.047904193 8:0.039341316 9:0.077365272 10:0.034730539 11:0.050898202 12:0.046287425 13:0 14:0.0083832331 15:0.045209579 16:0.12724552 17:0.035928145 18:0.12664671 19:0.025149701 20:0.081736527 21:0.13173653 22:0.047904193 23:0.0059880242 24:0.095808387 25:0.11976048 26:0.023952097 27:0.029940119 28:0.053892214 29:0.041916169 30:0.047904193 31:0.077844314 32:0.053892214 33:0.059880238 34:0.059880238 35:0.035928145 36:0.041916169 37:0.011976048 38:0.017964073 39:0.041916169 40:0 #ATPQ_ARATH                    
-0.72377037566025748116516069785575 1:0.025031712 2:0.11054968 3:0.078456663 4:0.019323466 5:0.058012687 6:0.02255814 7:0.039999999 8:0.019154334 9:0.013128964 10:0.021775898 11:0.074482031 12:0.033551797 13:0.011606765 14:0.018224102 15:0.074376322 16:0.1048203 17:0.036807612 18:0.062135305 19:0.097103596 20:0.040803384 21:0.082627118 22:0.10805085 23:0.019067796 24:0.033898305 25:0.086864404 26:0.091101699 27:0.031779662 28:0.097457625 29:0.031779662 30:0.033898305 31:0.0084745763 32:0.023305085 33:0.12076271 34:0.06779661 35:0.023305085 36:0.065677963 37:0.016949153 38:0.025423728 39:0.019067796 40:0.012711864 #YCF1A_ANTFO                   
-0.67109890035651664774718483386096 1:0.030363636 2:0.12127273 3:0.09072727 4:0.042545453 5:0.042363636 6:0.024181819 7:0.07272727 8:0.048363637 9:0.0060000001 10:0.018181818 11:0.096909091 12:0.048545454 13:0.018181818 14:0 15:0.12727273 16:0.054545455 17:0.042545453 18:0.078909092 19:0.0060000001 20:0.030363636 21:0.055555556 22:0.12962963 23:0 24:0.037037037 25:0.09259259 26:0 27:0.055555556 28:0.09259259 29:0.055555556 30:0.074074075 31:0 32:0.037037037 33:0.12962963 34:0.074074075 35:0.018518519 36:0.037037037 37:0.037037037 38:0.018518519 39:0.037037037 40:0.018518519 #YCX1_CUSRE                    
-0.66778874313548608476764911756618 1:0.040551182 2:0.091338582 3:0.082598425 4:0.01015748 5:0.035826772 6:0.013149606 7:0.038661417 8:0.034724411 9:0.081653543 10:0.0066929134 11:0.059212599 12:0.050236221 13:0.0082677165 14:0.016535433 15:0.16047244 16:0.090787403 17:0.039291337 18:0.02488189 19:0.070551179 20:0.029212598 21:0.094488189 22:0.1496063 23:0.0078740157 24:0.023622047 25:0.039370079 26:0.078740157 27:0.039370079 28:0.062992126 29:0.039370079 30:0.05511811 31:0.070866145 32:0.023622047 33:0.078740157 34:0.14173229 35:0 36:0.062992126 37:0.0078740157 38:0.0078740157 39:0.015748031 40:0 #RK20_EPIVI                    
1.4110118090938736923334317907575 1:0.090934582 2:0.082242988 3:0.014953271 4:0.031775702 5:0.062336449 6:0.029906543 7:0.065420561 8:0.064766355 9:0.10906542 10:0.071028039 11:0.097850464 12:0.020560747 13:0.013084112 14:0.044859812 15:0.034859814 16:0.042990655 17:0.041121494 18:0.054205608 19:0.0093457941 20:0.018691588 21:0.047169812 22:0.028301887 23:0.047169812 24:0.018867925 25:0.056603774 26:0.0094339624 27:0.03773585 28:0.11320755 29:0.018867925 30:0.075471699 31:0.10377359 32:0.094339624 33:0.075471699 34:0.0094339624 35:0.075471699 36:0.066037737 37:0.028301887 38:0.028301887 39:0.056603774 40:0.0094339624 #M490_ARATH                    
1.3994215935008835760555712113273 1:0.040734176 2:0.048632912 3:0.02607595 4:0.018759493 5:0.025367089 6:0.007063291 7:0.040278479 8:0.099974684 9:0.06805063 10:0.15594937 11:0.089848101 12:0.04627848 13:0.010202532 14:0.012506329 15:0.058227848 16:0.032455698 17:0.047468353 18:0.039822783 19:0.04278481 20:0.040835444 21:0.027918782 22:0.071065992 23:0.020304568 24:0.038071066 25:0.038071066 26:0.081218272 27:0.04568528 28:0.083756343 29:0.02538071 30:0.04822335 31:0.063451774 32:0.038071066 33:0.05076142 34:0.027918782 35:0.17005076 36:0.02284264 37:0.02284264 38:0.010152284 39:0.10659899 40:0.007614213 #UMP1_ARATH                    
1.2183368720835276999281404641806 1:0.052127659 2:0.052872341 3:0.069680855 4:0.027234042 5:0.050744683 6:0.015957447 7:0.015957447 8:0.079042554 9:0.036063831 10:0.056808509 11:0.067765959 12:0.051276594 13:0.0077659576 14:0.03212766 15:0.11010639 16:0.13819149 17:0.012234042 18:0.037765957 19:0.045531914 20:0.02531915 21:0.13978495 22:0.16129032 23:0.010752688 24:0.032258064 25:0.032258064 26:0.032258064 27:0 28:0.064516127 29:0.043010753 30:0.010752688 31:0.021505376 32:0.053763442 33:0.053763442 34:0.064516127 35:0.043010753 36:0.096774191 37:0.010752688 38:0.021505376 39:0.086021505 40:0.021505376 #RT19_PETHY                    
-0.51427932874841431054591112115304 1:0.059716601 2:0.050607286 3:0.068825908 4:0.017206477 5:0.057692308 6:0.016194332 7:0.033400811 8:0.057692308 9:0.092105262 10:0.043522269 11:0.12854251 12:0.067813762 13:0.0050607286 14:0.012145749 15:0.058704454 16:0.040485829 17:0.046558704 18:0.06174089 19:0.037449393 20:0.044534411 21:0.044715445 22:0.056910571 23:0.012195121 24:0.040650405 25:0.065040648 26:0.036585364 27:0.048780486 28:0.13414635 29:0.073170729 30:0.032520324 31:0.085365854 32:0.056910571 33:0.048780486 34:0.069105692 35:0.044715445 36:0.060975611 37:0.016260162 38:0.016260162 39:0.05284553 40:0.0040650405 #THL1_ARATH                    
-0.93307815776726277245955998296267 1:0.046117648 2:0.068705879 3:0.097607844 4:0.010313725 5:0.034117647 6:0.013529412 7:0.035999998 8:0.057254903 9:0.044941176 10:0.024509804 11:0.048431374 12:0.036509804 13:0.0097647058 14:0.021607842 15:0.058784313 16:0.095529415 17:0.047843136 18:0.053921569 19:0.03435294 20:0.02345098 21:0.10236221 22:0.066929132 23:0.027559055 24:0.023622047 25:0.070866145 26:0.066929132 27:0.070866145 28:0.05905512 29:0.043307088 30:0.047244094 31:0.062992126 32:0.05905512 33:0.062992126 34:0.074803151 35:0.019685039 36:0.031496063 37:0.011811024 38:0.019685039 39:0.074803151 40:0.0039370079 #RR3_CHAGL                     
-0.62449683815586676249864694909775 1:0.03125 2:0.11013158 3:0.022500001 4:0.014802632 5:0.035131577 6:0.0016447369 7:0.0016447369 8:0.087236844 9:0.089934207 10:0.029605264 11:0.17809211 12:0.10256579 13:0.025197368 14:0.013157895 15:0.13815789 16:0.057039473 17:0.00875 18:0.0016447369 19:0.035131577 20:0.0082236845 21:0.059602648 22:0.13245033 23:0.013245033 24:0.013245033 25:0 26:0.039735101 27:0 28:0.17880794 29:0.11258278 30:0 31:0.086092718 32:0.033112582 33:0.1192053 34:0.019867551 35:0.026490066 36:0.039735101 37:0.0066225166 38:0 39:0.092715234 40:0.026490066 #RK34_SPIOL                    
1.4019245219275180414086889868486 1:0.044727273 2:0.11509091 3:0.067909092 4:0.027545454 5:0.064363636 6:0.011 7:0.025454545 8:0.031545453 9:0.033545453 10:0.038181819 11:0.057363637 12:0.056363635 13:0.0095454548 14:0.035363637 15:0.09290909 16:0.12172727 17:0.051272728 18:0.057454545 19:0.010454546 20:0.027181819 21:0.13761468 22:0.091743119 23:0.036697246 24:0.027522936 25:0.073394492 26:0.0091743115 27:0.036697246 28:0.04587156 29:0.055045873 30:0.036697246 31:0.0091743115 32:0.036697246 33:0.11926606 34:0.073394492 35:0.04587156 36:0.082568809 37:0.0091743115 38:0.018348623 39:0.04587156 40:0.0091743115 #RT10_PEA                      
1.3230497452505076694251329172403 1:0.034210525 2:0.059385967 3:0.04140351 4:0.023157895 5:0.043333333 6:0.009210526 7:0.040877193 8:0.11008772 9:0.090526313 10:0.055701755 11:0.04614035 12:0.065964915 13:0.017368421 14:0.02114035 15:0.022280702 16:0.14570175 17:0.029649124 18:0.053947367 19:0.047456142 20:0.040614035 21:0.1238938 22:0.026548672 23:0.017699115 24:0.03539823 25:0.061946902 26:0.053097345 27:0.03539823 28:0.044247787 29:0.053097345 30:0.053097345 31:0.13274336 32:0.026548672 33:0.07079646 34:0.026548672 35:0.07079646 36:0.03539823 37:0.0088495575 38:0.0088495575 39:0.097345136 40:0.017699115 #CYC2_ARATH                    
1.2930743189910887114280058085569 1:0.059906542 2:0.11084112 3:0.11785047 4:0.013738317 5:0.045140188 6:0.0080373827 7:0.03046729 8:0.015887851 9:0.019345794 10:0.03046729 11:0.09420561 12:0.046074767 13:0.013738317 14:0.046822429 15:0.045420561 16:0.11252336 17:0.064205609 18:0.02495327 19:0.039906543 20:0.042429905 21:0.11320755 22:0.03773585 23:0.056603774 24:0.056603774 25:0.028301887 26:0.03773585 27:0.075471699 28:0.094339624 29:0.028301887 30:0.028301887 31:0.0094339624 32:0.075471699 33:0.10377359 34:0.1509434 35:0.028301887 36:0.047169812 37:0.0094339624 38:0 39:0.0094339624 40:0.0094339624 #RT10_PROWI                    
-0.42502302494661847731549642048776 1:0.059192825 2:0.14260089 3:0.0071748877 4:0.022421524 5:0.011659193 6:0.017040359 7:0.010762332 8:0.078923769 9:0.19820628 10:0.062780268 11:0.093273543 12:0.046636771 13:0.0098654712 14:0.013452915 15:0.066367716 16:0.0098654712 17:0.066367716 18:0.032286994 19:0.012556054 20:0.038565021 21:0.0098743271 22:0.06642729 23:0.013464991 24:0.03859964 25:0.032315977 26:0.012567325 27:0.06642729 28:0.093357272 29:0.046678636 30:0.010771993 31:0.1983842 32:0.059245959 33:0.14272891 34:0.0071813287 35:0.062836625 36:0.011669659 37:0.021543985 38:0.017055655 39:0.078994617 40:0.0098743271 #TBC2_CHLRE                    
-0.38003103451959818759320341996499 1:0.067072347 2:0.09369041 3:0.0089736404 4:0.014402692 5:0.0097251823 6:0.010846888 7:0.01307908 8:0.09204711 9:0.2094055 10:0.091912508 11:0.080745935 12:0.056629278 13:0.0097251823 14:0.021121705 15:0.07238923 16:0.014969153 17:0.055154234 18:0.032176107 19:0.012153674 20:0.024340998 21:0.016273849 22:0.076318741 23:0.020763187 24:0.028058361 25:0.034231201 26:0.012345679 27:0.055555556 28:0.079124577 29:0.054994389 30:0.012345679 31:0.21156004 32:0.062850729 33:0.096520767 34:0.0089786761 35:0.085297421 36:0.01010101 37:0.014590348 38:0.011223344 39:0.098765433 40:0.01010101 #RAA3_CHLRE                    
-0.66512223051466601297931902081473 1:0.051098265 2:0.074624278 3:0.048670519 4:0.038034681 5:0.028901733 6:0.0057803467 7:0 8:0.031791907 9:0.13566475 10:0.044797689 11:0.10514451 12:0.04485549 13:0.0019075144 14:0.0077456646 15:0.11028901 16:0.092023119 17:0.041907515 18:0.11028901 19:0.010115607 20:0.014450867 21:0.11046512 22:0.098837212 23:0.011627907 24:0.017441861 25:0.098837212 26:0.0058139535 27:0.046511628 28:0.12790698 29:0.05232558 30:0 31:0.11046512 32:0.058139537 33:0.075581394 34:0.046511628 35:0.046511628 36:0.029069768 37:0.029069768 38:0.0058139535 39:0.029069768 40:0 #RK29_ARATH                    
0.98718120030847211765490101242904 1:0.060864866 2:0.068540543 3:0.068324327 4:0.040810812 5:0.031891894 6:0.018702703 7:0.034000002 8:0.078648649 9:0.061351351 10:0.040216215 11:0.065783784 12:0.054324325 13:0.014756757 14:0.019891892 15:0.10545946 16:0.095945947 17:0.033783782 18:0.041621622 19:0.014594595 20:0.015243243 21:0.081521742 22:0.13043478 23:0.016304348 24:0.021739131 25:0.032608695 26:0.016304348 27:0.038043477 28:0.086956523 29:0.054347824 30:0.038043477 31:0.076086953 32:0.059782609 33:0.070652172 34:0.048913043 35:0.038043477 36:0.032608695 37:0.027173912 38:0.016304348 39:0.086956523 40:0.027173912 #RM16_MAIZE                    
0.87659071047166736700972933249432 1:0.046184212 2:0.080460526 3:0.10072368 4:0.02375 5:0.018552631 6:0.0069078947 7:0.02493421 8:0.062828951 9:0.031907894 10:0.017039474 11:0.05480263 12:0.055657893 13:0.0125 14:0.015986843 15:0.081907898 16:0.065789476 17:0.02756579 18:0.039407894 19:0.043684211 20:0.022236843 21:0.12582782 22:0.072847679 23:0.019867551 24:0.019867551 25:0.033112582 26:0.039735101 27:0.033112582 28:0.1192053 29:0.033112582 30:0.033112582 31:0.033112582 32:0.046357617 33:0.086092718 34:0.086092718 35:0.013245033 36:0.059602648 37:0.019867551 38:0.0066225166 39:0.079470202 40:0.039735101 #RT08_MARPO                    
1.0814306488219700419506352773169 1:0.080693066 2:0.082376234 3:0.091188118 4:0.013366337 5:0.04940594 6:0.0026732674 7:0.039405942 8:0.085643567 9:0.046435643 10:0.052574258 11:0.044851486 12:0.037425742 13:0.015841585 14:0.015445544 15:0.047524754 16:0.12960397 17:0.035445545 18:0.062871285 19:0.039009903 20:0.023762377 21:0.14 22:0.029999999 23:0.029999999 24:0.0099999998 25:0.050000001 26:0.029999999 27:0.059999999 28:0.050000001 29:0.039999999 30:0.039999999 31:0.050000001 32:0.07 33:0.07 34:0.090000004 35:0.039999999 36:0.059999999 37:0.0099999998 38:0 39:0.079999998 40:0.050000001 #RM06_MARPO                    
-0.95800400234817251199359589008964 1:0.087364338 2:0.093023255 3:0.10085271 4:0.016821705 5:0.030852713 6:0.007751938 7:0.027519381 8:0.049922481 9:0.038914729 10:0.054108527 11:0.048449613 12:0.049069766 13:0.0046511628 14:0.013720931 15:0.098217055 16:0.10604651 17:0.043643411 18:0.056899223 19:0.045891471 20:0.020465117 21:0.1171875 22:0.078125 23:0.0234375 24:0.0234375 25:0.046875 26:0.03125 27:0.0546875 28:0.0546875 29:0.0625 30:0.0234375 31:0.0390625 32:0.0703125 33:0.1015625 34:0.109375 35:0.046875 36:0.0390625 37:0 38:0.0078125 39:0.0625 40:0.0078125 #RK19_PROWI                    
-0.7103467748577401152942911721766 1:0.055476189 2:0.095238097 3:0.115 4:0.033333335 5:0.024047619 6:0.0058333334 7:0.034642857 8:0.069761902 9:0.0090476191 10:0.025238095 11:0.077619046 12:0.038333334 13:0.0051190476 14:0.013333334 15:0.11119048 16:0.083571427 17:0.013333334 18:0.06583333 19:0.049285714 20:0.071190476 21:0.084337346 22:0.096385539 23:0.012048192 24:0.060240965 25:0.048192769 26:0.072289154 27:0.012048192 28:0.072289154 29:0.036144577 30:0.048192769 31:0.024096385 32:0.060240965 33:0.10843374 34:0.12048193 35:0.024096385 36:0.012048192 37:0.024096385 38:0 39:0.060240965 40:0.024096385 #IF1C_SPIMX                    
-0.57622445411883527199847776500974 1:0.043506492 2:0.11857143 3:0.062207792 4:0.024675325 5:0.063896105 6:0.034285713 7:0.049350649 8:0.065454543 9:0.016623376 10:0.10376623 11:0.051168833 12:0.055324674 13:0.0085714282 14:0.0035064935 15:0.083376624 16:0.067142859 17:0.027792208 18:0.071688309 19:0.035194807 20:0.014805195 21:0.092105262 22:0.078947365 23:0.013157895 24:0 25:0.052631579 26:0.039473683 27:0.02631579 28:0.052631579 29:0.052631579 30:0.052631579 31:0.02631579 32:0.052631579 33:0.10526316 34:0.065789476 35:0.10526316 36:0.065789476 37:0.013157895 38:0.039473683 39:0.065789476 40:0 #YCF15_CUSRE                   
0.98560565828591983894568784307921 1:0.041058395 2:0.086240873 3:0.089197077 4:0.02350365 5:0.02689781 6:0.013868613 7:0.026751826 8:0.04678832 9:0.067883208 10:0.033211678 11:0.047737226 12:0.067080289 13:0.019562043 14:0.025948904 15:0.049452554 16:0.083613142 17:0.026277373 18:0.039671533 19:0.048248176 20:0.045948904 21:0.1025641 22:0.018315019 23:0.029304029 24:0.032967035 25:0.029304029 26:0.091575094 27:0.047619049 28:0.084249087 29:0.069597073 30:0.062271062 31:0.018315019 32:0.047619049 33:0.069597073 34:0.10622711 35:0.032967035 36:0.051282052 37:0.014652015 38:0.0073260074 39:0.051282052 40:0.032967035 #RT02_PROWI                    
-1.0217497439361282740577507865964 1:0.049971346 2:0.090573065 3:0.041404013 4:0.013381089 5:0.038653295 6:0.0037822349 7:0.024011461 8:0.067535818 9:0.087736391 10:0.055816621 11:0.067249283 12:0.046189111 13:0.0086532952 14:0.023868196 15:0.045386821 16:0.053696275 17:0.029570201 18:0.056819484 19:0.029111749 20:0.053638969 21:0.066091955 22:0.048850574 23:0.011494253 24:0.045977011 25:0.060344826 26:0.040229887 27:0.054597702 28:0.097701147 29:0.063218392 30:0.02586207 31:0.091954023 32:0.054597702 33:0.10057471 34:0.054597702 35:0.034482758 36:0.037356321 37:0.011494253 38:0.0086206896 39:0.083333336 40:0.0086206896 #TL29_ARATH                    
-0.50260190391874337567656993996934 1:0.052459676 2:0.086290322 3:0.04766129 4:0.013185484 5:0.035645161 6:0.026572581 7:0.035040323 8:0.07 9:0.092943549 10:0.041290324 11:0.057620969 12:0.039314516 13:0.0047983872 14:0.033870969 15:0.022177419 16:0.063145161 17:0.035403226 18:0.048749998 19:0.059637096 20:0.036854837 21:0.07692308 22:0.024291499 23:0.020242915 24:0.052631579 25:0.068825908 26:0.060728744 27:0.032388665 28:0.060728744 29:0.028340081 30:0.036437247 31:0.07692308 32:0.072874494 33:0.10121457 34:0.036437247 35:0.06477733 36:0.056680162 37:0.012145749 38:0.032388665 39:0.080971658 40:0.0040485831 #SODF_SOYBN                    
-1.6558291867224965709937123392592 1:0.065983824 2:0.10838275 3:0.055121295 4:0.026549865 5:0.034123991 6:0.0052021565 7:0.022884097 8:0.059757411 9:0.093045823 10:0.035175201 11:0.08336927 12:0.047358491 13:0.014312669 14:0.029245283 15:0.046738543 16:0.05638814 17:0.02819407 18:0.061428573 19:0.034339622 20:0.052075472 21:0.059459459 22:0.054054055 23:0.037837837 24:0.064864866 25:0.064864866 26:0.024324324 27:0.013513514 28:0.1027027 29:0.043243244 30:0.013513514 31:0.097297296 32:0.086486489 33:0.11621621 34:0.056756757 35:0.035135135 36:0.02972973 37:0.018918918 38:0.0027027028 39:0.062162161 40:0.016216217 #GGPPS_ARATH                   
0.78154908452912452698768674963503 1:0.050693952 2:0.073790036 3:0.075676158 4:0.014412811 5:0.061370108 6:0.0098754447 7:0.036227759 8:0.067188613 9:0.048701067 10:0.041619219 11:0.072081849 12:0.041725978 13:0.010978648 14:0.017330961 15:0.095658362 16:0.092935942 17:0.029377224 18:0.050836299 19:0.04628114 20:0.037544485 21:0.092691623 22:0.099821746 23:0.01604278 24:0.037433155 25:0.055258468 26:0.051693406 27:0.021390375 28:0.081996433 29:0.042780749 30:0.039215688 31:0.046345811 32:0.053475935 33:0.071301244 34:0.07486631 35:0.044563279 36:0.062388591 37:0.014260249 38:0.0089126555 39:0.071301244 40:0.014260249 #RT03_PETHY                    
-0.652762486424501631177008675877 1:0.044696968 2:0.049090911 3:0.078484848 4:0.021060606 5:0.01969697 6:0 7:0.035151515 8:0.046969697 9:0.033939395 10:0.028484849 11:0.057878789 12:0.079545453 13:0.061060607 14:0.038636364 15:0.10075758 16:0.14045455 17:0.023181818 18:0.058181819 19:0.065303028 20:0.016969698 21:0.12307692 22:0.10769231 23:0.030769231 24:0.015384615 25:0.046153847 26:0.07692308 27:0.015384615 28:0.061538462 29:0.061538462 30:0.046153847 31:0.046153847 32:0.061538462 33:0.061538462 34:0.092307694 35:0.030769231 36:0.015384615 37:0.015384615 38:0 39:0.030769231 40:0.061538462 #RK33_EPIVI                    
-0.63649970724481597095234519656515 1:0.050958082 2:0.072035931 3:0.092994012 4:0.034610778 5:0.053413175 6:0.0052694608 7:0.060958084 8:0.045209579 9:0.036706585 10:0.046526946 11:0.050000001 12:0.068682633 13:0.052994013 14:0.016646707 15:0.085089818 16:0.032514971 17:0.035089821 18:0.070239522 19:0.046227545 20:0.045928143 21:0.060240965 22:0.060240965 23:0.018072288 24:0.042168673 25:0.066265061 26:0.066265061 27:0.042168673 28:0.054216869 29:0.030120483 30:0.048192769 31:0.042168673 32:0.078313254 33:0.096385539 34:0.066265061 35:0.054216869 36:0.066265061 37:0.0060240962 38:0.0060240962 39:0.042168673 40:0.054216869 #NUIC_ADICA                    
-0.60729295957133100358760202652775 1:0.14762886 2:0.054948453 3:0.03783505 4:0.016907217 5:0.054639176 6:0.010309278 7:0.022680413 8:0.073505156 9:0.084432989 10:0.055463918 11:0.035876289 12:0.022061856 13:0.0041237115 14:0.023711341 15:0.052061856 16:0.1001031 17:0.022680413 18:0.10453608 19:0.013505154 20:0.05783505 21:0.072164945 22:0.072164945 23:0.020618556 24:0.06185567 25:0.10309278 26:0.010309278 27:0.030927835 28:0.010309278 29:0.020618556 30:0.020618556 31:0.12371134 32:0.15463917 33:0.051546391 34:0.020618556 35:0.06185567 36:0.072164945 37:0.010309278 38:0.010309278 39:0.06185567 40:0.010309278 #FTRV_MAIZE                    
-1.0821790003780558109269804845098 1:0.063625954 2:0.089656487 3:0.060458016 4:0.023854962 5:0.046106871 6:0.0021755726 7:0.02129771 8:0.075381681 9:0.068816796 10:0.045687024 11:0.087290078 12:0.049351145 13:0.0059923665 14:0.021603053 15:0.064083971 16:0.091030531 17:0.036908396 18:0.051641222 19:0.03591603 20:0.031603053 21:0.091954023 22:0.065134101 23:0.01532567 24:0.049808428 25:0.042145595 26:0.026819924 27:0.042145595 28:0.088122606 29:0.045977011 30:0.01532567 31:0.091954023 32:0.068965517 33:0.080459774 34:0.061302681 35:0.049808428 36:0.042145595 37:0.022988506 38:0 39:0.091954023 40:0.0076628351 #RK5_ARATH                     
-0.97150879342803586613541710903519 1:0.078388155 2:0.11069079 3:0.052730262 4:0.011348684 5:0.034967106 6:0.020953948 7:0.024769736 8:0.087565787 9:0.059342105 10:0.022500001 11:0.081710525 12:0.045460526 13:0.018124999 14:0.029111842 15:0.039013159 16:0.075559214 17:0.04430921 18:0.048157893 19:0.042335525 20:0.064671054 21:0.07920792 22:0.03960396 23:0.0330033 24:0.072607264 25:0.052805282 26:0.029702971 27:0.036303632 28:0.082508251 29:0.0330033 30:0.0330033 31:0.052805282 32:0.09570957 33:0.099009901 34:0.066006601 35:0.02310231 36:0.0330033 37:0.013201321 38:0.0099009899 39:0.10561056 40:0.0099009899 #HIS4_ARATH                    
-0.69351021784634636624389258940937 1:0.053571429 2:0.084375001 3:0.056294642 4:0.015491071 5:0.044196427 6:0.0093750004 7:0.033080358 8:0.06075893 9:0.034241073 10:0.046696428 11:0.11125 12:0.033482142 13:0.026473215 14:0.030357143 15:0.078705356 16:0.062678568 17:0.016964287 18:0.086651787 19:0.034508929 20:0.068839289 21:0.062780268 22:0.080717489 23:0.035874441 24:0.071748883 25:0.071748883 26:0.031390134 27:0.013452915 28:0.09865471 29:0.040358745 30:0.031390134 31:0.026905829 32:0.053811658 33:0.09865471 34:0.062780268 35:0.044843048 36:0.040358745 37:0.0044843052 38:0.013452915 39:0.080717489 40:0.035874441 #DCL_LYCES                     
-0.67020547217107706572392089583445 1:0.091769233 2:0.10061538 3:0.06769231 4:0.017538462 5:0.02 6:0.00092307694 7:0.0020769231 8:0.054000001 9:0.13653846 10:0.034307692 11:0.068769231 12:0.052692309 13:0.0013846154 14:0.0016153846 15:0.019307692 16:0.11076923 17:0.027538462 18:0.12030769 19:0.01823077 20:0.046076924 21:0.10852713 22:0.023255814 23:0 24:0.046511628 25:0.12403101 26:0 27:0.046511628 28:0.07751938 29:0.07751938 30:0 31:0.085271321 32:0.085271321 33:0.12403101 34:0.1007752 35:0.046511628 36:0.015503876 37:0 38:0 39:0.03875969 40:0 #RK12_PROWI                    
-0.4625137247050246647184224002558 1:0.040324483 2:0.13640118 3:0.097256638 4:0.025103245 5:0.066843659 6:0.038879056 7:0.038820058 8:0.058230087 9:0.050029498 10:0.022300884 11:0.095221236 12:0.057728615 13:0.010058997 14:0.025663717 15:0.023038348 16:0.036696166 17:0.022684366 18:0.027876107 19:0.047492627 20:0.014749262 21:0.041420117 22:0.029585799 23:0.035502959 24:0.023668639 25:0.026627218 26:0.062130179 27:0.020710059 28:0.1183432 29:0.041420117 30:0.026627218 31:0.041420117 32:0.041420117 33:0.13905326 34:0.12130178 35:0.026627218 36:0.047337279 37:0.020710059 38:0.047337279 39:0.073964499 40:0.0147929 #CCSA_ANTFO                    
-0.58379737399291098398634858313017 1:0.088128656 2:0.066081874 3:0.022807017 4:0.032163743 5:0.038011696 6:0.0046783625 7:0.010526316 8:0.058479533 9:0.15590644 10:0.053801168 11:0.035555556 12:0.098479532 13:0.015204678 14:0.021052632 15:0.059064329 16:0.047777779 17:0.068888888 18:0.038011696 19:0.043274853 20:0.033333335 21:0.070588239 22:0.064705886 23:0.023529412 24:0.052941177 25:0.035294119 26:0.01764706 27:0.052941177 28:0.047058824 29:0.088235296 30:0.011764706 31:0.14705883 32:0.10588235 33:0.070588239 34:0.011764706 35:0.05882353 36:0.047058824 37:0.029411765 38:0.0058823531 39:0.047058824 40:0.011764706 #GLB2_CHLEU                    
-1.135050223043679862300336935732 1:0.059200272 2:0.079138756 3:0.087218046 4:0.019699248 5:0.034012303 6:0.016466165 7:0.02923445 8:0.063923448 9:0.058065619 10:0.043581683 11:0.078202322 12:0.065871499 13:0.009815448 14:0.025700616 15:0.056015037 16:0.060471635 17:0.057252221 18:0.063766234 19:0.039685577 20:0.034771018 21:0.05745554 22:0.070451438 23:0.023255814 24:0.035567716 25:0.066347472 26:0.028043775 27:0.05882353 28:0.069767445 29:0.068399452 30:0.028043775 31:0.058139537 32:0.065663472 33:0.08344733 34:0.084815323 35:0.049931601 36:0.03146375 37:0.021203831 38:0.017783858 39:0.071819425 40:0.009575923 #RPOC2_NEPOL                   
-0.49992391808435931999099466338521 1:0.062192306 2:0.065384619 3:0.045153845 4:0.022 5:0.048769232 6:0.0038076923 7:0.023307692 8:0.077500001 9:0.068653844 10:0.039692309 11:0.09726923 12:0.053692307 13:0.015230769 14:0.019846154 15:0.049846154 16:0.064692311 17:0.039076924 18:0.066615388 19:0.043615386 20:0.048192307 21:0.077220075 22:0.046332046 23:0.011583012 24:0.03088803 25:0.084942088 26:0.061776061 27:0.034749035 28:0.12741312 29:0.065637067 30:0.019305019 31:0.061776061 32:0.081081077 33:0.077220075 34:0.054054055 35:0.03088803 36:0.042471044 37:0.011583012 38:0 39:0.073359072 40:0.0077220076 #RRP2_SPIOL                    
-0.76256546692237214823961721776868 1:0.084381446 2:0.08881443 3:0.053917527 4:0.024974227 5:0.032860823 6:0.010103093 7:0.028247423 8:0.079613402 9:0.076778352 10:0.078221649 11:0.071675256 12:0.057963919 13:0.009484536 14:0.028298968 15:0.059793815 16:0.040670104 17:0.025051547 18:0.050979383 19:0.043505155 20:0.047835052 21:0.04134367 22:0.054263566 23:0.036175709 24:0.04134367 25:0.056847546 26:0.043927647 27:0.018087855 28:0.082687341 29:0.059431523 30:0.031007752 31:0.062015504 32:0.082687341 33:0.082687341 34:0.054263566 35:0.082687341 36:0.036175709 37:0.023255814 38:0.010335918 39:0.087855294 40:0.012919896 #DAPA1_WHEAT                   
-0.60280799646543503644835482191411 1:0.032236025 2:0.072484471 3:0.031925466 4:0.01826087 5:0.034472048 6:0.015093167 7:0.043229815 8:0.048633542 9:0.068633541 10:0.065093167 11:0.10453416 12:0.051055901 13:0.0095031057 14:0.026273292 15:0.064472049 16:0.068571426 17:0.036832299 18:0.051242236 19:0.030062111 20:0.056086957 21:0.018750001 22:0.1 23:0.025 24:0.056249999 25:0.03125 26:0.0062500001 27:0.018750001 28:0.16875 29:0.087499999 30:0.043749999 31:0.0625 32:0.050000001 33:0.087499999 34:0.037500001 35:0.1 36:0.018750001 37:0.0125 38:0.0125 39:0.037500001 40:0.025 #DNJ11_ARATH                   
-0.62730793960331687753040341704036 1:0.052992702 2:0.11540146 3:0.086934306 4:0.016496351 5:0.041240875 6:0 7:0.020875912 8:0.026642336 9:0.027226277 10:0.055766422 11:0.074160583 12:0.037883211 13:0 14:0.00065693428 15:0.12868613 16:0.14737226 17:0.07386861 18:0.031167883 19:0.04751825 20:0.0099999998 21:0.16176471 22:0.13235295 23:0.0073529412 24:0.0073529412 25:0.029411765 26:0.029411765 27:0.073529415 28:0.05882353 29:0.044117648 30:0.029411765 31:0.022058824 32:0.05882353 33:0.11764706 34:0.073529415 35:0.066176474 36:0.036764707 37:0.0073529412 38:0 39:0.044117648 40:0 #RR18_CHLRE                    
-0.56460180477840993251703594069113 1:0.099428572 2:0.062057141 3:0.060742859 4:0.023371428 5:0.022514286 6:0.0011428571 7:0.026342858 8:0.033142857 9:0.15925714 10:0.055485714 11:0.079028569 12:0.042342857 13:0.022171428 14:0.015542857 15:0.10194286 16:0.080114283 17:0.029542858 18:0.033885714 19:0.025428571 20:0.021199999 21:0.068965517 22:0.1091954 23:0.017241379 24:0.022988506 25:0.057471264 26:0.017241379 27:0.022988506 28:0.063218392 29:0.034482758 30:0.017241379 31:0.18390805 32:0.10344828 33:0.063218392 34:0.040229887 35:0.057471264 36:0.022988506 37:0.022988506 38:0 39:0.040229887 40:0.034482758 #RK22_CHLRE                    
-0.92301990636762776265555885402136 1:0.073266335 2:0.095251255 3:0.045703519 4:0.029221106 5:0.031407036 6:0.014874372 7:0.049045227 8:0.048743717 9:0.089849249 10:0.040100504 11:0.060703516 12:0.043994974 13:0.015351758 14:0.005477387 15:0.079346731 16:0.050150752 17:0.029045226 18:0.059020102 19:0.035703517 20:0.061557788 21:0.070528969 22:0.080604531 23:0.0050377832 24:0.062972292 25:0.0604534 26:0.032745592 27:0.020151133 28:0.070528969 29:0.052896727 30:0.055415615 31:0.098236777 32:0.075566754 33:0.0906801 34:0.037783377 35:0.037783377 36:0.032745592 37:0.027707808 38:0.017632242 39:0.052896727 40:0.017632242 #PSY_DAUCA                     
-0.76360642231643394151063830577186 1:0.0486921 2:0.12613079 3:0.088119894 4:0.016948229 5:0.048419617 6:0.021253405 7:0.04441417 8:0.04561308 9:0.036485013 10:0.025640327 11:0.076512262 12:0.04839237 13:0.020844687 14:0.031362399 15:0.066267028 16:0.05773842 17:0.044877384 18:0.04839237 19:0.052806541 20:0.03384196 21:0.024590164 22:0.092896178 23:0.035519127 24:0.030054646 25:0.043715846 26:0.038251366 27:0.046448089 28:0.1010929 29:0.049180329 30:0.040983606 31:0.030054646 32:0.049180329 33:0.13114753 34:0.079234973 35:0.030054646 36:0.032786883 37:0.013661202 38:0.038251366 39:0.060109291 40:0.032786883 #TILS_NEPOL                    
-1.2952367797410242467037733149482 1:0.07740365 2:0.075882353 3:0.054016229 4:0.01841785 5:0.040933061 6:0.010933063 7:0.029350912 8:0.084543608 9:0.084300205 10:0.043651115 11:0.075131848 12:0.05030426 13:0.0096348887 14:0.013914808 15:0.04663286 16:0.062961459 17:0.024482759 18:0.061196756 19:0.030324543 20:0.044503044 21:0.056910571 22:0.054878049 23:0.014227643 24:0.044715445 25:0.06300813 26:0.022357723 27:0.028455285 28:0.071138211 29:0.056910571 30:0.034552846 31:0.11382114 32:0.075203255 33:0.079268292 34:0.056910571 35:0.054878049 36:0.046747968 37:0.010162601 38:0.012195121 39:0.093495935 40:0.010162601 #MDARP_ARATH                   
-0.56792659327485572884341991084511 1:0.085795455 2:0.090227276 3:0.065454543 4:0.015113636 5:0.048181817 6:0.0020454545 7:0.045681819 8:0.052499998 9:0.053409092 10:0.034204546 11:0.035568181 12:0.031590909 13:0.0094318185 14:0.0027272727 15:0.12659091 16:0.10068182 17:0.05409091 18:0.040340908 19:0.060227271 20:0.048295453 21:0.10344828 22:0.12643678 23:0 24:0.057471264 25:0.057471264 26:0.034482758 27:0.057471264 28:0.022988506 29:0.045977011 30:0.045977011 31:0.057471264 32:0.091954023 33:0.091954023 34:0.057471264 35:0.034482758 36:0.057471264 37:0 38:0 39:0.045977011 40:0.011494253 #RR16_SPIOL                    
-0.55551452047774130260648917101207 1:0.03939759 2:0.071927711 3:0.1053012 4:0.00012048193 5:0.083734937 6:0.023975903 7:0.03626506 8:0.080843374 9:0.037831325 10:0.055783134 11:0.13253012 12:0.073975906 13:0 14:0.012048192 15:0.080722891 16:0.0024096386 17:0.037108433 18:0.060843375 19:0.016385542 20:0.047831327 21:0 22:0.072289154 23:0.012048192 24:0.024096385 25:0.084337346 26:0.036144577 27:0.048192769 28:0.12048193 29:0.072289154 30:0.036144577 31:0.036144577 32:0.036144577 33:0.060240965 34:0.10843374 35:0.060240965 36:0.084337346 37:0 38:0.024096385 39:0.084337346 40:0 #PSBE_CUSGR                    
